-0.21105915
-3.54443026
-0.95176393
1.07009685
-1.09853935
-0.99117827
-2.86353683
7.10015821
-0.48273462
1.97298467
1.94046152
-0.96355903
4.12963820
2.72442269
-5.36759043
1.45140874
3.25788903
-4.74916601
1.10882807
-3.53233171
-1.90570509
4.24810171
0.42830324
0.47518191
-1.60422564
-0.95486093
-0.15496056
-0.39364108
0.18719727
-0.32539126
6.88333273
-6.50698423
0.31130642
-0.19344667
-4.02006531
1.34030080
2.01959276
1.10902154
-0.65729004
-0.28576979
-0.76165259
-3.95932770
0.42274874
-1.19244254
3.33736658
-1.16048431
0.15906592
1.01923490
0.23573405
1.89975488
-2.69850397
5.18709040
0.15749235
1.10781550
-1.84364831
-1.33534038
-1.42966890
0.08281573
0.61127329
0.16067198
-2.52794409
-2.81524754
-2.95272589
0.66087192
3.30941629
1.36020684
-1.59939134
1.58044100
1.21997118
1.76440048
-3.25554562
-1.11635876
-1.22611618
-0.45073146
1.47023368
1.18006754
-0.09071092
-0.35242608
0.13402519
3.70756006
0.90774655
-1.27291083
2.14606285
-2.64115357
0.66582805
0.10381112
2.55284333
-2.29370546
-0.26358742
0.09506371
-0.97606993
-3.54175425
-3.00894499
-2.07330823
1.71866035
-0.21132696
-1.40745211
3.80103779
0.35781491
5.34133911
6.63739157
-4.05829287
1.64635289
2.10539770
-3.04481697
2.72794437
-1.02968907
-2.69677806
2.17403936
-4.46154976
1.19931924
-1.03839612
1.25040591
0.21810749
-0.26565191
-1.04909968
1.87299740
-2.20411921
1.23012018
-1.21368647
-1.17945826
-4.02411795
-2.05577254
-1.29250610
2.71430802
-0.47539076
-1.28475654
2.32547283
0.31600958
4.95620775
6.68973112
-5.98268938
0.17575504
-0.85396153
-2.48953438
1.77557468
-1.74318063
-1.04543579
2.36962700
1.10411251
-2.66898012
5.50950480
0.05213584
1.71469390
-3.21025753
-0.92351937
-0.18132715
-0.77430838
0.28698951
0.19506851
0.79205561
-1.96822262
-0.24022637
2.29577756
-1.05118954
2.40018630
-1.09873235
-0.83175713
1.48746395
-1.78535616
-0.84229624
-4.43721819
-0.07690494
-0.68674272
2.21203923
-2.05589581
-0.78638047
2.19569254
0.45214891
4.02555513
0.67534280
-4.11291313
-1.19690144
2.87160468
-1.84691560
-0.86556602
-2.06173348
7.12709188
-1.23882163
0.64881122
-1.79726541
-1.48127365
-0.17000143
2.48162079
-1.29597867
1.34475470
2.10457635
-1.01607585
0.08356535
-0.25392315
-1.77186167
-3.26024437
-1.27235782
-0.23576960
4.65519619
0.26124763
-0.50603384
0.09484621
-0.44313371
2.47810984
-1.08791268
-2.59048080
-4.18642759
1.09520304
0.70130962
0.72911751
-3.85246825
4.02143908
0.39824319
4.77197504
-1.11169302
-3.79866457
0.15872870
0.04081211
0.93469769
1.82856691
5.45892048
-3.67175293
0.43384898
-0.27346459
-1.21063578
0.50764000
0.47952503
-0.98471141
1.60663211
-2.85201883
2.94232774
0.33172104
-0.51369679
-0.30678520
0.84397197
-2.87641239
-1.10528994
1.09782004
-0.27639407
3.43928742
0.66820067
-2.47325468
1.14071178
-0.45864269
-1.85273767
-2.31947803
-0.18817572
-0.20828754
3.36459494
-0.66077292
-0.54149967
1.05997598
-0.82729751
2.17367649
9.38853645
-7.48158884
1.17786586
-2.76855397
-1.86779964
3.03698301
2.82688475
-1.54008245
0.42087895
-3.19312787
-0.67881000
-2.88179064
-1.27897155
0.83678609
-0.31896371
-0.37301531
-1.67418385
4.80147171
-0.95150900
2.51898456
-1.06546617
-4.56779766
-0.78283018
-1.44440651
4.98965836
0.53197503
-0.33235946
-0.38714018
0.06031388
2.99805117
6.98953819
-6.20106411
0.77236241
2.81625247
-4.46808147
1.46789694
-1.34761250
-0.69177479
1.77346039
-1.11098087
-2.46206045
3.58442974
-0.69613063
0.64501429
-1.44520593
0.71971834
0.36525252
-0.70104766
0.61731082
-0.62728310
-1.14855075
-1.33592355
-2.58018923
6.26777792
-3.56314898
2.25691938
-1.09039724
1.45493829
-0.74067152
0.47924259
-2.26028442
3.04221821
-0.79800916
1.21329665
-1.20890772
0.00287485
-0.46321586
-0.03936889
-0.06681916
0.57821405
-1.66251528
-2.29797792
-1.46087885
5.62437248
-1.30248034
4.18160772
-1.29824758
-2.45431757
0.72986275
-0.05942747
3.15010595
-4.00088739
1.98306763
-4.59087229
1.68786335
1.26186144
3.05960059
-2.15577340
0.19281447
-0.58778346
-1.46404803
-1.44056594
1.26555896
1.15484703
-1.64023280
-1.78039765
-3.85376573
5.33804369
0.56557059
1.85498607
0.88147843
-2.12649393
5.62609720
1.07141709
-2.66154909
0.67244637
1.16204667
-0.40623888
0.45762223
-4.67682838
-0.95231473
-3.95821190
0.19747162
1.50794399
-1.46237278
-1.24126697
-1.41994667
6.23265934
-0.67504990
1.77108741
-2.98738289
4.90200996
-0.89736462
0.60581398
-1.84288955
0.04169926
-0.30243382
-0.26532874
0.53463489
0.21123961
1.29789841
0.67592716
2.52145815
3.50297284
-5.53457832
0.36364853
1.20552397
-2.73632097
1.54681230
-2.84334230
-2.59373617
5.49477243
-0.36069024
1.65486300
-3.63795805
-0.36361352
-0.26454929
-1.72501099
1.41220927
0.38371268
-1.48163342
3.46473503
0.19353932
0.35676882
-1.50782347
-0.39722410
-0.07746987
-0.38873920
-0.09871335
-0.06344042
-1.72603118
-2.68010759
0.01004280
0.20490676
-0.88835347
-0.85054135
-1.59149086
5.24232674
-0.67894018
2.95818543
-4.38320732
-0.68872941
-1.31093121
-0.08348205
4.85989714
-1.75349426
-2.12979460
1.50775921
0.77185971
3.21012020
-0.85674053
1.68221581
2.88868856
0.36141267
-0.37537163
-1.26040363
0.43770656
-3.16754556
1.07646060
-0.78642356
-1.84983051
-0.29688337
-0.01060321
3.54648089
-1.99573874
1.26778245
1.03240776
-0.66177529
-0.49321377
-0.53862751
1.28417230
-3.06165290
-1.65472412
3.61762595
-1.09977150
3.74404526
-0.31464651
-3.16338301
1.41054916
-0.76221615
-3.92706347
1.50306416
-0.08891170
2.31561112
-0.84740752
0.95284641
-0.16646628
-0.32500368
-0.01147865
0.59480941
-1.31037533
-1.19181204
3.61677504
-0.43935737
0.70672315
-1.66445112
1.27546716
-0.51327950
-0.40449697
-0.07519505
-2.71577263
-5.83576059
-3.99715471
0.36660662
5.94385195
1.51579976
-2.06723213
0.54539555
1.58581185
4.65845251
-1.17546010
-4.20881367
0.79258811
-1.03439951
4.70271540
-2.45575142
0.50413364
1.00561988
-0.54789716
2.41726279
1.11051297
-3.37967443
0.09155531
0.84957463
-1.14171195
1.14857197
5.63132381
-2.63717675
-0.47842896
-1.19454682
0.08153760
-3.00926995
-0.35315043
4.78194284
-2.21224713
1.63151848
-0.09400766
-0.23296908
-0.91809022
0.32473460
1.79547060
-3.14729357
-3.00114465
0.35753515
1.05668783
3.91656208
-0.49207464
-0.80688411
-0.55571711
0.87685460
0.49429196
-1.95245242
-1.14581895
1.90065587
-0.14010638
2.12648439
-0.73538971
-1.16439903
1.20278549
-0.58605218
-0.33466497
-0.87961948
2.63071752
-0.61007929
0.00926617
-2.14139032
2.96921992
-0.97797090
0.08458215
-0.75006211
4.56220865
-6.02148724
-0.98055297
1.19258618
-2.50113988
2.45960522
0.09418090
-1.99990869
3.48124027
-0.28673443
-0.76070559
-5.64585257
-0.52115387
-0.59031874
5.20961380
0.48624992
0.60836488
-0.78749901
0.17308682
1.82821262
-1.82684970
4.31338835
0.21068920
1.09963655
-2.27015066
-0.99482596
-1.09437966
-0.33094624
0.39996368
0.49347386
-0.62401283
-4.36166048
-2.38104892
-1.06847417
2.90122986
-0.98696196
-0.48536733
2.29941988
-0.64743322
5.35430527
0.96612418
-0.40079299
-1.50828731
-0.69582230
0.35585651
1.48638606
-0.93768924
0.90748709
0.34378797
-0.51705104
-1.51006305
-3.59008312
-1.73510182
2.62417507
-0.66839236
-0.28231588
-0.94495445
6.00092554
-1.23353684
1.33934569
0.66068709
-2.84570742
2.73979425
-2.89411926
-1.36503136
0.44061574
0.83336288
-2.18370342
2.95820594
1.65589094
-1.63868248
-2.25689030
-0.05575739
-0.50284916
1.59035516
0.23265901
0.08051397
-0.32622784
0.71572703
2.16115093
-1.26294625
-0.81458855
3.02120972
2.72650838
-0.96119243
-0.98065460
-1.08262193
-1.68906939
0.52231121
0.52104115
-1.83186495
-2.76710510
0.72857970
0.54183471
0.81565040
-1.56221020
-1.76898515
4.26691866
-0.05899251
1.63617003
-2.11062145
-1.95260262
-1.79947770
1.39418352
1.76633930
1.23963571
-0.04458449
-0.97161156
0.71598309
1.76275563
0.50704342
-0.45014289
1.30142009
0.35508969
0.08714032
-1.73155081
1.48768604
0.95255226
-0.98696488
-1.52227509
-1.27493632
-2.46417928
0.50859743
-1.49713862
4.67175817
-2.51494551
-0.44601217
1.13442600
0.18243760
1.69999170
-1.73509920
-2.24971890
-0.96701884
7.44739103
-1.62287378
2.10613370
-2.46959066
-1.53170764
1.49255109
-0.47007331
5.34556484
-3.57093024
1.75438368
-1.01825154
-5.09290886
2.03809524
1.41634953
0.20058843
-0.23080283
-0.84208930
0.98352826
-3.73214984
-1.59272969
1.60929561
-1.58054531
-1.07243323
-1.85131228
7.13633347
-0.75751829
0.85753030
9.20435524
-6.31347609
2.78475022
0.25496081
-4.29734755
2.76335716
0.50164586
-3.04747033
1.94204903
-3.79282475
3.36172867
-2.73681831
4.08439159
3.92668676
-3.37992525
0.18573746
1.26066732
-1.53033614
0.31033498
-5.48246956
-2.28983450
1.12127388
-0.25506109
1.10054636
-2.87613845
-1.55679989
-2.89529991
2.67657304
1.89399624
3.08074117
-2.71383858
4.70379639
-0.74552304
0.55546850
-2.61060190
0.15195277
-0.21004187
-0.60939878
1.08428669
0.39389887
-3.68556166
0.83899808
-1.34187925
-0.39597818
2.02710485
-1.56392813
-1.77570975
4.29007816
0.06941271
1.53746140
-0.24060823
0.21923301
-0.92723143
5.44535112
-2.43568993
2.48436451
-1.36896217
-2.45797873
1.02705503
-1.74553525
-1.99959230
-1.35778940
1.56078780
-0.93852264
-1.19144392
-1.42986894
0.14575489
4.68803883
-0.77400053
1.29663622
-2.89043856
0.75540531
-2.40449572
1.08444679
-0.47795588
0.08807473
-1.50756061
0.92563689
1.57099748
2.85588765
-0.75343788
-2.71308541
-2.30908704
-0.75770718
-1.68616056
-0.97669017
-3.42713666
8.79595184
0.72025603
3.10709286
-1.15099633
-4.35491133
-2.63803387
0.09079257
1.60325027
1.24615288
-1.14715040
3.71867347
-1.43977666
4.07199764
0.36244804
-4.86706972
1.62056887
-1.59594452
0.17425364
0.59050477
5.42859221
-1.01841223
-0.67820722
-0.01673422
-0.77116835
-2.48825264
8.85818672
0.69324106
-1.20915008
-3.25089169
1.86230433
-1.42254138
0.94813174
-3.21986151
-1.38098252
-3.82624125
-1.81280279
0.62966114
0.84517795
-0.47751752
-2.20929575
5.65880299
-0.65322733
3.22642374
-1.84585071
-0.42908809
-0.70344478
-1.07746065
0.80646390
2.29227924
-1.64498281
-1.87817001
3.26117945
1.21907175
-2.32483149
-4.93179226
-3.25501418
0.97100466
6.32592201
0.88120925
-0.50259298
-1.07957625
0.71206528
3.20360303
-3.59755135
-0.16843370
-0.74058169
-0.17930326
-1.26027930
-2.29633069
-2.94998908
7.92740822
0.56702560
2.69803143
0.13329649
-3.80286360
-2.96648264
4.12678337
-0.75113666
3.55444479
1.16044354
-0.81235909
-0.63163841
-0.01049158
-1.06788778
-4.71015167
1.47920108
-2.67441297
2.60012341
-1.39847040
6.23854065
-0.07061128
-0.97450465
0.57817197
-3.21484375
5.57447338
0.71647561
0.66316694
-1.59569407
-1.23010433
-0.40359214
-0.70329314
0.87721437
-0.68380493
0.90921563
-1.57854795
-0.75608104
7.05922413
-3.14727569
1.84067655
-3.80676079
-0.20002240
1.14023542
-1.46066809
-1.75818706
-1.86240792
0.75410157
-1.57487094
0.90249068
-0.22708836
6.37621164
-2.85838223
-0.08747119
0.33560339
-1.51307309
-0.47730079
-0.31399786
-0.52900702
0.92242450
-0.27056277
-0.60956836
-0.09327147
1.30534339
1.57901144
-0.77601653
-2.42938328
-2.11348796
7.34157038
-4.19909191
2.56341147
-3.13053536
2.07922888
0.31517804
0.34912029
-4.71764040
4.18520498
-0.22704749
0.88681740
-1.42217827
0.23506030
0.71403688
-1.33223200
1.45897198
0.21900442
-2.06674767
-1.06627154
-1.35786653
-2.73468852
5.32607317
-1.75398493
0.92684895
0.01778146
-0.59029520
3.29914451
-2.63066292
1.77328801
-1.19181800
1.15366149
-0.61484247
0.71654689
-0.51431894
0.17104831
0.26940465
0.86769176
-3.97670460
1.67593503
-1.35373390
1.48129809
-0.85810167
-0.58457243
-0.05894009
2.06399059
0.08240718
1.52842009
2.24473763
-2.88726473
2.28793836
-2.78533340
-1.16721439
1.91611755
4.79465866
-2.51221251
0.18322361
-2.07465124
-3.13102722
-3.85126591
0.20080622
-0.46744826
2.34437275
-2.87439561
-1.09060180
2.49296522
0.13164610
6.24494696
