0.03564011
-0.01526336
-0.00915227
-0.01074295
-0.02544120
-0.00119289
0.00068992
-0.00866691
-0.00971770
-0.01752458
-0.00041670
0.03684852
-0.04331017
0.04050199
-0.02046817
0.01106487
-0.02404341
-0.01375560
0.01231229
-0.01125764
0.00126285
0.01930557
-0.00128887
0.01485990
-0.01658538
0.00283905
0.00725006
-0.00678874
-0.01471411
-0.02671220
-0.01201789
-0.02182237
0.01360102
-0.04338148
0.03262341
-0.04482542
0.08486469
-0.02685724
-0.02479163
0.04961782
0.02148780
0.01443270
0.02324104
0.00379769
-0.02176737
0.00489113
-0.00418296
0.01560445
0.01106409
0.05009245
0.02330128
0.02256238
0.01341946
0.00735639
-0.04860173
-0.00857584
0.00964072
-0.00608643
0.03659672
-0.03313310
0.02272085
0.01766630
-0.01752860
0.00239035
-0.01936226
0.10506248
-0.00507845
0.02587524
0.01809055
-0.01202771
-0.00900677
0.00666024
-0.00679248
0.00242172
-0.01498282
-0.01572749
-0.00271257
0.03265281
-0.00926048
-0.00276610
0.01982627
0.00614917
0.00790425
0.04091717
0.01094148
-0.03871430
-0.01482310
0.01469531
0.00843261
-0.02914624
-0.00139318
0.01115167
0.03263283
0.00054469
0.02326676
-0.03785751
0.03427136
-0.02636405
-0.02528686
-0.03591919
-0.00630966
-0.01769485
0.00845965
0.00224890
-0.00732209
-0.01030760
-0.01566376
0.00300099
-0.01794488
-0.01290488
-0.03719610
-0.02158417
0.00115370
0.01113724
0.02332928
-0.02036564
-0.03268759
-0.02083470
0.02026046
-0.02044934
0.03316203
-0.02578064
0.00056878
-0.00684643
0.01465188
0.03678827
-0.04357373
-0.01774134
0.02226516
0.01864413
0.01425057
0.02452172
-0.00943471
-0.04816992
-0.03220763
-0.00158309
0.00133728
0.00240406
0.00433837
0.02712533
0.02677459
0.03500674
0.00510052
-0.01223066
0.01415876
0.05776850
0.00284199
-0.00015642
0.00277210
-0.00393077
0.03089544
-0.00215530
0.01808078
0.02806219
-0.04408383
-0.00200944
-0.03639669
-0.00616508
-0.00778297
-0.04421947
0.02560717
0.00793444
-0.00399469
0.00824720
-0.02591795
-0.03100311
-0.01353772
-0.04499516
0.00578279
-0.02857228
0.00151221
-0.03484609
0.00823394
-0.02496857
-0.02036027
-0.01343000
-0.02246717
0.02077722
-0.00918320
0.01695752
-0.01800024
-0.00336654
-0.02356644
0.03055031
0.00177304
-0.04425209
0.00799863
-0.02744630
0.02021228
0.00737140
0.00019613
-0.00490698
0.01037735
-0.01846617
0.00436735
0.00434684
0.02269433
-0.02374097
-0.00730931
0.00611173
0.00714516
-0.02588636
0.00610283
0.01190895
0.01643859
-0.00581459
-0.00139324
0.01931297
0.05304182
0.03018355
-0.01781287
0.08395015
0.00655183
0.00853494
-0.00166814
0.00969223
-0.00387776
0.02865394
-0.02026167
0.08516052
0.03611558
-0.02603105
-0.01547345
0.01404349
0.03794088
-0.06921973
0.00191555
-0.00267233
-0.01090202
-0.00241615
0.00724023
0.03525714
-0.00173631
-0.00725485
-0.01614600
0.06138636
-0.04809323
-0.02833705
0.02588325
0.02373619
-0.05559959
0.02615468
0.03577878
-0.03921556
0.02161627
-0.01450223
-0.01192569
0.00601441
-0.00201997
0.00957699
0.03316433
0.00846695
0.02733406
-0.01273565
0.01478288
0.00132741
-0.01039163
0.02933125
-0.04388691
0.01889730
-0.00227342
0.03227074
0.07806551
-0.03747945
0.01520286
-0.00816883
0.01171369
-0.00370975
-0.03026045
0.01880273
-0.01305395
-0.00828870
0.00406034
-0.03254937
-0.02688252
-0.00437663
-0.02799756
-0.04583561
0.02662765
0.01692605
-0.00819204
0.01739020
0.01673987
-0.01285362
0.00063480
0.04093361
-0.01421009
-0.02707585
0.03878338
0.00571793
0.02184913
-0.01137864
0.00136174
-0.01833003
-0.03042962
-0.01038038
-0.01610362
0.00274761
0.00092120
0.01290695
-0.00347331
0.00809362
-0.00157437
0.01990380
-0.02834215
-0.01784395
-0.01094643
-0.01389905
-0.01431651
-0.00267382
-0.01158884
-0.00341902
-0.00180913
0.00453990
0.00341170
0.01397181
-0.00743973
-0.06001373
0.05455963
-0.01951895
-0.00617334
-0.00927714
-0.00585474
-0.00821711
0.00144711
-0.06858186
-0.02658648
-0.05721495
-0.00352077
-0.02074556
0.01864515
0.02182985
0.00230046
0.03815728
-0.02044610
-0.01466480
-0.00645260
-0.03631102
-0.03314876
-0.01980090
-0.01714382
-0.00571140
0.00315351
-0.03482876
0.02117351
-0.00311094
-0.00348484
-0.02723428
-0.00326032
-0.03344637
0.04558441
0.02226634
0.02430687
-0.00676463
-0.02133253
-0.00227200
-0.01296148
0.02785896
0.00201956
-0.03198238
-0.00266579
-0.03236413
0.00880697
-0.01308682
0.00870737
-0.00858248
0.02662476
0.00982755
-0.03911962
-0.01851784
0.03125967
0.05231659
0.01662507
-0.01130650
0.00266393
-0.02078962
0.00058091
-0.00978972
0.00774311
-0.02236091
-0.02694645
-0.00818748
0.03704282
-0.00187799
0.02164846
-0.00373789
-0.00489882
-0.00918761
-0.01109490
0.01411474
0.01249962
-0.00107775
-0.04721643
0.03534249
-0.00857253
-0.02586736
-0.02141370
0.00109409
0.00884164
0.03555866
0.00298188
-0.02436159
0.02442619
-0.03251695
0.02511463
0.03560678
-0.00654827
-0.02359256
0.00580778
-0.01866573
0.02402552
0.01596153
-0.02968621
-0.01604811
-0.00440230
0.00991122
0.00361469
-0.01824696
0.04871131
0.01090935
-0.06404243
-0.01232497
0.01997089
0.02840098
0.01633571
-0.00851426
0.01007659
-0.00869330
0.03391889
0.00497887
-0.01369430
-0.00042760
-0.00113542
0.00092574
0.03627963
0.00258072
0.03432525
-0.00237749
0.00731255
0.03235938
0.00611331
-0.00229258
-0.02761846
-0.02224416
-0.01354693
-0.02281687
-0.00164646
0.02097034
0.03404700
-0.02883292
-0.05416471
-0.00061954
0.01173954
-0.00394013
-0.01206445
-0.01942157
-0.02810653
-0.02866944
0.00872533
-0.00470296
0.02879961
0.00343870
-0.02181052
-0.03866044
0.00249165
0.00379264
-0.01538041
0.01555433
0.00935973
0.03601906
-0.00986935
0.00416233
-0.01154153
0.00784376
0.01223709
0.00464718
-0.04848130
0.01624238
0.02262439
-0.01363174
-0.00317112
0.01468544
0.02240895
-0.00136214
-0.00850772
-0.01142748
-0.03402550
0.00785360
0.01947225
-0.00313851
0.01012275
0.05413213
-0.00380243
0.03328536
0.02147008
0.01265999
0.01161963
-0.00056704
0.00574572
0.00606422
-0.01671002
-0.00203864
-0.00529407
0.00521873
0.02301837
0.01217589
-0.02799417
0.02173208
0.02669047
-0.03406878
0.02606633
0.02145167
0.01282121
0.03482483
0.02447148
-0.04421651
-0.00377520
0.03056076
-0.00573811
0.01551120
0.04462200
0.01004324
0.00360647
0.00592820
-0.02199518
0.00178249
0.00306351
0.00714344
-0.00168730
-0.03537659
-0.00934574
-0.05174820
0.05466238
-0.02558917
-0.00229460
-0.01357145
0.01549023
0.00131526
0.03093234
-0.02515651
0.03868626
-0.01624658
0.01794681
-0.01542973
-0.01016960
-0.01562092
0.00228245
-0.00637897
-0.00507915
0.03481212
0.02603105
-0.00745822
0.02609176
0.00941470
0.01921729
0.00950947
-0.03173380
0.01338814
-0.00242402
0.02310873
-0.00676543
-0.00983183
-0.00088053
-0.00741969
0.00863417
-0.00206278
-0.00707536
-0.02721678
-0.01521651
-0.01803637
0.01060366
0.00740681
-0.01115176
-0.00732157
0.02873231
-0.02116296
-0.01790236
-0.03041290
-0.02028270
0.00372497
-0.00831953
0.01941388
-0.02981378
-0.03620303
-0.00283374
-0.00747721
-0.00043884
0.02678096
0.00084072
-0.01228929
-0.01292735
0.03239017
0.00993890
0.00079104
-0.00501110
0.00037113
-0.01651804
-0.00772479
-0.01744637
0.04469496
0.04393838
-0.02430627
-0.01077922
-0.00120683
0.00335602
-0.00028804
0.05580871
-0.00053090
-0.01036876
0.03730463
-0.01388258
0.01609734
-0.00948421
0.00274420
0.02013700
0.02870204
-0.00878022
0.00741868
0.01704747
0.01835458
-0.02297616
-0.02303766
0.00319945
-0.02149232
-0.00592316
-0.03630146
-0.01050503
-0.00888726
0.03044663
0.00899555
-0.00071864
-0.03723934
-0.01832269
0.05885878
-0.01777261
0.02062428
0.02121401
0.00917074
0.01860808
0.01092650
0.00923809
0.02579932
0.01577215
-0.00797169
-0.01961908
-0.01882027
-0.01886570
0.02057897
0.03113497
-0.01894807
0.00670958
-0.03402727
-0.00152945
-0.05086860
-0.01654297
0.01790418
0.00681172
-0.03978652
-0.00901708
-0.01095995
0.00164546
0.06620900
-0.02035158
0.00072045
0.01039612
-0.01516430
0.01242742
0.02643619
0.00843787
-0.02803093
0.00586020
0.01264645
0.03852361
-0.01779732
0.01383846
0.01078715
-0.02690363
-0.02068149
-0.01102178
-0.02022395
-0.00569225
0.00245129
-0.01354297
0.00022677
-0.03963687
-0.03364901
-0.02596460
0.02371998
-0.06066203
0.04559939
-0.03026472
-0.01095896
-0.01059868
-0.02063106
0.00621455
0.00359213
0.00383575
0.01105014
0.00969693
0.01618697
0.02048088
-0.00814860
0.00197065
-0.00960235
0.01422902
-0.02468032
-0.04301901
-0.00497436
0.02313410
0.02444229
-0.00002470
-0.01128471
-0.02452644
0.01109687
-0.02406423
0.02442334
0.00694605
-0.00816615
-0.02120796
0.06578288
0.00257723
0.00641902
0.00010495
0.02602656
0.01341810
0.06746120
-0.02182590
-0.01774296
-0.02893492
-0.00253627
0.00341300
0.04499664
-0.00031066
0.02762528
0.00799146
0.02497672
-0.02504961
0.01348119
0.04153806
-0.00920902
-0.00434217
0.02116192
0.02177302
-0.03216834
-0.00944658
-0.00130103
-0.02406631
0.00216690
-0.00143753
-0.01280306
0.03671528
0.01128701
0.01317989
0.03111712
-0.00181636
-0.01887135
0.00223039
0.00126766
0.01851678
-0.02935543
-0.01676695
0.00939608
-0.00045175
-0.01002706
0.03108892
0.00242591
0.04394652
-0.00322745
0.00700353
0.03324638
-0.06042016
-0.01381445
-0.01997369
0.01217990
0.03827875
-0.03321642
-0.00340892
-0.00518593
0.00341314
0.00938908
0.00854323
-0.04712271
-0.01412524
0.00403659
-0.03349762
-0.01956379
0.04247205
0.01416959
0.01741615
-0.04258463
-0.03758747
0.00716932
0.00246678
-0.02254255
-0.02033269
-0.00015976
-0.01946563
-0.01592953
-0.00407106
-0.02966636
-0.01236665
-0.00091578
-0.00385773
0.02226349
-0.01109292
0.04768739
0.01153367
-0.00383210
0.01575312
-0.00925893
-0.00582837
-0.03384543
0.01739165
0.00886594
0.00161161
0.01226225
-0.03221298
-0.02512664
-0.00988814
-0.01114265
-0.02082852
0.04783937
-0.00756405
-0.03821919
-0.07338163
0.00022925
0.00457910
-0.02927509
0.03131513
-0.03726107
-0.01212703
-0.02799143
-0.00722071
-0.00431160
0.03715856
0.02819595
-0.03637752
-0.00487052
0.00753692
0.01272342
0.01300024
-0.02023684
0.02027978
-0.02623408
-0.01351328
0.01685600
0.01091049
-0.03118048
0.00273771
-0.02302885
-0.02140749
0.00174480
-0.01414836
-0.03533050
-0.03107524
0.01729874
0.03346358
-0.00001895
0.00540156
0.00699703
0.02696301
-0.00477819
-0.01136035
-0.02137043
0.01098277
0.03414980
-0.01370741
0.01403115
-0.00944417
0.02738774
0.05894440
-0.01638379
-0.04422064
-0.00743851
0.01170742
-0.05836868
0.01477808
-0.00396320
-0.02307239
-0.00362067
0.03263784
-0.02226892
-0.01280527
-0.03532084
-0.01574443
-0.03020326
-0.00479835
-0.03415775
-0.01230469
0.00547020
-0.04443862
-0.01816159
0.00305807
-0.00723636
0.02516478
-0.02805121
0.01268749
0.00541610
0.01468046
-0.01015244
-0.02684158
0.01433316
-0.05224694
0.00856409
-0.02320229
-0.01603916
0.03844192
-0.01137236
0.00817861
0.05719439
-0.01393628
0.00524368
-0.02661395
-0.02285106
0.01351717
0.00635863
-0.00860830
0.01107870
-0.00845867
-0.00747468
-0.01412853
0.00627777
0.03159887
0.02062761
-0.03041541
0.02294267
0.00964239
0.00968822
-0.02313139
0.00414471
0.00452180
-0.03260014
0.00074250
-0.00588573
0.01276324
-0.02310691
0.02931121
-0.00455221
0.00617717
-0.03031824
-0.00445828
-0.00108055
-0.05535763
-0.02834240
-0.00742868
-0.02034221
0.01643717
-0.01932172
-0.00915116
-0.03640499
-0.00755013
-0.02481417
0.03023979
0.01161431
0.03638778
-0.02406594
-0.00075332
0.01958350
-0.02818337
0.00904001
-0.00621812
-0.00266811
0.02132481
0.00533952
-0.02661187
-0.00746687
-0.01084739
-0.01962996
-0.02412829
-0.01529668
-0.04564656
-0.05676081
-0.01324539
0.00950328
0.00916031
0.02253847
0.02365448
0.11404987
0.00728380
-0.00333459
0.00549805
-0.02995900
-0.01385066
-0.01963613
-0.02359094
0.09005477
-0.00071754
0.00013154
0.01427890
-0.02444172
0.00776407
-0.01094837
0.00224003
-0.02580262
0.01205650
0.01568320
-0.03681986
0.02114937
0.01709657
-0.01892559
0.00932871
0.00733781
0.00508645
0.01268742
-0.00161075
-0.00879611
-0.00137529
0.00125254
0.00545515
0.00332597
-0.00756456
-0.00478174
0.02553681
0.00146412
0.02250299
-0.00889200
-0.00592489
-0.02142914
0.00647978
0.00143892
0.00472908
0.02949078
-0.03885201
0.00597677
0.01417915
-0.00822696
-0.00639364
-0.01018639
-0.01033481
-0.02165030
-0.01595501
-0.02654982
-0.00993031
0.02457765
-0.01344236
0.00055294
-0.00128394
-0.00277342
-0.01531924
0.00371190
-0.09610251
0.04088488
-0.01915114
0.00401495
-0.03569175
-0.01006515
0.00909229
-0.01166871
0.01066750
-0.03636501
-0.01643066
-0.02483718
-0.03219514
-0.02822878
-0.00684733
-0.01147203
-0.00954205
-0.03254918
-0.00477881
-0.00745582
0.02244032
-0.01001472
-0.01896817
0.00801960
-0.02082475
-0.01386262
-0.00060315
0.01355196
-0.02045033
-0.02440992
-0.00092187
0.03054376
0.00604433
0.00017426
-0.01718056
0.01324109
0.08103557
-0.00226342
-0.01394714
-0.03126440
-0.00662337
-0.02320584
-0.00178001
0.00386927
-0.03618556
0.00000930
-0.01422893
-0.01324248
-0.02132891
0.01921751
0.00846257
0.00675662
0.00834886
-0.02197906
0.02681333
-0.01474669
-0.03540875
-0.01559264
0.02097523
0.00549013
0.00875403
0.01189428
-0.01949967
0.03684814
-0.00001034
0.04120293
-0.00505884
-0.02301473
-0.03428187
-0.00008249
0.01741610
-0.01508206
0.00360448
-0.01294223
-0.02232400
0.00574032
0.02734625
0.00307515
0.00844782
0.00978724
-0.00081805
0.00527086
0.03267092
-0.01171709
-0.00429718
0.01874175
0.03542666
-0.00576246
-0.00803800
-0.02733569
0.02024521
0.02828374
0.00932967
-0.03972103
-0.04092985
0.01095343
0.02946068
0.02046850
-0.01536636
-0.01853102
-0.01238127
0.02105627
-0.01718772
0.06299333
0.00609379
-0.01393225
0.03560483
0.01514600
-0.02197479
0.02801196
-0.01336538
0.00009911
-0.02048197
0.04071298
0.02514847
-0.02165770
-0.03590519
-0.00547254
-0.02399786
-0.00470235
-0.04039598
0.02373998
0.00236491
0.00016805
0.03155268
-0.04063807
0.01993481
0.00994509
0.03445652
0.02798235
-0.01522348
0.01171934
0.00925360
-0.02501809
0.06889325
0.02509422
0.02983477
-0.00450662
0.04407247
0.02209922
0.03544417
-0.02366574
-0.01438389
-0.02171512
-0.00276590
0.01722063
0.00500414
-0.00240548
0.02139599
0.00891887
-0.00896667
0.02605917
0.08773384
0.00709817
-0.02087758
-0.01010928
-0.00999867
-0.01318267
0.00035802
0.04522244
0.02112138
-0.05952702
0.01290002
-0.01826836
-0.00069280
0.01580906
0.02343546
-0.00303205
-0.07777476
-0.02971941
-0.01276432
0.00158217
-0.00778636
-0.01574676
0.06051755
0.02441956
0.01970707
0.01422769
0.03069307
0.04314410
-0.00331090
-0.04732958
-0.03275289
-0.02274312
-0.02794583
-0.03134987
-0.01065602
-0.02860003
-0.00675344
-0.00810394
0.00529220
0.03432824
0.03493190
0.01270303
-0.02334777
-0.00284384
-0.07483277
0.02680158
-0.00647427
-0.00395299
0.00238403
0.05120821
0.00221271
-0.02292913
0.04193176
-0.00679275
-0.07770462
0.00647430
-0.02956564
0.03982199
0.04433159
0.00593225
0.01627333
0.02092273
0.02756272
-0.03430700
0.07857931
-0.04777241
0.01169287
-0.01777425
-0.00378581
0.01043793
-0.01559507
-0.04367062
-0.03134210
-0.04841488
0.00124721
0.04983908
-0.00559954
-0.01417122
0.06634989
-0.01512734
-0.04090323
-0.01257128
0.02872879
-0.00394960
-0.01815389
-0.00468625
-0.01731441
-0.04349807
0.03044804
0.00522468
0.00281981
0.00643871
-0.07111629
-0.02002908
-0.04860529
0.00555201
-0.00811464
0.02176163
-0.03149408
0.00613986
0.00916343
-0.03665118
0.02648890
0.00512851
-0.02593670
-0.01479220
-0.01026031
-0.01771265
0.04365233
0.00372194
0.01624017
0.00292082
-0.03993018
0.03139447
0.01366797
0.08609635
-0.01706500
0.05112360
-0.01981839
-0.00497757
-0.04354271
0.06193789
0.02178431
-0.02991877
-0.00182839
-0.02094696
0.04896684
-0.01321193
-0.03929872
0.01781604
0.01459575
0.00553211
-0.04424783
-0.00958524
-0.00368427
0.01611049
-0.02538131
-0.01395987
-0.05362915
-0.00258358
-0.00564935
-0.02111753
-0.00713527
0.01645566
-0.02478707
-0.03225297
-0.00090279
0.00131405
0.01430041
0.00981501
-0.05756366
-0.01525024
0.01075006
0.00215903
0.02374146
-0.02455251
0.00877337
0.00888883
-0.03109186
0.01511325
0.00123163
-0.01130216
-0.03061774
-0.02075790
0.01172661
-0.04139917
-0.00644892
0.01124193
0.01086119
0.08792736
-0.01613788
0.01086798
-0.04082162
0.00226880
0.00411667
-0.02180606
0.00175201
0.05143856
0.05265943
-0.00933406
0.01317207
0.02461921
0.00433475
-0.01471336
-0.00541585
-0.03086403
0.01644159
0.00890136
-0.00762382
-0.03625286
0.01202963
-0.01170103
0.03542785
0.00227035
0.00086645
-0.02364017
0.01498907
0.00737208
-0.02331580
-0.00509772
0.00158431
-0.04015552
0.02291986
-0.02374677
0.01472570
0.02089795
-0.03061506
-0.03610948
0.01164679
0.00943889
-0.00899298
-0.00437275
0.00218236
0.01292023
0.03229897
-0.01253753
-0.00320934
-0.03049560
0.01319387
-0.00628525
-0.01273946
0.01119031
0.05079353
0.05330219
0.00108724
0.00643486
0.02594358
-0.01387918
-0.02813872
-0.01183069
0.01081181
0.00271169
-0.00826255
0.00928246
0.04085739
-0.04710223
-0.04691628
-0.00568067
0.01312695
-0.00896190
-0.01545799
0.00482920
0.01515968
-0.02346541
0.00952756
-0.03272077
-0.00615476
-0.01226608
0.00515991
0.02022400
0.00859354
-0.00391390
-0.02723671
-0.00879553
0.02748649
-0.00202162
0.01994546
-0.01119019
0.00194053
-0.02719515
-0.03210693
-0.01505975
-0.01822328
0.02590631
0.00891171
-0.01151185
-0.00847737
0.01609915
0.01485681
0.01511627
-0.03418108
-0.04446637
0.01819422
0.02789644
0.02571473
-0.01190585
-0.02538131
0.01569537
0.00471267
-0.01326384
0.01147839
-0.02181553
0.01061796
-0.01829860
-0.01703448
-0.00463059
0.01998153
0.00680580
-0.04128983
-0.00745722
0.03693597
0.00769522
0.01350298
0.02646780
-0.00963514
-0.05732995
0.03664111
0.03580603
0.01938263
-0.03197588
-0.04271311
-0.02700932
-0.01033106
0.00005742
-0.01685338
0.01496584
-0.01560092
-0.02882403
0.01353443
0.00474879
0.03405277
-0.02754460
-0.00353753
-0.01187162
-0.02579712
-0.03262718
-0.01855277
0.00133643
-0.03210137
-0.00919313
-0.01528133
-0.01076408
-0.00902127
0.00746430
0.00187045
0.00188348
0.01146377
-0.02367704
-0.02961505
0.03808963
-0.01479575
-0.01926115
-0.00118789
0.01662422
-0.01668543
-0.01253737
-0.00719180
0.00893564
0.00007365
0.03754833
-0.02058068
-0.01148828
-0.00463475
0.01177468
0.01496640
-0.01084678
0.01220763
-0.00659412
0.00505610
0.00206331
0.01872283
0.00271993
0.04276809
-0.03535723
0.04872423
0.00842134
0.01247862
-0.02747145
-0.00258033
-0.00614343
0.01855289
-0.04326883
0.03503735
0.00569533
-0.00013110
0.01619674
-0.02973587
-0.04872768
-0.01364024
0.01188583
-0.00354148
0.02603584
0.01116963
-0.02940314
-0.00267201
-0.00635478
-0.00007655
0.02521021
-0.00069809
-0.01477434
0.00665137
-0.00356414
-0.01807067
-0.00550829
0.02040249
0.00326736
0.00356961
0.00139005
-0.01372988
0.00588642
0.02524924
0.01874720
-0.01792291
-0.03525116
-0.01280512
-0.00027127
-0.01669332
-0.01682656
-0.00466527
0.01018376
0.04663719
-0.00178267
0.00529490
-0.02074818
0.00401606
0.09476318
-0.02066623
-0.01558960
-0.00289314
-0.01694723
-0.01281192
-0.02258948
-0.00076923
0.00422513
-0.03194011
0.02184342
0.03750972
0.01617240
-0.00871786
0.01250599
-0.01295782
-0.01060390
-0.02337689
0.02707157
-0.00197996
-0.00412306
0.03767581
0.00333987
-0.00409551
-0.02516649
-0.01290461
-0.00782835
-0.00655932
0.00392888
-0.01655492
0.00531253
-0.02487705
-0.00893163
-0.02872918
-0.00832666
-0.02115867
-0.00213104
-0.01798689
-0.02138546
0.01831697
0.01602978
0.02014542
-0.00098824
-0.00280317
-0.00031248
-0.01832675
-0.00096930
0.01607438
-0.01516996
0.02025998
-0.00777644
0.01772091
0.00265813
0.05662000
-0.00208645
-0.00344863
-0.00588310
-0.00205360
0.01370034
-0.02065049
-0.00892657
0.00514777
0.02735120
-0.00912877
0.01028858
0.01141666
-0.01231087
-0.02764015
-0.04112078
-0.00092964
-0.03066309
0.01301187
-0.01898583
0.00567691
-0.00701671
-0.02283228
0.00481899
-0.01009079
-0.00693556
-0.03754357
-0.02612103
-0.00741057
0.02689567
0.00653998
-0.04009404
0.03324119
-0.01606379
-0.01662643
0.01637444
-0.00707188
-0.03501660
0.01102182
0.00165348
0.00183499
-0.01743113
-0.02091886
-0.01529887
-0.01718039
-0.00591780
0.02236906
-0.00327131
-0.00522098
0.01738073
-0.01013887
0.01527127
-0.01583185
-0.02538572
0.01990051
0.00774031
-0.01113631
-0.00162774
0.00581223
-0.00268503
-0.01337752
-0.00208199
-0.00248532
-0.02574998
-0.00162146
0.01338195
0.00158557
-0.01066737
-0.01275526
-0.03201177
-0.02257052
0.02359628
-0.02668615
0.00066811
0.00797210
0.01159200
0.02080850
0.01794671
-0.00075758
-0.01265424
0.00827156
-0.00474865
-0.02413856
-0.01916890
0.00388848
-0.00853306
-0.00013585
-0.02201117
0.04312138
-0.00284127
-0.00886120
0.02573280
-0.00167787
-0.00274381
0.00407180
0.00430133
0.03933805
0.00084941
0.01093000
0.00385497
0.03846829
0.02274965
-0.02799803
-0.02379401
-0.02703712
0.05432035
0.00294398
-0.00870273
0.02420636
-0.01537682
-0.02857680
-0.00126623
-0.01751996
-0.04238899
0.00908947
-0.00575291
-0.00150708
0.00735120
0.01475085
0.01818784
-0.00711929
-0.01444281
-0.01775073
0.02106171
0.02883599
0.00868694
0.02320429
-0.03721324
-0.01813259
0.01122376
0.00937877
0.02014631
-0.00224455
-0.01656023
-0.00604272
0.00389212
-0.00863001
0.01299125
0.01080635
-0.02394110
0.05840049
0.01068494
-0.01680788
0.03589870
-0.00005053
0.00661419
0.00615965
0.04199748
0.00619935
0.00008816
0.02111589
-0.01545982
-0.00767205
-0.02008233
0.01841433
0.02329960
0.02278497
0.04190197
-0.01160846
-0.00485249
-0.00048558
-0.02405322
0.00705917
-0.01709883
0.01658162
0.01892164
0.00489028
0.03167928
-0.02076567
0.01627017
-0.01215041
0.02969197
0.01918489
-0.01942634
0.00512052
0.00829212
-0.02458739
0.00746891
0.00791211
0.03556091
-0.02374771
-0.02510482
0.01488281
-0.00079911
0.02315565
0.01833807
-0.01760905
0.02229912
0.00914760
0.02563217
0.02679684
0.00329379
-0.03320013
0.00435286
-0.02921880
0.01765963
0.01853632
0.00023075
-0.03784418
0.01223011
0.01740932
0.00030661
-0.01219381
-0.00723036
0.00187790
-0.00589124
-0.01276983
-0.00391605
-0.01112953
0.01623974
-0.04875512
-0.02747525
-0.00246520
0.03129822
-0.00570474
0.00715159
0.01162054
0.00018548
-0.01197544
-0.02024755
-0.00147133
0.03062513
-0.03474417
-0.02652944
-0.01560354
0.00256065
-0.02860501
0.02081837
-0.00499655
-0.00118072
0.01602600
-0.02888746
-0.02652093
0.00548557
-0.00179072
-0.03594201
-0.00415412
0.03400075
-0.01570422
-0.00790883
-0.00150207
0.00246138
0.01561534
0.00837998
-0.00663636
-0.03407652
0.00020158
0.03153250
0.00510711
-0.01595793
0.01861626
0.01213547
-0.01245467
-0.00877152
-0.01608601
-0.00848608
-0.01556717
0.01022847
-0.01322024
-0.01955925
-0.01024869
-0.01417607
-0.01389734
0.00907534
0.04928254
0.00768025
0.01418337
-0.05030955
-0.00849448
-0.02008745
-0.01530378
0.02294128
-0.02328347
0.03184641
0.01068698
0.02047940
-0.03265478
0.04348589
0.02173873
-0.01128744
-0.04728189
-0.00441785
0.00169348
0.00043186
0.03449081
0.01117005
-0.00059690
0.01824059
-0.00925735
-0.00948292
-0.00215034
-0.00325382
-0.01482365
-0.01385859
-0.03814215
0.02398639
-0.01087449
-0.00546894
-0.02836596
0.00128180
-0.03357591
0.01371746
-0.01804565
0.00465189
-0.01959286
-0.03907057
0.00697955
-0.00098385
0.01201566
-0.00141953
-0.00410554
-0.01003027
0.02721781
-0.00778596
0.00043319
0.00087618
-0.03289062
0.02761610
0.02901701
0.00057216
-0.01563459
0.00646123
0.02756875
-0.00291620
0.00768425
0.00048092
0.00532905
-0.02723145
0.01657659
0.03492294
-0.00862060
0.02001048
-0.01623041
0.04195632
-0.02125852
-0.00136758
-0.03670223
0.00631094
0.05184336
0.01861969
-0.00970132
-0.02958880
0.01183305
0.03123946
0.00680764
0.00275152
-0.00417063
0.08487208
0.00141551
-0.03208251
0.02227910
-0.03920846
0.01321127
0.00120664
0.02580892
-0.00446326
0.03273973
0.06130079
-0.03316497
0.02764669
0.01693432
-0.05305746
-0.02329689
-0.01725322
-0.02400026
0.03544146
0.02067773
0.01946410
-0.01418847
0.00279128
0.01401262
0.01103236
-0.00154314
0.00363892
0.00957861
-0.00915243
0.02529041
-0.00951959
0.00445112
-0.00369812
0.02042321
0.02389601
-0.01186845
0.00591681
-0.00761250
0.01221181
0.00588841
-0.02596826
-0.02272168
0.02986353
0.02695719
-0.01905788
0.01717544
-0.03035019
0.00079439
-0.03240800
-0.00883577
-0.01724495
-0.00620114
-0.01179359
0.01883652
-0.00891542
-0.00420681
-0.03276487
0.00249956
0.03251482
0.00054319
0.05193697
-0.01481633
-0.03173466
-0.04884213
-0.03573782
0.02240745
0.01870839
-0.04930749
-0.00956507
0.05181892
0.00106651
0.00970608
0.00163585
0.03964564
0.02334241
-0.00630190
0.00131579
0.03693793
0.04572663
0.04665563
0.00984916
-0.01060281
-0.00050166
-0.01219531
-0.03584088
0.02151569
-0.01357898
0.01295197
-0.03670165
-0.01140904
0.01935493
0.03789626
-0.00168869
0.00008836
0.03339333
-0.00345657
0.02227548
0.02339085
0.01775383
-0.00378883
-0.02503395
-0.01411107
0.00506130
-0.01011114
-0.00402408
-0.03148704
-0.00552723
0.01355929
-0.01294511
0.01292049
0.00349807
-0.01196613
0.00366729
-0.06117254
0.03422702
-0.00833599
-0.00205807
0.01652725
0.00240844
0.01580860
0.01771891
-0.02235320
0.00342321
0.00373310
-0.05210016
-0.03883607
-0.00407454
-0.01343415
-0.02528503
0.05507308
-0.00096860
-0.00940783
0.04603672
0.02800244
-0.02106866
-0.00769822
-0.01645384
0.00300570
-0.01885438
-0.03690795
-0.00122771
0.00024701
-0.01971697
0.00914716
0.00597523
0.00163251
0.02793271
0.00104865
0.00459375
0.00878895
0.00775455
0.01743830
-0.00332980
-0.01752777
-0.02630828
-0.04086331
0.01398831
-0.03870452
0.00999039
0.01013624
0.06051037
-0.00642725
0.03774228
0.01530841
-0.01467100
-0.01110869
0.02256438
-0.02331894
0.04348721
0.01260634
-0.00372952
-0.00468567
-0.02198112
-0.01540871
0.04688932
0.02473549
0.02455143
-0.02316979
-0.01537961
0.00342253
-0.01849217
0.00866177
-0.01676953
0.00141990
-0.01214021
-0.01289420
0.02533574
0.00195727
0.01650600
0.01298376
0.02587167
-0.00589972
-0.00387963
0.00930625
0.03292797
0.04497615
-0.03312614
0.03601697
-0.02258656
-0.05014713
0.00851693
-0.02515942
-0.03719550
0.03288310
-0.01837378
-0.01365068
0.00652995
0.00743690
0.01452447
-0.00034287
0.03709421
-0.00592836
0.00909562
0.00081544
-0.00165992
-0.01087478
-0.01394879
-0.01923610
0.03557701
0.01105291
0.00984833
-0.00296567
-0.02152007
-0.00379298
-0.00547603
-0.02168334
-0.03879049
-0.00502036
0.02664583
-0.02850201
0.02001282
-0.00955871
0.00934916
0.00249636
0.01907249
-0.00698968
-0.01388391
0.01708852
-0.03706255
0.00626460
-0.00354084
0.01657334
-0.00173979
-0.00046926
-0.01822460
-0.01846226
-0.02002130
-0.01742657
0.01336405
-0.00007067
-0.03302216
-0.01088158
-0.04554672
0.02115639
0.01151557
-0.04002976
0.01902054
-0.04178508
0.01050269
0.00192111
-0.02393631
-0.01646824
0.00739232
-0.00940414
0.00460267
0.01384966
-0.02862122
-0.00242960
-0.00208859
0.01573235
-0.02306267
0.03270727
-0.02570589
0.03033915
-0.04891512
0.03729324
0.01904674
-0.00793155
-0.00342377
-0.01683204
-0.00469241
0.01194204
-0.02433071
-0.02264080
-0.02186702
0.03318758
-0.02029027
-0.00853150
0.01955760
0.04663782
-0.02574496
-0.01823787
0.01274154
-0.00702761
-0.04231079
0.01987741
0.03830831
0.04121838
-0.02002234
-0.00175912
-0.00859859
-0.02448212
-0.02094200
0.00807477
-0.01012643
0.00335891
0.00248048
0.00947249
0.01997377
-0.00129375
-0.02815267
-0.01143667
-0.04481269
-0.03774099
-0.00380046
0.07073104
0.02557299
-0.02202066
0.03906316
0.03568977
0.00696110
0.04224512
0.00584202
-0.00557113
0.00732933
-0.04523553
-0.01345583
-0.02144142
-0.00175499
0.01593221
0.02517198
-0.01077487
0.00916273
-0.02497961
-0.00963980
-0.07891965
-0.01014572
0.04404120
-0.04483151
0.01572986
-0.04002729
0.01903604
0.07858349
-0.01857966
-0.00906890
0.01155042
0.04067349
0.01464266
0.01327716
-0.00662120
0.03758603
-0.02419411
0.00839600
0.01819642
-0.01309386
0.03109451
0.02219437
0.05263935
-0.02096781
0.01189080
0.04267777
0.03513194
-0.00096067
0.02448249
-0.00527353
-0.00600215
-0.03766679
-0.03419092
-0.02653147
0.02423774
0.00741953
-0.03868285
-0.02892823
0.01045427
-0.06511140
-0.00551164
-0.01372732
0.00461172
-0.02609131
0.02984359
-0.02501599
-0.00110029
0.00340438
-0.00395677
-0.01120312
-0.00936037
-0.00668723
-0.01894270
0.04451617
-0.00420579
-0.00167991
-0.03505705
0.03124835
-0.01016913
0.00326703
-0.03164786
-0.02434039
0.01222516
0.01474792
-0.02261995
-0.01359421
0.02006244
-0.02668485
0.00743895
-0.04889938
0.00842948
-0.01156117
0.01294389
-0.00742102
-0.03620967
-0.01260459
-0.04620488
0.00168068
-0.03022838
0.02075997
0.02745038
0.01067412
0.04911423
0.02047395
0.02182939
-0.00015142
-0.03452256
0.00912051
-0.00708478
0.00509215
-0.04836253
0.01705926
0.01820652
-0.01287364
-0.02004673
0.02695773
0.00192280
0.03026879
0.01528927
0.05991320
-0.01689309
-0.02962734
0.01643820
-0.02723530
0.02240968
0.02968783
-0.00373249
-0.00842372
0.00340246
0.01463422
-0.02732277
-0.00211310
0.00076100
0.01194197
-0.00509332
0.01772170
-0.02414288
0.02611988
0.03570471
0.03451220
-0.01050072
0.00001125
-0.02846371
-0.06276435
0.00200842
-0.02274546
0.00916121
0.00965504
0.00015368
-0.02537037
-0.00488687
0.03125813
0.02924716
-0.01261824
0.04828446
-0.00767596
-0.02362278
0.09252613
0.01172054
0.05055061
0.00793809
-0.01255958
0.01589085
-0.00292111
0.01440823
0.07364470
0.05099642
0.00832246
0.00642549
0.01458537
0.01964362
0.01552484
-0.02384886
-0.03829771
-0.03429502
-0.01213214
0.00929845
-0.01219147
-0.00069779
0.01681811
0.06275545
-0.01866023
-0.01929387
-0.01102017
-0.04486829
0.02031661
-0.00965851
0.01451625
-0.00215354
0.02134635
0.01753530
-0.00227693
0.02907979
0.01666520
-0.00509268
0.04115682
0.01371355
-0.01283330
-0.01883333
-0.04754774
0.01837709
-0.03603363
0.01606347
-0.02415704
0.02056555
-0.00593964
-0.02358392
-0.01343107
0.02509717
0.02211071
-0.01278871
-0.00836451
-0.00395550
0.00539473
-0.00497981
-0.00248248
-0.00510902
-0.03134054
0.02980626
-0.00549416
-0.01881027
-0.00016019
-0.01819350
-0.00347169
-0.02460909
-0.01809903
0.02931804
-0.02045452
0.00130392
-0.00533528
0.02689059
0.00363729
-0.02472112
-0.00952806
-0.01504028
0.01688989
0.03177293
0.00436893
-0.01351629
0.04372622
0.02387603
0.02083988
-0.01896290
-0.03983418
-0.01795883
-0.01224310
0.01918204
0.02981515
0.00411233
-0.03308748
-0.02786351
0.00356907
0.00198614
-0.02971239
-0.01461977
-0.00413203
0.00444162
-0.00162136
0.00217728
-0.01565973
-0.00593105
0.02229559
-0.00262041
-0.01603478
-0.05603405
-0.01801147
0.01430869
-0.01234815
-0.00664876
0.01974952
0.00205542
0.00340427
-0.01216611
0.01022620
-0.02762253
0.01910111
-0.00106841
0.01672591
-0.00100132
-0.00257186
-0.01914077
-0.00520257
-0.00157419
0.03159764
-0.00287012
-0.00367984
-0.03474292
-0.00172000
0.03411286
-0.02186380
-0.03913644
0.02554611
0.02083751
0.00370521
-0.00072787
-0.03713426
0.01819328
-0.00038697
-0.04369652
0.01636115
0.01723662
0.00025813
-0.02963116
0.01226462
-0.00435304
-0.01710588
0.02111893
-0.01469393
-0.02293165
0.01223005
0.01964173
-0.01409399
0.01306184
-0.00344944
-0.00637066
0.02823412
-0.00023338
-0.01567098
0.00695110
0.02170148
-0.02928465
0.00666645
-0.02334955
-0.00348931
-0.03111953
0.00386411
0.00481730
-0.00610040
0.00523410
-0.02210384
0.00192199
-0.01519764
-0.02558106
-0.02995403
0.03993315
0.01774421
0.03573857
0.02016340
-0.00080272
-0.00058041
-0.00456118
0.02376382
-0.00716089
-0.00337836
0.03703312
-0.01038967
-0.00201360
-0.00934202
-0.01147396
-0.01976926
0.00064563
0.01521302
0.00565752
0.00214728
-0.01890819
0.01181916
-0.02418409
0.06541462
-0.00509569
-0.02765339
0.00746582
-0.01420592
0.00275697
0.03138951
-0.00145763
0.01765508
-0.00882540
-0.01650672
0.03149315
0.00126545
-0.01976464
-0.01650779
-0.03045849
-0.00910234
0.00248551
0.00093285
0.03551579
-0.00582959
0.01997051
0.00269009
-0.00016025
-0.02945458
0.00787178
-0.01405684
-0.01212724
-0.01277082
-0.00161219
0.03896748
-0.00539176
-0.04271591
-0.01378942
-0.01971086
0.00085870
-0.00115630
0.00295976
-0.01794234
0.00954307
0.00346164
0.01155551
0.00964742
-0.03284346
-0.02486611
0.01246698
0.05075178
0.00169911
-0.04986827
-0.01820624
0.03529488
-0.02090384
-0.00425231
-0.02684131
0.04726209
-0.01681349
0.05759506
0.00871482
0.07376288
-0.03020287
0.02612723
0.02206510
0.01010650
0.00602598
0.00663250
-0.01161907
0.02154105
-0.01001494
0.02090899
0.00677452
-0.02883998
-0.00141875
-0.02506256
0.01941105
-0.01369008
0.06916046
0.00532087
-0.03544233
-0.02345919
-0.00311924
-0.00662073
0.03272786
0.00941614
0.00485965
0.01383311
-0.04487779
-0.00577041
-0.01858110
-0.02464944
-0.01714734
-0.01661826
0.01321061
-0.05263645
-0.01508914
0.01050990
0.02910342
-0.02841446
0.02022550
-0.03597756
0.00609503
0.00782519
-0.00529656
-0.01893872
-0.01360576
0.03231396
0.00697838
0.01153400
0.02104093
0.01438594
-0.02986519
-0.01355161
-0.00544473
-0.02832665
0.00924247
0.01941081
0.03215757
0.02580176
-0.00299335
0.00325765
-0.02533198
-0.02153484
0.02135115
0.01626155
0.02381919
0.00308921
-0.02480240
0.00392078
-0.02936487
-0.01152069
0.03720242
-0.00369363
-0.04438222
-0.00366372
-0.01455870
-0.00476747
-0.01091931
0.00486994
0.05566555
0.05671168
0.03492650
-0.03882083
0.00259677
0.00544311
-0.02779626
0.02028858
0.01557676
-0.00506186
-0.04625988
0.01403636
0.00383123
0.01482456
0.01589106
0.02815544
-0.04330553
-0.00467524
0.04025094
-0.00761906
-0.04637031
-0.00571986
-0.00296514
0.01284201
0.03294567
-0.02690499
-0.01551152
-0.01064393
0.01012767
-0.02195826
0.02119972
0.00538380
-0.00645837
-0.00875393
-0.04841406
0.01702249
0.01645006
0.07738987
-0.01552655
0.01220536
-0.01471517
0.02340450
0.02323763
-0.00869562
0.03481229
-0.02086665
-0.01314112
0.02441770
-0.02261090
0.01837395
0.02281349
-0.00607084
-0.02046931
-0.00787782
0.01438409
-0.01578599
-0.01508857
-0.00149164
-0.01299360
-0.00702283
0.00115632
-0.05694959
0.03944128
0.01236125
0.02103680
-0.00545241
-0.02072461
-0.02071891
-0.01912824
-0.03784072
-0.01705478
-0.01078302
-0.04599392
-0.01590363
0.01637838
-0.01153353
-0.01603827
0.04136242
-0.02594028
-0.00865174
0.00523861
-0.02523359
-0.02480663
-0.00628984
-0.00285796
-0.00385384
-0.01721699
-0.00055259
0.03784670
0.03372559
0.00680388
-0.01248429
0.01489686
0.01627741
0.00147163
0.01185974
0.02253092
-0.00861483
0.04932429
-0.00646422
-0.01682298
0.00344461
-0.00249227
-0.00410756
0.00991785
-0.00881182
0.00898704
0.02617181
-0.00827359
-0.01693640
-0.01263707
0.01525913
-0.00591091
0.00870268
-0.00457457
-0.01815198
0.01715049
0.01541672
0.00537314
0.01457872
0.01407530
-0.00632186
-0.00104547
-0.02430018
-0.01335175
-0.01182541
-0.02035872
-0.00728798
0.00839288
-0.02670271
0.00678305
0.01221929
-0.00212070
0.00604970
0.00615816
-0.00473208
-0.02112035
-0.00139337
0.02762355
0.02703654
0.01454529
0.00973358
0.00619816
0.00646770
0.03254835
-0.02010535
0.01203025
-0.03945658
0.00250929
0.00013546
0.04399779
-0.01995517
-0.02874541
0.02290470
0.03932736
0.00601301
-0.00407829
-0.00778245
-0.02832702
-0.00251218
-0.00115225
0.01040188
-0.00682174
0.00058359
-0.02463351
0.00296863
-0.01595747
0.04421028
0.01981871
-0.00185804
-0.01578587
0.00380566
-0.03434182
-0.00255689
-0.00809924
-0.00230544
-0.01066565
-0.00089040
-0.03842573
0.00683230
-0.00541290
0.02508755
-0.00606382
-0.00676573
-0.01663971
0.01067888
-0.00775625
-0.00493258
-0.01359185
0.02158603
-0.00462798
0.01570486
0.01929703
-0.00924925
-0.02892970
-0.03744303
0.01918009
0.00090819
-0.01366247
-0.02780360
0.02680388
0.03523797
-0.00229653
-0.02301968
0.05166142
0.00403583
0.01635947
-0.01415576
0.02657818
-0.00598524
0.01699523
-0.00979690
0.00547096
-0.01158303
0.02082935
-0.00589490
0.00094475
0.03569917
0.02422704
-0.00926695
0.00531273
0.00973031
0.04445348
0.00643112
0.01846708
-0.01612722
0.01858203
0.00173964
-0.02810387
-0.02577030
-0.01233094
-0.03399155
0.02535272
-0.01188244
-0.03404136
-0.00166918
0.00755576
0.02112697
0.00594604
0.02560784
0.01233234
0.00725734
0.01752467
-0.01257377
-0.00299428
0.04139792
-0.02908373
0.01577355
0.00321966
0.00497576
0.01384451
-0.01085953
-0.01584116
-0.01020100
0.02248459
-0.00848210
-0.00772683
0.05272281
-0.00880773
-0.00028421
0.02976848
0.04248539
0.01361538
-0.03743979
-0.01201593
0.00724487
-0.00414660
0.00780188
-0.02113587
-0.01846644
-0.00676384
-0.07021380
-0.01722039
0.04697005
0.02221403
0.01222676
0.00109686
-0.02410091
0.00102250
-0.01547654
-0.03167512
0.00350948
-0.00184395
0.00886012
-0.02676060
0.01073011
0.00816591
-0.01601004
0.01409721
-0.00761746
0.01110003
0.00538716
0.02389709
-0.01567341
-0.01783726
-0.00662575
0.00132734
-0.02407971
-0.00375865
0.00846650
-0.01476756
-0.00189237
0.03792793
-0.03327713
0.03074867
-0.04112932
0.05086388
-0.01871747
-0.01150586
0.01466048
-0.00808078
-0.03623052
0.01878531
0.00762589
0.02006040
-0.01318512
0.00285028
-0.03271248
0.01227906
-0.04996497
-0.01918556
0.02733296
-0.03053070
-0.04564070
-0.00176047
-0.00487110
0.02926697
-0.01924813
0.02208231
0.00795370
0.04961446
-0.03046241
0.00721604
0.00088463
-0.00440791
-0.01671047
0.05371913
0.00355909
-0.03133937
-0.00689433
-0.02217764
-0.01267126
-0.00568441
-0.01375163
0.02306488
0.01634965
0.00614177
0.04088682
-0.00157115
-0.01220043
0.00333116
-0.01524896
0.02199936
-0.03080907
-0.00129169
0.02241052
0.05755258
-0.03137736
-0.00350060
-0.02591929
0.01232052
0.02606147
-0.00412948
0.04544741
0.00646920
0.02050225
0.03446505
-0.02045543
-0.00289739
-0.00138469
-0.02127548
0.00377283
0.01498761
0.00924571
-0.01803114
0.00152535
0.00925721
-0.01773082
-0.01514903
0.01519307
0.01106481
-0.00434451
0.05598175
0.03118036
0.04196944
0.02304781
0.02036341
0.02586802
0.00165792
0.00620371
-0.00745855
-0.00951133
-0.01807177
0.00568663
0.00971536
0.02297085
0.02287735
0.02465701
-0.01421775
0.00402831
0.01483404
-0.01299815
0.00977112
0.02828071
-0.00436798
-0.00353232
0.00884666
-0.01755021
0.01929707
-0.00537069
-0.01683998
0.00246301
-0.03715846
0.01673505
0.02550439
0.03100891
-0.00482318
-0.06471255
0.03090919
0.03673111
-0.02106942
-0.01568608
-0.01124675
-0.01387806
0.01467078
0.04231496
-0.02831244
0.00832946
-0.01147892
-0.00648618
0.03663649
-0.01013598
0.00672920
-0.00527449
-0.03942907
0.04003574
0.01134693
0.03349910
0.03645442
-0.06027922
-0.01290341
-0.00398136
-0.02800729
-0.02533560
-0.01072343
-0.01695955
-0.00483663
-0.00333432
0.03573856
0.05708361
0.00764904
0.02050945
-0.00887179
0.00139785
-0.01526650
-0.01960126
0.00060369
0.00498080
0.01345904
-0.01705369
-0.00096358
-0.02074981
-0.00611345
-0.02640259
0.01352196
0.01023076
-0.02516062
0.02336446
0.02551932
0.01024904
-0.02980518
0.03505682
0.02503528
0.02995463
0.01430209
-0.01658755
0.04612033
-0.01128173
-0.03002409
-0.03216537
0.00754712
0.01872304
-0.00383021
0.02044335
-0.03641310
-0.02204695
0.02287366
-0.01755391
-0.00619334
-0.01689656
0.05363128
0.01324931
0.04067382
-0.04616773
-0.00542261
0.00365353
-0.01228485
0.00877845
-0.01655464
0.00887953
-0.02776417
0.00418466
0.02759228
-0.01266303
0.01012174
-0.05760134
0.01839455
0.04064221
0.01255403
-0.00152093
-0.00277144
-0.01711483
-0.03040102
0.00319937
-0.02615777
-0.01926770
0.01324600
-0.02422138
0.00822212
0.00512158
-0.04554407
-0.02182834
0.00431861
-0.00309981
-0.02287292
0.02314144
0.02078225
-0.01189170
-0.00325981
-0.00625864
-0.01841589
0.02028587
0.00586928
-0.04576277
0.06363979
0.00168345
0.03147677
0.01677223
-0.02370631
-0.00967312
-0.07701632
-0.03346816
0.00813877
0.05810902
0.03079547
0.00435870
0.01573684
-0.00146356
0.01705317
0.01322784
-0.02506450
-0.00935515
-0.06121760
-0.02025793
0.00097403
-0.00679419
0.01453854
0.01997217
0.01929868
0.01031412
-0.05110822
0.01733047
-0.01927896
0.01827191
-0.01638091
0.01817342
0.01904728
-0.02319322
0.00255851
-0.01144463
-0.03963304
-0.01255823
0.00652395
0.06389224
0.02306637
-0.04619329
-0.02135853
-0.01860199
0.00900684
-0.01877420
0.00984106
0.02181717
-0.01472808
-0.02860453
0.00589302
0.02477701
-0.01915233
-0.01418664
-0.01559735
-0.01447215
0.03508369
-0.01406075
0.00560743
-0.00678439
0.00925903
0.00758141
-0.00673156
0.00988092
-0.01010359
0.01179437
-0.01816972
-0.00351348
-0.02325175
-0.00819202
-0.03393425
0.00809347
0.01703344
0.00317463
0.02458839
-0.02471146
0.00409775
0.03781875
-0.04286840
0.02833617
-0.01230995
-0.01536890
-0.04018663
0.02789910
0.02000282
-0.00045138
-0.00938723
-0.02991562
0.01595215
-0.03170181
-0.02894326
-0.01095846
-0.01299382
-0.00160051
0.00889771
0.05581640
0.00596502
-0.06247795
0.00394720
-0.01364269
-0.03869075
0.01197942
-0.01249632
0.05313398
-0.01575623
0.00773720
-0.00897488
0.00489925
0.00167006
-0.00133930
0.01928930
-0.01928397
0.03192959
0.03010512
0.02747237
-0.00580756
-0.01017735
0.01540338
0.01142933
0.02005073
0.01229955
-0.01183724
0.02767155
-0.02414074
0.02391116
-0.02369862
-0.02255421
-0.01174127
0.04968841
0.01382905
-0.02946890
0.00647718
0.01477864
-0.04099664
0.00828022
-0.00754711
-0.02654066
0.00967920
-0.01323686
0.01736660
0.03939737
0.00696024
-0.00359630
-0.00739734
0.00690189
-0.01286736
0.04600390
-0.01400677
-0.01212036
0.01180537
-0.02233697
-0.02863275
-0.01353895
-0.02299120
0.00747975
-0.04117591
-0.00548955
0.02230483
-0.04781739
0.01936769
0.03224111
0.03659444
-0.01279367
0.00783595
-0.00599853
0.00297381
-0.03890861
-0.00813805
-0.02703486
-0.02109921
0.02065284
0.00027254
0.05889254
-0.00490460
0.01265479
0.00703242
-0.01453354
-0.01684505
0.02292188
-0.00941350
-0.02447782
-0.02982368
-0.04336485
-0.03741269
0.01272962
-0.01696913
-0.00562096
0.00728830
0.02988111
-0.00017027
0.03550316
-0.03148429
0.01221586
0.01172775
0.02612034
-0.01127221
0.01420566
0.02894435
-0.01596085
0.02420191
0.05305905
-0.03686074
-0.03545148
0.00655584
-0.00848375
-0.04228932
0.01814190
0.00496433
-0.03949609
0.01048030
-0.03921086
-0.03511386
0.02745164
-0.04046584
0.01361136
0.02580157
0.01197105
0.01786323
-0.00267690
-0.01458740
-0.01494548
0.02390105
-0.01400570
-0.00465424
0.00880404
-0.00844637
-0.00024803
-0.03034775
0.01680466
0.03090195
-0.01766184
0.00274960
-0.00036931
0.00930862
-0.00413662
-0.01300984
0.02124459
0.03541353
-0.01853323
0.00429791
-0.00544518
0.03275291
0.00624154
-0.03449645
-0.01652474
-0.03196535
0.03980467
0.03536501
0.01211642
-0.00672025
-0.01722839
0.01062950
-0.03841796
-0.02058823
0.04322418
-0.01488491
0.01528899
-0.00425922
-0.01346110
0.02868762
-0.00758891
-0.02026218
0.02690540
0.02298879
-0.00462440
0.00402569
-0.01464099
-0.02708694
-0.02286486
-0.01611571
0.03696875
0.00904392
-0.00207586
-0.01269465
0.02219245
-0.02863880
-0.01816961
0.02855755
0.03835815
-0.00880934
-0.00184463
-0.00448046
0.00824728
-0.03154663
0.00926958
0.05050921
-0.00394487
-0.03108335
0.01582234
0.02716570
-0.00889814
-0.00335387
0.00275933
-0.01082109
0.03231357
-0.01726875
0.01186248
0.02917263
-0.00377192
0.00198429
0.00928812
-0.01344739
0.00205913
-0.02637232
-0.01043318
0.00361214
0.01680339
0.00827055
0.02933529
0.04173435
-0.01676102
0.02070819
0.10999966
-0.01177369
-0.03866351
-0.01537811
0.04780832
-0.00615308
-0.00824996
0.02291069
-0.00740717
0.01504448
-0.01129582
-0.00834870
0.00498838
0.06058148
-0.02683101
-0.00837181
-0.02050830
-0.00653489
-0.03707886
-0.01337388
0.04891152
0.02553464
0.00666440
-0.04044242
-0.00186408
0.00055921
-0.01052507
0.03382460
-0.03110318
0.03841890
0.02055698
0.00854980
-0.00134312
-0.01333942
0.05258460
-0.01658773
-0.00671265
0.01962466
-0.02987378
-0.02698681
-0.01310484
0.00782188
0.05653654
-0.01065008
-0.01890179
-0.00444443
0.02019340
-0.02659746
-0.01582252
-0.04787555
-0.00210390
-0.01209679
-0.01375705
0.00901648
-0.01087403
-0.01723501
-0.00214321
-0.00148687
0.02228658
0.01388146
-0.01169381
-0.01872133
-0.04432008
0.01562420
0.01801873
-0.02280673
0.01962294
-0.01695226
0.00650554
0.01440362
0.01917209
-0.02512001
-0.02539074
0.00740131
-0.00787178
-0.06500242
-0.03357365
0.02716924
0.01104969
0.04395562
0.00626802
-0.00065774
0.01832079
-0.00270708
-0.00501027
-0.02933450
0.03892646
-0.01075997
0.01490737
0.00116727
0.00233308
-0.03590843
-0.01277911
-0.01740148
-0.03371231
0.01108687
-0.01892363
0.01936542
0.01300410
0.00997418
0.01143721
-0.00138119
0.02773174
-0.00492154
-0.00782734
-0.03366406
-0.02535028
0.01271277
-0.00694194
0.04607179
0.03231026
-0.01751330
-0.00365960
0.01436059
0.00438245
-0.02023874
-0.00589414
0.00208358
0.05319528
-0.01683666
-0.02248819
-0.01010059
-0.01009378
-0.00558742
-0.01627277
0.03232162
0.00391698
0.00248918
-0.01309064
-0.01318655
-0.01656284
0.01993541
-0.03911319
-0.02783178
0.03079119
-0.01155546
0.03282862
0.02182995
-0.01412599
-0.01965574
0.03315891
-0.00219263
0.01711273
0.00246195
-0.01705957
-0.03220725
-0.01371944
-0.00305507
-0.00091849
-0.00600856
0.01619121
-0.03407881
-0.02801046
0.00021844
-0.00120742
-0.01343370
0.00944571
0.02375163
0.00145417
0.00746365
-0.01526172
-0.01936996
0.02526604
0.01587083
0.00357069
0.01804879
0.03811996
0.00973703
0.04239496
0.02435085
0.00615871
0.01539585
0.03829603
0.00900318
-0.00092500
0.01762968
-0.00766167
-0.03835683
-0.01621261
0.01213638
-0.00572564
0.04397984
-0.00753456
0.00889410
-0.02664771
-0.01262284
0.00358941
0.02061806
-0.01200450
-0.00775719
-0.01567569
-0.03396078
0.05427501
-0.00364299
-0.00203281
-0.00083159
-0.03952792
-0.04423071
-0.01659523
-0.00838663
-0.00560375
0.02966743
-0.04848494
-0.02678318
-0.01520035
0.01217648
0.01102704
0.00422631
0.00590531
0.03042106
0.02811169
0.00153961
0.00396368
-0.00648286
-0.03482777
0.00701451
0.00244204
0.00464224
-0.01244706
-0.00385896
-0.01712697
-0.03656685
-0.02025740
0.01539942
0.01287711
0.01430581
0.02849490
-0.01459055
-0.03796150
0.02719148
0.01971181
-0.02387245
0.01163459
0.01288314
-0.00897776
0.01744248
-0.01708695
-0.00098781
-0.01818263
0.00084343
-0.01628862
-0.01620282
-0.01075603
-0.01164888
-0.07916383
0.01541892
-0.03225360
0.02215595
-0.00391058
-0.00275209
0.00286415
-0.01772132
-0.02047631
-0.01429145
-0.03651794
0.02483071
-0.00130547
-0.04165630
0.01691171
0.01690756
-0.02180879
0.02565568
0.00853033
0.01202126
-0.01381937
-0.03158745
0.00106941
-0.02537373
0.04287972
0.00704089
0.00620171
0.00780839
0.01213686
-0.00412352
0.00012671
0.00570847
-0.00926523
-0.01892510
-0.01579895
-0.02020277
0.09748075
0.01022283
0.04203317
0.00955619
0.04681015
0.01317213
0.01005139
0.01254502
-0.01069156
0.00016826
0.03722472
0.02173107
0.00947943
0.00316016
-0.00347913
0.00900496
-0.03276053
-0.03783083
0.01173760
-0.00316051
-0.06339547
0.00083939
0.03341911
0.03998768
-0.04615577
-0.02440472
0.01054228
0.00640735
0.01962619
-0.00218558
0.02827023
0.01474054
0.01262664
-0.01365636
-0.00062527
-0.01879423
-0.04906604
0.00084689
-0.00437277
-0.01340021
-0.03999184
0.00476445
0.04628488
0.00579050
-0.00279129
0.02367128
0.03180575
0.00783983
-0.02695727
0.00579706
-0.01117358
-0.03447430
-0.00799529
-0.02584405
0.02541841
-0.01472573
-0.03629645
0.03326249
0.02654188
-0.03225333
-0.06837142
-0.00365789
-0.01178048
0.00254185
0.01422207
-0.02003373
0.00443266
-0.02488733
0.01397644
-0.00444981
0.01710238
-0.00239792
-0.00448988
-0.06253858
0.03360983
0.00201440
0.01180281
-0.00574109
-0.01738945
-0.01687405
-0.00314884
0.02695028
-0.01331448
0.01097173
-0.00166975
0.00298371
0.04333467
-0.02753587
0.01321508
-0.01429225
-0.03229094
-0.03010647
0.01468798
-0.02268734
-0.02424407
-0.02934015
-0.00461183
-0.01628523
0.03665534
-0.00968806
-0.00270857
0.03375668
0.00936823
0.01269028
-0.03169910
0.01329542
0.00004997
0.00073040
0.00152473
0.00196829
0.04859108
-0.00469535
0.00215660
-0.02580735
0.01865887
0.02152080
0.00198207
-0.01510945
0.01768535
0.00754125
-0.02083873
0.02723551
0.01095764
-0.03876066
0.02091592
-0.01802793
0.00546918
0.00701217
-0.01467800
-0.01476703
0.01812267
0.00837598
0.01251958
0.04460559
0.02351905
-0.02557998
-0.01231755
-0.00372656
-0.02477876
0.10741228
-0.01065506
0.02685241
0.00159069
-0.02993132
0.01727976
-0.02607609
0.01384048
-0.03324063
-0.01790705
0.02588983
-0.00727957
0.03315894
-0.03367346
-0.02456091
-0.01555588
0.00164831
0.01576146
0.00431253
-0.01669400
-0.01988155
0.00117494
-0.00128434
-0.00790017
0.00219366
-0.00421878
-0.00967319
0.01290228
-0.00926130
0.02139158
-0.01800356
0.03022371
-0.01840721
0.00128850
-0.02367594
0.03401430
-0.00262872
-0.02365403
0.00759387
0.00511404
-0.02907314
-0.00122335
0.01435834
-0.03986728
0.02304869
-0.02375859
0.02404089
-0.00669493
-0.02396808
0.00890824
0.00742036
-0.00518409
0.01947551
0.02099900
0.01700270
-0.01922225
-0.00744244
0.03377730
-0.02356173
-0.02634018
-0.00243414
0.00646385
-0.00223085
0.01597012
0.00423695
0.00346768
0.02795122
0.00137171
0.01275381
0.02144587
-0.01994231
-0.00182067
-0.01751984
0.02258950
-0.02785582
0.04540139
0.01182233
0.01857054
0.04499165
-0.00882972
0.00433013
-0.01040762
-0.00591386
0.01084493
0.02360591
-0.00233434
0.02041598
-0.02071486
0.00287293
-0.02072022
-0.01894038
-0.00219005
-0.01179330
0.05334951
0.01060995
0.05683509
0.01458113
0.01752876
-0.01061657
0.02026620
0.02917566
0.02186040
-0.01588247
-0.03015630
-0.04552587
0.00308372
-0.01526629
0.02019032
0.00245477
-0.00754037
0.00924056
0.00858765
-0.01952369
0.00961787
0.00276682
0.02105043
-0.03339185
0.00804425
0.01159512
-0.01010633
-0.01201536
0.00272732
0.00543886
0.00957186
-0.02284723
-0.02146368
0.03132765
0.00554697
0.03164468
-0.01920007
-0.02799436
-0.01972314
0.01192140
-0.00683884
-0.04750181
-0.00971861
-0.01265037
0.00122103
-0.01124130
-0.03384700
-0.02719736
0.00999045
-0.00888891
-0.01936638
0.02842834
0.00401451
0.00827858
0.00110456
0.01137205
-0.01071266
0.01327943
0.01804372
-0.01693163
-0.01532112
0.02910230
0.01561196
-0.00598906
-0.05149179
-0.03197465
-0.02464660
-0.00931657
-0.00114224
0.00379000
0.00441113
0.00766079
-0.01059101
0.00152187
0.03538432
0.01533364
-0.00278393
-0.01007067
0.00229024
0.01273485
-0.01828479
-0.03260763
0.01484579
0.00598927
-0.02329770
-0.00057191
0.00454742
-0.03755960
-0.02178844
0.03206371
-0.02271074
0.00646945
-0.00241412
-0.00482344
-0.02564159
-0.03282875
0.01066936
-0.00355881
-0.01137037
-0.01233832
-0.03036336
0.01791143
0.05623275
0.00552204
0.00390640
-0.00469634
-0.01290526
-0.01273928
0.01424564
0.00815084
0.03544927
0.01497704
-0.02091751
-0.02061719
0.01396278
0.01451885
-0.04331438
0.00861588
-0.00301766
-0.01094206
-0.00671669
-0.01828579
-0.00507522
0.01703212
-0.01535655
0.00763992
0.05846805
0.00093720
0.01288210
-0.00477378
-0.00045228
0.01721168
-0.00498283
-0.05252624
-0.00279065
-0.00768703
-0.00749751
-0.03149059
-0.00317921
-0.01847979
0.01872594
0.02087321
-0.02989138
-0.02132233
0.02997793
-0.01097909
0.04980908
0.02661662
0.00194128
-0.00138297
0.00362849
-0.01112796
-0.05180484
-0.00274446
0.00046727
0.01244568
-0.00353190
0.02547272
0.00879244
0.01007257
0.00777757
-0.03768642
-0.02095850
-0.01490442
0.01204719
0.02952362
-0.00773418
-0.01586820
0.00247455
0.00780356
0.00608038
0.00439262
-0.01712082
-0.02081073
0.02624856
-0.02566256
-0.00548150
0.01272949
0.04557484
0.02600112
0.00416215
-0.03466491
0.00800762
0.01081551
0.01493866
0.02271734
0.02325310
-0.00694417
-0.01948204
-0.02500301
0.00065974
0.02449681
-0.01981752
0.03265473
0.02183930
0.00914010
0.00692858
-0.01642145
0.04687038
0.00120114
-0.02444175
0.00335662
0.02158097
-0.02962293
0.00717415
-0.03065734
0.01291957
-0.00665468
0.04484269
-0.02612296
-0.01489594
-0.00096379
0.01531871
0.00893530
0.00544607
-0.00423134
-0.01821437
0.01220940
-0.02983365
0.01126137
-0.02992007
0.01619712
-0.00329041
-0.02630180
0.00458606
-0.01038586
-0.01628779
0.01072769
-0.02760947
0.00746166
0.00285337
0.00535590
0.01685891
0.01207063
0.02218038
0.01326271
0.01361218
-0.02021868
0.02420509
0.00035551
-0.00878277
-0.01183594
0.02204850
-0.01499166
0.01051274
-0.00961810
-0.04213829
-0.01471949
-0.00967808
-0.00384582
-0.02926924
-0.00227820
0.00172845
0.00329431
-0.01050998
-0.01388549
-0.06372311
-0.00081201
-0.02045224
-0.02368388
-0.00059866
0.01268748
0.00573308
-0.00308674
-0.01855287
0.01324894
-0.01225764
0.00795988
-0.00214730
0.00781787
-0.00235134
-0.01205895
0.01821210
-0.02148274
-0.00943705
0.00680463
0.05491679
-0.00039120
-0.00821774
0.01856728
-0.00246860
0.03003893
0.02033739
-0.00598194
0.00746353
-0.00734576
0.00832532
-0.01663554
-0.02922470
0.00573927
-0.02991635
-0.01711696
-0.02263499
-0.02028796
-0.00872610
0.00761220
-0.02159716
-0.03987337
-0.00229548
-0.01570742
0.02167852
0.00537082
-0.00922134
0.00747549
0.02395726
0.02103895
0.00967682
0.00502347
-0.00362938
-0.00554158
-0.01315829
-0.00258490
0.00093036
0.00357580
-0.01539366
-0.04495119
-0.00732343
-0.01904337
0.03498995
-0.02812128
0.00138266
-0.00382494
0.01062384
0.00926885
0.00127822
-0.00188604
0.02794570
0.00208116
0.00180865
-0.01333124
-0.00583664
0.01741750
-0.03827393
-0.00876562
-0.02190353
-0.00364405
0.01917033
0.02358902
0.00000854
0.02866334
-0.01502343
-0.00741101
-0.00105870
0.00328699
0.00275402
-0.03959154
0.02804874
-0.02186813
-0.03402225
0.01684371
0.04568943
-0.02959592
0.02620318
-0.02991664
-0.01869100
-0.00955658
-0.00547919
-0.03914835
0.00009614
-0.00569798
-0.02560468
0.03693235
-0.01835644
0.00393908
-0.00400366
-0.03063794
0.03132878
0.00305262
-0.01706406
0.03396864
0.01665609
-0.00855131
-0.01241204
0.00308342
0.01489845
0.00860397
0.00813428
0.02190309
-0.02293964
-0.00523268
0.01221507
-0.01230837
-0.01821231
-0.04865604
0.00030936
0.00766761
0.03232661
-0.00843270
-0.00100687
-0.00612402
0.03363042
0.00310714
0.00771194
0.00210048
0.03212769
-0.03515935
0.05575833
0.02186803
-0.01441919
0.04512396
-0.02400559
0.01572909
-0.05836993
-0.01148075
0.03224974
-0.01283358
-0.04072970
-0.00308219
-0.01654720
-0.04938898
-0.04567667
-0.02860952
0.01000100
0.03297685
0.03452633
-0.00487648
0.01090697
0.00057542
0.00230895
0.03477890
-0.00849840
-0.00435889
-0.01590081
0.00503302
0.00455695
-0.01639724
0.02860595
-0.01272832
-0.02077011
-0.01898582
0.00880354
-0.02752163
-0.00601129
0.00498773
0.00082824
0.02691469
0.01096292
0.00654201
0.00487226
0.04181791
-0.01365529
0.01047702
0.00580391
-0.00681975
-0.02514460
0.00423717
0.01663999
0.00298709
0.01671534
-0.04288234
0.00058873
0.01877299
-0.02339059
0.00187214
-0.00274079
0.00173227
-0.00788742
-0.01031802
-0.00683151
-0.03468115
-0.03147653
-0.00696408
-0.01345935
0.00099631
0.01538986
0.02997956
-0.02390442
0.00218162
0.00213752
-0.02928992
0.00244539
0.01172693
0.00804968
-0.00889832
0.01508301
0.01514746
0.00962238
0.00523082
-0.00131172
-0.02434740
0.00001665
-0.01855408
0.01675783
-0.02124916
-0.00997300
-0.01350826
-0.01610966
0.04340862
-0.00605494
-0.00265899
0.02375768
0.02973712
-0.02141486
-0.02867443
0.00894559
-0.02751317
-0.02584161
-0.03542287
0.00280147
-0.03802258
-0.00182188
-0.03577113
0.03108454
-0.01743137
-0.02436214
-0.01558703
-0.04675335
0.00132492
-0.00120341
-0.00695506
-0.01594286
-0.02152080
0.01019495
-0.01818054
-0.01141768
0.04202012
0.02072101
0.02673102
-0.02877877
-0.03125462
-0.01356915
-0.03298901
-0.03914800
-0.01407983
0.00837114
-0.01711382
0.03719689
0.01635262
0.06142196
0.01220636
-0.00492290
-0.01551036
-0.00981054
-0.01372926
-0.02919783
0.00538957
-0.02783317
0.01281531
-0.02189728
-0.01128272
-0.04742602
0.00503050
0.00413103
0.00450858
0.00506664
0.02812973
-0.03339621
-0.02336004
0.02147555
-0.02775432
-0.03474695
0.03351453
0.00661774
-0.00775449
-0.01902590
0.05092885
-0.02175202
-0.00857017
0.04546275
-0.03113795
0.00483037
-0.00660959
0.01232477
-0.01069596
-0.00066603
0.01466397
0.00807092
-0.00977516
-0.00453952
0.00435228
-0.00789918
0.04303088
-0.00395310
0.00161494
0.04995970
-0.00378521
0.01505680
-0.00768993
-0.00196540
0.00879373
-0.00285379
-0.00596795
0.00100489
0.01533884
-0.01439732
-0.02268531
0.00448225
-0.00069276
0.02843599
0.00660676
0.01109881
0.02580997
-0.01080258
0.00844169
0.00490375
0.02276749
0.00291618
0.00163237
0.01496695
-0.00060393
0.02151985
0.03178638
-0.01399260
0.00017033
-0.02986328
0.03108196
-0.01057526
0.01393334
-0.03971903
-0.01726266
-0.01159467
-0.01932192
0.00769226
0.00597958
0.00088530
-0.00472517
0.02314376
0.00841109
-0.03649314
-0.00820860
-0.00085249
0.01924932
0.02774236
0.00044850
-0.02302879
-0.00485396
-0.00327994
-0.02358636
0.00920922
0.00343092
-0.00039047
-0.01335372
0.02561783
0.00761430
0.01029256
0.01824836
0.01432733
-0.00631502
0.01819834
-0.01467962
0.03755272
0.01068234
0.00464972
0.01138557
-0.00651640
-0.00123121
0.00736208
0.00570718
-0.01963981
0.02235959
0.01108276
0.02593632
0.01994268
-0.01118126
-0.00232899
-0.00651004
0.02745301
-0.01561652
0.00693254
0.00958785
-0.00208607
-0.00055944
-0.00306010
-0.02142702
0.00640677
0.00096421
0.00073639
0.01744902
0.00773844
-0.01067063
-0.04829392
0.00680601
-0.02940013
-0.01868779
-0.02060968
-0.01091516
-0.00916958
-0.01989035
0.00778031
-0.00591171
0.02784846
0.02777036
0.01612092
-0.01309924
0.02018273
-0.01377803
-0.02975651
0.01175272
0.00220021
0.02412423
-0.04320383
-0.01537053
-0.03061664
-0.01288512
0.01934501
0.00952338
-0.00651088
0.00830322
-0.00068501
-0.00460381
-0.04160467
0.04331981
0.00168362
0.00972768
0.00524147
-0.00300073
0.00752076
-0.00090938
-0.00572476
-0.02054369
-0.00370399
-0.01195249
-0.00113041
0.01778655
0.00263801
-0.01547982
0.03245562
0.01805618
-0.00177891
-0.00714040
0.02691687
-0.01320567
0.02289282
0.02072171
0.00025300
0.01883529
-0.01921636
-0.00114689
-0.00327223
-0.00010752
0.01522364
0.02329352
-0.00118633
-0.04269690
-0.00573981
0.01852699
-0.03122616
0.02372958
0.01204344
-0.01580697
0.01260713
0.00205875
0.02271494
0.01097960
0.01626892
-0.01207104
-0.02299676
-0.00410966
-0.01031993
-0.00059591
0.02511097
0.02716552
-0.00571836
0.03346285
0.01323742
-0.02382367
-0.00457556
-0.03473869
-0.00988026
0.02374839
0.03603986
0.02321274
0.00748021
-0.00601581
-0.00296532
0.00967938
-0.00354981
0.00007771
-0.03575139
0.02023566
0.01663451
0.00769712
-0.03155465
0.02226494
0.01625512
-0.00662602
-0.02187385
0.01996093
-0.02918643
0.00886802
0.00909007
0.01210588
-0.00607214
-0.00116948
-0.01296917
-0.00160339
0.02035145
0.01701432
-0.01812127
0.01077961
-0.01507801
-0.01349652
0.00646008
0.01547592
0.04066838
-0.04630589
-0.00000841
0.01228400
0.00445910
-0.02012449
-0.02783752
0.00628737
0.00532246
-0.01847676
0.02973905
0.00507132
0.01474128
-0.02511931
0.00241824
0.02100037
0.02860950
-0.01100445
-0.01636804
0.00321441
0.02475997
0.01414166
-0.01562716
-0.02465714
-0.01252456
-0.01462263
0.00804213
0.00385614
-0.03670593
-0.02272541
0.01500258
-0.00253822
-0.02094977
0.02347929
0.00008563
-0.02306130
0.03109711
0.02731369
0.02239172
0.00487835
-0.00119420
-0.03869581
-0.02732615
0.00721459
0.02107145
0.02452318
-0.01940167
0.00689204
-0.01449810
-0.00017438
0.03546012
0.02706674
-0.00962711
-0.01312295
-0.01462860
-0.00827219
-0.01923405
-0.01068068
0.08005580
-0.00950853
-0.00340653
-0.00297057
0.02759777
-0.02228805
0.04530368
0.00068157
-0.00533878
-0.01335404
-0.01969363
0.01714524
0.00845740
-0.00308425
0.03454943
-0.04296189
-0.03598581
0.00439453
0.00352367
0.00948450
0.01003964
0.01287747
0.00265592
-0.00132274
0.01598163
0.01705828
-0.00856476
0.02369183
0.01216489
-0.00890975
-0.04504595
0.00332652
-0.03287255
-0.00253279
0.00369018
-0.03689321
0.00215477
-0.00784353
0.01540728
0.02952569
0.01668917
-0.01957030
0.02954904
0.01933230
-0.00767404
-0.00403959
0.01916999
0.02110945
0.02482930
-0.09063258
0.02111427
-0.03682458
0.00814410
-0.09468349
0.01399969
0.01012309
-0.00187290
0.01986521
-0.02820362
-0.03036908
-0.03045380
-0.03972407
-0.00884682
0.01678911
-0.00089905
-0.00063904
-0.03095802
-0.01537257
0.01856347
-0.01251269
-0.01751899
-0.03109368
0.02670152
0.03158004
0.01677304
-0.00127794
-0.01113909
-0.01255674
-0.00847252
0.00455541
0.02769646
-0.02255367
0.00739110
0.01465438
-0.02069512
0.02413056
0.02248632
0.01257062
-0.02721157
-0.02951123
0.01632436
-0.03591672
-0.00381401
0.03643506
0.00537264
0.00601555
0.00247204
0.02277550
-0.02398010
0.04567509
0.00178396
0.00490426
-0.03090406
-0.00671136
0.01445763
0.02886411
-0.00866298
-0.01943200
-0.02209220
-0.00533887
-0.01086392
-0.01545571
-0.02814716
0.00162197
-0.03731050
-0.02069941
0.04086453
-0.00452782
-0.02508953
-0.01741249
-0.03623691
-0.01268472
-0.02456078
-0.01727003
-0.04360956
0.01999772
-0.04393360
-0.01516375
0.00850266
-0.01326689
0.01702361
-0.03549080
-0.00647781
-0.01244023
-0.00686298
0.01771449
0.00631674
0.00024143
-0.01707354
0.01435960
0.01580981
-0.00689540
0.00455806
0.02738510
-0.02994939
-0.01325587
-0.01352966
-0.04692958
0.00490276
-0.04507143
-0.03341686
-0.01622197
-0.02219737
-0.00290361
-0.00462175
-0.01491037
-0.00509066
-0.02975312
-0.00650907
0.04933034
-0.01373053
-0.00255421
0.00165138
-0.03542231
-0.00554570
-0.00398328
-0.01092034
0.01336547
0.02186331
-0.00921401
0.01205189
-0.00517237
0.02080577
0.02272001
-0.00742279
-0.01307133
-0.00916644
0.02102958
0.00418160
-0.02092201
0.01454182
-0.00524286
0.00009837
-0.00393960
0.02279713
-0.00193109
-0.01131823
0.01371529
-0.00294568
-0.00753089
-0.02669869
-0.00598454
-0.02811640
-0.04083592
-0.01334893
-0.00841469
-0.00688334
-0.03161286
-0.01982925
0.00117548
-0.01846872
0.03204884
0.00493115
0.03629132
0.01420404
0.04332222
0.00285818
0.00087204
-0.04205436
0.04278997
0.00895626
0.03013839
0.02894267
0.02383752
-0.00914568
0.01865369
0.01474356
0.03154772
0.00850099
0.01607667
0.00691530
0.05466407
0.02711889
-0.00338522
0.01692154
0.00993211
0.03613237
-0.00191773
0.01745144
0.00492236
-0.01534555
0.01030245
-0.03154350
0.00827395
-0.01346310
0.00466376
-0.00046619
-0.00412065
0.01060423
-0.00254881
0.01602980
0.05196504
0.00115965
-0.01274119
0.00188474
0.01512198
-0.00508953
-0.03301133
0.04820783
-0.00838797
-0.01257154
-0.01182362
-0.02174471
0.01644581
0.00196551
-0.01513717
-0.00788182
0.01734346
-0.01447865
-0.01111697
0.01281134
-0.00501757
0.02060251
0.01248275
0.01354649
-0.01434518
0.02705502
-0.00968377
-0.01687457
-0.01523522
0.01404002
-0.00003467
0.07294527
0.02274990
0.02125227
0.03210835
0.00958527
0.01830052
0.03947660
0.04184586
0.04350327
-0.04205871
-0.04300028
-0.00154332
-0.01933231
-0.00016862
-0.00719506
-0.01864564
0.01021988
0.00100802
0.00043018
-0.04420947
0.03528521
0.00593347
-0.01174603
0.00800051
-0.00223782
-0.00019881
0.01123111
-0.03076545
-0.03342197
-0.03396058
-0.01138543
0.00312030
0.01865738
0.02285629
-0.00846019
-0.02977134
0.03855249
-0.02828293
0.07828005
0.00757479
-0.01590677
-0.01113808
0.03261750
0.00327605
0.01743532
-0.05599077
0.02712352
-0.01863519
-0.00414557
0.04449242
0.04829433
-0.00183646
0.01946440
0.02144601
0.02222781
-0.00696941
0.01632186
0.00855835
-0.00099370
0.00859900
0.03003271
-0.04706396
-0.03164194
-0.01943430
-0.02730663
-0.00712235
-0.00699354
0.03931243
0.02738259
0.01308341
-0.03830266
0.02802552
0.00480911
-0.00105330
0.00108271
-0.01046490
0.00178071
0.02499407
0.01700150
-0.05796591
0.00921981
-0.02515456
0.00169567
0.01126707
0.00284401
-0.00189654
0.00885902
-0.01570241
-0.00430280
0.02276896
0.02062488
0.01441306
-0.06218509
-0.05082832
0.00206315
-0.01834727
-0.02335527
-0.00544504
-0.03506618
-0.00897192
-0.00603345
0.02916102
0.03342819
0.00462968
0.00530759
-0.01077553
0.01363313
-0.01427214
0.02434852
-0.01503926
0.00075023
-0.00042880
-0.00238870
0.03408163
-0.03753432
-0.02619761
-0.00929634
0.03129939
0.00045095
0.00981664
0.03850164
0.02849218
-0.01602466
-0.00989151
-0.00499517
0.01924508
-0.00495333
0.00176492
0.00823794
0.00516867
-0.01015243
0.00452247
0.01046951
-0.00981176
0.01290836
0.01714839
-0.01962870
0.00579509
0.01556505
0.00588052
-0.00521716
-0.01174529
0.00352816
-0.05074852
-0.04993659
0.01915084
-0.01221522
0.00068603
-0.00338158
0.07660431
0.02884211
0.00295860
0.02807787
-0.00767459
-0.05101208
0.01254833
0.00977627
-0.03231484
-0.02112313
0.00905149
0.00264536
-0.01079006
-0.00119941
0.00918079
0.00264419
0.00545516
0.03722758
0.06815775
-0.01621434
-0.01733654
-0.02025277
0.02679248
-0.02490788
-0.04006992
0.00251984
0.01584251
0.00206687
-0.02075686
-0.02813155
0.00639246
-0.01705066
0.01490265
-0.01745966
-0.01806946
-0.04433089
0.01871598
0.01272622
0.03535065
-0.00093641
-0.02534233
-0.02200312
-0.01630668
-0.05640250
0.00064509
-0.02230042
0.00195402
-0.00801247
0.00095369
0.01113325
-0.00385642
-0.02065396
-0.00750209
0.02625546
-0.00784694
-0.02980831
0.00624037
0.00425873
-0.02303951
-0.01300284
0.00683012
-0.00118788
-0.00301843
0.00055987
-0.01147547
-0.01434294
-0.02788389
-0.02339408
0.02658757
-0.02761319
-0.02224201
0.02893312
-0.00999089
-0.00919138
0.02610915
0.01560272
0.02450550
-0.01774884
-0.01240782
0.02178573
-0.00839956
0.00085266
0.02761779
-0.03891217
-0.02149200
-0.04653095
0.00779074
0.03855874
-0.02011880
0.01613821
0.01955085
0.03269172
0.01494267
-0.01599410
-0.02405260
-0.00613729
-0.01236481
-0.00604353
-0.01406737
0.00599185
0.00253736
0.01813720
0.03721037
-0.01019385
0.01070824
0.03153630
0.00508485
-0.01206852
-0.01793921
0.01639421
0.01039109
0.01502901
-0.02877103
-0.04503204
0.02054974
0.00196031
0.00580309
-0.00959487
-0.03092369
0.00341891
-0.03030325
-0.02011922
0.03490525
-0.00255881
-0.01043747
0.00925814
0.02153602
0.03087911
0.01090317
0.03182866
0.01469831
0.01344693
0.01624488
0.01939039
0.00325985
-0.03098373
-0.02192443
-0.00861958
0.00877032
0.00302278
-0.00183414
-0.04368919
0.00121837
0.00044164
0.04614532
-0.03163638
-0.01068752
-0.00028247
0.00127781
0.01630387
0.00315647
-0.00339178
0.00123262
0.00249848
0.00601277
-0.04283992
-0.01184266
-0.00454955
0.03148319
-0.01476132
-0.02606559
0.00230024
0.01471440
-0.01560540
-0.00097071
-0.01827786
0.00097959
-0.01608008
-0.00327621
0.01998868
-0.01118026
0.00640369
0.01432543
-0.00412198
0.04970181
-0.01614150
0.02142926
-0.02158836
0.00733902
-0.01373374
-0.02923851
0.02981452
0.01244533
0.02880740
-0.00065456
-0.00961132
0.00930479
0.00265913
-0.00389407
-0.01650982
0.00546250
-0.04375641
0.00013741
0.02290991
-0.01372667
0.02558008
0.00168778
-0.00891101
0.00589818
0.02825029
0.00311289
0.04575222
0.03256905
0.00799743
0.04440986
0.00714889
0.01466276
0.01387945
0.02795825
-0.00565953
0.01382420
0.00468997
0.02842061
0.00359088
-0.02118978
0.01043011
0.02051889
0.01416257
0.01538031
-0.02574883
0.02238401
-0.01162717
-0.01138186
0.00943049
-0.01689666
0.02077675
-0.00064727
-0.00644918
-0.01400680
0.02058523
-0.02785994
0.01000581
0.00141686
0.03886038
0.00063490
-0.00054295
-0.00831279
0.03026198
0.02083699
-0.01683003
-0.00569740
-0.01734783
-0.01024164
0.01987736
-0.01047193
-0.00774746
0.02501310
-0.00265549
0.01958916
-0.02755599
-0.02898078
0.01972204
-0.02190774
0.03020176
0.01445844
0.00030493
0.00087305
-0.02411868
-0.04637690
0.00258976
-0.01207814
0.01505635
-0.02431445
0.00608580
-0.01679660
0.01290650
0.00325993
-0.01416426
0.00340421
0.00757099
0.00402835
0.00122785
0.04242367
-0.00809209
0.01807938
0.00356114
-0.01801161
-0.04473511
-0.01912929
0.01194005
-0.01466319
0.01184820
0.00619765
0.01691880
0.00614464
-0.01654018
-0.00050094
0.03163163
-0.02744373
0.02462707
-0.00586159
0.02755504
0.03260893
0.00735492
0.01913616
0.02743215
-0.02300936
0.03204964
0.00948584
0.01184193
0.01765985
-0.00911739
-0.03985303
-0.01038225
0.03224063
0.00967923
0.01858480
0.03506196
0.00825102
-0.01604004
-0.00504558
-0.01430214
-0.01325397
0.00402982
0.03269519
0.01346840
0.02304353
0.01433223
0.00714516
0.01383930
0.00008592
-0.01009980
0.01505726
-0.02365006
0.01094996
0.00802069
0.04939378
-0.02224942
-0.01841881
-0.01035872
0.00139989
-0.05280698
0.04688463
-0.00771503
0.00396957
-0.00718443
0.00906664
-0.02897053
-0.02310386
-0.01140264
0.01413581
-0.02254443
-0.04711642
0.00110715
-0.01264011
0.03764835
0.01252833
-0.00869774
0.00084232
-0.01534993
0.01648056
-0.00518733
-0.01685183
-0.03225320
0.02064506
-0.02222044
-0.00460407
-0.02238388
0.00685145
-0.02392932
-0.03734126
-0.00009378
-0.01140620
-0.05065003
0.01883116
0.00284330
0.02998428
0.02348086
0.05131708
-0.02367717
-0.00998223
-0.00785154
0.04531923
-0.00248510
-0.00805447
0.03735879
-0.04125033
0.01248954
-0.01224092
-0.01989258
0.01441033
-0.00331278
-0.03408941
-0.02228764
-0.01251265
0.01850521
0.00721098
0.04073472
-0.03666442
-0.00959186
-0.01927057
0.00902049
-0.01188474
0.00668130
-0.06120640
0.01079216
-0.00017197
0.03355992
0.00214202
0.01092882
-0.03076009
0.01646300
-0.02369525
0.00055727
0.02327517
0.00794564
-0.00024860
0.01616852
0.03500661
-0.00010385
-0.00749033
-0.02906214
0.00127054
-0.00922501
0.01209764
-0.00068535
-0.02495622
0.00478986
0.01515699
0.04076439
-0.04340197
-0.00306969
0.01506650
0.01146825
0.00052901
-0.05885765
0.00017143
0.01136563
-0.00163397
-0.01818031
0.00257459
-0.01931044
0.01297595
-0.00733685
-0.00332571
-0.00525406
-0.00332426
0.05222322
-0.00898224
-0.05306979
0.02278378
0.01985352
0.00066097
0.00967713
-0.01055122
0.00779996
0.00198405
0.02999842
-0.02536500
-0.00715303
-0.01063470
0.00215739
0.01239949
0.04022108
0.01712736
-0.05077550
0.01543164
-0.01532912
-0.01752316
-0.03516347
-0.02235783
0.00659108
0.00728808
0.00361230
-0.00940133
-0.01092890
0.01927379
-0.01978360
0.03623722
0.01041954
0.01579857
0.01064229
-0.02177310
-0.02024154
-0.00687854
0.00748496
0.02621220
0.06052414
-0.00345051
-0.02232217
-0.04233823
0.00060861
-0.01816055
0.01244501
0.01087812
-0.00958182
0.01423660
-0.02831099
-0.04607066
-0.02844251
-0.00112344
0.02094774
-0.00277151
-0.00817858
-0.00614461
0.00993605
-0.04843819
0.00054955
0.00901584
0.04140412
-0.00354623
-0.04346376
-0.03597987
-0.01560049
-0.02020388
0.01008820
-0.01363656
0.02638000
-0.04059601
0.02443419
0.00295404
-0.02664419
0.00281149
0.06738672
-0.01583979
0.00082489
-0.00574298
-0.03410421
-0.00078056
-0.02044515
0.04393994
-0.00460376
0.01444841
0.01056281
-0.02682276
0.04433518
0.01119742
-0.01925007
0.03268623
-0.00483581
-0.00705909
-0.04109861
0.04569219
-0.01813089
-0.00934185
0.02893226
-0.04342807
0.03272308
-0.01347787
0.01170044
-0.01064308
-0.00147302
-0.03539899
-0.02356846
0.03388656
0.03989146
-0.01893727
-0.07298185
0.01974312
0.01664071
-0.00869682
0.00112243
0.03124730
-0.02142817
-0.01230119
0.04442303
0.00020408
-0.02692817
-0.00616094
-0.00163212
0.01588105
-0.02233627
0.00907339
-0.01789462
0.00002116
-0.00892387
0.01613934
0.01208056
0.00989289
-0.04073401
0.01562212
0.06004902
0.00352334
-0.05134712
-0.00230779
0.00581356
-0.00014087
-0.00920135
-0.00985246
-0.02092035
-0.02285283
0.01732481
0.01511326
0.01499250
0.01404644
-0.03740924
-0.00656852
0.03105498
0.00541866
0.02256661
-0.00751769
0.00027709
-0.01605073
0.00553253
-0.03826013
0.01896323
-0.01951936
0.02889019
0.00082711
0.00361454
0.01416590
-0.01302639
0.01479405
-0.03270588
0.00910820
0.02769409
0.00568641
-0.02685662
-0.01234708
0.00990759
0.06699573
-0.00221285
-0.01869250
-0.01859258
-0.02815465
0.04109339
0.01251386
-0.05528048
-0.00338192
0.01470000
-0.02715070
0.02447886
0.01338502
-0.00006519
-0.03077642
-0.02106500
0.01167606
-0.02248305
0.01479416
0.01085363
0.03289606
-0.00021787
-0.02648906
0.03965473
-0.00959566
-0.01046509
-0.02193755
-0.01047007
0.01028877
0.02017669
0.01692210
0.00246914
0.01695451
-0.00963181
-0.01065397
0.00042829
-0.01209464
-0.00667775
0.02528955
-0.01311062
0.02198749
-0.03884668
-0.03052185
-0.01369574
-0.01652196
-0.05657211
0.04250403
0.01121163
-0.02755751
0.03410969
0.00138019
0.09213479
-0.02141922
-0.01771134
0.05362923
-0.04326389
-0.00796214
0.00651043
0.02163654
-0.00079714
0.07051744
-0.03153034
-0.01862649
0.00473482
0.00917452
-0.04160578
0.01983392
0.02122749
0.01740644
-0.06703317
0.01336985
-0.04070439
-0.03914949
0.01823406
-0.01131007
-0.05349351
0.05857898
0.03509039
-0.00147003
-0.03402136
-0.02660527
-0.02191543
-0.00931617
0.06390959
-0.04638857
-0.01752266
0.01100073
-0.01205682
-0.08835595
0.00262513
-0.02601137
-0.00246757
-0.01136817
-0.00081978
-0.02034415
0.01932889
0.01141193
0.01770744
0.00384083
0.01600621
0.01779789
0.02604090
0.02563882
0.02385940
0.00479857
-0.03985452
0.00269114
-0.01830484
-0.03259876
-0.05241689
-0.01442919
-0.03272104
0.00197058
0.01376646
0.00836216
0.00656727
0.01026737
-0.00204787
-0.03206514
0.00592798
0.01505327
-0.05737982
0.00391592
-0.00549384
0.01899175
-0.01165274
0.00812074
0.03053487
-0.01925424
-0.00858850
0.07498221
-0.01353776
-0.02065947
0.00736598
0.01067589
-0.02214229
-0.06437851
-0.05016996
0.00024894
-0.01945326
0.02549705
-0.01239189
-0.01816986
0.01238434
0.00067749
0.03474374
-0.01940077
-0.01878403
0.02311837
0.01119821
0.00129199
-0.03737228
-0.02591385
-0.04224801
-0.00518872
0.01569445
0.02855139
0.03838910
0.00737439
0.04010336
0.00766931
0.00900020
-0.02566240
-0.02014470
-0.01693078
-0.00032008
-0.00233320
0.00139197
0.03587126
0.01372644
0.05737790
0.02278054
0.00342717
-0.01740260
-0.01706142
-0.04123051
-0.01667242
-0.03192148
0.00169801
-0.03838855
0.02029328
0.00691436
-0.00877658
-0.01432049
-0.04705484
-0.03677673
0.02703918
0.00123880
-0.04990965
0.05121152
-0.00530301
0.03979375
-0.00845861
0.00615514
-0.00366600
0.04087507
0.05262060
-0.04902406
0.02384702
-0.01238101
0.01865962
0.06685273
-0.01999254
0.01408954
-0.00206376
0.00813777
-0.00636319
-0.02856573
-0.00536557
0.00580336
0.01188280
-0.00522437
0.00421214
-0.01492314
0.00581278
0.02586642
0.00020783
0.03802748
0.01238300
0.01545054
-0.01571658
-0.02068410
0.00857117
-0.02192047
-0.04772222
0.04864724
-0.04247205
0.03616661
-0.01294887
-0.09305339
-0.00932000
-0.01343728
0.00967808
-0.03339472
0.03660410
0.00754435
-0.00167987
0.00982913
-0.06048921
0.02964090
-0.00469714
-0.05339019
-0.01504356
-0.02046491
0.01408159
-0.01098632
-0.06385164
0.02245027
0.01535568
0.02842277
-0.00216615
-0.01776932
-0.01722688
-0.03274715
0.03889757
0.02149759
-0.02385289
-0.01003818
0.00711792
0.00508417
0.02631335
0.03823916
-0.04808026
-0.01002835
-0.01623985
-0.00336483
0.01928082
0.03862775
-0.01627685
-0.02442383
-0.01657921
0.00305858
0.01181952
0.01570159
-0.01867357
-0.06655554
0.05056262
-0.01971303
0.03116175
-0.02654557
0.02331773
0.02757194
-0.00475932
-0.00323273
-0.01629143
0.06093294
0.00540724
-0.01341378
0.01247449
-0.00178321
-0.01194927
-0.02344404
0.02025344
0.01804177
0.00984242
-0.00764698
0.03432057
0.00381738
0.01367633
0.00414167
-0.04907764
-0.01124100
-0.00097753
0.01550408
0.00716848
0.01419991
-0.00400382
0.01542714
0.00064371
-0.00734539
-0.01350543
0.00773876
-0.01757277
-0.00096210
-0.03006922
0.00477451
0.00541038
-0.03316629
0.00256796
0.05472711
-0.00013674
-0.03606158
0.00586906
0.00455327
0.01406607
0.03162370
-0.00436375
-0.00259660
-0.00689996
-0.02784524
0.01265258
-0.02398871
-0.00617212
0.01436002
0.00462951
-0.02942366
0.03111727
0.02442502
-0.01137996
-0.00199150
-0.02249127
0.02914817
-0.02987713
-0.00866673
0.00110174
-0.07613049
0.00991424
0.01087581
-0.00786551
-0.00106896
0.00466735
-0.00284823
-0.00030355
0.01953349
-0.05001773
0.00161111
0.01445046
0.01717458
0.01751160
-0.00864813
0.03951766
0.04154735
-0.00265408
-0.00654180
0.01050113
-0.00299658
0.01388450
0.03593681
-0.04355098
0.01466445
-0.02834377
0.01722817
0.00383047
0.01133306
0.01358645
0.04658389
0.00680938
-0.01058016
0.00172115
-0.01513016
-0.00377934
-0.00529864
-0.03471187
0.01571166
-0.00727594
-0.03662590
-0.00838160
0.02130801
0.01229234
-0.03030663
0.00770791
0.00503021
0.00278742
0.02253580
0.00793559
-0.02351499
0.01148455
0.00808726
0.02089964
0.00671752
0.00260268
-0.00043603
-0.01718070
0.01658258
0.00033141
-0.03582718
0.00710167
-0.03202943
0.01424186
0.01217142
0.03019717
0.00390578
0.02555003
0.00687926
0.02876765
-0.03353702
0.01234326
-0.00156565
-0.00181318
-0.00323902
-0.02379633
-0.02945630
0.02026406
0.00276952
0.00638719
-0.03918375
0.03104313
0.00471240
-0.01946982
0.00379897
-0.00817469
-0.01525760
0.01613249
0.01860328
-0.01234855
0.00867966
-0.02939524
-0.03028861
0.05870387
0.02396711
-0.01198324
0.02381184
-0.01340037
-0.01205236
-0.02532638
-0.03111013
-0.00369902
0.03960070
0.01037615
0.00335274
0.04314316
-0.00166299
0.02757790
-0.02169900
0.01548713
0.01305631
0.00013620
-0.00920823
-0.02039268
-0.01906560
-0.01380343
-0.00054701
0.04604307
0.01401372
-0.00655214
-0.01946361
0.00242995
-0.03012635
0.01220501
-0.02304886
0.00425901
-0.01647867
-0.02577585
0.00310214
0.01747812
-0.01533088
0.02070737
-0.01348897
-0.00123539
-0.00346016
-0.01776482
-0.02173316
-0.02507335
-0.01528883
-0.00374715
-0.03564389
-0.01370852
-0.01158698
0.01627531
-0.02397202
-0.04139862
0.02639934
-0.00470551
0.04057261
0.00152312
-0.00407637
-0.01408296
0.00834454
-0.00757241
0.02537260
0.01145201
-0.00008560
-0.03361378
0.00350722
0.01215723
-0.00645227
-0.01522598
-0.01283496
0.00329451
0.00670690
-0.00429014
-0.01820002
-0.00824116
-0.02018332
0.02112327
0.01015469
0.01376153
-0.00477933
-0.00563031
0.01153774
0.00642050
-0.00766189
-0.05070894
0.03592664
0.01378956
0.00295388
-0.01324661
-0.01974656
0.00953957
-0.02421845
-0.03215845
-0.00153602
-0.03058686
0.00481944
-0.01107835
-0.01032113
0.02509220
-0.01381464
-0.01016978
-0.02176388
0.00142356
0.00359174
-0.02408383
0.00864955
-0.00730655
0.02079896
-0.04553431
0.00558665
-0.00076956
-0.01644404
-0.01229781
0.02090109
0.02485014
-0.01851045
-0.02769976
-0.01068177
-0.01672025
-0.02605927
0.03685609
0.00831060
-0.01426825
-0.00885488
0.00864593
0.03328839
0.02069829
0.05207156
0.01013779
-0.01930064
0.00942902
-0.01886742
0.01771022
-0.00738533
0.01683773
0.00484036
0.01099637
0.01150565
-0.03572094
-0.03167380
-0.01048586
-0.02079860
0.01940984
0.00140312
0.02220923
-0.00606509
0.03199441
0.00844006
-0.03247303
-0.01908816
-0.00072550
-0.01651175
0.00306242
-0.00736403
-0.01060250
-0.01431957
0.01462133
0.02047306
-0.00138166
-0.04097182
-0.00652649
0.02484931
0.02660350
0.00103347
-0.01018529
-0.03938308
-0.00102323
0.00764528
0.00329899
0.00686570
0.01257498
-0.03371554
-0.00833781
-0.01517615
0.00114786
-0.00246499
-0.00160108
-0.03310400
0.01993198
0.00473798
0.01567244
0.01554419
-0.01026203
0.00270780
-0.01560553
0.00081530
-0.03665555
0.00365420
0.01490185
-0.01322137
0.05451007
-0.01752393
-0.00985451
0.01290505
0.02433978
-0.03650332
0.04003297
-0.00355103
-0.04052292
-0.01247520
0.01019895
-0.02803355
-0.02366156
-0.00760178
0.03719447
0.01060292
-0.01379416
-0.00448539
-0.02058584
0.02930281
-0.01774395
0.02078159
0.00355723
0.00985439
-0.01214667
-0.00278263
0.03281537
0.02196944
-0.00104096
0.02591775
0.00683194
-0.01163144
0.01724740
-0.00746688
0.00993628
0.01449220
0.02740538
0.00114101
-0.02897335
-0.01298970
-0.00067297
-0.00969413
-0.02046779
-0.02063947
-0.02374049
0.01420791
-0.00658032
0.00182225
-0.00795941
0.03510610
-0.03009418
-0.01881469
-0.02176582
-0.00033729
-0.00758367
-0.01138015
-0.04965144
0.02146338
-0.00798166
0.01227478
-0.00765856
0.01513818
-0.02313793
0.00522767
0.01779548
-0.01958959
-0.00285776
-0.00400574
0.02456535
-0.00747980
0.01671762
0.02350928
-0.05164776
-0.00043544
-0.01106719
0.00729701
0.01357120
0.01282266
0.03423923
-0.02033321
0.02676997
0.01419810
0.00510669
-0.01013044
-0.01836748
-0.04594373
0.01528263
-0.00152096
0.00677653
-0.01782476
0.04361430
0.00586832
-0.00142067
-0.00859804
0.01570710
0.00778670
-0.00972087
0.01991761
0.00837498
0.03072780
0.01282832
-0.01021021
-0.02520895
0.03615708
-0.00787154
-0.02130628
0.00381765
0.00881944
0.01156499
-0.00044468
0.01435694
-0.01825934
0.02201351
-0.02212322
0.01172255
-0.00787449
-0.00974299
-0.01293533
0.02077818
-0.02848085
0.00286308
-0.01329469
0.05570539
0.00220303
-0.03792456
0.02597399
0.00100503
0.01446397
0.00565395
0.00071615
0.01251855
0.01533929
0.01989241
0.02164435
0.02124030
0.02624812
0.02056276
-0.01351622
-0.00028592
-0.00837742
0.02737303
0.00509214
0.02369620
0.00389459
-0.00489705
0.00745209
0.00532075
0.03515643
-0.00397831
0.01079806
-0.00786436
0.01393569
-0.01613394
-0.00955672
-0.01027241
0.03310659
0.03359294
0.02047203
0.03258427
-0.01692718
-0.03307525
-0.03322685
-0.00884064
-0.01246801
0.00176250
0.00942154
0.00862986
-0.03750969
-0.01779111
0.02303918
0.00367265
-0.02305734
-0.01118110
-0.02055993
-0.00187935
-0.03747489
-0.01857702
-0.01949780
-0.00485077
-0.02803002
-0.05059771
-0.01074982
0.00248272
0.04295386
0.02918395
-0.01618031
0.00375673
-0.00324014
-0.02317043
-0.03365901
-0.00645788
-0.01307007
0.02237485
-0.00462883
-0.02827754
-0.01545137
-0.00470212
0.01235977
0.02202101
0.00963095
0.01073726
0.01890287
-0.02087425
-0.00263542
-0.01273151
-0.00866352
0.00121745
-0.01561789
0.00894359
-0.00877172
-0.01058769
-0.00495082
0.01372295
0.01817295
0.00897928
-0.00018244
-0.03305098
-0.01510082
0.01547028
-0.01868737
0.00721917
0.00283982
-0.04157835
-0.01216360
0.00575731
0.00363611
0.05207885
0.01544610
0.00569657
0.01409299
0.02017046
-0.01141533
-0.02339034
0.02996570
0.02743664
-0.01801785
0.01104103
-0.04935376
0.01402764
0.03408094
0.02411952
0.01255585
-0.04133677
0.03130751
-0.03392342
-0.01551220
-0.00743304
-0.00490314
0.02909944
-0.02531310
-0.01407528
-0.00484430
-0.01006148
0.00068605
-0.02361736
-0.00933308
-0.00712742
-0.00526261
-0.00107489
0.00789978
0.01437003
0.08401693
0.02706989
0.00222227
0.10937206
-0.04100274
-0.02729164
-0.00019647
-0.01629414
0.00162105
-0.04125400
0.00898741
0.04996808
-0.00826396
-0.00231674
-0.02756465
0.00398298
0.01002536
-0.04341755
0.00470882
-0.03520438
-0.00475935
0.02779660
0.00415712
0.06721753
0.00874169
0.00469535
-0.00318565
-0.00100910
0.01076610
0.00344990
0.03173074
-0.04205150
-0.03372559
-0.00080386
0.01783495
-0.00341062
0.00909372
-0.02818463
0.03766119
0.01227221
0.01131501
-0.00663618
-0.00090289
0.01210465
-0.01238983
0.02045213
-0.01189254
0.04231771
-0.02004093
-0.06533873
-0.02688732
-0.00485484
0.01734625
-0.10567994
0.01211266
0.01601456
-0.02647067
-0.02528943
-0.00782089
-0.00790811
-0.03530901
-0.01443210
0.01396898
0.00875090
-0.01580773
-0.00126420
-0.01933245
-0.02469339
0.04849334
-0.01819990
0.00851988
-0.02213085
0.02136104
-0.03673082
0.02471713
0.00224680
-0.04246441
0.00767635
0.02008491
-0.00409106
-0.03071734
0.01738273
-0.01429455
-0.02770302
0.02498095
0.01438234
-0.00112745
0.00894406
-0.04847800
-0.02396982
0.04067276
-0.01472889
0.03101924
0.03516532
-0.01915120
-0.02036499
-0.01856398
0.02388518
-0.03058301
0.04862814
0.00433881
0.00698639
0.00525972
0.02017186
0.04813635
-0.03712383
-0.04461768
-0.00581737
0.07566655
0.01567696
0.03852886
0.00925762
-0.04177839
0.01655495
-0.03293995
0.01670786
0.00206140
0.00890016
0.01610705
0.01669558
0.02904024
-0.04711490
-0.00729203
0.00298103
0.00877339
-0.00031419
-0.01724388
-0.01040892
-0.01408524
0.00269322
-0.03549892
-0.06349454
-0.01273164
-0.02745864
0.02838712
0.08977743
-0.00878889
0.02804722
-0.01326403
-0.00934792
0.07750154
0.09087401
-0.00024054
-0.01013343
-0.03678177
-0.01257708
-0.03120878
0.00303817
0.04042203
-0.04077494
0.01079817
-0.00644192
-0.03010444
0.03644795
-0.00413866
-0.02656485
-0.02413232
-0.05889647
0.01735240
0.05689041
0.00893928
0.02290598
-0.00065539
0.04299084
0.03623426
-0.04096597
-0.01867693
0.02023424
0.00758804
0.03898611
0.00699170
0.00381401
0.00028631
-0.01478050
-0.02235413
-0.00274645
-0.00112536
-0.00543046
-0.01676160
0.00214150
0.01706726
-0.01739363
-0.01705184
-0.00510558
0.04297690
0.02209305
-0.04381467
-0.03386990
-0.00685638
-0.00166061
-0.02144779
-0.01613020
-0.02496559
0.02403448
-0.04156001
-0.02152331
-0.04890592
-0.06690559
0.01762363
0.02017786
0.03688541
-0.00561763
-0.01017905
-0.02005727
-0.02558330
-0.01939201
0.00767312
0.03190557
-0.02491177
-0.02750074
-0.01061993
0.00747261
0.00228214
-0.03367807
0.01817941
0.01818806
0.02016281
0.02281090
0.03875190
0.00290144
-0.00198054
-0.00461980
0.04723588
-0.02292146
0.03309438
0.00238802
-0.01118458
-0.00006463
-0.00158611
0.00176462
-0.05366964
0.00218660
0.05540206
0.00188399
0.02210100
0.00337149
0.05276672
-0.00906903
0.00460433
-0.00586616
0.01666674
0.00447172
0.02394914
-0.00532646
-0.03669250
0.00779713
0.00676977
-0.03060407
-0.00606007
0.00066939
0.00212799
-0.00443279
-0.03080617
0.01052383
0.03236034
0.00472112
0.00605922
0.01631915
0.00255497
-0.00578056
-0.04644782
0.01392001
-0.00105704
0.02088143
0.01802973
0.00876246
0.02187535
-0.02232578
-0.00871485
0.01646997
-0.02709052
0.00360991
-0.03211345
-0.03607718
0.00093560
-0.04054319
0.01824858
0.02968117
-0.02299506
0.02136019
-0.00506656
-0.00715679
0.03690961
-0.02542811
0.01676227
0.02911750
0.00800559
0.00768147
-0.02084120
0.02410996
0.02140448
-0.01698101
-0.00265505
-0.01902216
-0.04313906
0.03583362
-0.02135698
-0.02152229
-0.03579701
0.03606248
0.02009086
0.01461581
0.04810051
-0.00840704
0.05397551
-0.04057403
-0.00421349
0.01724607
0.00215897
-0.00867915
-0.04341071
-0.02232200
0.02062701
-0.00550042
0.00309353
0.01314314
0.01680199
0.01993394
-0.02191613
0.02217539
-0.05567994
0.00622453
0.01110166
0.06121312
0.01604339
0.00198908
-0.01659757
0.06625219
-0.01284636
0.01249008
0.01000751
-0.01432737
0.00037669
0.01764695
0.01185403
0.02586823
-0.03236752
0.03123439
-0.00195736
0.00773700
0.03224197
-0.01873817
0.00909029
0.00429067
0.01356101
-0.02299694
-0.02324474
-0.04442244
0.00083941
0.02733503
0.01105230
0.02437325
-0.01793651
0.01290968
-0.02204059
-0.00309843
-0.00397238
-0.00111351
0.06394318
-0.00320000
0.00389253
-0.01183993
-0.01752056
-0.00730081
0.01297956
0.00866009
0.02688469
-0.03745705
0.03673249
-0.01511456
0.01662574
0.00094198
0.02763791
0.02481082
-0.00991180
-0.01679125
0.02642439
-0.00590867
0.00668891
0.03379554
-0.01545088
0.00392584
-0.00258685
0.00869046
-0.02017839
0.01899433
-0.00860965
-0.00209725
0.02545201
-0.00839319
-0.00485875
-0.01815009
-0.01969815
0.02186862
0.00530247
-0.01681106
-0.01571491
-0.00643303
-0.00983001
-0.00544275
-0.02952555
0.00755506
0.00461158
-0.01089818
0.00558278
0.02362707
0.01629468
0.00141203
-0.01061719
-0.01184473
-0.00072177
0.01630707
-0.02502648
0.01763035
-0.01812177
-0.01976685
-0.02755468
0.01916425
0.03523811
-0.01876175
0.01784214
0.00805184
-0.03637988
0.00944467
0.03318125
0.03409753
0.00452021
0.04079584
-0.00214298
0.09062604
0.03014189
-0.00233101
0.03562932
0.00051617
-0.00409382
-0.00516455
0.00616907
0.00416410
-0.02222488
0.00290816
0.00977471
-0.00742771
0.00855740
0.00677166
-0.00004836
0.03856793
0.00535215
0.00948627
0.01690606
-0.01552109
-0.01599838
-0.00710347
0.00641728
-0.01004027
-0.02909078
0.01970845
0.00562507
-0.04184368
-0.00257798
-0.01318866
0.02731053
-0.01412136
0.00063328
-0.00433974
0.03545074
-0.00687399
-0.00154173
-0.01423044
0.00297388
0.00123475
-0.03347489
-0.01539052
-0.00666433
-0.01711871
-0.02910929
0.00457887
0.05744483
-0.04598440
-0.01436794
0.03213728
0.01206892
0.00313956
-0.00346199
-0.01651572
-0.03660617
-0.03165129
-0.01980090
0.00612212
0.01159451
0.02311466
0.00054860
0.07563140
-0.00874784
-0.01055421
0.02463103
-0.01732609
0.01343513
-0.01644458
0.00164111
0.01149538
-0.00467768
-0.00482777
0.00372263
0.01800231
0.03517956
0.03657718
0.01141966
0.01463675
-0.00500621
-0.01572340
-0.01115205
0.00745435
0.02873225
0.03772239
-0.02864849
0.01990276
0.00146574
-0.00036620
-0.01935353
-0.00199609
0.00154377
0.00759424
-0.01889212
-0.00708519
0.00606512
-0.06503806
-0.00615527
0.01002461
-0.00336166
0.03056681
-0.00157774
0.00465827
-0.01647874
0.02152262
-0.01440010
0.01543859
0.00972058
0.00287176
-0.02128449
0.04802292
-0.02576905
0.00805761
0.00865642
0.01189617
-0.01458739
-0.01141183
0.02553336
0.01508345
-0.01521290
-0.01458658
0.00961274
0.00972044
0.00627683
0.03173958
-0.01694547
-0.00384737
-0.02149845
-0.02143849
0.01247421
0.01194862
-0.01226739
-0.00636263
0.02496137
-0.03160365
-0.04775542
-0.00313860
0.03787185
-0.01710093
0.01306487
0.03317760
0.03304690
0.01301100
-0.00510292
-0.01074318
0.01679529
-0.01515510
0.01533535
0.00082663
0.01574201
-0.03179316
-0.02454977
0.02708775
-0.01846458
0.01069403
-0.01582653
-0.01863936
0.03299962
0.00126150
-0.02158006
0.00380753
0.00647790
-0.00641974
-0.03035036
-0.00157098
-0.01266983
0.00630131
-0.00480634
0.03704758
0.01006483
-0.01674099
-0.00658387
0.00576116
0.02452232
-0.03760973
0.02409118
0.01826434
0.00213902
0.03769290
-0.01426151
-0.01095362
-0.00085388
0.00896777
-0.01762977
0.02697963
0.00863287
0.00616448
0.03710627
-0.00634471
0.02210871
-0.01074646
-0.01914627
0.00148458
0.03208853
0.01879101
-0.04124716
0.00295043
-0.00177428
-0.04299753
0.01894341
-0.03383366
0.02349510
0.06187820
0.01440408
0.02072547
-0.00960949
-0.00793635
0.05911013
0.03444234
-0.00569458
-0.00934204
0.00184838
-0.03009682
0.02064901
-0.01580383
0.02202088
0.01026888
-0.04406538
0.02487296
0.00523697
-0.00058959
0.04637508
0.00885767
0.00049582
0.02755427
0.01252885
0.01631078
-0.03730988
-0.02058928
0.02295902
-0.01010581
-0.00865183
-0.00238518
0.02072587
-0.03292765
-0.00217984
-0.00787121
-0.01488420
0.00446767
0.02974540
0.02040721
-0.01362520
-0.02128583
0.00467667
0.00246745
0.01019533
-0.02214390
-0.02761888
0.02120156
-0.00186513
0.01757788
-0.01245789
0.00706139
-0.00496955
-0.02112905
-0.00577877
0.01314803
-0.01600763
-0.03196222
0.01592639
-0.01987202
0.00629740
-0.00362037
-0.04475807
-0.04203071
-0.02943203
-0.00568035
0.03505792
0.00264989
-0.00520595
0.01230996
0.00005984
-0.01319019
0.01301043
-0.02904070
0.04444936
0.01012770
-0.03531908
-0.03039416
0.01601372
-0.02222814
0.01458157
-0.01706520
0.02014616
-0.00186865
0.00614526
-0.01163266
0.04821920
-0.00425261
0.00571696
0.02417093
-0.00637320
-0.01273355
0.03961313
-0.00105390
0.03104332
0.04789039
0.00805693
-0.00513584
0.00445205
0.01545949
-0.01718667
-0.01499095
0.01432892
-0.02568981
-0.00488093
0.04562846
-0.00028542
0.01188508
-0.02770228
0.03409057
0.01128145
0.02914189
0.01727102
-0.00770367
-0.01074369
-0.01652079
-0.00353947
0.03168740
0.00124913
-0.03859464
0.04346501
-0.00030758
0.04248581
0.00709788
-0.00272848
0.04090561
-0.00071629
-0.00362756
0.03196592
0.02071035
-0.04333768
-0.01117251
0.03062616
-0.00748030
-0.04768484
-0.01545972
0.00209679
0.01741282
0.02654618
0.02435360
-0.00944551
0.03489923
-0.00844462
-0.01567963
0.02399750
-0.02352981
-0.03132268
-0.02471612
-0.00896126
0.01642744
-0.01536728
0.00516512
-0.01488994
0.02794085
0.04013427
-0.00613789
0.00951956
-0.01081615
-0.02842413
0.00068735
-0.00645399
-0.01411913
-0.02049513
-0.01691224
0.01161189
0.01680003
-0.00159273
-0.01957044
0.02501811
-0.05086175
-0.01230538
-0.02705982
-0.01432879
-0.01392123
0.00677940
-0.03132259
-0.02677025
-0.02240044
-0.02363162
-0.01607932
-0.01851756
-0.02622604
0.07144954
0.00705562
-0.03199190
0.02395223
-0.00478752
-0.08116177
-0.01555251
-0.00428140
0.00394906
0.02318317
-0.02527330
0.00029711
-0.01119689
0.04176189
-0.03943239
-0.00424292
0.02410504
-0.02073711
-0.03013113
0.01984975
0.02746914
-0.00242971
-0.00397527
0.03298042
-0.01672122
-0.00487998
-0.03152409
-0.03968525
0.05067458
0.00610601
0.00458498
0.01741042
0.02519989
-0.00255141
-0.03358571
-0.03513236
-0.05350296
0.00387871
-0.03429474
0.01213958
-0.00752665
0.03184754
0.00845158
0.00969778
-0.01999266
-0.02195826
0.00526769
0.00217869
0.03205039
0.01499259
-0.00317844
-0.00724415
-0.00824692
0.02802565
0.00630358
0.02374826
-0.02176205
-0.02681774
-0.02954649
0.05490580
-0.00631458
-0.00872403
-0.01627806
-0.03575739
0.04444209
-0.01264543
0.01902636
0.00220108
0.00464290
0.00081382
-0.04606700
-0.02680169
-0.01470163
0.01781450
0.01019428
0.02082116
0.02265450
-0.03782507
-0.00165315
-0.00066310
0.00720764
-0.00509252
-0.03553470
-0.00154187
0.03184391
-0.01728821
-0.03588758
0.02535287
-0.00403091
-0.03317383
0.00913016
0.02660403
-0.01614560
0.01746752
-0.00998072
0.00904623
0.03686054
0.08513657
0.00719156
0.01891529
-0.00804239
0.02974464
0.02335742
-0.00306630
0.03307157
0.02027405
0.00710584
-0.00341713
0.02407650
0.00078363
0.00715888
-0.01036926
0.02148367
-0.06294402
-0.01144397
-0.01129650
-0.02660572
-0.01134841
0.00280265
0.00440727
0.04178653
-0.02799807
-0.00599554
0.00788990
0.00862580
-0.00294339
-0.01750546
-0.01685462
-0.02058264
0.01654227
0.02237762
-0.01627681
-0.02696885
0.00889283
0.04166177
0.02126530
-0.02029418
-0.01328641
0.00553607
0.01465080
-0.00245636
-0.02314332
0.01986047
0.01121732
0.00052739
-0.00443128
0.05438932
-0.00181936
-0.02697893
0.01545312
-0.01441451
-0.01472285
-0.00507452
-0.02203043
-0.01366660
0.05784169
-0.01705615
0.02636452
0.01702417
-0.00672786
-0.02423860
0.02223644
0.01126017
-0.00468111
0.01848495
-0.00953165
-0.01051076
0.03236964
0.02980743
-0.00891709
0.00516272
0.04840575
-0.01879201
-0.00108434
0.00497703
0.02794138
-0.01342819
0.00265440
0.00143759
-0.01675753
0.02625508
0.00195069
-0.00928337
-0.00186370
-0.02812263
-0.03962758
0.00371728
0.00440268
-0.00527015
-0.03156665
-0.01100337
0.02405429
0.00787049
0.04692508
-0.02054478
-0.04642563
0.01429421
0.02644310
0.00136837
-0.01369553
0.02337455
0.01226487
-0.00765710
-0.00099854
0.04540653
0.01529487
-0.03366166
0.02493614
-0.04081433
-0.01420273
0.00289482
-0.01999690
0.00651687
0.00943470
0.00276068
0.00940804
-0.03631974
0.01405403
-0.01765225
-0.00205895
0.01448883
-0.00686064
-0.00168820
-0.00137065
-0.00353708
-0.00650293
0.01871507
-0.02357698
0.00259486
-0.01206270
0.00248804
0.01774881
-0.03171224
-0.00706107
-0.00250093
0.01286323
0.01627745
0.02420473
0.01466433
0.05137307
0.03212736
0.01184072
0.01910365
0.01821861
-0.01177700
0.00403819
0.01715387
-0.00217318
-0.00679069
-0.00899718
-0.00452062
-0.00116404
0.00985064
0.00670985
-0.00493536
0.02052946
0.01412900
-0.00386610
0.01795073
0.00460002
0.01236079
-0.00374261
0.00465171
0.00939493
0.01822783
0.03850231
-0.01375721
-0.00057894
-0.00010395
0.01127013
-0.01144803
-0.00344815
0.02484723
-0.00696841
0.00553512
0.01678234
-0.00469948
0.01402245
-0.00593314
0.02443164
-0.02710838
-0.01743076
0.01469580
0.02762408
0.01209297
0.01045139
0.02957006
0.01184857
-0.01670572
-0.01363213
-0.00039660
-0.00972615
0.00599836
-0.05290828
-0.01926529
0.02684336
-0.00683941
-0.01463193
-0.00559037
-0.02206953
-0.00790746
0.02298874
0.00096919
0.02908542
0.02426987
-0.01604868
-0.01735059
-0.03171673
0.00911654
0.03270088
-0.02129299
-0.01991121
0.02090663
0.01249799
0.03600405
-0.01177675
0.00126490
0.02833919
-0.01762710
0.00073426
0.02130807
-0.00454449
0.00407846
0.03437171
-0.00296951
0.04816989
-0.01302946
-0.00313371
-0.00964031
-0.04267630
0.01644911
0.04343741
-0.02814089
0.00970815
-0.00047575
-0.01028709
0.01775571
-0.00064497
0.01876106
-0.01836004
-0.03367670
-0.00810905
0.00648303
-0.03684459
0.01689957
0.02549023
-0.06138967
0.03868847
-0.00627175
-0.02996029
-0.01516385
0.00547874
-0.03825605
0.00445908
0.01219297
-0.02825117
0.02320610
-0.01812623
-0.01330975
0.02955935
-0.01229727
-0.01226145
-0.01743523
-0.03087962
-0.00474352
-0.02335470
-0.01720262
-0.00845507
-0.00551828
0.00308366
-0.02185445
-0.00687336
-0.04732390
-0.00252629
-0.00688089
-0.00105066
-0.02277073
0.01516855
0.02471589
0.00731447
-0.00396052
-0.01465367
-0.01620772
0.02661509
-0.02368345
0.01617988
0.03584333
0.02677028
-0.00128467
-0.00251655
-0.01271979
-0.00218581
-0.01672724
-0.02061076
-0.00469425
0.04373544
-0.00796836
0.03332914
-0.01264469
-0.01955502
-0.02290320
0.00170428
0.01062581
0.02475760
0.00802685
-0.02627278
0.01576252
-0.02619958
-0.00146960
-0.01102061
-0.05046804
0.02568724
-0.04267405
-0.00008892
-0.03984408
0.01301484
0.02231052
0.01971412
0.02288436
-0.03443753
0.03471891
0.02410800
0.01505656
-0.05124967
-0.00489975
-0.04198958
-0.03260461
-0.02389376
0.01972269
0.00520133
0.01910268
0.03763238
-0.00389278
0.03280663
0.01758074
-0.00066714
-0.01217290
0.02230920
0.01606921
0.00744116
-0.02931235
-0.01679384
0.00806299
-0.01166251
0.01236797
-0.02321278
0.05200485
0.03483237
-0.02321267
0.01488097
0.01296815
0.02318840
0.00632971
-0.03231385
0.05894555
-0.00280364
-0.02958173
0.00110395
-0.01472785
-0.03217436
0.00843262
0.01628985
-0.00397678
-0.00797714
0.03910994
0.00688141
0.00468992
-0.00400656
0.04544853
-0.00087299
-0.01440093
-0.03227999
0.03181228
0.01341929
-0.04924937
-0.02056499
-0.02115368
-0.00853484
0.00809336
0.01981097
-0.02471518
-0.05738087
0.00724504
0.01159902
-0.02658270
0.00962236
0.00146284
0.00228077
-0.03121397
0.00610661
-0.02658037
0.00508116
0.04643298
0.03589835
-0.01643581
0.01927387
-0.03368802
0.01370075
0.01099518
0.04055353
0.00419332
0.01447327
-0.01283599
-0.01410175
0.01927915
-0.01363119
-0.02557760
-0.00170667
-0.02241721
-0.00521488
-0.02440499
0.00592182
-0.01966112
0.00214345
-0.00740203
0.00721720
-0.00329239
0.01695617
0.02552668
-0.02277663
0.00235482
-0.00168996
0.00922599
0.02395986
-0.01353773
-0.02202125
0.02169161
0.01604508
-0.01560426
-0.01135539
-0.03785997
0.00795374
0.02139751
-0.01909670
0.03807776
-0.03798638
-0.00525754
-0.00500993
0.01063816
0.06890123
0.00384355
0.04018033
-0.02560017
-0.01173926
0.02052695
-0.02567459
-0.01126666
-0.02675910
0.04666765
-0.01738594
0.00042984
0.00574691
-0.00264445
-0.02301230
0.01019494
0.00247827
0.03439387
0.06917931
0.03031366
-0.01746001
-0.00900653
0.00248184
0.03030908
-0.00320955
0.01287803
0.03072435
0.01294860
0.00088785
0.00464279
0.03481384
-0.02100590
0.01905499
-0.02553911
-0.05511303
0.02488571
-0.01714113
0.02351160
0.00220458
-0.03858931
0.00091072
0.02156843
0.00802850
-0.00254936
-0.01892893
0.02498636
-0.01657271
-0.01286643
-0.00932615
0.03327258
-0.01950390
0.02986098
-0.04110304
-0.00498697
0.01144539
-0.00552724
-0.01580773
0.00609304
-0.01038869
0.00578092
-0.00823226
0.01167745
0.01702069
-0.00914268
-0.00540497
-0.01600389
-0.02898091
-0.03580195
-0.00542527
0.02385674
0.00603646
-0.00722438
0.02036605
0.00774402
0.00983059
0.00182301
-0.00633136
0.00806069
-0.00344349
-0.00592933
0.00836457
0.00283971
0.00513306
0.02599329
0.02648394
-0.01593791
-0.00164930
-0.01149497
0.03758917
0.01059225
0.02241625
-0.01443794
0.00092531
-0.00177955
0.00306928
-0.02202450
0.00263234
0.00104567
0.01942612
-0.01876180
-0.03241124
-0.01680411
-0.00396571
0.02591878
-0.01770464
0.00179052
0.00707303
0.00235843
0.02164769
-0.00289487
-0.01405731
0.00056478
0.02800186
-0.03564250
0.00243364
-0.03946227
0.01827801
-0.01288659
-0.02662640
-0.01373320
0.04538689
0.02879553
0.02634612
0.00890011
-0.00441898
0.02966828
0.00483306
-0.03944870
-0.00685233
0.00265270
0.01351620
0.01736022
-0.00269357
-0.04826971
-0.02395264
0.00171722
-0.02267598
-0.00324486
-0.00325899
0.00555352
-0.01220593
0.03030168
-0.02123271
-0.00507604
-0.01465053
-0.03509900
-0.00495938
-0.00699884
-0.00810077
0.00625080
0.01379392
0.01395391
-0.05258916
-0.02086792
-0.04310516
0.00268880
-0.00199918
0.00941756
-0.02606641
0.00315730
-0.01753736
-0.00085826
0.02899564
-0.03212963
-0.01948602
-0.00901114
0.01719903
0.01134144
0.01957336
-0.01815858
-0.02661412
0.04562655
0.01324529
-0.00734440
0.01397930
0.03428302
0.00540415
0.01047360
0.00987148
-0.01272240
0.06112745
-0.00719293
-0.02487011
-0.04675987
0.02396547
-0.04387110
-0.00903533
-0.02144497
0.01714172
0.01701377
0.01212173
0.01104153
0.02144103
0.00087631
-0.04828937
0.02865557
-0.00354848
0.00374171
-0.02464838
-0.01938211
-0.03138655
0.02409601
-0.01725825
-0.01755205
0.04968785
-0.03764153
-0.02444669
-0.01323881
-0.00499289
0.01685319
-0.02993083
0.03165200
-0.02455543
0.04058832
0.00807613
-0.03876149
0.01371891
-0.04887451
-0.01651008
0.01062623
-0.02560419
0.01192701
0.03301309
0.01956027
-0.05307634
-0.03036527
-0.03066073
-0.05240933
-0.02717994
0.02579990
0.02070826
0.00882937
-0.00733459
0.02253979
0.01015269
0.00063966
0.00152756
0.00047402
0.00114226
-0.00007467
0.07747812
-0.01308299
-0.02147163
0.04897286
0.01617294
-0.01452962
-0.07103846
0.00675726
-0.03750144
-0.01048873
-0.01467340
0.04078240
-0.03836075
-0.02686201
0.02414942
-0.05970486
0.00926190
-0.02035033
-0.02760594
0.01825439
-0.00715197
0.02254517
0.01362131
-0.01272910
0.00698767
-0.04029971
-0.02355868
0.01499784
0.00692238
-0.00054423
0.00341632
-0.02656754
-0.02877283
0.00647677
0.01530470
0.01843035
-0.00358761
-0.01698874
-0.01367271
0.00163063
-0.02661447
0.01683393
-0.00835064
0.01194064
0.01416826
-0.02209583
-0.02906897
0.00419116
-0.06135569
0.01217733
-0.02287299
0.00715813
0.00912251
0.05187210
-0.00113635
-0.03672838
-0.00343729
0.00711644
-0.01244093
-0.00828054
0.01895918
-0.02907809
0.00561338
0.00465290
0.00613584
-0.02213235
-0.02385108
0.01691226
0.01336312
-0.03103429
-0.01806395
0.03049304
0.00265676
-0.02463263
-0.01886382
0.03199236
-0.02795635
0.05872488
-0.03536815
0.02708324
-0.00697395
0.00002192
-0.04583943
-0.05438426
0.00733477
0.00222637
0.03367654
-0.01241519
0.02999199
0.05249616
0.00822484
0.00908655
0.00852949
-0.01135980
-0.00261643
0.00449373
-0.01590157
-0.04490561
0.02383706
-0.00434006
0.02283574
0.00685146
-0.03037683
0.01061833
-0.00109645
-0.03664462
-0.00516656
-0.02484844
0.00999855
0.01880045
0.02526935
-0.00027627
-0.00025382
-0.03454915
-0.02354246
0.02113432
0.02070446
0.01586795
-0.01242289
0.03350869
-0.00998119
0.02867811
-0.00706033
-0.02175219
-0.01480499
0.00671051
0.01667454
-0.01210458
0.00453500
0.00038944
0.02490878
-0.01515847
0.00854954
-0.01910325
0.00833455
-0.00728832
-0.00176466
-0.02031545
0.01264657
-0.01072175
-0.03485989
0.00922843
0.01496907
-0.01531939
0.03304477
-0.02852467
-0.02584783
-0.02839075
0.00755522
-0.02676956
0.01385169
-0.00545743
-0.00365826
-0.03914017
0.00713660
-0.01375853
-0.00452156
-0.02465335
