-0.53241259
-0.31012630
-0.00386547
0.05436144
-0.02458456
-0.36112189
0.05729052
0.09720120
0.03645402
-0.22920488
-0.09515002
0.11218077
-0.06366679
0.03636474
0.06711181
-0.07543217
0.02934857
-0.14845356
-0.02738032
-0.08064311
-0.08224659
0.23059943
0.06171234
-0.07238633
0.01179848
0.07883000
-0.09989793
-0.06232011
-0.02787546
-0.00840159
-0.43704024
-0.29855752
-0.29264310
0.10170134
-0.04676745
0.17205629
0.05377951
0.00777145
-0.02132034
-0.11736620
0.00267712
0.06548830
0.01074713
-0.18916866
0.00053588
-0.05506687
0.28980577
-0.04136658
0.00305511
0.06812619
-0.09294548
-0.23804113
0.13316233
0.08414619
0.02744235
0.09883075
-0.05368119
0.00748549
-0.07279586
0.10424370
0.04661529
-0.08464141
-0.12696071
-0.07194329
0.03069695
-0.02145195
-0.06415061
0.14368221
-0.00128124
-0.08441745
0.19192937
0.05008869
-0.14417046
0.04213181
-0.02873324
-0.02332088
0.12122554
0.17390829
-0.00092265
0.02492526
0.11775126
-0.33420452
-0.00267544
0.01249150
0.19995271
0.07579322
0.23863880
0.25493655
0.02290249
0.08316770
0.02031281
0.04739943
-0.14434670
0.16838616
0.16804554
0.02717368
0.25354859
0.01137650
-0.00681510
0.08908463
0.01239612
0.10956327
0.28122911
0.00420994
0.13599660
0.15248948
0.12560418
-0.19124314
0.00697860
0.75429368
0.06076252
0.13880464
0.08146878
0.24378374
0.11576479
0.05679412
0.16558240
0.09157266
-0.17052241
0.09531044
0.06164335
0.00051031
0.06278159
0.12537767
0.11405472
0.16787657
-0.06575716
-0.00828738
0.14589188
0.08921666
0.06632078
0.07955128
0.17361060
0.08802234
0.08143835
0.13961273
0.13334502
-0.35305980
0.14228617
0.05888155
0.13254330
0.08800765
0.22818996
0.08799808
0.07991859
0.19760570
0.07204080
0.01846850
0.12360781
0.08482236
0.40033373
0.10570063
0.12556088
0.09732132
0.23398869
0.14473814
0.05106988
0.24371064
-0.01181104
0.12733799
-0.10916012
-0.00725216
0.01056419
0.00506087
0.01118778
0.00873002
-0.48612264
-0.12709333
0.12624216
-0.00607122
-0.01976005
-0.13556638
-0.00877726
-0.06494848
-0.01573934
-0.04691559
0.43795571
-0.00006530
0.04886199
0.02383330
0.00597750
-0.03468495
-0.03317438
0.00694359
0.05645348
-0.02525494
-0.02408364
0.23369049
0.04418337
-0.00579920
0.02844129
0.02334088
0.01199281
-0.03111726
0.01227558
-0.03253186
-0.05674307
-0.01067326
0.03402124
0.13293858
0.00084475
-0.07545172
-0.02400581
-0.01100469
-0.00436717
0.17872378
-0.10051524
-0.03631769
-0.03210645
-0.00594662
-0.02554436
0.01694287
0.01999892
0.00195167
-0.00874492
-0.03218022
-0.04206441
-0.04853140
0.00662538
0.01212019
0.00746576
0.06513524
0.03143892
-0.01911537
-0.01994931
0.05608739
0.07055964
0.01048115
-0.00036029
0.00807083
-0.02754119
0.46827793
0.00568598
0.01450948
-0.02730030
0.01736435
-0.00251548
0.17604402
-0.06898285
-0.04132155
0.00489090
-0.00171252
0.03040771
-0.05538382
-0.00298365
0.00446399
-0.04014875
0.00310977
-0.00724691
-0.04831509
-0.02354532
0.09647986
0.02605360
-0.35708559
-0.02689265
0.03409188
0.02003977
-0.04809255
0.03853471
0.02772295
0.03274266
-0.03683928
0.02810174
0.00634336
-0.02739390
-0.08406387
0.01641378
0.00528873
-0.18489924
0.01659498
-0.04285027
-0.05410073
0.00975253
0.04851245
-0.13483238
0.01027369
0.02996120
-0.03987161
0.06208974
-0.06475496
0.01965392
-0.03794285
0.02383356
0.04788178
0.01074412
-0.03926531
-0.03224541
0.51745367
-0.11245545
-0.03437495
0.06192613
0.01749138
0.03946205
0.13882595
-0.00876837
-0.01243194
-0.01321945
0.00827485
0.06166648
0.04127857
0.00431390
-0.15691587
0.10228354
-0.03424409
-0.00961195
-0.06235410
-0.02680474
-0.03836785
-0.13327329
-0.15001278
0.00942324
0.03504526
0.05156438
0.01940501
-0.03268587
-0.00183801
0.00968183
-0.06949934
-0.04179640
0.07664000
-0.05996308
-0.09198152
0.10078854
-0.00904103
0.02149371
-0.06625129
0.05239823
0.06876257
0.10807591
0.02127064
-0.00077873
0.01759930
0.08290369
-0.04278972
-0.08438595
0.17439730
-0.00972809
-0.17291321
0.04086341
-0.07820743
0.15620276
-0.10399063
-0.00484362
0.05074091
-0.04649118
0.05677699
-0.00517740
-0.00924532
0.03407555
0.00960698
0.23738150
0.10316527
-0.16142251
0.05443020
0.01312017
-0.13100369
0.27265215
0.31979251
0.06701761
-0.01753664
-0.09710895
0.00267813
-0.23384091
0.11548014
0.18629782
0.02109262
-0.02818516
-0.00403290
0.03328151
0.29125902
-0.08582988
0.00497848
0.22355022
0.19289328
-0.28441361
-0.16805358
0.03377334
-0.00841687
0.08478512
-0.10330484
0.03087062
-0.14481731
0.17168906
-0.10468860
0.16490513
0.01929768
-0.01560341
0.16322438
0.00257999
-0.00544834
0.06419951
0.03942704
-0.31118819
0.06473411
0.04370795
0.03019680
-0.18907799
-0.11568952
0.00699204
0.09706958
-0.37292731
-0.06951553
-0.41037393
0.03948062
0.07032155
-0.01100511
0.10554159
0.09394982
-0.14257482
-0.02897136
-0.01200541
-0.00049786
-0.04187946
-0.09216711
-0.06815095
0.07283455
-0.12371398
0.01866300
0.08281378
0.06207942
0.15366706
-0.15771270
-0.09173611
-0.02665831
0.10716519
0.01928899
0.05073790
-0.03362950
-0.00089956
-0.01814395
0.04559237
0.05157323
0.16968043
-0.15204100
-0.00775337
0.14528033
0.08667938
0.21178666
-0.08153667
0.16532731
-0.01925792
-0.00515307
-0.03036437
0.01369684
0.07510767
-0.02622119
0.13800241
0.05066933
0.25321612
0.02958826
0.01145441
0.00152866
-0.12698232
0.10779760
0.04674534
-0.01955526
0.11267784
-0.03337993
0.03749280
-0.09438761
0.06879550
0.00183206
-0.16763537
-0.13106447
-0.00819069
0.00976598
-0.14740878
-0.12081818
0.21745506
-0.33791742
-0.01973931
0.06786026
-0.03307587
-0.31069848
-0.05920225
-0.34663579
0.08243596
0.35316622
-0.00878609
-0.09151002
-0.06601169
0.03614685
0.03022612
0.04638310
0.00880112
0.01544753
0.51057792
-0.25790155
-0.02595529
0.02215122
0.21370675
0.03601911
0.02476506
0.05375173
0.03461058
-0.00749762
-0.41698352
-0.01046052
-0.00045634
0.00311311
0.00501022
-0.02643393
-0.01269849
-0.01511442
0.00980638
-0.09281291
-0.00693910
0.01708449
-0.02971989
0.04630581
-0.05449678
0.01250704
-0.02384203
0.00001873
0.29165599
-0.04879791
0.00758351
-0.04885160
-0.04873496
-0.37232497
-0.00443499
-0.17415087
-0.00098330
0.00387025
0.01157394
-0.52574414
-0.02626996
-0.00608765
-0.00638033
-0.06782767
-0.00808553
0.07217555
-0.01067841
0.03318170
0.00649110
0.03726760
-0.01961708
0.01323180
0.00884985
-0.00703471
-0.08587990
0.02832741
0.09437978
-0.01045269
-0.07854544
0.02484509
-0.03300879
-0.01032418
-0.03504756
0.01840854
-0.07745808
0.37802249
0.01237743
0.16516490
0.00090736
0.00461092
-0.05383988
0.06891107
-0.13048396
0.06088703
-0.00419638
-0.03766471
0.03918549
-0.01161325
-0.00852837
0.12277720
0.01259367
0.04675558
0.09904699
-0.05561022
0.00212702
0.03200772
-0.07269768
-0.01261288
-0.01311834
0.05388958
-0.01196201
-0.11236142
0.04697036
0.07921333
-0.01052169
0.13935997
0.07263892
0.12809227
0.02907793
-0.00378943
-0.03430330
-0.09341498
0.05397450
-0.01957170
-0.16276748
-0.04901644
0.06798874
0.02935981
0.01124356
-0.03773535
0.12278145
0.27296254
-0.05251687
-0.00798585
-0.03287499
-0.00738838
-0.27774265
0.07311161
-0.34441701
-0.00183470
0.05427417
0.03168604
-0.06866992
-0.32570711
0.03558934
0.11275430
0.01527475
-0.19552514
0.86128223
-0.02711514
0.00600972
-0.00987818
-0.13154604
-0.42583269
0.08678949
-0.05963153
-0.00586751
-0.07286680
-0.06040699
0.04526678
0.02971817
0.00032716
-0.06466565
-0.00927674
-0.04214538
0.01019393
0.44676512
0.02442511
-0.06154674
-0.03979561
0.06750151
0.03250360
-0.00052035
-0.07132322
-0.02200377
0.02460040
-0.06422745
-0.01495924
0.04394290
0.10263300
0.00655708
0.00602247
0.06319157
0.03160634
0.01093885
0.00298452
-0.05012036
-0.04593021
-0.05072112
0.05998482
0.00317333
0.00255509
0.24106158
0.03419215
0.02002365
0.06726833
0.03673101
-0.06373270
0.01712252
-0.13819505
0.13465694
-0.02150184
0.11914734
-0.01363555
0.11227190
-0.08601646
-0.13675185
-0.05307033
-0.02228537
0.04581055
-0.52943993
0.07004689
-0.01642006
-0.03717639
-0.47342181
0.00262362
-0.12197674
-0.01864157
0.28385398
-0.00010003
-0.02743089
-0.00804370
0.08797516
-0.11851607
0.02702555
0.01399269
-0.02085528
0.07782975
-0.20255065
-0.10355023
-0.04078522
0.00702951
-0.40117803
0.02565424
0.00111645
-0.02086293
0.33754140
-0.10616998
-0.32123166
-0.01636561
0.40048254
-0.05369260
0.08809878
-0.03764061
-0.03408499
0.02011863
0.09178230
-0.13207053
0.02880135
-0.06128101
0.17083693
-0.13670410
-0.00295142
0.17571101
0.01308279
0.01703527
0.02264798
0.01891932
0.01838156
0.00134303
-0.00182351
0.00745794
0.33173248
-0.05047562
0.01942459
0.01657444
0.06989254
-0.01338427
-0.01917421
0.03629135
0.02117671
0.03543745
-0.19297007
-0.02648422
0.02302780
0.01053599
0.09891944
0.01186462
-0.06460655
0.01923399
0.00677270
-0.08062921
0.05952602
0.00823264
0.02379008
0.03565369
-0.05615877
0.05713274
0.04745942
0.06139560
-0.17918894
-0.07822251
0.05228379
0.01240110
-0.11867988
-0.00717060
-0.20260610
-0.07731107
0.45347166
0.03494695
0.05292127
0.01474181
0.00573961
-0.46828270
0.01964509
0.12550096
0.01849761
-0.20192026
-0.60382968
0.02234423
0.18772286
-0.01631351
-0.17199415
0.12982629
-0.02594149
-0.05647175
-0.12130153
-0.17952144
0.08919753
0.07251935
0.06583656
0.06184589
-0.03927115
0.02864042
0.01994071
0.00521724
0.36245114
0.01736320
-0.05804689
0.03580997
0.14323521
-0.10305642
0.01951045
-0.07095639
-0.21700253
-0.01105590
-0.05320052
-0.06821281
0.02163877
-0.05390378
-0.51882595
-0.06617061
0.17442380
0.04234596
-0.12731062
0.09512445
0.03740648
0.00247166
0.06720405
0.09860678
0.21384908
0.09704280
0.08015533
-0.04313202
0.04899263
0.09053446
-0.04188619
0.01606399
-0.04776125
0.04296624
0.00406852
0.21028380
0.00768387
-0.01912137
-0.12087702
0.00443048
-0.04216266
0.04611956
-0.01781969
-0.06980477
0.12325545
0.07919809
-0.01154556
0.01210635
0.00625339
-0.03187657
0.08949012
0.03664345
-0.04828140
0.11647610
-0.04020746
0.01959839
0.05455003
0.03603142
0.16553906
-0.25640154
-0.03616440
0.05051032
-0.04264752
0.06989913
0.04895634
-0.00134836
0.02064985
0.06142716
-0.03858392
-0.08014008
0.05046869
-0.02071914
0.04245160
-0.05840794
-0.15915497
-0.01040784
0.00844583
-0.14369330
0.06272659
-0.04413223
0.02641829
0.06883291
0.02000553
0.05419597
-0.02591958
0.02754880
-0.08545776
0.09834215
0.02953851
-0.04902871
-0.04980779
-0.17399138
-0.65750396
0.07929415
0.01436501
0.05170157
0.34194750
-0.17797092
-0.02943532
0.15277715
0.11526330
1.20277464
-0.18224402
0.03951377
-0.00069306
-0.09348700
-0.13643467
0.04299564
0.06479231
0.03207492
-0.09941097
0.06103241
0.06641991
-0.10703281
-0.13822231
-0.14022617
-0.03339571
-0.06870271
-0.10668446
-0.10975046
0.15122606
0.05625162
0.10009249
-0.12138519
-0.15299457
0.06200589
0.16827974
-0.15576674
-0.01150619
-0.10877287
0.07659455
0.09467506
-0.02488862
0.03047906
-0.18645081
0.07582879
-0.22375107
0.11704715
0.12249530
-0.08969563
0.08246937
0.05049312
-0.00537537
-0.25637758
-0.19609812
-0.08157942
-0.09608714
-0.02375671
-0.05917715
0.01613219
-0.01234948
-0.16044094
0.06942003
-0.03710726
0.09029787
0.02721210
-0.17103814
0.00569974
0.07671292
-0.06936656
-0.12222722
-0.01423991
-0.12276589
-0.12674855
-0.03346366
0.24586175
-0.07095172
-0.16545852
0.08492295
-0.08860588
0.13825123
0.00014010
-0.06235029
-0.09590246
-0.00178792
-0.03615292
0.30347595
-0.01845803
-0.00469189
0.03773631
0.06097074
0.10733835
0.25357714
0.17036167
0.00627671
0.01175388
-0.33450562
-0.12085092
0.02999519
0.22192408
-0.10388760
-0.02217201
0.12771338
-0.08733496
-0.18974358
0.01981344
-0.20142426
-0.04186490
-0.13084775
-0.17655928
-0.20116368
0.05169734
-0.05651908
-0.01226985
0.02070344
-0.20878151
0.04691375
-0.07508037
0.10609690
0.00122055
0.26829606
0.03420126
-0.04407691
-0.03811404
0.05172531
0.02078169
0.03473494
0.18244469
-0.52969778
-0.42826435
-0.22289334
-0.01931207
0.08098019
0.25542837
0.29324943
0.01596635
0.09319001
-0.10140377
0.02561500
-0.09896378
0.24870616
0.04355356
-0.15970707
-0.00373891
0.11469598
-0.24737509
0.07262892
0.23757663
-0.01911337
-0.04524454
-0.08931810
0.02408303
-0.15574600
-0.11824930
-0.19764061
-0.20286003
-0.00727973
0.26831514
-0.00000724
0.06607257
0.14314032
-0.00123082
0.02026423
-0.24882293
0.00963350
0.02544260
0.45878080
0.08774349
0.01442378
0.02056547
0.05467089
-0.04234075
0.07974241
-0.14232554
-0.02375539
-0.12116718
0.42750829
-0.08787798
-0.08939619
0.08838936
0.10099340
-0.04793963
-0.10245469
0.05048691
0.21526377
-0.12818456
-0.05786098
-0.00348955
0.01595316
-0.00521726
0.08552234
0.10271555
0.01167370
0.09918378
0.09790187
-0.36462605
-0.17301147
0.00576384
-0.08388039
-0.03694281
0.29111400
-0.17503835
-0.15186599
0.04183167
-0.16646941
0.00988496
-0.07673560
-0.01919189
-0.04302976
0.04324619
0.08892871
-0.03784110
-0.15202852
-0.11328884
-0.15886149
-0.01029662
0.20829630
-0.24970543
-0.25230145
-0.06407360
-0.17669405
0.15321922
-0.12829009
0.06166959
-0.12288473
-0.07258381
-0.06694961
-0.13617335
0.02377555
0.03281607
-0.00544438
0.15960535
0.02546423
-0.14660396
-0.01530918
-0.04055222
0.00776753
-0.04806187
0.01947690
-0.00953169
0.07834736
0.03422211
-0.01439946
-0.13228561
-0.03992653
-0.02206710
0.31412983
0.03847919
0.01796062
-0.04429023
0.02707319
0.03853837
0.15228397
-0.25560412
0.03497365
-0.00217759
-0.07227835
-0.04733315
-0.08792660
-0.05478812
0.03392192
-0.01865672
0.02185038
-0.11262011
-0.11199921
-0.13184127
0.04161734
0.03022024
0.17102928
-0.20681052
0.05591339
0.04092325
0.00008409
0.01406022
0.29535198
-0.08358018
0.00756503
0.02899883
0.05821462
0.01879249
0.33160430
-0.16754128
-0.30155364
-0.00837668
0.09293339
0.00892644
0.06357416
-0.28204444
-0.18074641
-0.14086728
0.06648447
-0.31212291
-0.12127243
0.06316291
-0.10366005
-0.01111212
0.18759534
-0.30354118
-0.04543613
0.01775234
-0.12378837
0.24613389
0.01727323
0.19088367
-0.03070749
-0.14912550
0.08016322
0.04044909
-0.00780601
-0.04522660
0.25131303
0.01749169
-0.07649583
-0.07273750
-0.18873662
0.07769333
0.01942773
0.02057258
0.12726302
0.01250100
0.02029418
-0.10508611
-0.03785909
-0.02262546
0.22279622
-0.68477589
-0.18710168
-0.02329038
-0.02631200
-0.01737181
-0.02580078
0.06992738
-0.04850649
-0.06378680
-0.21951190
-0.04836773
-0.05241288
-0.00805973
0.07823766
-0.01371871
0.00415542
0.05874990
-0.01252501
0.01912323
0.03330807
0.14826033
0.05852588
0.04345471
-0.03076212
0.00367435
-0.02166190
0.01723285
-0.11165252
0.00235948
-0.00700926
-0.01349340
0.02514530
-0.11086549
0.01798782
-0.00705714
0.04684461
0.04514499
0.03142593
-0.17185457
0.08737834
-0.00242066
-0.20689620
-0.08274662
-0.02346153
0.01462157
0.04410361
0.04843426
-0.06324177
-0.07191873
0.07756590
0.02131492
0.00089049
0.00554078
0.04712216
-0.02711756
0.21436550
-0.01571461
0.08808339
0.03622419
0.03916518
-0.04460588
-0.24222262
-0.29577127
0.08307903
-0.84166938
0.10556017
-0.15785024
-0.01455409
-0.00831097
-0.07706506
0.23518197
-0.04192968
0.04803435
0.03361391
-0.02639070
0.00721300
0.01624333
0.02023218
-0.06831424
0.06262970
-0.04059442
-0.06010991
0.03148967
0.00815793
-0.07214784
-0.05081951
0.03668649
0.04646894
-0.19626169
0.00789175
-0.00821880
-0.15725596
-0.06633174
-0.00783406
-0.00514473
0.01297864
-0.20585990
-0.06119694
0.04180232
-0.04040729
-0.11415822
0.74081260
0.05895647
0.03772374
-0.27031422
-0.02851511
-0.03859403
0.17260380
0.12338496
0.15077996
0.03008654
0.03202876
0.07165589
0.03843609
0.02982098
0.03411074
-0.19079182
-0.05643324
0.06422230
0.02946547
0.00765199
0.14615704
-0.16042361
-0.03343953
-0.21011318
0.04705855
-0.02875698
-0.05719249
0.18707737
-0.02811962
-0.00199820
-0.07058717
-0.09794207
0.03319416
-0.01507412
-0.00517258
0.13480677
0.19645855
-0.08849383
-0.01860990
-0.00425141
0.06729987
-0.06938610
-0.01310825
0.03826689
0.20092517
-0.09343402
0.00979414
0.06579332
-0.05385837
0.00064283
0.01683759
-0.02393330
-0.00902510
-0.02369028
0.09723970
0.01921669
-0.07149459
0.01928836
0.04191526
0.03660925
-0.21687190
-0.00899879
0.01531700
-0.06754044
-0.28078577
0.08449554
0.16354284
-0.01973720
-0.01523262
0.19560818
-0.18409200
0.02908802
-0.29262558
-0.27616069
0.31533402
-0.03919765
-0.17088871
-0.02001878
-0.06893153
-0.00586844
0.06517836
0.02126495
0.16271161
-0.14672504
-0.20577267
-0.02887144
0.01963638
-0.05918640
-0.08754946
-0.04283800
0.03016229
-0.00568906
-0.15080208
-0.02603418
0.06299635
-0.25024065
-0.00189140
-0.01259486
-0.02468758
0.02743794
0.10159217
-0.05861415
0.02552089
0.06255240
0.01455837
0.00871027
0.14232184
0.07290576
-0.17655960
-0.00922313
-0.43019757
-0.00723309
-0.01106265
0.01790754
0.55018383
0.07632054
-0.06731790
0.11488070
-0.08225837
0.04135860
0.06715015
0.06703109
-0.01226219
0.01071663
-0.12482864
-0.01906913
0.07836138
0.07933045
0.16853915
-0.02082065
-0.01012571
0.20254914
0.23840484
0.21239087
0.21295765
-0.03414596
0.42042655
0.15710299
0.41900778
0.26571584
0.01595318
0.23032239
-0.01893508
0.06520224
0.23405479
0.31235817
0.17839886
0.11514138
0.39040422
0.05437078
0.09636539
0.14367083
0.11341285
0.20648037
-0.11298957
0.22881588
0.14504717
0.20738827
0.14822222
-0.04772160
-0.04509737
0.28993925
0.18265834
0.25878772
0.12191597
0.18656540
0.22412685
0.14419758
0.14153877
0.12822711
0.18396911
0.30000529
0.19752021
-0.01395906
0.04538429
0.29009700
0.12733079
0.35901326
0.10854165
0.04556777
0.27047330
0.04508348
0.15185627
0.13344486
0.09028009
0.16040047
0.16068561
0.10517686
0.10707221
0.58669931
0.17928794
0.10989141
0.16783023
0.20262623
0.15853383
0.13982877
0.08434027
0.02314575
0.08887020
0.14442992
0.04756558
0.16436239
-0.11835940
0.18496808
0.17633079
-0.01203352
0.21506654
0.16652259
0.11427286
0.26001835
0.01635490
0.12003251
0.00178446
0.02226072
0.11864816
0.00674649
-0.02840788
0.06020183
-0.00848809
0.00630761
-0.10742782
-0.06766673
-0.00743413
-0.02407053
-0.10634478
0.02167965
0.07943083
-0.28119543
0.01273586
0.11603731
-0.12996128
0.05116209
-0.02749062
-0.01560124
0.04118450
-0.03507008
-0.23453438
-0.01485160
-0.08862938
0.02979217
-0.04859113
-0.00503122
0.06557544
-0.09011589
-0.10259829
-0.04475514
-0.03435340
0.00720835
-0.25247720
0.14320259
0.02885087
-0.00481158
-0.02929716
-0.01636414
-0.10141563
0.03499615
0.06066395
-0.01912935
0.09176875
-0.01215943
0.00615860
-0.06837122
0.05499387
0.15624836
0.05654712
-0.12592471
0.12849846
0.09872522
-0.23612706
0.02274616
-0.52181798
-0.20339890
0.02864774
-0.02443311
0.52455676
0.05289501
0.04221499
0.00683598
0.05001251
-0.00347530
-0.04713682
0.05416674
-0.00892519
-0.01706158
-0.04996536
0.09631221
-0.02390872
0.05754603
0.29202443
-0.10977279
-0.02412199
0.13820814
0.02435413
0.04092097
-0.01056932
0.01391528
0.01537710
0.02472345
0.03893803
0.00244507
-0.08267159
-0.01273753
-0.00862201
0.02116899
-0.02280471
-0.01678866
-0.16926724
0.00915502
-0.01238500
0.21036699
-0.12529485
-0.14010589
0.26944435
-0.08357875
-0.24032868
0.01807104
0.06649482
0.02289966
0.08005486
-0.12940671
-0.08779818
-0.03273385
-0.01945743
-0.09886868
0.08281980
-0.18191901
-0.03217265
0.04553294
0.12919591
-0.21246301
0.03478759
0.01749539
-0.28821707
0.01653508
0.25023839
-0.02519614
-0.29426360
-0.01395084
0.02912688
0.01427512
0.01390611
-0.38039017
0.06612553
-0.07991994
0.08443873
-0.07291225
0.01097430
0.10873999
-0.12643066
0.02575109
-0.12746824
-0.24482115
-0.12648419
0.03113263
0.08471755
0.16959384
0.03489891
-0.02982793
-0.22709046
0.17103775
0.04793120
0.08781850
-0.06269011
0.00608631
0.31521788
-0.06695782
0.09392068
0.06230132
0.06216745
0.17732914
-0.00496580
-0.11744163
-0.34225747
-0.02698168
-0.01101940
0.09776952
-0.25357306
-0.09335504
-0.17480987
0.01231615
-0.47375327
-0.02880794
0.10616957
-0.11252031
-0.03829562
0.12654479
-0.04561697
-0.00795654
0.25836024
-0.15338050
-0.12222009
-0.02238189
-0.03318341
0.06945513
0.00955523
0.01032822
-0.00986770
-0.02610434
0.03094072
-0.84579456
0.14133887
0.09084208
-0.14202358
0.00488848
0.03179178
0.00595619
-0.09294996
-0.03564103
-0.03899610
-0.00824503
-0.03529513
-0.02723734
-0.00272501
0.05074746
0.03847137
0.03322074
0.04045260
-0.02408569
0.10286520
-0.09618441
-0.05615086
-0.04114898
0.02916302
0.00633872
0.00138217
0.08036393
-0.08691727
-0.13759196
0.00925029
0.05243592
-0.02912760
-0.08617193
0.04744043
-0.06652857
0.10126437
-0.15354308
0.04886317
-0.09211626
0.05729596
-0.09743612
-0.03145324
-0.33982065
-0.05678471
0.01654170
-0.00930665
-0.11558308
-0.03316680
-0.02880432
-0.13824417
-0.01893634
0.07832052
-0.03545212
-0.05048212
-0.03476972
-0.07030901
-0.00410346
-0.00335544
0.06685883
0.02994874
0.01231083
0.23062442
-0.06863651
0.00047802
0.00690540
0.09240618
0.01618950
-0.11362538
0.12376362
-0.00222999
-0.00415448
-0.26546940
-0.27597985
0.23965871
0.17054605
-0.14852652
-0.02408220
-0.03875991
0.01387932
0.13412657
-0.01088637
0.04099810
-0.02167795
-0.08855987
-0.03430311
-0.15762125
0.00161216
0.00280248
-0.00456003
-0.03619729
-0.18386680
0.03695620
-0.01913837
0.00594317
-0.00830662
0.28470737
0.01623817
-0.02508268
0.01966484
0.09152869
0.01588167
0.11429847
0.13368608
-0.10093617
-0.05007700
-0.33600017
0.00454144
-0.04288356
0.05519606
0.14708510
0.02681200
0.08378017
-0.29600412
-0.17124763
-0.08579879
0.10534738
0.06750824
0.08666012
-0.21102467
0.06688359
0.01283183
0.03496043
0.09160179
-0.09196208
0.02189888
-0.11641487
-0.09811559
0.16215527
-0.03261194
-0.29098469
-0.13249137
0.00306306
0.31275243
0.03912475
-0.38573977
-0.05796627
-0.02453046
0.07847882
-0.13098167
0.00665283
0.02180283
0.02223487
-0.59126425
-0.05429419
-0.04515396
0.08444107
-0.05821678
0.19806685
0.12119301
-0.00662595
0.30018613
-0.07254530
0.14922878
-0.01429319
0.15848121
-0.15914613
0.12863891
0.14528573
-0.04763767
-0.33715454
-0.21113335
-0.04423520
0.05227374
-0.25415513
-0.02483099
0.11190119
-0.03705891
-0.02082338
0.02926337
0.06737812
0.11085536
-0.50109088
0.02504691
0.03803500
0.00952864
0.07434323
0.03527489
0.17784336
-0.01371361
-0.12194984
-0.05874076
-0.31993067
0.04853230
-0.10860432
-0.05182355
0.08120017
0.06006459
-0.00357437
-0.09692781
0.03634097
0.06731313
0.08645755
-0.15799631
-0.10272828
-0.40876549
-0.07903962
-0.50657266
0.06034034
-0.18589698
-0.31354994
-0.25712749
0.09639691
-0.05744189
0.29636753
0.00185369
-0.02446912
0.03606761
0.17709194
-0.26106888
0.10117175
0.24639785
-0.01723393
-0.09674954
-0.02062444
-0.01312532
-0.00033845
0.00812066
-0.02295507
-0.01909974
-0.29148611
-0.17405862
0.00825784
-0.01306995
-0.09202854
0.04399907
-0.00090470
-0.01201071
-0.03505824
-0.01403224
0.20041655
-0.02384992
0.01587147
-0.03779454
0.02935082
0.02375459
0.00353887
0.04211437
0.01156726
0.01437429
-0.00413322
0.24546354
0.03411359
0.00974161
-0.01932403
-0.00767202
-0.01315037
0.01785631
0.53057921
0.02368174
0.04138058
0.01847433
-0.00596091
0.02367815
0.02543783
0.02912110
0.07201011
0.04194465
0.00562079
-0.86514992
0.00151520
-0.04935762
-0.03115453
-0.04221369
0.02397943
-0.02781596
0.04308539
-0.00086917
-0.06179522
-0.04348031
0.04845128
0.02109957
-0.01217035
0.02141877
0.08816077
-0.06359971
0.16743335
-0.03831565
-0.00060348
-0.10897401
0.01750662
-0.01892697
-0.01787024
-0.14605622
0.01054212
-0.15705729
0.05507310
-0.04321685
-0.02778378
0.01427408
-0.01410916
0.19032463
-0.01806154
0.02835670
0.04316293
0.02634062
-0.06720793
0.02087431
-0.01366572
-0.08892810
-0.04947251
0.01225178
0.14763509
0.12828438
0.02988249
-0.05583690
0.04750271
0.06190449
0.05141779
-0.01174994
0.02314153
-0.04858567
-0.11121882
0.02584706
-0.01877577
0.02987459
-0.09282515
0.00939719
-0.20331836
-0.00201064
-0.11860643
0.03621323
0.08534176
-0.02954560
0.11684934
-0.00789459
0.26643312
-0.06880573
-0.03213521
-0.02250816
0.02890284
0.06510392
-0.03664856
0.00780992
0.07519039
0.02765086
-0.42023674
0.01112272
-0.23237507
-0.05229246
0.11112396
0.00780590
-0.03916330
0.03755436
-0.26022655
0.14771399
-0.06668765
-0.44720498
-0.32877153
0.11090843
0.05232948
0.00066200
0.30163091
0.48571193
0.05541547
-0.08833151
0.14291993
0.15376046
-0.05680166
-0.02465165
-0.22326151
-0.02627507
-0.01972552
0.07619166
0.12016697
-0.03028508
-0.07229859
0.01565843
0.00903874
0.15224144
-0.15793854
0.02028924
0.01211120
-0.43116355
0.05636371
-0.03416840
0.00480900
-0.09320915
-0.07446447
0.02267681
0.02808787
0.14655975
0.04556264
-0.01369337
-0.92170095
0.04683528
0.03892721
0.04946810
-0.00419710
0.04337058
-0.08414603
0.12299386
0.01767350
0.02273881
-0.07087848
0.01803927
0.01156298
0.01070077
-0.00441016
0.00733190
0.04578311
-0.01640968
-0.04365560
0.07048430
0.00003199
0.04522634
-0.01802365
0.02035225
-0.01497854
0.05510642
0.02343537
-0.02504032
-0.02944072
0.01014817
0.04238530
0.81691355
-0.07303309
-0.02301065
-0.03823186
0.01399361
0.02708581
0.07802480
0.09508143
0.04157986
0.05870847
0.08110408
-0.01682027
0.03537310
0.03340022
0.00823906
-0.01740319
-0.00628051
0.04043557
-0.03806603
0.00930094
0.09923041
-0.05103908
0.04548993
0.00521285
0.09794118
-0.01751844
-0.03582467
-0.04189876
0.08968456
-0.04386088
-0.07047153
-0.06473558
0.06294701
0.00228431
-0.00998350
0.01260920
0.06117543
0.11336188
-0.01534359
0.08404634
-0.08724444
-0.03790539
0.00325813
-0.08108681
-0.02551940
0.03132781
-0.06072205
-0.07111848
-0.11590850
-0.01019913
0.10326380
0.14031036
0.09035908
-0.02442736
-0.36805487
0.00263972
-0.16726252
-0.06581640
-0.17973968
0.02582206
-0.11698950
-0.03273261
-0.38270807
-0.08894893
-0.02892831
-0.22164877
-0.19385380
-0.27656251
0.00355220
-0.09978807
-0.42955041
-0.25982806
0.04904760
-0.00220394
0.11371509
0.31582007
0.10846366
0.10886982
-0.09000819
0.08831386
0.00765614
-0.12908620
-0.02460178
-0.16506870
0.01039456
0.06324038
-0.03508247
0.10345625
0.00877859
-0.20761892
0.00509755
0.24820039
0.22535373
0.09859628
0.07202544
-0.31759495
0.00486988
0.03304483
0.17809981
-0.00102167
0.14079057
-0.04251461
0.13116138
-0.18859318
0.05173479
-0.27600369
0.37128782
-0.12209176
0.32072058
-0.14256081
0.01098646
-0.08475988
0.06703434
-0.17587225
-0.01936597
0.25204715
0.17502534
0.01849633
0.12804049
-0.08464898
0.05889080
-0.09636351
-0.02119100
-0.07076713
0.07973503
0.01564821
0.04989276
0.03170695
-0.18755372
-0.01326356
0.00658318
-0.34224927
0.04535532
-0.15306255
0.10395916
-0.04414264
0.00542457
-0.41264972
-0.11828477
-0.30162689
-0.15857400
0.04023549
0.06015448
-0.10900260
-0.07860005
0.26287246
-0.05076753
0.04241210
-0.05834498
-0.03623038
0.07717813
0.14486529
0.06161956
0.00624635
-0.07401456
0.05419335
0.12569642
0.25338718
0.00000284
0.03206274
-0.02732355
-0.06326500
-0.01637697
-0.05893318
0.01764032
-0.06234220
0.00564209
0.04634965
0.16496840
-0.12913440
-0.12089530
-0.47880557
-0.03330676
0.08738190
0.09770671
0.11128429
-0.01110696
-0.13652633
0.03974513
-0.10956571
-0.23234940
-0.04154836
-0.17768709
-0.08438511
-0.32966062
-0.06972639
-0.09038500
-0.07757370
0.04884467
-0.15630181
-0.00201070
-0.18829563
-0.02967275
0.01127499
-0.13628832
0.12530681
0.20181455
-0.03602419
-0.35208425
0.06072905
0.05247660
-0.07238965
0.01590201
0.04968597
0.14336106
0.09818935
-0.04460602
0.04176417
0.00533002
0.01189753
0.05658262
-0.22383900
-0.07028775
-0.05555406
-0.00305834
-0.04627268
-0.28034523
0.51201630
0.02828216
0.01674656
0.04019880
0.10561584
0.00824488
-0.03986067
-0.37647176
0.23173636
-0.25913486
-0.13398872
0.00914626
0.05340375
0.00363168
-0.09213363
-0.03980225
-0.03154747
0.08180929
-0.16085479
-0.03592867
0.10756221
-0.01840200
-0.09181628
0.03638016
-0.15695223
-0.12904903
-0.10883193
0.02180414
-0.30879685
-0.02531113
0.07576635
-0.08905371
-0.06034277
-0.11415736
-0.14983842
0.06017104
-0.16000982
-0.04036808
0.37978372
-0.04206230
0.11354824
0.12438007
0.10868702
0.06596840
-0.06508084
0.00610913
-0.23791443
0.09615889
0.02344042
-0.13059489
0.12130734
0.03755126
-0.06104411
0.00153470
0.04329919
0.05813538
-0.04167069
-0.08818749
0.09840953
0.29309690
0.01696822
0.04381601
0.03490449
-0.06477781
-0.00171104
-0.22810954
-0.04739630
-0.01293479
-0.14555562
0.03234667
0.07042398
-0.05847036
0.54830307
0.04244083
-0.02737091
0.00619317
-0.05279568
0.04556026
0.03492812
0.14374669
-0.02184886
-0.05033416
0.02667980
-0.05226726
-0.01406900
0.05298920
-0.04233038
0.06162136
-0.02070551
0.05775736
-0.01446983
0.04327619
0.11078915
-0.00299173
0.05489397
0.00014897
0.04634558
-0.01173459
-0.05596371
0.02250641
0.09969526
0.04484646
0.02147036
-0.81689656
-0.07298204
0.03924761
0.02094341
0.11932740
0.01887642
0.03950522
-0.02015281
0.06796502
0.06013725
-0.02529469
-0.03778169
0.04395302
0.02010980
0.00594388
0.05753756
0.02432330
0.03875901
-0.02783202
0.10165425
0.03995632
-0.07494266
-0.10478651
-0.00146563
-0.00917803
-0.00215894
-0.06322879
0.03661430
0.05519259
0.02326192
-0.06734398
-0.07516833
0.01607257
-0.03023358
-0.06817966
0.06881229
0.19771209
0.12783222
-0.02850420
-0.08093461
-0.10325903
-0.02284407
-0.10053590
0.41665763
0.05878421
0.01405457
0.01678510
0.30434999
-0.10735661
-0.02256863
-0.20009826
0.10045694
-0.67111832
-0.12383982
-0.02255859
-0.04951723
-0.16778955
-0.16852985
-0.00188308
-0.08444475
0.03145023
-0.05267632
0.08991006
0.09722036
-0.21526997
-0.31878078
-0.35319248
-0.34968418
0.00342839
-0.14889042
-0.15165356
0.07438333
0.11657911
0.06621624
-0.28157309
-0.14950705
-0.11629911
0.05733088
0.11378873
0.02727744
-0.10767847
0.11052491
0.08174234
-0.06520893
0.13512033
-0.00276604
-0.00345789
-0.26139319
0.13988902
0.17148237
-0.12311601
0.16623843
0.01130206
0.00708791
-0.30109197
-0.26588333
-0.07653038
-0.17070955
0.01583564
-0.06374755
0.00422943
0.24684910
-0.18412676
-0.07518142
-0.06718431
0.07660671
0.09037405
-0.23759288
0.00668478
0.01023818
0.01409119
-0.17475922
-0.09627462
-0.13214780
-0.18835588
-0.05234594
0.33314738
-0.12293430
-0.13166587
-0.00707051
0.01841832
0.03568258
0.00175738
0.04930246
0.03883883
0.00830104
-0.02620441
0.03149689
-0.00585945
-0.00066333
-0.00072861
0.00106993
-0.04949174
-0.00759429
-0.11899210
-0.00493103
0.03304500
0.11844673
0.02368704
0.03883708
0.11389139
-0.05226084
-0.08934359
-0.02959932
-0.00389430
0.08462338
0.02485441
0.02799792
-0.00608586
0.00158421
0.02943621
-0.05332372
-0.10164104
0.00212864
0.00871573
-0.39002600
0.17108727
-0.01320497
-0.01031355
-0.22723626
0.01002878
-0.11343525
0.08227818
0.13417421
0.03313494
0.04880334
-0.00643634
0.02150653
-0.05503642
-0.05713142
0.14931729
0.03156615
0.07584056
0.08387601
0.01343046
-0.28333360
0.00215693
-0.35460812
-0.16672957
0.00314130
-0.03300860
0.41151395
-0.01708004
-0.06655391
-0.12130243
0.20951964
0.05531166
-0.00622222
0.01841645
-0.01821020
-0.02219963
0.00782580
-0.04038038
0.01098884
0.03560888
0.23293203
-0.20624076
-0.00171792
0.17074780
0.20879719
-0.13594562
-0.09498113
-0.10230909
-0.02419623
-0.24388604
0.05111130
0.00135048
-0.08451165
-0.08483090
0.40280193
-0.11580319
-0.04952779
0.00777835
0.04448290
0.03915738
-0.01869001
-0.07519853
0.05176298
0.10591566
0.08064327
0.26374641
-0.05863136
-0.07949331
0.02600260
0.07488038
0.08400922
0.02979196
0.11797696
0.00517542
-0.34949812
-0.02405727
-0.28846750
0.07922608
-0.03620679
0.15221670
0.06632574
-0.03585672
-0.23619226
-0.21699452
0.00588598
-0.18133372
-0.00909371
-0.16769333
-0.08532275
-0.01599091
-0.28514233
-0.02590494
-0.06150033
-0.06173367
0.00746451
0.00398412
0.09284123
0.07125583
-0.00271263
0.15675381
-0.08036496
-0.00393144
0.08154910
0.07279626
-0.08666570
0.07609411
-0.03766965
0.15890752
0.05280752
0.15702657
-0.11877509
0.09993531
-0.02005637
0.30114979
0.24810864
0.04167083
0.08341955
0.07133305
0.26507369
0.11160635
0.07906786
0.06921759
0.06304785
0.08281464
0.15744823
0.30844802
-0.00175049
0.06177298
0.02703330
0.03629169
-0.00906678
0.03533038
-0.02650994
-0.02672092
-0.14211331
-0.15628250
0.07346801
-0.04657815
0.14339289
0.05850414
0.07682990
-0.57710248
0.03914012
-0.11361440
0.18857147
-0.05144823
-0.07586600
-0.29343793
-0.04396427
0.06763044
-0.31226778
-0.11033927
0.07652009
0.01585030
-0.00463556
-0.11507642
-0.17103133
-0.20336860
-0.01682895
-0.13700257
-0.16893457
-0.26093379
-0.01034790
-0.02963807
0.00254976
0.15510547
-0.00045025
0.00450576
-0.06153851
0.02277082
-0.05714517
-0.00959103
-0.02861965
0.10175169
0.04428549
-0.00213558
0.10221741
0.02514600
0.09494393
-0.34378228
-0.29793748
0.03351842
-0.01023116
0.13330495
0.04119680
0.07984493
-0.04737667
0.13440669
-0.16454174
0.08109573
0.21267201
0.13693137
-0.32849073
0.11847800
-0.22669664
-0.10956532
-0.03200078
0.03887379
0.09871539
0.12591916
-0.03795069
0.19147795
0.07509805
-0.00466323
0.16109486
-0.02677436
0.03380945
0.06410699
0.00027285
0.05729288
-0.37893075
-0.02219009
0.00974298
-0.00525071
0.01272910
-0.02934763
-0.02973792
-0.00906442
0.00424760
-0.08138257
0.16376600
-0.26187870
0.00027875
0.03567071
-0.09115527
-0.06113487
0.05709583
-0.04421099
0.06781707
-0.02013859
0.01910281
0.14475828
-0.03022563
-0.00101022
-0.05827169
-0.02160557
-0.07670062
0.01843129
0.02382302
0.01764322
-0.03705547
-0.08267727
-0.04406045
0.01594652
0.02155519
-0.13450871
0.00342519
-0.10065778
0.01507647
0.01230987
-0.02731442
0.04562818
-0.09929071
-0.02898018
-0.04264526
0.10617111
-0.01190052
0.01235001
0.06665760
0.03639518
-0.15418825
0.03246099
-0.04546166
-0.05947766
-0.00509402
-0.04964972
0.12744558
0.13267735
-0.06348667
0.00999334
0.06481870
0.10354743
0.01504454
-0.02514691
-0.02816074
-0.34673959
0.06720790
0.02434712
0.03228237
0.06052011
-0.02279293
0.06421687
-0.18131334
-0.04081853
0.05779945
0.02755133
-0.28322503
-0.00892597
-0.00973844
0.14332338
0.01472217
-0.02997617
0.17022021
0.16336225
0.02598206
0.02281707
-0.09984113
0.02320997
-0.04242297
-0.09841333
-0.00050271
-0.13040125
0.31601104
0.18921249
0.06814209
-0.04038225
-0.27730590
0.03735888
-0.14014119
-0.27759862
-0.12553871
-0.22616820
-0.17992300
-0.03348504
0.13780431
0.04662583
0.14412367
-0.36969709
-0.00030627
-0.02728695
-0.12028735
-0.13648854
-0.33139044
-0.03081828
-0.04452403
0.00716757
-0.26115751
-0.03068035
-0.04346903
0.00984193
0.23034646
0.01138297
0.08568490
0.00882164
-0.02265103
-0.02497982
-0.08691682
-0.06924509
-0.22471851
-0.02191061
0.18120112
0.01725440
0.08765544
0.21290657
-0.03572890
-0.08908547
-0.05090167
-0.04078260
-0.20913859
0.02507424
0.02149609
-0.04079732
0.04775396
0.14049050
0.06416350
0.01859693
0.07925430
-0.12683608
0.01125799
-0.30224189
0.27653578
0.20450588
0.00773704
-0.15503111
0.03470470
-0.03032101
-0.02065467
0.75657743
-0.04717195
-0.00996140
-0.03149732
0.00652309
0.03666504
0.00893470
-0.05671781
0.05943573
0.02109640
0.02603976
-0.01071310
0.04688188
-0.05987317
0.18242192
0.02314592
-0.02750365
0.08997292
-0.01028282
-0.01771973
0.02957203
-0.01676176
0.08844350
-0.00454054
-0.07468395
0.00078492
0.04058973
0.09109988
-0.01607547
-0.01545263
0.01643214
0.03494450
-0.05155802
-0.05280692
0.02292559
0.04921741
0.00762982
0.02763378
-0.11813650
-0.08296096
0.04539189
-0.03057174
-0.00270553
0.01545413
0.03821832
0.00531474
0.06527908
0.04188068
-0.00170847
0.03653302
0.06078554
0.02666990
-0.00976028
0.08296131
0.00532552
0.09505737
0.01563897
0.01883550
0.07682533
-0.09500621
-0.02813349
-0.03752067
-0.03675020
-0.03484698
-0.02122166
0.03610154
0.12020442
0.00867047
0.05399857
-0.09290444
0.10808656
-0.01299306
-0.01582696
0.07416692
0.05956420
-0.92747629
0.00699403
-0.00603963
-0.36962497
0.04527950
0.01095876
0.01175801
0.04929355
0.03048364
0.06867273
0.07261717
0.27216452
0.05304659
0.01937497
-0.18940477
0.04621848
-0.57515097
-0.25439087
0.04330155
-0.54271877
-0.07461619
0.13628343
-0.38650388
-0.42328331
0.19520865
0.07787853
-0.22362161
-0.05499505
0.16516948
-0.10241614
0.03138852
0.05665891
0.23852845
0.01141805
0.00446610
0.10045684
-0.07528946
-0.16717963
-0.19117408
0.06687872
-0.03632643
-0.12304756
0.00541915
0.00171092
0.05916341
-0.26526138
-0.07103708
-0.02911638
-0.01567297
-0.10900050
-0.35595074
0.17400599
0.12002985
0.04153477
0.04296469
-0.01186210
0.08521131
0.11844978
-0.34112248
0.07736716
-0.02290729
-0.03826465
0.13825846
0.11676667
-0.14121881
-0.02593576
0.01956788
-0.08073913
0.21485604
0.10712078
-0.05545266
-0.00752358
0.23789434
-0.00711942
0.00321253
-0.04503360
-0.16894235
0.13151811
0.03578276
0.15359777
-0.02426195
-0.12629938
-0.51279610
0.31972110
0.17619175
-0.05848718
-0.01417807
0.02097685
0.09660087
0.04558600
0.04091207
0.08803969
0.24457940
0.10675184
0.21657379
0.00821538
0.15514879
0.04358629
-0.17425802
-0.12392101
-0.01296931
-0.22483093
-0.09241813
0.21095455
-0.00110565
-0.40197769
-0.00233242
0.03754411
-0.11409964
0.00742450
-0.01401664
-0.06319559
-0.28926811
-0.05588105
-0.12913556
-0.10207016
-0.02179705
-0.05774622
0.08344123
-0.14432548
0.02890380
0.04444203
0.02776952
-0.21672124
-0.01388025
-0.00506601
-0.02447563
-0.02267650
0.22121230
-0.01175439
0.10840742
0.03936389
0.01282482
0.00327807
0.00273061
0.03036414
0.02020205
-0.19335993
-0.13786347
0.02676098
-0.02205405
0.07495273
-0.02160797
0.02325573
-0.05211144
0.15561464
0.03563698
0.13689452
-0.07715382
0.08791870
0.13309132
-0.24919182
-0.35816744
0.16390699
-0.00432599
-0.17609753
-0.06249316
0.14092202
-0.00045005
0.10160321
-0.04665150
0.02439718
-0.02491945
-0.07772902
0.10802078
0.03715656
0.03608791
0.37112176
0.14276230
0.06701413
0.06478057
0.48032621
0.13738318
-0.03494240
-0.13608833
-0.04500307
-0.32666618
0.11212058
-0.05409474
0.31828001
0.14797114
-0.15381214
-0.13471298
-0.12021813
-0.01247845
0.27625427
0.02925709
-0.13660607
0.09030345
-0.19909818
-0.13421115
0.05360119
0.03434473
0.11923062
0.07556819
0.12338511
0.08887243
-0.38012242
-0.05183090
0.08030616
0.09211847
0.11064115
0.11098092
-0.05754174
0.13535777
-0.12298714
0.15826775
0.07665546
0.19850731
0.00994754
0.22888403
-0.06393801
0.00922078
-0.03171397
-0.23920317
0.08468994
-0.09355043
0.15569165
0.09775712
0.02659122
0.18646935
-0.09018211
0.02908142
-0.14086691
-0.17792033
-0.38083133
0.06749296
-0.16118757
-0.08605407
-0.03845739
0.18879211
-0.13916427
-0.24941655
0.05552023
0.12405393
-0.22299203
-0.61742896
-0.29428604
0.02154676
-0.06461462
0.10670859
0.18231851
-0.01436563
0.01735603
0.02892881
-0.13200144
0.06598865
0.03104109
-0.52922416
-0.02967316
0.04814849
-0.02525631
-0.05743478
0.08775248
-0.00040607
-0.01729979
-0.01987677
-0.05963699
0.17548545
-0.02351952
-0.04147346
-0.04139245
-0.03158202
-0.03860840
0.01071589
-0.01335509
-0.01573897
0.04581885
0.01388625
0.00152859
0.03905211
0.02347637
0.06189034
0.00300580
0.03152562
0.03365286
0.01986585
0.01655796
-0.04512544
0.01381386
0.08747692
0.01658859
-0.01744099
-0.13445210
-0.03748289
-0.00072766
0.03957549
-0.43973750
0.05266955
0.03801402
-0.07280147
0.03156205
-0.06338310
-0.01791421
-0.03886559
-0.00672850
0.03619117
0.06924637
-0.02461892
0.01833571
0.03218855
-0.01975874
0.03327348
-0.01655757
-0.00105859
0.04225763
0.00444552
-0.09616183
0.06272345
0.00369488
-0.01134508
-0.00545971
0.00107804
0.19175425
0.01503385
0.09801512
-0.01898731
0.04527716
0.10032975
-0.06084159
0.08843838
-0.02238254
0.06201071
-0.00580085
0.00469451
-0.89244300
-0.02876903
-0.02372209
0.03983898
0.11622219
0.04595508
-0.02286078
-0.03381670
-0.00540584
0.04703991
0.01356228
-0.03540277
0.05693887
-0.07786153
0.12286185
0.01266049
-0.03128149
-0.00135092
0.01751298
0.03015041
0.01319815
-0.01027930
0.05414296
-0.01952494
0.01839041
0.00474572
0.03364205
0.04683037
0.00404025
0.01036800
0.02576127
-0.13000275
0.02612259
-0.01496194
0.01270554
0.04079413
0.00904471
0.02617855
0.01546112
-0.08114313
0.03403451
-0.00457564
-0.05303549
0.04405799
0.04065067
-0.02121879
0.06260880
0.03876918
-0.00588053
-0.01729686
0.05284759
0.03766544
0.05158459
0.05075346
0.03821009
0.03484877
-0.02089369
0.01275431
0.03643538
-0.02673839
-0.02335601
-0.04201700
0.02139580
-0.01702701
-0.05759281
-0.00899894
0.05306245
0.02714774
0.02309689
-0.06650343
0.06703401
-0.03025809
-0.03951811
0.06283209
0.10849108
0.65401512
-0.03472533
0.00159513
-0.02083715
-0.01047689
0.01851293
0.00744072
-0.10201409
-0.00328633
0.04681797
0.28771794
-0.03116335
0.00015453
-0.01119813
0.04863498
-0.00753726
-0.01227718
0.08796894
0.01347523
0.06866223
-0.19226675
-0.04016316
0.04923885
0.02586204
-0.01458157
-0.04209146
-0.10983898
-0.04442617
-0.03204729
-0.04705692
0.06805570
0.04061941
0.08637320
-0.00424546
0.03421848
0.00915682
0.04221372
0.00965710
-0.16546640
-0.02442664
0.08448696
0.01452393
-0.04364750
0.00459479
-0.33441275
-0.01784744
0.23188673
0.01063212
0.11310723
0.00512825
-0.06991613
-0.36272720
0.01132266
0.15581129
0.02377694
-0.63072139
-0.43210953
-0.01626469
0.04688155
0.03838950
0.19082859
0.54071474
0.02945194
-0.06488818
-0.08159016
-0.11207058
0.14739864
0.01342823
-0.08484670
0.05003839
-0.01078705
0.01440235
0.07538717
-0.02038774
0.19371365
0.00039349
-0.04157262
0.14479807
-0.23581484
-0.05042027
0.03612343
-0.18613660
-0.07516453
0.02409067
0.03696308
0.03037014
-0.09777176
0.05378295
0.09065486
-0.06045504
-0.11791008
-0.22400266
0.01265700
0.10657816
-0.05956531
0.09282494
0.07506025
0.06467597
0.01711056
0.30753255
0.16758384
0.11312021
-0.20439655
-0.11205527
0.00848567
0.03395709
-0.10790487
0.07466845
-0.11811789
0.01676457
-0.05924974
0.01824392
-0.11474537
0.06236617
0.28318843
0.01226899
0.02864257
0.15601328
0.19079736
0.18147145
0.20744018
-0.23603426
0.11120636
-0.01020954
0.12046089
0.00584999
0.26509401
0.06236101
0.28218549
-0.04100358
-0.27926275
0.01332867
-0.37791035
-0.17928442
-0.21561129
0.05871061
0.10283368
0.20752835
-0.00654949
0.04284268
0.05019441
0.00683234
0.03685360
0.00846615
0.08941127
-0.27486351
0.06748970
-0.09573732
-0.27503368
-0.38085255
-0.18593505
0.31290770
0.09245839
0.04165366
-0.11652750
0.23966980
-0.34308434
0.08332009
-0.04578493
-0.09350891
0.02070320
-0.28113985
0.04242246
0.07372589
-0.43152630
0.00518695
0.00027006
-0.19333547
0.02656868
-0.02186981
0.10252575
0.10090216
0.00493601
0.01886505
-0.00071027
-0.01959652
-0.04163252
-0.00616368
-0.00907190
0.14039245
0.27588031
-0.00117340
0.19596414
-0.05278692
-0.05327354
-0.01183079
0.07488946
-0.05790978
0.11603826
-0.01501455
0.07640097
-0.00112977
-0.21115026
-0.00548919
-0.03286903
0.04066502
0.01327039
-0.04567080
0.11431814
0.00382993
-0.20379946
0.00906790
0.06125793
0.00536741
-0.04169594
0.06219717
0.12385501
0.00766646
-0.11897838
0.00497470
0.01543768
0.33586201
0.03390700
0.14030311
-0.17058343
-0.06455114
0.12480273
-0.07122649
0.16975763
-0.01903002
-0.13457051
-0.03676315
-0.31275824
-0.29978123
0.29879236
-0.17445950
0.15690747
0.06679969
-0.03944271
0.00188649
-0.00680917
-0.03299228
0.10033293
-0.01537292
-0.52429062
-0.06161800
0.05496850
0.06976674
-0.32176480
-0.23621917
0.01930146
0.05349189
0.31470814
-0.00990699
-0.19687314
-0.03104304
0.09448798
-0.00253712
-0.12038212
-0.09410857
-0.08359009
-0.11887610
0.00285804
-0.32846755
-0.09929892
-0.16239586
-0.14091663
0.10886626
0.02687307
0.11585741
-0.08398882
0.07713031
0.12186175
-0.20678975
-0.05296197
0.02751338
0.04294277
-0.47709903
0.21695596
-0.06291071
0.01763364
0.02281971
0.07970952
-0.00450103
0.20369257
-0.11759035
0.00825780
0.03735217
0.03009337
0.23948941
-0.04595929
0.05584864
0.00280908
0.03437546
0.00783392
0.04762232
0.16154334
0.05032735
-0.46716177
0.01755015
0.15123187
-0.00982377
-0.07465263
0.06282273
-0.13057524
0.10999782
-0.01596549
-0.04639265
-0.03405345
0.00890668
0.13511887
-0.12772536
-0.02533744
0.11555266
-0.16994540
-0.34589177
-0.14027449
0.09768355
-0.15306075
-0.09809031
0.05577054
-0.02944525
-0.07736096
-0.00959443
-0.00167498
0.11445680
-0.00834776
-0.35707289
0.06970147
0.21704929
0.00963615
0.06063660
-0.37700427
0.03626808
0.00215996
-0.11135535
0.00411177
0.06841652
-0.25040829
-0.11706156
0.11258491
0.08033729
-0.09540840
0.16533242
-0.17917587
0.00342814
-0.02904897
-0.14929077
0.04015200
-0.14115052
0.01257713
-0.01511036
-0.05651683
-0.23272045
0.08154628
0.00595409
0.01693308
0.06948985
0.02110205
0.17880443
-0.03942906
-0.02809126
0.13666946
0.02556762
-0.01855915
-0.04868363
-0.02979114
0.04771091
-0.13470545
-0.02610634
0.01488851
-0.02345895
0.03801302
-0.01516590
-0.01665154
-0.09310949
0.05376138
0.05139741
0.10706259
0.03331785
0.09774368
-0.02598068
0.00022391
0.12149457
0.01894885
-0.00425510
0.05280533
0.05229546
-0.01696698
-0.00418651
-0.02181266
0.01288656
0.04125485
-0.05355379
0.05608977
-0.00516698
-0.01042778
-0.20353480
0.09853446
0.02241974
0.13454017
-0.17245199
-0.03519175
-0.09800979
0.06392418
-0.01685792
0.03681735
0.07060836
0.05817596
0.06284320
-0.01948274
-0.00395223
-0.04848112
0.00610066
0.02210087
-0.03652178
-0.04299762
-0.01449518
-0.05134149
0.05589051
-0.05934253
0.01310280
-0.01458351
0.31169879
0.00511632
-0.03799336
-0.03532450
-0.01501768
0.11154319
-0.01636954
-0.17244577
-0.00454744
0.08486011
0.00352858
0.03522670
0.02844314
-0.04440572
0.01517336
0.00977694
-0.04486782
0.16835177
0.01611299
0.01867241
-0.07606427
-0.01080021
0.03373207
-0.07129125
-0.03209573
0.04041206
0.03029535
0.02824426
0.04223145
0.01108626
-0.01756655
-0.00579018
0.00883844
-0.01083191
-0.00385091
0.02994586
0.02810013
-0.01888125
0.02165433
0.02226207
-0.00317169
0.02711429
0.08372734
-0.02142899
-0.05692101
0.06693401
0.01694351
0.01188945
-0.01158466
0.05457006
-0.07450593
0.04979453
0.03182174
0.05243883
-0.03118271
0.00073787
-0.03874657
-0.02667954
-0.18126525
0.02343301
0.03969426
0.02379275
-0.04144331
-0.00163733
0.02566375
0.04883084
0.05077529
-0.05277677
-0.00255414
0.01839909
0.00395164
-0.17346844
0.01079786
-0.05502440
-0.24565096
0.04455087
0.03432201
0.13084657
0.08734251
0.03212571
-0.01183255
-0.02491777
0.05031945
0.12617864
0.07561017
-0.00373181
0.14660355
0.10283061
0.04642282
0.01556467
-0.15313897
0.01269079
0.08321077
0.05210452
0.00916279
-0.21447065
0.00284005
-0.12563632
0.02177680
-0.02589792
0.01034955
-0.00892824
0.10526545
0.00108575
-0.18457240
0.22582254
0.05544046
-0.08913484
-0.02348270
0.07537583
-0.01361072
-0.07363333
0.05402808
0.15697643
-0.01597731
0.06029803
-0.00332666
-0.10325659
0.32454756
-0.23953101
-0.14335352
-0.09163223
-0.08970904
0.11207686
0.05129020
0.18256417
-0.00432668
-0.17252252
-0.04466285
-0.02794854
-0.18123698
0.42928228
-0.23755744
0.05950965
0.15962425
-0.00817827
-0.12619635
0.00607974
0.06795944
0.12477759
-0.00121240
-0.39141348
0.11265560
-0.06279781
0.00151663
-0.19086164
-0.25624704
-0.00528483
0.09627793
-0.04628711
0.11664680
0.13054684
0.02599498
-0.06309043
0.13976060
0.01497722
0.02610665
0.07306882
-0.03112050
0.02106952
0.03967657
-0.25167745
0.11665713
0.14393914
-0.23618850
0.04307186
-0.18674606
-0.16449249
0.18541886
-0.29403123
-0.13407883
0.18671636
-0.09323560
-0.63376415
-0.01864500
-0.18662310
-0.09296735
-0.03634490
-0.03439302
0.34754443
0.05106308
-0.19214009
-0.24149086
-0.03060286
-0.03560312
-0.36554620
-0.13298193
-0.00020828
-0.12200496
-0.03701093
-0.00532512
0.03284915
0.03754130
0.03226576
-0.04001403
0.06299585
-0.00230737
-0.18158838
0.09117544
0.04642377
0.05420335
-0.08495716
-0.04052927
-0.00436674
0.15411410
0.28159279
0.00372109
-0.12721185
0.05639363
-0.01800089
0.09566584
-0.17154519
0.14896409
0.18192470
-0.28481334
0.22213615
-0.29719403
-0.18708876
0.28468260
0.06078945
-0.01234117
-0.09045259
0.14222479
0.04479726
-0.10082092
0.04765097
0.25751120
0.00579963
0.17037436
0.18725596
0.09726995
0.00266346
0.03538130
0.42250818
-0.04426284
-0.10381129
0.04826197
-0.06023495
0.07207908
0.10823373
0.05295257
0.04982287
-0.19389378
-0.01345210
0.05272646
0.21073316
0.02001321
-0.03183519
0.04777519
0.12277407
0.00647571
-0.01282682
0.01148998
0.03663276
0.05429816
0.00727675
-0.40094760
-0.05622252
-0.10342348
-0.02830498
0.08806761
0.01017866
-0.01379326
-0.08781332
-0.01559702
0.01072059
0.00365438
-0.04879372
0.19427794
-0.01006209
-0.01546809
0.04372740
0.02155379
0.00393531
-0.15452492
-0.01634645
0.13970567
0.07643142
0.03150666
-0.02563151
0.12187152
-0.01534911
0.07902600
0.05211183
-0.12284390
0.02138149
0.07456089
0.03252294
0.00913463
-0.01836726
0.08277960
0.02376988
0.00626758
0.03085545
0.02905998
0.03251265
-0.00078434
-0.00103816
-0.16690202
-0.01568973
-0.23754154
-0.03986159
-0.06987041
-0.00788076
-0.01841981
0.05755116
-0.07991843
-0.05842013
0.03156066
0.15161711
0.32426631
0.21554480
-0.01466730
0.36466053
0.14486462
0.43199909
0.17582430
0.02227254
0.22950591
0.01232478
0.08814061
0.23012859
0.36666006
0.30014896
0.07353103
0.44892174
0.12092949
0.06324713
0.20690599
0.10056520
0.15648642
-0.14498116
0.22865272
0.15503556
0.18366870
0.08057895
-0.07237639
-0.02261374
0.18793088
0.15608297
0.24319752
0.11181181
0.14661789
0.25722039
0.20020239
0.15664917
0.16365382
0.19764060
0.20280021
0.18413106
-0.09190234
0.07222627
0.24485874
0.15830347
0.27120861
0.11763101
0.04714777
0.13014683
0.04378806
0.14345971
0.13587169
0.14717595
0.11485237
0.12201783
0.20826963
0.14465126
0.68082356
0.17851405
0.10698900
0.17648542
0.16008253
0.13038439
0.09766348
0.15441450
0.05529891
0.15387154
0.17346962
0.00864883
0.19753361
-0.14749575
0.31010765
0.21783021
0.07551409
0.15117905
0.19019485
0.05105424
0.22563785
0.00664177
0.09730447
0.03493465
-0.42081493
0.05315665
-0.00085413
0.16721186
-0.11584356
0.03241567
-0.06267039
0.02446447
-0.04538253
-0.12095144
-0.09748656
-0.01484481
-0.16783363
-0.13162091
0.10701482
-0.05901268
-0.08985666
-0.18036921
0.07200313
-0.21206035
0.08416501
0.29964092
0.11322052
-0.01882893
0.01588925
0.15023333
-0.17553666
-0.21167979
-0.00940187
-0.10498582
-0.13165133
-0.25131005
0.08647847
-0.01732517
-0.05690734
-0.04951678
-0.16500485
-0.21570088
0.23484010
0.02651802
0.09193775
-0.08795020
-0.34337011
0.01677676
0.00040675
0.00125325
0.01059909
-0.32140008
0.04251001
0.04152298
0.02463224
0.06821548
0.06983388
-0.02183601
0.01016209
-0.27736562
0.01232316
0.02000544
0.08802140
0.01048716
0.07691910
0.13156894
0.09676718
-0.12528658
0.30035728
-0.02545438
0.08694112
0.43536806
-0.16645384
0.27232936
0.07366028
0.03813429
-0.14010997
0.06645009
0.09835745
-0.05600515
0.08998983
0.04923005
0.19849770
-0.08228423
0.01816149
-0.03164056
0.12383655
0.00543121
-0.00558744
0.51547807
0.02858393
0.19758019
-0.01833686
-0.01410802
-0.02399550
0.00367102
-0.03281319
0.04692597
0.00493765
-0.47172952
0.01248355
-0.02594193
-0.03241748
-0.00355066
0.02258508
-0.02624990
-0.02993602
0.04082128
0.03905730
-0.05059101
0.30476516
-0.03197524
0.04914471
-0.02828773
-0.00650904
0.00598292
-0.01407850
0.11092724
-0.03400921
0.05365392
0.00959550
0.00070703
-0.44815838
0.04254149
-0.00378637
0.04387707
0.02801413
0.02271307
-0.04259307
0.06340469
-0.09923955
0.04793520
-0.01639046
0.05166992
-0.02858192
-0.03039939
-0.02285771
0.01399657
-0.04554153
-0.03994169
0.02160671
0.00432892
-0.03616150
0.05412922
0.00500843
0.13650636
0.01828118
-0.01232980
-0.09103203
-0.00408962
0.03536953
0.08271912
-0.17609055
-0.06993432
-0.31090304
0.04071199
-0.08493291
-0.02858256
-0.00362473
0.02857403
0.21816261
-0.05649835
0.03698388
-0.04070831
0.18260457
-0.06928606
0.02107137
-0.02275807
-0.02744070
-0.01816610
-0.00117944
0.07185372
-0.52016073
0.01277591
0.08173250
0.10360611
0.01404469
0.27233651
-0.08778421
0.01208342
-0.05070630
-0.15998693
0.14610040
0.07430802
-0.58252490
-0.14125419
-0.12302399
-0.17790841
-0.09333006
-0.40864167
-0.01239888
-0.10480031
0.06424265
0.28461045
0.11262711
0.26644790
-0.48477069
-0.05116906
0.19802593
-0.28021714
0.04826710
-0.13915960
-0.06398405
0.08616379
0.01580066
0.18479224
0.11601162
0.02661247
-0.01571468
0.03546562
-0.11869521
0.10568631
0.10590652
0.04116961
0.09107144
0.06122925
0.01152549
0.02405622
-0.44268927
-0.22139975
0.01873414
-0.02195680
-0.08067688
0.08861957
0.01031865
-0.12468591
-0.22056371
0.07865400
-0.27488416
0.33487290
-0.23698375
-0.12179691
0.00621098
-0.23922879
0.00849897
0.02580602
-0.06288158
0.13662316
0.05679408
0.01964371
0.06610563
-0.02246882
-0.18050601
-0.00577615
0.04488001
0.01762833
0.01395557
0.02163051
-0.11591696
0.05174949
0.04266872
-0.03159622
0.08709422
0.02341880
-0.00558131
0.00270011
-0.00982548
-0.02471167
0.02279616
-0.04191314
0.13824444
0.31124535
-0.00916840
0.08991296
-0.17923854
-0.00499942
-0.08027592
0.04002957
0.05089576
0.21815708
-0.05797856
0.01127607
-0.01074750
-0.10511257
0.08693523
0.07682607
-0.09451434
-0.01642749
-0.08909654
0.23688009
-0.25989532
-0.03124942
-0.02149751
-0.46117884
0.02356879
0.25126302
-0.10509274
-0.24907781
0.00386905
-0.18779752
0.00284773
-0.05788716
-0.29201865
0.04673868
-0.02113783
0.07094012
0.00309007
0.13833208
-0.15270892
-0.34319422
-0.00867282
-0.23099551
-0.11991679
-0.17789067
-0.01212255
0.16532463
0.14467067
-0.19766320
-0.03466271
-0.35048604
0.20822950
-0.00173051
-0.02269255
0.01477323
-0.00591545
0.17457120
-0.04208286
0.11134010
0.19543885
0.12916517
0.01850160
0.02826895
-0.33033493
-0.04365570
0.00589972
-0.02231244
-0.00136129
0.00939885
-0.13647152
0.05730480
-0.01278016
-0.23599507
0.10427642
-0.02898270
-0.07657976
-0.09052599
0.00621380
0.08718996
-0.24951194
-0.01793536
-0.16440174
-0.08538151
-0.00162337
0.11997351
0.05148003
-0.04279086
-0.14301634
-0.03301501
0.03069481
0.00569536
-0.09542131
0.92321217
0.01412767
-0.03123323
-0.03480254
-0.01189659
-0.24582876
0.10002317
0.20933260
0.05575662
0.12436189
0.15103011
-0.00819461
-0.02570501
0.01737921
-0.03295639
0.02968671
-0.10513620
0.03442733
-0.03745147
0.01660356
-0.00412820
0.09361312
0.00106761
-0.10677414
-0.02508995
0.01959614
0.04301013
0.11680815
0.21004747
-0.00761007
-0.06883190
-0.01546624
0.11950391
0.04488495
0.00384625
0.17329614
0.19383228
-0.10251919
0.09688971
-0.26084927
0.01139782
-0.03135779
0.05541056
0.09803823
-0.16835609
0.12781626
-0.05249847
0.22381127
0.01722341
0.13685551
-0.00823288
-0.14980641
0.17552949
-0.10869420
-0.11143753
-0.00590879
0.01853339
0.07174193
0.06902573
-0.03814668
-0.29548794
0.16682282
-0.02518155
-0.15558666
0.01816810
-0.14553060
-0.10568188
0.24917020
-0.07137647
-0.14246924
0.17920546
0.08816974
0.12529153
-0.35683864
0.08290634
-0.05990972
-0.01715574
0.06399665
-0.08735275
-0.06400821
-0.03921365
-0.00091446
0.04945565
0.02201216
-0.26409811
-0.10245598
0.11887913
-0.26714095
-0.15181211
-0.18378051
-0.00664511
0.21019487
-0.36250997
0.04696598
0.18518722
-0.17417769
-0.01520031
0.12674026
-0.11088891
0.02835261
-0.00086096
0.05587540
0.04934407
0.11549520
0.02076622
0.03399396
0.12256678
-0.21059503
-0.18633997
0.00559832
-0.16288286
0.20282236
-0.08446589
0.02239847
-0.02242172
0.07647514
-0.54253173
0.06586172
0.17903924
0.19050422
0.04442444
-0.31758043
-0.00098918
0.06684528
-0.09643504
-0.27315775
0.07807536
0.20520912
-0.09316978
0.05006273
0.02141450
0.08992501
0.03545200
0.10453758
-0.15379786
0.01982210
0.03746178
0.01618381
0.05379979
-0.09275393
-0.03050422
-0.10381939
-0.01097115
0.02078598
-0.05440947
-0.04758054
-0.17295203
0.02525507
-0.02327758
0.12864257
0.17564304
-0.26480597
-0.02657742
-0.18736818
0.02388251
0.09616960
0.05127944
-0.17212299
0.36118832
-0.07888072
-0.04792697
-0.00021199
-0.07845881
-0.07434623
0.09690992
0.01375422
-0.00979064
0.10947793
0.18137272
0.31819138
-0.00255214
0.00137110
0.07681053
0.00745642
-0.23436233
-0.04094118
0.01977478
0.00798846
-0.21341479
-0.00997375
0.10876646
0.20647621
0.01084050
0.08435636
-0.17849021
0.04238621
-0.05713027
-0.04083267
-0.04759240
0.00601294
0.02162723
0.33366424
-0.08429015
0.05150243
0.22283109
-0.19743676
-0.04962363
0.01141232
-0.20853925
0.07242527
0.06477660
-0.04839753
-0.14059296
0.00564916
-0.23441684
-0.20643690
0.07900497
-0.02965850
-0.38582712
-0.02792805
0.00443891
-0.24435402
0.01879972
0.02489551
0.01113517
-0.05442622
0.01255869
-0.01464687
0.06394267
-0.56478077
-0.07277761
0.03485223
-0.05999940
0.00969377
-0.00591167
0.00439419
-0.00109816
-0.03210941
-0.09247313
-0.07398685
-0.01028941
0.02080042
0.02158226
0.01563775
0.02336191
0.03204730
0.04225300
-0.04554484
0.00113088
0.10087445
-0.00485379
-0.02076197
-0.05465849
-0.01643139
-0.01141079
0.00838780
-1.01435137
-0.04383907
0.06393107
-0.03778169
-0.02253898
-0.02932684
-0.01018372
-0.04817609
0.04424816
0.03604537
0.01519008
0.58952320
-0.03048760
-0.00769641
-0.03675214
-0.07302873
-0.05293557
0.06691483
0.05369665
0.01727309
-0.06817348
-0.03830215
0.03290288
-0.00857777
0.00471772
0.01935746
0.02863431
0.00988269
0.13214564
-0.00317989
-0.03761259
0.00339973
0.00972670
-0.01191569
-0.06419976
-0.13579033
0.00653089
0.23359598
0.07246675
0.07664872
-0.00041617
-0.00953346
-0.06438623
0.12511976
-0.07802715
0.05917957
0.13152465
0.27310637
0.14367825
0.06098983
0.01538493
-0.00271924
-0.07968222
0.01499897
0.09352205
0.23603806
-0.15582436
-0.10481241
0.10051624
0.00379090
-0.04281406
0.08240417
0.07664604
0.16273668
-0.12843002
-0.21675402
-0.15112160
0.31900057
-0.01941860
-0.20604420
0.05124489
0.02802750
-0.08436876
-0.04015351
0.06659875
0.03275521
-0.50598139
-0.15149012
-0.03809386
-0.02760327
-0.08886676
-0.28092116
0.09809230
0.00741239
0.18634139
-0.09309725
-0.03522590
0.11361945
-0.02558740
0.12237272
0.16278644
-0.05525601
-0.15803877
-0.07572838
-0.02840012
0.06286977
-0.06047157
-0.09776185
-0.00104697
0.08275794
-0.04945918
-0.04236721
-0.06292613
0.02251543
0.08021109
-0.02466390
-0.02808143
-0.23378292
-0.09140041
-0.33236647
0.15564488
0.12640789
-0.23223087
0.06680255
-0.44198495
0.16940413
-0.16869175
-0.05350918
-0.08643893
0.06401996
-0.51613170
0.01376129
0.06841683
0.17963542
-0.09254759
0.07955211
-0.02009569
0.00919687
-0.09202790
0.00894771
0.00310023
0.07659168
0.01701434
0.03857601
0.23310289
-0.03531700
0.00908182
0.03113281
0.03481540
-0.02430654
0.01930683
0.23433164
-0.01861167
0.00888621
0.09645161
0.06781270
-0.02016993
-0.09979969
-0.00116089
0.02282341
-0.00198566
-0.00116469
0.01599880
-0.17732471
0.00772528
0.03032558
0.07366323
0.02184313
0.01448927
0.04741627
0.01231480
-0.06679003
0.12456833
-0.03494614
0.01713108
0.01354296
0.05608521
0.02358415
0.09772381
0.04129660
-0.59576720
0.00610944
-0.00473761
-0.00696033
-0.08749776
-0.11544508
0.02992537
0.02606113
-0.09167953
-0.33942199
0.26121664
-0.09156355
-0.06806350
0.01713558
0.18375202
-0.23513219
0.05700192
-0.02559050
-0.27138084
0.14452110
0.24695872
-0.01684574
0.07134192
-0.06483953
-0.02666033
0.03720943
0.02511860
0.01785907
0.00090088
-0.01602909
0.01647940
0.08443294
-0.49670374
0.14901067
0.01609098
0.51672041
0.18292771
-0.00385271
0.06382914
0.03751107
0.03657410
-0.15570493
-0.02485419
-0.04536413
0.30473128
0.10724503
-0.00209633
-0.17428359
0.10101504
-0.09139652
0.09411263
0.10623323
-0.00347975
0.08976467
0.26900816
-0.32714206
-0.05121212
0.36556646
-0.08258520
-0.10561421
-0.03758169
0.09303896
0.08439058
-0.05906051
0.04232299
-0.00249898
-0.47477695
0.05883145
-0.10425329
0.08378283
0.04113134
-0.19669205
-0.14768070
-0.36213309
-0.18331827
0.16305061
-0.02841900
0.05008210
0.11945654
-0.05425929
0.19109128
0.01828166
-0.33204138
0.00830062
0.00278213
0.07845415
0.04583687
0.18819499
-0.01112868
0.10308769
0.08828311
-0.03136179
0.08028364
-0.00131173
0.03299740
-0.08405442
-0.63003296
-0.14577498
-0.26418874
0.01482248
0.08133164
-0.04353835
-0.04306598
-0.00464601
0.05850141
-0.21918404
-0.02201927
-0.02672628
-0.18769234
-0.16714750
0.04881204
-0.56979954
0.00692475
-0.15357885
0.06670509
0.01436637
