-0.00489379
-0.00524213
-0.01082568
-0.03173310
-0.00853762
0.02397357
0.01830214
-0.00683408
-0.00301944
-0.01438638
0.01652103
-0.00399294
-0.01793251
0.01841719
-0.02903591
0.01941643
-0.03119346
-0.02077704
-0.00877740
0.01088020
-0.01762540
0.03694808
-0.04083267
-0.01261703
0.03917385
-0.02973150
-0.04119458
0.02135323
0.02774865
-0.02608014
0.00652716
-0.00014850
0.01801565
0.02867141
0.00829260
-0.02942526
-0.05193598
0.02134671
0.00908882
-0.00740789
-0.01887440
-0.05578566
0.02464640
-0.03608691
0.02621210
0.03172008
-0.00678373
-0.00183180
0.01019590
0.04314793
0.00786052
-0.01239835
-0.02543714
0.00753431
0.00783540
0.02102469
0.03442701
-0.00070559
0.04668827
-0.01031636
-0.01129846
0.00713058
0.01258207
-0.01487618
0.04106181
-0.02102855
0.01725107
0.01615372
-0.02625076
-0.00740328
0.01577068
0.04076456
-0.00551457
0.02503709
-0.01007953
0.02726253
0.04279815
-0.01474598
0.01107696
-0.00461886
0.01020216
-0.00636017
0.01516304
0.02124745
0.00728098
-0.00794822
0.03427961
-0.06334253
-0.01271811
-0.00506085
0.01744577
-0.03919147
0.00474067
0.02444899
-0.05109512
0.04046800
0.00154114
0.00690019
-0.02403977
0.01144666
0.05968172
-0.00177156
-0.00966771
0.01654471
-0.05921387
-0.00191648
-0.00799686
-0.04427812
0.00913058
-0.00870381
-0.02949618
-0.00313692
0.08345824
0.00935875
-0.03377135
-0.04640261
0.03486772
-0.00711695
-0.04748159
0.00437991
-0.02476246
-0.06561179
0.01362943
-0.03069820
0.00212809
0.01544692
0.00245911
-0.00689206
0.00937638
-0.03088430
0.01046174
-0.00284396
0.00768533
-0.00371529
0.05153941
-0.03357499
0.02118356
-0.05374781
0.03381411
-0.02913675
-0.01980366
-0.03600977
0.02720451
0.02067179
-0.02984395
0.06377136
0.02322371
-0.03422794
0.01601441
0.02697026
0.00018958
-0.00779882
-0.01155482
-0.01423086
0.02997067
-0.01567087
-0.01725019
0.01180551
0.03871362
0.02377249
0.03203559
0.01155503
-0.02602283
-0.00497623
-0.01019127
-0.00666920
0.02527707
0.02663666
0.00923740
-0.03902921
0.03012301
0.02355554
-0.02692073
-0.00668219
-0.00752672
0.00789613
-0.05109853
0.01477753
0.00187244
0.00410657
-0.00727488
-0.01597877
0.02590728
-0.00280782
-0.03455389
0.00306332
0.02569226
0.00127242
0.01681051
0.04665105
0.00308000
-0.01653996
0.00670778
0.04352119
-0.01469604
0.03693983
0.03487431
-0.01579083
-0.00974456
-0.02157424
-0.01877855
-0.00315931
0.03125492
-0.00451066
-0.00027768
0.03880437
-0.03020900
-0.03535261
0.02039218
-0.05642669
-0.05759355
0.02970462
-0.01029884
0.01553506
-0.00653231
-0.00100749
0.01629866
-0.01401027
0.08606611
0.02110215
-0.09402551
0.01960483
-0.00364137
0.01520727
0.00456305
0.02119160
-0.00013958
-0.01496850
0.00923428
0.01874549
0.04134741
-0.01480363
-0.00147663
-0.00062255
-0.00615945
-0.04504490
0.04318624
-0.01726244
-0.00292158
0.02545205
0.00715142
-0.01764605
0.01296651
0.04010073
0.00092352
0.00000766
-0.00903524
-0.00836432
0.02198926
0.00010294
-0.04146397
-0.00446116
-0.01509133
-0.00745301
-0.01870026
-0.01493271
-0.00321327
0.00754378
-0.03904667
-0.00479192
-0.01278811
-0.03262820
-0.00363184
-0.00001305
-0.04986358
-0.01391151
0.00862629
0.03759770
0.00351645
-0.00169084
-0.01138576
0.00570424
0.02495311
0.00052541
0.03202436
0.01375205
-0.01381484
-0.01036876
0.01489346
0.01621439
0.00114494
-0.01334694
0.02092389
-0.05666767
-0.01051725
-0.04263886
0.01570064
-0.00247507
0.03965190
0.04189119
-0.01459132
-0.00437375
-0.01871043
0.05005039
-0.03212031
0.01113249
0.02626721
-0.01658835
0.00501807
-0.00561870
0.01548957
0.03210336
0.04952419
-0.01784282
0.00502904
0.02601626
-0.00619974
0.02843236
-0.04517047
-0.00584898
-0.02036500
0.00698002
0.01792369
0.00490977
-0.01550318
0.00824911
0.00931462
0.02649694
0.00800819
-0.00409955
-0.02509655
-0.03014965
-0.03502097
-0.03232470
0.03066508
0.01786855
-0.01521156
-0.02434059
0.00649055
-0.02131986
0.03771403
0.00547233
0.00990181
-0.00591847
-0.00076752
0.04871690
0.05063471
-0.01129599
-0.00875119
0.02531985
-0.00681876
0.01544849
-0.03501080
-0.00385616
0.01691359
0.00406100
-0.03349451
-0.01334640
-0.00576152
0.00900995
0.03082904
0.05206952
0.01727826
-0.00322495
-0.02676819
0.00518659
-0.00916506
-0.01193511
-0.00060875
0.00513187
0.03952280
-0.01227110
0.02224989
0.03758562
-0.03740661
0.00091559
0.00604719
0.01589159
0.00324065
-0.02883726
0.01911622
-0.01989778
-0.05583020
0.00844981
0.00115161
-0.01710824
-0.04359269
-0.01776960
-0.04499847
-0.02954965
0.00856307
-0.02875599
0.01693290
-0.05237087
0.04911095
0.05533752
0.03192802
0.01005310
-0.04629812
-0.01932421
0.01061787
0.05156715
0.02068015
0.01206129
0.00003004
0.02713777
-0.02171336
0.05647505
-0.00166201
0.00790709
-0.01451727
-0.01512094
-0.06117001
-0.02405613
0.01938150
-0.03106743
-0.02274983
-0.06059529
0.00801072
0.03310752
0.04210145
0.01786686
0.04642673
-0.02513378
-0.00552726
-0.01893776
-0.02641469
0.01326365
0.04162528
0.03945368
0.03857580
-0.02372372
-0.00825816
0.05758991
0.01233367
0.00591028
0.00477903
0.00294684
0.02913471
-0.01975426
0.01453532
0.02817160
-0.01541003
-0.00647028
0.02872772
0.01405917
0.00015163
0.02799490
0.03949327
0.01446357
-0.00157385
-0.03820177
-0.02812264
0.00788067
0.00946117
0.01761302
-0.03969704
0.09333751
-0.03821306
0.01353209
-0.01170528
0.09101967
-0.00756633
-0.02579590
0.04860011
0.00149726
0.01311719
-0.02962385
0.01977040
-0.00324135
-0.00555723
0.05121832
-0.03713247
0.00312227
-0.01020747
-0.01347368
0.00388874
0.00188722
0.02736807
-0.03401953
0.01282834
-0.03463566
0.00598872
-0.02741581
0.01249553
0.00063907
-0.00534660
-0.01491183
-0.00906586
-0.00998959
0.03277057
0.03258439
-0.07275872
0.02953664
0.00818131
-0.01027594
-0.01112792
-0.01786692
-0.02808254
0.00738775
-0.01876820
-0.00354358
-0.01719625
-0.03382183
0.05527695
0.03834595
0.06226387
-0.01278212
0.00974117
-0.02350376
-0.00497244
-0.05130204
-0.07297996
0.01319933
0.01832593
-0.02055667
-0.00940229
-0.00072376
-0.01455282
-0.00070591
0.03616017
0.06534088
-0.00476729
-0.02435513
0.10019994
0.00865741
-0.00497060
-0.03751092
0.01457567
0.03820507
-0.02282121
-0.02504266
0.03003847
-0.02264226
0.01654769
0.01239144
0.01456237
0.02099676
0.00184657
0.01360456
0.02246150
-0.00929271
0.01445532
0.00949172
-0.00785010
-0.00989516
-0.02858979
-0.02384431
-0.01602026
0.02243284
-0.03328946
-0.01317109
0.01460863
0.01018006
-0.00399458
-0.02355859
-0.03689007
0.01421142
-0.01790717
0.01776520
-0.03093381
0.06985183
-0.00640640
-0.00206650
-0.01564449
0.00871615
0.04047201
0.00462985
-0.05486118
0.06559756
-0.01371509
-0.03754381
0.02415937
0.00509807
0.00274625
0.00823241
-0.00250817
-0.00408819
-0.02028625
0.00456296
-0.05625603
-0.00959908
0.06010237
0.04808327
0.00290036
0.01571114
-0.02890689
-0.02436215
0.03286390
0.01029356
0.04564634
-0.03665600
0.00676184
-0.03857223
-0.01309410
-0.01478322
-0.00541191
-0.00915016
-0.01216182
0.01806549
-0.05606150
0.02334075
0.05210293
-0.01148133
-0.00272813
-0.00132787
-0.05329214
-0.00680240
-0.00449709
0.00077211
-0.04964877
0.02574092
-0.00443488
-0.02950512
0.02950803
-0.01218204
0.00123306
-0.02421879
0.02280718
-0.00705926
-0.02284005
0.02422445
-0.04399229
0.02631870
-0.04447281
-0.04142477
0.00819087
-0.01483438
-0.01478423
0.01547459
0.00078994
-0.01276382
-0.02388805
0.02814111
0.00876008
0.02171674
-0.02339332
0.02535280
0.00640034
-0.00514819
0.00208934
0.04101451
-0.01040650
0.00392878
-0.00347692
-0.01056628
-0.00642018
-0.02023017
-0.00262206
-0.00417445
0.01374176
0.02619012
-0.03493718
0.00471081
0.02529091
0.00373907
-0.02596550
-0.00043798
-0.03544286
0.05928537
-0.02175613
0.02255871
-0.01554795
0.00217423
-0.03055530
0.00676185
0.00739675
0.01266815
0.01483489
-0.02284840
0.01911579
-0.04396999
-0.03124185
-0.02072937
0.01339091
-0.00591507
-0.02683474
0.03650284
-0.03914965
0.00559703
0.03409409
-0.02826142
-0.03132134
-0.02428677
-0.04076020
0.00997625
0.12436756
0.01197015
-0.03028828
-0.01459261
-0.01540247
-0.03925519
-0.00780717
-0.07662062
0.03208985
0.00798982
-0.00755771
0.04963568
0.01156875
0.00736565
0.03533716
-0.01117317
-0.04940409
-0.01393440
-0.02526415
0.01067018
0.01721916
0.02063065
-0.01739278
0.00737775
0.03164713
-0.02947876
0.07371880
-0.01930413
0.03778706
-0.00185917
-0.02869651
-0.01614124
-0.02330972
-0.02577767
0.01588462
0.04261304
-0.00456488
0.01538745
-0.02915195
-0.00121038
-0.00929930
0.06065550
0.01575515
0.02695774
-0.03051374
-0.04668376
-0.01959746
0.00853305
-0.01731339
-0.00411567
-0.02099290
0.04084714
0.00506092
0.02853580
-0.02457439
0.01573963
-0.00849106
0.04144081
-0.01312809
-0.00074145
-0.00675931
-0.00005088
0.02053961
-0.00672862
0.00857667
-0.01538348
0.00678846
-0.01439245
0.02334181
-0.03323233
0.00691774
-0.02486085
-0.01567980
-0.00585172
-0.03218696
0.02994260
-0.01254713
-0.00172861
-0.03672924
-0.02967050
0.00393425
-0.02870399
0.01913015
0.00221245
0.02382223
0.01692690
0.00381061
0.01965643
0.00838455
0.00847450
0.00535433
-0.05507896
-0.02783912
-0.02441728
0.00872000
-0.00823375
-0.05419236
-0.00734064
0.03689516
-0.02750096
-0.01169871
0.01064090
0.03134501
0.00470000
0.01613472
0.06290782
-0.01179744
-0.01325233
0.00055140
-0.02115537
-0.05115569
-0.01549160
-0.05878242
-0.02775445
0.00227918
-0.03603429
0.01033922
0.01135150
0.04559239
0.01661209
-0.01036638
0.00787497
-0.03342143
0.04181595
-0.00855057
0.00182045
0.01530478
-0.00481028
0.00362009
0.01804160
0.05498813
-0.03585165
-0.00214839
-0.02498463
-0.03044729
0.04015141
-0.04115577
-0.00667475
-0.02474928
-0.00706380
-0.01042634
0.03158999
-0.03297065
0.02858322
0.01245006
0.00939533
0.01132463
-0.00096939
-0.01612419
-0.00522245
0.00486261
-0.01686656
0.04668981
-0.03819813
-0.02157810
-0.00890435
-0.00725675
0.02109619
-0.01885830
0.03015985
-0.02062486
0.02112740
0.01334388
-0.01074335
0.05805342
0.00323667
-0.02618798
0.04210311
0.01457226
-0.01467476
-0.01585075
-0.02663251
0.02840034
-0.01657300
0.01549898
0.01026981
-0.03042484
-0.00489870
0.01470167
0.01080657
0.02826350
0.03282189
0.02737034
-0.00486472
-0.01746142
0.07023497
0.00954103
-0.01224571
-0.01742300
0.01056433
-0.02537506
0.00033674
-0.00038476
-0.02173175
-0.00917110
0.03454300
-0.02345929
-0.00668600
-0.04680823
-0.00957287
-0.02944287
-0.03915209
0.02411424
-0.01992232
0.02193678
0.01821089
0.00646094
-0.00452293
0.06454057
-0.00932984
0.01500360
-0.00201344
-0.01160839
0.01732359
-0.05186055
-0.00512040
-0.02600214
0.00347107
0.00528750
0.03900178
0.01052256
0.00333830
-0.01205336
0.01970599
-0.05338995
0.01499055
-0.02014372
-0.02617650
-0.00638988
0.00382339
-0.03150447
-0.04033839
0.04519084
-0.02484523
-0.02088432
0.03675215
-0.02498475
-0.00198342
-0.03703390
-0.00385642
0.02592828
-0.01606186
0.03834818
-0.01771375
0.00384190
-0.02928312
-0.01660450
-0.04387901
-0.03117230
0.04706766
-0.02376932
-0.03897917
-0.03112849
-0.04616789
0.00681417
-0.00058614
-0.00889715
-0.02718348
-0.01517665
0.02919432
-0.02418485
0.03271176
-0.01359071
-0.01009826
0.02827919
-0.03732709
0.03307732
-0.00319602
-0.02009081
-0.00273706
0.04569609
0.00462298
0.03324649
-0.03490052
-0.04223068
-0.04021153
-0.05231044
0.00859751
-0.04066025
-0.01622486
0.02053412
0.01488960
-0.04596733
0.01088838
0.03096614
-0.00813979
0.00402926
-0.02585718
0.01012645
0.00183836
0.01859052
-0.00305763
0.05241365
-0.04145343
-0.00245491
-0.00598025
-0.04946580
-0.02543044
-0.00714239
-0.05432134
-0.00109593
-0.03569131
-0.02820276
0.00313238
0.08697093
0.05384636
-0.00725770
0.01627674
0.02363704
0.02354519
0.01578639
-0.02430774
-0.01741416
-0.02187137
-0.02633866
0.02940973
-0.00227264
-0.01393428
-0.02968567
-0.01048345
0.00522026
0.00558694
0.16856827
-0.02797342
-0.01704947
-0.00381058
0.12834297
-0.03903718
-0.03582288
0.00109694
0.03645560
-0.02040385
0.01836692
0.02169523
0.00799152
0.01930727
0.00115609
-0.08681007
-0.00574931
0.05203331
-0.00106237
0.03622908
0.00227839
-0.01837912
0.01343527
-0.02719863
0.02031401
-0.01438728
-0.02501659
-0.01553028
0.03391865
-0.03211499
-0.05575706
0.00494895
0.00348176
0.00031733
0.00229541
0.00973460
0.01280894
-0.03713112
-0.00242793
-0.00378241
0.00768080
0.02614356
-0.06586421
-0.01805821
0.01013535
-0.03383519
0.01111418
-0.01651654
-0.03131623
0.00564335
0.00022127
0.01271705
-0.00837876
-0.04937953
0.01838237
-0.01051755
-0.15119074
0.01999269
0.01328148
0.01783346
0.03283879
-0.01269002
-0.06911577
0.00182367
0.22514123
0.01892166
-0.02102092
-0.13863882
0.17291196
-0.02950826
0.02884657
0.03059065
-0.00625093
0.01884472
0.01267318
-0.01928832
-0.07092378
-0.01286486
-0.00351336
0.00566545
-0.02095764
-0.24907006
-0.04055801
0.01665781
-0.00961049
-0.03254946
-0.16060819
-0.00491834
0.00374371
0.02503916
0.01889436
0.05759139
-0.05252678
-0.00781257
-0.01956432
0.00185402
-0.01515205
-0.04082892
-0.08884053
-0.01313299
0.03178005
-0.03164090
-0.01338348
-0.01664690
-0.00450665
-0.04695170
-0.04111103
0.02593870
0.00144700
-0.00013708
-0.02911972
0.00692572
0.00623416
0.01826640
-0.00674035
0.04584896
-0.01666182
-0.02244530
-0.00718488
-0.01024602
-0.00279819
0.00036676
-0.01429211
-0.00261817
0.03589483
-0.01240437
-0.00082485
-0.00336457
-0.01291353
-0.00272525
0.00402089
0.01249956
0.03465041
0.01727644
-0.02228737
-0.02451289
0.00447878
-0.00144211
0.04197867
0.02949466
0.02785287
0.04452600
0.00177914
0.00941604
0.03440910
-0.01098094
-0.01822688
0.00653019
-0.00074677
0.04083204
0.01797927
-0.02442284
0.00086437
-0.00378460
0.00803137
-0.02427227
-0.01088514
-0.01528366
0.01929452
-0.02055683
-0.01214547
-0.05164205
-0.04612971
-0.03646323
0.02885668
0.02796937
0.02863713
0.00410727
0.02230859
-0.01417040
0.02986374
-0.03353667
0.00734511
-0.00862087
0.01397774
-0.00403221
0.00846832
0.04470786
-0.04333534
0.07488552
0.03930274
-0.00662980
-0.00726366
0.06464059
-0.03277009
-0.04179695
-0.01852136
-0.00593346
0.00756114
0.02880446
-0.02418973
-0.02482036
0.04236666
-0.01199474
-0.05031492
0.01922354
-0.01581555
0.00894438
-0.02751701
-0.02242691
-0.00700686
0.02819304
0.02523001
-0.02039434
-0.02437637
0.00485288
0.00059842
0.02644346
-0.02306204
0.03647091
0.01177442
0.02290348
-0.01076400
-0.04676294
-0.02110910
-0.02396521
0.00227751
0.06843208
0.02001262
0.00746073
-0.00577113
-0.02747669
-0.04198464
-0.00228995
-0.00191728
-0.07594395
0.00023645
0.00033831
-0.05217182
-0.00815888
-0.02454547
0.01510957
0.00757406
-0.00659968
-0.05693876
0.00169222
0.00054271
-0.00410488
0.02173176
0.02269148
0.02638767
-0.04579758
0.04304157
-0.01368394
0.01244604
-0.03999539
0.02729272
-0.08529542
0.03346776
0.05019098
0.01245273
-0.03441312
-0.04221725
0.01041075
0.07171112
0.00053773
-0.01934557
0.01009646
0.04635583
-0.01378084
0.01942196
0.00436447
0.02186770
-0.03891466
0.04962430
-0.03588712
-0.00816350
-0.00175135
-0.00510382
-0.01104683
0.00659443
-0.02677114
-0.02213099
0.00647462
-0.01509462
0.01449776
-0.00583218
-0.02310629
-0.02394580
-0.02277477
-0.00463180
-0.06505194
-0.02384068
0.02323616
-0.00336235
-0.00784037
0.01031951
0.00519537
-0.02784291
-0.00360625
0.00251071
0.00491230
-0.01771321
-0.03511705
0.02560717
-0.00221073
-0.00723379
0.06440741
-0.02004533
-0.00624147
-0.02043433
0.00672114
0.05105726
-0.03693213
-0.01686265
0.02036454
-0.00341461
-0.02996591
0.00150530
-0.01737988
-0.02675989
-0.00553557
0.00935056
0.02236362
-0.02329497
0.01661473
-0.00518218
-0.04126146
-0.02362019
0.01343333
-0.14687474
-0.00763491
-0.01306780
0.02338726
-0.02490321
-0.03045788
0.01180936
0.05014584
0.00657934
-0.01948228
-0.01221395
-0.00175662
-0.00179180
-0.06900300
-0.01056982
-0.05875997
0.00888590
-0.10104641
-0.00540245
0.01000340
-0.04209182
0.00739119
0.01141797
-0.00854980
-0.02185374
0.00051985
-0.01209093
-0.00922685
-0.07401744
-0.08702612
0.14557685
-0.02905669
0.00635818
0.00504392
0.02006535
0.01379842
0.00284111
-0.00722778
-0.00300556
-0.00665856
0.00031053
-0.02554956
0.06341536
0.01955717
-0.03034562
0.02204609
-0.02298464
-0.00680340
-0.00776689
-0.01584119
-0.00630867
-0.07272409
0.01399696
0.00308711
0.01699116
0.02249518
-0.09675030
-0.00697580
-0.00277370
-0.01196477
0.03297242
-0.03416523
-0.03195912
-0.02410777
-0.06814963
0.02987079
-0.02831624
0.07173526
-0.29282674
-0.00855891
-0.00455720
0.05132394
-0.01376843
-0.00462154
0.01483805
0.01699234
0.21684699
-0.01201953
-0.01150841
0.01966660
-0.00216442
0.31593654
-0.02033761
0.01340785
-0.02412911
-0.01207917
-0.07429007
-0.01856290
-0.02194529
-0.01044373
0.02229697
-0.20646715
0.01927004
-0.01347087
0.00583968
-0.03901222
-0.02974276
0.06085200
-0.14069113
0.03616052
-0.00068883
0.01988876
-0.03683033
-0.00758026
0.00273875
0.00586833
0.04100170
0.03780605
-0.01711752
0.04258130
-0.00189392
-0.02564639
0.00993672
0.00634652
0.01010713
-0.01192196
-0.01038522
-0.03268519
-0.00301857
-0.01076233
-0.01564763
-0.00780582
-0.00697434
-0.01662431
-0.00378576
-0.05849759
-0.02756299
-0.02458025
0.02448190
-0.01545408
0.00022000
-0.00008727
0.00356128
-0.01098527
-0.01889833
0.00755094
-0.03583487
-0.01304768
-0.03552860
0.01050833
0.02436277
0.03432605
-0.01961181
-0.01703275
-0.00753660
-0.01416365
0.03390769
-0.00406617
-0.01440481
-0.07730161
0.01519136
0.01236623
-0.03155462
0.02072942
0.02528387
0.02379898
0.02589985
0.00437196
-0.04561557
-0.01472388
-0.02155229
-0.01811851
0.00887393
0.00323476
0.00349103
0.09256796
-0.03619014
0.05309863
0.00064232
0.00183816
0.04471784
0.03669807
0.01841812
-0.00404513
-0.04136165
-0.02446435
0.01924755
0.00107505
0.00003950
-0.03840156
-0.00028878
-0.02945539
0.04093794
0.03503700
-0.00615332
-0.01789810
-0.01984711
0.01239251
-0.00952679
-0.00143347
-0.01070084
0.03083604
0.00643991
-0.00153808
-0.01307791
0.01276815
-0.02113927
-0.01307202
0.04235593
0.01385067
0.05798005
-0.03794385
0.03342616
0.00986177
-0.00475242
-0.05518636
-0.05575810
-0.00664478
0.01327969
-0.02302262
-0.02932217
-0.01218540
0.01259063
-0.02604599
0.00677284
-0.03065096
-0.01135294
0.03407879
0.05608762
-0.01572967
-0.00818901
-0.03004461
-0.01385245
-0.00740087
-0.01153250
-0.02832786
-0.04648469
-0.02885096
0.04263734
0.03223179
-0.01421546
0.00538941
-0.01461087
-0.01491717
0.00583258
-0.02391513
-0.04839866
-0.03172792
0.03677386
0.01386768
0.00692397
0.01338156
0.00678942
0.04030177
-0.04943953
0.00189387
-0.00567074
-0.01602807
-0.02662031
-0.00638360
-0.04352957
-0.03040783
0.03390781
-0.01385793
-0.03301752
0.00462786
0.02171496
-0.02679743
-0.00373093
-0.08147064
0.01732208
-0.00025403
-0.02464316
0.01983409
0.01599288
0.01138475
-0.00418410
-0.03362899
-0.07148010
0.02773481
0.03907072
-0.05044355
-0.01056369
-0.01299329
0.00185712
-0.01426430
-0.01055020
0.00369944
-0.01309083
-0.01611852
0.02089859
-0.04534202
0.00621144
0.00109212
0.02846419
-0.01806745
0.04694393
0.05105319
-0.02048835
-0.00511298
-0.02929360
0.03018421
0.05669013
-0.00451488
0.02059328
0.01690547
-0.03014334
-0.00037070
0.00116934
-0.03075128
-0.00725317
0.02467849
-0.02690194
0.02030338
0.02272630
0.01561921
-0.01425147
-0.03424130
0.00027441
0.01381036
-0.01195362
-0.04401018
0.00388712
-0.02294061
0.01361111
0.02899148
-0.02360128
-0.00017801
0.02310858
-0.01606499
0.02515938
0.00625027
0.01188570
-0.06165897
-0.01305123
-0.01215803
0.01282880
-0.02788187
-0.00050338
-0.04509795
0.04018183
0.03816216
-0.01822637
-0.04247579
0.02488121
-0.01577008
0.02043881
0.00090122
0.02410986
0.03446978
-0.04825981
0.00733943
0.01608172
-0.01386359
-0.04534519
-0.02516773
0.00953015
-0.01204550
-0.04947135
-0.00653821
-0.00095878
-0.02434829
0.03807001
0.02036206
0.02398776
0.02471792
-0.00153677
0.00399024
-0.01862788
-0.00996076
0.01260435
0.01259243
-0.03208773
-0.00143574
0.02041764
0.00340211
0.02541883
-0.02894724
-0.01187101
-0.03891807
0.01042083
-0.02048043
0.00986137
-0.00732273
0.02153276
0.00955314
0.00531239
-0.03433995
0.00206646
-0.02915056
-0.02705974
-0.06440813
-0.02446806
-0.01183714
-0.00299291
-0.01882879
-0.01369893
-0.00254895
-0.02182748
-0.04145448
0.02442870
0.02914516
-0.00284333
-0.02414775
0.00267517
-0.01646932
-0.00191644
-0.03654625
0.05396111
0.01324156
0.00344046
-0.00138929
0.01662237
-0.01518930
0.06919563
-0.03206421
0.03105896
0.01956630
0.00200725
0.00560843
-0.00551416
-0.00841595
-0.04158043
-0.00413559
0.01050195
0.02430524
-0.03098079
-0.01202541
-0.01133069
0.00493613
-0.00912423
-0.01229405
0.01411675
-0.04617138
0.02888806
-0.00754334
0.00260254
0.00155463
-0.02701917
0.01090162
0.01134758
-0.02812886
0.01154914
0.01330988
0.04877711
-0.03367767
0.00906780
-0.00059696
-0.02529485
-0.04987719
-0.00535811
-0.01444444
-0.02200301
-0.00544779
-0.01011779
0.03916153
-0.00643600
0.01913264
0.03724654
0.02492786
0.08376067
-0.02409531
0.00741697
0.03175999
-0.00319884
0.01493537
-0.01290732
0.04921150
0.01195875
0.00700404
-0.02266700
-0.01068758
-0.02830815
-0.03877881
0.00133884
0.00471472
-0.01441324
-0.03459580
-0.00562265
0.04816011
-0.00520626
0.02812253
0.03012834
-0.00051788
-0.00515307
0.00288822
0.01680501
-0.06845019
-0.03053002
-0.01289265
-0.05420081
-0.00212060
0.00165629
0.05579539
0.01920262
0.01996270
-0.02340489
-0.02364639
-0.01305660
-0.00708025
0.06763918
0.05606324
-0.00838309
-0.06612944
0.02193160
-0.10318021
-0.00846928
-0.01105247
0.01573533
0.00751926
0.00826408
-0.02985654
-0.01489341
0.01297190
-0.01427756
-0.00809078
-0.03861370
0.02580994
-0.01959597
-0.00741782
0.01197580
0.00160347
-0.00226539
0.03664744
0.01470593
0.01926114
0.00152439
-0.03080509
-0.01914489
-0.00264755
-0.02235627
-0.00298425
0.04748491
0.00683412
0.03732878
0.02943325
0.01075804
-0.01289952
-0.01434959
-0.00497490
0.01404534
-0.03791313
0.01168439
0.02702207
-0.01436856
0.02433317
-0.01938560
-0.00379256
0.00553820
0.01753999
0.03422038
0.00626917
0.04309934
0.00948140
0.01758908
0.04311502
-0.00952623
-0.04132604
-0.12441811
0.04445010
0.00231188
-0.04608145
-0.01136059
-0.02708698
0.00635069
-0.00541259
0.03730600
0.06863574
0.02001376
-0.00083709
-0.00387500
0.13401492
0.01524499
-0.03072756
-0.01528381
-0.01592820
-0.05617559
0.03183628
-0.03430852
-0.01135710
-0.00801744
-0.13075492
-0.03199067
-0.12162009
-0.01048423
-0.03054396
-0.01996850
0.01965162
-0.15748370
-0.01200229
-0.01513179
0.00496407
0.00256100
0.00139662
-0.00535962
-0.02898269
-0.00945042
0.03701956
0.01536098
0.00947764
-0.04327954
0.04385434
0.02268185
0.00517981
-0.04665074
-0.05263105
0.00616161
-0.03190756
-0.01455402
-0.01557945
0.01204477
-0.01723625
-0.00912415
0.02497553
0.00518670
0.03100993
0.03347686
0.00516182
-0.02166001
0.01254418
-0.00201326
-0.02742805
-0.04116992
-0.02527441
-0.06915966
-0.00775788
0.01331959
0.00907444
0.01956234
0.04109342
-0.01786019
0.00017942
0.02173231
0.04324690
-0.03878792
0.03027366
-0.01573083
-0.00391292
0.00343547
0.08599446
-0.00299500
0.00420009
0.01301563
0.00289662
0.00351748
0.02335178
-0.00323288
0.05926821
-0.04263017
-0.00437232
-0.01236020
0.00001090
-0.01379732
-0.04446937
-0.02537609
-0.03190114
-0.00998923
0.01773600
0.01796746
-0.01372345
-0.01262655
-0.02657673
-0.00053900
-0.01096265
0.04671868
-0.01718055
-0.02645832
0.00573555
0.01015195
-0.02594099
-0.00792964
0.01482914
0.00970827
-0.01841633
0.00919440
0.11501615
0.02461886
0.00394461
0.01586705
0.01780098
0.01518458
-0.04777694
-0.01165912
-0.01114570
-0.03184467
-0.01954030
-0.01991523
0.00095077
-0.02935932
-0.00497295
0.03300657
0.03917221
-0.01988392
-0.01138866
0.04673133
-0.01812042
0.01874754
0.03148667
0.01988847
0.04689918
0.00470676
0.01211519
0.02096952
-0.04896643
-0.01657687
0.00647073
0.01026130
0.01691239
0.00159236
-0.00276108
-0.01803115
-0.01981966
-0.01129166
-0.02121122
-0.00165330
-0.00768444
-0.04657173
-0.04836689
0.00387376
-0.04278948
-0.02005073
-0.00689622
0.02003563
-0.00873283
-0.00339327
-0.02068317
0.02231491
-0.02562130
0.08157904
0.07993050
0.00422260
0.01072156
0.03076329
0.02202892
-0.01683356
0.01345901
0.02508989
0.02848576
-0.02534626
-0.02875593
0.04424532
0.03880033
-0.02790008
0.01792604
-0.02111839
0.04004319
0.01981891
0.02132433
-0.01501319
-0.07239386
-0.02807661
0.01620196
-0.01917988
0.05135884
0.03509331
-0.01146437
-0.03570624
0.01188659
-0.04962523
-0.01540064
-0.03594904
0.01680002
0.00868210
0.02025634
0.00750684
0.07268927
-0.04445995
-0.01337704
0.01631157
-0.01299404
0.01221949
0.00517020
-0.00742617
0.01728119
0.00493247
0.02598709
0.03142791
0.00640314
0.02977890
-0.00623014
0.00695297
-0.01737874
-0.03400483
0.02626145
-0.03453822
0.02507424
0.05523526
-0.02637907
-0.01820453
-0.01751331
-0.00555425
0.01240038
0.01863685
0.00511973
0.04206448
-0.01019704
-0.00015443
0.00440385
0.02665464
-0.02910118
-0.00333872
0.03046208
0.02535415
0.01515832
0.00719423
-0.00378603
-0.00540670
0.02955341
0.03025355
0.01300973
-0.02605365
0.03598901
-0.03688329
0.03192836
0.01393727
0.01005742
-0.02027493
0.01405145
0.03747081
0.02284126
-0.01888917
0.00487362
-0.00730022
-0.00948859
-0.01717046
0.03242839
0.00719731
0.01265111
0.03216894
0.02596768
0.01398414
-0.03306176
-0.00024316
0.00507555
-0.02510859
-0.05568899
-0.05127459
-0.01067597
-0.03626554
0.03368210
0.00773509
-0.00943128
0.02697166
0.00921777
-0.02781299
0.01960358
-0.02283401
-0.02047955
0.03392139
-0.00817677
0.06086159
0.03019156
-0.06874301
0.01067965
-0.02133486
-0.00184660
0.02184481
-0.02785581
0.00581029
-0.00450966
0.01731020
-0.00442513
0.00870996
0.01803521
-0.00780915
0.00289887
0.01914872
-0.09168757
-0.01452593
-0.01797795
-0.00469620
-0.04531201
-0.02729038
0.00682813
-0.03396411
-0.03381936
0.00102335
0.01812799
-0.00039440
0.02860969
0.02277254
0.00359511
0.06152624
-0.01191172
0.00080391
0.01117816
0.03746790
0.03104165
-0.07107612
0.00209247
-0.02110090
-0.01056133
-0.00104866
0.02029321
-0.03296397
-0.00521670
-0.03527598
0.03986567
-0.06101513
0.02429106
0.00509136
0.03103490
-0.02726137
0.00567752
0.03933682
-0.05351441
-0.00069673
-0.01859825
0.00325347
0.04308625
-0.01194583
-0.01766375
-0.01994796
-0.03671122
0.00325370
-0.01826787
-0.01179708
-0.02041769
-0.05701436
-0.01397584
-0.04572197
-0.00932642
0.00876507
0.05456695
0.01017129
0.00536795
-0.02261685
-0.01243669
0.00393675
-0.05785523
-0.02372882
-0.00094475
-0.04187642
-0.02652398
-0.01120777
-0.01085960
0.01050925
0.01215838
-0.00624438
0.00824884
-0.01477464
0.00721750
0.01016444
0.06523945
-0.02168595
0.03950935
0.06382541
0.01368558
0.02672007
-0.01036294
0.03963060
-0.03265351
0.03483635
-0.01134281
-0.00807010
0.00798530
0.00884991
-0.00832655
0.03839016
0.06678247
-0.03102058
-0.00626077
0.02255795
-0.01092179
0.05050675
0.02438425
-0.02101183
-0.03346496
-0.02380320
0.03816917
0.00192922
-0.01053688
0.03452257
-0.02277368
-0.02087836
-0.08456703
0.01628281
0.01907087
0.01554073
-0.00160529
0.02214480
-0.00219779
0.01211697
0.00372075
0.00372023
0.00550260
0.01998851
-0.02808118
-0.04028669
0.01231036
0.01460132
0.01375715
0.03667999
-0.01656962
-0.01060656
-0.03217519
-0.03694852
0.00448456
0.00287215
0.01149500
0.00767767
-0.02565522
0.01678236
-0.02159478
-0.00151882
-0.01495657
-0.00820547
-0.00829489
0.00313293
-0.01301308
0.02700273
0.03843040
-0.00754855
-0.02546079
-0.01812247
-0.04719682
0.03104022
-0.00478981
-0.08284076
0.01565478
0.00034483
0.00307311
-0.02515990
-0.03944279
-0.01318829
-0.01722228
0.03658702
0.01956148
0.01275740
-0.01784818
-0.01969928
0.01155757
0.02267918
-0.03439187
0.00132252
-0.05229710
0.00129188
-0.00334765
0.03303312
0.00079543
-0.01459899
-0.00086502
0.06030530
-0.01242947
0.00558545
0.01197806
-0.03093609
0.01610696
-0.02387618
-0.01062133
-0.04495890
0.01274488
-0.03853308
0.02017444
-0.03520944
0.00312371
-0.00951197
-0.00411583
-0.01280483
-0.03181684
0.01667073
-0.01589787
-0.00856531
-0.00461501
0.00383954
-0.00399249
-0.03046052
0.02401881
-0.04921642
-0.04862883
0.00648695
0.00276788
-0.01743758
0.03417579
0.03299030
-0.01035277
0.01293774
-0.05345942
-0.01843841
-0.00506751
0.02261877
-0.01211462
-0.00406249
-0.01479042
0.00944907
-0.00575102
-0.01516693
-0.01941041
0.00777922
0.00020049
-0.02975833
-0.00235803
0.00347671
-0.01074678
-0.04018197
0.05741930
-0.02925976
0.01215746
-0.00965063
0.00262671
-0.02376812
-0.01671301
-0.02452447
0.02392323
-0.03153825
0.02667829
0.01228112
-0.00132023
-0.03136398
0.06297114
0.03042356
-0.00135845
-0.01882709
0.01562286
0.01760777
-0.01328579
-0.03824168
-0.01222046
-0.03868441
0.03758628
-0.00964479
-0.06364729
0.02868708
0.00030948
-0.01956040
0.02477410
0.01521846
-0.00620988
0.00001799
-0.00422555
-0.01468523
-0.02155443
0.01575400
-0.00190849
0.00612710
-0.00962690
-0.02538807
-0.02998849
0.03534542
0.01734694
0.01838368
0.00865915
0.00274210
0.01867984
-0.00538806
-0.01906211
-0.00762386
0.02336029
-0.04403492
-0.01196867
0.04125879
-0.02257519
-0.01181917
-0.01276697
0.00061291
0.01557483
-0.04077210
0.00154083
-0.00309140
0.01419303
-0.02690180
0.01286034
-0.00246807
-0.02406214
-0.01451222
-0.00465248
-0.02859816
-0.03947725
0.00585643
-0.00952242
-0.02128148
0.01648736
-0.03305057
-0.00395225
-0.02341014
0.02011591
-0.00285011
0.01940135
0.00284712
0.00160739
0.02100938
-0.02318009
-0.00892862
-0.03796206
0.03265293
-0.01717689
-0.01561681
0.00257582
0.00585245
-0.00360286
-0.02164688
0.03485182
0.00217666
0.03027891
0.03127807
0.01528571
-0.01465105
0.00361002
-0.00260082
0.00707203
0.02412917
-0.02697357
0.02044137
0.02188248
-0.04270282
-0.02239034
0.02813038
0.03739432
0.04675400
-0.03505427
0.03003103
0.01073775
-0.03056039
0.00744289
0.02195388
-0.00625245
-0.00992156
-0.05593785
0.01296073
-0.02425895
-0.00790055
0.01740902
-0.04851096
0.00595225
0.03433065
0.01358062
-0.00057173
0.02710107
0.00722149
-0.07496727
-0.02197201
0.00841222
0.05041334
-0.07263274
0.03450181
-0.03860497
-0.07831229
-0.01203709
0.02651185
0.01862227
0.00213634
0.03716535
0.01045659
0.00608101
-0.01299373
0.01872951
-0.01267438
-0.00530347
0.02326686
0.03890891
0.00017305
0.01877950
-0.00307280
0.02568126
-0.01996034
-0.01604413
-0.00581791
0.01343570
-0.00814184
-0.00347550
-0.01969120
-0.04232614
0.05046018
-0.03033006
-0.01221566
-0.01271399
-0.01479810
-0.00413376
0.00035737
-0.02912357
-0.01337298
-0.00787751
0.00162031
-0.02013112
-0.00081169
0.00575833
-0.01768287
-0.01481670
-0.01922032
-0.04363646
-0.01325210
-0.02804987
-0.00674926
-0.02310704
0.01067529
0.02979157
-0.01878544
0.00144274
-0.00985410
-0.00278462
-0.01801950
-0.00540969
-0.03280200
-0.04881384
0.02000368
-0.00495514
-0.02926268
-0.00250585
0.01977608
-0.02705196
0.01442618
0.02139853
-0.02888580
-0.01404651
0.00987434
-0.01480932
-0.01484169
-0.01835340
0.02751149
0.00221764
0.01696798
0.03208962
0.00864383
-0.02251461
-0.04532338
0.02321142
0.01842094
0.01878041
0.01707520
-0.03678875
-0.01411088
-0.01557573
0.03226908
0.03013088
-0.01067839
0.03521462
0.02911415
-0.01537505
0.10239895
0.01326191
-0.00962848
-0.00691335
-0.01280748
-0.02326115
0.01201223
0.00577501
-0.01388061
0.01597104
-0.00004092
0.00802358
-0.00633368
0.01210617
0.01435699
-0.00344780
-0.02825953
0.04045105
0.02606655
0.00189607
-0.05295134
0.03510578
0.01766826
0.00177255
0.01135562
0.03442784
-0.00603710
-0.01307828
0.00865041
-0.02492938
-0.00844661
0.02550793
-0.03187894
-0.00901975
0.01131997
-0.00640000
-0.01194154
0.01680707
0.01787487
0.03564599
-0.07090283
0.00511431
-0.03338502
-0.00760974
0.02383587
0.01925955
-0.04012645
-0.03075223
-0.02167834
-0.04933998
-0.00736580
-0.03254693
0.01682705
-0.01863211
-0.02440777
0.00778274
-0.01178987
-0.02883059
0.00229937
-0.03159090
-0.00144313
-0.00730174
-0.04063534
0.01630442
0.02226254
-0.02974499
0.00382173
-0.01399603
0.00381277
0.03170444
0.02041684
-0.03350312
0.03965519
-0.01549432
0.02133641
0.03137189
0.01552964
-0.03731495
-0.03631921
-0.02998233
0.01324833
0.02482277
0.00728365
-0.03798867
0.01819277
0.01442149
0.00970682
-0.05599105
-0.02310811
0.02731903
0.01209945
-0.01196941
0.01786302
-0.00035146
-0.00574936
0.02743263
-0.01506078
-0.03110472
0.02618478
0.00555648
-0.04599912
-0.00249377
-0.04534951
-0.01949207
-0.01223843
-0.02627882
0.02450420
0.00565134
-0.02516356
0.03704002
-0.00694519
-0.01090234
-0.04296048
0.04719425
0.03393594
-0.00232056
-0.03497922
0.04725923
0.02240062
0.01124195
0.00098963
0.00541408
0.03113222
0.06793977
-0.00504201
0.02803504
-0.00200221
0.00724156
0.00532386
-0.01816015
0.02024168
0.01027146
0.00548499
0.02590121
-0.02631481
0.00520305
-0.02907129
0.03772704
-0.02868410
0.01066622
0.02100744
-0.00362927
-0.06302528
-0.01681112
0.02293716
-0.01686957
-0.02397963
0.02293110
-0.02243476
0.03009307
0.00415645
0.02370384
-0.00402900
0.00239181
0.01777947
0.01099856
0.01372985
0.01304612
0.01632054
0.04431342
-0.03942782
0.00625201
-0.02342084
-0.04368659
-0.00536223
-0.01497972
-0.01495969
0.02485783
0.02289240
0.00068465
0.05894138
0.07132925
0.01193427
-0.00090333
-0.00522274
0.07441527
-0.03891768
-0.02908363
-0.02329372
-0.00105581
0.02349382
0.00078569
0.00498735
-0.05525750
0.02884353
0.01205892
0.01563194
-0.04383275
0.00732044
0.01442033
0.01060239
-0.02612650
0.02112487
0.01197442
0.00222914
0.00778243
-0.01748272
-0.01162287
0.00300712
-0.02261090
-0.08382080
-0.03847203
-0.00758428
0.00484450
0.01604484
0.05017932
0.03560826
-0.01418735
0.00649162
0.03191693
0.00064330
-0.00408602
-0.02285324
-0.00939558
0.01370000
0.02371665
0.06272471
0.02620920
0.00439215
-0.02143909
-0.02193788
-0.03376765
0.02011765
-0.02548504
-0.01008497
-0.03012462
0.01793840
-0.02346351
-0.01619295
-0.01215719
-0.03041720
-0.04188912
-0.00585963
-0.04077151
-0.00670310
0.01143283
-0.00444118
0.01195193
0.03704892
0.02958233
-0.00202354
-0.01966979
-0.00122163
-0.03607609
-0.00976516
-0.02097027
-0.01528238
0.00156868
0.04074587
0.02807015
0.00701860
0.00632908
0.00033906
-0.01772514
-0.02425501
0.03155569
0.01525712
-0.04414488
0.00837476
-0.02359217
-0.19051529
-0.02221354
-0.00947587
-0.01027032
0.01749366
0.00658234
-0.01934145
0.04551096
0.04782894
0.01761995
0.01296012
0.01590595
0.01250407
0.03126731
0.01179851
0.03858005
0.02017743
-0.04074698
0.06604340
0.02474717
-0.03636829
-0.05465425
0.00551018
0.05285966
0.01401479
0.00617870
-0.00762563
0.03338306
0.02779016
0.00801820
-0.14020301
0.05449581
-0.00836033
-0.00031720
-0.04804692
0.02046606
-0.01075827
-0.00615625
0.00871868
0.00079003
0.06015368
-0.00774005
-0.05744374
-0.01786099
0.00431436
0.01225089
-0.03684835
-0.00266436
0.00138944
-0.02861765
0.01629881
-0.01565021
-0.00420549
-0.01385361
-0.03152719
-0.03577211
0.01391556
-0.03085078
0.10398855
-0.05915510
-0.04327436
-0.09065127
-0.01195297
0.00017228
0.01936816
-0.03843304
0.07292036
-0.01321793
-0.04645075
-0.03324924
0.00361693
-0.08630099
0.02238014
0.02538307
0.08297951
-0.05508487
0.03952058
0.06977072
0.02407784
-0.02909689
0.02588098
-0.02674652
0.08585992
0.03498146
0.05157616
-0.02067173
0.04299296
-0.00917021
0.07173732
0.00880516
0.03303707
0.01026303
-0.00965111
-0.00041574
-0.01179610
-0.02470802
0.07108941
-0.01098126
0.00280146
0.01113809
0.00581488
0.01502859
0.03979818
0.04464690
0.05220330
0.04266328
-0.01428766
-0.05399190
0.03358289
-0.01190794
-0.02776145
0.00746862
0.02837330
0.00852686
-0.03592679
0.03072356
-0.10295607
-0.01423472
-0.07190450
0.01576243
-0.02765218
-0.01337150
-0.03550053
-0.01190688
0.01067935
-0.01830743
0.02777107
-0.02099360
-0.01844906
-0.02801841
0.06101070
0.06732452
0.01420103
-0.02763360
-0.02212297
-0.03116097
-0.01769035
-0.02208911
0.08427875
-0.01909551
0.03077702
0.00274215
-0.00020444
-0.00775739
-0.04753129
-0.03899851
-0.06081596
0.03901295
0.03836290
0.06261867
0.00159301
0.01386146
-0.00720873
-0.00022323
0.03691722
0.07233666
-0.01274281
-0.06951854
-0.05847395
0.01586191
-0.02713171
-0.00842764
-0.01620997
0.01296727
0.03767883
-0.01661536
0.04951423
0.01820141
-0.08251503
0.00443582
-0.02782563
0.01944807
-0.01307141
-0.03728225
-0.01302653
0.07029802
0.00481304
0.01540032
-0.00825529
-0.02543095
-0.03354993
0.04706907
-0.02921775
0.05972888
-0.01863307
-0.00275898
-0.00796458
-0.03714915
-0.00529741
-0.00328029
-0.04769149
-0.01043055
0.03450778
0.00935359
-0.01988264
-0.00975921
0.02523436
-0.01871934
0.00425134
-0.01779953
-0.06289592
-0.01401401
-0.00757635
0.00184454
0.05800322
0.00951615
-0.01975853
-0.02222689
-0.01570250
-0.02265225
-0.01460310
0.00000724
0.01573604
-0.01056303
-0.04834040
0.01483805
0.01597567
0.01266351
0.05258258
-0.00713669
-0.00601155
-0.03582361
0.04078431
0.00313361
0.00747412
-0.01892477
-0.03189056
-0.02263428
-0.00845126
0.01469985
0.01573551
-0.05469863
0.03333116
0.00213636
0.02053547
0.01179858
-0.03864377
0.00439448
0.04011872
0.00480174
-0.02563173
0.00906092
-0.06323487
0.00552899
-0.02000189
0.01127028
0.00064320
-0.04220659
0.01510012
-0.04999632
0.01035124
0.00195541
-0.02980529
0.01851501
-0.04016738
0.01151373
-0.03725120
0.00253928
-0.01759490
0.07443772
-0.00921884
-0.04086260
-0.03609306
-0.00052462
0.00629849
-0.00946192
-0.01520725
0.03129228
0.01949555
-0.04774884
0.04127559
0.03129795
-0.00796388
-0.01235711
0.02647920
-0.00455197
-0.00983081
0.03335636
0.00057755
-0.00972884
-0.00612497
0.02119276
-0.02012866
0.01143666
0.01000234
-0.00685823
-0.02192520
0.03060994
-0.02540937
-0.01622658
0.00859321
-0.01695680
0.02521086
-0.04437061
0.00910757
0.00447413
-0.04011390
-0.01737828
-0.00258630
0.00993132
0.01830060
-0.00484672
-0.00100710
-0.02399868
-0.01208388
0.00176331
-0.02896781
-0.01390918
0.03842837
0.02375378
-0.01180163
0.03270902
-0.01062866
0.00216601
0.00607277
-0.02585257
-0.00321157
0.00178838
-0.01196608
-0.02262180
-0.00219668
-0.01266842
0.04251557
0.00758754
-0.00853617
-0.01947042
-0.01912862
0.00835897
-0.01821128
0.01252243
-0.02217582
-0.01579329
-0.02909834
0.00886859
0.00603318
0.00084798
0.00119735
0.00372016
0.05006173
0.01043179
-0.02214594
0.02861188
-0.01990874
-0.03645765
0.00443510
-0.00625955
0.00699235
-0.00100240
0.01313041
0.01892097
0.07249425
0.06702961
0.02549863
0.02180411
0.02903917
0.02854790
0.00494761
-0.00387495
-0.00386137
0.00359987
-0.00014516
-0.02697248
-0.02392130
-0.00571220
-0.00882354
-0.01932560
0.01248852
-0.00026580
0.00955433
-0.04868218
-0.02022626
-0.00106604
-0.00748498
0.02343693
-0.00362649
0.00975915
0.02922370
-0.01924044
0.00868394
0.00787421
0.00585928
-0.02466759
-0.02296770
0.00028945
0.00120157
0.01566861
0.00403557
-0.01423362
-0.03347088
0.04149431
0.00084779
-0.01030252
0.00679726
-0.04072878
0.01411622
0.00113528
-0.03358942
0.02014004
-0.00965716
-0.00787116
-0.00459725
0.02377955
-0.00804530
-0.00769768
-0.01613203
-0.00747812
-0.00732673
0.04075291
-0.00682595
-0.00099434
-0.00618738
0.00301176
-0.00960724
-0.00665415
-0.01569219
0.02323138
-0.01363029
0.00300587
0.01491617
-0.00007386
0.01343291
0.00040472
-0.00223262
0.00837107
-0.11832403
-0.03952711
-0.03862428
0.00845894
-0.01221180
0.01369426
-0.03519498
-0.03844437
-0.04290900
0.00216162
-0.00122891
0.01165840
0.00167134
-0.00924065
0.01282403
0.00563769
0.01216110
-0.02348727
0.00603186
-0.04113289
-0.00279713
-0.02685827
-0.04243741
-0.01965966
-0.02392392
0.00754588
0.01735950
0.03756382
-0.02153912
-0.00474311
-0.00662231
0.03619039
-0.00737155
-0.02133290
0.01382831
-0.00288019
-0.01529455
-0.00864576
-0.00593778
-0.02388785
0.00352779
0.00804918
-0.00166818
-0.01730828
0.03246742
0.01988101
0.00968914
0.01056409
0.03584656
-0.04400976
-0.01396155
0.00554716
-0.06283949
-0.00260061
0.02674836
0.00958113
0.03714603
-0.01724635
0.00611515
-0.05087156
-0.01172514
-0.01861953
-0.02105048
-0.00540512
-0.01122711
-0.02358375
-0.05170619
0.00580984
0.00435007
-0.03655829
-0.01131655
-0.01303135
0.01581243
0.00190429
0.01955230
-0.01221304
0.05200799
-0.00543508
-0.01346026
-0.01361812
-0.01014515
-0.01470838
0.00408530
-0.03787478
0.00347127
-0.04433650
-0.04029567
0.00003893
-0.01014519
-0.00913383
0.00578136
0.00716969
-0.02327815
0.02282403
0.02261679
0.01254089
0.07525080
-0.00694357
-0.00632447
0.00929381
-0.03757920
0.00256942
-0.04978499
-0.02894895
-0.01006065
0.01407911
0.09033564
-0.02128438
0.01036338
-0.00240612
0.01645730
-0.00118521
0.01581482
-0.01072625
-0.00806601
0.00112828
0.01743536
0.01660001
0.00030265
-0.04571256
0.01840118
0.02358626
0.00165082
0.01187475
0.02177614
-0.00600611
-0.01874864
0.00459420
-0.00859517
-0.04502736
-0.00856871
-0.03540847
-0.01758668
0.03267189
0.00473711
-0.01385279
-0.02491420
0.00498153
-0.02277146
0.00093799
-0.00138686
-0.01278237
-0.00308218
0.04868291
-0.01379613
0.02874610
0.00824338
0.02574284
0.03147599
0.03004053
-0.01503578
0.00489781
0.00282008
-0.03335720
0.00608286
-0.01014009
0.01785061
-0.05237804
-0.03704517
0.00900501
0.00767445
-0.02040914
-0.04328137
-0.02002335
0.02533202
-0.04077964
0.00014860
-0.01203428
0.02714855
-0.00296040
0.01126507
0.00638165
-0.00174406
0.03511721
-0.01363071
0.01183432
0.01489149
-0.01697107
-0.03422210
-0.05183462
0.00703465
-0.01344886
-0.04162934
-0.02241529
0.01085081
-0.04122307
-0.03236747
-0.04688612
0.00642217
0.00195179
0.00777223
0.01066881
-0.01313010
0.00865711
0.02315657
-0.00313200
-0.00820409
-0.00483519
-0.00699506
-0.00050950
-0.01897370
0.00743865
0.02125232
-0.05333273
0.01574441
0.01379193
-0.04460113
-0.02076597
0.03170579
-0.02115574
-0.03021474
0.04056095
-0.03298976
0.01476052
-0.02429832
0.01390813
-0.02018578
0.01933488
0.02630305
-0.00914924
0.00337294
-0.01637461
-0.00184836
0.02586735
0.06469312
0.03219558
0.01732123
0.00437240
-0.01628276
0.00020293
-0.01084013
-0.01532438
-0.01502649
-0.04621296
-0.02929221
0.01886640
0.00057994
-0.05151432
0.00660539
-0.04485941
-0.02098769
-0.02564512
0.00582939
0.03789505
-0.02884922
-0.00392195
-0.00284099
-0.02336708
-0.01214952
0.00778590
0.01688074
-0.00780349
-0.00664175
0.02325524
0.02444908
0.01596273
-0.03310362
0.06805278
-0.03982798
-0.03392888
-0.00619663
-0.00674828
-0.01681962
-0.03543716
0.03931736
0.02793288
0.00960110
0.00061139
0.01514270
-0.00460100
0.02966056
0.02686981
0.00841868
0.02231514
-0.04334700
-0.00646188
-0.02406773
-0.00013363
0.01013487
-0.03824769
0.00694025
0.01779290
0.02295089
-0.00257978
-0.02761161
0.02410855
-0.00779413
0.04291122
-0.01258369
0.05447638
0.00131050
0.01697606
0.02538662
0.02733068
0.01607337
0.03020075
-0.03387589
0.01652887
0.01587948
-0.04287164
0.00360348
-0.01230578
-0.03484356
0.00138909
0.00366782
0.00545864
0.01702706
0.01195424
0.02928004
-0.00766077
-0.00791744
-0.01173773
0.02151465
-0.00172152
-0.01209929
0.01152156
-0.05341089
0.01162138
0.04753315
0.01019228
0.01954560
0.01009417
-0.02323897
-0.00235706
-0.03825169
-0.00837961
-0.00615915
0.01664538
-0.01728508
-0.03245411
-0.01952531
0.00785671
0.06439832
-0.04145489
-0.00865271
-0.02984498
0.00399119
0.02834607
0.03765592
0.03962084
-0.00236869
0.02307571
-0.06002008
-0.01570634
0.02012881
-0.05944186
-0.01457589
0.01325947
-0.01211372
-0.00927392
-0.00324970
-0.06616001
-0.03557286
0.03320542
0.04349563
0.01209398
-0.03730335
-0.02863475
-0.02938899
-0.03102775
-0.00478372
0.02066148
0.05128547
-0.04650201
-0.07171253
-0.02689631
-0.01165317
-0.02058321
-0.08670618
-0.03865119
0.04567152
0.05803964
-0.00094526
0.00142095
0.01192373
0.03743308
-0.00344521
-0.08077261
-0.02598087
0.03481694
-0.03526749
0.03927815
0.00936386
-0.01565760
-0.01345540
0.00737312
-0.00669251
-0.02945262
0.00340439
-0.01980151
0.02235433
-0.00883542
-0.03062206
-0.01269556
0.04106020
0.03127286
0.00145588
0.00967835
-0.03498647
-0.01740648
0.04241902
-0.05908074
-0.17492466
-0.02156465
0.01005216
-0.07092152
-0.00313819
-0.00866509
-0.01762794
-0.00077975
-0.01157669
-0.01657285
-0.00270836
0.00138885
-0.01242229
-0.06079876
0.01898616
-0.02581099
-0.02531414
0.00273887
0.01463896
-0.00337760
0.04195888
-0.06516057
0.00219648
-0.01643018
-0.01026023
0.01520741
-0.14270520
-0.04651824
-0.03860300
-0.01811036
0.02472853
0.00519331
0.01099822
-0.00018190
0.02906040
-0.01570307
0.02208390
-0.00984871
0.06477352
0.01502762
0.00163406
-0.03935926
-0.00236602
0.01591139
-0.02365596
0.01495081
0.00669107
0.04911473
-0.00607859
-0.04536907
0.00515963
-0.02168402
0.07624584
0.02434951
-0.00120248
-0.00973619
-0.02173785
0.02133259
0.00912871
-0.04273947
0.05502164
-0.02008431
0.00231379
-0.05876180
-0.05394946
-0.04209645
-0.00860596
0.24352404
0.00411208
0.01657581
0.00988310
0.02145114
-0.20545889
-0.02188643
0.05594296
-0.02899160
-0.02111555
-0.07730681
-0.01187867
0.02077876
-0.00149599
0.01785262
-0.25353190
0.00565159
0.01577145
0.04004401
0.06475905
0.04060645
-0.04191419
0.00611553
-0.02168654
0.05098809
-0.01226428
-0.09621828
0.16856235
-0.01610040
-0.03267070
-0.00766458
0.00770246
0.04380400
0.01423205
-0.03200943
-0.08924859
-0.02272182
-0.01083394
-0.00672052
0.04199683
0.03866392
0.04693101
-0.01202728
0.01497097
-0.02172867
-0.05376174
-0.02101660
0.00681486
-0.00608722
-0.00647004
0.01427305
-0.01363115
0.02743153
0.00782964
0.04112327
0.14836830
-0.01892029
0.03644025
0.00938837
-0.03188422
-0.01542530
-0.00164942
-0.04962343
-0.08490379
0.05822624
0.00142593
-0.01168576
-0.02056340
-0.00675262
0.03891061
-0.04547145
-0.02456879
0.05306168
0.01431003
0.02390134
0.00175830
-0.02092995
0.03564493
0.36906010
0.01023664
0.09915145
-0.01671860
0.00431967
0.03512442
-0.04346260
-0.06006946
-0.04991495
-0.04774770
-0.00573886
-0.00964407
0.01209083
-0.00966274
-0.00868523
0.00648723
0.01190127
-0.02739739
-0.01824730
0.01839036
-0.01740585
0.03999050
-0.04118503
0.02829908
-0.00760772
-0.02144160
-0.02150049
0.01216687
0.01043114
-0.05974346
0.02416322
0.03265084
0.06446182
-0.02296501
0.00928880
0.00788545
0.06841861
-0.03652404
0.03664734
-0.02209742
0.03790532
0.03900189
-0.28831252
-0.03960012
-0.05679673
0.07427391
-0.03121655
0.00200183
0.03375753
-0.00902250
-0.02420151
0.00212349
0.05627094
-0.18044320
0.01675752
-0.01916767
0.01501956
0.01299043
-0.01783349
0.01926128
-0.03047356
-0.00947469
-0.06572765
0.02519743
-0.01473539
-0.01961596
-0.01664707
0.02608379
-0.00627229
-0.07648505
-0.00772295
0.03571029
0.07586441
-0.04972946
-0.01176740
-0.02741348
-0.00023519
-0.04430529
0.00333918
-0.02531807
0.08453900
0.02375136
-0.00356303
0.10841408
-0.02414724
0.01728473
-0.02283777
0.00667764
-0.06626218
0.01504644
0.04597617
0.09875419
-0.03343756
-0.02562612
-0.01793152
0.04360854
-0.00335532
-0.00548336
-0.02234225
-0.10276096
0.02660533
-0.04142496
-0.00134686
0.05064692
0.01626922
0.05028163
0.25036681
0.02301006
0.15402882
0.03040783
0.00441437
0.04635687
0.00161622
-0.02982109
0.00109311
0.00273976
-0.00035756
0.04958729
-0.05039859
0.02775281
0.04542372
-0.07178617
0.05649381
-0.00490810
0.02763467
-0.00817112
0.00988966
0.04808027
0.01205111
0.06683348
-0.00712047
-0.01036393
0.03508368
-0.03991617
-0.00190365
0.02028361
0.02494930
-0.02219727
0.04935888
-0.01206291
0.03855650
0.00435428
0.00760781
-0.01021903
-0.00298190
0.01143289
0.05984418
-0.00995131
0.01477228
-0.01666082
-0.06021591
-0.02810338
-0.03968764
0.02174068
0.02233163
-0.03997361
-0.02815811
0.05462113
-0.00701977
-0.00542485
-0.05565787
0.01919159
0.07548778
-0.04904741
-0.00201107
-0.02254782
-0.01189323
0.00101894
0.03133337
-0.07146738
-0.01932746
-0.01786311
-0.03689615
-0.02036931
-0.02743907
0.01349091
0.03229266
0.01147685
-0.06689370
0.06306897
0.03045853
-0.03921022
-0.02375422
-0.02874584
-0.03358684
-0.02343111
-0.00430642
0.00777531
-0.06631689
-0.03967097
0.02759576
-0.00187518
0.01256978
-0.00411096
-0.03294884
0.00960662
0.00483875
0.01272614
0.01703531
-0.01652288
-0.01801127
0.00990578
0.00816814
0.00559900
0.03076440
-0.04219148
0.00537391
-0.08883459
0.00196796
0.05450287
-0.04681992
-0.06770979
-0.02727777
0.00374343
-0.00962963
-0.00624240
-0.03649636
0.01382416
0.08446629
-0.03889009
0.02544686
-0.03025033
-0.01300304
0.02363399
-0.02573123
-0.00862800
-0.07420430
0.03177389
-0.01266238
-0.03913395
0.00072962
0.02930257
-0.02085897
-0.00382566
-0.05856489
-0.02207658
0.01377286
0.00289335
-0.00870379
0.00300903
-0.02146791
0.01778416
0.00699564
0.05882962
0.08437032
-0.07121837
0.01074923
-0.02683362
0.00448336
-0.00073399
-0.10291498
-0.03048554
-0.02039910
-0.01318319
-0.03120480
-0.06380638
0.01720063
0.02170283
-0.00377702
0.01447492
-0.01050840
-0.03729952
0.00085950
0.01167543
-0.03525962
0.01689428
-0.02239902
0.03904179
0.00232349
-0.00315770
0.01696247
-0.00727287
0.06146767
-0.00258287
0.02038933
-0.02834612
-0.01442112
0.02894352
0.00701281
-0.00102956
0.01733498
-0.01808704
0.00161687
0.00543488
0.00004655
-0.03927464
-0.00087694
-0.04350762
0.02716331
-0.01477991
-0.00247469
0.00667354
0.01096384
0.01074179
-0.00834165
0.01931742
0.02023022
0.01914963
-0.02369073
-0.00320497
0.00267804
0.00557779
0.02507370
0.03178553
-0.06761742
-0.00252201
0.06602482
0.05055283
0.00125442
0.01140845
0.04057067
0.02435140
0.00276782
0.02634036
-0.02294259
0.00369933
0.01563546
-0.00816326
-0.03510986
0.00333522
-0.03425478
-0.04421407
-0.07023277
0.00382652
-0.00387865
0.02220271
-0.03228118
0.00265081
0.00128844
0.00331201
0.02947063
-0.00640558
0.00079777
-0.01983017
0.03331883
-0.00659190
-0.02336293
-0.01305598
-0.00628491
-0.02637715
-0.05757324
-0.02170696
-0.00473160
-0.03432159
-0.01817210
0.00498379
0.00462237
-0.00317846
0.01731989
0.00171775
-0.03897779
-0.04049744
0.01018173
-0.01644054
0.00904315
-0.02995317
0.02134334
-0.03876653
0.02650141
-0.01417850
0.01126375
-0.00500668
0.03850955
0.04718912
-0.05121793
-0.00850503
-0.00476689
-0.01987250
-0.02230255
0.05865422
-0.00392723
-0.03525458
0.01484954
0.03078640
0.01270770
-0.04384326
0.00532969
-0.04055677
-0.02083754
-0.03073116
0.05577568
0.00842000
-0.00895949
0.01686111
0.01634340
0.05237457
-0.01840862
0.00580215
0.00635062
0.02378321
-0.05060618
0.03106940
0.02402176
-0.00574199
0.02038671
0.01435803
-0.02584642
-0.02242536
-0.00359469
0.00906683
-0.00094600
-0.02060041
0.00780472
-0.08297830
-0.00583463
-0.01486675
-0.01705156
0.02120784
0.00645614
0.00299755
-0.02862866
-0.01865508
-0.00523028
-0.03211203
0.04272109
-0.01987848
-0.03056559
-0.00862146
0.02330330
0.02575615
0.03410184
0.01679059
0.03457253
-0.00615515
-0.00973657
-0.01519537
-0.00224483
-0.07526760
-0.05207100
0.01415961
0.01462760
0.06353385
-0.03787976
-0.01298680
0.01740338
0.08632851
-0.02110359
0.02344997
-0.00609931
0.00237823
-0.01536321
-0.04472411
0.05574468
0.01992298
-0.02015374
0.07091627
0.02587626
-0.03333425
0.05255947
0.00708934
0.00257772
-0.00556573
0.00868144
0.03273848
0.01952230
0.02948438
0.02616147
-0.04436390
0.02357534
0.05212225
0.01826456
-0.03054948
-0.01018981
0.05696328
0.04098922
0.01925029
0.03099722
-0.02184079
0.03010147
0.06524578
0.00339086
-0.05635472
-0.01438193
0.02061737
0.03607119
-0.02911306
-0.05218663
0.03941150
0.02052552
-0.03050706
-0.08257343
-0.00107877
-0.03524937
0.01315816
0.02439213
-0.03092809
0.02340689
-0.00728611
0.02112688
-0.01692985
0.04981637
-0.03046302
-0.00902579
-0.05253671
0.04156984
0.01740451
-0.04347741
0.00161024
-0.00275054
0.04383571
0.02579025
0.01732972
-0.08540256
0.02040952
-0.02917678
-0.00399790
-0.00088358
-0.03228807
-0.02793608
0.09216931
-0.05391046
0.03965061
-0.01016263
0.03859397
0.02870555
-0.01413405
-0.01573338
0.03406648
-0.02189346
-0.04327707
-0.02039090
0.00330391
-0.01516172
0.00113115
0.00249660
0.00945652
0.01046359
0.01926807
-0.04618547
0.05111822
0.05265751
0.08612453
0.01519180
0.03152339
0.01166094
0.00478887
-0.03016245
-0.04276420
0.01742506
0.01510682
-0.02076094
-0.01287072
0.02347200
0.00474172
0.00911694
0.04303998
0.05050318
-0.00160361
0.00949200
-0.06181872
0.01049160
-0.00125359
-0.06017696
-0.03688696
-0.00323968
0.01518914
-0.01847719
-0.00594303
-0.02210644
0.02080499
-0.03284934
-0.02137769
-0.06635024
-0.06972089
-0.02773781
-0.04290684
0.00877072
-0.01598240
-0.01733658
0.08392550
0.07596375
-0.06189254
0.00435300
0.03004771
0.00426604
-0.03016849
0.00074893
-0.01369619
-0.00557061
-0.01434343
-0.02545479
-0.02329133
0.00094274
-0.01605585
0.02025406
-0.00969961
0.01707960
-0.01917397
0.02057278
0.01060029
-0.02084515
-0.04369293
0.01018765
-0.01211712
-0.04586809
0.01457705
-0.02027229
-0.04533390
0.05833941
-0.02486812
-0.00688951
0.02046303
0.04517379
0.01806509
-0.01975773
0.03218010
0.00097600
0.04873244
-0.00620786
0.04174954
-0.04591049
0.00504894
0.01018753
-0.04084980
0.02369701
0.02617196
0.03174514
0.00265591
0.03898746
0.01868577
-0.02967051
0.01131016
0.02429966
-0.02255530
0.00676543
-0.01904548
0.04111692
0.02017789
-0.01312417
0.02099789
-0.00041733
0.00297334
-0.00795425
-0.01016377
-0.01998395
-0.00070618
-0.00242000
0.05862146
-0.00888595
0.01989270
-0.02796628
-0.00709689
0.03206468
-0.00228738
-0.02282572
0.01926288
-0.04810768
-0.03933022
-0.01929240
-0.01237900
-0.04282920
-0.00812962
-0.00496451
0.00646140
0.00057462
0.03003013
0.01768100
-0.00118587
0.00356596
0.01743766
0.01564283
0.01910230
-0.02546837
0.00222960
0.02037488
0.03937630
0.01287502
-0.01228391
0.04334129
-0.01937925
-0.03255996
0.00480606
-0.02293268
-0.02994479
-0.03767228
0.00494451
0.00693895
0.04221446
-0.01563081
-0.01906814
-0.00947256
-0.00786471
-0.04261319
0.01143146
-0.01281819
0.05405232
-0.03455005
-0.01307692
-0.02078874
0.05814912
0.00475427
-0.05654416
-0.04300483
-0.00808798
0.02625353
0.04465059
-0.03163274
-0.01640763
0.03866116
0.00118049
-0.01711699
0.01448185
0.00426483
-0.03249216
-0.00310183
-0.00243269
-0.01835185
-0.00206937
-0.03011864
-0.00452370
0.01218136
-0.02299472
0.00698597
0.07891495
0.00220523
0.01596329
-0.02214524
0.02765968
0.00448594
0.04626578
0.01816827
0.00362525
-0.01753295
-0.01553298
-0.00473807
-0.02559374
0.00577921
0.02897716
-0.04416650
0.04076857
0.00997919
0.01526242
0.05761847
-0.01485526
0.04514870
-0.03657702
0.00507170
0.00767313
0.01850100
0.02595969
-0.01155759
-0.02180452
-0.00281419
0.04851387
0.02920026
0.01950211
-0.00887449
-0.02439797
0.01427347
0.01812441
-0.01017203
0.03250572
-0.02083445
0.04378781
0.00544400
0.01117765
-0.00142245
0.03177452
0.02345585
0.01177293
0.00838502
-0.02704327
0.01417644
0.00928548
-0.01385604
-0.00311178
0.00116447
0.00509797
0.05034294
-0.01367735
0.00905493
-0.00024181
-0.02628234
0.02476905
-0.00682954
0.02086100
0.01693259
0.02135569
0.02175335
-0.00996444
-0.00670046
0.02308111
0.01065494
0.00057339
0.00334479
-0.03172308
-0.00720894
0.03588196
-0.00449123
0.02114757
0.00712654
-0.01438064
0.01962920
0.01013193
0.03529032
0.03109351
-0.01019350
0.01102978
-0.00973498
-0.03430714
-0.00759360
0.04717983
-0.04460575
0.00551401
-0.03118649
0.02068067
-0.00779735
-0.01844092
0.00511999
-0.02547803
0.01634829
0.03001653
0.04355883
-0.00781416
0.01015241
0.00061783
-0.00334670
-0.01050629
-0.01911603
-0.01562410
0.05463171
0.01339831
-0.00998791
0.01340063
0.02309404
0.01109142
0.00794222
0.01900274
0.02653886
0.00880417
-0.02632323
0.02868689
-0.00588550
0.05985323
0.00410988
-0.00193600
0.00246264
-0.01051763
0.02376271
-0.00798018
0.03444444
-0.00352691
-0.03416136
0.01923339
-0.01784661
0.00393780
-0.02476243
-0.00023504
0.00448375
-0.01761864
0.03091745
0.02162956
0.01036314
-0.03355360
-0.02749447
0.01433490
0.00009166
-0.01597293
-0.03464061
0.02920332
-0.02869522
0.02121556
-0.01270001
0.04278273
0.01197554
0.01139579
-0.00198899
-0.00140811
-0.02779735
0.00594001
0.02256377
-0.00443343
-0.02565492
0.01928003
0.02157191
0.00205707
-0.01616157
0.03589214
0.05198126
-0.01747564
-0.00318651
0.02171389
-0.00000275
-0.00350903
-0.01799141
-0.03004697
-0.01469621
-0.00475038
-0.01065734
-0.03157236
-0.01150289
-0.03249281
-0.00195741
0.04541606
0.00129846
0.04054672
0.03179008
0.01937744
0.00867386
0.03966911
-0.01651233
0.00110817
-0.01157599
0.01618372
0.01905112
-0.02651467
-0.01486347
0.03337089
0.03650153
0.00561454
-0.03069745
0.02407695
0.02187954
-0.01278310
-0.00362465
-0.00504836
-0.00089779
-0.02836437
-0.00560198
-0.02499169
0.02480303
0.03809878
-0.00591007
-0.01639182
0.01658599
0.02186177
0.03162611
-0.03038568
0.00640917
0.01150712
-0.03926731
-0.01167992
-0.03160417
0.00162103
0.02567137
-0.03419677
0.01429684
-0.00073270
0.01980547
0.00114018
0.02031097
0.01684471
0.00365741
0.00906417
0.02080521
-0.02427813
0.01036533
-0.00315348
0.00537809
-0.01956086
-0.01306345
-0.01815388
-0.02635391
-0.00287442
0.03157086
0.05010976
0.07266227
-0.02378685
-0.01142080
0.01384662
-0.06914236
-0.00046056
-0.00999260
-0.01799016
-0.03393557
0.00347214
0.04761661
-0.01857016
0.03255948
-0.02093132
-0.00231662
-0.03912656
0.01111840
0.03215896
0.01341357
0.01224204
-0.05720469
0.01188548
0.02767400
-0.03048893
-0.01609031
-0.02665705
-0.07928969
-0.01515772
0.00190904
-0.02122800
0.03288966
-0.02565233
-0.03988064
-0.07106159
0.00632301
-0.03970849
-0.01320635
0.00325088
0.02551011
0.01170718
0.01118825
0.06180645
0.03418568
0.01953136
-0.00249431
-0.00258909
0.02613887
0.00236229
-0.01934620
-0.02478917
-0.00844412
0.00392578
0.01381062
-0.01494815
0.00651623
0.01852152
-0.03779324
0.01663998
0.00676944
-0.02249162
0.03380099
0.00949082
0.00292909
0.01061771
-0.00186053
-0.00688109
-0.01161182
0.02179432
0.00138552
-0.00638218
-0.04786630
0.00944697
-0.00968639
0.03710670
0.00965806
-0.03579843
-0.00985253
0.00119635
-0.00507302
-0.01716509
0.03493025
0.01253689
-0.05731931
0.04290332
0.01326391
-0.01852416
0.00603403
0.03734189
0.01188126
-0.02262495
0.00076434
0.02310163
0.07816231
0.02559135
0.01109763
0.00044242
0.03149099
-0.02180193
-0.02620169
-0.01935651
-0.02521970
0.00668878
-0.02822242
-0.00289155
-0.01707733
0.01830703
0.02892585
0.01548001
0.04779050
0.03204140
0.02004155
-0.00001902
-0.00447166
-0.00695125
0.03895049
0.00745632
0.02025306
0.04817615
-0.01794497
-0.02318624
0.04910513
-0.02472827
-0.03654082
-0.00273643
-0.00597318
0.02023615
0.00994964
0.03295718
-0.04218902
-0.06599198
-0.00544704
-0.01022571
-0.02220860
0.00418843
-0.00018348
-0.00682835
-0.01857372
0.01570932
-0.00090046
0.00847938
-0.04237647
-0.02121000
0.00625049
-0.01382729
0.00190157
-0.06509512
-0.02519806
-0.00805561
0.00486820
0.03627386
0.00556028
-0.03193462
0.03135090
-0.03172504
-0.03248791
-0.00864048
-0.00435095
0.07136016
-0.00469211
-0.00037853
-0.00497611
0.00289965
0.00007996
0.01943098
0.08318856
0.02547176
0.03156809
-0.01268761
0.03703259
0.00821611
0.03618430
0.01060114
-0.02309464
0.03412647
0.01383666
-0.01794747
-0.02485151
0.01892876
-0.02009890
0.02503521
-0.00146615
0.00294877
0.00052419
0.01201507
0.04872870
-0.00694314
-0.00730848
0.01602992
-0.03111384
0.01696914
0.06801155
-0.03235726
-0.00635720
-0.02387466
0.01840751
-0.01046927
0.02649770
0.03443232
-0.00051733
-0.00144405
0.01586347
0.00308420
0.02218638
-0.01160775
-0.07990471
0.08502573
-0.00087915
0.01168195
-0.03982377
0.03955683
0.01641105
0.00357264
-0.00582399
-0.03554753
0.03746387
0.01025809
-0.02645009
-0.02741244
0.02329152
-0.02088615
-0.02820507
-0.01321405
0.01478012
0.01595996
0.05763235
0.01193787
0.03780234
0.02340791
-0.00338542
-0.01830637
-0.02349227
-0.16823524
0.04452058
-0.01954480
-0.01634611
-0.00318774
-0.01979482
-0.02166978
-0.00539122
0.01085306
0.01849808
-0.03168347
0.04778736
-0.14772157
-0.03588183
0.02234731
-0.12852541
-0.00898731
-0.03090648
0.02796834
0.02029636
0.11562815
-0.02372466
0.02047902
-0.02962502
0.01912721
0.05656099
0.01137489
0.02276759
-0.02710208
0.01179022
0.02550390
0.03679831
0.02789551
0.00507432
-0.00014749
-0.17911150
0.03967476
0.01871814
-0.01138462
-0.05784316
0.02831343
0.02154310
-0.17852239
0.00223393
0.02470845
-0.02132506
-0.02262337
0.03441882
0.01959318
-0.02082618
0.01641196
-0.01346920
-0.01945448
0.01017750
0.01286122
-0.03472071
-0.03800301
-0.02774924
-0.02515364
0.04408202
0.00136373
-0.00123694
-0.02859632
-0.00320779
-0.01081249
0.01203355
0.03158608
-0.01738906
0.09334927
-0.01858748
-0.00617325
-0.07707827
0.02423653
0.00754659
-0.02151808
-0.03445622
-0.05890833
0.02450135
-0.02859678
-0.00465943
-0.01857098
-0.01355040
0.02792024
0.02532444
-0.02538161
-0.06406701
-0.00558306
0.04017583
0.01418507
-0.01191437
-0.04621474
-0.01197862
0.01851894
-0.02776072
0.00053168
0.00964945
-0.03733072
-0.02499201
0.01556512
0.01604290
0.02370363
-0.02161585
0.03850652
-0.07111272
-0.02291402
-0.01291612
0.03493871
0.01255716
0.01728272
0.02194097
0.00655198
0.01728207
-0.08151449
0.01432830
-0.02101051
-0.00855219
-0.00832292
-0.02667881
0.00616897
-0.01983345
-0.00131302
0.03207638
0.01295240
0.00879643
-0.00058995
-0.04945723
-0.05095701
-0.01599610
0.05746298
0.05716372
-0.03859872
0.02898397
-0.00192165
-0.01588977
-0.03489426
-0.02173219
-0.00746204
-0.00776592
-0.01571394
0.01407314
-0.03468996
-0.02445852
-0.06302272
0.03003099
-0.00317485
-0.00254032
-0.00832782
-0.01221776
-0.01400198
-0.00415100
0.00790509
0.01874756
-0.01139290
0.01829261
-0.01097220
-0.00011216
-0.05283578
-0.01188775
0.00496737
0.01236826
0.01230629
0.05967807
0.01344571
-0.07147945
-0.01696322
-0.00534702
-0.01322082
-0.00580488
0.00541863
0.02953923
0.02191934
-0.01383580
-0.00460652
0.02318201
0.02409008
-0.02687747
-0.00374107
-0.04436686
0.03391440
-0.00555150
0.00927678
-0.02225024
0.03702266
-0.02111981
0.03072381
0.00143663
0.04670345
-0.03152282
-0.02080783
-0.00702985
-0.01111308
-0.02579296
0.00204078
0.03749804
-0.01617592
0.02450063
-0.01085967
-0.01015055
0.02668503
-0.02099357
0.01671943
0.01841027
0.02209663
-0.01409332
0.03781663
-0.01214140
-0.00780558
-0.01181308
-0.02849129
0.00722439
0.00811286
-0.02254832
-0.03846662
0.02822792
-0.01657411
-0.03150668
-0.02521493
-0.01966301
-0.01455289
-0.02255482
0.03142670
-0.02274999
0.01357207
0.02588068
-0.02704383
0.02995097
0.00709329
-0.03434839
-0.01280253
-0.00843538
0.06276188
-0.00838234
0.04845970
-0.00182072
-0.01152530
-0.00800994
0.01001221
-0.02741274
-0.00377522
0.04022067
-0.02326727
0.00806076
-0.03384566
0.01075272
0.03673702
0.01417028
-0.00887977
-0.01724167
-0.04467356
0.03362939
-0.07173728
-0.02490883
0.00512196
-0.01842612
-0.03600173
-0.03119884
0.00643698
-0.02243198
0.02160402
0.03893051
0.00855951
0.01376840
0.02794334
0.00451533
0.01110507
-0.02796729
0.02218792
-0.00067958
-0.01413721
0.02777535
0.02678685
0.00876977
0.03054508
-0.05774357
0.00460880
-0.04867318
0.02602009
-0.00936894
-0.02281259
-0.00180215
0.02807963
0.01610032
0.01087369
0.08370858
0.02475127
0.01173806
0.02980389
0.01495568
-0.04317063
0.00174508
-0.04009602
-0.00031498
-0.02743518
0.00917793
-0.00353587
-0.00142379
-0.04652023
0.01067458
-0.00419456
-0.02258291
-0.05638954
0.00045038
-0.02222236
0.01855140
-0.04146570
-0.02571134
0.02007498
0.00771800
-0.11582561
-0.01659527
0.03834990
-0.00297485
0.02509782
0.04553801
0.03099264
0.00116511
0.03781547
-0.03962421
-0.00244967
-0.08290641
0.00877618
-0.00282482
-0.00438838
-0.00149451
0.01703047
-0.04143438
-0.00297976
0.01347291
0.00122673
-0.05000977
-0.02586869
-0.00320854
0.01719705
0.00157937
-0.03947262
0.01452207
-0.04626594
-0.02228102
-0.00422454
-0.01075577
-0.03695353
0.04613708
0.05191142
0.01688218
-0.01601985
0.02578849
0.08156249
-0.00043740
-0.01290315
0.03254545
0.01774558
0.01576774
0.01584836
-0.02668855
-0.01750048
-0.02037885
-0.00416235
-0.01148011
-0.01990882
0.00783121
-0.01164959
0.01116754
-0.01030512
-0.01930830
0.01073013
0.00297780
-0.00470534
0.03965498
-0.02927934
0.02173582
0.01435323
0.00841017
-0.02263760
-0.05888495
-0.01438710
0.04816873
0.03797986
0.06276139
-0.04215614
0.01858883
-0.00941464
-0.05642983
-0.01695060
-0.00055130
-0.02090655
0.00575898
0.03066832
-0.02478784
-0.00531280
0.01657090
0.06649112
0.07192715
0.04854655
-0.01550553
-0.03597456
-0.01809241
-0.01693431
0.07410640
-0.00867693
-0.06139210
-0.01226043
0.02683721
-0.04295178
-0.01172350
-0.03895009
0.00347831
-0.01064696
-0.03084204
-0.01751480
-0.04005866
-0.00083395
0.00291464
-0.01339708
-0.07279528
-0.06489933
0.00120590
-0.00264511
-0.00787328
-0.00222953
-0.03729558
-0.04607224
0.01526415
0.04655617
0.01801451
0.02960007
0.01447281
-0.09879860
0.05206160
-0.00405908
0.02572481
0.02546400
-0.04676258
-0.08862445
0.04783542
0.01420405
-0.04477389
-0.00805490
-0.01137107
0.07606641
-0.02258906
-0.03070079
-0.00189272
-0.03778511
0.00174915
-0.05686865
-0.05953623
-0.02155655
0.10262404
0.02073510
-0.00719537
-0.03277837
0.03718790
-0.04921663
-0.03904326
-0.00167487
0.03170574
-0.12550753
0.02003319
0.00352185
-0.09049942
0.05559590
-0.02017674
0.00387762
-0.07713512
-0.04166602
0.04246357
0.02799811
-0.02562931
-0.01168529
-0.01402354
-0.08471484
-0.07203320
-0.01809009
-0.05525384
0.04717303
0.02109630
0.06736954
-0.01908812
-0.01848647
-0.03875792
-0.00366040
-0.01850313
-0.03368253
0.03990632
-0.04679345
0.00174677
-0.07180820
-0.00455456
-0.01782587
-0.00526136
0.05036824
0.01223263
-0.05286103
-0.01627299
-0.08193724
0.02217151
0.03517717
0.00229493
-0.03179557
-0.00402953
0.00703355
0.02892779
-0.02955654
0.00172758
0.01397636
-0.05117000
0.02908338
-0.01485547
-0.02229638
-0.01931054
0.00416396
0.04089156
-0.00045473
-0.03864017
-0.02321181
0.00334461
-0.02870974
-0.00264358
-0.04852197
-0.05525332
-0.04576415
-0.00311516
0.00652970
0.02784207
-0.00693657
-0.01551124
-0.00636097
-0.04649298
-0.02471716
0.03638723
0.00945590
-0.01707547
0.06039418
0.03436479
-0.03726477
0.02304081
-0.04631869
0.00400276
-0.01630585
-0.02239779
0.05178611
-0.02944480
0.05493967
-0.01914866
-0.00642452
-0.01257817
0.00239340
0.01746912
0.03664245
0.00156124
-0.02821926
-0.03408701
0.03270291
0.04682183
0.02863348
0.00073499
-0.01429678
-0.04294102
0.01089032
-0.01546189
-0.02779599
-0.02478133
-0.01398013
0.01290721
-0.05847998
-0.01086128
0.03820102
-0.06156627
-0.04165542
-0.04752798
-0.03866740
-0.04366935
0.01950288
-0.05159622
0.19263434
0.00300874
0.02788153
0.02257559
-0.00607254
-0.00040636
0.06857985
-0.03548656
-0.00608777
-0.12329739
0.00119888
0.04885048
-0.00277027
0.00448880
0.00796469
-0.01637738
-0.02718865
0.05258003
-0.02671855
-0.07209095
-0.02281641
-0.01117240
-0.01858548
0.01516263
0.01669597
0.01434099
-0.00882087
-0.03362450
-0.01218171
0.27021137
0.01130023
-0.00891183
0.11736729
0.02749231
-0.01846429
-0.01907957
-0.04670019
-0.00705820
0.01579071
0.01123777
-0.01956720
0.00024032
0.00359261
0.03068942
-0.03715745
-0.02807025
-0.01761603
0.06596132
-0.01096498
0.24132513
0.01277857
0.04340849
0.00944058
-0.03491817
0.09534609
0.00019661
-0.07404020
0.02782069
0.01551147
0.00601642
0.03311630
-0.03541240
0.04452616
0.02794857
0.00220905
-0.37850320
0.03560757
-0.00803337
-0.03886602
-0.00022215
0.08032519
-0.00003529
-0.03465453
-0.02438617
0.00015841
-0.03070886
-0.01286384
-0.01025382
-0.01441804
0.03622168
0.00110401
0.00236011
-0.00751985
0.01853724
0.03412010
-0.01746527
0.01032534
-0.01535313
-0.01579333
-0.01024220
-0.04280880
-0.01454886
-0.00864207
-0.00648402
0.02041939
-0.03967286
-0.01225741
0.03038725
0.04152696
0.04646781
-0.03465103
0.00444539
0.05870568
-0.01411446
0.01754916
0.03141565
-0.05058952
0.02481896
0.02142522
0.00370054
-0.00418649
-0.02959641
0.02091170
0.03094631
-0.00028794
0.02116224
0.00844910
-0.02641938
-0.01567823
0.00057509
-0.00182578
-0.02286864
-0.00825748
0.02586486
0.02055971
0.01547979
-0.02537034
0.00541149
-0.00366529
-0.01977332
0.06402278
0.01641741
-0.02237036
-0.01188746
-0.01944800
-0.00728958
0.02949364
0.00316098
-0.01298012
0.04401007
-0.01567288
-0.00877148
-0.00183338
0.00658012
0.02159627
0.03324536
-0.03415348
0.01791186
0.04329390
0.00725961
-0.00896774
0.03718883
0.02229688
0.02531542
-0.06805486
-0.00387365
0.03693465
0.03862889
-0.00866178
-0.01368057
-0.01745092
-0.04658888
0.00164845
0.05324801
-0.03703679
-0.01961768
-0.04431806
-0.05206748
0.03240498
0.07795472
-0.01140547
-0.02146845
-0.05049233
0.01495519
-0.01498426
0.02304222
-0.01791179
0.01917483
-0.00542615
0.00674792
-0.04777947
-0.05013356
-0.00654651
-0.02017188
0.03487905
0.00697137
-0.01515159
-0.02312208
0.01843674
-0.01372142
-0.00222091
-0.02152721
0.01609189
-0.08879959
0.02354093
-0.02487994
-0.03992181
-0.03454054
-0.02245429
-0.01325176
0.01129542
-0.00823009
0.03856671
0.00070018
0.03425683
0.01610263
0.01904941
0.00032279
-0.00023810
0.06139837
0.01328168
0.02813682
-0.03043596
0.01963848
0.01181453
0.02153780
-0.00542774
0.01471157
-0.00076749
-0.02043231
-0.03905191
-0.02980110
0.02636179
0.03605866
0.06558030
0.01464521
0.00710845
-0.04810661
-0.02950791
-0.02747600
0.02788195
-0.04172989
0.00326569
0.00955441
-0.00603827
0.01275137
0.02569103
-0.01433186
-0.01795805
-0.02959912
-0.02851526
0.03682612
0.02182162
-0.03381320
0.02615651
0.00126277
0.01391094
0.05992559
0.01145930
-0.00813047
-0.03432462
-0.01453352
0.00210710
-0.02918961
-0.05279035
0.00613947
0.01638755
-0.09009169
-0.05610465
0.03447330
-0.03249000
0.02075031
-0.06378193
-0.01576895
0.00587139
-0.00065019
-0.00463620
0.01773353
-0.01352637
0.00367041
0.01657740
0.02606854
0.03335159
-0.03245211
-0.04530456
0.02007403
-0.01319604
0.00757389
0.00289993
-0.01637395
0.01071782
-0.01993160
0.00270918
-0.00774783
0.02664265
-0.01350225
0.01106584
0.02647551
0.01504692
-0.02683449
-0.00375336
-0.03825795
-0.00706087
0.00992236
0.00015350
0.01117112
-0.00889106
-0.04076793
-0.01817463
0.00875547
0.00974674
-0.02619694
-0.01258590
0.01229978
-0.00548035
0.03873834
-0.02705823
0.02494343
-0.03572217
-0.01879211
0.04824240
-0.02817024
0.00611220
-0.02584345
0.00997573
-0.02432017
0.01426987
0.01825750
-0.01563568
0.00621068
0.00163498
0.00515546
-0.01580825
-0.03937390
-0.00405673
0.01946284
0.03155624
0.03199338
0.02732672
0.04205319
-0.01230593
0.00886943
0.02091131
0.02715105
0.00981156
-0.00413154
-0.02294340
0.01344460
-0.00220381
0.03732067
0.00469396
-0.01143861
0.00723894
0.00145334
-0.00538656
0.02349048
0.02532567
-0.03354857
0.01531766
0.01021941
0.04476407
-0.01047746
-0.02266847
0.00102804
-0.03716715
-0.00830085
-0.00135208
0.00317605
-0.01547798
0.00656405
0.00321044
0.03504110
-0.00911746
0.00638539
-0.01033889
-0.00836671
-0.03713701
-0.00504487
0.00298835
0.01060512
0.02582417
0.01178441
-0.01516725
-0.01651063
0.00536670
0.01201305
-0.01555640
-0.03882676
-0.01826056
-0.01726106
0.00449442
0.02421761
-0.00027099
0.01566948
0.00747406
0.03874733
0.00592764
-0.02068934
0.03348362
-0.00733047
-0.03890456
-0.02422034
-0.01468605
0.00099435
0.03000807
-0.01877471
-0.01314191
-0.02526259
0.01188512
0.00630992
-0.01228712
0.01118856
0.06359651
0.00319824
0.01412881
0.00756642
-0.00053453
0.07008424
-0.07021628
0.01239701
-0.03227703
0.00564881
-0.00971259
-0.02967124
0.01091512
-0.04337453
0.00295664
-0.04886351
-0.00900393
-0.03410526
0.03144297
0.00655201
0.00105251
0.02567179
0.00968814
0.01807000
0.01812432
0.02561997
-0.00646171
-0.01050640
-0.02859114
-0.00454054
-0.01100719
0.00691046
-0.04672818
-0.01631291
0.01232072
-0.00719638
0.00596211
-0.00438705
-0.00577601
-0.01458272
0.02165168
0.03191683
-0.00284550
-0.01545966
-0.05771397
-0.00972952
0.02068640
-0.01412261
0.00770850
-0.05735892
0.00050619
0.00135001
0.02476870
-0.00751925
0.02175953
0.01399457
0.05131979
0.03578137
0.00522481
-0.01202127
0.02638895
-0.00044398
0.01313329
0.01846618
-0.00090118
0.02742733
-0.09228255
0.01288667
0.02029567
0.06038967
-0.02492282
-0.00884676
0.05820879
0.01268694
-0.01884994
-0.01298037
-0.02148251
0.06483524
-0.21452181
-0.00794607
0.02406210
-0.05897358
0.03259575
-0.00318129
-0.06288429
0.02335310
-0.01322713
0.06563512
-0.01084861
-0.03380616
0.11518830
-0.01577955
0.00601408
0.00550056
-0.04747270
0.04566225
-0.03809774
0.04786953
0.05696747
0.00824539
0.08381072
0.01027623
-0.01614977
0.00842178
0.01576867
0.00154953
0.00206753
-0.29881430
0.02907451
-0.03109867
-0.21123777
-0.09452752
0.00388685
0.03027752
0.03019255
0.02631322
-0.02063518
0.00786259
0.02354053
-0.00399306
-0.02201992
0.01303041
0.04760685
0.11245498
-0.05043011
-0.07137936
0.00352947
-0.12886384
0.01564070
0.00811654
-0.02257739
-0.00677725
-0.36673775
-0.03885347
0.24554354
-0.02622898
-0.01835700
0.04064284
-0.11598519
0.02643725
-0.05934128
0.08292769
-0.03098909
0.50508690
-0.00873663
0.00958643
0.02013826
-0.08754062
-0.07117738
-0.00531625
0.01379355
-0.00672385
0.00008574
0.04984977
-0.01935028
-0.00019879
0.02294555
-0.03436192
0.00220264
0.03889210
0.02742665
0.04222972
-0.03091605
-0.01098255
-0.02867611
-0.01464911
-0.05507350
-0.00369602
0.06042325
-0.00455983
-0.09078443
-0.03295412
0.01492885
-0.03394345
0.03428466
0.03122216
0.01689209
0.02506601
0.00420587
-0.01495728
-0.04090771
0.00703759
0.00486495
-0.04098072
-0.09165148
-0.02438671
-0.01741879
-0.01285340
0.01484536
0.08233488
0.02151771
0.01002673
0.03948849
-0.02029503
0.06914972
0.01469360
-0.01509849
0.00047356
-0.01090631
0.05037519
0.01467816
-0.01167438
0.02366360
0.02218438
0.01072120
0.00707485
0.07613057
0.00691079
-0.01811909
-0.01886509
-0.02600443
-0.03714049
0.00273056
-0.00436407
0.00420296
0.00470268
0.03111953
0.00910184
-0.07631448
-0.00618595
-0.01682995
0.00560557
0.04838818
0.02055097
-0.02931819
-0.02312274
-0.01887064
0.04059125
0.00213527
0.01024359
-0.11506093
-0.03471984
-0.01764856
-0.00306213
-0.00833635
-0.03660171
-0.00065174
0.07401835
0.01044521
0.03469441
0.01553625
0.05901235
-0.01828549
0.00814169
0.00785199
-0.05628896
0.00300388
0.00265094
-0.03413034
-0.02714024
-0.00646119
0.01689335
-0.17914759
-0.00685997
0.01933253
-0.00414623
0.00135049
0.01513235
0.02196419
0.01025328
-0.01043147
0.04557119
0.01760632
-0.04562426
-0.01282760
-0.00065468
0.00507894
0.02462724
-0.04775257
0.01274499
0.01732381
0.00093974
-0.00859939
-0.00380207
-0.02660270
-0.01187975
-0.04227223
0.07924548
-0.20085689
0.00415069
0.01725495
-0.00280682
0.03205964
0.01902180
0.02886377
-0.00679119
-0.05173891
0.02106980
-0.02051423
-0.00527646
-0.06705243
-0.00894282
0.00072048
-0.02031080
-0.00895719
-0.00375083
0.02628144
0.05531348
0.01061250
-0.01503598
0.01446465
0.01951315
-0.02518588
0.02411118
0.12984435
0.03496834
-0.01474006
-0.02200472
0.03894956
-0.02426803
0.00680063
-0.01377667
-0.07189495
0.00568973
-0.01956288
-0.08810004
0.21975648
0.00593723
0.01546766
-0.04073160
-0.02839771
-0.07367587
0.02248428
0.03283343
-0.28266004
0.02228304
0.04464813
0.01631999
-0.00169440
-0.24643819
0.03147250
-0.00451230
-0.03791933
0.00773613
-0.07127259
0.01998354
0.00215551
-0.01836537
-0.01198930
0.23117322
0.02345242
0.00103936
0.00653954
-0.05706318
0.01151126
-0.01499844
0.08166631
0.03601240
-0.00058216
-0.01153977
-0.03484443
0.00387687
0.00789334
-0.03102775
0.03022472
0.04508060
-0.01635757
0.03070747
-0.01216109
-0.01329436
0.00986881
-0.02898045
-0.01648542
-0.00382741
0.00018961
0.00165635
-0.02946057
-0.02461001
-0.01164554
-0.00962181
-0.01374152
0.00557303
0.00122943
0.01767522
-0.00034602
-0.04192365
0.01425279
-0.01882587
0.00363869
0.01092731
-0.02009206
0.01333021
-0.01892915
-0.02451181
0.02483863
-0.01214870
0.04060320
0.01093695
0.02288662
-0.04698482
0.03604652
-0.02211151
0.04599985
-0.03510819
-0.01838849
-0.00380018
-0.03362406
-0.00461641
-0.03766931
-0.01981761
-0.00428596
-0.02504066
-0.01817038
0.00570439
-0.00592456
-0.00658820
0.00480439
0.13221276
0.02294868
-0.01043330
-0.01100517
0.03822735
0.00428484
-0.01686685
-0.01954088
0.00301851
0.01131400
-0.02503826
0.01415452
-0.02331017
0.05664133
0.00598381
0.02522426
0.02403221
0.01020564
0.00420289
0.04009718
-0.07958798
0.00257081
0.01049018
-0.03124275
0.12443898
-0.01022908
-0.00279835
0.00858832
-0.01840931
-0.03844600
0.02574348
0.02036091
-0.02732463
-0.04308978
0.03876171
-0.00956761
-0.03858240
0.04841630
-0.00595111
-0.01477584
-0.05795995
-0.03508777
0.01298856
0.00874883
-0.01387603
0.05641572
0.01983956
-0.04683701
-0.00406099
-0.01284743
-0.03444662
0.02341165
-0.00920613
0.00925102
-0.02818874
-0.05645952
0.04026337
-0.00248525
0.03704976
-0.02702118
0.08163243
-0.00268241
0.02282574
0.00808494
0.00855818
-0.00694637
0.03683921
0.01958215
0.02351035
-0.01385799
0.01839571
-0.03124387
-0.00148975
-0.00286516
0.01133753
-0.03707024
-0.02562002
-0.00439282
0.04512316
-0.03879099
-0.01842976
-0.00185208
-0.03937076
0.01807383
-0.00201932
0.00933686
-0.03011920
-0.00704638
0.00003568
0.01516641
-0.00894555
0.00591080
0.01161808
-0.01640655
-0.02838314
-0.01531110
-0.01512589
-0.04372947
0.05764992
-0.00708504
0.03436143
-0.00490254
-0.01546642
-0.01077825
0.01928243
-0.01900434
-0.02335590
0.03619543
0.02458833
0.00190112
-0.02832344
-0.06679822
0.00570767
-0.00450947
0.05422738
0.03114968
0.02166151
0.00594237
0.00315552
0.11173984
0.00391123
0.00111622
0.00984215
-0.00695348
0.01947767
-0.05415775
-0.05326122
-0.04576496
-0.02441031
0.00515282
0.05015650
-0.00838493
-0.01912832
-0.01198004
0.04000575
-0.03332774
0.05637993
0.00753227
0.00812432
-0.04891098
0.03328942
0.03181521
0.05381737
-0.00501888
0.00497092
-0.04429121
-0.03299872
0.02742395
-0.03842455
0.03569759
0.06894322
-0.00055916
0.00543284
-0.00736930
0.00572914
0.00859006
-0.04466878
0.00559871
-0.00527577
-0.01717056
-0.06508915
-0.01522599
-0.01812119
0.00398465
-0.00679139
0.00751960
0.03055531
0.01353156
-0.00897360
-0.02232644
0.01058980
0.03110751
0.01121587
-0.07354066
0.00945727
0.06517606
-0.00331433
-0.01876663
0.04107674
0.01061435
-0.00332897
0.06724243
-0.02072719
-0.01216508
-0.14848097
-0.03596965
0.01634264
0.02632081
-0.02442238
-0.02202478
-0.00903562
-0.01679810
-0.01013311
0.04986512
0.01931192
0.01898697
0.01866947
0.04921094
-0.01771765
-0.04104732
0.04444824
0.00732457
-0.00342587
0.01041156
-0.02470561
-0.05306419
-0.00399869
-0.04489808
-0.02872935
-0.00851101
0.02661283
-0.01827545
0.03187792
0.02088237
0.01538974
0.09399837
0.07219634
-0.01372075
0.00387872
-0.00251816
-0.06698159
-0.06467511
0.03943750
-0.06974378
-0.02228401
-0.02027158
0.02110887
0.01960938
0.00283247
0.00583476
-0.02343013
0.05632666
-0.00949843
-0.01745826
0.00417298
-0.00364253
-0.00088336
-0.02283988
-0.02900786
-0.00521210
0.01319878
0.03396398
-0.01060401
0.00820788
0.03082865
0.02611379
0.04302059
-0.02535857
0.00478326
0.01446258
-0.04085278
0.01545461
-0.00870797
0.08199738
-0.02910905
-0.04755190
-0.01266050
-0.02942083
-0.00532562
-0.00320752
-0.05166711
-0.00263473
-0.01221643
-0.02049406
-0.03881931
0.01012658
0.02461666
0.03572796
-0.02994994
-0.03425433
-0.01706473
0.04252101
-0.02109581
0.00214421
-0.01225715
-0.03177266
-0.00086988
0.00128310
0.05142056
-0.04326186
-0.04584661
-0.00277682
0.01792800
-0.01520764
-0.00608842
-0.03458921
-0.01932073
-0.03904544
-0.07245953
-0.04793028
-0.00075776
-0.01651171
0.00272155
0.00629960
0.03991957
0.00014902
0.01224925
0.01657350
-0.03218769
0.14122535
0.02446887
0.04741491
-0.01782537
0.00570082
0.00777290
-0.01922114
0.02482999
-0.03780660
-0.02359972
0.00664220
0.01501652
-0.04586287
0.00675561
0.01366005
-0.02911979
-0.02439218
-0.04389306
-0.02109469
0.02730084
-0.00025675
0.03310367
0.01885901
-0.05417385
0.03503972
0.06900883
-0.01055590
-0.03856758
0.00930323
0.03632027
0.06781261
-0.06500480
0.01849009
0.00565110
0.01497182
-0.00264169
-0.01983077
-0.00322014
-0.00527842
0.00558393
-0.00739754
-0.02259004
-0.01537282
0.00053783
-0.02459721
-0.08211391
0.06453085
-0.01932388
-0.00482355
-0.01848627
-0.00258789
0.02539667
0.00086714
0.00368992
0.01577780
-0.00342829
-0.00754070
-0.00167608
-0.07450239
0.03243149
0.01166619
0.06494089
0.00603275
0.03936069
-0.00053000
0.01065756
0.01177767
0.03050976
0.01323606
-0.02617414
-0.03774297
0.01766463
-0.01928592
0.01038731
-0.01246638
-0.01090917
-0.04881373
-0.00658175
0.02386345
-0.03484955
0.02184246
-0.00128102
-0.05607582
-0.00234600
0.01408764
-0.00585707
-0.01818000
-0.00014529
-0.01170612
0.01042921
0.02798218
-0.02559768
-0.02879360
0.01751133
0.02393019
-0.04815596
0.01785000
-0.00700182
0.01290660
-0.05510311
0.03405255
0.01080644
0.03415580
0.04118806
-0.01644502
-0.01256639
0.00341684
0.02778600
-0.00646572
0.01128342
-0.04920898
-0.01399392
0.02672436
0.01667530
-0.00128215
-0.04132257
0.07478288
0.00418421
0.06117250
0.02030866
-0.00526900
0.00188105
0.00660972
0.00787227
0.00732149
-0.00724321
-0.10562764
-0.00235782
0.04298776
0.00704236
-0.06025729
-0.04538952
-0.00144685
-0.01642969
0.01329994
-0.01979151
0.00979665
0.03298070
-0.01510509
-0.00367306
0.01717978
-0.01263975
-0.00771545
0.01619816
0.04262103
-0.01511006
-0.03859416
-0.01376272
-0.08565746
0.08358102
0.01620759
0.00533357
-0.03631426
0.00554835
-0.00083398
-0.02452600
-0.03422013
-0.02293104
-0.02332390
0.05579046
-0.00123844
-0.02026295
0.00854639
0.08862992
-0.00880601
-0.01088166
0.03188157
0.02386594
0.07138184
0.00499058
0.00699807
-0.01691952
-0.00287625
0.01261357
0.00464792
0.00011330
-0.04010687
-0.01358001
-0.00268618
0.00269191
-0.01215441
0.00773679
-0.02637165
0.00745050
-0.01544112
0.01564989
0.02449588
0.02683245
0.02290789
0.01834994
0.04825093
-0.08114713
0.01227084
-0.02839492
0.00341988
-0.03698717
-0.00269127
-0.02031234
-0.03038321
-0.08200826
-0.06151253
0.00481445
0.02958483
-0.01591813
-0.00457004
0.01295536
-0.00435929
-0.02539478
-0.01454235
-0.00291071
0.02685023
0.01824103
0.00042122
0.05617456
0.00589571
-0.03426540
0.04148374
-0.03656190
-0.02626463
-0.00048014
-0.00599858
-0.00158268
0.04095877
-0.03075872
-0.01807826
0.01045595
-0.01328367
0.02539964
-0.03055522
0.01347802
0.00242849
-0.00811164
-0.01415076
-0.02287614
-0.01611900
-0.05630823
0.01243538
0.00971071
0.01518620
0.01644267
-0.05456333
0.02846555
0.00502985
-0.01923144
-0.02054980
0.13702430
-0.00619454
-0.01477879
0.00922931
-0.04810996
0.00758175
-0.05453403
-0.06033974
0.01507168
0.02690459
0.07971072
-0.04532219
-0.03485765
0.03058769
0.03710762
-0.05196323
-0.01834141
-0.04539137
0.00304122
-0.05391402
-0.02851017
0.03828799
-0.03173717
0.00154972
0.02264638
-0.03347323
0.02960793
-0.01483654
0.00758908
-0.03225256
0.00488245
0.01864599
0.01713860
0.01488170
-0.02786526
0.02464238
-0.04682105
-0.01879560
-0.01901880
-0.01838918
-0.06582975
0.03809664
-0.02789210
0.01292481
0.07245939
-0.05716435
0.03063912
0.03384725
0.03311836
0.08100405
0.11404542
0.03665653
0.02411660
0.08833334
0.02781298
0.01957143
0.00761117
-0.00801996
-0.02344591
-0.03947121
-0.03851514
0.03283268
-0.01285597
0.08943379
0.05187001
-0.03018629
0.02440521
0.02144481
-0.03491155
-0.00261061
0.00946344
-0.03247788
-0.01074923
-0.02057643
0.01103958
0.03519007
-0.03128692
-0.00175753
-0.03574911
0.01655623
-0.02436447
-0.03098937
-0.06070376
-0.04045875
0.03572989
0.01287077
-0.01828557
-0.02160141
0.01193610
0.00829275
0.01248191
-0.00157518
-0.01170078
-0.00704595
0.00670630
0.02186741
0.04613936
-0.00821201
0.03202539
-0.03202968
-0.00806066
-0.01274631
0.06323188
-0.02212797
0.01215572
0.02475083
-0.11142287
0.03444974
-0.01335304
-0.01758791
-0.00056767
-0.02101345
0.02019140
0.01091432
0.00362220
-0.03143923
-0.05354742
-0.06180376
-0.01976904
0.00314275
-0.07600477
0.01617595
-0.04934500
-0.03018770
-0.00258571
0.00865807
0.00548180
0.01679025
0.02860115
0.03468286
-0.05625030
0.00307933
0.04931353
0.12208300
-0.03057563
-0.04221959
0.01666155
0.01409762
-0.02553206
-0.00988505
-0.00543526
0.04395058
0.01875947
-0.01808607
0.02242042
0.00403779
-0.06226088
-0.02251629
0.04497382
0.01139462
0.01070252
0.02508982
0.07071481
0.01803337
0.04421246
-0.01671179
0.01656933
-0.05387807
-0.02524210
-0.01551270
0.01156306
-0.04851753
0.00845335
0.02685385
-0.01482073
0.00653307
0.04724037
-0.04185630
0.00031987
0.00752287
-0.01399994
0.00505531
-0.02098919
-0.00483881
0.12093460
0.00804589
0.01453429
-0.01988345
0.01207231
0.00026684
-0.01605538
-0.03680927
-0.00630355
-0.01650930
-0.01431464
-0.01174125
0.06381261
-0.02942353
0.01110904
-0.07091697
0.00625678
0.01097137
-0.00607849
0.02050415
0.02571914
-0.00405341
-0.00383592
-0.02193859
-0.01273295
-0.00879169
0.00566806
0.00122821
-0.00782579
-0.00682477
-0.01141624
-0.02284644
0.00883055
-0.02919147
-0.00509491
0.01203294
0.05423328
0.02610508
-0.01279389
0.06801908
-0.03173930
0.03571761
-0.03223651
0.00835242
-0.00273838
0.02152530
-0.00710594
0.01409739
0.00508441
-0.01681972
0.00990584
-0.00692601
-0.00724408
0.02655607
-0.03429898
-0.01832961
0.00393028
0.01059389
-0.03489447
0.04594610
-0.00889406
-0.00397394
-0.01196471
-0.00279417
0.03099610
0.00770701
0.05732202
-0.00469205
-0.00685098
0.00394676
-0.03329627
0.01925465
0.05935174
0.04532505
-0.03802980
0.00051559
-0.01111462
0.03943183
-0.01773007
-0.03261720
0.00082592
0.03611375
-0.03474709
-0.00442331
-0.04302069
-0.01227671
-0.05478220
-0.03119474
-0.00378342
0.01681751
0.00870300
0.01119213
-0.02453448
0.00232258
-0.01046906
-0.04990537
-0.00558542
-0.02728016
0.00412158
0.03555228
-0.00567554
-0.01455004
0.05759384
0.07936426
0.02197437
0.02317743
0.05251246
-0.02459026
-0.02957160
-0.02026696
-0.00957712
0.01391804
-0.02083770
0.01694164
-0.06451058
0.03814261
-0.00347774
0.01352874
0.00379327
0.02557780
-0.05267502
-0.02879233
-0.01078450
-0.03549302
-0.01639451
-0.07654658
0.00638550
0.00890926
0.00623872
0.00229915
0.01847707
0.02170385
0.03443528
0.01865051
-0.01646954
0.00529677
-0.03682792
0.02298198
-0.01893335
0.01836067
-0.04029632
-0.03595763
-0.00216836
0.04074803
-0.01024370
0.05192747
0.01305274
0.01799651
0.00448631
-0.01764072
-0.02135573
0.01092490
-0.01961328
-0.00303781
-0.01501214
0.00025152
0.00604265
0.05796831
-0.02422653
0.00812246
-0.00720182
-0.00793735
0.01895205
0.00310006
0.03475024
-0.00867977
0.01645703
-0.00816012
0.02562717
-0.01477053
0.00822568
-0.02734555
-0.03621607
0.01441027
0.01138338
-0.03392481
-0.00795815
-0.01384255
0.06581074
-0.01073613
-0.01224364
-0.00221473
0.03890982
0.02482100
0.01204144
0.02116205
0.05806252
-0.03548104
0.04790732
-0.02474597
0.02670470
-0.01468706
0.00320188
-0.00891338
0.00707020
0.02571727
0.00057146
-0.00859124
0.00549886
-0.00412116
0.01851581
-0.00477054
0.00074852
0.00545235
-0.00092354
-0.01549404
-0.00748026
0.03134318
0.00778234
0.02768381
0.00867260
0.01406051
0.02411201
0.01244393
-0.01070444
0.00554586
-0.04161949
0.01128992
-0.02014245
0.02580991
-0.00023506
-0.01540691
0.01353852
-0.02300217
0.03870689
0.00296929
-0.02815899
0.01042396
-0.02224488
0.03706775
0.00290134
-0.05729445
0.04328374
-0.01711527
0.02069610
-0.00291554
0.04393183
-0.01230445
-0.01030350
-0.02471695
-0.01486942
0.01183552
-0.01975587
-0.02581691
-0.01521377
0.03464505
-0.02360288
-0.02755922
0.03117402
-0.01728826
0.03955259
-0.00238788
-0.00831499
0.01856634
0.01304400
0.00116966
-0.01117749
0.01356281
0.00638765
-0.01165757
0.02795294
-0.00806901
-0.06682396
-0.00840579
-0.00644808
0.01336279
0.03781099
-0.04238446
-0.00949687
-0.01147320
0.00181358
0.02689050
0.02862045
-0.01128990
0.00919317
0.01601285
0.03934356
0.01435554
0.00146596
-0.02272943
-0.02650637
0.01034160
0.01131566
0.00193193
-0.02351214
-0.00131184
0.00011467
0.02840885
-0.04718825
0.00093938
0.00331910
-0.00064714
-0.02916386
-0.01048271
-0.00834709
-0.03858973
0.02002564
-0.07389411
0.00728012
-0.00052382
-0.04348982
0.00403321
-0.00151515
-0.03361024
-0.05420417
0.02492342
0.00810553
-0.00293080
0.00302133
-0.03365518
-0.00990217
0.03286779
0.03014852
0.00815596
0.01023805
0.02196695
0.03215048
-0.05033848
0.01567414
0.02138989
-0.03204524
-0.03748504
-0.00380458
0.04977795
0.01632191
0.00304413
0.00258505
0.00919682
0.05288411
-0.00415996
-0.02063795
-0.03475672
-0.04069943
-0.02137398
0.00581881
-0.03989448
0.03666445
-0.02440187
0.00642337
-0.01213132
0.03415861
-0.01841729
-0.01484653
0.00656650
0.00069245
-0.01769110
0.02650847
-0.06133382
0.00227389
-0.02798382
0.04531106
-0.00228164
-0.01014750
0.00725872
-0.07422052
0.02152066
0.00512043
-0.02277001
0.02567580
0.01443026
0.01436398
-0.03644435
-0.01244072
-0.00766677
0.00196564
-0.02406253
-0.01391790
0.05725028
0.01020639
0.01782934
0.04259300
-0.00705492
-0.00216615
0.02389823
-0.00997159
-0.04058881
0.04219359
0.05324565
-0.01109718
-0.01830863
-0.01163968
-0.01549697
-0.03099999
-0.01131923
0.00429849
0.02073449
-0.00773179
-0.00474364
0.05275348
-0.01473868
0.02894202
-0.00734220
-0.06196171
0.01860852
-0.02986173
0.01756325
-0.01477457
-0.02685015
-0.00421075
0.05204061
-0.01662138
0.09903068
0.01674048
0.01369423
0.02371738
0.01643118
0.00754662
-0.01593298
0.01246553
-0.00971815
-0.04589971
-0.01026981
-0.00508900
-0.03484231
-0.05796463
-0.02575664
0.00906702
0.01202633
-0.00117463
0.01477257
-0.01195972
-0.02577865
-0.02609284
-0.01411378
0.00309451
0.00780173
-0.02123125
0.01388702
-0.03848174
-0.05544986
-0.01084824
0.02633815
0.00043499
-0.00526519
-0.02204313
0.02638271
0.04786126
-0.01263938
0.02779845
0.03010344
-0.02828290
-0.01853505
0.00629230
-0.01628523
0.03165421
0.03164774
-0.01623907
-0.01060473
0.01615916
-0.00376058
-0.01690103
-0.02551545
-0.02310352
0.00435660
-0.01003036
0.02035158
0.02864060
-0.01009345
0.03266295
0.03267031
-0.00954220
0.00743672
0.02531572
-0.02000358
-0.01725158
0.00026767
0.02756865
0.01767989
-0.03675755
-0.02486064
0.04004421
-0.00320667
-0.01497943
0.00409305
-0.01412326
-0.00936886
0.00553314
0.02546703
-0.00355989
0.01014775
0.02607411
-0.00487451
0.08286797
-0.00922641
-0.01060400
0.03099135
-0.02178029
0.00093085
-0.02314039
0.00537785
0.01268677
-0.04154558
-0.00490164
0.02789198
-0.00718310
-0.02468136
-0.00575492
-0.02726304
0.02973618
0.00485656
-0.00851151
-0.02506383
0.00074435
-0.02809343
0.01380060
-0.05335064
0.05085765
0.00987796
-0.02367775
0.02365121
-0.04537146
0.01896250
-0.02293043
0.02137751
0.02105050
-0.01454741
0.00025460
0.01988208
-0.04996075
-0.01534325
0.01570931
-0.01817118
-0.00982671
-0.01110420
-0.04540663
0.00555730
0.04193999
0.08869809
0.01237695
-0.02094237
-0.08223163
0.03017070
0.01884880
0.00054183
0.03887315
-0.00620822
0.08444753
-0.02365815
-0.02858598
0.01162012
-0.01532915
-0.00895701
0.00477303
-0.03352940
-0.03962289
0.01266259
-0.01195816
0.06813318
-0.00956602
0.03034768
0.01795352
0.01129181
0.01020031
-0.02318034
-0.01746345
-0.03007395
0.03638120
0.02407176
-0.00387700
0.01574290
0.03078753
0.01457388
-0.05017776
0.00170508
-0.01334587
-0.02246800
-0.01355470
-0.00145144
0.01904746
0.00322425
-0.05198377
0.02320861
-0.07945972
-0.02733537
-0.00955703
-0.03524036
-0.01875203
-0.02929870
-0.01436530
0.01092502
-0.00734301
0.01915565
0.02240734
0.05732941
-0.00053607
0.01434527
-0.05128276
-0.00903662
-0.02188410
-0.03639542
-0.03276646
0.03330259
-0.00371050
-0.01178793
-0.01400511
0.06251469
0.00706428
-0.03607738
0.05427390
0.02932558
-0.03431705
0.02025637
0.03030802
0.06425353
0.00929175
-0.01351314
0.01025286
-0.08477690
0.00417575
0.00484666
0.01719150
0.02125986
-0.02721020
-0.01938898
-0.00935291
0.00076030
-0.03694912
0.01438815
-0.08666372
0.00071378
-0.04582807
0.01729658
-0.02208450
-0.04819604
-0.03086989
0.01626483
-0.01811904
-0.02282895
-0.05195847
-0.01153696
0.00389892
-0.02991839
0.01348632
-0.00566881
0.00435054
-0.02299567
-0.01238427
-0.00662143
-0.04451837
-0.00748243
-0.03437270
-0.04501226
-0.00744637
-0.05001594
-0.03303830
-0.01744035
0.02560997
0.00399610
-0.01022131
-0.01044746
-0.01725849
0.02845860
0.02092746
-0.01864335
-0.02604538
-0.02117130
0.00956061
-0.07043803
0.00439685
-0.04145546
-0.01091864
0.01297714
-0.01288728
0.01078852
0.03544759
-0.00511502
-0.01363573
0.07238318
-0.01919431
-0.01071430
0.00564294
-0.02614572
-0.01967620
0.01684038
0.03205235
-0.02157139
0.06752995
0.02089224
0.02442935
0.01695683
-0.04765690
-0.05278264
0.00890599
-0.02722683
0.05924806
0.01801333
-0.01681909
-0.04907258
0.00125691
0.02299431
0.05136926
0.01036296
0.01210896
-0.01527969
-0.00918645
0.00877651
-0.03294021
-0.06716952
-0.01028803
-0.02751036
-0.00236086
-0.03055569
-0.03286358
-0.02637680
0.02211490
0.00249677
-0.03613684
-0.03838376
-0.01072820
0.03320502
0.05505029
0.00138334
0.01506827
-0.01600775
0.00454987
-0.03742259
0.03550049
0.00413810
-0.04239974
-0.07331517
-0.01175105
-0.03695817
0.02206039
0.02072370
0.00981175
-0.00550975
0.02780493
0.01879540
-0.00303664
-0.04043813
0.00943869
-0.02430386
-0.04009168
0.01832042
0.00784953
-0.01783965
-0.01672888
0.03662875
0.02438273
-0.02337880
0.01481820
0.01096453
0.03677248
-0.03029320
-0.00725083
0.03032035
0.01124135
-0.01367309
-0.00102377
-0.04412083
-0.01350514
0.00166371
-0.00522398
-0.00049965
-0.03734512
-0.01328962
0.02954993
-0.01654129
0.00421281
-0.02422674
-0.00098439
-0.00593112
0.03077998
0.01863414
0.03205537
0.01184010
-0.02587100
0.00268147
-0.02992049
-0.01006829
-0.00570244
-0.03375643
0.03379908
0.00037902
-0.02427000
-0.02645599
0.05885350
0.03133262
0.02279922
0.01345753
-0.02191817
0.01202130
-0.00022860
0.00012044
-0.01123108
0.03359604
0.02456707
-0.04660744
-0.00478824
0.02186694
-0.01110694
-0.04400051
-0.01627650
-0.06900444
0.01634104
-0.02742404
0.00167817
-0.02847210
-0.02839210
-0.02334654
-0.00995609
-0.09930076
0.03102430
-0.03950394
-0.03281612
0.01518716
0.06383599
-0.01463274
-0.01049125
-0.02483705
-0.02668744
-0.07111701
0.03785258
-0.00927174
-0.02667907
-0.01775484
-0.02226249
-0.05889770
-0.07758366
0.01833308
-0.01959887
0.02435345
0.00592243
-0.01841670
-0.02776041
0.00135922
-0.02596447
0.01663352
0.00728367
-0.01508683
0.03661221
-0.01050441
0.01471901
-0.00315243
-0.00769083
-0.00501353
0.01369634
0.01747287
0.01058105
0.02783887
0.02449590
0.04091768
-0.02067465
-0.01945644
0.00749480
-0.02898321
-0.03315885
0.01799900
-0.02593143
0.03945428
-0.03419424
-0.00858803
0.01268027
0.01375297
0.01653347
0.02668640
-0.00993848
0.02986587
-0.05847644
-0.02446430
0.00847896
-0.04913791
0.00641936
0.01837623
-0.01554092
-0.01668113
-0.04173387
0.06992450
-0.02275477
-0.02451036
-0.02170841
0.02071146
-0.02740810
-0.02621015
0.03644210
-0.03951007
-0.01770989
0.01669725
0.01089500
-0.01172564
-0.01662624
-0.00935971
-0.00687011
0.04384506
-0.02025952
-0.00109805
-0.00897628
-0.00516222
0.00659130
0.02048362
0.02496286
0.02424802
-0.04994231
0.01961213
-0.03252427
0.02145803
-0.01297955
-0.05235131
-0.01348763
0.03087229
-0.01813759
-0.03447972
-0.02863965
0.01835405
-0.00221604
-0.07233615
-0.01953690
0.03132144
-0.00693543
0.04758983
0.01257191
-0.03482624
0.01170836
0.04554421
0.03926647
0.03270910
-0.01739592
-0.02868749
0.03354742
-0.03760996
-0.00795877
-0.01666814
0.01635433
-0.06694017
-0.04119298
0.06493982
0.01208142
0.02137108
0.05526590
0.00151184
-0.05108031
-0.03461431
-0.02309100
-0.00110401
-0.03899790
-0.01480557
-0.02253099
0.04850369
0.00670607
0.00850449
-0.03255223
-0.04202380
-0.00225954
-0.02016422
-0.02910388
0.04124882
0.00683481
0.00109118
0.01260200
-0.02170210
0.01354106
-0.01653351
-0.00464988
0.05582479
0.05007620
-0.01860646
-0.02957649
-0.00599492
-0.00520532
0.01865394
-0.00447885
-0.04527184
0.02853729
0.01806987
-0.03899262
-0.01737661
-0.03194908
0.02912699
-0.06633677
0.03298767
0.07000855
-0.06241275
-0.01667038
-0.01688283
0.02467315
-0.02039356
-0.01638843
0.07289863
-0.01709691
-0.01774415
0.02569958
0.00748748
-0.00849314
0.00192982
-0.02895460
0.03422923
-0.01415186
0.04005218
0.00671522
0.02516442
-0.00026427
-0.01293881
0.04960252
-0.02158021
-0.05086401
-0.00771647
-0.02155923
0.02245984
0.02688531
0.02220622
0.01997955
-0.02391114
-0.00403486
-0.00602601
-0.01372228
0.03555887
0.00011976
0.00536207
-0.03122091
0.03253657
0.02372785
0.01033248
-0.01548808
0.01485089
-0.00013476
-0.00041770
0.00159367
-0.00197248
0.00353901
0.00256124
-0.01593520
-0.02652385
0.01569579
-0.03564031
0.00639790
0.00020269
0.00109300
-0.02559711
0.00544567
0.00130764
-0.00667472
-0.02991391
-0.00845758
0.00922564
-0.02295136
0.02360715
-0.03008671
0.01381566
-0.03686262
-0.01003496
-0.02016413
0.04751577
0.01643446
0.00301755
0.00650644
-0.01813754
0.03316184
-0.03033774
-0.02491745
-0.09565978
0.03475541
-0.04999447
0.01604030
-0.03695794
-0.04470741
0.03950262
0.03062315
-0.02373085
0.01092739
0.03249176
-0.02818171
0.01512601
-0.01015451
-0.03914853
0.03511472
-0.13168444
0.03346268
0.03360362
-0.00980254
0.01931481
0.06160852
-0.01647792
-0.00717734
0.00029222
0.01454934
-0.06296140
-0.02492056
-0.04334386
-0.01131900
-0.00463051
-0.03287317
-0.08400942
-0.05023297
-0.03332838
-0.06456117
0.03168287
-0.01464972
-0.00386825
-0.00611434
-0.00840328
-0.00047544
-0.02059292
0.05184852
0.01841011
-0.00994492
-0.08942974
-0.00325804
-0.00000336
0.01748194
-0.00503666
0.00667351
0.00216239
-0.03761950
0.01274324
-0.01406072
0.05828365
-0.04621878
-0.00145296
-0.00040367
0.03968031
0.00906302
0.02293326
-0.03538756
-0.00961748
-0.01413609
0.05673767
0.01374906
-0.00041463
0.01793855
0.02354386
0.02694185
-0.00176667
-0.03758632
0.03784337
0.00776665
-0.03419672
-0.01997604
-0.05228205
0.01761456
-0.00614251
-0.03900300
0.00514282
-0.00805108
-0.02489228
0.02881713
-0.05112130
-0.01512625
-0.02066760
0.02533836
-0.01847476
0.02581871
-0.04617911
-0.01224451
0.01752517
0.00231463
0.05312829
0.00927200
0.02073930
0.01500518
-0.04409127
0.02338059
-0.04789685
-0.02024781
0.03675721
-0.05079813
0.03028332
-0.02351808
0.00064934
-0.01081143
0.02170977
0.00770089
0.01534293
0.01639889
0.01087558
-0.08157765
0.01461953
-0.00553860
0.00692447
-0.00424159
0.03042461
-0.00233999
0.00972109
0.03605824
-0.00535620
-0.01407543
-0.00745691
-0.00780985
-0.00990768
0.02518225
0.00295157
0.00602824
0.02155204
-0.01473779
-0.01603397
-0.01114271
-0.01957270
0.00090073
0.01620709
0.01502905
0.00546480
-0.00794576
0.03083488
0.00737302
-0.07479591
-0.00582935
0.01046663
-0.03982268
0.00109385
0.01483888
-0.00641866
-0.01152475
0.00536151
-0.00569685
-0.00028471
0.01353785
-0.00011914
-0.00103393
-0.00970981
0.00023215
-0.00466235
-0.00066541
0.00133140
-0.01973149
-0.00243444
0.04958935
-0.01729953
-0.01592393
-0.00680064
-0.00174073
-0.01777389
-0.00956473
0.01468473
-0.02218836
-0.02009582
0.00356819
0.02084347
-0.00761335
-0.00123492
0.01498955
0.02507437
-0.00911062
-0.01057183
-0.01578794
-0.00599230
0.02189177
-0.02079783
0.00029786
0.02056330
0.01772732
-0.00455896
-0.00778940
-0.00658142
-0.02672442
0.00853874
0.00688619
0.00415522
-0.00645584
-0.08287838
0.00065314
-0.00688154
-0.00942168
-0.02001882
-0.00316056
0.02932810
0.01054846
-0.00500850
-0.01919709
0.01419069
-0.00280415
-0.01889394
-0.00928608
-0.03364286
-0.01557515
0.02001725
0.02780595
0.01448419
0.00378541
0.01162083
-0.00127425
-0.01591479
-0.01498504
0.02359586
-0.00021622
-0.03366891
-0.01381778
0.00978175
0.00586256
0.01349516
0.00964986
-0.00123315
0.02684524
-0.01494345
0.02933377
-0.01220481
0.03484242
-0.02743365
0.00794840
0.01247418
0.02263482
0.00276095
0.00835393
-0.02785910
0.00672540
0.00935044
0.00381008
0.01201952
0.00235093
-0.00735943
0.00674815
-0.01951228
0.01757543
-0.00409095
0.02397886
-0.03064897
0.01083702
0.00121654
-0.01524126
-0.03395906
-0.00572606
0.01696267
-0.01648856
0.01584565
0.00686982
0.03957109
-0.02879914
0.00029904
0.04508168
-0.03441021
-0.01923068
0.00154292
-0.00449296
-0.03410386
0.01593952
-0.03231912
-0.01555105
0.02437805
0.03247812
0.00680647
0.01114288
-0.02408594
0.01728341
0.01255326
-0.01250334
-0.00317425
0.00451419
-0.00097317
0.05247106
0.01522351
-0.00257853
-0.03956446
-0.00381576
0.00906039
-0.01758951
-0.00519414
-0.00859513
0.00508563
-0.03823060
0.02760063
0.00077813
-0.03993221
0.02764777
0.01476039
-0.01490485
-0.06561051
-0.01945135
-0.02049606
-0.03184905
0.01374289
0.00044640
0.02739642
0.01934221
-0.01563141
0.03909050
0.01527978
-0.02518641
0.00860057
-0.01116725
-0.01279339
-0.01244290
-0.00314671
-0.02314254
-0.02339024
0.00584917
-0.00863075
0.01661768
0.01353815
0.00579331
0.02775716
-0.01913510
0.00741638
-0.00401428
0.00795504
0.01521992
-0.00434331
-0.01670394
-0.01975210
0.08115844
0.06669115
0.00475282
0.02341786
0.00839789
-0.00075689
-0.00376564
0.03631116
-0.00595579
-0.10086060
0.03974294
-0.03370192
-0.01056466
-0.00205845
-0.01350895
-0.01712120
-0.01781755
-0.02418843
0.02370706
-0.00400455
-0.00857467
0.02893491
-0.05946610
-0.02427159
0.03026811
-0.00085641
0.00664014
0.00022806
-0.00192750
-0.03338392
-0.03372828
-0.02974903
0.01298103
-0.00496805
0.01423712
0.01655329
0.02684073
-0.03348137
-0.01487521
-0.03722842
-0.01371133
0.00856760
-0.00195542
-0.01659588
0.01898498
-0.00678468
0.00245929
-0.02882127
-0.01359640
0.02392355
-0.02352946
-0.02483711
0.00929926
-0.01485549
0.01473021
-0.01093499
-0.01879728
-0.00342734
0.02232940
-0.02848204
0.01804935
0.01138280
-0.00637870
-0.00635444
0.03149105
-0.00200037
-0.03455882
-0.03214392
0.02265426
-0.00331974
0.00391628
-0.00354764
0.00202551
-0.03478799
0.00240003
0.00685683
-0.01377386
0.04400465
0.06682542
0.00452187
0.04308300
-0.02360151
-0.00680580
-0.04437825
-0.03264703
0.03088883
-0.02154642
-0.08461081
-0.04341922
-0.00875138
-0.00281326
-0.01320220
0.00389160
0.01581249
0.01624007
-0.01897202
-0.02554717
-0.04831850
-0.02571729
-0.01798987
0.02897832
0.02261790
0.01031932
0.00004143
0.00573495
-0.04126983
-0.00214560
-0.00684121
0.00919500
-0.00790520
0.01533709
0.01402681
-0.00088549
-0.00788351
-0.00487793
-0.03390667
0.02768801
-0.01237120
0.06125619
0.00879230
0.00550598
-0.01338055
-0.02022266
-0.01029146
0.03747366
0.02064249
-0.06862254
0.00514552
0.00102878
-0.02458083
0.00804393
-0.00778274
0.01347070
-0.02844018
0.00998056
0.03667553
