0.00279212
0.00345599
0.00812163
0.00510855
0.00838822
-0.00009715
-0.01205035
0.01491290
-0.00653439
0.00027895
-0.00235698
-0.01683729
-0.00429862
0.01331918
0.01394469
0.02663997
-0.00332596
0.03726386
-0.00773258
-0.00374945
0.00765438
0.00459142
-0.02594593
-0.00555632
-0.00275021
0.00125172
-0.01024557
0.00234302
-0.00663037
0.01265689
-0.00028204
-0.02073007
0.02850500
0.03835526
0.00844779
0.02508526
0.00503534
0.00033502
0.00037031
-0.00502760
0.00240337
0.00515305
-0.00549094
-0.02072227
-0.00553499
0.01723371
0.01083857
0.00940083
-0.00516514
0.00849000
-0.00762209
0.02621947
0.00254189
-0.00805292
-0.01353569
-0.02256024
0.02477869
-0.00611066
-0.01244921
0.01026896
0.01046198
0.00884418
-0.03405859
0.03115281
-0.02110929
-0.00172978
-0.00461929
-0.02156105
0.01404864
0.00063406
0.00647840
0.03159011
0.00361363
-0.03402723
-0.03412650
-0.01114502
-0.00926889
-0.00765239
-0.00702083
-0.01434761
-0.00008445
-0.00632492
-0.00796822
0.00569850
0.00634998
-0.00844729
0.03415189
-0.02275069
0.00277403
-0.02472898
-0.00381568
0.00456905
-0.00058923
-0.03125174
-0.01038902
-0.00677307
-0.02056845
-0.01818008
0.01731235
0.01725423
0.00558069
-0.00327399
0.00526036
0.01233172
-0.02691903
-0.01721409
-0.01712782
-0.02042971
-0.00810874
-0.01717272
-0.00386015
0.00602184
0.02878700
-0.02373231
-0.02782193
0.00092760
0.01282396
-0.02083190
-0.00513100
-0.00933416
0.00500185
0.01701229
0.00585608
0.02044039
0.02353932
0.00522849
-0.01392116
0.00607881
-0.00159561
0.00561816
-0.03539254
-0.01378262
0.03598072
-0.00505361
-0.02212829
-0.03425305
-0.00393870
0.02843713
0.00846979
-0.01136625
-0.00446198
-0.02438370
0.00467366
0.03180450
-0.00514274
0.01031633
0.01210062
-0.01726878
-0.01459363
-0.01074286
-0.00989406
-0.02549714
0.00344574
-0.03886846
0.03173105
0.00097811
-0.00151604
-0.00331556
-0.00511926
-0.02674804
-0.01105386
-0.00067700
0.02333151
0.01431477
0.00772880
-0.00694981
0.00005956
-0.00603296
-0.00041518
-0.01852875
-0.00449993
0.02756360
0.02624882
0.03656498
0.02043069
0.01323386
0.03012336
0.00652440
0.00514936
0.01514164
-0.02260667
-0.00380393
0.07013915
-0.00816512
-0.00748217
-0.00067368
-0.00170978
0.00144086
0.00307980
-0.00923467
0.00109360
-0.01988271
0.05286261
0.00637035
-0.01471205
-0.00261844
-0.02629410
-0.02495212
-0.01964195
-0.02897547
-0.01176597
0.00895684
0.00198825
-0.01292514
-0.03527200
0.00651060
-0.01146793
0.00791454
-0.01155889
-0.00193229
-0.02101723
-0.00318390
0.01163585
0.01379442
0.03310693
-0.00300692
-0.02154607
0.02498013
0.00419800
0.01621279
-0.00886138
-0.01059466
-0.04748940
-0.02049196
0.00372269
-0.00640936
0.00292227
-0.00885334
-0.00923702
0.02629976
0.05274830
0.01272712
-0.02336112
-0.01085909
-0.01147568
-0.00766415
-0.05339964
0.01770848
0.00377681
0.00123683
-0.00138659
-0.02409610
-0.00206522
-0.00659911
0.00064055
-0.00456024
0.00816188
0.00184609
-0.00562880
0.00057229
-0.03174816
-0.00842816
-0.01515086
-0.01903790
0.05095235
-0.00172585
-0.01124168
-0.02814698
-0.00137279
-0.01492492
0.02096574
-0.02153314
0.00774672
-0.02642638
0.06170561
0.00752923
0.00012348
0.01361491
0.02587341
0.01345331
0.00949604
-0.00512354
-0.00922533
0.04266027
0.01816773
0.00083138
-0.00363797
0.00880894
0.01267418
-0.00387892
-0.02036229
-0.00854085
0.01017735
0.00677654
-0.00521160
0.00623669
0.01018630
-0.01533300
-0.04631321
0.00271824
0.00041645
-0.02526215
-0.02358302
0.00115601
0.00359997
0.00783702
-0.02340949
-0.00777524
-0.00101892
-0.00650073
0.00247404
-0.00095427
-0.01461167
-0.01078489
-0.01522695
-0.00781673
-0.01143643
0.00671886
-0.00379898
-0.00046897
-0.00723101
0.02446833
0.00553899
0.01219913
-0.00535845
-0.01444539
0.00325483
-0.03893671
0.00268273
0.01497930
0.03398268
0.00416107
0.03222805
-0.04457029
0.01343113
0.01406945
-0.02287720
-0.00145637
0.02037261
0.00448368
0.01147563
0.00865124
-0.00648072
0.01757889
-0.01955995
0.00743446
0.00209743
0.01129873
-0.00040116
-0.01549807
-0.02393753
0.00060442
0.01827296
-0.00547523
-0.01400572
-0.00978300
0.00809166
-0.02961182
0.00143219
0.03681567
0.01671625
-0.01654057
-0.01538931
-0.01292529
0.00488911
-0.01409768
0.01103244
-0.00213257
-0.00975402
0.00301690
-0.02273781
-0.00788669
-0.01025005
0.03328707
-0.05903164
-0.01875633
-0.00055475
0.04502910
0.02610298
-0.00342059
-0.00399011
0.01264594
-0.02473993
0.00286139
-0.01405421
-0.00506907
-0.02582646
-0.00024884
0.01135227
-0.02702561
0.00564236
-0.00002746
0.00829878
0.03029088
0.00750944
0.00139433
0.00767089
-0.01178791
-0.02117135
0.01283436
0.01666049
0.01820289
0.00475911
0.01997065
0.00694593
0.00743514
0.01296042
0.03092037
0.02641165
0.02531826
-0.03030602
-0.00143004
-0.01681469
-0.02849520
-0.01218486
-0.01348635
0.00876279
0.01145584
0.00232194
0.01701142
-0.02175412
0.03331282
0.00576046
-0.02862366
0.02363601
0.00525043
0.02874408
-0.02462607
-0.00427946
-0.00183670
0.01097653
0.03195429
-0.00068257
-0.00286114
0.02865379
0.01108233
0.02012419
-0.00509756
-0.00724115
0.04212212
0.01439225
-0.00858101
-0.00580569
-0.02363807
-0.02981935
0.01975059
-0.02342356
0.01011039
0.00681083
-0.01944365
-0.00285808
-0.00719582
-0.02754017
-0.04532753
-0.01646377
-0.05829866
-0.00520253
-0.00923066
-0.01062185
-0.00692437
-0.01973515
-0.00331360
-0.00562257
0.02776480
0.01222162
0.00738292
0.00171839
-0.02220432
-0.00508888
-0.02567733
-0.00666569
-0.00450686
-0.01781711
0.00133115
0.02120036
-0.02871015
-0.00042099
0.00136531
0.03327806
0.02064325
-0.00158029
0.01484937
-0.05465965
-0.00074881
0.00117917
-0.01835584
0.00262848
-0.00708196
-0.01952233
0.04215536
-0.00759960
0.00738228
0.02068924
-0.00170764
-0.02721347
0.01054186
0.00647388
-0.01728691
-0.04760626
-0.00065921
0.01050042
-0.00636012
0.02372839
0.00183166
-0.00315315
-0.01263500
0.00876297
0.01579426
0.01186302
0.01164209
-0.01064813
-0.00508591
0.02886886
-0.00853692
-0.01767338
-0.00103286
0.00851665
-0.00861126
0.00217441
0.00035543
0.00646800
0.01146372
0.01806221
-0.00742004
-0.02808968
-0.02434094
-0.01511896
-0.00631115
-0.03303957
0.01754891
0.01804408
0.02193044
-0.01512185
0.02312462
0.00112613
-0.01652677
-0.00458451
-0.01286645
-0.00756592
0.01090911
-0.01333450
0.02598591
0.00237658
-0.00513820
0.00289666
-0.00119653
-0.00257842
-0.01756862
-0.03062687
0.01214241
0.01567494
0.00932204
-0.02433489
0.01043290
-0.00685039
0.00141748
-0.00492641
0.00762510
0.00209385
0.00358524
-0.00339617
-0.01126403
0.00163471
0.00004520
0.00781711
-0.00743946
0.01238430
-0.02050291
0.03813137
-0.01709204
-0.02312072
0.00564234
0.00533793
-0.01001178
-0.00059371
0.01221723
0.01604635
0.00083795
-0.00340179
-0.01017803
-0.00011434
-0.03437257
0.00034660
-0.01825074
-0.00441492
0.01090874
-0.02093195
0.02346436
0.01696207
-0.01140147
-0.02929943
0.01434724
0.00160924
0.02544779
-0.02260099
-0.04105676
0.00669993
0.00027165
-0.03849566
-0.00697530
0.00386103
-0.00919956
0.03108164
-0.00751400
0.01645682
0.03637815
-0.00844241
0.00167556
0.01276118
-0.01900272
0.00682163
-0.00618427
-0.02866354
0.03018564
0.00911394
-0.02522759
-0.00382042
-0.00437403
-0.02849051
0.03338972
0.00719121
0.01835196
0.02627649
-0.00813258
-0.00137730
-0.00123158
-0.00272429
-0.00744462
-0.01585837
-0.04019602
0.00218650
-0.01171453
-0.02378492
0.02234656
-0.02631418
-0.01567797
-0.00851813
-0.03383632
0.01020129
0.00812892
0.04092543
0.04993324
-0.01158381
-0.00630382
0.00713939
-0.02561387
0.00952633
0.01235264
0.00196913
-0.04622312
-0.00564969
-0.02242831
0.00921572
-0.04146233
-0.00644693
-0.02512823
-0.00274937
0.00223870
0.01962332
0.02749032
-0.02227787
0.01702585
0.01830423
-0.00305328
0.01255023
0.00768918
0.00163710
-0.00418601
-0.00093377
0.04612632
-0.02462705
-0.00219867
-0.04740382
-0.01435549
-0.00496846
-0.00178083
0.00775637
-0.00833187
0.00102095
-0.00350233
0.01044293
0.01474524
-0.03974750
-0.01642107
-0.02174451
-0.00432407
0.00774106
0.00806243
0.01154461
0.00254513
-0.01951579
-0.01974759
-0.03239934
0.00669762
0.05681051
-0.00655036
0.02365098
0.01275323
0.00286854
0.00079593
0.02513008
-0.03081277
-0.01511559
-0.03184228
-0.00383970
0.01857365
0.01836155
0.00359758
0.01193221
-0.00333932
0.02352893
-0.00502598
0.01082949
-0.02170794
0.01325108
0.03396599
0.04082678
0.00742012
0.02341323
-0.02269929
-0.00305078
-0.01240226
0.00322626
0.00649436
-0.00344021
-0.00182030
0.01045464
0.02912154
0.00351442
0.00156982
-0.01019884
0.00506816
0.02097349
-0.00232565
0.01777972
-0.00411685
-0.02321890
-0.01618475
0.02359662
-0.00966848
0.04414698
0.03799547
0.00250414
0.05156115
-0.01911216
-0.06122205
-0.01481531
0.05087344
-0.01988886
-0.01504559
0.00252075
0.01107559
0.00574058
0.00025197
-0.03121944
0.03172443
0.01016703
0.00653749
-0.00796655
-0.02582678
0.02659876
-0.00749891
-0.01561980
-0.02387632
-0.00221545
-0.02014901
-0.00803277
0.00539854
0.01292972
0.00435906
-0.00373796
-0.00533396
0.01409773
0.03319494
-0.01592283
-0.01764227
-0.03427982
0.00379483
0.01747418
-0.01718661
-0.02982738
0.02568531
0.00347050
0.01826680
0.00885808
-0.01109980
-0.02254601
0.02430071
0.01154430
0.06424362
0.01617380
0.01532395
-0.00301870
-0.00947919
-0.00465824
0.01146416
-0.00903188
0.00958635
-0.02099593
-0.02349304
0.00677630
-0.00509092
0.02521158
-0.01220271
-0.00428349
-0.03214867
-0.01887541
0.01113808
0.01985868
0.00749596
0.00445793
0.00702603
-0.04161385
0.03654559
0.01129668
-0.02766383
-0.01802378
-0.01030817
-0.02407800
0.01357702
-0.03097854
-0.01530025
0.05122972
-0.02003678
0.00951417
0.01187109
-0.00883670
-0.00452969
-0.01461887
0.00828424
0.02690572
0.00279299
-0.00831165
-0.00338544
-0.00693693
-0.05532622
-0.00294972
0.01166633
0.01091763
-0.00493660
0.00250360
0.00890278
-0.01977784
-0.01204688
-0.01117173
-0.02624395
-0.01375255
0.05561429
0.01707768
-0.02006713
-0.01786144
-0.01763601
0.00667308
0.02195632
0.03137013
-0.01064214
-0.00679419
0.01990469
0.01476017
-0.00393849
-0.00037043
-0.00777985
0.00424963
-0.00151111
0.00850732
-0.03983841
0.01843761
-0.05221580
-0.02375404
0.04696047
0.10564211
-0.00087059
-0.02494768
-0.00984913
0.02216816
0.00203593
-0.00130032
-0.02166633
0.01018967
-0.00005589
-0.02598765
-0.03278323
0.02249222
0.01521763
0.00977484
-0.00225745
0.02103695
-0.04330011
0.04258914
-0.00903187
-0.04670576
0.00116165
-0.00349652
-0.02871560
-0.00921464
-0.00379682
-0.00275181
-0.00854051
0.00267510
-0.01881504
0.04097825
0.00746675
-0.00357821
0.00021760
-0.01152171
-0.04461071
-0.00659690
0.02740653
-0.02213946
-0.02649388
-0.00572669
0.00548371
-0.00228120
-0.00492537
-0.04752403
-0.02602927
0.00785050
-0.00048014
-0.02581205
-0.01842523
0.02101898
0.02252479
-0.02494280
0.00343761
0.01136112
-0.01057562
-0.04146690
0.00353826
-0.02688068
-0.00864971
0.01530549
-0.01397348
-0.00752753
0.01717229
-0.00277982
0.01065846
-0.01691925
0.01499235
0.01152543
0.00448194
-0.05348085
0.00169949
-0.00004083
-0.00968635
0.01249449
-0.03704189
-0.01424528
-0.01252589
-0.00184696
-0.01176466
0.00814189
-0.00726485
-0.02714465
-0.01435688
-0.01704332
0.01071205
0.00761296
0.02551067
-0.00893169
0.01227385
-0.00529106
0.00386453
-0.00816607
-0.01103650
0.00209425
-0.03935096
0.00648164
0.04020882
0.01432729
-0.00255761
-0.01747766
0.02748873
-0.00372699
-0.01494842
-0.01564432
-0.00304340
0.02579325
0.00869832
-0.02707204
0.00017626
-0.01345423
-0.01230855
0.02055425
-0.01106045
0.00390672
-0.03381987
-0.00374638
-0.02409864
-0.00998987
0.00310742
0.00299541
0.00183623
-0.01544839
-0.01034147
-0.01279704
-0.02020138
-0.00181076
-0.02004982
0.01052236
-0.00448488
0.00954347
-0.00317110
0.02903578
-0.00095915
0.01584195
-0.00103540
-0.02622266
-0.01081505
-0.01043870
0.01751826
-0.01617851
-0.00142845
-0.01510698
0.01130245
0.00603755
-0.02214552
0.00484518
0.00367761
-0.02658538
0.00813919
0.00918344
0.00303535
0.00605060
0.00428951
-0.00350738
-0.01295345
0.00725312
-0.01252482
-0.00007298
-0.00058991
0.02366056
-0.00205890
-0.01053948
-0.02178539
-0.01164105
0.00616862
-0.03287551
-0.05406515
0.00931601
0.00186567
-0.01951565
0.00795643
-0.04360401
-0.00063726
-0.05236608
-0.01327505
-0.00332097
-0.04226084
-0.02799943
-0.00036384
0.01467658
0.01003270
-0.01865656
0.02580091
0.00554343
0.01900090
-0.00100675
-0.01030776
0.01522050
-0.00315237
-0.01346979
-0.00261891
0.00591668
0.01580446
0.02578851
0.01787885
-0.01788805
-0.01647918
0.01498164
-0.01149503
-0.00226090
-0.01032132
-0.01351216
0.01933100
-0.02467495
-0.00891116
-0.00437839
0.01833297
-0.00774620
-0.00335675
0.01339756
-0.02016100
0.02216744
0.00018750
0.00875977
-0.00048527
-0.00404441
-0.00283162
-0.00052055
-0.01526162
-0.00708551
-0.01011409
-0.02410981
0.02721695
-0.02916190
0.02017717
-0.00597208
-0.00046162
0.00262182
0.01760028
0.00242771
0.02138365
-0.00715776
-0.00121865
-0.01691207
0.00903657
-0.04054952
-0.00195635
0.02322674
-0.01262810
-0.00304101
-0.02460792
-0.00941550
-0.00590929
0.01274121
-0.00438401
-0.00030814
-0.03325156
-0.01403064
0.01371893
0.01377554
-0.01807303
-0.00780421
-0.01186050
0.03635300
-0.00677718
0.00224049
0.00173353
-0.00920153
0.01646948
-0.00288328
-0.00526418
-0.00404345
0.08966345
-0.01326720
0.00317431
-0.00335990
0.00195954
0.02877111
0.01962106
-0.00258992
-0.04309173
0.00566293
0.00366913
0.05067617
-0.00821241
-0.02275855
-0.01106244
0.00328402
-0.00640989
0.00091442
0.00636303
0.01834760
-0.02015875
-0.00496738
0.01218706
-0.01178615
0.00947652
-0.02099779
-0.00945496
0.03333865
-0.01176294
-0.02303638
0.02992915
-0.01537588
-0.02101230
-0.00417395
0.02956389
0.02878455
0.00765071
0.14950466
0.00132689
0.00291847
0.00224461
0.01361678
0.00049619
-0.00058101
-0.00483873
-0.01385681
-0.01815253
0.00513421
0.06996367
0.00829567
0.01330736
-0.01437818
0.01597651
0.00816019
-0.00276479
-0.00824743
0.00338718
-0.00098796
-0.00560937
0.01689347
-0.00998501
-0.02058410
-0.05837961
-0.00465821
-0.00411911
0.01997591
0.00948762
-0.02681551
-0.00696199
0.01783049
0.01871701
-0.00936353
0.03524197
0.02474089
0.00554350
0.00122531
-0.00720196
0.01433832
0.01492797
0.00727916
-0.00722917
0.01649663
0.00791619
0.00423003
-0.00777330
-0.02359019
0.00830049
0.01287780
0.03367938
-0.00551561
-0.00748675
-0.01658532
0.01058041
-0.00572297
0.00028916
-0.01955003
-0.00380922
0.02149265
-0.00924065
0.00370498
-0.01097988
0.02913796
-0.01582986
-0.00334911
0.01860837
0.00367281
0.00719352
0.01665137
-0.00210285
0.01120836
0.05455169
0.02682344
-0.00760927
-0.00206014
-0.00763926
0.00333408
0.00205386
0.01312400
0.00334734
-0.00787691
0.04299651
0.02154280
0.01408438
0.00758217
-0.03186661
0.00288917
-0.01683031
0.00966467
-0.00715870
0.00295681
-0.00150329
0.00696477
-0.00802568
-0.01603100
-0.01020609
0.00550817
-0.02139814
-0.01881058
0.00161577
0.00288508
0.00750539
0.00682291
0.03427806
-0.01331605
-0.00401726
0.02022371
-0.01035862
0.00831295
0.03413901
0.02891699
-0.00408408
-0.01441244
0.04115488
0.00225405
0.00004928
-0.00770093
-0.00501949
-0.00823496
-0.01078763
0.02262666
0.00182072
-0.00407987
0.00038681
-0.02682115
0.02742985
-0.00134834
-0.01422147
0.01385317
0.01097405
0.00128467
-0.00170750
-0.01574154
0.02066621
0.01835077
0.00582318
0.00751456
0.01413391
0.01158188
0.00000181
-0.01269679
-0.00373094
-0.00182316
0.00305868
-0.03362786
0.00461750
-0.01505709
-0.02396528
0.01501862
0.01411335
-0.00098307
-0.00019335
0.02499887
-0.01675049
-0.01372927
-0.00620862
-0.01474318
0.00524393
-0.00574693
0.00339016
0.01805633
0.00848901
0.00824010
0.00169567
-0.01422050
0.03653392
-0.01824091
0.01217344
-0.01339017
0.01722069
-0.00947272
-0.00124719
0.00865698
-0.00133243
0.00547582
0.01756496
-0.00523987
0.00841594
0.00139862
-0.00117493
0.00579322
-0.01949692
0.00549030
0.01649947
0.01521694
-0.01649310
0.02052906
-0.00779618
-0.00424883
0.03255983
-0.02319915
0.00218362
-0.00126395
-0.00484874
0.00375452
-0.03612716
0.01459592
-0.01558913
0.00303450
-0.01328217
0.00800944
0.02026455
-0.01784610
0.00762502
0.00958619
0.00408883
0.00111203
-0.01975922
0.01070200
-0.01740409
-0.01006359
0.00246169
-0.00110263
0.00841918
-0.01522780
0.00532578
-0.00660064
-0.00960225
0.00583735
-0.00194175
-0.00049839
0.01753842
0.00857743
-0.00781751
0.00347290
0.00518551
0.00147480
0.01447347
0.00503413
0.01342728
0.01273588
-0.00120969
-0.01346811
0.00921559
-0.01336280
0.02072775
0.02518464
0.00084372
0.01070476
0.00044592
-0.01176457
0.02393259
0.00927594
-0.01449420
-0.01818096
-0.01379449
-0.00667595
-0.00592189
0.02969955
0.00644974
0.03318512
-0.02101959
0.01193442
0.00289004
0.00004940
0.02206181
0.02270137
-0.00919434
-0.01171877
-0.02366057
0.00694439
-0.01325796
0.01825705
0.00172564
0.02544524
0.00220809
0.01164302
-0.03216713
-0.00124270
0.00371930
-0.02630429
-0.00972829
0.02344344
-0.00896017
0.00794510
0.01111721
0.00426951
-0.03414368
0.00044369
-0.05751685
0.02798780
0.00637050
-0.00675780
0.00974355
-0.01163859
-0.01229114
-0.00824332
0.02036706
0.00733063
-0.00576075
0.00079067
-0.01359548
0.04717096
-0.00525737
0.04180507
0.01039985
0.00994487
-0.00790002
0.01761566
0.01878925
-0.01487011
-0.02855401
0.00341374
0.00090221
0.02374273
-0.04126372
-0.03245440
-0.00072491
-0.00951404
0.00252626
-0.00591929
0.00313173
-0.03704350
-0.04856402
0.01383640
0.01256369
0.04545227
0.03865879
0.12399866
0.00338468
0.01749725
0.00463753
-0.06621511
-0.02092580
-0.02166734
0.02036598
-0.01020208
0.03495011
0.02203068
0.13664107
-0.00068040
0.00863830
0.01075502
-0.01793199
0.03031334
-0.03519693
-0.05120181
-0.00576428
0.03568898
-0.02770533
-0.04244290
0.01507851
-0.06559305
-0.00417500
-0.00926234
-0.02293171
-0.01908673
-0.02446043
0.00393931
0.00374416
0.00663360
0.01082113
0.00890652
-0.01454949
0.02314583
-0.02149735
0.01510777
-0.03110101
0.00660609
-0.02421660
0.02890489
0.00969071
-0.03627556
-0.02074729
-0.03534139
-0.01648068
-0.02649398
0.02247735
-0.05359014
-0.00000250
-0.01292178
0.07020079
-0.03880137
-0.02508687
0.01355358
-0.00426462
-0.00187710
0.02132245
-0.03609676
0.00900720
0.01112067
-0.03017679
0.12209698
-0.00876499
-0.02563972
-0.01364477
0.01747865
0.00978771
0.02057462
-0.01578783
-0.02443382
0.01730058
0.00162330
0.01985497
0.01101471
-0.06603472
-0.01679536
0.04959911
0.00915497
0.01299355
0.00022084
0.03712226
0.01094839
-0.07370444
-0.01975863
-0.03223827
-0.02319562
0.06251746
-0.03519211
-0.04109379
-0.01384730
-0.01315418
-0.00267745
-0.01435124
-0.01582860
-0.03394526
0.00323426
0.01085641
0.04885595
-0.02409746
-0.00448764
0.03654352
-0.01076754
0.00767761
-0.00200531
0.04268757
0.00649343
-0.00909969
0.01015673
-0.02655927
-0.00009328
-0.01527172
0.01931408
0.02614724
0.10723897
0.01988580
-0.02093067
0.02532965
0.01731186
-0.02495528
0.00435720
-0.05394570
-0.00437075
-0.00564140
-0.04811058
0.01257422
-0.02936625
0.02104277
0.00592215
-0.00647202
0.00551950
-0.01639833
-0.02898808
-0.00345955
-0.01349717
0.01764860
-0.03032833
0.00375937
0.00870997
0.00623772
0.00320633
-0.02086309
0.00955782
-0.00632467
-0.00795290
-0.02673214
-0.01164775
0.00573194
0.02421645
0.02120735
-0.03953427
-0.04593208
-0.02198987
0.02735403
0.00078466
-0.00561120
-0.01902064
0.01895519
0.01772484
-0.00520914
0.02437326
0.00125812
0.07439480
-0.02605715
-0.04372931
-0.00812712
-0.04930720
0.00210292
0.05368633
-0.00893613
0.01673646
0.00135292
-0.00827464
0.00806279
0.01437270
0.02161076
0.03754768
0.01057992
0.02185102
0.00033496
0.02537649
-0.01154305
0.04593152
0.00732250
-0.01740020
-0.01856325
0.07262298
-0.00180063
-0.03803189
-0.00856353
-0.01978180
0.00157866
-0.00658698
-0.03345791
0.01591963
-0.00679971
-0.03064217
-0.00499959
-0.00420555
0.02497662
0.02774421
0.01094509
-0.01514601
0.01551183
-0.00872211
0.00863914
0.00298076
-0.01459197
0.01879211
-0.01744143
0.06454522
0.03369924
-0.01964447
-0.01279920
0.02773618
0.02248826
-0.00621443
0.01946745
-0.00661679
0.00051606
0.00272927
0.00278868
-0.01791751
-0.01087833
-0.00602692
-0.02291991
0.00124366
-0.01541039
0.00078432
-0.00422230
-0.01457867
-0.02520220
-0.00603079
-0.00400577
0.03816594
-0.01962318
0.01410613
0.02887727
0.00519471
-0.00106292
0.00926078
-0.01626755
-0.01951180
-0.00728836
-0.01330847
0.04019109
-0.00656618
-0.02109298
0.02419512
0.00612162
0.01202200
0.01740590
0.00488834
0.00305023
0.02878128
-0.02605310
0.02173855
0.02123518
0.02135351
-0.00281807
0.02811806
0.02153850
0.03841219
0.01237810
-0.00255119
-0.02500744
0.01743980
0.00789587
0.04300578
0.03193340
0.05060595
0.00157875
-0.00581113
0.00182977
0.03334789
0.01828814
0.01136047
0.04647547
-0.00940362
-0.02222112
0.00430585
-0.00846815
0.00932029
0.00397236
-0.01850349
0.00160150
0.00518839
-0.00430636
0.00820266
-0.02072130
-0.00767836
-0.00274190
0.02543226
0.00972578
0.01448784
-0.00991801
-0.01045991
-0.00048649
-0.00984037
0.00473906
0.00254463
-0.00215900
0.00887928
0.00491145
-0.00957348
0.00310346
-0.00307798
-0.00080552
0.01504246
-0.00059741
0.01400211
0.02439138
-0.01699110
0.01174974
0.02983946
0.00410634
0.01979698
-0.01496367
0.02068298
-0.00578286
-0.02019938
-0.02977038
-0.05071971
-0.02331029
0.00290320
0.01975870
0.01545231
0.02241217
-0.01636954
0.02031448
0.00330960
-0.00039278
0.00578358
-0.01005639
-0.00070775
-0.01845996
-0.00418938
0.00568005
-0.01474869
0.00566760
-0.02633035
0.00689798
-0.00695006
0.00315605
0.00985157
-0.00554798
-0.00681501
-0.00009457
0.01415316
-0.00853204
-0.00876597
0.03101910
0.00288330
-0.00340695
-0.01328162
0.00050044
-0.01354777
0.00245913
0.02735297
-0.03044234
-0.00628419
-0.00480251
0.01783037
-0.02034194
-0.00021997
-0.00293215
-0.02090213
0.01587494
-0.02508362
0.01197625
0.00477760
-0.00087489
-0.00885501
-0.00105640
0.00061268
-0.03617200
-0.00894191
-0.01674620
-0.01313928
0.00632336
0.00652761
-0.01358775
0.03784657
-0.00006380
0.01473466
-0.01332054
-0.00910429
0.00700231
0.02161712
-0.01526175
0.02117485
-0.01916889
-0.00081805
0.03699066
-0.01101956
0.02817005
-0.02154229
-0.00094931
-0.00071515
-0.00239321
-0.00391857
-0.00047246
0.00426916
-0.00226673
-0.00482940
0.01363876
0.01044459
0.01637267
-0.02921469
0.00940767
0.00830928
0.01380003
0.00914256
0.00436807
-0.00648550
-0.00862855
-0.00427315
-0.00772942
-0.00584159
-0.00278065
-0.00961094
0.00400592
0.01018096
0.00365161
0.00114508
-0.00367206
-0.01405658
-0.00510981
-0.00476076
-0.02919944
0.00121956
-0.00722419
0.03857548
-0.00183280
0.02080610
0.02805411
0.00906749
-0.00903552
0.01371480
0.00054747
0.02272403
-0.03100441
0.04787521
-0.01624211
-0.01338802
-0.02287716
0.01419004
0.00792904
0.00020954
-0.00728246
0.03919553
-0.02113787
0.00041827
0.00514890
-0.00816762
0.00126361
-0.00953704
-0.01933871
-0.02677917
0.00472497
-0.00125041
-0.00067390
-0.00460773
-0.02845278
-0.00898390
-0.00582789
-0.00288717
-0.00149014
-0.01129684
0.01408406
-0.04213119
0.05294741
0.00290351
-0.00167378
-0.01375159
0.02250922
-0.03230374
-0.01640938
0.01269995
-0.00709128
0.01707426
0.01469449
-0.00692031
-0.03216466
-0.00377099
-0.02985132
-0.01038874
-0.00044046
-0.01130756
-0.02647866
0.01632188
0.01660319
0.00080346
-0.05257679
0.00710827
0.00800652
0.00930404
-0.05184536
0.01726443
-0.00521382
0.00113750
-0.00089527
-0.01742032
0.00713658
-0.01413833
-0.00814105
0.01204230
-0.01560068
0.00879727
-0.00911122
0.03279233
-0.02070385
0.03670126
0.01772468
-0.00792960
-0.02026882
-0.03047033
-0.00055874
-0.04486008
0.02986371
-0.01361325
0.01350540
-0.00194071
0.00713836
0.00662895
0.02661238
0.01227093
0.02219644
-0.01907634
-0.02392103
0.02086349
0.01506531
-0.00559394
-0.01879202
-0.00656655
0.01491307
-0.00188780
0.05195787
-0.02531648
0.02008736
0.01600685
-0.02999486
-0.00418689
0.01948914
0.05328211
0.00596867
-0.06637196
-0.00521446
0.00621450
0.03063125
0.00674902
-0.02842589
0.02037927
0.02333686
-0.00811571
0.00019590
0.03110817
-0.01712490
-0.02706088
0.00371749
-0.01374761
-0.00146192
-0.01914234
-0.00427862
0.03086013
0.03018733
-0.02002163
-0.01354601
-0.04045343
-0.01035510
0.02245359
-0.02038047
0.00912456
0.00205855
-0.02183744
-0.03312552
-0.02082041
0.00804926
0.03155336
-0.01911202
-0.01299677
-0.00853090
0.02136556
-0.00536932
0.01878894
-0.00787032
-0.00368338
0.00461446
-0.00147423
0.00743924
-0.04814005
-0.01788449
-0.02026337
0.01132563
-0.01366666
0.00334353
-0.00127735
0.00512212
-0.01410037
0.01942241
-0.00282296
0.00474907
0.02639868
-0.00511356
-0.00230135
0.00780441
0.00718397
-0.02087776
0.00449361
-0.03877508
0.01162584
-0.00831114
0.04869948
-0.03862578
0.00585085
0.00108307
-0.02146502
0.03854971
0.04098444
0.01172060
-0.00929224
-0.00415598
0.00082007
-0.00921307
0.01282091
-0.01006305
0.01299676
-0.00894759
-0.00292409
0.00900131
0.00675556
0.00806307
0.00697126
-0.01027145
0.00514284
0.00632046
-0.00270806
-0.00180574
-0.01875466
-0.00450548
-0.03679610
-0.00367626
0.00140923
0.03498253
-0.01058700
-0.00304017
0.05819197
-0.00842475
-0.00464052
0.01072436
0.00811121
0.01569525
-0.00736546
0.00902248
0.01823836
-0.03963644
0.00163634
0.00859383
-0.00410454
-0.00265520
0.00072913
-0.00867720
-0.03292250
-0.00227456
0.00018715
-0.01827734
0.02326750
0.01822219
-0.01005758
0.00366855
-0.00347962
-0.01302149
0.01243901
0.03526918
-0.02936382
-0.03308468
0.00996506
0.01945934
0.02572978
-0.03354379
-0.02145708
-0.03381204
0.02702217
0.02576937
-0.00110412
-0.01944307
-0.01720227
-0.00049036
0.01946034
0.02583715
-0.00060616
-0.00227906
0.00689731
0.02232773
-0.00156242
0.00366054
-0.00271611
-0.00867127
0.00234063
-0.03134894
-0.01063654
-0.02244714
-0.01844487
-0.01926328
-0.01102190
0.00761540
0.06687902
-0.01567904
-0.00682366
-0.00634843
0.01439652
0.00644416
0.01311082
-0.01332423
-0.00619092
-0.01510168
-0.02665769
0.01663527
0.03200031
-0.02076481
-0.01807058
0.02376916
0.00744688
-0.01143147
0.00125678
-0.00637106
0.02402896
0.01198739
-0.00794239
-0.00168961
-0.00961703
0.00536294
0.00977769
-0.02309429
-0.02935312
0.00076671
0.01177914
-0.03310009
0.00268630
0.02553388
0.01627385
0.00288824
-0.00001792
-0.01062094
0.00186823
-0.00230047
0.01553021
0.00357468
0.00260961
-0.03510837
0.02566855
0.02782454
-0.00290711
0.00011683
-0.00837615
-0.01013088
-0.01116053
0.00536590
-0.00774064
0.02909310
-0.00018080
-0.01176705
-0.01622019
-0.00742125
0.00319183
-0.00050864
-0.00665952
0.00822190
-0.00282733
0.00461293
-0.00963556
-0.00117979
0.02461273
-0.03375310
0.00631522
0.01116468
-0.00117219
0.00530263
0.01156184
0.00326390
-0.01316551
-0.00928805
0.00087237
-0.04605379
0.01285593
-0.00522893
-0.00392363
0.01236219
0.00467023
0.00257816
0.02450912
0.01259880
0.00224890
-0.00266416
-0.01098566
0.00787278
-0.01532294
0.02023948
0.02498332
0.01095086
-0.02232449
0.02108619
-0.01767468
-0.03461562
0.01412471
0.01466828
-0.00776353
0.00743522
-0.01363813
0.02894033
-0.01312654
-0.01914120
-0.01466323
0.00350274
0.00494685
0.01144758
-0.01380733
0.00741962
0.02144045
-0.00538641
0.00785783
-0.01021346
-0.00648420
-0.00188879
-0.00390244
-0.00261605
0.01371811
0.01267816
-0.00797771
-0.02717911
-0.01815347
-0.00432245
0.02874325
-0.00496458
-0.01344993
-0.02991633
-0.01758914
-0.00023819
0.00882821
0.00049630
-0.01658033
0.02857673
0.01351376
-0.00252590
0.01088484
-0.01029856
0.00141434
-0.00168380
-0.02987798
-0.03050841
-0.01212903
0.00974506
0.00988360
0.02189520
-0.02193369
-0.02731912
0.00471596
0.00956952
-0.00964479
-0.00299715
-0.01395129
0.01334509
-0.00302471
0.00011392
-0.01434826
-0.01702462
-0.00763719
0.03601461
-0.00223325
-0.00842207
0.05739825
-0.01789381
-0.01096835
0.00169728
-0.00036406
-0.00844352
0.01902782
-0.01906798
0.01321026
0.00862594
-0.00818899
0.00111927
0.01061752
0.01663861
0.00838327
0.02529895
0.02831467
0.00872133
-0.01767712
0.03218296
0.00294995
-0.01231225
-0.01675478
0.01605819
-0.05227883
-0.03560683
0.02330721
-0.00486657
-0.01374256
-0.00943434
0.00950577
0.03048205
0.00458513
0.01103877
-0.01269163
-0.02249620
-0.00631800
0.00828833
-0.01880826
-0.02819053
-0.00087873
0.02063742
-0.01673432
0.00881999
-0.00161494
-0.02237513
0.00480352
-0.00788468
-0.01247392
0.00308266
-0.00269904
0.00688166
-0.00776195
0.00012606
0.00312856
-0.00824445
-0.00675035
-0.00170732
-0.00581445
-0.01811120
0.00275524
0.00101724
0.01170730
-0.01491612
-0.00965496
-0.00084013
0.00239596
-0.00794443
-0.00676609
0.00731236
-0.00524806
-0.01205780
0.02247594
-0.02023774
-0.00560042
0.00458567
-0.02366420
-0.00846849
-0.01025361
0.00550203
0.01267232
0.00029642
0.00708016
0.00579716
0.01174103
0.00567046
0.02270260
0.00297773
0.00719802
0.00370346
-0.01132719
0.01127638
-0.00200186
0.00748283
0.00816628
0.01615279
0.01787843
0.00291944
-0.00867316
0.00537877
-0.00186320
0.01009056
-0.00213694
0.00087673
0.00525731
0.01405041
0.00740800
-0.00846685
0.01128348
0.00502507
0.01110199
0.01579695
-0.00032648
-0.00391628
0.01022386
-0.00589811
-0.00028282
0.00743276
0.00354775
-0.00616354
-0.00235062
-0.00247206
0.01625959
0.01842376
0.00659961
-0.01883319
-0.00943995
0.00628309
0.00776129
0.00614126
-0.00748937
0.01555693
0.00732167
0.00103622
-0.01181014
-0.01953817
-0.01210780
0.00423643
-0.00378372
0.00485367
0.01307221
0.00075874
-0.01642370
-0.00461851
-0.02022519
-0.00187255
0.00160673
-0.01628190
0.00636862
0.00242320
-0.01261390
-0.00051444
-0.01555837
-0.01490173
0.00497370
0.02808408
-0.01761520
0.00949157
0.00229377
0.00903779
-0.01418684
0.00258117
-0.00689545
0.00177021
-0.01829366
-0.01212185
-0.01199853
0.00009680
0.01214321
0.00078737
-0.00647034
0.02298464
-0.01144074
-0.00122533
-0.00155153
-0.01329395
-0.00888562
-0.00077068
0.02473976
-0.02476254
0.00491897
-0.00791813
-0.01020667
0.00027110
-0.00630262
0.00133323
0.00481684
-0.01907600
0.00185171
0.00071362
-0.00709900
0.02551287
-0.01608307
-0.01570271
-0.00348182
-0.00243611
0.00113620
-0.00533116
0.01217008
0.01080604
-0.01289489
0.00659524
0.01943404
-0.00894555
-0.00014802
0.00673926
0.00393988
-0.01976641
-0.00354797
0.00815847
-0.01882408
-0.08130872
-0.00415278
-0.00356005
0.02058077
0.03151860
0.01598220
0.00934616
-0.02127454
0.00983958
-0.01520237
-0.04072914
0.01509608
0.00140382
0.00789822
-0.00566451
-0.02545565
0.02659810
-0.02598413
0.00250668
-0.02004510
-0.03393819
-0.00516470
-0.01031837
-0.01840344
0.01279107
0.02289584
0.00896655
-0.01649304
-0.00364503
-0.04337604
0.00584777
0.00356305
-0.02658718
0.02636293
0.08521832
0.00136402
0.01081958
-0.02034518
-0.01908099
0.02273397
0.00314279
0.03528603
-0.00019357
0.00005018
-0.01891191
-0.00871410
-0.00759923
-0.01018663
-0.02306382
-0.01079942
0.00408880
-0.02191356
-0.00822050
-0.01499032
0.01887356
0.00570092
-0.02513815
-0.00025029
-0.03549531
0.06460977
-0.01357100
0.00367272
0.03063893
0.01509420
-0.00471229
0.02048662
-0.06222921
-0.06337088
0.01656857
-0.04166189
0.00576894
0.01659917
-0.01134183
-0.01628978
0.01029883
0.01534790
-0.01162681
-0.00898064
0.01380300
-0.01141918
-0.01083858
0.00785112
0.01850599
-0.01783164
-0.00230450
0.00420921
-0.00371383
0.08046141
0.01785946
0.02526514
0.03044428
0.02670797
-0.02566908
-0.05570133
0.07239339
-0.01857089
0.00817217
0.00552579
0.01697653
-0.01411471
-0.00473072
-0.05108324
0.04136508
-0.02874595
-0.00353830
-0.00695581
-0.04415032
-0.01151796
-0.00717778
-0.00589733
-0.03293959
0.01894914
-0.03482079
-0.00697182
0.01546810
0.00731481
0.00688009
0.02396091
-0.02918770
0.00181889
0.01805261
-0.01298910
-0.05205443
-0.03870449
0.05496292
0.08522636
-0.00627308
-0.03494481
0.01905191
-0.00672511
0.02220609
0.00956945
-0.00667531
0.03098870
0.02564209
0.01083365
0.03836340
-0.00259562
0.02761161
-0.02011086
0.00355995
0.02969751
0.06752577
-0.01500937
-0.00330480
-0.01637940
0.00307726
-0.01923621
0.00652095
0.02789896
0.01552980
-0.00472254
0.02892919
0.00515318
0.01784572
0.00820374
-0.00192348
-0.01164630
0.00676741
0.01352002
0.00938394
0.04775945
0.00942434
-0.00438195
0.00523075
-0.01564975
-0.01652946
-0.01443151
0.04926286
-0.01106145
0.00684238
-0.02994060
0.00017509
-0.02555092
-0.00812775
-0.00283041
-0.02323956
0.00424810
0.02225913
-0.02383620
-0.01742757
0.02951178
-0.02263889
-0.01703283
-0.02550611
0.02419409
-0.01211577
-0.00035317
0.00617270
0.00538912
0.00642225
-0.00382428
0.02646872
-0.02006431
-0.01501368
-0.01360087
0.01438981
-0.00726124
-0.01070724
-0.01049456
0.01287364
-0.00599253
0.00998023
0.03684413
-0.05703747
-0.00977817
0.01860867
-0.03851733
0.00201042
-0.00655978
-0.01706280
0.02236119
-0.00174203
-0.00215844
0.01142599
0.02097926
0.01614190
-0.00493895
-0.00845205
0.00211325
0.01106673
0.02169779
0.00620019
-0.02504950
0.03545379
-0.02673997
0.00225421
0.00818677
-0.01814877
-0.00743034
-0.01439520
-0.01034719
-0.01852623
-0.01575122
0.02078980
0.00364432
0.01174645
0.00846071
0.01138048
-0.03154295
0.00778900
-0.00295312
0.01996647
0.01570520
-0.02678804
-0.00360557
-0.01121887
-0.00470598
-0.03276543
-0.00506691
-0.02601754
0.00032029
0.01677436
-0.01096456
-0.02693338
-0.01816230
0.01899435
0.00180148
0.00098493
-0.01317204
0.01415828
-0.02075674
-0.00804532
0.00139605
-0.00323208
-0.03039186
0.01519552
0.00601545
0.02184503
0.01068761
-0.06066964
-0.01795064
-0.00804504
-0.01577662
-0.01562608
0.00737858
-0.02290822
0.00416858
0.00385479
0.03451159
0.00520389
-0.00998438
0.02623022
-0.00669041
-0.00553730
-0.02037655
-0.01094740
-0.00306216
-0.03368473
-0.00935955
0.00174155
-0.00984011
-0.00044737
0.02442603
-0.01035904
0.02304085
0.00098853
-0.01149615
0.00105912
0.02178431
0.00345102
-0.00236629
-0.00113723
-0.04323765
-0.02175991
0.00622194
-0.01357861
0.00075581
0.01123948
-0.00141654
-0.00917094
-0.01771099
-0.00609553
-0.01743010
0.00144317
0.01281158
-0.05614763
0.01619395
0.00022049
-0.00015480
0.04259522
-0.00372777
0.00460413
-0.01620143
-0.01603124
0.01842339
0.03749396
0.00164617
-0.00897905
-0.01942680
0.00940549
0.02382099
-0.01474225
-0.00304653
0.00795611
-0.01839253
-0.01547763
0.00032840
-0.00499515
0.01006927
-0.01305964
0.01555946
-0.00694425
0.04359973
-0.00491643
0.00325527
0.00442755
-0.02804110
-0.00395520
0.05939301
-0.00082359
-0.01064888
0.04269090
0.03260764
-0.04550330
-0.01036962
-0.02711504
-0.00709791
0.02455908
-0.00959822
-0.01065533
0.00499034
-0.00395633
0.01146874
-0.02254095
0.06274939
-0.01715686
-0.03001093
0.01720617
0.00502133
0.01676290
-0.02467368
0.01417428
0.01226611
0.00636975
-0.01885926
0.01024373
-0.03191711
0.00707919
-0.00777530
0.00113657
-0.00906354
-0.01306877
-0.01208429
0.00115475
0.00572257
0.04895621
0.05073439
0.00184596
0.00699222
0.00944176
-0.00889681
-0.01341576
-0.02079714
0.03051663
-0.00712757
0.01368559
0.02362844
-0.02056740
0.02033325
0.01310101
0.00219915
-0.02261551
-0.01124656
0.02291806
-0.00720434
0.01449490
0.01874423
0.04907976
-0.00084806
-0.02429529
0.00255119
0.00988227
0.03636308
0.00079860
-0.00932734
0.02427733
-0.01080315
-0.00754189
0.01845969
0.00489508
0.02676922
-0.01296395
0.02470477
0.00926546
-0.01973660
0.01051392
-0.01838654
-0.01193992
-0.02756010
-0.02661215
-0.01626745
-0.00462666
-0.02091947
0.00772431
-0.00583837
-0.01454157
-0.03867634
-0.00414762
0.03056391
-0.01904638
-0.00407896
0.02845202
0.02098995
-0.01539642
0.00539872
-0.00137624
0.02055905
0.01389943
0.00709746
-0.01362093
-0.03372715
0.00405194
-0.01897212
0.00692199
-0.00698417
-0.01788842
-0.01594373
-0.01768005
-0.01886342
-0.03071205
-0.00346108
-0.02080827
0.00623058
0.01077984
-0.03817440
-0.00879583
-0.03957445
-0.04647044
-0.02123545
-0.01373952
0.00899620
-0.01886322
0.05721396
-0.01267651
-0.00338543
0.01772753
-0.00261155
-0.00012809
-0.00433701
0.00905425
-0.00449787
-0.01726697
-0.01670925
0.00332466
-0.00058966
-0.03573619
0.00392108
-0.00508356
0.00698760
-0.00623344
0.00907065
-0.01922555
0.00157931
-0.00980463
-0.00632089
-0.00327440
0.00576565
-0.00601546
0.01623153
-0.00501587
0.02099618
-0.00834573
0.01710776
0.01697795
-0.01054391
-0.01376700
-0.00048600
0.00650448
-0.00345358
-0.00457883
-0.00387958
-0.01244404
-0.00537681
-0.01830748
-0.03902997
0.00219889
0.00412661
0.00974784
0.00155146
-0.00842211
0.03098354
0.00436091
-0.00485522
0.00413078
0.00675552
-0.00659898
0.01043796
-0.00611879
0.00438432
-0.00192487
0.00240884
0.03507906
0.00515631
-0.00407180
-0.00944431
0.00035264
-0.01357824
0.01544292
0.00695351
-0.00040357
-0.00021067
-0.00570987
0.00089738
-0.00617441
0.01761269
0.01915352
0.00922000
-0.01805350
0.01376889
0.00582132
0.03175188
0.00718865
0.00148720
-0.00108948
-0.00959710
0.01947183
-0.00015019
-0.00678134
0.00078398
-0.00484780
-0.00153935
-0.00595454
-0.01302415
0.02261257
-0.00981947
0.00844372
0.00810429
-0.00999059
-0.00639056
-0.02162001
-0.02355840
0.00278471
0.01047267
-0.00705764
0.00704967
-0.00027369
0.00990134
-0.00582101
-0.00108847
-0.00316129
0.01118962
0.00688791
-0.00008209
-0.01901943
0.01409863
0.01724482
-0.02356714
-0.00513425
0.00768423
0.02802734
-0.00446755
-0.01401198
0.01232704
-0.00340385
-0.00665135
0.01301320
0.01025303
-0.00531984
-0.01556887
0.01409939
0.00054947
0.00921679
-0.01861032
-0.00898996
-0.02205757
0.00412698
0.02460537
-0.01867973
-0.00810478
0.01479211
0.00599985
0.02043702
-0.01242229
-0.01000359
0.00001734
0.00291805
-0.00582940
-0.00643299
0.01724889
-0.03802909
-0.00256615
0.00266189
-0.01924611
-0.00918630
0.00661101
-0.00599949
0.00132939
0.00397081
0.01403077
0.04942030
-0.02142116
-0.00637810
0.00868330
-0.04026246
-0.00644511
0.00885109
0.00594477
-0.01168827
-0.01807845
-0.01312251
0.01714720
-0.01107863
0.00482915
-0.02169113
-0.05512514
-0.01425043
-0.00199825
0.00325523
0.07692459
-0.03154780
0.01326864
-0.01922497
-0.00051155
0.01041074
0.01098367
0.01606143
-0.00526228
-0.00433399
-0.00377569
-0.00060173
-0.01599155
-0.03070995
-0.01408030
-0.00948472
0.00545412
0.02871620
0.02568047
-0.02767456
-0.00252716
-0.03169272
-0.01207988
-0.01696307
-0.01680581
0.00756690
-0.02400262
0.04927892
0.00031288
-0.00730290
0.00132959
0.03749830
0.01382062
-0.06363970
0.00811805
0.00120570
-0.03062885
0.00297888
0.01543698
-0.02008913
-0.01409953
-0.00155018
0.00532851
0.00128379
0.02216974
0.00573777
0.02274198
-0.00677147
0.07586811
-0.00643872
-0.00150379
-0.02490820
0.00771841
0.00194471
0.00518384
0.01527968
0.04370039
0.01435292
-0.01755456
-0.02614414
-0.00843161
-0.00484549
0.01475879
-0.00663541
0.03428024
-0.03392155
-0.00928393
-0.00067410
-0.04394943
-0.02312570
-0.01762292
0.03750828
-0.01006868
-0.00511285
0.01186538
-0.00384496
0.03086027
-0.01589195
-0.01334345
-0.04218950
0.00239675
0.01279896
-0.01321764
-0.01562394
-0.00652101
-0.01039052
0.00094363
-0.00174412
-0.01417083
0.02308820
0.01274951
-0.01154736
0.00724087
0.01746240
0.00626298
-0.00184679
-0.02875121
0.00922932
0.02979224
0.00014409
0.01487013
-0.00513312
0.00760741
0.02482613
-0.01842763
-0.01624892
0.07951730
-0.00451632
0.01366096
-0.00866621
0.00971434
-0.00054183
-0.01900609
0.00170603
-0.01570249
0.00013472
0.00561458
-0.00516099
-0.04094141
0.01307714
-0.00394536
-0.00732101
0.03331782
0.06868951
-0.02506893
-0.00490681
0.01563994
-0.03390621
-0.00544873
-0.03606887
0.01230776
-0.00563797
0.00901171
-0.01645225
-0.01007092
-0.01007669
0.00240173
0.00042587
0.00443298
0.03360043
0.00444440
-0.01519610
-0.00625480
0.03778505
-0.02524095
0.01919692
0.00157808
-0.00525012
-0.00911299
0.00513775
0.00713723
-0.01233672
0.00674196
0.03351640
0.01704707
0.02003121
-0.00877728
-0.00649214
-0.00685694
-0.00138050
0.02389929
-0.00351033
0.00247364
-0.01170350
0.00823177
0.03036581
-0.00732753
-0.00251513
-0.00889009
-0.00048323
0.00341677
-0.00802063
0.00857321
-0.02677208
-0.01087244
-0.01672678
0.00189165
0.01136283
0.01380357
-0.02934501
-0.00659664
0.01730530
0.00581834
-0.02129086
-0.02260467
-0.00253139
-0.00125440
0.02289472
-0.00529667
0.02767858
-0.01042184
0.01256850
-0.00486557
-0.01728469
-0.00457567
0.00516251
-0.02045431
-0.00562155
0.00155600
-0.00506907
-0.02078191
0.00828772
-0.00390750
-0.02546890
-0.00152883
-0.01317870
-0.00687604
-0.00029823
-0.00285206
0.01377564
-0.01558723
-0.00539923
-0.02187673
-0.00203044
-0.03612300
-0.00900071
0.00345886
0.00925028
-0.01439158
-0.01058619
-0.00799674
-0.01002076
-0.03148395
-0.00916054
-0.02304187
0.01373284
-0.04126900
-0.00203200
0.01399881
0.01315253
-0.01005983
-0.02827529
0.00478622
0.03399195
-0.00284155
0.00037425
0.01037851
0.01491248
0.00015780
-0.01433697
-0.00044523
-0.00612926
-0.01393131
-0.01536686
0.00767819
-0.00827913
0.00977729
0.01903225
-0.00167285
0.01920331
-0.01858841
-0.01956998
-0.01425667
-0.02146791
-0.01185809
-0.01779464
0.00285602
-0.00819033
0.00197349
-0.00306342
0.00843713
0.01899971
-0.01384893
-0.01652703
-0.00384338
-0.01200929
-0.02725814
-0.01424575
-0.01532074
-0.00083932
0.00510021
0.01591660
0.00889381
0.01357568
0.01392748
-0.01864383
-0.01005901
-0.00031738
0.00314750
0.02017366
0.00415335
-0.00721822
0.00495597
0.04032438
-0.03392889
-0.01724020
-0.01525587
-0.01710011
-0.00976717
0.00558424
-0.01370691
0.01731171
-0.00811085
-0.01345690
0.00411635
-0.00621417
0.02586924
-0.00541101
-0.00166497
0.00062815
-0.01004921
0.00291741
0.02087211
-0.01090095
-0.01381190
0.01279830
0.00873892
-0.00325702
0.00393204
-0.00659402
-0.00077859
0.03618276
-0.01369074
0.01761435
-0.02208191
0.00733146
-0.00089734
0.00848781
0.00122759
0.04009649
0.00222642
0.00714952
0.00621824
0.00413389
-0.00991672
0.01339234
-0.00024103
-0.00174595
0.00973362
0.00327583
-0.00566639
-0.03367413
-0.02234833
0.02082543
0.01218820
0.01839845
-0.00513187
-0.02527312
-0.01508246
-0.01567698
0.00202317
-0.00377648
-0.01216971
0.00523002
-0.00920659
-0.02408182
-0.00791440
0.00155632
0.05530328
0.01865015
0.00027148
0.00041757
0.01187173
0.03047777
-0.02049179
-0.01755773
0.01076414
-0.00652157
0.00703531
0.00253754
-0.00745266
0.01074372
0.00659976
0.01043789
-0.00361423
-0.01436627
-0.02149694
0.03061704
-0.03393054
-0.02184080
-0.01164459
0.02256087
-0.02414943
-0.02732641
-0.00165166
0.02193516
-0.01554231
0.00638300
0.01465853
0.00837748
-0.00708238
-0.01895556
-0.00868428
-0.04465253
-0.03690634
0.01645074
0.02594944
-0.00831950
0.03016822
0.05429187
-0.00600017
-0.01250620
-0.01107913
0.01378018
-0.00292283
-0.03331127
-0.02080977
0.01069820
-0.01399283
-0.01155863
-0.00912384
-0.00991088
0.01245926
0.01064283
0.00608741
-0.01438182
0.02315123
0.00376943
-0.01659716
-0.01432933
-0.00874686
0.00558358
0.03483140
-0.01022932
-0.00079366
-0.00306919
-0.01820327
-0.02323272
-0.00718852
0.01384852
0.00155474
0.06225426
-0.01722861
-0.02769153
0.02768693
-0.01263999
-0.01524338
-0.00745354
0.00389947
0.00065633
-0.01182171
0.07428885
0.00465686
0.00015515
0.00877266
-0.02022202
-0.01838763
-0.00719640
-0.01838901
-0.02784459
-0.00226993
0.01211575
-0.03954085
-0.00778685
0.00563866
0.01484588
-0.01410270
0.00123505
-0.02285283
0.00641181
-0.01054403
0.02844522
-0.00860848
0.01540087
0.01895614
0.02715274
0.01034388
0.01256353
-0.01951557
-0.00645140
0.00786967
-0.01455181
0.02539686
-0.04393855
0.05899195
-0.03555093
-0.00401184
-0.00774402
0.00029381
-0.00835949
-0.00823040
-0.00401551
0.00631975
-0.01544553
-0.01545604
0.01273398
0.01791137
0.00287456
0.00782113
-0.01292570
-0.01051620
0.01557337
0.00856684
0.01033259
0.00818012
-0.00937555
0.00545862
-0.02130227
-0.00310346
-0.00022060
0.00592012
-0.01077581
0.03261225
0.01069884
-0.01303279
0.00268767
-0.01353474
-0.00922578
0.00194818
0.02470802
0.01834280
0.04707806
-0.01520110
0.00901971
0.03945597
-0.00531370
-0.03509655
0.00830410
0.04267225
0.01132790
-0.01758273
-0.01784487
-0.00737642
0.00187661
0.02345432
0.00999385
0.02445737
-0.00158765
0.01195865
-0.01315888
0.00978956
0.01405188
-0.00172565
-0.00492011
0.00211152
-0.01054368
-0.00042706
-0.01992775
-0.03100057
-0.00792594
0.00637829
-0.00637124
-0.01503222
0.00516777
0.00732276
-0.02171738
0.02032532
0.00928229
-0.03996373
0.01993851
0.00769210
-0.02676111
-0.02516744
-0.00220780
0.00343872
0.00206506
0.01137170
0.00277793
0.00905291
0.02301607
0.00916204
0.00946230
0.00258874
-0.03919028
-0.00873946
0.02398573
-0.00432816
0.00096408
0.02463122
0.00752480
-0.00978412
0.01837683
0.01880090
0.00611439
0.01861267
0.03859456
-0.02055985
0.01959964
0.01620539
0.01415101
-0.00426088
-0.02565015
0.01454860
0.00884637
0.00456436
-0.00089916
-0.00637198
0.01279650
-0.01126800
-0.02179164
0.00279534
0.02585432
0.03493246
-0.01499727
0.00409690
0.02185289
0.00490928
0.01508507
-0.00612708
0.01844842
0.00518256
0.00225674
0.04189057
0.02547578
-0.00192902
-0.00366569
0.03255172
0.01248507
0.01795341
0.01004379
0.02188791
-0.01139804
-0.01601226
-0.00638274
-0.01396946
-0.01845245
-0.01166986
0.00881441
0.02555154
0.02191569
-0.00986961
0.00070582
0.02039453
0.01951267
0.02650930
-0.01953111
-0.00608172
0.01133542
-0.01488577
-0.03105431
0.02279137
-0.00991872
-0.00669276
-0.00435154
-0.00323656
0.02690108
0.00703857
0.03653477
0.01432148
0.02182950
0.01240311
-0.01471526
0.00486828
-0.00370190
-0.02018580
0.03342243
0.01239899
-0.00200592
0.02475815
0.01485732
-0.00894927
-0.01074500
0.02069462
0.01364876
0.01829829
0.00259073
0.01090215
0.01326788
0.00362962
0.00809036
0.01337906
-0.00758034
0.00987253
0.00667882
-0.01888104
-0.00011160
-0.00704606
-0.03137302
0.02446533
-0.00259814
0.02129041
0.00344757
-0.01717474
0.00674579
0.01227197
0.00504053
0.00674178
-0.00900666
0.00376106
-0.00538789
0.01110367
0.00141718
-0.00898303
-0.00915586
0.00906147
0.02991283
-0.01760647
-0.01941947
0.00028788
-0.01109919
0.00591193
-0.00077211
-0.00150391
0.00745184
0.02218371
0.00774625
0.00884119
0.00043578
0.00628480
0.00153114
0.00204630
-0.01704789
-0.01635564
-0.00682507
-0.02127744
-0.02668374
0.01125155
-0.01003131
-0.01806606
-0.00026905
-0.03409236
0.02431159
-0.02207608
0.00082787
-0.00332965
-0.00180734
0.00792647
-0.00022651
-0.00695181
0.00633865
0.01370894
0.00194854
-0.01596254
0.05288223
-0.00141085
0.00689763
0.00378469
0.00654758
0.02318113
-0.00824459
0.00065027
0.00128378
0.01243269
0.01059706
0.00344548
0.00476508
-0.01573363
-0.00244157
0.00096822
-0.00603689
0.00709867
-0.00056364
-0.00770338
0.01296865
0.01229569
-0.00464932
0.00709428
0.01051097
0.01051023
-0.01580189
-0.00651465
-0.00561393
0.00537081
-0.00206680
0.00858727
0.01464235
-0.02163033
-0.00514864
0.00511558
-0.00892317
0.02342319
0.01597130
0.01841768
-0.00715680
0.00132816
-0.01912522
0.00222900
-0.00402903
-0.00074735
0.00293175
0.01035120
-0.00269559
-0.00192184
0.00474333
0.00285308
0.00588360
0.02063271
-0.00360178
-0.00515830
-0.01161686
0.01501237
-0.00188586
0.00344798
-0.00665140
0.02039412
0.00286789
0.01327414
-0.02965883
0.00839219
0.00396645
0.00804748
-0.01123374
0.01033522
-0.00839517
0.01982224
-0.00027891
0.01907803
-0.00944850
-0.01240862
0.00339531
0.00550516
0.00657345
0.01504159
-0.01413677
-0.02967999
-0.00645103
-0.01699480
0.02114274
-0.01080489
0.00550544
0.01954883
-0.01877015
0.02031609
-0.03256231
0.01489177
0.01453987
0.00990284
-0.00645408
0.00320147
-0.00129674
-0.01237774
-0.00925160
-0.01531128
-0.00248492
-0.01587852
0.00429768
-0.00791632
-0.00967913
0.00687207
-0.03592283
0.00911251
0.00965365
-0.00642285
-0.02511846
0.01736938
0.00584308
-0.00579405
0.01249018
0.02248594
0.00907155
-0.00646070
-0.02412800
-0.01244035
-0.00303430
0.01104779
0.00125036
0.01969810
-0.01390604
-0.01857315
0.00219233
-0.00774065
-0.01079306
0.01803558
-0.00190683
0.01696696
-0.01890798
-0.00965753
-0.00783751
0.01001449
0.01119526
0.00278210
0.01489485
-0.01805550
-0.00667392
-0.00159308
-0.01261446
0.00472582
-0.00067835
-0.04561120
-0.01185833
0.00387550
0.00934586
0.01316201
-0.00762126
0.00698540
-0.01585510
0.02508682
0.00727338
0.00851659
0.01459290
-0.00079430
0.02016865
0.01236810
-0.03879630
0.00625583
0.00005886
-0.01329801
0.00147025
-0.01164702
-0.03455205
0.00621070
0.00447800
-0.00839581
-0.00336740
0.00239049
0.00615004
0.00120410
-0.00957980
-0.01481426
-0.00781908
-0.00797867
-0.00522990
-0.00385683
0.02401873
-0.00006966
0.00383208
0.00437332
0.00480215
0.00491198
0.00666779
0.01797667
0.00345669
0.02790468
-0.00037065
-0.00155931
-0.00051105
-0.01395819
0.00243045
-0.00316408
0.00027303
0.01581172
0.01090068
0.00077681
0.00140560
0.01124882
-0.00043471
0.01929839
0.01049875
-0.04201929
0.00410807
-0.01206930
0.00494148
0.00926144
0.01413076
-0.02651421
-0.00376980
-0.00349643
0.01817465
-0.00223253
-0.01175201
-0.00635480
-0.01005854
0.00256763
0.00257820
-0.01493633
-0.01810928
-0.01024331
-0.00317617
-0.02039658
-0.02015283
0.01803192
0.00933537
-0.02267642
0.00654676
-0.01502498
-0.02214921
-0.01177380
0.02756331
-0.01419709
0.00244183
-0.00023592
0.00693163
-0.01264156
-0.03617278
-0.03332015
-0.00161453
0.01684606
-0.00700935
0.03406871
-0.01793335
0.01667547
-0.01817146
-0.00239201
-0.03708324
-0.01754883
-0.00539698
0.01160500
0.00211162
-0.01436287
-0.00092995
-0.01934100
-0.00013303
-0.02572673
0.00563383
0.00313866
0.00638185
-0.00234174
-0.06877942
0.01596887
0.00146018
-0.00480935
0.00445733
0.03574473
0.00325141
0.00869478
0.00811982
-0.00407988
-0.01093146
0.01129987
0.01948617
-0.00347511
-0.00717877
0.01598046
0.01543786
-0.01350621
0.03523823
-0.00481044
0.01084172
0.01639556
0.00879905
0.06312423
0.01228525
-0.03612366
0.01978316
0.00236703
-0.00109275
-0.00365248
-0.00564792
-0.00643307
-0.01156812
0.02778077
-0.02335341
-0.01902537
0.00309270
0.00936084
0.03756604
0.02386513
-0.00681613
0.02238380
-0.05404536
0.03470221
0.01432694
0.02592780
0.01222894
-0.00105840
0.00300202
-0.00255741
0.00470745
0.00150276
-0.01161348
0.02064704
-0.01264473
0.00299724
-0.01617050
0.02048860
-0.00925593
-0.03831941
0.00739323
0.00245479
-0.00438635
-0.00821951
0.00702489
-0.03003856
-0.01355893
-0.01879704
0.01119702
-0.00605835
-0.03045966
0.00337358
0.00294449
-0.04473267
-0.02218272
-0.01057293
0.02051104
-0.00180302
-0.00490613
0.00091022
-0.01027059
-0.02553706
0.00568261
-0.02442285
0.03182042
-0.00687837
-0.01118437
-0.00390559
-0.01100646
-0.01961713
0.01926445
-0.02110997
-0.00586936
-0.00956118
0.01124727
-0.00543610
-0.02702864
-0.01468288
-0.00204673
-0.01907553
0.01297119
0.00701875
-0.02157031
-0.02753478
-0.01640915
0.00565960
-0.02147174
-0.00250145
-0.02156525
-0.02145416
-0.00778428
-0.02251960
0.00149735
-0.01817925
0.00555613
-0.00952154
0.01020562
-0.00114371
0.01985583
0.01028907
0.00957499
-0.01705732
-0.01704556
0.01093348
0.01904741
-0.02781458
0.01344690
-0.00815036
-0.02279127
-0.01131103
-0.00810672
-0.01426263
0.00128115
-0.01767293
0.01297022
-0.02667902
-0.00208329
-0.00208639
0.01619493
0.04975855
-0.00960278
0.00685466
0.00926772
-0.02360050
0.03606721
-0.01109287
-0.01478995
-0.02059585
0.02824108
-0.01103432
-0.03637739
0.02398071
0.00548795
0.01486950
-0.04083925
-0.00019161
0.03053544
-0.02332789
-0.00037109
0.02055978
-0.02026979
-0.01510917
0.01258947
0.00263551
0.03533764
-0.00967028
0.08586134
0.00921670
0.01293087
0.01606848
-0.02545871
0.06599598
0.00921468
-0.04862076
-0.00860515
0.01211601
-0.00078325
-0.01647693
0.02996876
0.01375266
-0.05096836
0.02062528
0.02511429
0.00056635
0.02217372
-0.01155777
-0.02166788
0.01452162
-0.01224015
0.02700602
-0.01310254
-0.01083919
0.00060595
0.00945976
-0.01659649
0.02044204
-0.03515736
-0.00994928
-0.00333604
0.00055964
-0.00755409
-0.00399701
0.01359942
-0.00717310
-0.00666423
-0.03510387
-0.01404589
0.03336959
0.02327506
-0.01456811
0.01685417
0.01348652
0.03159854
0.01507122
-0.00521859
0.02383840
0.00752516
-0.03235288
0.03417409
-0.00679418
0.00910525
0.02065378
0.02133637
-0.00261664
-0.01609218
0.02004463
0.02172530
-0.00366877
-0.00786982
-0.02425628
0.00697632
0.01285211
-0.03042519
-0.00677554
-0.02860065
-0.02261280
0.02080907
0.01961518
0.01069961
-0.01317712
-0.00583359
-0.02492014
-0.01472024
0.01215108
0.00874576
0.02679467
-0.02754873
0.01854740
0.03568949
-0.01842989
-0.00507142
-0.05629581
-0.00122003
0.00234763
0.03879335
0.01798923
0.04007859
0.02346896
-0.03046379
-0.02995498
-0.03693102
-0.02056898
0.02519528
-0.01129462
0.01250702
-0.02133800
-0.01475880
-0.01304376
0.00683843
-0.04010131
-0.01152932
-0.06121557
-0.00211918
-0.03102473
0.02312778
0.03140017
0.01907143
0.02635892
-0.01798191
0.00702751
0.03058304
0.00860206
-0.02309480
0.00817114
0.01911625
-0.02500340
-0.02372807
-0.01137934
-0.01671663
0.00764658
0.03732395
-0.00685762
-0.01737304
0.00147105
0.03103296
-0.00135702
-0.00182142
0.01093934
0.00803072
0.03571824
-0.00593175
-0.00144733
-0.01404790
-0.03900071
0.01299946
0.03338405
0.00505136
0.00537549
0.00887945
-0.01821415
-0.00519136
-0.01173487
-0.00576100
0.00565462
-0.00921079
0.00023767
-0.00527484
-0.01497149
0.00207560
0.00095950
-0.02034288
-0.00711626
-0.01799729
0.03009135
-0.01059730
-0.00779115
-0.00829294
0.01112532
-0.00980771
0.04623550
-0.00718132
0.00804611
0.00665666
-0.02275869
-0.03035551
-0.05242881
-0.00554595
0.01520500
0.00845764
0.04937179
0.03411976
-0.00916713
-0.00504098
0.00954463
-0.00274102
0.00652365
0.01515348
0.02555440
-0.00772105
-0.00520054
-0.04668130
-0.00520066
0.00040487
-0.00474643
0.00691758
0.02843644
-0.01168717
-0.00504468
0.01406809
-0.02605086
0.02580897
0.02970277
0.01036966
-0.01051314
0.01301870
-0.00783752
0.00728196
0.04295935
0.00617237
-0.00825545
0.00806658
-0.03704781
0.00466027
-0.01320254
0.02335077
0.01242626
-0.02365484
0.01052345
-0.02067082
0.01096707
-0.00828655
-0.02908798
0.00854081
-0.03325905
-0.01221757
-0.00750568
-0.02652721
-0.00493968
-0.01541761
0.01474344
-0.03117385
-0.00036255
0.00072373
0.02993251
0.01774412
0.00190885
0.01381566
0.02377043
-0.02823619
0.01315612
0.03202190
-0.00116256
-0.01952716
-0.01936810
0.00431018
0.03031457
-0.01884843
-0.00074905
-0.00681779
-0.00001575
0.00791663
0.00485080
-0.01397132
-0.00903418
-0.00282263
0.00966144
0.01153957
0.00160717
-0.02470139
0.00819539
0.00936849
0.00741243
-0.02105239
0.01160801
-0.00359006
-0.00834292
0.01207282
-0.02071362
0.01153848
-0.01564110
-0.01320753
0.00340189
-0.01175395
-0.00743276
0.01115503
-0.01121115
-0.00388472
-0.02187758
0.02680822
-0.00959529
-0.00383637
-0.00571861
0.00800373
-0.01221709
-0.02369078
-0.01358454
0.01711521
0.00337374
-0.02388574
-0.02642312
0.00030508
-0.01634115
0.01470751
-0.01930569
0.01860551
0.00822431
-0.01075935
0.01383595
-0.01515138
-0.02066326
-0.00488456
-0.01526248
-0.01977210
0.03866848
-0.00457804
0.03489544
-0.00715663
-0.00060394
-0.00733674
0.01384659
-0.00883347
0.03004503
0.01083011
-0.00740432
-0.00949848
-0.01421039
-0.02150570
-0.00607816
-0.00170055
0.02222125
0.02439803
0.02817402
-0.00163420
0.01270411
0.02690080
-0.00372841
-0.03221676
-0.02724172
-0.00066776
-0.00863232
0.02485640
-0.01071410
0.00399776
0.02355103
0.05323005
-0.00825254
0.00268005
0.06021836
-0.00209667
0.00869250
-0.03127479
-0.02120956
0.00219760
0.00693194
-0.02250681
0.00985010
-0.04723316
0.00807035
-0.01840014
-0.01671524
0.02469215
-0.01224732
-0.00579325
0.00301400
-0.01019769
-0.04774462
-0.01295811
-0.02186708
0.00776569
0.01767409
-0.00296813
-0.02508332
-0.01719471
-0.03424063
0.01056532
0.00630235
0.00755711
-0.03958857
-0.01737057
0.06495012
0.00996698
0.01465348
0.00131677
-0.03444224
-0.00523077
-0.01933344
0.01865376
0.00015560
0.00362336
0.01062210
-0.00242202
-0.01513339
-0.00211539
-0.00423675
-0.02369047
-0.00232544
0.02085696
-0.02834126
0.00599191
0.01844537
0.00331705
-0.02435266
-0.03816388
0.01998999
-0.00133040
-0.02155873
-0.02772784
0.00398567
0.00312359
-0.03490398
0.01638841
-0.00382140
0.01810681
0.02816138
-0.04066417
0.02785642
0.00915808
-0.03748990
-0.00159717
0.02440318
-0.02637178
-0.01898028
-0.00979309
-0.00282794
0.01049999
-0.00480524
-0.00584546
0.00152819
0.00202257
0.00846385
0.00370788
-0.00739187
0.01863362
0.00889976
-0.00345042
-0.00229429
0.00546913
-0.03258519
0.00865772
0.01468259
-0.04472442
-0.00678790
-0.00923859
0.00766813
-0.00139741
-0.02288733
-0.00547787
-0.00819495
-0.02203897
-0.00923155
0.00134009
-0.00416359
0.02890732
-0.01176163
0.01253704
-0.00739485
-0.01260305
0.00291997
-0.00967188
0.01257923
-0.03678349
-0.01536109
0.00935305
0.01512724
0.01409566
-0.01787659
-0.01274869
-0.00875980
0.00233331
0.01009994
-0.02006719
0.02162305
-0.01440146
0.00329815
0.00666230
0.00540693
-0.01089383
-0.01158074
-0.00826270
-0.00905455
-0.00989164
-0.00026867
0.00185364
0.00987148
-0.00179913
0.02697329
-0.02327802
0.02453895
-0.01218014
-0.01502023
-0.01246092
-0.00603397
0.00568250
0.00723940
-0.00545209
-0.02045916
-0.00570346
-0.00830510
0.06280678
0.00040978
-0.00789935
-0.01121197
-0.00876184
0.05898721
0.02233405
-0.00284167
0.00272235
-0.01426499
-0.01116242
-0.00964285
0.00323178
0.01536593
-0.00431803
0.01161400
0.01678529
0.01033246
-0.00560980
0.01405516
0.01171440
-0.00594800
-0.02937578
0.01901085
-0.01467922
0.00392481
0.00022938
-0.00588743
-0.00644938
0.00940575
-0.00868901
-0.01600391
-0.00754122
-0.03002970
0.02374161
0.00937752
-0.01073681
0.02028859
0.00836571
-0.00180843
-0.01850800
0.00652113
-0.00709325
-0.02247515
0.01254801
-0.00854900
0.00850016
-0.02157987
0.01718893
0.02338819
-0.00793629
-0.00805617
-0.00175112
-0.00205569
0.00304201
0.00622587
-0.01621075
0.01444419
-0.01040847
-0.01905479
0.00401157
-0.00371115
0.00194553
0.00673355
0.00285725
-0.00317034
-0.01896633
0.01661642
-0.00207817
-0.00633327
0.01462543
-0.03183763
-0.01344715
-0.00190046
0.00989104
0.01131458
-0.01430928
-0.00839846
-0.01005124
0.00243619
-0.00040074
0.01359255
-0.00429554
0.00810080
-0.01554478
0.01648040
-0.00164333
-0.00599080
-0.01680752
-0.00259981
-0.00283407
0.02653009
-0.01456967
0.00870158
-0.02552733
-0.01176160
-0.00005106
-0.01005904
-0.00500553
0.00232769
0.00632448
-0.00528403
-0.05459574
-0.00227532
0.01817659
0.00245723
-0.00648377
0.03438904
0.02375961
0.00279727
0.01600329
0.00624188
-0.00219947
0.00043849
-0.00582442
-0.01866860
0.00838668
-0.01601416
0.01279524
-0.00217768
0.01141873
-0.00355165
-0.04319493
-0.01028740
0.00954016
-0.00658067
-0.02458764
0.00304139
0.03047160
0.02528933
0.01229490
0.04186117
0.00056509
-0.04319273
0.00255224
-0.03377534
-0.01290464
0.00700961
-0.03149183
-0.02359773
-0.00433444
0.02305046
0.00889202
0.00704389
-0.00219112
-0.03865516
-0.00315623
-0.00343372
-0.00089084
-0.00617770
-0.01333492
0.01215423
0.02570083
0.01827920
-0.01129975
-0.04214936
0.01773454
-0.01397055
0.00530661
-0.01787278
0.14153004
-0.00543809
-0.00445557
0.03530964
0.00223706
0.01464281
0.00279027
0.01303569
-0.00219610
-0.00093211
-0.03114695
-0.02824721
0.02513894
0.01965988
0.03117412
-0.04764893
0.02800740
-0.01106748
-0.02973503
0.01112020
0.01190824
-0.00838192
-0.02071574
0.00787381
-0.00639762
0.00937860
-0.01144978
-0.01921117
0.00895137
0.00540104
-0.00863561
-0.00039481
-0.02247459
-0.03214797
0.07932443
-0.00213552
-0.04307543
-0.01712772
0.00643876
-0.02725944
0.00451415
-0.00867506
-0.00127850
0.00308888
-0.00666171
-0.00353619
-0.00150532
0.00135730
0.03317039
-0.03578449
-0.00580948
0.05159710
-0.01331504
0.01559138
0.05777466
-0.01630118
0.01392365
0.03202140
-0.01037050
-0.05088141
0.01602817
-0.01708826
0.00714746
-0.00768089
0.01000309
-0.03571977
0.01590596
-0.01835044
-0.04125030
0.00017735
0.03644285
-0.01212657
-0.04341963
0.03201620
0.01525981
0.00548372
-0.00004331
-0.01195889
-0.02473288
0.00733382
-0.03206742
0.00539246
0.01923180
-0.01769419
-0.00297111
-0.00362449
0.02946948
0.02485370
-0.04455912
-0.01495397
0.01746348
0.04785189
-0.01359035
0.00985556
0.00302639
-0.04560105
0.01826076
0.01030709
-0.00741050
-0.01555259
0.01793581
0.00664205
0.00064578
0.01150613
0.00604052
-0.01607944
0.00803648
0.01320809
0.11144330
-0.01150392
-0.01310112
-0.01790238
-0.00330184
-0.00698492
-0.01647988
0.00200858
-0.02351866
-0.00203108
0.01441514
0.01346094
0.04021553
-0.02476653
-0.05427096
0.01372067
-0.00132013
-0.00148903
0.02401827
0.01379199
0.00194300
0.02842574
0.00918291
0.03598990
0.00359038
0.01471643
-0.00838152
-0.02551278
0.04036994
-0.00703761
0.00120818
0.01444838
0.00466688
0.01315965
-0.01215320
0.01071010
0.00352623
-0.02194445
-0.00406379
0.03324318
0.00116932
0.01200168
-0.00201108
0.00465150
-0.02808620
-0.00208981
0.00999645
-0.01157876
0.01862760
-0.01022619
0.01650130
0.00958970
0.00000964
0.00076908
-0.00995873
0.00629175
0.01000793
-0.01089154
0.03070680
0.00264842
0.03563770
0.02954331
-0.00437448
0.01132978
-0.01428728
-0.01277043
0.02421530
-0.00927243
0.00936286
-0.03151018
0.01105241
-0.05020464
0.01138790
-0.00762275
0.01436637
-0.01824012
0.01716070
0.01065569
0.04096605
-0.01777163
-0.00098249
-0.00676789
-0.00423344
-0.02154319
0.03570754
0.01336919
0.00426625
0.03826235
0.00114338
0.00717931
0.00264839
-0.04436955
0.02894531
-0.00400880
0.02015013
0.00413036
-0.00207480
-0.00788788
-0.00073539
-0.01015067
-0.02263698
-0.01090768
-0.00459785
-0.00113048
-0.00184726
-0.01026434
-0.02060661
-0.00190000
-0.01200163
0.00943305
0.01262813
-0.01357444
-0.02339462
-0.00427073
0.00765643
0.00157950
-0.00955730
-0.04702017
0.02333228
-0.00548639
0.00350380
0.01452589
0.00607853
0.01765555
-0.00547209
-0.01968348
-0.00079185
0.00240657
0.01563546
-0.03926631
-0.01923940
-0.00064312
0.01415280
-0.02016349
-0.01302316
0.00609183
0.01495551
-0.00316495
-0.01114117
0.00367438
0.03228555
0.00941766
-0.03413666
0.01251148
-0.00044343
0.04993615
0.00470575
0.00593089
0.00675575
-0.00706892
0.00870072
-0.00598574
-0.01419967
-0.00839874
-0.00015203
-0.01425674
0.01854171
0.00722501
-0.00431423
-0.01498584
-0.00710346
-0.00670563
-0.00400170
-0.00583722
-0.00546986
-0.01680405
0.00593676
-0.00718849
0.00826163
0.01906816
-0.00301013
0.00797066
-0.02185809
0.01223268
-0.04094706
0.00465784
0.00981813
-0.00302237
0.01623218
0.00672171
-0.00334353
-0.00316130
0.02281702
0.00519627
-0.00874025
0.01882940
0.01370215
-0.02039178
0.02566567
0.02669648
0.01852335
0.00027119
-0.01092374
0.00552273
0.00034124
-0.00765758
-0.00076477
-0.01039633
-0.00389156
0.03385872
0.01432786
0.01098750
0.00870950
-0.00641462
-0.03451951
-0.01720575
0.00248500
0.02249033
0.00957764
0.00269470
-0.01884549
-0.00775162
0.01307258
0.00733678
-0.00147807
0.00729831
0.00662075
0.00147393
-0.01035128
-0.02743991
-0.01405736
0.00064843
0.02935906
0.02618773
-0.00691823
-0.00786722
0.02064348
0.01569800
-0.01393437
0.00357573
0.01540292
0.00072035
-0.00216631
-0.00392968
0.00230915
-0.01865529
0.00990519
-0.00013982
0.01587925
-0.01964611
-0.00004016
0.01216147
0.00748794
-0.01753352
0.01369886
-0.02694601
0.00678577
-0.00307243
0.00744667
-0.01665091
-0.01173460
0.00354836
-0.00340302
-0.00020962
0.01268401
0.03011562
-0.00638554
0.01232513
-0.00339689
0.00554559
-0.00563890
0.02447977
-0.00383706
-0.01271168
0.00468345
-0.01137549
-0.00687376
-0.00292695
-0.01989841
-0.00806268
-0.00851352
-0.01222001
0.01102790
-0.00802840
-0.00246299
0.00271542
-0.01468825
-0.00137761
-0.00518716
0.01032163
-0.01218478
0.01243795
-0.00986430
0.01228395
0.02035142
-0.00640100
0.00505974
0.00414567
0.00586214
-0.00287160
-0.01046376
0.01044264
0.01212700
-0.00996827
0.00382500
-0.00751297
0.00432582
-0.00503876
0.01185687
0.01218374
0.01796695
-0.01227670
-0.01618630
0.03907800
-0.01380355
0.03254326
-0.00671745
0.03330193
-0.02329365
-0.01872345
-0.01003105
-0.00060944
0.02710829
0.00181577
-0.03353953
-0.01703332
0.00260533
-0.00230246
-0.01770306
-0.00228552
-0.00377218
-0.00696831
0.00230608
-0.00663941
-0.01160681
-0.00816486
-0.00236998
0.00939883
-0.00001653
-0.00817822
0.01660135
-0.00390836
0.00067241
-0.00533250
0.00528485
-0.00179560
-0.00202611
-0.00717248
0.00905025
-0.01866220
0.01067358
0.05022700
-0.00325090
0.05877504
0.02159116
-0.01525384
0.05631437
-0.01805480
-0.00942552
0.00244412
0.00548226
0.00565665
-0.01081662
0.01379614
-0.01305512
0.01552471
-0.00477729
0.00219848
-0.01796394
-0.02723486
0.00920751
0.00152601
-0.01793044
-0.00610602
0.00959421
-0.01332170
-0.00198794
-0.07594933
-0.01505664
0.00623647
-0.04546079
0.00756616
0.01674366
0.04099237
-0.00679059
-0.01393002
0.00223036
-0.00093982
0.01822123
-0.02283965
0.01243674
0.01034688
-0.00384684
0.03406802
0.00391107
0.00137573
0.03019083
-0.00617392
0.00474490
-0.02895924
-0.02625897
-0.01673691
0.00437668
-0.06218071
-0.03577262
-0.00819783
-0.01308426
-0.02987397
-0.01050511
0.04452652
0.00022227
0.01475116
0.01223300
-0.03271380
0.02295232
-0.03780137
-0.00110347
-0.00407219
0.00801568
0.00382506
-0.01447914
-0.01614117
0.03057950
0.02422105
-0.00055967
-0.00005026
0.00808156
0.00166147
-0.01271381
-0.00328073
-0.04326968
-0.00786011
-0.00848918
-0.01090510
-0.00624682
-0.01589303
0.02428412
-0.00286314
0.03235070
0.02484019
-0.03633736
-0.01408347
0.04004533
-0.01270542
-0.00563491
-0.02068700
0.01968080
-0.03559942
-0.01929748
0.04898063
-0.01377517
-0.01821277
-0.01802112
-0.00213510
-0.02311309
-0.02650560
-0.00071597
-0.03256759
-0.02297054
0.00468083
-0.01296054
-0.01801490
0.01133689
-0.02318286
0.00636428
-0.00675624
0.00678886
0.01826971
-0.02717037
-0.00019582
0.02108295
0.01057832
-0.01217506
0.04145928
0.00118149
-0.00133843
-0.00025321
-0.02489046
-0.01424358
-0.03810825
0.00034372
0.00187640
0.01306567
-0.00561506
0.01445056
-0.01343975
0.05825588
-0.03520660
-0.01498834
0.00454183
0.01708952
-0.00066623
0.06364319
-0.00259726
0.01769556
-0.02243233
0.00016831
-0.01791316
-0.00919204
-0.02152978
0.02163041
0.02146255
0.01465964
0.01374253
-0.01985266
0.00381516
0.00655839
0.01358468
-0.02857573
-0.00389659
0.01726401
0.00288193
0.00680492
-0.00381926
-0.05617275
0.00199434
0.00768423
-0.01732084
0.02816778
-0.01090851
0.02024638
0.01734122
-0.01053451
-0.02335280
-0.00515720
0.00705326
0.00824654
-0.00389063
-0.00015229
-0.00333349
0.00122634
-0.02555873
-0.00681732
0.00826283
-0.00502587
0.01641021
-0.01453908
-0.01490122
0.02210784
-0.01122464
-0.00010660
-0.00493926
-0.00707549
-0.01135015
-0.00737113
0.03517874
0.01547605
0.01996574
0.00620800
0.00540808
0.03433656
0.03069206
-0.00910518
-0.02738066
0.02850700
-0.01762605
-0.00752782
0.00619286
0.00140964
0.03083197
0.01677405
-0.00725927
0.02464770
-0.01036953
0.03557462
-0.00996380
-0.01339057
0.01286231
0.06185338
-0.00982666
0.00987630
0.01379687
0.01377136
-0.02466509
0.00263550
0.00636809
-0.00505655
0.04117603
-0.01134900
0.00502292
-0.01237290
-0.05464445
0.02865658
0.01396420
0.00182241
-0.04005064
0.02925092
-0.03093880
-0.02073568
-0.02836877
0.00849630
-0.00038283
-0.01074770
-0.00186116
0.00500566
0.01764077
-0.02072086
0.01818030
-0.05891171
0.03273858
0.01648411
0.00802728
-0.01146502
-0.00692072
0.01555192
-0.00169279
-0.00185081
0.01545798
0.00174293
0.02796988
-0.00529967
0.01141374
0.02616521
0.04655793
-0.01657495
-0.00198617
0.00078660
0.00335669
0.00952297
-0.03007578
-0.00513996
-0.01150371
0.01834496
-0.01393488
-0.02805821
0.01418960
0.00151909
0.01493615
0.01992611
-0.01058081
-0.00062982
-0.01711197
0.03014066
-0.01911956
-0.00962306
0.04395991
-0.04526433
-0.01133592
0.00897076
0.00071437
-0.00595443
-0.00338948
-0.00194934
0.01875043
-0.02193848
0.01087495
-0.01680283
-0.00233419
0.00495678
0.00292873
-0.01129087
0.01236648
0.00854582
-0.00647283
-0.01243279
-0.00866912
-0.00028453
-0.00967851
0.00831679
-0.02706851
-0.03789462
-0.00312281
-0.00837293
0.00976017
-0.03716610
0.00324961
0.01097475
-0.00220889
-0.02427576
-0.00053533
0.00639337
0.01694093
-0.02847295
-0.00597614
0.00075745
-0.01583638
0.00545857
0.00648615
-0.00690275
-0.00306324
-0.04249121
0.00983609
-0.01345349
-0.00920418
-0.01735232
0.02580642
-0.00683184
0.01557401
-0.00521073
0.00287957
0.00494544
-0.00410996
-0.01366104
-0.01349313
0.01383606
-0.00209747
-0.01002200
0.00509975
0.00875412
-0.01111620
-0.01731696
0.01021064
-0.00527177
-0.02885106
-0.01244624
0.02550003
0.02664850
-0.00411185
-0.03120738
0.00184485
0.01697780
-0.01705647
-0.01507985
-0.00783881
0.00289276
0.01437292
-0.03666741
-0.00248100
0.01942440
-0.00575064
0.00661077
-0.01029651
-0.01512749
-0.01446974
0.01633034
-0.01563453
-0.00490941
-0.00964956
-0.00690628
-0.03931517
0.00741821
-0.00318039
-0.05121835
0.00716863
-0.02787387
-0.02247693
0.01394819
-0.00026036
-0.01862277
0.02345687
-0.01741274
0.00213120
0.00258635
0.00611539
0.01074299
0.03248955
0.02598948
0.00192257
-0.00675245
0.00189505
0.02509504
0.02194674
0.01723276
0.00296677
0.01963984
-0.00519774
0.02802746
-0.00847148
0.02949050
-0.00981521
0.00189063
0.03271662
0.01100654
-0.00229135
0.02778605
-0.00107524
0.01018068
-0.02657347
-0.00031668
-0.00348041
0.00503171
-0.02869713
0.00415862
0.03544028
0.01363249
0.00440116
-0.01046696
0.00080768
0.04004084
0.01876651
-0.00599719
0.01130521
-0.01438768
-0.02422317
-0.00265691
-0.02086217
0.02020918
-0.00877794
0.01296689
0.00080610
-0.04462329
0.01834918
0.01587932
0.01897859
0.01871427
0.00740202
-0.00477420
-0.03375538
0.03155737
-0.02807968
-0.01493228
-0.00695754
-0.03043089
-0.01921609
0.02144441
0.00779846
0.02349605
-0.02492499
0.01800937
0.00007239
-0.00005220
-0.00101290
-0.00896853
-0.00116839
0.01878885
-0.01517065
-0.04538563
0.00087798
-0.01640039
0.01320121
0.00614766
-0.01574100
-0.00172417
-0.00318642
0.01619515
-0.02472643
0.01676246
-0.00453750
-0.02496201
0.00648713
0.00110155
-0.01591106
0.00314888
0.01297653
-0.01189226
0.01242689
-0.01865651
0.00654792
0.00016044
0.01959361
0.00236685
-0.00267218
-0.00203894
-0.00930663
0.00102396
-0.00170565
0.00474589
0.00806244
-0.00433221
-0.00270277
-0.00299550
-0.00698348
0.00494201
-0.01314298
-0.00157279
0.00764095
-0.00678611
-0.00290706
0.02044899
0.00919290
0.00619582
-0.00856131
0.02263390
0.02847316
0.00531687
-0.00084959
0.00143085
0.01461746
-0.04235784
0.01440593
0.02174226
0.00926528
0.00313910
-0.00119487
0.00029093
0.01106299
-0.02257885
0.00903677
-0.00801771
0.02184086
0.01806499
0.00158366
-0.01897104
0.00199653
0.00563817
-0.00684517
-0.00764069
-0.00786825
0.02217164
0.00760074
-0.00443943
0.00801508
-0.00519145
0.01488147
-0.00931824
-0.02233504
-0.01309074
0.00425815
-0.01953428
-0.00999207
0.00034135
-0.00563229
0.00387923
0.00094581
-0.00060850
0.01077329
-0.03904988
-0.00855216
0.01783900
-0.02281776
0.00048707
0.01345794
0.02332627
0.00029435
0.00476082
0.01757151
0.00387157
-0.00624012
-0.00571716
0.00409525
-0.00902597
-0.00443812
-0.00877535
-0.00694292
-0.01227191
-0.00093338
-0.00122658
0.00686833
-0.00163012
0.02459056
0.00621017
0.01760664
0.00779801
0.00555395
0.00539753
-0.00294913
-0.01467905
0.01383741
-0.01508764
-0.02002408
-0.01364406
0.00405786
-0.01170075
-0.01271827
0.02920260
-0.00724574
-0.01053453
0.00275360
0.02515791
-0.02448742
-0.03542861
-0.00409576
0.01686635
0.01492445
0.00619221
-0.00606895
-0.02083226
-0.00907469
-0.01047545
-0.00713398
-0.00640869
0.01800380
-0.01365718
-0.00517929
0.00883109
0.00727169
-0.00710733
-0.01445642
0.01225575
-0.01740680
0.00340313
0.00826935
0.00570825
0.03733936
0.00033696
-0.00075351
0.00536236
0.01974940
0.00427771
-0.00459433
0.01375299
-0.01665935
-0.00328989
0.00506898
-0.01215085
0.00236206
-0.00527634
0.00603179
-0.00080115
0.04867200
-0.02236678
-0.03564340
-0.02693839
-0.04714972
0.00712485
-0.00908762
0.02502507
0.06704286
-0.04486856
0.03444395
0.00978084
-0.00764279
0.00394373
0.00194593
-0.00114887
-0.01178587
0.00874735
-0.00053872
-0.01127582
0.01251537
-0.03393545
0.00624587
0.00380961
0.00023557
0.02454345
-0.00825457
0.01863239
0.01828921
-0.00807822
-0.00522194
0.01566419
-0.01372422
-0.00446759
-0.02424334
0.04461766
0.02317934
-0.00034860
0.02421610
0.00941712
-0.01931837
-0.03033709
0.01617165
0.00562912
-0.03890611
-0.01094658
0.01225353
0.00977398
-0.01438978
0.00694746
0.01904884
0.00410350
0.03881761
-0.02385500
0.04110049
0.03894136
0.05043939
-0.00597565
-0.01229412
-0.01546194
0.01151696
0.00098926
0.00786716
0.00083498
0.00677240
-0.00507101
-0.01238125
-0.03041359
0.01058279
-0.02652236
-0.02032096
-0.00576808
-0.00736533
-0.07766072
-0.00810091
0.01775040
-0.03777610
-0.00383869
-0.01473858
-0.01012975
-0.03070123
-0.03046844
0.03179727
0.00483151
0.01365237
-0.02895184
-0.00282683
-0.06154231
0.00157049
0.02067941
-0.02791398
-0.01620288
-0.00511413
-0.01930501
-0.00620578
-0.01245325
-0.01868491
0.00642818
0.05307343
-0.00826398
0.00430762
0.01046148
0.01002177
-0.03867576
-0.03090934
0.01355424
0.00189020
0.00423631
0.02127170
0.00096744
-0.00880362
-0.00629345
0.00022635
-0.00869744
0.06335147
-0.00504793
0.00676174
0.01347770
-0.00358793
0.00716922
0.01064463
0.00683065
-0.02821722
-0.01650361
-0.02379168
0.00013963
-0.01874774
0.00304546
0.01299090
-0.01208984
0.04963182
0.02495958
0.01595202
-0.01846325
-0.00641475
-0.00430827
0.00785992
-0.01524313
0.00596470
0.04582967
0.00779222
-0.00342256
0.01866081
-0.01904556
0.01401120
-0.02114995
-0.02657699
0.04702896
0.00388964
-0.04370562
-0.02146939
0.00865847
-0.00780758
0.01220486
-0.00586816
-0.00960811
-0.01500023
0.00137121
0.00538495
0.00582108
-0.02060278
0.02011900
0.00473083
-0.00493727
0.00126848
-0.02477616
-0.02743686
-0.00436883
-0.01049754
-0.02459734
0.01211306
0.01856480
-0.03322808
0.01437090
0.02369201
-0.00768873
-0.01782582
-0.00409523
-0.01660892
-0.00927417
0.00722385
0.01000108
-0.02377954
-0.00231968
-0.00038540
0.02999941
-0.00186345
0.01941388
-0.01329434
0.01409776
0.01792856
-0.01195981
0.00827194
-0.01052015
-0.01221155
-0.01845552
0.01018244
0.00841450
-0.00535204
-0.01635657
0.01483031
0.01916257
-0.00255675
-0.04476427
0.00494812
-0.01222187
0.02818554
-0.01655443
-0.02198069
0.00026945
-0.01489022
0.02760559
-0.00909754
-0.01147890
-0.00141618
-0.01364252
-0.00807899
0.00027212
0.01978752
-0.00020448
-0.01611428
0.00073097
0.01350240
-0.01042776
-0.01014252
-0.01710201
-0.00278101
0.04079336
-0.02053171
-0.04524573
-0.03976076
-0.00168093
-0.00781425
-0.00513791
0.00126865
0.00530180
0.01470892
-0.01829776
0.00777036
0.00439562
0.00528709
-0.01859960
-0.00675729
-0.01716714
0.01241716
0.00899482
0.01540151
-0.00473298
-0.02665120
0.01701330
0.01134601
-0.00856256
-0.00775822
-0.00246828
-0.01032041
0.00982038
-0.01568622
0.00632847
0.04337186
-0.00045325
0.00798124
-0.02464146
-0.00167961
0.00078980
-0.00144476
-0.00261669
0.02006463
0.00930260
-0.01994697
0.02139000
0.00157560
-0.01656127
0.01495495
-0.03564911
0.00140827
0.00673924
0.01133726
0.02172093
-0.01409773
0.02763395
0.01452356
-0.03168868
0.03314705
-0.01384708
-0.02965224
0.01404978
0.00487536
-0.03990869
-0.00687191
0.02015062
-0.00079573
-0.01216442
-0.00125954
0.00772312
0.00562180
0.00780446
-0.00212085
0.01135898
-0.02365608
-0.00521880
-0.01670167
0.00390561
-0.00465207
0.01157097
0.02453513
-0.00266896
-0.00735156
-0.02099709
0.02235359
-0.02810072
-0.01481225
-0.00135142
-0.00340398
0.02540436
0.00465292
0.00823463
-0.00694214
0.00066709
-0.00009640
0.00543613
0.00619537
-0.01282798
-0.00047402
-0.01886872
-0.02218994
0.00501716
-0.00170862
0.01105154
0.00800473
-0.01569149
0.00839859
-0.02824771
0.00208760
0.04391121
-0.00915980
0.00688958
-0.00113567
0.00961565
0.00372460
-0.00643509
-0.01965987
-0.01243419
-0.02303701
0.01092986
-0.00594327
0.00579911
-0.01035168
-0.02207883
0.01097440
0.00877692
0.00401449
-0.00277601
-0.02053357
0.02633052
0.00412179
0.01421613
0.02225649
-0.00150831
0.02616874
-0.00437102
0.01053233
0.01096593
0.00045284
-0.02224952
-0.00985637
0.00248865
-0.01323370
0.01470172
0.00452904
0.00762455
0.01796158
-0.00606393
-0.00893495
-0.03405899
0.01962753
0.01454898
0.05233056
0.00416847
-0.01229580
0.00801236
-0.01392352
0.00508453
0.00825211
0.01910129
-0.02171279
0.00290107
-0.01345663
-0.00789325
0.00381073
-0.01479183
0.00583964
-0.01248461
0.00570846
0.00187409
-0.00404131
0.00742008
-0.00417723
-0.00875857
-0.00441269
0.00455403
-0.01091671
-0.01755084
-0.00028314
-0.00410834
-0.01486595
0.00539665
0.00476975
0.00071769
0.00882945
0.00719584
0.00188105
-0.01959538
-0.01076324
-0.00978597
0.00815557
-0.01456559
0.00520072
-0.00380503
-0.00782171
-0.00626933
0.00036774
-0.00861409
0.00558996
0.00877846
-0.00911305
0.00008374
0.01638735
0.02260199
-0.00685656
-0.00452791
-0.00907537
-0.01712189
0.00896219
-0.03010081
0.00777246
0.00425447
0.01377675
0.00864888
-0.00061068
0.01777226
-0.00814355
0.01015065
-0.00999003
-0.01584910
-0.00568617
-0.00250344
-0.01638066
-0.01358336
-0.01155760
0.01844171
-0.00623602
-0.01706820
-0.00470822
0.01409631
0.00184073
0.01565744
-0.00490150
-0.00905258
-0.00163371
0.01469921
-0.01259837
0.02019134
0.00074029
0.00277478
0.00209927
-0.01546595
-0.01287809
-0.00198391
-0.01350292
-0.00230853
-0.02619620
0.00190034
0.00805697
-0.00742246
-0.00987052
0.00859664
0.00279427
0.01365736
-0.02328120
0.02110297
0.01828555
0.01830828
-0.01087619
-0.01550453
0.00388208
0.01933069
0.00005346
0.03413673
-0.01639272
0.02962837
-0.01272264
0.00338611
-0.00151748
-0.00721242
0.04214811
-0.03518115
0.02535551
0.00336897
-0.01156498
-0.03495904
-0.01589756
0.00305533
0.00194287
-0.00417697
0.00451359
0.00953043
0.00990941
-0.00989338
-0.03395424
0.05787000
0.00680888
0.05378254
0.01870116
0.00937836
-0.01762231
-0.00355730
0.03955253
-0.00313621
0.04076409
0.00362477
-0.00614187
-0.02005530
0.02230305
-0.02102810
0.03422644
-0.03057460
-0.02530640
0.03414860
-0.00152716
-0.00689964
-0.00840353
-0.03798687
0.02439547
-0.02635686
-0.00438421
-0.05329567
0.02035580
0.00921800
-0.02130063
0.02355639
-0.02622049
-0.01979459
-0.03958063
-0.03868732
0.00848632
0.02103284
0.00129233
-0.00038788
0.00358604
0.00755137
0.00110842
-0.04145383
-0.00433250
0.01132925
0.01148979
0.02642880
-0.01261798
0.04011600
0.00480147
0.01521159
-0.01859486
-0.00669843
0.00966803
0.02611749
0.03773351
-0.01076132
-0.00043881
0.01297131
0.00522075
-0.04285118
0.00406052
-0.00424731
-0.00703752
-0.00087391
-0.01855998
0.01437434
-0.03144078
-0.01485540
-0.02006501
0.00054152
-0.00204136
0.01763713
0.00433891
0.01540258
0.00437189
0.01964446
0.03271213
-0.00220050
-0.00682263
-0.05269625
-0.00310486
0.03507807
0.00327952
-0.01726310
-0.00763978
0.00940836
-0.00424748
-0.00721655
-0.02939283
0.00434399
-0.01646634
-0.02349450
0.02087136
0.00016507
-0.00806312
0.00165729
-0.00623896
0.02881619
0.00127994
-0.00615845
-0.01480883
-0.01131072
0.04710400
-0.00778228
0.01045501
0.01551746
0.00043150
-0.01190578
0.04424800
-0.04007863
0.02215341
-0.04541333
0.02832879
-0.01272924
-0.02414175
-0.01286117
0.01632896
-0.02696382
-0.01060836
-0.01116686
-0.02023143
-0.00510396
0.05388583
0.02507676
0.02323796
0.03183315
-0.00990858
0.01667551
0.00468328
-0.04471767
0.00110530
0.01651806
-0.00721858
-0.01545096
0.02536585
-0.04820543
0.00899817
-0.01936092
0.01593976
0.00436171
0.02675973
0.00921297
0.00188441
0.01479950
-0.03003226
-0.02017128
-0.01480424
-0.01149271
-0.00633563
-0.00039686
0.00624123
-0.00305518
-0.00636856
-0.01363310
-0.00355186
0.02385874
-0.01564665
0.01945105
0.00210422
-0.01100777
-0.01057566
-0.00914627
-0.00782893
0.05985112
-0.01488100
0.00101583
-0.00219183
-0.00677578
0.00926106
0.03713980
0.03667982
-0.01249692
-0.04852192
-0.00123825
0.01785606
0.00147842
0.03079409
-0.02178603
0.02547717
0.05287940
0.00624063
-0.03222175
-0.00209529
-0.00459334
-0.01151652
-0.03003201
0.01980568
-0.00961240
0.01265523
-0.01461828
0.01705370
0.00300288
0.01028332
0.00083918
0.01592561
-0.01861424
-0.02675687
0.01690978
-0.01450474
-0.01392352
0.00043900
-0.00915436
0.01509548
-0.02269578
-0.00316495
0.00623274
-0.01193402
-0.02950905
0.00032356
-0.02822651
-0.01175027
0.00249325
-0.00853283
-0.00809494
0.00314713
-0.01646079
0.00367728
0.01043713
0.00648584
0.02413011
0.02203328
0.00086968
0.01640292
0.02182889
-0.00113238
0.01143541
0.00396711
0.01804025
0.01948135
-0.03280000
-0.02590422
0.02357147
-0.01731806
0.03542222
-0.01465062
-0.01450748
0.00015752
-0.00396220
-0.00994473
-0.02111961
-0.00807493
0.01873969
0.00181929
0.00674028
0.00461075
0.01074447
-0.02592693
-0.01927082
-0.00307566
-0.02283166
0.02876684
-0.04833539
0.01356185
-0.01566861
-0.02232877
-0.02578667
0.00780527
0.01440420
-0.01198204
0.00299542
0.00305278
0.00170087
0.00347784
0.00064809
-0.00399488
-0.04170798
-0.00607269
0.00554049
-0.01698457
0.03777715
-0.01757724
-0.01641994
0.03349895
0.01173719
-0.00145736
0.02140890
0.00503368
0.02594476
-0.00445425
0.02122531
-0.02239599
-0.02511258
-0.01878513
0.02022420
0.00659918
-0.00167249
-0.01783715
-0.01702067
0.00887901
0.01273641
-0.00449609
-0.00117172
0.00463869
-0.00081993
-0.04430242
0.02565243
-0.01272935
-0.03955669
-0.01381964
0.00749539
0.05352477
-0.04306102
-0.02227459
-0.00454399
-0.00693514
0.00963891
-0.00483837
-0.00684528
-0.00029933
-0.05025518
0.00697844
0.00844278
0.15944798
-0.07896456
-0.07388670
0.02615246
-0.00779035
-0.02548305
-0.01133500
-0.01572486
-0.17883946
-0.00663530
-0.01931426
0.02454527
-0.00133990
-0.01663060
0.07164378
0.00826105
0.03310769
0.00080895
0.02387049
-0.02055795
-0.00292882
-0.01386428
-0.00435628
0.03179965
0.00536277
0.36349699
-0.04894563
-0.00320618
0.01561643
0.03444030
0.02819866
-0.02336833
0.01428269
0.01262839
-0.00713210
-0.00684138
0.02367343
0.02086310
-0.00112253
-0.02381939
0.00736816
-0.03672623
0.02237064
-0.00437526
-0.00388129
-0.01090261
0.00848168
0.00404745
0.03418650
-0.02253900
-0.00487681
-0.02368873
-0.00260077
-0.00613445
0.00455114
-0.15975218
0.00596156
0.00125591
0.01787012
-0.03772667
0.00056643
-0.00949539
-0.05426979
-0.00773609
0.00532983
-0.01347200
-0.01337983
0.03642986
0.01906838
-0.00505991
-0.02314085
-0.00594825
-0.00672707
-0.01966312
-0.00127294
-0.00553935
-0.03407533
-0.02290411
0.04955364
-0.10818990
-0.00467621
0.00741582
0.00801961
-0.00995120
-0.01660361
-0.00458900
-0.01597431
0.03593023
-0.02420120
0.01550229
-0.02081378
-0.05282095
-0.01111547
0.01262116
0.00007605
0.00344850
0.00791729
-0.02470695
0.00637902
-0.02639084
-0.03247957
0.01265484
0.03681916
0.08081039
0.01050301
0.00694494
-0.04346414
-0.02068458
-0.00437810
-0.01725229
-0.00796389
-0.03592527
0.01224433
-0.03675741
0.01682219
-0.01853287
-0.01474900
-0.01730379
-0.01602999
0.00281798
-0.00867349
0.00796981
-0.02382374
0.04359501
-0.00051210
-0.00456469
-0.01736484
0.00050475
0.14499184
0.01910929
0.17875443
0.01749277
-0.04653861
0.00036666
-0.01802383
-0.02339167
-0.00453794
-0.01158714
0.01207090
-0.02030612
-0.01724068
0.00070511
0.03049862
-0.01846364
-0.03000757
0.00122997
-0.00634525
-0.01009342
0.00413004
-0.01903076
0.02785017
-0.00702564
-0.02000053
0.00582852
-0.03310508
0.00397620
-0.02763020
-0.00521826
0.02818190
-0.00493538
-0.00493639
0.00093309
-0.03119589
-0.01090077
0.02119263
-0.02014737
-0.02858374
-0.01087258
-0.00337819
-0.02073571
-0.00768154
0.01619811
-0.00014039
-0.00569655
-0.01995751
-0.02041528
0.00923359
-0.01402953
-0.02384819
0.01622678
-0.00142621
0.01293759
-0.00406419
0.00474198
0.01044394
-0.01727466
-0.00976747
0.04416294
-0.03378603
-0.00856429
-0.01565436
-0.00101755
0.01485159
-0.00284062
-0.04116070
-0.03072400
0.02580374
-0.00116271
-0.00772064
-0.01687170
-0.01165414
-0.04162837
-0.01392033
0.00557059
-0.00994339
0.00056598
0.01933781
-0.01426075
-0.01657948
-0.00240319
-0.06026946
-0.00615037
0.02486750
-0.00464575
-0.01276717
-0.02532598
-0.01228143
-0.02886536
-0.01444673
0.01921234
0.03587539
0.03008273
-0.00180047
0.01935697
-0.02911809
0.03418253
-0.00797768
0.02624533
0.01512224
0.01494695
-0.03377576
-0.02666236
-0.01837912
-0.00627518
-0.02657196
-0.01624028
0.00747322
-0.00005384
0.01551128
0.00672599
-0.01650935
0.02586277
-0.01303747
0.00889539
-0.00711169
0.04808621
0.02932857
-0.05571042
0.01769562
-0.04301751
0.00080611
-0.02144084
-0.02937747
-0.01495439
-0.00411792
0.00564928
-0.02213522
0.01181193
-0.01006032
-0.00260280
-0.00987027
-0.01586768
-0.02824449
0.00692000
0.00003396
-0.01474911
-0.00168489
-0.01473864
0.01120197
-0.03327640
-0.01562418
-0.00384889
0.00117015
-0.01230926
-0.00338587
-0.01553794
-0.01029459
0.00103323
0.01033121
0.03705342
0.02403063
0.00731072
0.02880959
0.01647303
0.00765059
-0.00564082
-0.02529639
0.01999370
-0.02256894
0.01215815
0.01416107
0.02210652
0.00832911
-0.02262540
0.00824259
-0.02471432
0.00216100
-0.00029712
0.01388978
0.00581086
-0.01044850
-0.01913390
0.00253338
0.01056014
0.00013375
0.00344952
-0.01032572
0.01911903
0.00011501
-0.02999703
-0.06152115
-0.00375722
-0.00262845
-0.00740242
0.00213926
0.00646352
-0.00863941
-0.02321105
0.04388779
0.00740318
0.17256804
-0.00123933
0.11231778
0.00908971
-0.01898963
-0.01539548
0.01573322
0.02355074
-0.01075837
0.01505130
-0.00286966
-0.00823797
0.02132956
-0.01205922
0.06079483
-0.00552314
-0.01531584
-0.01336032
-0.00894236
-0.00574641
0.00963120
-0.03695758
-0.01469135
0.02141112
-0.02954488
0.06061386
-0.01889878
0.00920192
0.01231209
-0.00895756
0.00677579
-0.02104720
-0.00507694
-0.00586320
0.00931262
-0.00035181
-0.01373782
0.00403697
-0.01494201
0.02773758
0.01968635
0.00729118
-0.00649077
-0.01021916
-0.02116951
0.00774379
-0.00292855
0.01882685
-0.04846121
-0.00163166
-0.01248526
-0.01183626
-0.00571509
0.00533454
-0.01390791
-0.03219684
-0.01370870
-0.01934980
-0.00340178
-0.01884256
0.00247797
-0.00670309
-0.05005594
0.02523272
-0.01493121
-0.00074166
0.00632885
0.02149890
-0.00118690
-0.00099594
-0.00612885
0.00114704
-0.02028182
0.00576376
0.00001012
-0.00267283
0.01717183
0.01661768
0.04226879
0.01384032
0.02057750
0.00258088
-0.00717678
-0.01953462
0.01564898
0.00610369
-0.01108886
-0.01536797
-0.00546683
0.00639793
-0.02432533
-0.01785286
-0.00645243
-0.00930356
-0.00970363
0.00379539
-0.00244375
0.01587391
0.00112817
-0.01001794
-0.02692693
0.03396667
0.02055328
0.00649472
-0.03882911
0.00102253
0.08225231
-0.01909982
0.00515971
0.00434967
-0.00242853
-0.02797792
-0.01834708
0.02037849
0.13341144
-0.00419263
-0.01267366
-0.00679736
0.00370453
0.00772334
0.00579826
-0.00803080
-0.00021253
-0.01781825
-0.00355495
-0.01255953
-0.01452842
0.00841276
-0.10503311
0.00565504
0.07232492
0.00003110
-0.00111799
-0.01380984
0.00706073
-0.00121942
0.01174200
0.01728209
0.00717481
-0.00489287
0.01690569
0.00709259
-0.05615564
-0.00715002
0.01738691
0.01292386
0.01473235
0.01230084
0.00698974
0.00240277
0.02688229
0.00904566
-0.00915680
0.00218400
0.00268330
-0.00134781
0.01382146
-0.00482930
0.01802475
-0.00252066
0.00317370
-0.00403607
0.00741226
-0.00703709
-0.00488057
-0.00119688
0.03338038
-0.01502309
0.00652846
0.02068349
-0.00121454
-0.04325908
0.00013122
0.00682674
-0.00404997
-0.00424145
-0.02331428
0.02350260
-0.01543164
0.00321191
0.00580203
0.00207229
0.01413047
0.00072300
-0.00731154
0.00363331
0.01671490
-0.01853519
0.00557230
0.00234236
-0.00762099
0.00993843
0.00808678
0.02641697
-0.00126688
0.00901950
-0.00599152
0.00089057
0.01210263
0.00757106
-0.01044515
0.03878522
-0.01245714
0.04431169
0.02257721
-0.01138636
-0.01604195
-0.01446928
0.01039888
0.01181352
-0.01443030
-0.00500303
0.00534127
0.00674940
-0.00279936
-0.00030979
-0.02042736
-0.00610656
0.01143611
0.00723704
0.02936609
-0.01335035
0.00003166
-0.00401988
-0.04797808
-0.03556211
0.00263192
-0.01870038
-0.01466299
0.00609528
0.01341637
-0.02450752
0.02358016
-0.00792119
-0.02368202
-0.00624435
0.02766301
0.01589664
0.00085984
-0.01889458
0.00102661
0.00862905
0.02266852
0.03397780
-0.00777578
0.00274499
-0.00286477
0.00188170
-0.02033212
-0.00477376
-0.00597367
-0.01563029
0.01929341
-0.00720662
0.03206792
0.00305279
0.00147297
0.00847939
-0.01626764
0.04000072
0.01346922
-0.00958211
-0.05335084
0.00645319
0.02090760
-0.01970823
0.01781441
0.00400439
0.01334299
0.00703740
-0.00009232
-0.00534975
-0.00289977
-0.02069109
-0.00913420
-0.01694554
-0.01009228
0.00475044
-0.01543934
-0.01488912
-0.00139281
0.00122077
0.00669181
-0.00481927
0.01142599
0.02511556
-0.03292007
-0.00456371
0.00097259
-0.00858231
-0.00891956
-0.02052503
-0.00726581
0.00268157
-0.00586514
0.01635668
0.00039433
-0.06490049
-0.01099952
0.01152123
-0.00198171
0.00515550
0.00265289
-0.01325707
-0.00328858
-0.00095354
-0.00429088
-0.01176526
-0.02030943
-0.00987025
-0.04562512
0.01461549
-0.02600920
-0.01820148
-0.01988476
0.00343175
-0.00128397
0.01129437
0.01974803
0.00988228
0.00570482
0.01793603
-0.00828340
0.02739689
0.00690704
0.01149702
-0.02163371
0.03243320
0.01838821
0.03583532
-0.00358331
0.00169284
-0.04319711
-0.00343598
-0.03367384
0.00245396
-0.00090621
0.00709896
0.01669253
0.02478855
-0.01624584
-0.02365315
0.03747768
-0.04371102
-0.02238459
-0.05248170
0.00313626
-0.00278303
-0.00357837
-0.01305789
0.00517524
0.03289486
0.00029799
0.01105507
0.00398153
0.00309557
0.01204339
0.00843532
-0.01134744
0.00309616
0.00728083
-0.01132083
0.01766418
-0.00419273
-0.01609917
-0.00990264
-0.00186255
0.01088371
-0.00056558
0.00314191
0.00771852
0.00418965
0.00687274
0.02294667
-0.01157863
0.07442902
-0.02194992
0.01228612
-0.00099325
0.00729898
0.00780828
-0.00369125
-0.00808582
-0.01397784
0.02458534
0.00817939
0.01446977
-0.08744486
0.01438166
0.01025352
0.01323746
-0.00429457
-0.02313330
0.01626135
0.00658950
0.00732172
0.02241899
-0.00644838
-0.03859686
-0.00708218
-0.00399785
0.00250369
-0.01285084
-0.00973985
-0.01961097
-0.00855650
-0.00623023
-0.03278440
-0.00558414
-0.01957282
0.00654936
0.00874363
0.01806891
-0.00744508
0.01024203
0.01579512
0.02881940
-0.08481256
-0.01074132
0.02500179
-0.01735539
0.05143769
0.00360149
-0.00483275
-0.03981817
-0.01079979
-0.01484295
0.00633677
0.02113824
-0.00207952
-0.01702232
-0.04119778
-0.02386480
0.01776306
-0.01003537
-0.01123087
-0.02405345
-0.00693597
-0.00842442
-0.00626592
0.03872994
0.00535332
0.00541778
-0.00325595
-0.01951764
-0.00528006
0.00745631
-0.01930628
-0.03171114
0.02757806
-0.05021139
0.00622274
0.03748496
0.00508418
-0.00536991
0.00447860
-0.01911487
-0.02936804
0.02247754
-0.01294161
-0.00175451
-0.00091194
0.01286885
-0.00268497
-0.01454205
0.00320664
0.02408914
-0.01343075
0.03343304
-0.00633092
-0.00850129
0.00042794
-0.01680359
0.01667733
-0.00323637
0.00829491
-0.00002888
0.00270994
0.01209131
-0.00097222
0.04904449
-0.00640442
0.00299776
0.01735182
0.01704364
0.00915489
-0.02620964
0.00503704
-0.02689466
0.00790353
-0.02029261
0.01603328
-0.01521978
0.00031572
-0.00025098
-0.02068485
0.00888763
0.02006201
-0.00251797
-0.00701695
0.01528544
0.01685703
-0.01214396
-0.02560213
-0.00642974
0.00215948
0.00216202
0.00469607
-0.00291546
-0.04084310
-0.00196278
-0.01645301
-0.00741950
0.01128971
0.01267737
-0.01050326
0.00899660
0.00644924
-0.00434877
-0.00826071
-0.01458581
0.00414590
0.00616859
0.00995742
-0.01731113
0.00911992
-0.00207490
0.01766046
0.00707374
0.00750827
-0.00509040
-0.00805790
0.00080517
0.02675641
-0.02967834
0.01307015
0.00399036
-0.01580832
0.01470022
0.00487869
-0.01591103
-0.02416547
-0.00506093
0.01828200
0.00570636
0.02588147
0.00295344
0.00208650
0.04606924
-0.00099790
-0.00606938
-0.03807771
-0.00318349
0.00450846
-0.00436902
0.02295303
0.01618291
0.01429171
-0.01298324
-0.01561791
0.01507812
0.01171642
-0.02069633
0.00377469
0.02436489
0.02557189
0.00539236
-0.01585487
0.01630817
-0.01168885
-0.02286911
0.03649978
0.01438597
0.00378698
0.00115970
0.00007014
0.00788224
0.01635484
0.00536770
-0.03291265
-0.01481046
0.02882581
-0.01102944
-0.00954496
-0.00862088
0.00825573
-0.02076687
-0.00894812
0.03022532
-0.00265524
-0.02565723
-0.01307632
-0.00886828
-0.00934701
-0.02064235
0.01747118
-0.01895608
-0.01134704
-0.00232027
0.00831465
0.01985802
-0.00667832
0.01845478
0.01723756
0.00711672
0.02694718
-0.00884079
-0.01330836
0.01294100
0.00051696
-0.01375989
0.00805097
0.00310134
0.01455160
-0.01104906
0.02088838
-0.00268806
-0.01926881
-0.00753485
0.00414033
0.00822323
0.01450992
-0.01460401
-0.00904658
-0.01165215
-0.00064313
-0.00509308
-0.02029395
-0.01003591
-0.01871416
0.00452899
-0.01480990
0.00667831
-0.02821542
0.00443864
-0.00240370
-0.01351595
0.00110217
0.01156009
-0.02295427
0.00457830
-0.01426665
0.00126364
-0.02330355
-0.01359683
-0.02443175
-0.03578612
-0.00590906
0.00859579
-0.00385310
-0.00445900
0.02628324
-0.00124674
-0.00345415
-0.01342472
-0.00679203
0.03929638
0.00011091
-0.00956472
-0.00833332
-0.01362470
-0.00729954
-0.02494803
0.00280189
-0.00130952
-0.00804551
-0.02573224
-0.01037847
-0.02881201
-0.00315895
-0.01425068
0.02188999
0.00647748
0.00713886
-0.00000573
0.03827364
-0.00818587
0.00867045
0.00025408
0.01075428
0.00305211
-0.02122889
0.01419299
0.00376269
0.02941994
-0.00939383
0.01434141
-0.00521267
-0.00978560
-0.00103585
0.00037370
-0.01569532
-0.01035486
0.00635499
0.01602252
0.00250165
0.00205610
0.01429356
-0.03094852
-0.00819803
-0.01570878
-0.01036467
0.02785585
-0.01417962
0.01773563
-0.01111335
0.01313988
0.00152803
-0.02066639
-0.01994787
-0.00071457
0.00065755
-0.00371891
0.00757553
-0.00532671
-0.00398175
-0.02688774
-0.00826162
-0.01128231
-0.01774741
0.00472862
-0.00798924
-0.00221807
-0.03573254
0.01719113
0.00625469
-0.00089600
0.01603647
-0.04636593
0.02640406
0.00594313
-0.02035614
-0.00202794
-0.00633912
-0.00852892
0.00173551
-0.01570016
0.01059168
-0.00140081
-0.03215731
0.00953649
-0.00422272
-0.01531329
0.01837065
0.01419229
-0.01766900
0.00479965
-0.01052890
-0.00186793
0.01047693
-0.00105416
-0.00931553
0.00815830
0.01335341
0.01548890
0.00878087
0.02031882
-0.01856566
0.01119671
-0.00516803
-0.02289811
0.01516500
-0.03046683
0.00443275
-0.00417349
0.01002825
0.01963035
-0.00718702
0.00459624
0.01844476
-0.00314908
-0.01532930
0.01098883
-0.03893869
-0.00912940
0.00639925
0.00239024
0.02077144
0.01115000
-0.01114488
-0.03229864
-0.01494038
-0.05038700
0.00712721
-0.02724239
-0.02917304
0.00576459
0.02772399
0.00540950
-0.01283797
0.00167159
0.00056389
-0.01736719
-0.00623896
0.01314070
-0.00110037
-0.02500019
-0.01429417
0.01290492
-0.02452662
0.01896944
-0.01061573
0.01304463
0.00983604
0.01795114
0.00989350
0.02617913
0.06703130
0.00486588
0.05416793
-0.01931966
-0.01132437
-0.04063285
0.01003407
0.02524925
0.00529539
0.01436811
0.01552055
-0.01307924
0.03639910
0.02848585
-0.02690564
-0.02441755
-0.00222405
-0.03487047
0.02550019
-0.02235661
-0.01376375
0.01520064
-0.00850199
0.00517462
-0.02164918
0.02964760
0.07625704
-0.01540008
-0.00163288
-0.00053362
0.00743843
-0.03296168
0.00151470
-0.02624604
-0.02582069
0.01496829
0.03139569
0.02370438
-0.00229372
-0.00736347
-0.01601694
0.00276493
-0.01060088
-0.05417073
-0.02984855
-0.00772007
0.02090665
0.03397663
0.02674652
-0.03411790
-0.02091488
-0.01250039
0.00751533
0.00646547
-0.00936145
-0.01502070
0.00650314
0.00029914
-0.07919040
0.00065810
-0.01514883
-0.01395437
0.00252789
-0.02370326
-0.04932171
0.01788735
0.02311033
0.02353891
-0.06408169
-0.00205254
0.03012029
0.01382986
0.01019931
-0.04074679
-0.00154413
0.02864360
0.01577683
-0.02923465
-0.00666680
0.05821421
0.00547942
-0.00527229
-0.01932301
-0.01610473
-0.00604762
-0.00063643
-0.01233259
0.01113098
0.00978706
0.01168367
0.00917894
-0.00888815
0.02667810
-0.00112668
0.02017122
-0.01627108
0.00907222
-0.01376120
-0.02859166
-0.01803253
-0.01415151
-0.01881990
-0.00411607
-0.02412886
-0.01166666
0.02594685
-0.03325580
0.02250486
-0.02831678
0.04972414
0.01673480
0.01971808
-0.00856457
0.00116881
-0.08356295
-0.00313004
0.00442309
0.00381583
-0.01366753
0.01512845
0.02088327
0.02521300
0.00530000
-0.01940379
-0.00472747
-0.01400902
-0.04194508
-0.01059491
0.00909505
-0.00729767
-0.01335302
-0.00360482
-0.01760079
0.01481220
0.00945091
0.03284863
-0.00101890
0.01531390
-0.01371977
-0.00350765
0.01053317
0.00294509
-0.01529390
-0.00805711
0.00534139
0.01851256
-0.00371897
0.01297284
-0.00005113
-0.02540308
-0.00510165
0.03932817
0.01485920
0.02473429
-0.01808899
-0.02019304
-0.06680376
0.00477806
0.00631403
-0.02749950
0.01632741
-0.02002015
-0.00377727
-0.00528842
0.16616905
-0.00823816
-0.00337839
0.03596307
0.02033808
0.00457443
0.01814115
0.01208261
0.00249731
0.00556544
0.06217698
-0.00352385
0.00890811
0.02414726
0.03661544
-0.02531023
0.03499757
-0.01062568
-0.02806418
-0.00366106
0.00466514
-0.00818068
-0.02465926
-0.00949167
-0.00011451
0.02720605
0.00925758
-0.01750364
0.00508848
0.00012193
-0.00254672
0.01138973
-0.00869997
-0.02631057
-0.02555478
0.00952219
0.02229384
0.01933124
-0.00182716
-0.01192463
0.02228935
0.00497086
0.00109189
0.00742430
-0.00851562
-0.00602627
-0.00356740
0.00659071
0.03158198
-0.01448519
-0.01263122
-0.03889224
-0.00270442
0.02335204
0.00375806
0.02425158
-0.00906342
0.02314180
-0.00147348
-0.05354167
0.01225323
-0.01325180
-0.01095608
0.00526441
0.00861771
-0.06104880
0.01290700
-0.02217705
0.02386557
0.00091297
0.00989876
-0.00518552
-0.02600239
-0.03236789
0.01801543
0.01103925
-0.00762784
0.01200787
-0.02862464
-0.00040475
0.03198598
0.00512138
0.02002268
-0.00294423
-0.00402738
0.00440531
0.01780248
-0.02476348
-0.03589822
-0.04272659
0.00095848
0.06971801
-0.01436879
0.01113500
0.03089935
0.04955881
-0.00615435
-0.00321957
0.01062868
-0.01780635
0.00813015
0.01638894
-0.02340838
-0.00225848
0.00991033
-0.01162780
0.01628469
0.02710274
0.06695732
-0.01525466
-0.02271827
-0.00009628
0.00253796
0.00202763
0.00600998
-0.00720492
0.10159034
-0.02120263
0.01457574
0.01098506
-0.04693810
-0.00927268
-0.06215390
0.00980959
-0.00758396
-0.00016338
-0.01376152
0.00012154
-0.00365103
-0.00429462
-0.01107699
0.00165474
-0.00561339
0.01009841
0.03146366
0.02240749
-0.00845698
-0.01354643
-0.01128513
0.02787116
-0.01534637
0.00435953
0.01530141
-0.00517148
-0.00690428
0.00819917
-0.00452726
0.00702765
-0.00823478
-0.03242106
0.03827118
0.00586417
-0.02023973
-0.00063358
0.00035496
0.00011232
0.01092874
0.03316911
0.00416421
0.01007545
0.01643952
-0.00068963
-0.00257334
-0.01459674
-0.00221368
0.00447820
0.01201132
0.01002132
-0.00221744
-0.00653187
-0.01721952
-0.00165455
0.01017087
-0.00566925
-0.02323553
0.00815264
0.01092303
0.00051014
0.00330963
-0.00585275
-0.00194691
-0.00148788
0.00346502
0.02128112
-0.00278892
-0.00104183
-0.00043630
0.00532166
0.07067208
0.00443585
-0.01523645
-0.00385623
0.00804314
0.02084044
-0.00851964
-0.01467690
-0.01797369
-0.03090491
-0.01643869
-0.00269976
0.01260241
0.01207406
0.00365921
0.00029173
-0.00639434
0.00221277
-0.00257179
0.01303512
0.02450356
-0.00394496
0.00825455
-0.00126621
-0.01274313
0.00273462
-0.00062168
-0.01169811
0.00091465
-0.01072027
0.02370063
0.00428689
0.01081114
-0.00428985
0.00467279
0.00701243
0.00348504
0.00103403
-0.00117484
0.00902553
0.00168880
0.00432639
0.01229724
0.00176240
-0.00891980
-0.00072892
-0.00667809
0.00793353
0.00537864
-0.01341215
0.02158391
-0.00302293
-0.00470270
0.00943749
-0.00060391
0.01990368
0.00563795
-0.00671455
-0.00455965
0.00194872
0.01074836
-0.01471896
0.01479068
0.00045077
0.01244223
0.00111316
-0.00296841
-0.00738864
-0.00001509
0.00751577
0.00013646
0.01388174
0.00869488
-0.00418671
0.00219783
-0.02175369
0.02112795
-0.00013989
0.00118213
-0.00117340
-0.00646690
0.00154234
0.00768270
0.01023710
0.00298856
0.00424830
-0.00538402
0.00729150
-0.00456535
-0.03101754
-0.00852562
-0.02641198
-0.00761634
0.03394748
0.00342528
-0.00341957
0.00765414
0.01543258
0.02563184
0.00761695
0.00151500
-0.00136135
-0.00398034
0.00710356
0.01413062
-0.00128722
-0.01492911
-0.03640169
0.01507600
0.00729240
-0.00120453
-0.00833920
-0.00647509
0.01813133
-0.01403372
-0.01612570
0.01177343
0.01176693
-0.00270634
-0.01558002
0.02554094
0.01812263
0.00687762
0.00036847
0.00987160
0.00223410
-0.00883907
0.01214195
0.01434909
0.04319545
-0.01269281
-0.00084169
-0.00034408
0.02398799
0.00755663
0.01919013
0.01264003
0.00052752
-0.00792327
-0.02783749
0.01548611
0.01465247
-0.00910634
0.01150830
-0.02230031
-0.01730776
-0.00208310
-0.00176166
-0.00874715
0.00752795
0.00164853
0.00698882
0.00100691
-0.00694657
0.02793378
-0.01921850
0.02376771
-0.00420776
0.00688778
-0.02893936
-0.00015406
-0.01868401
-0.00969666
-0.02150631
0.01034874
-0.01586160
0.00615872
0.01499367
0.01372966
-0.01552025
0.00403524
-0.04403831
-0.01020268
0.00666983
0.00713989
0.04670094
-0.00884621
-0.00557012
-0.02154179
0.00659515
0.00036241
0.00650280
0.01041144
-0.01111394
0.01093218
-0.00781562
-0.00835467
0.00577462
-0.00770083
0.00309001
0.01052612
-0.00264474
-0.01706658
0.00852143
0.00591167
-0.00295828
-0.00770802
-0.00605200
0.01956477
0.02388687
0.00086032
0.00444378
0.00325368
0.01733233
0.00968691
-0.00769864
0.00839380
-0.01987254
0.00611431
-0.00170272
-0.02250046
-0.01636714
-0.01523005
-0.02652798
0.00430693
0.00129017
0.00326576
0.01213110
-0.01545253
-0.00203478
-0.01161277
0.01763794
-0.00390457
0.00834122
0.01548970
-0.00752317
-0.01174076
-0.00575516
0.01446691
-0.00276674
-0.01313507
-0.01547794
-0.01313072
-0.02293246
-0.01718156
-0.00889120
0.00494428
-0.01047497
-0.00303905
-0.00846345
-0.00851439
-0.00533124
0.00173242
-0.00506962
-0.01452075
0.00443786
-0.00446262
0.03652607
0.00096042
0.00157027
0.00395004
-0.02008800
-0.01595888
-0.00327852
-0.00923461
0.02430174
-0.01067013
-0.01986719
0.04670813
0.02295487
-0.01242033
-0.00054454
0.00762832
-0.01168417
-0.00428801
-0.01514098
-0.01469055
0.01632424
0.00234944
-0.00076369
0.00654262
-0.01032457
0.01245003
0.00192746
-0.01831141
-0.03988795
0.01095013
-0.01894475
0.00335057
-0.02413352
-0.02536242
0.00980458
-0.00573195
-0.02752372
0.01134077
0.01078449
0.02726634
-0.01019762
-0.00145185
0.04450747
0.04541275
0.00381426
0.03755038
