-0.45915112
-0.04162565
-0.00308046
-0.09869630
-0.03446290
0.04839716
0.23198268
0.32415232
0.05860412
0.09423581
0.04230366
0.12697011
0.13243328
0.12256548
-0.07835334
0.02014479
-0.19978079
-0.30232874
-0.21100107
-0.35290053
-0.55767941
0.32081139
0.00451189
-0.03079412
-0.06921481
0.20091653
0.11458770
0.24066646
0.01487820
0.05992750
-0.05784449
0.87860358
0.31636804
-0.00506327
-0.00672241
0.07491268
-0.19823302
0.05260769
-0.12459694
0.33645877
0.02989083
-0.12688978
-0.10572827
-0.05293146
-0.24402054
0.16597641
-0.10267937
-0.06616595
0.02594299
0.11707612
-0.16097358
-0.34898975
-0.73362738
0.31170994
0.01319634
-0.00589710
-0.07987487
-0.03283431
0.04508673
0.23615390
0.00500290
0.06513861
0.10503927
-0.16609126
0.22206664
-0.00279272
-0.15871479
-0.02505402
0.24317154
0.02592931
-0.12853111
0.13828103
-0.07884052
0.04058931
0.02772164
-0.10698512
0.04573565
0.12703098
0.19421239
0.01468992
-0.20090868
0.22478311
-0.12944147
-0.09463314
-0.36974084
0.28747669
-0.08644153
0.09290481
-0.02049912
-0.27225256
0.04383389
-0.07515162
-0.09438568
-0.05961438
0.04059396
-0.61891842
-0.75130671
0.03480977
-0.07944267
-0.39654270
-0.26519600
0.14112207
-0.59303445
0.57052028
-0.05631506
0.01538189
0.19114456
-0.03659947
0.37453690
0.37469929
-0.18434781
-0.30990729
0.01593609
-0.35480747
-0.28868109
-0.09460243
0.15342928
-0.19290654
0.06424084
-0.03487820
-0.16638049
0.39029765
0.01275966
0.15314551
0.01299641
0.07508679
-0.01853995
0.17538932
0.35568815
-0.03160107
0.12822367
-0.12872520
-0.05502850
0.27938375
0.45547974
0.53888798
0.08321857
-0.28080845
-0.14908852
0.12188749
-0.38394013
0.37468657
-0.20758276
-0.12946735
0.35045049
0.02287796
-0.24443118
-0.06803688
0.11882632
-0.09046438
0.06355511
-0.00613296
-0.18405724
0.03144964
-0.03304095
0.14672606
0.00518670
0.01032327
0.13481508
-0.09426484
0.51127893
0.08044799
0.09916873
-0.09283720
0.43862429
0.24051277
0.14833044
0.20653409
-0.03855775
0.23419721
0.01980595
-0.13274214
0.14279623
0.15231010
0.34965774
-0.22138518
-0.01715214
0.23580308
-0.19075362
-0.00312801
0.10488553
-0.03087099
0.08919419
0.04665983
-0.07772606
-0.37960386
-0.04086554
-0.45279849
-0.07002775
-0.09702440
0.29608941
-0.10480688
-0.07519913
-0.02065350
0.08971781
0.01583320
-0.07124612
-0.09223152
-0.71153599
0.25050163
0.11427392
0.09672674
0.08258631
-0.06676311
0.18195046
-0.25561598
-0.10382486
0.08340913
-0.14586352
-0.30092865
-0.16536345
-0.01944629
0.29344684
-0.25109258
0.08989112
-0.05100900
-0.15534663
0.31386158
0.04683867
0.09362432
-0.00854531
0.10712494
-0.03382164
-0.31883645
0.11290744
-0.01498057
0.06796987
0.15099941
-0.11387639
0.08625585
0.50176412
0.18340716
-0.08679698
-0.15065131
-0.12725969
0.20122281
-0.19513854
-0.33363521
-0.03902329
-0.03807028
0.00869003
-0.00665537
-0.10061544
-0.00200972
0.46527553
-0.21442108
0.07629509
-0.00505649
-0.17414762
-0.08383331
-0.04225815
0.17349084
0.02903950
0.06068251
0.09104393
-0.01036725
-0.07268054
0.03502754
-0.17952646
0.12209073
0.17574848
0.11654295
0.23128442
0.03764183
-0.03204482
0.05837943
-0.03461717
-0.09281321
-0.01191069
-0.17364180
0.12216102
0.13999519
-0.21915144
0.19525142
-0.09968232
-0.01324764
0.28929466
-0.25426853
0.08201634
0.01149575
-0.09411940
-0.21860904
-0.12300052
0.00097741
-0.07022112
-0.03587792
0.10531441
0.28912005
-0.31008649
0.02303577
-0.19675192
-0.22044423
-0.24336040
0.04681375
0.24807726
-0.16642348
-0.38446233
0.03766668
-0.45443359
-0.23773998
0.32961363
0.00316648
-0.08189358
0.03923409
-0.27117616
-0.32136521
0.09974454
0.57785034
-0.41846269
0.25476438
0.05636776
-0.08697592
-0.06886087
0.37992096
0.17699313
0.21125045
0.06891295
-0.01671090
-0.02223334
0.43703169
0.18492696
0.01190293
0.11488001
0.09540273
-0.17843683
0.13015474
-0.12732646
-0.15222196
0.43210351
-0.26509368
-0.03032099
0.24016906
-0.46038643
0.03569502
-0.15709527
-0.05745722
0.04953878
0.07898860
0.09291488
0.63752598
-0.55479944
0.19390720
0.01409973
-0.07355933
-0.07380097
0.04337756
0.11747874
0.31502286
0.04179952
-0.00307938
0.06251200
-0.08385687
0.16009325
0.05190808
0.10492732
0.06147732
0.36879775
0.04953362
-0.11206250
-0.05449331
-0.09401011
0.25414759
-0.04143087
0.06656110
0.11146139
0.03857525
0.25756645
0.03020895
-0.36544597
0.26560146
0.08946973
0.23874842
-0.21912381
0.17072450
-0.02372830
-0.06406613
-0.05781726
-0.33745247
0.24720560
-0.21227661
-0.01541394
-0.10465747
-0.12945834
-0.29398331
-0.55015635
0.14393957
-0.50985128
-0.46898034
-0.50973654
-0.17133197
-0.11363401
-0.57189572
-0.36784282
-0.12183654
-0.11320339
-0.64831084
0.62695104
0.69468987
-0.19408076
-0.26504707
-0.20113207
-0.42106259
0.30810064
0.00866210
0.39608455
-0.33462504
0.09520700
0.02362682
-0.11437216
0.63510811
0.06076130
0.44189268
-0.04804057
-0.19797724
-0.01879127
-0.04800564
0.19070020
0.04325544
0.42403588
-0.00345509
0.00482009
0.06869853
0.15037169
-0.57943064
0.38349405
-0.39677528
-0.02048100
0.50879908
-0.68207765
0.64007330
-0.26283449
-0.16442612
0.13109809
0.00770412
0.27782404
0.01399253
0.47676399
-0.20311064
0.03817075
0.04789698
-0.12141012
0.12504287
0.01898344
0.43539879
-0.05846262
-0.22138679
0.09244196
-0.01446603
0.36939308
0.19712652
0.61550117
0.14478615
0.67835021
0.08714263
-0.02483474
-0.20889612
-0.07001952
0.56016886
0.05404586
0.15052910
0.12246758
0.25173992
0.42885619
-0.19958885
-0.36523449
0.32666978
0.27785054
0.00699439
0.21359918
-0.07756593
0.13786314
0.01470709
-0.07543501
-0.60346407
0.09132531
-0.55193055
-0.04928913
-0.24117282
0.01520841
0.00784175
-0.06117295
0.01679516
-0.22152358
-0.04960258
-0.23892714
-0.53548533
-0.21212336
-0.00193319
0.08673208
-0.07968944
0.03149949
-0.50030607
0.31579697
-0.17959136
-0.07640596
0.10866018
-0.36235726
-0.32970494
0.09082671
-0.06277768
0.39798188
-0.27467084
0.09820972
-0.01003498
-0.14348324
0.39067757
0.06016300
0.37358487
0.07530864
-0.02274935
-0.07124174
-0.38125154
0.04146122
0.01056284
0.22201851
0.22861125
-0.08394898
-0.27968895
0.14741668
-0.00960400
-0.06506108
-0.23789825
-0.11413417
0.40995151
-0.45408902
-0.24907650
-0.08081855
-0.03091006
-0.12166453
0.03449568
0.08819593
-0.08769626
0.51515186
-0.20827498
0.03213915
0.05327055
-0.16003768
-0.08101746
-0.01242143
0.42979279
0.09678135
-0.05980635
0.03784502
0.05703760
-0.02601619
0.10149574
0.27249315
0.20908234
0.32053325
-0.10221066
0.03709360
0.02134530
-0.06059199
0.32565892
-0.02378605
0.09796151
-0.00321238
-0.12896352
0.15890495
0.09503228
-0.43219084
0.32812896
0.03502366
-0.06064516
0.21542576
-0.17614011
0.09255226
0.02433598
-0.14084658
-0.45352322
-0.09223850
-0.12564947
-0.04472299
-0.13961998
-0.08274913
0.27552184
0.16063863
-0.02899625
0.07094638
-0.20681383
0.05253487
0.09403309
0.25581163
0.07674364
-0.05359734
0.13418029
-0.09106820
-0.16560107
0.24248478
-0.20030580
0.01844314
0.07436884
0.15530576
-0.25812224
-0.00532914
0.41637421
-0.03847099
0.14699619
0.05055659
-0.36076996
0.11460800
0.28911576
0.10039663
-0.10969570
-0.00760612
0.04246068
-0.03788516
-0.10548503
0.06327399
-0.00428290
0.00461848
-0.06211927
-0.24329831
0.24783120
-0.15925246
0.04809175
0.12342679
-0.18953492
0.01064299
0.14680120
-0.24788241
-0.21768676
-0.05265367
-0.11306361
0.36971742
0.06600527
-0.01017648
0.41441464
0.00608023
-0.02144601
-0.01341913
-0.23559707
0.14757474
-0.09673154
-0.03919883
0.03168485
-0.02686447
0.11064818
0.08812704
-0.05235706
-0.22814007
0.03617965
-0.14228146
-0.01638695
0.18727815
0.14152038
-0.10406171
-0.03656622
-0.07862517
0.05483893
0.04851874
-0.01248421
0.04112478
-0.08321331
0.02474509
0.07952258
-0.11631968
0.20080517
-0.01705807
0.11162635
0.00700815
0.02071381
-0.03237785
-0.24495874
0.03196591
-0.27719820
0.00071812
-0.00479451
-0.07132461
-0.05910182
-0.17409758
0.08541698
0.04000433
-0.01370298
-0.28084272
-0.48780444
-0.23432839
0.17067991
0.25233045
-0.50018370
-0.08784592
-0.02048453
0.03817961
-0.44381618
0.38950479
-0.24579379
-0.04661524
0.12723325
0.31389916
-0.32644019
0.13428478
-0.34423772
-0.17567319
0.17176598
0.05220286
-0.02905954
0.28667274
0.46120119
0.05086110
-0.04669560
-0.27133325
-0.06529623
0.05070840
-0.15774508
0.03215150
-0.01563341
0.06188998
-0.16939227
-0.19625612
0.38699132
-0.18217130
-0.40230232
0.09874135
-0.30016974
-0.01962695
0.35181966
-0.45319334
-0.24143445
-0.10270146
-0.07954466
0.43347871
0.07864255
0.04211272
-0.30500850
-0.16798937
0.11304722
-0.01894567
0.05938237
0.36146191
-0.04532941
-0.03126222
-0.03768354
-0.24933079
-0.04103783
0.20633107
-0.00586478
-0.05425349
0.09341416
0.16547962
0.05552420
0.25691560
0.24991569
-0.06399095
-0.11773273
-0.07429536
0.28179285
0.06638611
0.05220352
0.04276447
-0.11635862
0.13062420
0.07566562
-0.20962742
0.28951108
0.10110616
-0.13784936
-0.14482979
0.06784708
-0.00114596
0.03559426
0.22580019
-0.50141037
-0.04294079
-0.28500640
-0.13060898
-0.10305103
-0.09292539
0.14674428
0.08310358
-0.08309925
-0.06677131
-0.33572894
0.08228365
-0.01668162
0.26178432
-0.03649215
0.19443882
0.03162659
0.08409733
-0.23217836
0.27862936
-0.22164752
-0.00441373
0.04624170
0.15985106
-0.27257743
0.09377652
-0.12617448
-0.01428504
0.09846114
0.05766903
-0.06928951
0.25173694
0.41917890
0.08167578
-0.00934136
-0.01651231
0.04061153
-0.02355308
-0.12911792
0.11338612
-0.00453834
0.06971469
-0.11741446
-0.16016605
0.12350266
-0.19072184
-0.02173545
-0.13306300
-0.12876871
-0.07531435
0.25789759
-0.21184748
-0.12578909
0.02038703
-0.04989091
0.24447002
0.09583326
0.05940904
-0.16097860
-0.10903745
-0.01208122
-0.00793775
0.06376363
0.30414221
-0.02461494
-0.01934153
-0.07102433
0.03542630
0.07408183
0.11469977
-0.05907056
-0.19473258
0.06723591
0.06569409
0.05394809
0.09667374
0.08454281
-0.08290134
-0.03291382
-0.11654322
0.10041641
0.00337933
0.01101760
-0.03371603
-0.02233964
-0.02862608
0.03823836
-0.14516295
0.29597324
-0.02302764
-0.09689114
-0.08685269
-0.07628798
-0.03196554
0.01434881
0.16578829
-0.31846848
-0.08467943
-0.13598785
-0.05600315
-0.04562758
-0.08125277
0.14887282
