-0.03122429
0.01416446
-0.03416374
0.00974859
-0.03999585
0.00676022
-0.01085438
-0.01044693
0.00496311
0.01490003
0.03766045
0.01742012
0.00428508
-0.00148460
-0.03721255
-0.04404759
0.02483439
-0.03727060
0.02894788
-0.01142100
0.06284744
-0.04068298
-0.00173724
-0.04058118
-0.01818865
0.00298849
0.06278544
0.04705413
-0.04331484
-0.01441235
0.01264570
-0.04890784
0.04729454
-0.00166095
0.04045967
-0.02456891
-0.00103753
0.00257259
0.01541759
-0.02819933
-0.01687128
0.01910822
0.03946472
-0.04108605
-0.03058415
-0.04973067
0.00735536
0.02421911
0.00872337
0.02976770
0.00076579
0.02716981
0.03859194
-0.01572782
-0.01828883
-0.01131059
-0.00655283
0.02137278
0.01460148
-0.11104707
-0.03589560
-0.01912579
-0.01909702
-0.04047890
-0.01702408
0.04724269
0.01965943
-0.00868753
0.02521244
-0.01853689
-0.01643302
0.00972578
-0.02275380
0.01691789
-0.04771257
0.00457848
0.00238085
-0.06674569
0.02674776
0.03885707
0.00494249
-0.00929008
0.02607005
-0.02929509
0.04073118
-0.03028921
-0.01138164
0.01332541
-0.04708897
-0.11825882
0.03538977
0.01286396
-0.03496597
0.03721647
-0.01910027
-0.00818082
0.05108686
0.05804938
-0.00441536
0.00951152
-0.00667698
0.02651696
0.00353781
0.01665100
0.02508165
0.04148830
0.00324509
0.00836486
-0.01100867
-0.00350795
0.02311534
-0.01671327
0.00331486
0.01261208
0.00172591
0.02530686
0.02090248
-0.03072232
-0.01159558
-0.02456589
0.00799516
-0.04370688
-0.05631200
-0.02118464
0.02294785
-0.03760572
0.02431839
-0.00610063
0.00353303
-0.00722427
-0.00359900
0.01113577
-0.01675550
0.00120566
-0.00460634
-0.01079683
0.02196427
0.01926933
-0.05390584
-0.03284586
-0.07800204
0.00740465
-0.00775790
0.05139960
-0.02398182
0.00146513
-0.01604831
-0.05361867
0.00697132
0.00678382
-0.02036334
-0.02834600
0.00121403
-0.00734402
-0.00623008
0.02492609
-0.01550007
0.03590261
0.01053665
-0.02448087
-0.08076932
-0.00232419
0.03633699
-0.01067257
-0.00904896
-0.00736862
0.01873832
0.01803145
-0.01775792
-0.01606738
-0.05578228
0.00810112
0.00758908
0.00355667
0.01199926
0.04194327
0.00256104
0.03885882
-0.00685014
-0.02569116
0.00073576
0.02424422
0.00851841
-0.04078532
-0.04075796
0.04284613
0.02121256
0.00943556
-0.03741672
-0.00854442
0.01602488
-0.00427842
-0.06274851
-0.00261937
-0.00311601
-0.04893338
0.01078517
0.00100777
-0.03215321
-0.00182541
0.01078329
0.00449564
0.01527627
-0.00202318
0.02131715
0.01938713
0.03327270
0.03116619
0.03104365
-0.03284715
-0.01127965
0.00086767
-0.00662149
0.02148741
-0.00223521
0.02621648
0.02182249
0.01600929
0.02308473
0.00708854
0.11139511
-0.02654656
0.01507573
0.04221331
0.00578649
-0.00726560
0.00781980
-0.00012515
-0.01570731
0.01650824
-0.00881226
-0.00060509
-0.01118886
-0.01846286
0.04314635
-0.05108568
-0.00011387
-0.04014105
0.05491555
0.01878477
-0.01159240
-0.03348773
-0.02190715
-0.00574756
-0.03595351
0.02071397
-0.01313885
-0.00545915
0.09014787
0.00956254
-0.02137020
0.03352726
0.05962223
-0.06454131
0.04719923
0.01814400
0.03140386
-0.03907874
-0.03972698
-0.00029840
0.02483095
-0.03028863
-0.02817898
0.07830933
0.00407819
-0.00985362
0.05642598
0.03438372
-0.01396022
-0.02429987
-0.03332861
0.00453140
-0.01675564
0.00778937
-0.01548124
0.03143143
-0.02244536
-0.04249862
-0.00456061
-0.04345284
-0.02080121
0.01627526
0.00134017
0.02487715
-0.01762335
0.05579686
0.04074339
0.01945117
-0.04206653
0.03741921
-0.03263146
-0.00790001
-0.03167907
0.00624796
0.02342207
-0.02190015
-0.05201226
0.05026603
-0.06595245
0.00094177
-0.00482588
0.00467043
-0.03504757
-0.00861500
-0.01213119
0.05787542
-0.00979722
0.01762002
0.02224793
0.04589166
0.08116955
-0.05736917
-0.03635542
-0.02835422
0.19390608
0.03127851
-0.02927945
-0.01080097
-0.02983391
-0.02084285
-0.02314570
0.05336413
-0.01478084
0.01091920
-0.02930353
0.02074332
-0.03810614
0.00196424
0.00936075
0.03830732
-0.08187909
0.13217629
-0.11429635
-0.01085835
-0.03789341
-0.01925536
0.05420471
0.01031084
-0.02461237
-0.00444471
-0.00072635
-0.00813732
-0.08717734
-0.05000585
-0.01386624
-0.05127129
0.00918756
-0.13332395
0.00886554
-0.05548051
-0.01440049
-0.01237745
-0.03231089
0.00598154
-0.01522548
-0.02949458
0.02873134
-0.00044679
0.03971650
-0.01451118
-0.01515342
-0.01939077
0.01797788
-0.12878063
0.00949069
-0.04156617
0.00165693
0.01347857
-0.04697967
0.02241739
-0.00732142
-0.01272083
0.03621269
-0.04791538
-0.02028635
-0.01746103
0.00123034
0.11338366
-0.05694622
-0.01941060
0.08749506
-0.00744088
-0.00615632
-0.00129085
0.01574589
-0.02204086
0.02307286
-0.01578321
-0.01606620
0.01170846
0.02862216
-0.00821190
0.01601758
0.01418398
0.04082052
-0.00555194
0.04695216
-0.00212098
-0.04445549
0.01438452
-0.00916786
-0.02632379
0.01893176
-0.00170500
0.03676274
0.03701876
0.03251475
-0.00154351
-0.02485684
0.00108579
-0.00083728
-0.01220130
-0.03271360
-0.00618213
0.00390381
-0.03236440
-0.07865525
0.00253275
0.01450257
-0.01387130
0.00469176
-0.01544232
-0.01527303
-0.01969494
-0.00436005
0.02131032
-0.04624398
-0.04185988
0.02095200
-0.00906647
0.01670741
0.05339111
-0.01001039
-0.07106630
-0.04261899
0.01083497
-0.00735383
0.03369230
0.04142692
-0.00854590
-0.01970850
0.00304145
-0.00891356
-0.00910484
0.00196959
0.02679985
0.01599223
-0.00838394
-0.02359042
0.01736743
-0.05128463
0.00209835
0.00098656
0.00733886
-0.01834862
-0.03445705
-0.00967091
0.04984406
-0.00452176
0.00482129
-0.01288036
0.04593577
-0.02567577
-0.02173541
-0.02897424
-0.00071537
-0.01632115
-0.07814971
-0.02406978
0.00954937
0.03910513
-0.00987832
-0.03356624
-0.00851694
0.00002834
-0.04580727
-0.02001053
-0.05608335
-0.02698613
0.00367252
0.08431760
0.01356038
0.02389972
0.07822037
0.01695148
0.00183113
0.00986882
-0.01882969
0.02647164
-0.00244082
0.02366301
-0.00540237
0.02455283
0.01309250
0.03777074
0.01410280
0.01793451
0.03055629
-0.00009993
0.05807978
0.00280592
-0.00916893
0.01835250
-0.01797310
0.00786267
-0.00692314
0.02107407
-0.02710143
-0.01692810
-0.03225001
-0.01127430
-0.02464085
-0.01320367
-0.05629848
0.01995596
-0.01864341
-0.00739168
-0.00479233
0.11409438
-0.02020735
0.01821578
0.03891756
0.02407539
-0.06318351
0.02113054
-0.01224962
0.02033003
0.00559991
0.01509175
0.05992433
0.06490497
0.02287752
-0.03821757
-0.02074748
0.05107874
-0.00788065
0.01451903
-0.01389483
0.02231140
0.02787988
-0.05585124
0.06571509
-0.07410885
-0.04159326
0.01221491
0.02183116
0.07826848
0.00842602
-0.02612934
0.00028874
0.02282793
-0.00872411
-0.01453195
0.00363216
0.03901030
0.04338264
-0.01395793
0.03084968
-0.01113256
-0.04586151
0.04368200
0.05192185
0.04484912
0.03906688
0.00485229
0.03186320
0.03508208
-0.02274467
0.00863245
0.02665835
0.00675507
-0.01418711
0.02855852
-0.07166978
-0.00307733
0.01561824
-0.01864359
0.00647523
0.01972167
0.00806897
0.04700479
-0.00529192
0.01452936
-0.03281305
0.01596012
0.03561058
0.01101443
-0.01160610
-0.00958677
0.02770434
0.02324297
-0.03005088
0.06235503
-0.03664935
-0.04977002
-0.06316393
0.00782558
-0.01193682
0.00732754
-0.03146249
0.02679598
-0.03552942
-0.01330155
-0.02621924
0.04216105
-0.01465698
0.02198247
0.01548146
-0.09331566
-0.01253304
0.01154670
0.04111684
-0.02016009
0.01958442
0.01259595
-0.00936902
0.02030727
-0.00300096
-0.01317296
0.01767595
0.02967940
-0.03016615
-0.00159602
0.04358708
-0.02714253
-0.02342122
0.01578245
0.00242946
0.01532110
-0.01248034
0.00559174
0.01017673
0.00467453
-0.01423605
-0.00679691
-0.00738992
-0.01052032
-0.00050829
-0.00071281
-0.04409431
0.00368677
0.02147670
-0.08968739
0.00314898
-0.03009702
-0.05577241
0.02275532
0.03220752
0.00286046
0.00990642
-0.04731049
0.01730016
-0.00155840
-0.03075113
-0.03246142
-0.02521833
-0.01037284
0.01873737
-0.02239790
0.00352657
-0.05254788
0.02450389
0.00216191
-0.01191702
0.00652487
-0.01092283
0.02009510
0.00931120
0.03576204
0.01004842
-0.04643231
-0.02594104
0.04354912
-0.02815955
-0.01768371
-0.00988934
0.04837774
0.02611080
-0.00408009
-0.02841801
-0.05974236
0.00201501
-0.04356763
0.01808820
0.01378339
-0.00257457
0.04130538
-0.00518775
0.00713585
0.03842758
-0.00229762
0.06418417
0.02007961
-0.00009330
0.03349640
-0.04678118
0.01757366
-0.00932294
0.00982835
-0.02028829
-0.07040998
-0.00369747
-0.01837254
0.02872872
-0.00758700
-0.08241003
-0.03229267
-0.01307722
-0.00113078
0.01094397
0.00984773
-0.01025258
-0.05111469
0.03038006
-0.00701758
-0.00526629
0.00174953
-0.00438162
0.00160252
0.00071382
0.01243609
0.04766655
0.04354244
-0.00205154
-0.01617756
-0.04905768
-0.07675396
-0.05382471
0.01598724
-0.03951962
-0.05905243
0.00607655
0.01829062
0.02303155
-0.00244555
-0.05993445
-0.06752875
0.03523456
0.01498160
0.00760856
0.05395170
-0.03104145
-0.01099367
0.00134148
-0.02231501
0.02372907
-0.04015161
0.00261744
-0.01468577
-0.03938186
0.00739290
-0.01497483
0.00516375
0.03042052
0.03166377
0.05316427
0.00459268
-0.03611857
-0.01204297
-0.03928106
-0.00451175
0.00920375
0.06735933
-0.00282590
0.00515335
-0.03061940
-0.03706557
-0.01834730
0.03624989
-0.02718703
-0.01717195
0.00804041
-0.01148844
0.02990488
0.00718841
0.01425634
-0.05201871
-0.00779862
-0.03341174
-0.04771118
-0.00764704
-0.02819665
-0.01140628
0.00118434
-0.03848714
0.04358809
0.02275362
0.09630600
0.03666379
-0.00325024
0.00859999
-0.00985202
-0.03240713
0.02394296
0.02468399
-0.00483709
-0.10204674
0.02611726
-0.00552647
-0.01049773
0.08675366
-0.02224511
-0.02003241
-0.06474493
-0.03244923
-0.01963615
0.02220965
-0.00338714
-0.01857517
0.00397850
0.00858941
0.00772097
-0.00449101
0.00331919
-0.02442817
-0.02553748
0.01888202
0.03573411
0.06414005
0.02402917
-0.00746749
-0.02395894
-0.08833373
-0.02078979
-0.06391567
0.00950677
-0.01397957
-0.00674833
0.01233081
-0.00457081
-0.01899075
-0.08703648
-0.08551248
-0.01258100
0.08688457
-0.00262741
0.03447582
0.01831901
-0.01257043
-0.07553784
-0.00330458
-0.04398839
-0.04365224
-0.03811508
0.00147947
0.07237066
0.00567896
0.03174040
0.01451007
0.04936905
0.03263095
-0.04688122
-0.02979533
-0.03938277
-0.01369285
-0.01386709
-0.02078946
0.01335155
0.04888149
-0.02328348
-0.01024772
-0.05144138
-0.00979968
-0.01361861
-0.04602622
-0.00303160
0.01148733
-0.00408318
0.00577015
-0.02734644
-0.04553499
-0.00026962
-0.01819056
-0.00984943
-0.02615152
-0.01944587
-0.02358914
-0.00499466
-0.00080104
0.02908804
-0.01044184
0.02520452
-0.04581685
0.01529549
-0.00538759
0.01346565
0.00958524
0.00429568
-0.01577418
-0.01427313
0.01432833
0.00994226
-0.01924540
0.01390672
0.00901951
-0.00405831
-0.01255312
0.01613419
-0.02023964
0.02606763
0.01911241
0.02702601
-0.02324872
-0.01570585
0.02073073
-0.00047594
-0.01730711
-0.01887389
0.00494210
-0.00899659
-0.02535645
-0.02661816
0.02214366
-0.01515059
-0.01557038
0.02793672
-0.03230974
0.03576002
-0.06533372
0.02073552
-0.00897425
-0.00525179
-0.00424750
-0.01225981
0.01757150
-0.00991346
0.01693293
0.01955421
-0.00114523
-0.01784446
-0.00334440
0.01103572
-0.02601091
-0.00150402
-0.00175660
0.02868294
-0.01624100
-0.03677680
-0.00085527
0.00338116
0.00255014
-0.01998665
0.02218056
-0.00345679
0.00966451
-0.00458091
-0.01461032
-0.02125285
-0.00369129
-0.07461745
-0.01198259
0.00460587
-0.02226514
-0.03327111
-0.03164018
0.02120770
-0.01464265
-0.01268038
-0.00549693
-0.01546872
-0.01588726
0.01835506
-0.00132951
-0.01221285
0.01675872
-0.03661309
0.00826175
-0.02912669
-0.01775992
0.05625568
0.02136205
-0.01777140
-0.01261725
-0.01332730
-0.02702501
-0.01265160
0.01713284
-0.00053242
-0.01826678
0.00116901
-0.00861411
0.05819798
0.03401564
-0.01565232
0.00126681
-0.00000734
0.02097227
0.07096746
-0.01678298
0.00118859
-0.01648065
-0.00355954
-0.01910356
0.00648431
-0.01054855
-0.01452140
0.01144282
-0.00392679
-0.00124352
-0.01793076
-0.01744142
-0.01428185
-0.06411780
0.01584956
-0.00856457
-0.01390975
-0.01601940
0.02505726
-0.05214440
-0.01793413
-0.01337120
-0.04598437
0.00965278
-0.00641890
0.02071049
0.00497432
-0.02514826
-0.00105830
-0.00532715
-0.03615449
0.00343831
0.00991144
-0.01949286
0.00226508
0.00537172
-0.00267652
-0.03385574
0.01867966
-0.02600669
0.01556099
0.01602964
0.01460844
0.01686211
0.00855320
-0.00787636
-0.06575066
0.01001096
-0.00372615
-0.01154324
-0.02521465
0.00985236
-0.02025260
-0.00107536
-0.02442241
-0.01315488
0.02854465
0.01720500
0.01529161
-0.01745133
0.02393606
0.01369537
-0.00253788
0.04357180
-0.03493863
0.02655610
0.00906016
0.01268592
-0.01763010
-0.00037927
0.00543186
0.03114314
0.00931267
-0.00044414
0.00718486
0.00303730
-0.00824396
-0.02726306
-0.00002913
-0.02906016
-0.00886369
0.05761475
0.00363705
0.00421111
0.06086509
-0.02922866
-0.02023173
-0.03572319
-0.01016038
-0.00304627
0.01082946
0.01440297
-0.02602783
0.01047648
-0.02701293
0.02328233
-0.00577255
-0.03807238
0.01949595
0.02279652
0.00782127
0.00608769
-0.04012467
0.04053685
0.00943833
0.00357149
-0.00328165
-0.00260576
-0.02201790
-0.00047273
-0.02006000
-0.01399849
0.00842804
0.02706842
-0.03787584
0.00431897
0.06554577
0.00072325
-0.00192068
0.00741781
0.01793801
0.04017023
-0.03368192
0.01238025
0.00873483
-0.03915757
0.05889235
-0.02064273
0.03030368
0.00034772
0.00644496
-0.03940774
-0.07271396
0.03013668
0.01225564
-0.06789489
0.02241682
0.01104532
0.01364806
0.00853840
-0.04971086
-0.06502681
-0.00105082
0.00240166
-0.02105661
0.01020350
-0.00244323
-0.03171957
-0.01193038
0.03458952
0.01968715
0.02375961
0.04675540
-0.02271286
-0.01582249
0.04424009
0.04879866
0.00922144
-0.04349794
0.00539167
0.00430222
0.00130554
0.03308579
-0.03248997
-0.02743209
0.00166498
-0.00597236
-0.00571840
-0.01146583
-0.01816021
-0.01431470
-0.00943676
0.02223310
-0.00258431
-0.02683006
0.00378856
0.01433309
-0.03151756
-0.04473424
0.01733716
-0.02896306
-0.00596056
-0.02058683
-0.02125751
0.02632632
0.05792093
0.00921953
-0.06694924
0.00239326
0.08598021
0.01370563
-0.00814971
0.02817409
-0.04098121
-0.00010441
-0.11101276
-0.01840614
-0.03156717
0.01657552
0.01033591
0.00086786
0.00739440
-0.06368200
-0.01879547
-0.05672043
-0.01817150
0.05958435
-0.06189657
0.00571567
-0.07851866
0.01689170
0.00731159
0.01392204
-0.04025396
-0.00408403
0.01500885
0.04440273
0.08978734
0.00277534
-0.04254739
-0.00726761
-0.02176937
-0.03372419
0.04286852
-0.01357258
-0.02467234
0.07905488
0.04796407
0.02411068
-0.06382492
-0.02478934
-0.06521594
0.03273228
-0.01622999
0.02945136
-0.02311056
0.03636020
0.00086789
-0.02015027
-0.00301649
0.01037412
-0.02670183
-0.02388073
-0.01341145
-0.01053920
-0.01889173
-0.00112721
-0.04122376
0.02493547
-0.00697355
-0.00662130
-0.05916858
0.03185304
-0.00690444
-0.02893889
0.03083039
-0.03649234
0.01131948
-0.00323596
-0.02648363
-0.05754188
-0.01561726
-0.02639206
-0.00854102
0.01359265
-0.03019786
0.04291157
-0.02910487
0.00040804
-0.04097093
-0.00142042
-0.01355702
0.03379120
-0.02662377
0.00803037
-0.04131000
-0.04941526
-0.00389614
-0.09800018
-0.06921938
-0.00346221
0.02056286
0.01808159
-0.00490743
0.03447005
0.03761073
-0.00682643
0.00479406
0.01319490
0.01310758
0.00186887
-0.00661724
-0.04866616
-0.02583798
0.01539079
-0.01104306
0.00877008
-0.02147449
0.05933887
-0.02149635
-0.02975758
-0.01974342
0.04393927
0.03402191
0.02229991
-0.03168715
0.00759764
0.01811269
-0.04709478
-0.03608671
0.01352258
0.00461109
-0.00485158
0.04572369
0.03248667
0.02032821
0.00227631
0.02467648
-0.00559002
0.03869858
-0.01897954
-0.03620062
0.03925871
0.04074092
-0.02936068
-0.02226867
0.00861929
-0.04621090
0.01504547
-0.02464875
0.00347152
0.00784359
-0.06320873
0.01362090
-0.01413939
0.00711401
0.05663966
-0.04594140
-0.00068555
-0.01368656
-0.06173770
-0.01529668
-0.05544513
0.00553555
0.02061929
-0.06720678
-0.03127832
0.03325983
-0.00696597
-0.03528994
0.01383344
0.02085179
-0.02481052
-0.02557382
0.01784654
-0.04259233
0.01028752
-0.00037556
0.00753681
0.00929186
-0.03066808
0.03456783
-0.02364217
0.00329992
0.01200555
0.01936168
-0.03392628
0.03099683
-0.00901941
0.00875169
0.01092462
0.04057069
-0.00671732
-0.03390988
0.00447303
-0.00148361
0.01111913
-0.00052349
-0.04243959
0.02118768
0.02161744
-0.03855007
0.01358923
0.00777108
0.01587001
0.04938993
-0.03600049
0.00338943
0.08107453
-0.00607506
0.02761826
0.01699643
0.01601665
0.00591880
-0.00899472
0.04157643
-0.01958279
0.02324351
-0.03221982
0.01706266
-0.01769831
-0.03180985
0.01699205
-0.00761099
-0.00282124
-0.01154820
-0.00992585
0.00565492
0.00553597
-0.04076218
-0.01924640
0.00352884
-0.04267785
0.03765164
0.02066095
0.00377153
0.00349141
0.00295819
-0.03099951
0.02027025
0.01437596
-0.05568680
-0.01411321
-0.00665958
-0.01783977
-0.00871776
0.00124050
0.01314543
-0.00748641
-0.01086667
0.00010400
0.02194031
-0.06194002
0.01799978
-0.01397439
-0.07188627
0.04447083
-0.07301991
0.00723283
-0.00408379
0.00153523
-0.00025980
-0.00157899
0.03356746
0.00572224
0.01432253
-0.01788822
0.01018445
-0.00907674
0.02924540
-0.01303451
0.00746770
0.03766791
0.02848551
0.02049226
0.05911435
0.01497884
0.00103025
-0.01301094
0.01456025
0.05688459
0.00504823
-0.01249821
-0.01004941
-0.00462870
-0.05270958
-0.04676590
0.03664386
0.02297670
0.00261246
0.00683662
0.00431210
0.01871700
0.08809493
-0.00681236
0.00303700
-0.02735841
-0.07920810
-0.06406520
-0.00630926
0.01906010
-0.02323443
0.03514447
-0.01621095
0.00537168
-0.00364276
-0.01338878
0.00045101
0.02135077
-0.00982636
-0.00812352
-0.02201214
-0.00242235
0.01709626
0.04160134
-0.01401099
-0.02109645
0.00658085
0.00133680
-0.01865117
0.00286085
0.00722061
0.02292871
-0.01216578
-0.00217388
-0.03811777
0.01370729
0.02429999
-0.03743649
-0.01982946
-0.03898342
0.01341873
-0.01391235
-0.02060731
0.02131788
0.00499209
-0.01247534
-0.02951547
-0.00677776
-0.01571404
0.02845076
-0.00169245
-0.03603936
-0.00744684
-0.00918214
-0.00579667
-0.06279922
0.01262691
-0.02013334
0.01997967
0.00524332
-0.05118187
0.00140637
-0.01311077
0.00784104
-0.01193866
0.00038501
-0.01928747
0.00252814
-0.00138820
0.09711352
0.02578154
-0.00461684
-0.00238840
-0.01839655
0.02024551
0.00320159
-0.03568600
-0.01402371
0.00322630
-0.01678831
-0.01585898
0.02129974
-0.00514436
0.00068579
-0.06089780
-0.00169506
-0.05118202
0.04394680
-0.02442385
0.01012493
-0.03269445
-0.00259345
-0.00254787
0.00601052
0.00936786
0.00366425
-0.00125865
0.02316361
0.05545584
0.00214658
-0.01046291
0.01081369
0.05465533
0.00627824
-0.02936664
0.02576736
-0.01149462
-0.01797657
0.02465486
-0.04701452
-0.00926969
0.00500579
0.01125496
0.00801333
-0.00938185
0.02060603
0.01645567
0.02920396
0.00107087
0.00365190
-0.00647511
-0.01508455
0.03776409
-0.02771861
0.00841446
-0.00788421
-0.02731051
0.03359309
0.02018377
-0.00516637
-0.03924578
-0.02303175
-0.05508373
-0.00359002
-0.01525296
-0.01295436
-0.02262553
-0.04201619
-0.00806193
-0.00492866
-0.00834499
-0.01760131
-0.00064181
0.01653426
0.06648350
0.02818120
-0.00738268
-0.01443638
0.01243094
-0.00882541
-0.01451538
0.02509151
0.01149153
0.02752417
-0.01654091
-0.00105141
0.05502496
-0.01019648
0.04529510
-0.04865697
-0.00441802
-0.00950761
0.02950979
-0.04313284
-0.00747505
0.01930773
-0.01428336
-0.02180262
-0.00000081
-0.01709171
0.04319749
-0.00301589
0.05009409
0.00482805
0.02279149
0.00992455
0.00952394
-0.03652310
-0.02729358
0.00176118
0.00132565
-0.02007469
0.00221129
-0.01397671
-0.04168543
0.01821399
0.02272484
0.00487289
0.01759978
0.01731296
-0.01275186
-0.00671497
-0.03645755
0.01936717
0.04122013
-0.00611972
0.00239743
-0.01292263
0.00647415
0.00820109
0.03543844
-0.00742673
-0.03514006
0.03597616
-0.00205250
-0.04043335
-0.00666081
0.02138235
0.00314612
-0.01590838
-0.01187899
0.00643882
0.00150227
0.02370791
0.02549550
0.01362151
-0.00594354
0.00591238
0.01662610
0.00652144
-0.00434142
0.02852627
0.01947230
0.01927529
-0.00077430
0.03259404
-0.00908517
-0.01030074
0.01828619
-0.00081164
-0.02940300
0.02444757
0.07294467
0.00194595
-0.02470170
0.00381637
0.01495614
0.00102873
-0.02534655
-0.01424314
-0.01243520
0.02379086
0.01712712
-0.00509813
-0.01650768
0.00843416
-0.04956998
0.01287512
-0.00731399
-0.01020597
0.02214236
0.00477934
-0.00699644
0.03843520
0.00376833
0.02433283
-0.01755963
-0.01249410
0.01910594
-0.02242466
-0.01397965
0.04620728
-0.02346565
-0.01216870
-0.01790406
-0.01820352
-0.05030895
0.00894600
0.01196965
0.00111541
-0.02393034
0.01043289
-0.01110109
-0.01581629
-0.01425603
0.01326256
-0.00935525
-0.01903307
0.02378001
-0.03588689
-0.00634398
0.01191392
-0.00334581
0.01272152
0.03561664
-0.02473110
-0.00099493
0.00340375
-0.00133684
-0.01558643
0.00518868
-0.02066320
-0.01069148
-0.01547640
0.00970960
-0.00233761
-0.00707403
-0.00183221
0.03048348
-0.01837597
-0.00472403
0.01655774
0.00165310
-0.03781643
0.01367396
-0.01840575
-0.01809599
0.00094894
-0.00419652
-0.02241037
-0.02881321
-0.00286057
-0.00831382
-0.00771886
0.02227509
0.01335472
0.02066914
-0.01476388
-0.00768308
0.01227553
0.00868709
0.00872146
-0.00000166
-0.00759307
0.00789568
-0.01421570
-0.02813614
0.00421860
-0.02196381
-0.00389217
0.00501343
-0.02253994
-0.02300361
0.04996356
-0.03631784
0.00782973
-0.06993224
0.00942221
-0.01271754
-0.04062857
-0.00105046
0.02273229
0.03920988
0.00582678
-0.00409749
-0.01827292
-0.01959309
0.00546843
-0.00397273
0.00814376
-0.02127629
-0.01919100
-0.01975427
-0.01497720
-0.02244146
-0.01974746
-0.00863975
-0.00597986
0.00045707
-0.01767889
-0.00065572
-0.01409374
-0.04389429
-0.00653889
-0.03561277
-0.04395932
0.00121881
-0.00242897
0.01115086
0.04091824
-0.00903355
-0.00021686
-0.02408929
0.00880015
-0.02870781
-0.00167629
0.00558576
0.01869728
0.00343754
-0.01950260
-0.02894106
-0.06062018
-0.01653356
-0.04335968
-0.02433044
0.02342052
-0.01798633
-0.00845173
-0.05886283
-0.07269670
-0.04053921
-0.02691512
-0.00783115
-0.00307884
-0.03954123
-0.01027380
0.00201829
-0.01388343
0.00065400
0.01031033
-0.01197763
-0.02433131
-0.05070041
-0.01008293
-0.01283289
0.05109009
0.00165422
0.01743716
-0.01490498
0.02078497
0.00581105
0.01855466
-0.03067092
0.00542702
0.00365907
-0.01221471
-0.03609491
-0.01304338
-0.02115656
0.00733940
-0.01069137
-0.00064339
-0.01032573
-0.01860758
-0.02218260
-0.02892018
0.02207023
0.02399706
0.00839591
-0.06215286
0.01245168
-0.00997782
-0.00029887
-0.04909821
-0.01171107
-0.04417953
-0.00433627
-0.01474014
0.11571386
-0.00484423
0.00199776
-0.04969183
-0.01331678
-0.01626571
0.01324869
0.05536439
0.00306207
-0.01896452
0.04281401
-0.03747776
-0.00853578
-0.01404511
0.00843980
0.00682696
-0.02290476
-0.00050206
0.01903992
0.00556392
-0.00646261
-0.01149528
-0.02478697
-0.01451821
0.00364229
0.00744645
0.00093025
-0.01403544
0.02761493
-0.06303034
-0.01417352
-0.00815805
0.02277670
0.00735338
0.04526911
-0.00164754
0.00504042
-0.02983350
-0.00504673
-0.00744556
0.00534803
0.00523831
0.03061537
-0.01549096
0.05058428
-0.01193342
-0.01498514
-0.00495048
0.05672530
-0.03867510
-0.04071341
0.01965622
0.04060914
-0.02127229
-0.02669739
0.01816729
0.01114574
-0.00114045
-0.00375236
-0.02018381
0.00398661
-0.01174357
-0.02111353
0.03590005
0.00768878
-0.05312135
-0.00964715
-0.01383516
-0.00921908
-0.01179596
0.00395898
0.03438821
-0.01809504
0.00214142
-0.01442340
0.02635611
0.01611576
0.00145902
0.05548954
-0.00820657
-0.01416857
-0.02504518
0.04050700
0.01412915
-0.00981409
-0.06967395
0.00433365
0.00357719
-0.00698422
0.02940975
0.03774237
-0.04477912
0.02151283
0.00458459
0.04388001
0.00399237
0.03335403
0.03478403
-0.02906797
-0.08601317
-0.02885684
-0.02794560
0.02043965
-0.02654441
-0.02045208
-0.00241595
-0.01493525
-0.02872040
0.08193269
0.00822134
-0.01800857
-0.02520954
0.00851579
-0.01371556
0.01343231
-0.00416157
-0.00571377
0.00139000
0.04209057
0.00275436
-0.03917169
-0.00079039
0.01345211
-0.00310775
0.00353352
-0.00596539
0.00983182
-0.02165712
-0.02594220
-0.02019041
-0.04939030
0.02112827
0.02744976
0.00506463
0.03266775
0.00998186
0.01654835
0.02991368
-0.01268250
0.01370166
0.01538803
0.03806693
0.02498203
-0.00927570
-0.00847741
-0.00626605
-0.03510889
0.02350892
-0.01476319
0.04231789
0.00895901
0.02003210
-0.00056099
0.00457579
-0.02506841
-0.02739191
-0.00418193
0.00306118
-0.00265082
0.01815698
0.00261200
0.02100687
0.00476874
-0.02644511
0.01298451
0.01939966
-0.01241885
0.04232278
0.00394983
-0.02819699
-0.00190395
-0.02709812
-0.05408897
-0.03058369
-0.00676533
-0.02016761
0.00073638
0.01265411
0.00245048
-0.02276236
0.01402930
-0.00968024
0.02611891
-0.02548125
0.00987264
0.01651859
0.01879999
-0.00547155
-0.01349914
0.03087173
-0.00863152
-0.01317850
-0.01591448
0.00270676
-0.02363322
0.02150606
-0.03255452
-0.00288382
-0.03273592
0.00069563
0.01705602
0.04455267
-0.03302168
0.03705783
0.01303927
0.02147179
0.06379708
-0.02276317
0.08330777
-0.02901584
-0.00346574
-0.00257455
0.00082598
0.01835501
-0.04690402
-0.01486047
0.03386345
0.03306399
0.01377723
-0.00822509
-0.03569541
0.01441946
0.00546719
0.02397805
0.06812669
-0.04510332
0.02045993
0.02950145
-0.01039390
0.03639255
0.02017890
0.00195456
0.02029460
0.00957065
-0.03318085
0.00597746
0.00580468
0.01999820
-0.01179785
0.00601709
0.01819676
-0.01756471
-0.01515298
0.00289203
-0.02145258
0.02088154
-0.01092221
0.03067755
-0.01040148
0.04878226
-0.00367276
0.00382112
-0.00796351
-0.00433873
0.01206282
-0.04122492
-0.02233219
-0.00132089
0.01212794
-0.00697156
-0.01458905
-0.04971274
0.01945721
0.00767926
-0.03978887
0.04037280
0.00465940
0.02012515
-0.00865908
0.02802284
-0.00751779
-0.00672479
-0.00473416
0.00323085
-0.04045835
0.02157792
-0.00857307
-0.03680692
0.01905360
0.04745636
-0.03081556
-0.00616831
-0.03596396
0.01301610
-0.01869187
0.05107569
0.03127016
-0.03314790
-0.07807457
-0.00215717
0.00950637
0.00842984
-0.00713715
-0.01344290
0.00324152
-0.03339324
0.00061074
0.03941949
-0.03865620
0.00942581
-0.04552319
-0.00015115
-0.08576785
0.00081250
-0.00549378
0.05030832
0.00669702
0.01908675
0.02031563
-0.00811313
-0.02497886
0.00025614
-0.01100384
0.00715401
-0.02340080
0.01931859
0.01515947
0.02365591
-0.02428707
0.01624639
-0.00835561
0.02070412
-0.03034680
0.01265298
0.00210814
-0.01654801
-0.01935868
0.03740190
-0.00324646
0.01597844
0.02008324
-0.02930088
0.04481832
-0.02901236
0.02442638
-0.03005961
-0.01242537
-0.02131559
0.02861246
-0.01410876
-0.02307563
0.00413116
0.03600575
-0.03337022
-0.02257023
-0.00609224
0.01182282
-0.00998881
0.03210326
0.04491030
-0.01235603
-0.04551069
-0.01687280
-0.02403289
-0.02208512
0.03700197
0.06299292
0.02737604
0.01336449
0.00662013
0.05231854
-0.01592693
-0.01020525
-0.02618276
-0.05835423
-0.01750425
0.00661403
-0.00135079
-0.02705072
0.02844415
-0.01723997
0.01047315
-0.02718629
0.01070270
-0.02067792
-0.00740970
0.03361500
-0.01468095
0.01357215
0.05841632
0.00723009
0.02379567
-0.01133344
0.00396319
-0.04395714
-0.00637448
0.01245590
0.04229432
0.01207354
-0.00047251
0.01117535
0.07087525
0.05789610
0.03660334
-0.00652792
-0.02196010
-0.01918361
0.01260288
0.01478174
0.05749336
0.01110295
-0.00267011
-0.04119592
0.01536841
-0.04603188
0.00662358
0.03875982
-0.02649108
0.02649436
0.01057409
-0.00761412
-0.02340660
0.02044078
0.00768322
-0.01674175
-0.00936385
0.00821391
-0.02052331
-0.00835825
-0.00110571
-0.00312936
0.01263120
0.01926037
-0.00376253
-0.02963675
0.06727201
-0.00124479
0.00988673
0.03615636
0.00567006
0.00046267
0.02249626
-0.00739519
-0.01228553
-0.01259377
0.00840691
-0.01210993
0.03893070
-0.02268934
0.01855762
-0.00214068
0.05660688
-0.03525005
-0.00815509
-0.01885761
-0.04360840
0.00400998
0.04110929
-0.00496220
-0.00457051
0.00366133
-0.01350723
-0.06436539
-0.02763516
-0.00855588
0.00405025
-0.00524643
-0.00723357
0.01062580
-0.00256115
-0.05625024
-0.03892002
0.00453481
0.00999721
-0.00027638
0.03408926
0.00518285
-0.03419471
0.01667404
-0.03478884
0.02192266
-0.00595525
0.06037758
-0.00012497
0.01718480
0.02164068
-0.02362859
-0.04338587
0.00560026
-0.02633118
-0.03353051
0.02741944
-0.00770849
0.02639135
-0.02053527
0.02106503
-0.00193482
-0.01427596
-0.02000767
-0.03443814
0.02820265
0.02581619
0.04571477
0.01611516
-0.00772877
0.02661131
-0.02216716
0.01351191
0.00183373
-0.02104967
0.05174896
0.01721905
0.03610343
-0.04979423
0.00758274
0.01001289
-0.01908898
0.03538497
-0.01391934
0.02042632
-0.00821122
-0.02493618
-0.03597760
0.00353630
-0.00135335
0.01000518
-0.05918551
-0.01430702
-0.11476452
0.02175247
-0.00497425
-0.04752770
0.00878330
-0.03704036
-0.01792135
0.02739392
-0.00949082
0.02761798
0.05302087
-0.00661312
-0.02116584
-0.02102284
-0.01265204
0.01237088
0.00743700
-0.02644918
0.00050486
-0.07069717
-0.01212895
0.00863208
-0.00347929
0.03228732
-0.01384685
-0.04267579
-0.00768688
0.03799757
0.05486486
0.05864945
-0.00554183
-0.12852113
0.03945697
-0.15702218
0.01658599
0.03367607
0.01548723
-0.02566541
0.01956540
0.02293063
-0.05534825
0.01134677
-0.03657219
0.01614798
-0.03376838
-0.05217644
-0.01924428
-0.02383679
-0.06681807
-0.04085280
-0.04554349
-0.01112452
0.03885332
0.02285590
-0.02741226
-0.10830020
0.00181492
0.05150501
-0.00330085
-0.01313181
-0.00357458
0.11464871
0.02505857
-0.00905802
0.01079957
-0.00402257
0.01554681
-0.04081786
0.01602651
-0.02350191
0.00863623
-0.00776612
0.05067799
0.01449856
-0.07049278
-0.00139261
0.01060107
0.01530154
-0.05009976
-0.00591190
-0.02644810
-0.03322919
0.02030950
0.00866372
-0.01894413
-0.03522781
0.01054224
-0.01963953
0.02143123
-0.03119140
-0.00521888
-0.09159446
-0.02058475
-0.00570320
-0.00524725
-0.03619227
0.08543796
-0.00321108
-0.00688120
-0.02345833
-0.06771652
-0.02821967
0.03563806
0.00026853
0.00009881
0.00195543
0.00219581
0.00587031
-0.02547766
-0.01266849
-0.01717086
0.00693088
0.06879715
0.04245318
-0.01730135
0.04792856
-0.00286592
-0.01336955
-0.04297503
-0.02397621
-0.00470682
-0.00130382
-0.03869449
0.02875891
0.00113949
0.01190943
-0.08512813
-0.00651439
-0.02636117
0.02158358
-0.01319716
-0.02366234
0.01192548
-0.00311653
-0.01060845
-0.05141243
-0.00762933
-0.01201817
0.01018200
0.01662137
-0.06622858
-0.04967200
-0.01762668
-0.04752919
-0.00052026
0.03378635
-0.05387708
0.01989132
0.02738389
-0.01326656
0.00334484
-0.00076453
0.02669692
-0.00848312
-0.01595068
-0.04064144
-0.00609433
-0.02985995
-0.05307152
0.00881698
0.02867163
0.01527950
-0.00225312
0.04111628
-0.00948697
-0.01400835
-0.00439096
-0.00031331
-0.00696512
-0.00932677
-0.00640051
-0.01043646
-0.02317719
-0.00041140
-0.00647420
-0.02513148
-0.04791040
0.00474626
0.01832030
0.04959857
-0.03297221
0.02262351
0.02006761
-0.00218862
-0.01862898
0.02200559
0.03496564
-0.03345038
0.01914652
-0.00913986
-0.02908785
-0.01378324
-0.01324621
0.00276430
-0.01306883
0.02542381
0.01892777
-0.03093867
0.00027755
-0.01115949
-0.06551871
-0.03533759
0.02277357
-0.00387458
0.03237395
-0.02764646
0.02342119
-0.03681086
-0.02164951
-0.02967587
-0.01399868
-0.04487422
-0.00051106
0.01487532
0.03126198
0.01207954
0.01646223
-0.01475995
0.02569843
0.00632377
0.01198123
0.00209293
-0.03245047
-0.01003839
-0.00659814
-0.02192898
0.02401866
0.02562786
-0.01110908
-0.01512223
0.00994833
0.01293691
0.00839312
0.00662869
0.03260251
0.01205811
-0.00792801
-0.01382055
-0.01509348
-0.01547661
-0.00483311
-0.00333137
-0.01836627
0.03232053
-0.03269706
-0.00589132
0.01469678
0.00540655
-0.01256675
-0.04321409
-0.01227196
-0.00666875
0.00094490
0.00948657
-0.00483128
0.01181460
0.01806068
-0.05177300
0.00216674
0.03872732
-0.00786153
-0.00188660
-0.02098245
0.01234966
0.02370693
-0.01072007
-0.01842087
0.00647773
0.00207625
-0.01244014
0.01373596
-0.00768235
-0.02372362
-0.01704880
-0.04214013
-0.01003631
-0.01913405
0.00502236
-0.01311082
0.01127558
0.00287969
-0.00251557
-0.00766647
-0.04855753
-0.02870325
-0.02236987
0.02294956
-0.01975347
-0.01606636
-0.01718615
-0.00460272
0.00575767
-0.02410946
0.00596150
-0.01505639
-0.03013047
-0.04282745
0.00477570
0.03430215
0.00215872
-0.00213725
0.01091287
0.00860110
-0.02211396
0.00240318
0.02591507
-0.03175713
0.00528622
-0.01302106
-0.04301146
-0.01928438
-0.04298233
0.00187808
-0.00988343
0.01384293
0.04385104
0.04391468
-0.01622920
-0.08795141
0.03576579
-0.01467452
0.02214021
0.09265383
0.04428162
0.02998229
0.00139273
-0.05742895
-0.07428193
-0.00034751
-0.00968451
0.00604225
0.00431103
-0.00114851
0.00617444
-0.02842587
-0.03343254
-0.05640458
-0.00845453
-0.05995666
-0.01955308
0.01142916
0.03070411
-0.01302942
-0.01404219
-0.01392067
0.01189880
-0.03848531
-0.04815592
0.00466003
0.03404572
-0.05368552
-0.00805033
0.01313367
-0.01162549
-0.00180488
0.04988258
-0.00708007
-0.00471688
-0.01455357
-0.01541965
-0.00209992
-0.03366260
0.04891391
-0.00869824
-0.01541621
-0.00005277
0.04068204
-0.00386288
0.02849064
0.00778700
-0.00857455
0.01409994
-0.00674197
0.00289278
0.02424893
0.00044333
0.05004390
0.01051972
0.08091900
-0.03928711
-0.00279248
0.00884358
-0.02619299
-0.01876439
0.04298162
0.01545920
0.00075820
0.00845855
-0.02397876
0.00583140
0.00133897
0.01793497
-0.03036563
-0.04021996
0.03048430
0.01606353
0.01949577
-0.04761993
-0.00262320
-0.02811528
-0.06063411
0.02481782
0.02444207
-0.00933722
-0.00437179
-0.02177008
0.02646627
-0.01328163
0.02325041
-0.02603340
0.01551360
0.01389729
0.00856498
0.00046016
-0.02072564
-0.00275058
0.00267498
-0.02000634
-0.01884342
0.05574168
-0.00115812
0.02774445
0.04227504
-0.00904666
-0.02141712
-0.03510329
-0.02039271
-0.00921743
0.00386750
0.02358994
-0.03366986
-0.05809213
0.00692895
0.04962986
-0.04799359
-0.00935494
-0.02696338
-0.01098808
-0.02433253
0.02084201
0.01824163
0.03083027
0.01117438
0.00311675
0.01767952
0.00349800
-0.02783292
-0.04018039
0.01167878
0.00501929
-0.04521001
-0.02627490
-0.02216185
0.00280060
-0.00500243
0.02001834
-0.02566069
-0.01790865
-0.04024694
-0.02749807
-0.00017609
0.00958583
-0.07635338
-0.04311840
-0.00060314
-0.00648336
-0.02322945
-0.00770219
0.01295099
-0.00069314
0.01236800
-0.00321535
-0.00615220
-0.02380900
-0.05892639
-0.01545404
-0.00208674
-0.00101811
-0.01981952
-0.02302586
-0.00870999
0.00745253
-0.01903239
-0.01431919
-0.01233009
-0.05072395
-0.04257702
-0.01065719
-0.00230340
-0.02185165
-0.06311594
-0.00878253
-0.04838918
-0.00386450
-0.01843998
-0.00963140
0.01787206
0.03608985
-0.00937494
-0.00734304
-0.00863404
0.00665244
0.00370975
-0.02454277
0.02318022
0.01141873
0.03848493
0.01928221
0.00070782
0.02233579
-0.02190056
-0.00158549
-0.03441132
0.01220575
-0.02380638
-0.01069275
0.00152409
-0.00193678
-0.05810297
0.00814302
-0.00828843
0.00590630
-0.00331311
-0.01084440
-0.02544668
-0.02055260
0.00898204
-0.02605267
-0.00951693
-0.03864120
0.03640617
-0.01687993
0.03686550
-0.03665446
0.00028549
-0.03533792
-0.00364361
-0.00247242
0.02134438
0.04099317
0.01064032
-0.00455546
0.02552912
-0.01042975
0.02628488
-0.00690635
0.02662981
0.00770483
0.00755376
-0.02732401
-0.01636409
0.01637907
0.02257674
-0.04344326
0.03494119
-0.03156819
0.00584202
0.01059180
-0.03850156
-0.00688772
-0.02058599
-0.00576764
-0.03661924
0.01834430
0.00421018
-0.06585845
-0.04842967
-0.11072113
0.03440500
-0.04446919
0.02193998
-0.00755851
-0.04719257
0.01182573
0.01877309
-0.00916405
0.01121781
-0.03320778
0.02256395
-0.00968256
0.00698704
-0.10028759
0.04850189
0.01777631
0.02427617
-0.01366938
-0.00286231
-0.07358625
-0.00527626
-0.01068024
-0.01722432
0.00013852
0.01220327
-0.06110924
0.00377833
0.00249426
0.01195943
0.00811015
-0.01695833
-0.01622396
-0.02050221
0.01130656
-0.07442153
-0.02444345
0.03332891
0.00094732
-0.04371950
-0.00552956
-0.11054659
0.02297154
-0.00591979
-0.05552244
0.02208572
-0.01502172
-0.00289653
0.01702327
0.00661692
-0.02716880
-0.03126293
0.06086811
0.00672186
-0.05999384
-0.04146493
0.03230681
0.01528214
0.02671814
0.02137057
0.00313419
0.00361478
-0.06152651
-0.01161254
0.06648779
-0.00342934
0.01369796
0.01366735
-0.07742201
-0.03827012
0.00730881
-0.01802376
0.01494248
-0.02001800
-0.02812822
0.00548269
-0.02128547
0.00631215
0.01351540
-0.01571001
0.00108943
-0.03695678
-0.00619754
-0.03011641
0.00838588
-0.01250199
-0.02763300
-0.01023958
-0.04065801
-0.00762476
0.02993175
0.02122695
0.01466653
-0.02631544
0.03235525
-0.03025476
0.01499597
0.03961293
0.01970099
0.01875952
0.01903803
0.03821590
0.00343485
-0.03750233
0.01327480
0.01988363
-0.00873847
0.00918691
-0.00722017
-0.01457573
-0.01174315
-0.05836321
0.04809117
-0.02085517
0.00116442
-0.00110477
-0.01563744
0.02747272
-0.00502529
0.00865180
0.01349617
0.02154861
-0.01628059
0.00478173
0.00623419
-0.00976851
0.05849834
-0.04142120
-0.00713891
-0.03111324
0.00778138
0.02807306
0.00489982
0.00258108
0.01471282
0.00362998
-0.01718271
0.05353043
0.01768195
0.00027302
0.02261668
0.00263953
0.03149157
-0.03774212
0.01756398
-0.01284024
-0.00988033
-0.06802728
0.00243882
0.03444700
-0.03442748
0.01121858
-0.00737006
-0.00632656
-0.03263354
0.07026972
0.03838925
-0.01216500
0.00300661
-0.03658502
0.00425921
0.00793032
0.00358055
-0.01822637
0.00346409
0.00824650
0.02435002
-0.09599562
-0.02985141
0.03132802
0.00374950
0.05300658
-0.01747898
-0.00090770
-0.02166954
0.01521855
-0.01720182
-0.01100338
0.01251478
0.01950646
0.02097504
0.01217304
0.00347589
-0.01422298
0.02970658
-0.00507835
-0.04158731
0.02018462
0.00727434
-0.01808675
0.02236059
0.01271613
0.00253979
0.03213638
-0.00846270
0.02302096
-0.05448000
0.01597362
-0.00479514
-0.02371478
-0.00339741
-0.04319153
0.03635979
0.04574873
-0.00529878
0.00782218
-0.02754753
0.01313029
0.01042396
-0.01655183
0.01305903
0.00525800
0.00259990
-0.02747419
-0.02327411
-0.00723601
-0.00328412
0.00896665
0.08978592
0.00445149
0.05288282
0.02533770
-0.03722725
0.01263839
-0.09214682
0.01329535
-0.03709091
-0.01955004
0.02110877
-0.00875996
-0.03547898
-0.04041255
0.06764384
-0.02710102
0.07714906
-0.01863398
-0.01151699
0.00230357
0.02691040
-0.00311408
0.00330277
-0.00567638
0.00387609
-0.01214370
-0.01161749
0.02393465
-0.00170827
-0.01070621
-0.02593498
-0.00490833
0.00473988
-0.02086477
0.01636958
-0.01915118
-0.01256842
-0.00775869
0.00216835
-0.00913340
-0.00485530
-0.00767262
-0.02140458
-0.03862705
0.01124978
-0.02072406
-0.00029897
0.00633852
-0.02852931
-0.00153293
0.00344896
-0.02895714
0.02832103
-0.02637284
-0.00243590
-0.06428630
-0.01299234
0.01880401
0.00892787
-0.03333537
-0.01206697
0.05960134
0.00410315
-0.03104204
-0.01171009
-0.03071377
0.00946868
0.00851214
0.00665459
-0.03271752
0.00644061
0.01036775
0.00034175
0.01458010
-0.00711569
-0.01536065
0.00386702
-0.00239296
0.01066383
-0.00411528
-0.00098962
-0.01214946
0.00427661
0.02049343
-0.01943694
0.00012775
-0.03317616
0.02209386
-0.01438464
0.02257229
0.00491382
0.00483174
0.01680552
-0.00269882
-0.02317346
0.01101137
-0.03776367
0.01075131
-0.04124429
0.00920270
-0.00961449
0.01856855
-0.02953974
-0.02820605
-0.00300577
0.01859543
-0.02857439
0.01013011
-0.01413596
0.01856939
-0.00258780
-0.02834015
0.04966214
0.02746877
0.01459114
0.00151997
0.00794675
0.03734464
-0.03228862
0.01300815
0.01956329
-0.01905459
0.00242128
0.01489478
-0.00711123
-0.02577659
-0.01308604
-0.03760783
0.01236915
0.01121954
0.01865503
-0.01420377
-0.00309778
-0.01762239
-0.01876942
0.00691892
0.00127332
-0.06987973
-0.02262491
-0.01394022
0.00397642
0.01333251
0.01116740
-0.01520598
0.00424849
-0.00032416
-0.00141091
0.01367730
0.01895907
0.00012465
0.02384931
0.01918450
-0.01064358
0.02008147
-0.01315123
-0.00936550
-0.01026899
-0.02541793
0.02145845
0.05456553
-0.00373977
-0.01283198
-0.00163754
0.00855301
-0.01697914
-0.00165608
-0.05555109
-0.00236881
0.02594420
0.04088966
0.03176655
-0.01860475
0.01880405
0.01313285
0.02456686
-0.00914804
-0.01059800
-0.00506466
0.00865875
-0.03278519
0.01459885
0.01286697
0.01467882
-0.01085649
0.00247612
-0.02105969
0.00261643
-0.00019079
-0.01490852
-0.01237713
-0.00127498
-0.00809661
0.00688630
-0.01068818
-0.04016192
0.00447268
-0.01326285
-0.02865159
0.03335193
0.04159239
0.01290977
-0.01818473
-0.01170291
0.00712508
-0.01173340
0.02322802
-0.02020246
-0.01639483
0.03402892
0.01765640
-0.02046144
-0.01690580
-0.00767790
0.00114223
-0.00520911
-0.02413355
0.00064635
-0.02769208
0.03015980
0.06133998
0.00520276
-0.01904719
-0.00309583
-0.03810509
0.00166582
-0.13728783
-0.02929521
-0.02311104
-0.03990234
0.00353648
-0.01460077
-0.00048721
0.02146764
-0.01802296
-0.00918909
0.01572800
-0.02969903
0.04088355
0.00587333
-0.07289179
-0.02529293
-0.02966209
0.01504082
-0.00245850
0.02096453
-0.02832191
0.00414943
0.03806195
-0.00441409
-0.02259766
-0.01366237
-0.00637563
-0.02593331
0.02426813
-0.01780593
-0.01531293
-0.01725546
-0.00889570
0.01995325
0.01479214
0.01102992
-0.01189030
0.01122699
0.04182274
-0.01416530
0.00166199
0.06628475
-0.00160308
0.00184085
0.00059212
0.00511870
-0.02843337
0.06887571
0.01575949
-0.01780223
0.01625587
0.00269703
-0.04638354
0.00472915
-0.04352716
-0.01732791
-0.00750345
0.03074444
0.00733544
-0.01745934
-0.03408756
0.00617167
-0.01013047
-0.01986649
0.01909075
-0.05435969
-0.03964319
0.00753346
0.01259839
-0.02416059
-0.01737087
-0.01657405
0.01659309
0.02388243
0.02499340
-0.02504193
0.07123027
0.06747821
-0.00784512
-0.00650561
-0.04214727
0.00770131
0.01045283
0.01406377
0.00483042
-0.00122976
0.00259201
0.01167641
0.02032742
0.00067447
-0.12333684
-0.02377899
-0.01604819
0.08296337
0.01527459
-0.03934351
0.11082530
-0.01261148
0.00462824
-0.00900436
-0.05796710
-0.00941947
0.05785884
0.01667384
-0.02296527
-0.01160405
0.00237934
0.06772798
0.03492295
0.02261638
0.00734336
-0.00109799
-0.01063708
-0.05780476
-0.00767538
0.05778714
0.01328130
-0.00566379
-0.00307867
0.02881580
-0.00181754
0.01034786
0.01293951
0.01897503
0.03598188
0.00014876
0.04213639
-0.00490076
0.02639759
0.02026305
0.10513414
-0.00854807
-0.01094861
-0.08919261
-0.00023426
0.01931928
0.00893244
0.01535673
0.01571400
0.01630136
0.07854059
0.00989868
0.00798354
0.03133179
0.00897878
0.01872136
0.05068247
-0.01093415
0.06450904
-0.06372010
0.00189910
-0.05037202
-0.04709214
-0.01716808
0.00598218
-0.02528069
0.00772031
0.04702028
-0.07115795
-0.00191878
0.00492443
-0.03725106
0.00538182
-0.01038995
0.04024576
-0.02044724
-0.00203954
0.01845503
-0.01114469
-0.05864808
-0.01900026
-0.03077823
0.01968898
0.04824483
0.00642714
0.05054422
0.05037527
-0.03730052
0.03457064
0.02869433
-0.05186468
-0.00342422
0.07934783
-0.00683069
-0.00234696
0.04441398
0.00058207
-0.00030088
0.00381503
-0.08336222
-0.08484474
0.05456509
0.01966772
0.02521795
0.01263154
-0.07312235
0.00681484
0.06168158
-0.00107495
-0.02087885
-0.04317583
0.02929980
-0.00254602
-0.06329535
0.00190071
0.01208546
0.03403338
0.02493951
0.02300971
0.03211316
-0.01911955
0.04230639
0.00358888
-0.04648132
-0.02930250
0.02750259
0.01300133
-0.00988224
0.01872259
-0.02369188
-0.01037816
-0.02643224
-0.04678290
-0.01383921
-0.01732635
0.02596095
-0.01741202
0.01781487
-0.00290606
-0.00576866
0.02946803
-0.02270845
0.01670999
0.01541256
0.01638504
-0.01184454
-0.01634349
-0.03011809
0.07131949
-0.02322207
-0.05931323
-0.00707813
0.03258979
0.03991667
-0.00695507
0.02588425
-0.08031516
-0.02051020
0.04018874
0.00680820
0.03724091
0.02952256
-0.03149476
-0.03453754
-0.03436907
0.03699921
0.01267591
0.03759544
-0.04496678
0.02186846
-0.01915723
-0.01366493
0.00159824
-0.03273354
0.01241919
0.03646380
0.02307030
0.00407051
-0.00112283
-0.01196548
0.01721295
0.00363837
-0.04094175
0.03314059
0.00272409
-0.05034800
0.05953627
-0.01135320
-0.01161530
-0.00643972
0.02882967
-0.01780082
-0.01563105
-0.00414125
-0.04301149
0.00561102
0.09300139
0.01286105
-0.09886026
-0.01757086
-0.07003044
0.01882181
-0.01824078
-0.00246477
0.01924763
0.00781258
-0.00644862
0.01046483
-0.01340943
-0.00051070
0.03778959
-0.02679471
-0.00434168
0.05429723
-0.04105902
0.07525345
-0.04954580
0.03942172
0.02747127
-0.01445163
0.09457003
0.01504456
0.00300465
0.00038563
0.00584537
0.03755376
0.01016461
0.00644294
0.04806018
0.02922206
-0.00381085
0.00589663
-0.02535326
0.01186637
-0.03794126
0.00885132
0.00623197
0.01734765
0.02503588
0.01621527
0.00520353
-0.00668122
-0.00128586
0.01127906
0.00067427
-0.00919612
0.04927440
-0.04455181
-0.01125410
0.02337171
-0.02536274
-0.00965181
-0.04297920
-0.04726875
-0.00091776
0.00233393
0.00862496
-0.01378322
0.01202732
-0.00164329
-0.01553138
-0.07451130
0.01171784
-0.04259954
-0.01520915
0.00834110
0.03048870
0.01027068
0.00937359
0.00453794
0.00926598
0.00777695
0.01806412
0.01298521
-0.01337308
0.00027946
0.01771568
-0.08568120
0.06402269
-0.01037689
0.00891161
0.03785763
0.01685539
0.07138423
0.00046267
-0.01039386
0.00950433
0.01570668
-0.04133232
0.01866613
-0.00041582
-0.01010710
-0.02687991
-0.02120569
0.03490148
0.01803236
0.02297100
-0.03474873
-0.01701163
-0.00709836
0.02395896
0.01761840
-0.01403532
0.00296358
0.03239755
-0.00703790
0.00475730
-0.00827132
0.01014852
-0.00257892
0.02083033
-0.00878529
-0.00570248
0.05370146
0.02429091
0.00182439
0.01059111
-0.00076928
-0.02561787
0.00220652
0.04777536
0.01277239
0.00122501
0.01413346
0.02682259
0.02807366
-0.00863126
-0.00217327
0.05554917
-0.00945278
-0.04085256
-0.02999863
-0.01877634
-0.02976400
-0.03348440
-0.00755055
-0.01043760
0.01042725
0.04613324
-0.04517868
-0.01769346
0.00868926
-0.04125730
0.01820360
-0.00123355
0.00404840
0.01473361
-0.01796226
-0.01742552
0.00405803
-0.03924396
0.00884493
-0.00854967
-0.00282216
-0.00430353
0.03245709
-0.01776803
-0.01670096
-0.03609194
0.03672868
0.00430975
0.01025262
-0.05652713
0.00874902
0.02159476
-0.01956899
-0.07823195
0.00126752
0.01389706
-0.01756433
-0.03730585
-0.00761746
-0.01891641
0.02015345
-0.01559759
0.00184730
0.01823931
0.01146758
-0.02796708
0.00346142
-0.00111349
-0.01844723
0.03589194
-0.01504861
0.01200193
-0.01731445
-0.00712555
-0.01453610
-0.01084592
-0.01178542
-0.01940129
-0.02807466
0.01391323
-0.00192547
0.03821129
-0.00169311
0.00054430
-0.03044799
-0.02985889
-0.03112091
0.00296911
0.00477194
-0.00988011
0.01917380
-0.00025477
-0.01287363
-0.02097989
0.00899124
-0.00594324
0.00747362
0.02373639
-0.02187329
-0.00104845
0.00062126
-0.01348651
0.00328001
0.01162442
-0.02168375
-0.00881667
-0.01087991
0.04183476
-0.00263855
0.00199487
-0.00041466
-0.00262940
-0.04582905
-0.01959133
-0.05794754
-0.01367957
0.03312700
-0.00331100
-0.02608361
-0.00305795
0.00859616
-0.03571779
-0.03008347
0.01612095
-0.02818231
-0.00866887
0.02577888
-0.02848347
-0.07656663
-0.00076204
0.01217565
0.08135593
-0.00859150
-0.04944177
0.01260137
-0.01716413
-0.02156196
-0.00493763
0.01059032
0.01465925
-0.00371769
0.01706916
0.01843202
0.02249929
0.00446981
-0.00186133
-0.00167211
0.03479440
0.00562132
-0.03001948
0.01471853
0.03742147
0.02672980
0.00147051
0.01700660
-0.06665096
0.00669006
0.02253836
-0.00567437
0.00715563
0.00269697
0.00556099
0.06271958
0.01348281
-0.04969203
0.01537535
0.05068183
-0.00028952
-0.00202163
0.01326115
-0.01329870
0.00857744
-0.01221222
-0.00228746
0.04327345
0.02031543
-0.03602092
0.00425746
0.07065350
-0.02315366
-0.01350348
0.00925855
-0.05930676
0.00206278
-0.03966353
0.03245510
0.00104863
-0.01685866
0.00903584
-0.00478496
0.04059397
0.00162341
0.01653452
0.02248043
0.02458743
-0.00087141
-0.06231532
0.01168013
-0.00464442
0.01171728
-0.00657406
-0.00249013
-0.04351348
0.00107942
0.03558329
-0.00935641
0.00142325
0.04230155
0.02634590
-0.03141560
0.02888037
-0.01614547
0.00222343
0.00098106
-0.00745411
-0.03066956
0.00731002
0.00878201
-0.04475050
0.04114912
0.02824713
0.04031657
-0.01079282
0.03985085
-0.00464107
0.03299687
-0.01098218
-0.01246921
-0.02953578
-0.00589953
0.02748663
0.01456960
-0.02437265
0.00812323
-0.02102371
-0.06330895
0.03406004
-0.00096279
-0.05121494
-0.02040366
-0.00009485
0.00951058
-0.01254175
-0.01357232
-0.02922293
-0.02544259
0.01512197
-0.00918442
0.01045540
0.04667500
0.04636419
0.00195016
-0.01923410
-0.00642329
0.00576050
0.00955902
-0.02403602
-0.02006061
-0.01239816
0.00723512
0.01647883
0.02725869
-0.01266144
-0.05092289
0.00542447
0.00207189
-0.01400053
-0.00473679
-0.03226846
0.02650069
-0.01692342
0.01737809
0.00997285
-0.03423161
0.04533776
-0.00831617
-0.00889686
-0.09174997
0.01556411
0.00431992
0.00130776
0.02405225
-0.01557337
-0.03097614
-0.03734591
-0.03187178
-0.00604448
-0.03642743
0.00483911
0.00309797
-0.01241236
-0.02137266
0.02432901
0.03575037
-0.00307474
-0.02506191
0.00648109
0.02631361
-0.00630921
0.00139512
0.02367072
-0.02358204
-0.00982588
-0.07848252
0.04019453
-0.01029154
0.03133374
-0.01595212
-0.08833182
-0.00214865
-0.01243191
-0.01716927
-0.00126010
-0.02189832
-0.00570473
-0.01041337
0.00710682
-0.06016759
-0.00526691
0.00528151
-0.02964598
-0.13482200
0.00426999
-0.05904424
-0.00085873
-0.14968981
0.05186721
-0.01938634
0.01107605
0.01216048
-0.03639773
-0.00720145
0.01065197
-0.00715966
0.00697289
0.00835702
-0.01933084
-0.02464015
0.00606500
-0.00409971
-0.03151198
0.10076220
-0.07396019
0.15661035
-0.02357605
0.02312859
-0.01170534
-0.02797915
-0.02926164
0.00626870
0.02855345
0.00360697
0.01818746
0.05108952
0.00709969
-0.02041226
0.04990458
0.03903005
0.04504351
-0.01575452
-0.01933159
-0.03091462
0.03522030
0.01635273
-0.00403368
-0.07359804
-0.02067666
-0.02125471
0.00436274
-0.02055662
-0.01324181
-0.03544473
-0.00223981
-0.02513081
0.05635136
-0.00839821
0.00661202
-0.02857186
0.01451169
0.01538101
-0.01983246
-0.01774772
0.00301326
-0.00406586
0.01513784
-0.01503509
0.01642581
-0.03157515
-0.09836292
0.00589885
0.00314670
-0.10790785
0.00403058
0.00874302
0.03600331
-0.07242306
0.03683210
-0.02020944
-0.02216230
-0.00523236
-0.02707699
-0.00515754
0.01024089
0.05656361
0.00635120
0.06438566
0.00931785
-0.01094744
0.02345978
-0.01363429
0.00070238
0.01647061
-0.08317163
-0.02401850
-0.07983786
-0.07236650
0.00600455
-0.00853743
-0.00395621
-0.01445103
-0.02318225
0.01921806
0.00189657
0.06218580
-0.02147090
0.00061703
-0.03286674
-0.05754182
0.05014379
0.01128576
0.01497818
-0.00112063
-0.02905769
-0.06147170
0.00795691
0.02401476
-0.02463556
0.02493754
0.00044554
-0.03464100
0.01391596
0.03009648
0.00797509
0.01036095
-0.02677247
-0.10004183
-0.01846661
0.00350080
0.01016905
0.11027638
-0.01131128
0.02378661
0.00099746
0.01462580
0.00997695
-0.02807426
-0.03296750
-0.00402516
0.06995685
0.01119886
-0.00368394
-0.07367516
-0.01286398
-0.07005094
0.04522985
0.00770964
0.03959282
-0.00017454
-0.06940284
-0.03875969
0.01362116
-0.00369028
-0.06932276
-0.01883841
0.02251401
-0.05672615
-0.01505140
-0.01698300
-0.05608923
0.00668572
0.03149927
-0.02361677
0.01333638
-0.00438313
-0.00858123
-0.04079810
0.00541585
-0.01399896
0.01587004
0.02365508
-0.00260882
-0.01906931
-0.02099665
-0.00929226
0.00452711
0.01410240
0.02152550
0.00201665
0.00165255
0.01109286
0.01759396
-0.01624772
0.01162698
-0.03085759
-0.01476428
0.02039997
-0.00436465
-0.01737164
-0.03617172
-0.00489552
-0.05398617
0.01907741
-0.01123076
0.00148301
0.01761205
0.02180146
-0.02238015
0.02125313
0.00418982
0.00990535
-0.01853102
0.01578691
0.00094084
-0.01062762
-0.00992615
0.00639792
-0.00776824
0.01794016
0.01985971
-0.01059307
0.00988856
0.01665945
-0.01070165
0.01127087
0.00563012
0.00402514
0.01595763
0.00491596
-0.00609284
-0.00226152
0.01754229
0.01414497
0.01040537
0.00597991
-0.01124006
-0.05881099
-0.00694913
-0.00937095
-0.00232223
-0.01137744
-0.01430603
0.02206776
-0.01714982
0.02188887
-0.00140169
0.01862180
-0.00955116
-0.02514305
-0.00341176
0.01337241
-0.03580150
-0.01965601
0.00294836
-0.00556764
0.00086792
-0.00647141
0.02458978
-0.00366635
-0.02094023
0.00418673
0.03262311
0.00664620
0.01248081
-0.02394994
0.01775349
0.01491956
-0.02102437
-0.04050018
0.01762445
0.01768861
-0.01825667
0.00931748
0.00218581
-0.00702170
0.02887836
-0.02716458
-0.00624356
-0.00512107
0.00727212
0.03009490
0.02246898
-0.00023049
-0.03368851
-0.00647904
-0.00538048
0.01757837
-0.02775230
0.06184868
-0.05322135
-0.00479035
-0.01380643
-0.00591398
-0.01967074
0.02505618
-0.03254568
-0.01724803
-0.00908184
-0.00742419
-0.00872275
-0.00649763
-0.01183430
-0.00434392
0.02044965
-0.00320008
-0.00981190
0.07706970
-0.01563816
-0.00615442
-0.01998191
-0.03202314
0.02024800
-0.01145069
-0.00862423
0.00734781
-0.02272654
-0.02789675
-0.00361339
0.00365134
-0.00739755
0.00011783
0.03511050
0.00606906
-0.01438497
-0.05530102
-0.00999466
0.03034155
-0.02631992
0.00196324
-0.00067374
0.00728601
0.01167673
0.00129168
-0.02636106
-0.01315753
-0.02016480
0.00199271
0.00103049
-0.01029289
-0.00021380
-0.01197552
-0.01324477
-0.00515305
0.00574602
-0.10161749
-0.01964471
-0.05928384
0.02361168
-0.02445595
0.00198442
-0.00148094
-0.01025874
0.07231802
0.00056388
-0.01395585
0.00126290
-0.04333195
0.00899559
-0.01421212
-0.02558861
-0.04250357
-0.02125635
-0.00989700
0.03151550
0.02601559
0.00050601
-0.03857528
-0.00289168
-0.04501192
-0.00395862
-0.00076536
-0.03582348
-0.00243343
-0.00736411
0.01008386
-0.00580514
-0.02520915
-0.00739436
-0.02835175
0.01942826
0.00910869
-0.06097110
0.00080481
-0.02257213
-0.01899667
-0.00724978
-0.00268195
-0.01535584
-0.02325007
-0.05798728
0.01608470
0.00745308
-0.02605287
-0.00838200
0.01189483
0.09875737
0.13794430
-0.01839195
0.01245840
0.01386835
0.20457707
0.05768989
-0.01124705
0.02062923
0.01667394
0.00393640
-0.03013366
0.00157917
0.01624672
-0.01005678
0.00838695
-0.01621772
-0.00013275
-0.01745533
-0.00590589
-0.01116092
-0.08854038
0.02202457
-0.04703147
-0.01350723
-0.01679172
0.01008014
-0.00276387
0.00997812
-0.02738523
-0.05885272
0.00288986
0.00723929
-0.01657795
0.00542106
-0.02782591
0.00286624
-0.01462805
-0.08340406
-0.01900261
-0.01261052
-0.00187072
-0.00381984
0.01986302
0.00959057
-0.00619340
0.00053023
0.01651294
0.10114008
0.01075906
-0.02251137
-0.01811953
0.01419960
-0.00627220
-0.08066007
0.00401609
0.01719183
-0.01019427
-0.00433288
-0.00960766
-0.00006692
-0.00349361
0.02052008
-0.00625599
-0.00618900
-0.00812525
-0.00556406
-0.00299388
0.06673772
-0.00260916
-0.00678423
0.05519245
-0.00951623
-0.00138507
-0.00012653
-0.00658557
-0.02687429
-0.02223352
-0.00637149
-0.03720553
-0.01369553
0.04948647
0.02919834
-0.01485993
-0.01490045
0.02765222
-0.03839898
-0.00578107
0.02415931
-0.05981913
-0.04583396
-0.01106983
-0.02153940
-0.02875417
-0.03884238
-0.01534558
-0.02315220
-0.02984313
-0.00033954
0.00802803
0.02738078
0.03226298
-0.00706617
-0.03309826
0.02892745
-0.01281505
-0.04768549
0.05422729
-0.01904891
0.00886279
-0.04331148
0.02086902
0.02135342
-0.03982288
-0.02366288
-0.00388375
-0.03269890
-0.01951668
0.00886740
-0.02310226
0.00393329
-0.01656261
-0.04143581
-0.04670015
0.00300240
-0.06025751
-0.01555414
0.02409654
-0.01800427
0.05283067
-0.03590627
-0.02508522
-0.00624086
-0.04069263
-0.00713229
-0.01281672
-0.04071269
-0.03437959
0.00036557
0.00787324
-0.04130134
-0.01029789
-0.00799938
-0.03027361
0.04751912
-0.02797786
-0.00653261
0.01656456
-0.00284007
-0.01142848
-0.04481920
-0.00949636
0.02635161
-0.01208435
0.00696261
-0.07692636
-0.01655525
-0.00716821
-0.02440886
-0.02109504
0.01006345
0.03680510
0.03232605
-0.00577350
0.01427861
-0.00972812
-0.02492915
-0.02722621
-0.02012916
-0.02310840
0.01187043
-0.08686519
-0.00107709
0.01575024
-0.01164725
0.02132565
0.01033987
0.00524880
0.02767779
-0.04935437
0.00550638
-0.03377081
0.01612845
-0.00891134
-0.01899506
-0.01908820
-0.00495517
-0.03318531
0.01023226
-0.02017407
0.00654322
-0.00982469
-0.01101551
0.02722417
-0.01867297
-0.02287605
-0.01005653
0.01680324
0.01707514
-0.00325156
0.00316265
-0.01531305
-0.03493069
0.05963306
0.00013762
0.02202769
0.03452301
-0.00898777
-0.03417356
0.04339014
-0.00124838
0.01362186
0.00076472
0.00922544
0.00441869
0.02658813
-0.00051943
-0.00605944
-0.00150896
0.02970298
0.03018540
-0.02698947
0.02149334
0.00071155
-0.00327243
-0.08483703
-0.00244901
-0.01287695
0.02345766
-0.00255102
-0.00239842
0.00111740
0.00133631
0.02563551
0.02097972
-0.02134610
0.07968830
0.07827704
0.01987280
0.02932377
0.00980372
-0.01772364
0.03363587
-0.00676695
-0.03423877
-0.00588529
0.01517437
-0.01063967
-0.02215928
0.03911040
-0.01419500
-0.00708535
0.00900066
0.00866710
0.00961965
0.01437761
-0.09394648
-0.04134456
-0.00687509
0.00473817
-0.00374278
-0.00186461
0.01102254
-0.01602851
0.06230590
-0.00503215
0.00480981
0.02380824
-0.01541176
0.00539611
-0.00747014
-0.01504737
-0.00000469
0.02634340
-0.08853963
0.00330710
-0.00535857
0.00674936
0.01128968
-0.00069733
-0.02221726
-0.03359891
0.00085995
0.01451761
-0.01010330
0.01074044
0.02476029
-0.02395623
0.02375302
0.13298601
-0.02325450
-0.03487132
0.03061529
0.15307125
0.01962308
0.00813111
-0.00310032
-0.02087495
0.01404496
-0.03916027
0.01840372
-0.00367382
0.00972229
-0.00289970
0.01805388
-0.00021142
-0.00636826
0.00655987
-0.01024159
-0.15799898
0.14392346
-0.11343152
-0.00724204
0.00910380
-0.00885920
-0.03482746
-0.00341607
-0.01268224
-0.02319787
0.00269670
-0.00425138
0.00247307
0.00998146
-0.02577522
-0.03126947
-0.01778292
-0.07238456
0.03786450
-0.02232559
-0.02160412
0.01205174
0.02605634
0.01513230
-0.04843870
-0.00565946
-0.01863774
0.03594378
0.00460673
0.00372734
0.00489478
0.03158895
0.02165169
-0.15960680
0.01052337
0.01320459
0.01322491
0.01325632
0.00012665
0.00298594
-0.04399308
0.04547872
-0.01071488
-0.00935143
-0.00464639
0.02097634
0.02593856
0.10820726
0.02614654
0.00732936
0.06501246
-0.01225571
0.01632800
-0.01977757
0.03141562
0.00729255
-0.01375557
-0.00171745
0.02619005
0.01334590
0.01311918
-0.02558461
-0.02678019
0.02672878
-0.04707792
0.00286605
-0.01880950
0.02909479
0.01990873
0.01873742
-0.02289189
0.01470850
0.00719946
0.00404821
0.02336571
0.00212773
-0.00043779
-0.00390721
-0.03166519
-0.00598265
0.03099441
0.03647549
-0.00229055
0.00160884
-0.02046923
0.01342874
0.01181782
-0.01604401
0.00418155
-0.02531301
0.01417490
0.00406151
0.00167347
0.00853317
-0.01140208
0.01816266
-0.03338936
0.01033413
0.00639518
0.01395457
0.02756366
-0.00143116
0.01311362
0.00915603
0.00662992
-0.01599438
0.00649186
-0.01772535
-0.02205782
0.00691633
0.01117723
-0.00773180
-0.01885942
-0.01336128
-0.03651049
0.00061594
0.01169117
0.01244450
0.01946196
-0.05250664
0.02462936
0.01863935
0.02362739
0.00108519
-0.00827114
-0.00101650
-0.01532278
0.00204155
0.03164300
-0.01352119
-0.00081097
0.02470092
0.02207530
0.01071667
0.01780535
0.03004305
0.04577415
-0.00229299
0.03752989
-0.03326828
-0.02466681
0.00752605
0.00358435
0.03006335
0.03925031
0.01483229
-0.01686730
-0.01090471
-0.05266180
-0.02329889
-0.03317943
-0.02408261
0.00142450
-0.02185397
-0.01600471
0.01698600
0.03117357
0.01753022
-0.04830983
0.01463880
-0.02061517
0.00845073
0.03345666
-0.02939028
-0.00408392
0.03332399
0.01718598
0.00503864
-0.00923130
-0.00314014
-0.01938559
0.00786897
-0.00727203
-0.00492368
-0.03501964
-0.03988301
-0.00551139
0.01525693
-0.03645610
0.02043219
0.02569371
-0.05264173
-0.06386886
0.05877147
0.02189151
-0.02653152
-0.04639611
0.00969686
0.03498347
0.00019686
-0.01686219
0.03945717
-0.00379209
-0.01683770
-0.00063790
0.02832163
-0.02101538
-0.00702345
0.02329494
-0.02139622
0.00202435
0.03855227
0.00177288
-0.01067599
-0.05518490
-0.04253447
-0.02764208
-0.01960354
-0.02635251
-0.00833718
-0.00821661
-0.02230982
-0.01840757
0.00139246
-0.05715785
-0.01021656
-0.02098375
0.00383855
-0.02541315
0.00316071
0.04251162
-0.01779190
0.00373332
0.00870384
-0.02291262
0.00208324
0.01076071
-0.01255240
0.05009310
-0.01774575
0.01513939
0.01654179
0.01315151
-0.00535722
0.04554389
-0.06091598
-0.03550045
-0.04500496
-0.02393460
-0.01544663
-0.02706123
0.00158984
-0.00023574
-0.00157603
-0.03429215
0.01061051
0.03055410
-0.01037052
-0.04535379
0.00053650
-0.02783158
0.05227416
0.00086814
0.08149862
0.00686732
-0.06792451
-0.01581722
0.00827797
0.02738635
-0.00616257
0.00314407
-0.00371908
0.00926629
-0.03670016
-0.02902099
-0.00502713
0.03002298
-0.02024471
-0.06573738
0.02235342
0.02617023
-0.02497482
-0.10484313
0.02780869
-0.01169287
-0.00561084
0.05391430
-0.01612545
0.01565937
-0.00906134
-0.00771957
0.00104424
-0.00705292
0.00207999
0.00766486
0.00702118
0.00525855
0.00372586
0.09252826
-0.01006614
0.07903266
-0.01610591
-0.00097344
0.03638904
-0.03026676
-0.03547639
0.03751131
-0.01923559
0.00870583
-0.00402520
0.01596450
0.02068273
0.01202217
0.00218084
-0.00654866
0.03823416
0.00032410
-0.00041857
-0.01103619
0.00202290
0.01460885
0.00163904
0.00214273
0.00120831
-0.01556204
-0.00071621
0.01569679
0.01361476
-0.02360388
-0.00184682
-0.01036065
0.05410813
-0.00905861
-0.03396961
-0.01525616
0.02269549
-0.00808113
-0.01684294
-0.02137803
0.00174496
-0.01994109
0.04102209
0.02447531
0.00813235
0.02003420
-0.07665408
0.00771844
-0.00449416
-0.03725432
-0.01619876
-0.00387065
0.01913483
-0.02409347
-0.00949720
-0.02021856
-0.01959604
0.02949557
0.00189794
0.01896171
-0.05054229
-0.05847324
0.03635789
-0.09630231
-0.00858118
-0.04313016
-0.00282794
0.04584432
0.05155553
-0.06398482
0.03128820
-0.04497259
0.00115874
0.00121967
0.02747247
0.03146848
-0.02602126
0.01910284
0.02915058
0.02341458
0.01975690
-0.00229752
0.03179158
-0.00096877
0.08122057
0.04282906
0.04406772
-0.03148407
0.02176923
-0.01546677
0.02663754
-0.07395461
-0.01589016
0.03728792
0.05666983
-0.03505033
0.04369945
0.02239254
-0.00249283
-0.06785486
0.01155122
0.01862112
0.01928093
-0.05226510
-0.00695209
0.02240764
-0.04372642
-0.12269974
-0.07682775
0.03917180
-0.04046967
-0.01878881
-0.04871654
-0.00476625
-0.07712335
0.06418952
0.01370471
-0.03276322
-0.05066345
0.09360273
-0.00907507
-0.02020609
-0.04290497
0.02302106
0.00738425
-0.03379910
-0.02255422
-0.01415173
-0.01700238
-0.00051224
-0.00411977
0.00644030
0.02069221
-0.02497265
0.03636791
-0.02935908
-0.08971930
0.04070105
-0.01778046
-0.02198792
0.01250531
0.05495724
-0.00453577
-0.03404524
0.00313849
-0.02372748
-0.00108356
0.04081717
-0.04345228
-0.01279845
-0.03828590
0.00683200
0.02232959
-0.00799159
0.00321373
0.03868019
0.00105648
0.06151298
0.03162028
0.03399229
0.02049559
-0.01385868
-0.00923772
-0.03755683
-0.00525699
-0.01226943
-0.04007232
-0.01429905
0.00195613
0.00793626
0.00157815
-0.03025682
0.02206028
0.00542461
-0.03512765
-0.04044100
0.01822432
0.00039127
-0.02568527
0.00040986
-0.08874403
-0.08249660
0.01338263
-0.01307367
0.01581958
-0.01106692
0.03908208
0.03350145
-0.04012306
0.03225351
-0.05207400
-0.01445994
-0.03036117
-0.00757543
0.00936251
-0.02958540
0.03489742
-0.02830874
-0.04543513
0.01065238
0.02149696
0.00263591
0.02806180
0.19104734
0.01671749
-0.07121649
-0.01441639
0.05527316
0.01673938
0.00319474
0.01476292
-0.04222757
0.00314018
0.02509907
-0.00829330
-0.09125938
-0.01127077
-0.06780925
-0.00818760
-0.01596747
0.04398241
0.02207145
0.03827593
0.01238384
-0.00020728
0.00428041
0.00435148
-0.04747191
0.01068345
0.03724215
-0.01813406
0.01903231
-0.03706910
-0.04235141
0.05479272
0.03416183
0.01027885
-0.01279683
-0.01235835
-0.02255409
-0.01369353
-0.00402869
-0.04133733
0.03287633
-0.01944116
0.00491868
-0.02013615
-0.02256055
0.00054751
0.00929871
0.01705855
0.01785431
-0.02726239
-0.01026443
0.00444554
0.01157618
0.00099852
0.02092454
0.00884115
-0.00202338
-0.00388822
0.05642041
-0.03205198
-0.01215292
-0.01794025
0.03209410
-0.01472890
-0.00305984
0.01834686
0.02967676
0.02968373
0.01949400
0.01942257
-0.03219896
-0.00652234
0.00440840
-0.05161958
-0.01031832
-0.00154067
0.01508319
-0.02732020
0.02322358
0.01096121
0.04577929
0.02665491
-0.00899438
-0.04236158
0.02957537
-0.01116393
-0.01280992
-0.00730257
0.03295382
-0.00590542
0.01464012
0.00844684
-0.00455056
0.04436133
0.00161370
-0.01726269
0.02584172
-0.00481743
-0.00992069
-0.01380058
0.00334066
-0.00585171
0.03505556
0.01652207
-0.00779611
-0.03907650
0.01184782
0.04373571
-0.05525702
0.00659130
-0.04949629
-0.02329606
0.02555840
-0.02238307
-0.00886245
-0.00652066
-0.02070049
0.02043971
-0.00603158
-0.04861045
0.01950465
-0.00299917
-0.01142685
0.02021674
0.03126718
-0.01823749
0.00514306
-0.01842003
0.00937648
0.00705109
-0.00058539
-0.03229377
0.00140962
0.01475909
0.00366178
0.00342768
-0.01707839
0.00170581
0.04094273
0.03925349
-0.00117915
-0.00501416
-0.00303692
0.01200884
-0.02740815
0.02693356
0.02360394
-0.01025621
0.06245473
-0.01938820
0.01461439
0.01392827
-0.00067738
0.05281524
0.02837997
0.05796226
0.02689084
-0.03716920
0.01175162
0.03700863
-0.05814140
0.02290182
-0.04115684
-0.04216481
-0.02351293
-0.00973957
0.02248866
0.01933125
0.00325900
-0.01871095
0.00076146
-0.04294194
0.01063363
-0.05036357
-0.01751368
-0.01372057
-0.01126223
0.02989351
0.03031714
0.01487400
0.02046205
-0.07792407
-0.05237107
0.01530142
0.01366370
-0.02037285
0.03660823
-0.04229029
0.01707474
0.02023370
-0.00283961
0.00974127
-0.04058802
-0.00372308
0.01196176
0.01074632
-0.02490544
-0.04509941
0.02561902
0.00569658
-0.02431082
-0.01092624
0.03003081
-0.00087638
0.00608347
-0.01032649
0.05315712
0.00935049
0.03713238
0.01976637
-0.00656254
0.00969687
-0.00777574
0.03068433
0.03911090
-0.03328408
-0.01645810
-0.02293472
-0.01755136
-0.03012218
-0.00287609
0.01390369
-0.04212924
-0.00658414
0.00912121
-0.05591957
-0.00076966
-0.00552351
-0.00680534
0.00357420
-0.03045462
-0.00754111
-0.00841100
0.02495345
-0.02523069
0.01576763
-0.01198322
-0.01761312
0.03689079
0.01966167
0.01603038
0.00758561
0.01413842
-0.00450735
-0.00430678
0.00498504
-0.02068630
0.01640452
0.05861436
-0.01301154
-0.01231127
0.05071279
-0.02591735
0.02228794
-0.01210925
0.02311966
0.00592716
-0.01172430
-0.00087687
-0.05255697
-0.03494265
-0.00943692
-0.03264730
0.00315641
-0.00561306
0.02357638
-0.01563553
-0.01759907
-0.01590556
0.01542857
-0.01738494
-0.00008063
-0.01151372
0.00952586
-0.02727617
-0.01578933
-0.00116468
0.00400273
-0.01012821
0.00489079
0.01300761
-0.01802073
-0.00816360
0.01395317
-0.04815149
-0.05780115
-0.00108484
-0.02310009
-0.07185690
-0.00743193
0.03132960
-0.02226114
-0.03588207
0.03059313
-0.01636728
-0.00485552
0.00409327
0.02288100
-0.00215619
-0.01031311
0.01783957
-0.03349295
0.00334293
-0.01455090
-0.00323513
-0.04544424
-0.01371411
-0.00330977
-0.00445856
0.00459640
-0.00606643
-0.06338165
0.04444720
-0.01548495
-0.01041289
0.08751031
0.01073864
-0.03683003
0.00190171
-0.00558955
0.00714041
-0.00841381
-0.01263009
-0.00134975
0.00940222
-0.00296519
0.00514523
0.01424497
0.04479453
0.00240539
0.03070387
0.01553401
0.00684190
0.01063216
0.00847255
0.04755007
0.00196361
-0.01811377
-0.02745019
0.00635703
-0.00776685
0.00160612
-0.00519640
-0.02368538
0.03164995
-0.02461507
-0.00838343
-0.02236470
0.02536397
-0.02564461
-0.03346152
-0.02881829
-0.00061622
-0.01107589
0.02330206
-0.05129429
-0.01689375
-0.00713405
0.04662056
0.00816116
-0.00525677
0.01361815
-0.02653825
-0.01442082
-0.01929887
0.00272972
0.01286575
-0.01704333
0.00945233
-0.00177405
0.00976802
0.02033822
-0.03158503
0.02637602
-0.00512125
0.01725381
-0.00090622
0.00488465
0.04368893
0.01844889
0.01808079
-0.01531516
0.00082065
0.01960574
0.00946538
0.02178931
-0.00292898
-0.01621077
0.01687263
0.01901263
-0.00202388
0.01601614
-0.01639218
0.00372036
-0.01614128
-0.05025920
-0.04636540
-0.01308578
-0.03347698
0.00983277
-0.00616659
-0.00608137
-0.02220808
0.00423965
0.01439964
-0.01946253
-0.01461784
-0.05040513
0.00796763
0.01153866
0.01188247
-0.02510873
0.00850281
0.03844838
0.03037282
-0.03429576
-0.01283187
0.02760385
-0.02875938
0.00690828
0.02564627
0.04554605
0.01258897
-0.02102730
-0.00473046
0.01704398
0.11011801
0.02803028
-0.00531510
0.00332416
-0.00944526
-0.01348375
0.03075965
-0.00868273
-0.03729848
-0.02926038
-0.02212710
0.02788171
-0.01511773
0.00314912
-0.00709546
-0.02500516
-0.01650040
0.04180479
0.01474801
-0.00031649
-0.02784333
-0.00552798
0.06068425
0.01075093
0.05382930
0.07944903
0.02185029
-0.01129934
-0.09375042
-0.01937034
-0.05350976
-0.00805861
-0.00602205
-0.01024180
0.01041215
-0.05283763
0.00291962
-0.01527430
0.00473497
-0.00356051
0.00508155
0.02496915
-0.00320450
0.01283125
-0.00925828
0.00764375
-0.00285975
-0.02114995
0.03955307
-0.02918877
0.02310768
0.04200087
0.01108284
-0.03603509
0.01807485
-0.04115084
-0.06398609
-0.02180208
0.01199197
0.00670248
-0.02750221
-0.00873659
0.00127375
-0.02833877
-0.03487432
0.02463050
-0.00682355
0.00994935
0.09384324
-0.02182725
-0.00496307
-0.10076070
0.00796930
0.03796000
-0.00537942
-0.00518138
-0.00990594
0.04795005
-0.01672796
-0.03696967
-0.02112221
0.01070155
0.02007124
0.02897463
-0.00764998
-0.01658510
0.01943149
0.01692836
0.00035777
0.01148913
-0.03552065
0.00043796
-0.00806353
-0.01654324
0.02312288
-0.00836289
0.02088239
0.03875924
-0.02890790
0.01744918
-0.01724491
0.01807413
-0.00146452
-0.00962863
-0.01678033
-0.01139676
-0.00164998
0.06912167
0.03487179
0.01687745
0.01103626
-0.01463172
0.01130473
-0.01889469
-0.04118291
0.00337347
0.06018772
-0.01278420
0.00435220
-0.00696771
0.04602671
-0.00439789
-0.02671374
0.00928498
0.02338641
0.03302505
0.02641260
0.01150136
-0.00135537
-0.00714947
-0.01696052
-0.05371457
0.00178710
-0.00142723
0.00874689
0.02982135
0.01529368
0.00474343
-0.00270437
0.02913353
0.00390974
0.02151607
0.03848613
-0.06777673
-0.00057518
-0.00252059
0.02156055
-0.00014345
-0.01012015
0.00738084
-0.03007013
0.02831275
0.01091406
-0.01247856
-0.03196833
-0.02829551
0.02309210
0.00224253
-0.00803711
0.02925090
0.00754040
-0.00252300
-0.00443863
-0.02891927
0.00248444
-0.02283076
0.00923003
-0.02490878
-0.01058169
0.00111732
-0.04777699
-0.04703195
-0.00059669
-0.03890574
0.07481378
-0.01345597
-0.03019286
-0.01035655
-0.04573709
-0.00699150
0.04018715
0.00307801
-0.00943552
0.04182929
0.01909265
-0.00782728
-0.00582835
-0.01701662
0.00059769
0.03422982
-0.02653249
-0.00072695
0.05878064
-0.00337813
0.03390971
-0.02245691
-0.00860515
-0.01165097
0.00627182
-0.02411200
-0.02660794
-0.01995647
-0.07901260
-0.03886433
-0.02310754
-0.00535405
0.00753772
0.01878404
-0.04652975
0.05651834
0.00575412
-0.07567739
-0.05190460
0.01061887
0.00966228
-0.02705829
0.04465499
0.07384585
0.03515092
0.04657029
-0.01305591
0.00309889
-0.01621399
0.02543060
0.11736879
0.01830662
0.02501836
-0.02093957
0.03445790
0.01053120
-0.02007812
0.01013562
-0.01973543
-0.01351082
-0.02032460
-0.00797462
-0.02947572
-0.03994012
0.00223385
-0.03089698
0.00772732
0.00899204
0.00460184
0.02727164
0.01952088
-0.02267372
-0.10365376
-0.00548424
-0.00589980
0.00590011
-0.05684232
0.00392926
0.00996688
-0.04970081
-0.00121978
-0.00923499
-0.01022073
-0.05592967
0.09241675
0.01163950
0.12359218
0.03941007
-0.02110113
-0.06291304
0.02103176
0.00691190
0.00562293
-0.02944387
-0.00946031
0.00622662
0.00563742
0.02914667
-0.02008973
-0.02095587
-0.05317813
-0.00489277
0.00804271
-0.05141326
-0.00710035
0.02832858
0.02943843
-0.00190365
0.02617243
0.00893317
0.00233495
-0.00249299
-0.01914680
0.00002109
-0.01031489
0.02926906
-0.04232447
-0.00764029
0.01695338
-0.00088612
-0.02649561
0.01907773
-0.01162419
0.04241049
-0.03624959
-0.04561253
0.00828458
0.02499809
-0.01771074
0.07977682
-0.02861911
0.05326770
-0.05827608
-0.04002581
0.00495774
-0.02079990
-0.10451983
-0.00036258
-0.01497356
-0.00887440
-0.11740169
0.05108995
0.01211320
-0.00313784
-0.01403421
0.02447693
0.13347100
0.06778572
-0.00912452
0.04252038
0.01824058
-0.01056446
-0.06501982
0.00886428
0.00344498
0.00624016
0.06975098
-0.12247895
0.10648143
0.00407684
-0.03172728
-0.00783925
-0.02030135
0.03327955
-0.00054873
0.03986194
0.01075306
-0.04634308
-0.09565627
-0.04240226
0.00834516
0.02899030
0.03010816
0.08909464
0.02477227
-0.06763062
0.01385501
-0.02178079
-0.03524686
-0.00320902
0.00660592
0.02568194
0.00622440
-0.07152680
-0.02256678
0.01124919
-0.00770901
0.01223826
0.04325060
0.06664804
-0.01432733
-0.04680610
-0.03403303
-0.01051935
-0.01973851
0.01509108
0.00508645
-0.02402143
0.01476462
-0.03209846
0.00952681
0.01146111
0.02930822
-0.04034622
-0.01873475
-0.02959945
-0.04400201
0.01866368
-0.00071978
0.02036407
0.00400454
0.04239238
-0.04989897
0.00762311
-0.03358413
-0.03280795
-0.00856319
-0.06982341
-0.01667232
0.01189406
0.03275082
0.06349151
0.03926209
-0.01229516
-0.05064933
-0.04140755
-0.00312385
-0.03857309
0.01310480
0.01605566
0.04285778
-0.06446784
0.00847745
-0.03413806
-0.03377230
-0.00617677
0.05151237
-0.00535330
-0.05334725
0.00040527
0.01674535
-0.05033858
0.04205484
0.01166275
0.02901031
-0.04715332
-0.02592807
0.00317433
0.00679678
-0.00429918
-0.00366845
0.01867947
0.04376534
-0.03483483
-0.01620047
-0.06597897
0.04634284
0.01400627
-0.00889128
0.02120304
0.02500507
0.01264514
0.01152641
-0.00195374
0.03409746
0.02461429
0.05009901
-0.01032947
0.04452174
-0.09702332
-0.02043843
-0.01670736
-0.00087910
-0.03505353
-0.00736689
0.04413635
0.02090122
0.04667156
0.01978442
-0.06967463
0.00779369
0.05362657
-0.01367877
0.04296324
-0.04791864
0.01471894
-0.02301342
-0.04938312
0.00226503
0.04710754
0.00669940
-0.03723726
0.02662191
-0.01525699
0.00102230
-0.04933320
0.01917658
-0.00112817
-0.04224446
-0.12123936
0.01091893
-0.02259773
-0.01775313
0.02741051
-0.07605324
-0.03012615
0.01554816
0.07354141
0.00332077
0.01378881
-0.11451275
0.04484071
0.01490141
-0.01235191
-0.01866507
0.02801950
0.02191204
-0.03320014
0.00322602
0.01073637
-0.09993520
0.01326037
-0.03173856
0.00982425
0.00683227
0.00120668
0.00190758
-0.00403932
0.01522042
0.01176380
-0.01736929
-0.03605938
-0.09145459
-0.05218200
0.01710287
0.01951186
0.04763662
-0.03539926
-0.04130190
0.01189490
-0.00418292
-0.00408898
-0.00151206
-0.00791138
-0.01652623
-0.01829618
0.00054018
0.03041131
-0.05824522
0.01593512
0.00315451
-0.01392268
0.01165956
0.00675988
-0.05810307
-0.02628920
-0.07140998
-0.08607376
-0.01011551
0.00598085
-0.01680125
-0.01594445
-0.02314473
-0.01133811
-0.01276981
0.01007169
-0.01604045
0.02132235
-0.00229686
-0.01112934
-0.07858261
-0.04807770
-0.01758236
-0.00837980
-0.05953207
-0.00369625
0.01582550
0.02257585
-0.01155771
-0.01578953
-0.05520480
0.02522243
0.00266219
0.00664919
0.01884518
-0.00044377
-0.00603557
0.01648122
-0.02542848
-0.04162296
0.00938816
0.04853358
-0.01373263
0.00222527
-0.04000495
0.00641858
-0.00807623
-0.00116583
0.02332179
-0.00903157
0.05745624
0.03210426
0.02769440
-0.04833945
-0.02661877
-0.02943901
0.00903266
0.03279007
0.03220571
0.00498276
0.01992328
0.00084384
-0.00677145
0.04223025
0.04319687
-0.01131547
0.01268060
0.01712886
0.02334152
0.03080083
-0.04633149
0.03305304
0.05124306
0.00881712
0.01077080
-0.01556564
-0.02317809
-0.03019194
0.02178840
0.02319261
0.00138887
-0.01617629
-0.00796755
0.06176322
0.07726506
-0.00787381
-0.00762303
-0.00108177
0.01783814
-0.01589873
0.02193541
-0.00578025
-0.03657764
-0.03641831
0.01731655
-0.03011835
-0.00834356
-0.03256392
0.01735940
-0.05502295
0.01807683
0.02632101
0.06403565
0.02913409
0.05228475
-0.01539263
-0.04414942
-0.00798013
-0.00866964
0.00025764
-0.06737815
0.02564468
0.02438291
0.12174282
-0.09666087
-0.04300642
-0.01413714
0.07004534
0.05712409
-0.01835144
0.00088128
0.00355737
-0.03900632
0.02220163
0.00600470
0.02547831
0.02106766
0.01619778
-0.04163742
0.02721003
0.02709532
0.08852039
0.06276420
-0.02230087
-0.02998593
-0.04902716
0.03632689
-0.08230601
-0.05132211
-0.02323179
-0.01481248
0.04976804
-0.04065078
0.02332130
-0.01051460
-0.01123417
0.00018096
-0.00366322
0.04385359
0.02911131
-0.13385947
0.02318073
0.09733859
-0.21649212
0.04306791
-0.09193026
-0.03507908
0.05208701
-0.03834660
-0.00706662
-0.07418242
0.00501873
-0.07068407
0.07183903
0.01329510
0.05143930
-0.00620637
0.00046148
0.02759711
0.19313446
0.32976201
-0.11598483
0.02821515
-0.02710311
-0.11145841
0.00717642
-0.03697442
-0.04533630
0.02230072
-0.01488826
0.01723655
0.01193034
-0.01118045
-0.00018017
0.00648539
-0.00065604
-0.03214870
0.03398883
-0.02314455
0.01249394
-0.14214724
0.09283140
-0.07682871
-0.06511860
-0.00846484
-0.01191157
0.07343890
-0.01781372
-0.00011972
0.00630048
0.01872502
-0.00305359
-0.04463495
-0.04205192
0.00295257
-0.08159104
0.00899579
-0.23995487
-0.05032035
0.02160118
-0.00680753
-0.02401727
-0.02964476
0.02982341
0.06346049
0.03978112
0.00708378
0.10464093
-0.00306035
-0.10502549
-0.02116987
-0.05398519
0.01663314
-0.26370943
-0.00797492
-0.02070771
-0.04103509
0.06868347
-0.02686746
0.04675855
0.03305504
-0.08508934
-0.01659160
-0.06692341
-0.03123867
0.07980777
0.00571399
0.21631157
-0.00810994
-0.03529283
0.04213798
-0.02174468
-0.00164238
0.06342614
-0.02375972
-0.02185832
0.00806143
-0.03047549
-0.00184734
-0.02156945
0.02639556
-0.00568009
-0.04729747
0.02656786
0.02051098
0.00625845
0.00016297
-0.02992494
-0.01131700
-0.02092270
0.03873815
-0.01812679
0.02214689
-0.02331413
0.01313027
0.00080736
0.03314362
-0.01538512
0.03150394
0.03711236
-0.00336314
0.01601247
0.00032534
0.05031199
-0.00488903
-0.00751449
0.00708862
-0.02920996
0.00537718
-0.02332163
0.01579604
-0.02422737
0.00787720
-0.01690589
-0.01156224
-0.01324598
-0.00072373
-0.01710715
0.01158006
0.01115575
-0.04498973
-0.01507410
0.00424657
0.01097048
-0.01269061
0.00803087
0.02350734
-0.00197264
0.00250285
-0.00232147
-0.01210076
0.00000320
-0.01264251
0.01509147
0.04553996
-0.00152651
0.00023991
-0.03761193
0.01980008
0.04584401
0.01265993
0.02708433
0.04815599
0.00964112
-0.02227199
-0.01183744
-0.03846701
0.04701369
0.01092520
0.01334619
-0.00888768
0.02563222
0.01411125
-0.02782169
-0.04467286
0.01296042
0.00939301
-0.07621203
-0.01231058
0.01336253
-0.00846512
-0.00002123
-0.03611866
-0.01152047
0.05887188
-0.00224906
0.00762558
-0.04609862
-0.00292892
-0.02994926
-0.00256571
0.05973198
-0.00055561
0.02208926
0.01463510
0.00698370
-0.01486491
0.02370437
0.04266921
0.01756404
0.01642161
-0.02248543
0.02391135
0.00007273
-0.00047771
0.01315138
0.00678601
-0.06660160
0.00987238
-0.02120489
-0.03926183
0.06268758
0.03557867
-0.01495640
0.07477673
0.04083170
-0.00057586
0.00489556
0.03476081
-0.03645496
0.05180438
-0.07167175
-0.08478305
-0.02875314
0.04963195
0.01995686
-0.01792713
0.03196741
0.04110285
-0.06777707
0.00727406
0.01102300
0.00881659
-0.02193384
-0.02235268
-0.00944350
0.01789928
0.06676982
-0.01312699
0.01124287
-0.03243700
-0.02259990
-0.04467632
0.00223697
0.06911710
-0.00408016
0.03800782
-0.00117975
0.03451490
-0.00428315
-0.02922993
-0.11169906
0.13757327
0.03471295
-0.00948703
-0.06891938
0.02067224
0.03802312
-0.00464389
0.01379998
0.02024543
0.00257726
-0.03005108
-0.01226104
0.01051937
0.04526448
0.03237962
-0.05836806
-0.03816057
-0.07921730
-0.02405468
0.03947704
0.01972681
0.08479070
-0.00549896
0.09300254
-0.01895395
-0.02181550
0.01245984
-0.00367452
0.01302702
-0.01452653
-0.00640161
-0.02627664
0.04467820
-0.01821733
0.00782563
0.02140852
0.01513541
-0.02999955
0.05135012
-0.01717914
0.01929905
-0.02415987
0.03785390
0.00238029
0.01795269
-0.03856255
-0.00328449
0.02861457
0.03728092
0.00649054
0.05643787
0.01437744
-0.02316218
-0.00046537
-0.00410928
0.02738431
0.02277533
-0.02734056
-0.04513190
-0.04182392
-0.00603452
-0.00841458
0.00103332
-0.00743006
-0.01053187
0.04814177
-0.06788502
-0.00560629
-0.00587316
-0.00992252
-0.02165112
0.01525904
-0.01959220
0.00366709
-0.02374233
0.02350388
-0.01948353
-0.01147468
0.02293307
-0.00664401
0.00673578
0.03909455
-0.01771085
0.01215226
-0.02348327
0.00062803
-0.02158266
-0.02687013
-0.04708289
-0.01825218
0.05948596
-0.01764282
-0.02706257
-0.01236440
-0.02167742
-0.00550333
-0.00803266
0.00409970
0.00586591
-0.00464760
-0.02352688
-0.00593597
-0.05228443
-0.05640325
0.01541423
-0.02199125
-0.00602957
0.00230817
-0.05019855
0.00734517
-0.01585865
-0.04186104
-0.01432220
0.01760863
-0.03684824
0.07821710
0.00802032
-0.04496429
-0.02633067
-0.01574983
-0.00111113
-0.03102008
-0.01917456
0.01567627
0.01550457
-0.00565796
0.02376851
0.00924187
-0.01870242
-0.02047243
0.02948680
-0.01204873
-0.00856495
0.02083496
-0.01016823
0.03095211
-0.00999402
-0.01792057
-0.01605904
-0.00572301
-0.02034780
0.02037963
0.00512605
-0.04966488
-0.01172876
-0.03271404
-0.00873142
-0.01361610
-0.00933271
-0.04826014
-0.00056862
-0.03344424
-0.00654835
-0.00194595
0.04333200
0.00093216
0.01769536
-0.02146681
0.00405022
-0.01068644
0.00001274
-0.01552170
-0.03652713
-0.01779390
-0.00844073
0.01446251
0.02521016
0.00118578
0.00325488
0.01725190
0.00112509
0.03880200
0.00309652
-0.00781502
-0.00723749
-0.00639354
-0.00653988
-0.03341904
0.01287619
-0.01795045
0.07231557
-0.03404194
0.00838270
0.00482646
-0.05853859
0.02083935
-0.00942308
-0.03308734
-0.02569693
-0.00194528
-0.02212053
0.00411034
-0.01740898
-0.05203663
-0.07063315
0.00861461
-0.03728124
0.00843477
0.04786629
-0.00246412
-0.00446730
0.02491654
-0.00127719
0.00516634
-0.04533043
-0.00457874
-0.00610377
0.01984795
-0.04751716
-0.01843751
0.02597230
-0.02721062
-0.00404703
0.07830696
0.00381128
-0.01373386
-0.00565434
-0.01756623
-0.02543259
-0.00390979
0.00896543
-0.01947476
0.00425967
-0.03752273
-0.04441378
-0.00090541
0.08614081
-0.01141947
-0.00058867
0.02052284
-0.04242072
0.02803359
0.01212030
0.00613453
-0.00531017
-0.00115570
0.01766805
-0.02071345
-0.01026765
-0.04510494
-0.03652279
-0.01726565
-0.05114245
-0.01865524
0.00271742
0.01342611
0.02658945
0.01574709
0.00104081
-0.00707577
-0.02431856
0.05660514
0.01350773
-0.01961717
-0.01023274
0.02125163
0.02099115
-0.06385640
0.01974316
0.01168649
-0.00446144
-0.02293907
-0.00468501
-0.02962603
-0.00167285
0.00730549
-0.03103149
-0.01863582
0.01416902
-0.01284633
0.00322735
-0.00500184
0.01441446
0.02672075
0.01935127
-0.00634135
0.00153257
0.02020067
0.01551717
-0.00449564
-0.03078425
-0.00853359
-0.04753621
0.02249470
0.00149095
-0.00272376
-0.00450890
0.00444480
-0.00481595
-0.03235692
-0.05371267
-0.00111154
0.01598463
-0.00773569
0.02930163
0.03200530
-0.03778775
-0.05213237
-0.00319276
-0.03348873
-0.04125991
-0.01409407
-0.00298824
0.04621168
-0.01239467
-0.02854612
0.04886652
0.00226414
0.00040038
-0.03784707
-0.00675458
0.01035650
-0.00294595
0.00414972
-0.01063014
-0.00595725
0.01789742
-0.02956791
-0.01226406
-0.01719338
0.00418938
-0.00214510
0.09174969
-0.06068820
0.04564363
0.00615526
0.00866060
-0.01398476
-0.00861317
0.00919345
-0.04767274
-0.01001757
0.03484904
-0.01150923
0.00898810
-0.01706938
0.00123342
0.04359895
-0.02832673
0.10153198
-0.03717547
0.13593449
0.01244520
-0.01873719
-0.01990504
0.00509736
-0.06326426
-0.00166967
-0.00082049
0.01818421
-0.07622118
0.04028279
0.00595411
0.00963697
0.00035934
-0.00809378
-0.02694787
-0.10307054
0.05909035
0.00307349
0.06337034
-0.00259318
-0.00317252
0.03997789
-0.02368181
-0.02103620
-0.00301276
0.00640167
-0.03434629
-0.00741155
0.01884339
0.03506438
-0.00313949
0.00293093
-0.01904652
0.01064016
-0.05829844
-0.00379777
0.02314694
0.01191592
-0.00552838
0.00658973
0.01642175
0.02569238
-0.01030721
-0.01810899
0.00709534
0.00321253
0.02617516
-0.00547668
-0.02606095
-0.02303432
-0.03771215
-0.13814071
-0.01043907
0.04341160
-0.00014894
0.00794375
0.00492046
-0.00896980
0.04171040
0.01270639
0.00076162
0.01129605
-0.01389486
-0.06207214
-0.00631272
-0.06896636
-0.03123134
-0.01538591
-0.02675582
-0.02190532
-0.00276254
-0.00588389
0.00019473
-0.02305644
-0.06768661
-0.00765493
-0.04082176
0.00134538
-0.04142560
-0.01445263
0.00047907
-0.08780509
-0.00234196
-0.07319877
-0.00932337
-0.05369866
0.01158876
0.00272251
-0.03835316
-0.00045198
-0.01060566
0.01939902
0.01820756
-0.04784812
0.00710356
-0.01586469
0.01705790
0.11810459
0.05584047
-0.00505777
0.02634794
-0.00155618
-0.02314517
-0.02429678
0.01372691
0.00931892
0.05380846
-0.01244328
-0.02228209
0.02723847
-0.02003079
-0.02514996
0.01881954
0.00408445
-0.00640193
-0.01062851
-0.01860947
0.00011987
-0.04453093
0.00448698
-0.00161364
-0.01676260
0.01981971
-0.00179504
-0.06560698
-0.01969096
0.01064697
-0.00216963
-0.00079720
0.00764309
0.00089492
0.00773439
-0.00461136
-0.00668136
0.02841987
-0.09723928
-0.00990720
-0.01856457
0.00193826
0.02437826
-0.01245229
-0.02044290
-0.03741285
0.05370214
-0.01819105
0.03253173
-0.00742655
0.05030009
0.09647048
-0.02138511
-0.00125885
-0.11535969
-0.03389686
-0.00530303
-0.00306631
0.01000871
0.00401359
-0.00601811
-0.01276241
0.00578682
-0.01919159
0.02573643
-0.01264290
0.00707789
0.00923644
0.03934941
-0.00613025
0.02200830
0.00171780
-0.02842433
0.04114326
-0.00878080
-0.01667437
-0.05421661
-0.02638753
-0.02094159
0.02018488
-0.00528589
-0.01338904
-0.00507699
0.00206897
0.01677412
0.04990121
-0.04923379
-0.03396325
-0.01760561
0.00939970
0.03000757
-0.03375996
0.10776985
-0.02771636
-0.00149895
-0.08664202
0.01547438
-0.02399638
0.00041270
0.01665489
-0.05697606
0.01533300
-0.00660734
0.06332570
-0.01997162
-0.00112265
0.00184782
-0.01828461
0.00428004
0.00905140
0.03099144
0.01022662
-0.02072936
-0.01897143
-0.01960110
-0.00841432
0.02502957
-0.00154839
-0.00275567
-0.01372701
-0.01197281
-0.00113677
-0.03179043
-0.03106906
-0.01520391
-0.07513987
-0.01911050
-0.01400512
-0.02039807
-0.05308684
0.04380212
-0.07260670
-0.01650325
-0.02466658
0.00743216
-0.03508368
0.01989893
-0.01266849
0.01126502
-0.07885499
-0.04051207
-0.02525096
-0.01194888
-0.09564202
0.01450048
-0.00363095
0.03740295
0.00572297
-0.06633810
-0.06502163
-0.01866659
0.03425553
-0.04367876
0.03290858
-0.05557780
-0.00038869
0.01220655
-0.02335243
-0.03482711
0.04810315
0.05747055
-0.06053541
0.03520341
0.09842600
0.02362376
0.01312768
0.09114151
-0.00665368
0.00063718
0.03186171
-0.00442977
-0.17425823
-0.01494314
-0.00841288
-0.00654059
0.00949194
-0.06757069
-0.08669803
-0.00637504
-0.00818414
0.01022001
-0.01959142
-0.03316323
-0.00820729
-0.00058385
-0.03036889
-0.00669095
-0.02577969
-0.09787548
-0.04267030
-0.10755306
-0.01024059
0.07921098
0.11232277
-0.00867219
-0.01881867
-0.03073738
-0.02827756
-0.00298226
0.07169342
0.04993995
0.01043679
0.01512844
-0.07100724
0.02076367
-0.00768469
-0.02147740
0.02867405
0.01913587
0.00511778
-0.03802970
-0.03939966
-0.03577856
-0.03980710
0.03712689
-0.06358620
-0.05009626
-0.00422483
-0.03712609
0.02983418
-0.00514817
0.02250220
-0.02854897
0.01364780
0.05928080
0.04377155
0.01946076
0.00555097
-0.02393641
-0.01501395
-0.08197985
0.01954188
-0.07607517
-0.00864302
0.06310245
-0.01100479
-0.03264378
-0.07491415
0.02341066
-0.01533868
0.05059301
-0.03373363
0.10129590
-0.00586161
-0.03219910
0.00741780
-0.09118139
-0.00736864
-0.01287995
-0.00449421
-0.01150576
0.01807408
-0.02692986
-0.01461342
0.08159158
0.01587630
0.03362091
-0.03989025
-0.02873437
-0.00988190
0.05925702
0.04366110
-0.01016272
0.00599360
-0.00951607
0.08907299
0.03448058
-0.02093990
-0.01618619
0.04527287
0.01576690
0.03380580
-0.01262360
-0.01522257
0.06996620
0.00655737
-0.01001803
-0.06629751
0.01646302
0.04239025
-0.00127731
0.02773151
0.01790248
-0.08637631
0.00078629
-0.00591031
0.15157488
-0.04579977
0.01019571
-0.00008174
0.02225603
-0.00871318
0.00568110
-0.07204652
0.01494114
0.01870311
0.04376578
0.01914456
0.03349223
-0.00185213
-0.07387967
-0.02987607
-0.09059575
0.11248757
-0.07554045
0.06022466
0.10384606
0.03292706
-0.11638921
-0.04759550
0.01156289
0.02257492
-0.03632961
0.07793356
-0.01809768
0.04155397
-0.04593356
0.01543064
-0.07623201
0.03614770
0.04140949
0.03988904
0.00892387
0.01029101
0.03131906
-0.08431622
0.02156409
0.22035342
-0.04665011
-0.02499587
0.08579172
0.01208452
0.02032268
-0.03893610
-0.03188423
0.01119979
0.02497087
-0.04152599
-0.10307024
0.00964667
0.00106728
0.03656274
0.04270885
-0.01293206
0.02830917
0.12249042
-0.06830358
0.05609371
-0.01752490
-0.05824343
0.04512042
-0.00660312
0.02766051
-0.16960661
-0.04519661
-0.05925222
0.03729683
0.06215711
-0.00990902
-0.01983324
-0.04133419
-0.07667106
-0.02650048
0.03688131
0.00202736
-0.03322803
-0.01972355
-0.00505916
-0.03641640
0.07890790
-0.01435073
-0.03532386
-0.00652342
0.05588569
0.00749147
0.03515418
-0.00694428
-0.01067472
0.05073832
0.02807837
0.01656394
0.02360481
0.00537979
0.02183457
0.01024272
-0.00788478
-0.04864787
0.04394055
0.04013405
-0.00009172
-0.00644294
-0.02960660
-0.01179577
0.02612193
-0.05617019
0.00118495
0.03827776
-0.01896021
0.04193690
-0.02552897
-0.02984480
-0.04197626
0.02071409
0.06509144
0.04371483
0.02082858
-0.03029354
0.01150348
0.01060724
-0.05918258
0.00850550
-0.02691429
0.01913544
-0.01851667
0.00612654
0.01650812
0.00940978
-0.04441331
0.00210034
-0.00225586
0.00091332
0.00828122
-0.00615771
0.01953717
0.05043306
0.00823006
-0.06172539
0.00560555
-0.00867303
-0.06264926
-0.01816655
-0.01830485
-0.01603722
-0.00523071
-0.03971068
-0.00396499
-0.00878455
-0.00554891
0.00810289
-0.04116016
-0.03468030
-0.00172890
0.02837429
-0.05235925
0.04945415
-0.08417122
-0.05166497
-0.00342327
-0.06012790
0.05079492
0.04228024
0.04515131
-0.00143490
-0.03463192
0.00617357
0.01393693
-0.01525290
-0.02860101
0.01602994
-0.02009881
0.05269890
-0.02611122
0.01173338
0.03240166
-0.12067933
0.00703992
-0.07034595
0.00444313
0.10237240
-0.00175999
-0.02358188
-0.01907510
0.01123671
-0.00941775
-0.01026371
0.01697328
0.02513048
-0.00250678
0.01977289
0.01629053
0.10580156
0.17352574
-0.02592095
-0.01267579
-0.01505456
-0.04745346
-0.02957039
-0.00600055
-0.02090514
-0.05392978
0.01964708
-0.01872092
0.02126479
0.00325303
-0.04339089
0.00396766
-0.03317508
0.01471995
-0.00374547
-0.00724215
-0.00299080
-0.03802122
0.05993314
-0.00104466
-0.02129057
0.02376283
0.00015947
-0.03892068
-0.01166850
-0.00351852
-0.00146607
-0.00120820
0.00504154
-0.04968525
-0.00314982
-0.03698154
-0.02992546
-0.00111631
-0.11403691
-0.01803050
-0.00220406
-0.01919961
0.00254291
-0.02568926
0.02150601
0.02485309
0.03264918
-0.00244926
0.11628273
-0.00656427
-0.07142498
0.00623466
-0.01646926
-0.01510345
-0.17565398
0.02277172
0.02126200
0.02103951
0.00415406
-0.01403447
0.00024939
-0.01898574
-0.04964073
0.00673315
-0.03001582
-0.04567093
0.01464433
-0.00389187
0.15549675
0.00238903
-0.00262203
0.00793244
-0.01066276
0.01338045
0.01513408
0.03423334
-0.03371561
-0.05596245
-0.02337892
0.00548326
0.01572518
-0.00995204
0.00651020
-0.06503662
0.03080015
-0.01196535
0.01537148
-0.00861978
-0.00421812
-0.03070421
-0.02267104
-0.00976911
0.16560340
-0.00295600
0.03810363
-0.04630994
0.00529314
0.01025886
-0.01970789
-0.00867165
0.02130794
0.00738756
0.00955239
-0.10005242
0.01421661
0.01205150
0.03697888
0.06783556
-0.02208287
-0.02505154
0.00611829
0.01512291
-0.02636291
0.01801876
0.00398974
-0.05720470
0.03441627
-0.00426739
-0.00665736
0.00538917
-0.04666108
-0.02171524
-0.00339965
-0.00014574
0.02937169
-0.02013357
0.02154235
0.03907851
-0.08291902
-0.11316932
-0.02256872
-0.05646811
0.00988973
-0.03574362
-0.02722826
-0.03699384
-0.00700318
-0.02297733
-0.01865358
-0.01149665
0.07537856
0.00200664
-0.00679045
0.00510943
0.02254934
-0.01028011
-0.06125461
0.00172514
0.05986963
-0.01010787
-0.03329067
0.00751097
0.04469177
-0.01706352
-0.03116531
0.01252721
0.02124016
0.02730437
-0.10167199
-0.02735205
-0.04294533
-0.02338864
-0.00229577
-0.01198487
0.01032062
0.02043695
0.02104317
-0.01362735
-0.00818478
-0.01709817
-0.00319205
0.04228493
0.01222356
-0.02410692
-0.01223840
-0.00921045
-0.03497370
-0.00468064
0.00676746
0.00201312
0.01105959
0.00545221
-0.01889380
-0.04092218
0.00066382
0.01631911
0.01629614
-0.00581797
-0.06388945
-0.02704121
-0.05773758
-0.02706306
0.02756943
0.02554358
0.00121744
0.00603123
-0.01732789
-0.00005889
-0.00831499
0.02637574
0.03091474
0.00593931
0.00501591
0.01862815
-0.00692674
-0.00721370
0.15115307
0.00063484
-0.04747149
-0.05472793
-0.01497460
0.00911967
0.06320822
-0.00391182
0.00912768
-0.00876327
0.01189343
-0.06271844
-0.01224096
0.00244440
0.00674988
-0.01064574
0.01120503
-0.01011419
0.03748799
0.00870045
-0.01638381
-0.02264147
-0.00419049
-0.05457957
0.00035406
0.09948794
-0.01708054
-0.01317014
-0.03627840
0.00552074
0.00373082
-0.03995083
-0.03161485
-0.01656772
0.02434542
-0.02316642
-0.06422803
-0.02607234
0.03013962
-0.04975078
0.02885974
0.02316629
0.01187875
-0.03552944
-0.02683133
0.02305699
0.03437600
-0.00168440
-0.00563819
-0.02523893
-0.01377507
0.04077674
0.00465841
0.00158818
0.02077327
0.00156789
0.00516292
-0.01736761
-0.00251862
-0.12296225
-0.01053804
-0.01947757
-0.05413243
-0.02913203
-0.00055759
0.00661083
0.01643124
-0.01815245
0.01353093
-0.00757543
0.00836867
-0.01153140
-0.04524049
-0.01315447
-0.00896334
0.01131886
-0.00372674
0.04654665
-0.02240748
0.00405012
-0.07841405
0.02024277
-0.01532271
0.01462971
-0.00978549
0.00750587
-0.01261816
-0.00609849
-0.00030962
0.00836285
-0.00390132
-0.01550650
-0.01199843
0.01809097
0.00934274
0.00480614
0.02631265
0.00027552
-0.00964573
-0.03924122
0.00589918
-0.02016021
0.00862847
-0.02873657
0.01305653
-0.01050704
-0.00678977
-0.01918654
-0.02630511
0.00880119
0.01411641
0.01227221
0.01073651
0.00674289
0.00283768
-0.01674470
-0.00416946
-0.01190983
-0.01420326
-0.02391829
0.01378082
-0.00819829
-0.00350372
0.00756523
-0.00813596
-0.00617625
0.03100288
0.01894399
0.01505490
-0.00034751
0.00078513
-0.01176177
0.01084770
-0.00630148
0.00343526
0.05768983
-0.00434953
-0.00991595
-0.01623164
-0.01281653
0.03040868
-0.01974352
-0.00275907
-0.03056290
0.00924835
-0.01253201
-0.01009961
-0.03025568
-0.00510078
-0.01330577
-0.00295107
0.00993596
0.00935796
0.00434558
-0.01336567
-0.02490526
-0.01360053
-0.01530499
0.04939254
0.00363804
-0.00739932
-0.02344988
0.00952183
-0.02526642
-0.01502436
0.00651549
0.02390763
-0.01251992
-0.03559608
0.01647293
-0.00831042
0.01731050
-0.01750331
-0.04452257
-0.01196128
0.00273019
-0.00200648
-0.00374722
-0.00938987
-0.04160174
-0.00928498
-0.01279821
-0.04176153
-0.02619681
-0.02011327
-0.03282195
-0.00006035
0.00082160
0.00265107
0.00882229
-0.01542481
-0.00038343
-0.04687034
-0.01076179
-0.00588230
0.00450866
-0.01947596
-0.04103538
0.01821627
-0.02622024
0.00596802
-0.00469473
0.01737688
0.00554708
0.02632826
-0.00785199
-0.02766851
-0.04759357
-0.00882729
0.00704145
-0.01963376
0.00920976
-0.00112251
-0.00293848
-0.01325688
-0.00464765
-0.01901498
-0.02466005
0.05435447
0.05606994
-0.01979093
-0.01085913
-0.02459848
0.00756739
-0.01796432
-0.02623410
-0.03376993
0.00085226
-0.05385267
-0.01305258
-0.00097379
0.10181516
-0.00254210
0.01218704
0.00292168
-0.02044409
-0.03652322
-0.01868934
0.06261160
0.00415919
-0.02360383
0.00923442
-0.04600947
-0.01178546
-0.00709959
0.00373009
-0.01610869
-0.01031440
-0.00746306
0.01302754
-0.00928554
-0.03721696
-0.00198143
0.04132824
0.02179505
-0.06700395
-0.02011446
0.01360931
0.00966496
0.03247937
-0.02765827
-0.01952428
0.04563643
0.00013229
-0.01222341
0.08691561
0.01533014
0.01055902
-0.07836974
-0.02270749
-0.09069331
-0.05026544
-0.02366190
0.02103739
-0.01847203
0.02687420
0.01293492
0.02370406
-0.01401914
0.03941450
-0.00013861
0.00111925
-0.01167236
0.03691145
-0.03874811
-0.00276848
0.03221896
0.02571269
0.03389866
-0.07771567
-0.02066721
-0.01686634
-0.01340938
-0.07447691
-0.01771790
0.01314090
-0.00612241
-0.00443792
-0.02141169
-0.02995478
-0.01552302
-0.01348034
0.05315387
-0.00882887
-0.00593931
0.01205884
-0.00669863
0.01875092
-0.00276151
0.01328125
-0.00652962
-0.03630945
-0.02123387
0.17256913
0.01623674
0.01278690
-0.08015759
0.00576386
-0.02082281
-0.02864737
0.00070739
-0.01216380
-0.02679176
-0.01300334
-0.00145234
0.03104156
0.06387864
0.03844981
-0.02908224
-0.01209732
-0.07848793
-0.06930105
0.01885754
0.01896692
-0.03345732
-0.01691764
0.05898166
0.01702395
-0.04571992
0.15877959
-0.04538323
0.08371411
-0.03524523
0.00599149
-0.00353401
-0.00261734
-0.00348094
-0.07192256
-0.01594038
-0.05647426
-0.02337049
-0.01045979
-0.00449068
0.01037472
-0.00796286
0.02520542
-0.00295140
-0.02664731
-0.02784727
-0.00579074
-0.03655748
-0.00960573
0.01006817
0.00356274
-0.00668795
0.03375255
-0.01197564
-0.01712480
0.06276877
0.00319020
-0.00232283
-0.01577969
0.07590353
0.00183055
0.02037802
-0.01395002
-0.03636198
-0.02592128
0.05839960
-0.00040513
-0.00938618
0.01958235
-0.00669472
-0.04361258
-0.03474266
-0.01799358
-0.02473713
-0.03945797
-0.01102942
0.12163360
-0.00536326
0.00861457
0.04032598
-0.00118583
-0.02130370
-0.05091363
-0.01183679
-0.02386129
0.03148280
-0.02097801
-0.01537351
0.00121158
0.03215503
-0.00360077
-0.01325209
-0.00773186
-0.01099543
-0.03102235
-0.01251449
0.09267713
0.00179452
-0.02816520
-0.02486780
0.02794235
-0.06829845
-0.03341270
-0.01816526
0.02714419
-0.00164846
-0.01755954
-0.03925674
0.00460802
0.00429265
-0.00480873
0.03651010
-0.00020586
-0.00397630
-0.00376962
-0.04543887
-0.00518656
-0.00019362
-0.06121683
-0.01293602
0.01863379
0.01345653
-0.04108371
-0.04116853
0.04073017
-0.04796682
0.09224240
0.02872201
-0.02009059
-0.01839980
-0.03829321
-0.01724997
0.03943948
-0.08992764
0.07678334
-0.00159787
0.01263645
0.03226143
-0.01177940
0.03397604
-0.02475164
-0.01568438
0.07192355
-0.04059138
0.05563287
0.00494253
0.01058709
0.02753540
-0.01611012
0.01358533
-0.04546781
0.01780548
0.02143258
0.01287096
0.02808404
0.00222468
-0.06676233
-0.01625924
0.02862346
-0.01717633
-0.03040773
0.00676518
-0.04696242
-0.00745639
-0.03560575
0.06227685
-0.00687516
0.00567339
0.02123183
0.02216902
-0.05438576
-0.00763050
-0.00599988
0.08168481
-0.00984313
0.02310557
0.00298935
0.04870955
-0.02233883
-0.03134657
-0.02902741
0.00556335
-0.03525974
0.03611161
0.00094074
0.03505782
-0.04089800
0.00935195
0.00280341
0.00902852
0.01020091
0.01796101
-0.02395086
-0.02405708
0.01526472
-0.00131312
0.01051385
-0.01296346
-0.00534364
-0.02536628
-0.01618549
0.03745315
-0.06424098
-0.04680200
0.01704442
0.02364359
-0.08409222
0.00390029
0.02080051
0.02620561
0.04122888
0.00219049
-0.04097756
-0.04007841
-0.06720667
-0.01157937
-0.01106310
0.01584965
-0.09320796
-0.03055442
-0.03871913
0.01829575
-0.00034809
0.02003263
-0.01321959
0.01683046
-0.01984053
0.00249661
0.02122395
0.06910731
-0.01910357
0.02071010
-0.00487969
-0.01825246
-0.01101030
0.02500682
0.00080562
-0.00156379
-0.04189810
0.00000151
-0.05040564
0.01296326
-0.01213864
0.00479442
-0.01701733
0.04368701
0.02492602
0.03407260
0.03340186
0.00367893
0.05962782
-0.02474126
-0.00078633
0.00683018
-0.01838698
0.00838173
-0.01619388
0.00142920
0.01501222
0.01717487
0.01675150
-0.03005434
-0.00329439
-0.04948303
0.01396696
-0.02026974
0.05182685
0.07086281
-0.02419853
-0.01725951
-0.02531858
-0.02198087
-0.01497534
0.03118172
0.09693593
0.02969652
0.03457377
-0.00470120
0.00738826
-0.03215965
-0.00106509
-0.01495350
-0.00544932
-0.01851602
0.02338765
0.01446236
-0.03386597
0.02350008
0.01812519
0.00391176
0.00977749
0.04334162
0.01667163
0.00281550
0.03326268
0.01588015
-0.01684696
0.02209487
0.02016400
-0.01362756
0.01022244
-0.02521706
-0.05199771
0.02081840
-0.00736236
0.04001858
-0.01315171
-0.00318561
-0.01169641
0.07038180
0.09321074
0.02923436
-0.02431449
0.00361734
0.00474856
0.04363219
-0.02221377
0.05338249
-0.02397919
-0.04351595
-0.00148569
0.00229177
-0.06404789
0.00034223
0.01003024
0.03664254
0.04542367
-0.00458087
0.02242224
-0.01570792
-0.02704822
0.01759427
-0.02846337
0.01107466
0.04661699
-0.00135733
0.01201232
-0.00502184
-0.00759663
0.00333282
0.02190307
0.01564045
0.00743839
0.05768327
-0.00942756
0.02370018
0.05424082
-0.00983259
0.00844872
-0.00227761
0.01232202
0.00881489
-0.01127114
-0.01191792
0.01158283
0.02361024
-0.01352570
0.01531850
-0.02352173
0.02640823
-0.04756744
-0.00369622
0.01416290
-0.04316925
0.00563310
0.03799345
-0.00126561
-0.01958637
0.01040304
-0.01677669
-0.08539517
-0.05895574
0.00453520
0.01196412
-0.00403489
-0.00533070
0.02051932
-0.01483299
-0.03342114
-0.02464667
0.01979999
0.00563083
0.01778002
0.06443755
-0.00628359
0.08009604
-0.01647114
-0.06397095
0.01398390
0.02903381
0.04989678
0.00055502
0.02469243
0.03281564
-0.00264890
-0.08058938
-0.00904853
-0.01130679
-0.03452347
0.02900977
-0.00301198
0.02029546
-0.02514864
-0.02940413
0.00589298
-0.02238318
-0.00717678
-0.07597126
0.00359219
0.01541832
0.01015494
-0.00718485
0.00209259
0.02135823
0.00712065
-0.02751693
0.00177161
0.01685231
0.06596307
-0.00634996
-0.05056236
-0.02920993
0.00001056
0.05491896
0.04039550
0.05174100
-0.02934393
0.01556875
0.00805697
0.02481302
-0.09388682
-0.00157580
-0.07045273
0.01443200
-0.00053236
-0.03669197
-0.05310222
-0.04916486
0.05717734
-0.16786584
0.00577813
-0.06041265
0.05428427
0.01800272
0.03215949
0.01948224
-0.05094402
-0.01734252
-0.00214305
-0.08596364
-0.02014074
0.09533995
-0.00716740
-0.02608793
0.03503321
0.14627974
-0.00637277
0.04699825
-0.03714707
0.03980687
-0.02016126
-0.04297163
-0.05295052
0.02008551
0.00055318
0.05806842
0.01159302
-0.01253369
0.02572395
-0.07830904
0.02097135
-0.02676963
0.02802967
-0.05650993
-0.00640935
-0.00761734
-0.00696906
0.03694573
0.10653550
0.06391814
-0.15653117
0.02590301
-0.05055640
0.01052758
-0.04140094
-0.00440201
0.03090562
0.04891802
-0.06069913
0.06168935
0.08270837
0.03162599
-0.02581084
-0.08604193
-0.00231361
-0.00798582
-0.00835020
0.04265534
-0.06064689
0.06983963
0.01827564
0.01110277
0.03181098
-0.01052724
0.01027898
-0.04088697
0.18179196
-0.00564016
0.01562556
0.10092647
-0.11881548
-0.02171553
-0.00104705
-0.02009931
0.05903381
-0.00982902
0.11083417
-0.04484730
-0.02231568
0.00515843
-0.02449289
0.01057139
0.03307956
-0.00805566
0.00136070
-0.01461759
0.08722468
-0.08229930
-0.06018902
-0.02180002
-0.02210056
-0.02349056
0.07181565
0.04576671
-0.00831384
-0.04334863
-0.04152785
-0.02659931
0.00718914
-0.02482403
0.02439776
0.00421177
