-0.01686433
0.01547628
0.04644155
0.00946612
-0.05364605
0.05552096
0.04402133
-0.00063388
-0.04016629
-0.04196572
-0.01732968
0.00936650
0.00009454
-0.01574911
0.00800212
-0.00905916
-0.03580255
0.02268884
0.01183265
0.01430705
0.04827920
0.01274173
-0.01072647
0.00267826
0.06150929
-0.02706829
0.00902355
-0.00097007
0.00315395
-0.02553406
-0.05378559
-0.02433550
-0.05547089
-0.01385370
-0.02330127
0.03101340
0.05561719
0.01632309
-0.02774304
-0.02329076
0.02394337
0.02827353
0.03866038
-0.01241405
-0.03057903
0.00219298
-0.03928685
0.04031239
-0.02201978
0.00051093
-0.02844653
-0.03688189
0.00413619
-0.02907410
-0.02021365
0.01642660
0.00344924
-0.00375833
-0.00136264
-0.00469750
-0.00678821
0.02113831
0.02111393
0.00339811
0.01227212
0.02594367
0.04546369
-0.04463967
-0.00994634
-0.02406110
0.03994070
-0.02424629
-0.00226891
0.04050247
0.05832088
-0.07073352
0.02339230
0.01357839
-0.00599241
0.00742899
0.01148090
0.00855156
-0.00362337
-0.03981998
0.02176701
-0.01996585
0.06063757
0.02505711
0.04300215
0.02933604
-0.01313474
0.01840564
0.01243721
0.01296342
0.00761813
0.03753976
0.02197790
-0.00232622
0.02703850
-0.00758048
0.03989383
0.02077941
-0.00275820
-0.00202748
-0.01042810
-0.04314737
0.02618312
-0.00235899
0.03679880
-0.01516131
-0.03123165
-0.02327135
-0.01057417
0.05442109
0.03316372
0.03830735
0.01963084
0.06582513
0.03402286
0.02711289
-0.02970945
0.02934011
-0.05389166
-0.03666950
-0.01253466
0.00094432
0.04656504
0.01514338
0.04358710
-0.01954193
-0.03090314
-0.02592628
0.00609232
0.01466420
-0.00764060
-0.02089888
0.01744921
-0.00319401
0.01831099
-0.00897130
0.01474238
0.03514250
0.03984403
-0.01004004
-0.00046406
-0.00605561
0.02614430
0.00868073
0.01062293
0.01332089
-0.03671567
0.09104493
-0.09096641
0.02090836
0.00932462
-0.06196697
0.01229562
0.04273150
0.02328919
0.06262169
0.05378811
0.04055965
-0.01393153
-0.03119103
-0.02979686
-0.01188741
0.03753727
-0.03285900
-0.03183784
-0.00133354
0.06719112
0.04495994
-0.04648864
-0.00224665
0.01061299
0.00667168
0.03324216
-0.02770350
0.00599225
-0.03686930
0.01665049
0.01233554
-0.01841730
-0.00791381
-0.00682761
0.03463301
-0.04098879
-0.02755590
0.00316698
-0.00419083
0.03113217
-0.03250285
0.03508767
0.04001448
-0.00876797
-0.00208730
0.06023255
-0.01706582
0.03198702
-0.07832151
0.03358491
0.01945669
0.01218757
0.02734711
-0.02061616
-0.01955282
-0.05503876
-0.04769956
-0.02537121
-0.01403940
0.05748158
-0.03762819
0.00804443
0.00330936
-0.02077386
-0.03387016
-0.01778458
0.06803134
-0.00444430
-0.01539977
-0.03155944
-0.01566766
-0.01987295
-0.03277416
-0.00414194
0.01454972
-0.06593741
-0.00148830
-0.02860964
0.01147130
0.00460955
0.09096898
0.02118936
-0.01411302
0.00109256
-0.02391614
0.02954428
0.01548939
0.00123417
-0.03072991
-0.08729708
0.02695100
0.05703266
0.04747421
-0.05960803
-0.00905767
-0.06679324
-0.06588589
-0.01219527
0.04107895
-0.01050254
-0.01256520
0.00719777
-0.00531593
-0.04229209
-0.05655165
-0.02681414
-0.03199540
-0.00980780
-0.00949170
-0.05079187
-0.01515390
0.00518118
0.05809440
-0.00275510
-0.03735788
0.05230271
0.02731749
0.05275073
-0.01741619
-0.03819423
-0.02989808
-0.00059053
0.00991988
-0.02790417
0.01785307
0.01827681
-0.02468559
0.06137330
0.00236236
-0.03025440
0.02297182
-0.00103226
0.03601995
0.01523583
-0.07009336
-0.02461771
-0.03422607
-0.00717111
-0.03257994
-0.01531991
-0.00332073
0.03084353
0.00732236
-0.02583893
-0.02747295
-0.08442736
-0.00627379
-0.01994530
-0.05553006
0.01014080
-0.01871282
-0.00627377
-0.00857533
-0.04466172
0.00344728
-0.00902216
-0.02609780
-0.00581056
0.00743748
-0.02069663
-0.02998380
-0.04064850
-0.04089312
0.01451949
0.10978117
-0.07571068
0.01260173
0.01085808
0.01002823
-0.02186611
-0.01196909
0.03141386
-0.04064103
-0.00930826
0.00739657
0.00979261
0.02394045
0.02372949
-0.02557458
-0.05581664
0.06377643
-0.01508838
-0.00314814
0.01119636
-0.02880086
0.00647049
0.02045604
0.02139183
-0.03586699
0.04415900
0.00859197
-0.05023801
-0.01800223
0.02601483
-0.04896405
-0.04084268
0.01461187
-0.05951666
-0.07079777
0.01784949
-0.01149364
-0.02891955
-0.04288710
-0.06966669
0.00626058
0.01323551
0.02024719
0.01416288
-0.01644106
0.01843174
0.01599370
-0.04473802
-0.05106049
0.02088822
-0.03364509
-0.00673386
0.03063409
0.05346405
-0.05757368
0.00765975
0.07721804
0.03709215
0.04125538
-0.02634669
-0.04124231
-0.03608348
0.01434407
-0.02285489
-0.03224529
-0.11634003
-0.00117294
0.02106692
-0.00666590
0.02382693
-0.01308107
-0.03451571
-0.02777026
0.01459755
0.02330850
-0.03118900
0.00919492
0.01137542
-0.01987721
-0.00228023
-0.01710540
-0.04211580
-0.02167119
0.02551057
-0.04378184
0.03175677
-0.02681650
-0.07388664
0.00092772
0.01641696
-0.01193611
-0.00269793
0.00831669
-0.00668109
0.02443719
-0.02068657
-0.02908549
-0.00270989
-0.03590060
-0.01982204
0.02107633
0.01679426
-0.00201006
-0.02657301
-0.04968977
0.03371726
0.00437653
0.05806630
-0.00467869
-0.01190631
-0.02412231
-0.03927005
-0.01556606
0.02333236
-0.02037690
0.02273081
-0.00646044
-0.00188474
0.01613140
-0.00058786
0.03429955
0.06024347
0.02659061
-0.03099846
0.02660867
-0.01059728
-0.01467690
-0.03284002
-0.00179146
0.02823999
0.00383036
0.01297161
0.01641527
0.01085580
0.00602230
0.01036372
0.01497335
-0.00909796
0.01260449
-0.02416407
0.01914577
-0.01792558
0.02341321
-0.09801699
-0.02400034
-0.02884370
0.02262451
-0.04242624
-0.02249287
-0.00878266
-0.02870177
-0.00914041
-0.00414849
-0.02321562
-0.00032799
-0.02288070
-0.02175749
0.01567381
-0.03851061
0.01397079
0.01921010
0.01241966
-0.00349354
-0.02803086
0.02699879
0.00312802
-0.03744930
-0.00692292
-0.02293805
-0.04716346
0.01859402
-0.02112890
0.00503055
-0.00417761
-0.00833171
0.00231337
0.00646010
-0.00343542
-0.00224389
0.02170733
-0.00237195
0.03600883
0.00406053
-0.00301508
-0.02699486
0.07101835
0.14153662
0.00824565
0.01520129
0.00389406
-0.00110425
-0.04034951
0.03752236
0.00365793
0.01550555
0.01663296
-0.05566793
0.01318156
0.06045410
0.04388694
0.04675644
0.08578467
-0.09750313
0.04243669
-0.00722210
-0.02998655
0.00506910
-0.01548135
-0.02785467
-0.01268625
0.02848160
-0.00760188
0.00191865
0.01056165
-0.00407267
0.05160959
0.03757212
-0.01703453
-0.00051724
-0.02294907
0.01694887
0.01797170
-0.02828344
0.00312472
0.02063041
0.04767475
-0.05634219
0.04965638
0.05106404
-0.00594154
0.07038002
-0.02193889
-0.02989566
0.03862854
-0.02000796
0.02037085
0.03059530
0.03998883
0.02580131
0.01297901
-0.01988265
0.01285739
-0.01234346
0.05723535
-0.03703910
-0.07547608
0.04685785
-0.03499280
-0.01207036
-0.03391599
-0.02635765
0.00600867
-0.02813810
0.01113470
-0.01677381
0.05204860
-0.00178271
-0.00716803
-0.02095349
0.01295494
0.03396758
-0.06285700
0.01432650
-0.08820127
-0.00269194
-0.00529954
0.03046953
-0.01724366
0.08475555
0.00381236
-0.04422741
-0.00571302
-0.02570965
-0.03512517
0.01225481
0.06026717
0.00550144
-0.01383649
-0.00313082
-0.04468029
0.06642835
0.00891416
0.01787352
-0.03306778
0.02149961
-0.02336711
-0.05845683
-0.02158196
0.08192898
0.01899054
-0.03810553
-0.01004927
0.02270803
0.02389734
0.03882126
0.02101660
-0.02284687
-0.01098618
-0.00957793
-0.01320586
0.01579551
0.01808841
-0.06279476
0.05584505
-0.06700101
-0.00844394
0.00863919
-0.08715493
0.06016396
-0.03572215
0.01325280
0.08778324
0.02215065
0.05052932
0.04265109
-0.01613177
-0.02113011
-0.06000034
0.04668292
-0.06313943
0.09832227
-0.14486258
-0.03814729
-0.07115819
-0.00174724
-0.03145190
0.08247327
0.00509210
-0.01885196
-0.02789374
0.05908671
-0.06054087
-0.11309261
0.01355097
0.01763310
-0.00731765
-0.10540300
0.00254194
0.08345856
0.08293689
0.11299175
-0.01137279
-0.02922895
-0.01256410
-0.00525940
-0.07167347
0.02068732
-0.02492481
-0.03702154
-0.02699719
-0.04774095
-0.05861643
0.01894731
-0.05032246
-0.00397401
-0.03965298
0.03806318
0.01666891
0.00632559
-0.01924044
-0.07137499
-0.05897947
-0.04697616
-0.03377413
-0.06039593
0.02267613
0.01802075
-0.02161820
0.01086824
-0.05352028
-0.01754912
0.09527312
0.00488991
0.06090244
0.05632067
0.04924426
-0.01042418
0.02149702
0.00700085
-0.05960404
-0.00513304
-0.00558928
0.05181132
0.01061580
-0.03327366
-0.04972548
-0.04088052
-0.01808379
0.01791996
0.02863997
0.01015566
-0.00572885
0.03714831
0.08034500
-0.00244856
0.03611223
-0.09486596
-0.02947447
0.10724295
-0.01035035
-0.02219210
-0.03544304
-0.07903089
-0.00247486
-0.02628646
-0.00426641
-0.05367157
-0.00197568
-0.02074610
0.01041331
-0.07604860
-0.00296085
-0.05740499
-0.02147131
-0.03840715
-0.02718867
-0.05768307
-0.03377207
-0.02532545
-0.07107183
0.03124501
0.09135503
-0.00449001
0.02361814
0.03170580
0.10684602
-0.05009555
0.02960505
-0.05307499
-0.03589551
-0.06085272
0.02554175
-0.10950496
-0.02864944
-0.03006374
0.00100508
-0.09820507
-0.06697163
-0.00402882
-0.07080490
-0.04824835
-0.01748286
0.01359309
-0.01600770
0.02361484
0.02736011
-0.00581483
0.09362091
-0.02003514
-0.03689482
-0.07065920
0.01888039
0.00591085
-0.02174617
-0.00970046
-0.04975871
0.00128954
0.00343100
-0.09867869
0.04565687
0.00133569
-0.02537119
0.01322607
-0.05969241
-0.01050108
0.00894153
-0.04090657
-0.02182369
-0.00740997
-0.05560306
-0.01886381
-0.12059838
-0.00701823
-0.00472136
0.03901702
-0.06425471
0.01325853
0.07845476
-0.03671918
-0.04132732
-0.00492306
-0.06681539
-0.01062429
-0.03801459
0.02925773
0.03435548
-0.02257467
-0.07196788
0.00077862
-0.04297868
0.05309517
-0.00579141
-0.02594393
-0.00008397
-0.03028366
0.01760533
-0.01049583
0.00329659
0.02143319
0.00516085
-0.07986765
-0.01319128
0.02040547
0.06074623
0.05100585
0.01771007
0.01636839
-0.02570168
-0.01370560
-0.06777031
-0.00465747
-0.02830104
-0.02935305
0.00839972
-0.04115661
0.00994716
-0.08554527
-0.00729436
-0.04567650
-0.00422520
0.01066435
-0.03335284
-0.03343665
-0.03443632
-0.04252594
0.03631397
-0.00443965
-0.00641895
0.01816590
-0.04031875
-0.07735463
-0.07730930
0.05112260
-0.07618290
-0.09701287
-0.04785440
-0.07450707
0.01688274
-0.11547830
-0.05060982
-0.03316556
-0.04910003
0.02540765
-0.05770742
-0.01364837
0.07770529
0.02233463
0.02637132
-0.01713943
0.00404481
0.00518048
-0.07227374
-0.01821654
-0.01381112
-0.01695070
-0.00230460
0.02331278
-0.03601654
0.05575044
0.03807947
0.02848979
-0.06122308
-0.01688199
-0.00815483
-0.04595851
-0.03493031
0.01039232
0.03479895
-0.03351523
-0.07047862
-0.01138331
0.00878850
0.00264280
0.14568420
0.02424896
0.01626638
0.04455532
-0.03061675
0.05844400
-0.03679197
-0.04399445
0.10664523
-0.04988274
0.04715663
-0.10930400
-0.02671187
-0.00019015
-0.03917366
-0.01784102
-0.00511732
-0.02134513
-0.00623017
0.00050587
-0.08942800
0.00229073
-0.06760259
-0.05420849
0.02007975
-0.00345768
-0.01467080
0.02298069
-0.03465129
-0.00215691
-0.03058152
-0.03545168
0.01053149
-0.00278221
-0.03143216
-0.02181820
0.04900378
-0.02748294
-0.03613866
0.07668421
-0.07101056
0.01536477
-0.00131405
0.04052795
0.05536955
-0.00218944
-0.04175985
-0.08800558
0.01914927
-0.03176180
0.04555255
-0.00864424
0.01906170
-0.03354966
-0.02360956
0.07037246
-0.08606132
-0.09578583
-0.02828833
0.04014000
-0.01360752
-0.00686610
-0.01123753
0.03972452
0.00925747
-0.07619835
-0.08868323
-0.00402353
0.03756293
-0.01762499
0.04536089
0.03623484
-0.02683607
-0.01624114
0.03007520
0.00390250
0.00705158
-0.03512958
-0.02316792
-0.03233907
0.04478606
-0.03171239
-0.02195241
-0.01188613
-0.00479692
-0.04744095
-0.01483228
-0.04510863
-0.04428288
-0.01411514
-0.05071275
0.06057887
0.02782996
0.05591465
0.09010646
0.02618779
0.01722975
-0.03084692
0.02701675
0.02653076
-0.01912142
0.07650322
0.00222492
-0.06233378
0.04181145
0.03571251
0.06580622
-0.00460350
-0.05149407
0.02771431
-0.03667716
0.08177353
0.02114953
-0.01614138
-0.04063020
-0.04873347
-0.02276748
0.01010625
-0.00643927
-0.04625211
0.04177321
-0.02512620
-0.01767788
0.00523014
0.01425000
0.07951188
0.00787085
-0.00919005
-0.08326752
-0.00021314
0.00371063
0.01800162
0.00121493
-0.01297940
-0.05831623
0.01099623
-0.00548866
0.00807984
-0.05503870
0.01598141
0.06623957
0.01111783
0.02312693
0.03086522
-0.03777643
0.01157080
-0.00053184
-0.04804088
0.01689661
0.02987680
0.06693614
-0.01422709
-0.00204249
-0.00070871
-0.02301827
-0.01542958
-0.06007254
-0.06543650
-0.04033885
-0.06165763
0.17444257
-0.00533743
-0.02758227
0.04499138
-0.01995792
-0.00525140
-0.00264672
0.00987012
0.03378268
0.00798544
0.03589200
0.03134357
0.01638194
-0.02990919
-0.02335256
0.01900483
0.02884830
-0.03050235
0.03957590
0.02311128
-0.07218493
-0.07370503
0.00577412
-0.03290578
0.04928679
0.05107713
0.03660144
-0.01172549
0.00576937
-0.00265091
-0.01624963
-0.04335323
0.04452866
0.04514388
0.02838144
-0.00408978
-0.01842782
0.03861153
0.00512314
0.03476301
-0.08437226
-0.00944238
-0.02805575
-0.11043227
-0.06161098
0.03660841
0.02097448
-0.01776942
-0.03050380
0.01301479
-0.01204973
-0.02487376
-0.03535126
-0.03381167
0.01153870
0.04111828
0.11531828
-0.02411623
-0.01311040
0.03627875
-0.01473465
-0.01233506
-0.00323577
0.01212108
0.01392607
0.01392627
-0.00879904
-0.02315060
0.00349477
0.00712459
-0.03086607
0.03855422
-0.03323213
-0.02020832
-0.01406967
0.04065206
0.03299922
0.00927301
-0.05099902
-0.00046161
-0.00405160
-0.07140516
-0.05595643
-0.02893777
-0.05754649
-0.00354998
-0.01836449
0.01084127
-0.00702830
0.00550927
0.01452939
-0.00377271
0.02829009
-0.04394807
0.01339684
-0.04805923
-0.00606371
0.04528959
-0.04183054
-0.03499706
0.03548253
-0.01101054
-0.02386335
-0.03250443
-0.01924000
-0.03696954
0.04956103
-0.02432435
0.05338638
-0.00824361
-0.02296291
-0.01238145
0.03782097
-0.01729162
-0.01203263
-0.00128454
-0.00344064
-0.00144357
-0.01324917
-0.10570429
-0.00603453
-0.00299849
-0.00657085
0.07261252
0.00877345
-0.02194739
0.05072858
-0.00712070
-0.00076282
0.04731135
0.00541813
-0.00015222
0.01900814
0.02527409
0.02832336
-0.01214865
0.03233070
0.06144007
0.02055987
0.00923861
-0.04010592
-0.01263059
-0.00623898
0.02137097
0.00244738
-0.02599507
0.04668112
0.00492902
-0.00381082
0.02354043
0.02527476
-0.00158855
0.03033246
-0.01129348
-0.01552802
-0.02945484
0.00978036
0.03121261
0.00403593
0.03961602
0.03608554
-0.00519613
-0.01382655
-0.04146455
-0.02340190
-0.02429742
0.00255591
0.05645863
0.00461459
-0.02578110
0.02281118
0.01359457
-0.01008570
0.01040907
-0.00691465
0.02268713
0.00939748
-0.00218189
-0.00984024
-0.00335235
-0.01958548
0.06715941
-0.00688945
0.01883724
-0.02051365
0.02163299
0.03140783
-0.00752284
0.00896728
-0.00476804
0.04258848
-0.04315741
0.01347903
0.03047422
-0.00885325
0.04019464
0.00557976
-0.00654909
-0.01229152
-0.02419796
-0.00681124
0.01441438
0.00611106
0.00020687
-0.01732352
0.03031012
-0.00926858
-0.01477841
0.00667883
0.02634523
0.00393480
-0.00489866
-0.03080935
-0.03289979
0.02344732
-0.03018447
0.01129317
0.03659428
-0.00816853
0.07146897
0.00618563
-0.01497064
-0.01703359
0.08362693
-0.02890386
0.04068978
0.01512279
0.02677554
0.00085852
0.04169350
0.02108571
-0.01732623
0.01056338
0.01663963
0.01359075
-0.00300539
0.04880176
-0.00749705
0.00686177
-0.02260638
0.01924978
0.02093156
-0.02665954
0.00193691
0.00205985
-0.05192900
0.01620726
-0.00680433
-0.00976499
-0.02045450
-0.02103787
-0.02799415
-0.02369607
0.01695059
-0.01469275
-0.05151985
0.04271187
-0.00494921
-0.01792132
0.00161700
-0.00436279
-0.00089942
-0.01159210
-0.11651742
-0.00324304
-0.06451143
-0.01074246
0.00217409
0.02595314
0.27427772
-0.04686783
0.00574675
-0.00775312
0.00307404
0.02939530
0.00527741
0.03082099
-0.01564862
-0.00707518
0.00204553
-0.02521695
0.03123146
-0.02788823
0.02679930
-0.02046565
-0.00906580
0.00924311
0.00515196
-0.02989561
-0.00092916
0.01795440
0.00485558
0.02334989
-0.00934426
-0.03054011
0.09566939
0.02053475
0.07362729
0.02701365
0.01812890
-0.02415022
-0.00626026
-0.03804989
-0.00506696
0.01191948
-0.01560722
-0.00737247
-0.00820671
0.05923681
0.04614669
0.01519760
0.00267579
-0.03370351
-0.01513598
0.01161244
0.00299872
-0.00529751
-0.01449256
0.03429930
0.04270311
-0.00135909
-0.01951825
-0.04258641
-0.04649097
-0.00323603
0.01365229
0.00365421
-0.01850791
-0.04199981
0.01179200
0.04309707
-0.02141428
-0.00143985
-0.00865462
-0.02091810
0.01197698
-0.01344664
-0.03610250
0.01533807
-0.03380804
0.01471487
-0.01128444
0.02227503
0.03826888
0.05392659
-0.00179071
-0.02678453
0.03418997
-0.02339503
-0.03648368
0.05076248
-0.02439898
-0.01159570
-0.01050805
-0.06711885
-0.00753487
-0.02972285
-0.01527479
-0.03304215
-0.02167154
-0.02406916
0.05959535
0.04225396
0.01583284
-0.03022987
-0.01737726
0.00562693
-0.00726806
-0.04562896
-0.00738171
-0.03136002
0.09002474
0.05066364
0.05887168
-0.00484475
0.03656488
-0.01807200
-0.00679747
-0.02963082
0.05039466
-0.01782995
-0.02507013
0.02861958
0.01289827
-0.05314005
-0.01806441
0.04610525
-0.07926209
-0.01468311
0.02017287
0.02611395
0.02483288
-0.01258573
-0.03280619
0.03116579
0.04534926
-0.02988514
0.04466997
-0.01467765
0.00421884
-0.02432315
0.00967866
0.06164037
0.04322704
0.01647715
0.00091443
-0.00485649
0.00615479
0.04721316
0.00793684
-0.01829056
-0.03211272
-0.02161682
0.00542559
0.05515783
-0.00526190
-0.01471001
0.01419658
0.00797089
0.01096616
0.05384856
0.01390996
0.00554379
-0.00973139
0.02105160
-0.02289537
0.01798222
-0.02746134
0.00684539
0.04752901
-0.02175518
-0.00828533
0.01336015
-0.02900378
0.02504107
0.01887927
-0.00878738
0.01641287
0.04973841
-0.00900345
-0.00101388
-0.05191810
-0.03271344
-0.01109894
0.00945952
0.02452444
0.05138103
-0.02250101
-0.05374394
0.02945036
-0.06834965
0.01845915
-0.00138824
-0.02275340
-0.07284053
-0.04092286
0.00921633
0.06837236
0.02565442
0.00030387
0.04395169
0.03339914
-0.09674930
-0.01911548
-0.02533260
-0.03653513
-0.00667449
-0.00490214
-0.01327635
-0.04216415
0.02045793
-0.04004252
0.02971895
-0.00703140
0.01787050
-0.01398612
-0.00167576
-0.00492673
0.02299871
0.00021327
0.01392099
-0.00432748
0.01081564
0.02009119
0.00039654
0.03610788
-0.00887945
0.04180186
-0.02224461
0.09271777
0.02295338
-0.01324645
0.03508719
-0.02663896
-0.00495251
-0.07484577
-0.00336694
-0.00986504
-0.00252660
0.06365953
-0.04266371
0.03158513
-0.05884415
-0.05984553
0.02224787
-0.04722225
0.00569125
0.03840424
0.00597417
0.03090356
-0.02048264
0.00495616
-0.01026734
0.07482695
-0.08742119
-0.02658165
0.00475922
0.01965726
0.04977810
0.06427239
-0.01978811
0.06089640
0.03878709
-0.00434021
-0.01162572
0.00020998
-0.00446405
0.01130506
-0.00385937
-0.04357689
-0.01658029
0.00904290
0.03327520
-0.03436807
0.02626236
0.00634410
-0.00470271
0.01678074
-0.01735488
0.04943373
-0.04736250
-0.01057737
-0.01636698
0.02968001
0.00921361
-0.01648621
-0.02950077
0.01452804
0.00745189
-0.04998017
0.00896715
0.02375471
0.00206853
0.00849565
-0.03476504
-0.04741956
-0.03097328
0.06394423
-0.00819796
-0.03390624
-0.01072308
-0.00096716
0.01243242
0.03415261
-0.02367088
0.04511053
0.05381548
-0.00802096
0.03917143
0.01359001
-0.01651797
-0.01769195
0.04439360
-0.04715992
-0.03836479
0.07840753
0.02347713
-0.05635002
0.07345419
0.01978510
-0.03762226
-0.00766126
-0.03320577
0.03841883
0.08566400
0.06405263
0.07091029
0.00348589
0.00882378
-0.03235896
-0.01627612
-0.01807609
0.01079101
0.01336511
-0.03793324
-0.07028829
-0.01556564
0.04318787
0.00642113
-0.03013086
0.03946330
0.01095014
-0.05074490
-0.02709020
0.00862846
0.00368867
-0.02459183
0.01429242
-0.00436811
-0.03381865
0.07492279
0.01202100
0.01977661
-0.04987886
-0.03924572
-0.03463596
-0.07815828
-0.03157471
-0.02475596
0.02350466
0.00720192
-0.03706120
0.06218497
-0.02867514
-0.04750747
-0.01201054
-0.01564228
-0.00979745
-0.01900816
-0.04303531
-0.00720481
0.00305073
0.02274507
0.01590535
0.00137669
-0.01077478
-0.10021318
-0.01842301
0.01367397
-0.03724944
0.06666338
0.07733124
-0.00683792
0.07422723
-0.02153076
0.05479964
0.02474864
0.00039571
-0.01687550
0.00577926
-0.00082668
-0.01176593
-0.00998668
-0.03013346
-0.04319654
0.01892458
0.02151347
-0.01386055
0.03992255
-0.03266404
-0.04374945
-0.06774481
-0.07250130
-0.01149225
-0.00193342
-0.00119442
-0.01434044
-0.01209718
-0.06008670
0.01165027
-0.02917485
-0.02401860
-0.02468829
-0.03933606
-0.00026465
0.01634263
-0.01748130
0.01849664
0.00081204
0.03569612
-0.03247723
0.05169657
0.01940477
0.01571412
-0.02875466
0.02266630
0.02988631
-0.02479458
-0.05219462
-0.03203067
-0.01623159
-0.01524197
0.00962532
0.01259747
0.04549481
0.05099249
-0.01649751
0.00958488
0.05635409
-0.02654197
-0.00899638
0.01647536
-0.02335057
-0.02902852
-0.00161082
0.00997606
-0.05071057
-0.02663422
-0.01650196
-0.00397543
0.00071800
-0.02255338
-0.03976967
0.00143970
-0.00589221
0.02379723
0.02339557
-0.02166229
0.03273910
-0.01704499
-0.00108716
-0.02309161
0.10335163
-0.00073995
0.00078673
-0.00305389
-0.04008190
0.03402895
0.01453284
-0.07116908
0.01264522
0.01645941
-0.01718649
-0.00758749
-0.01464127
0.02004260
0.00157136
0.00647713
0.01283517
0.01161555
0.01363981
0.00005732
-0.03349621
0.00971339
-0.04656357
0.01152804
0.01035349
0.00279204
0.01934885
0.08262364
-0.08505215
0.00952687
-0.09126400
0.06301995
0.02767768
-0.09202427
-0.00769243
0.04169228
0.02285923
0.00589365
-0.00035960
0.00746949
0.01686620
0.01700993
-0.00167953
-0.00964094
0.01797830
-0.02131565
-0.00234539
-0.00594698
-0.02283805
-0.00857615
0.00453834
-0.01749011
0.01496062
0.00373195
0.02426138
-0.01645156
0.02197857
-0.01342076
-0.00406947
0.11893065
-0.01239509
-0.00976804
-0.01710366
-0.00220833
-0.02500600
-0.03122212
0.00430254
0.04005448
-0.03064878
0.03786299
0.02898501
-0.03531358
0.02981470
-0.02377266
-0.15128711
-0.03292098
-0.03492076
0.00060491
-0.01601414
-0.02323633
-0.04815347
-0.02568052
-0.05199618
-0.02660163
-0.01047903
0.00859013
-0.01925796
-0.01745746
0.00243341
-0.00812994
-0.02003223
-0.04734438
0.00251538
0.03511006
-0.02360073
0.03889856
-0.06107076
0.00390777
0.03055878
-0.01315540
-0.02550875
0.03343483
-0.02725537
-0.03789731
0.02498080
0.00897312
0.00718422
0.02545567
-0.02027300
-0.00226728
-0.01361013
0.01594593
-0.01114820
-0.02819278
0.01006064
-0.00089376
-0.03073585
0.00127608
-0.02018063
0.01497100
-0.00727343
-0.03557049
0.00940218
0.00237025
-0.04150448
0.02252489
0.03517061
0.04005913
0.01525418
-0.00557795
0.02288688
-0.02479154
0.03818123
0.01680683
-0.01393140
-0.00160587
0.05846873
-0.02740394
-0.00681335
0.01013552
-0.00976395
0.00688414
0.00603497
-0.03547901
0.00682141
-0.05888790
-0.03800287
-0.05366476
0.07798608
-0.04423997
0.07133114
-0.07822169
0.02892186
0.00078779
-0.01089990
-0.11314861
0.04051515
-0.06404062
0.00515393
0.07319404
-0.01136020
-0.15637353
0.00239790
0.01483936
0.03385204
0.00541441
-0.16252773
0.04047753
-0.02902354
0.04490590
-0.08260565
0.05215753
-0.05318142
-0.00417008
-0.17234489
-0.05925875
0.06819607
0.01312068
0.02854119
-0.02688931
-0.03950199
-0.09727395
-0.07431524
0.02641965
-0.02999831
0.05435069
-0.03912941
-0.03942056
-0.03226058
0.00662576
0.02846647
-0.00828651
-0.02973839
-0.04174759
-0.09291511
0.05491689
-0.12406322
-0.06408346
-0.03816296
0.05952140
-0.06860396
0.00170021
-0.07415070
0.05888987
0.02531208
0.00939179
0.00377529
-0.03800298
-0.01523121
-0.10695708
-0.09533261
0.10461152
-0.11336976
0.02611698
0.00647443
-0.03155156
-0.10624546
-0.01457925
-0.05627097
0.00846745
0.01703968
-0.01360981
-0.02377077
-0.00823563
-0.00786298
-0.05963158
0.02081837
0.03326827
-0.05785026
0.02777613
0.02751117
0.03567399
-0.01517392
-0.05443762
-0.01164345
0.02229138
0.02476291
0.02722578
-0.04536837
-0.15830532
0.02083772
0.03734215
-0.09799673
-0.09633380
0.01548936
-0.11948315
0.00556052
-0.09782782
-0.00969194
0.01359347
0.03453379
0.01894579
0.02376446
0.01095879
-0.02323413
-0.10963149
-0.03834734
-0.03642220
0.00994164
-0.02726799
-0.07512558
0.01336746
0.02464247
-0.07346267
0.00818531
0.00005959
-0.01716135
-0.00398194
0.01241287
0.08140089
-0.09449169
-0.10789282
-0.00522100
0.02587666
-0.05373801
-0.09155090
-0.05589798
-0.00663410
0.01324303
0.02434791
-0.00636754
0.01549043
0.01317086
0.00473611
-0.19717783
0.06029529
0.04284836
-0.08724986
-0.08970200
0.02467095
-0.03446115
0.04861759
-0.03539306
-0.01649467
-0.03825676
0.01679645
-0.13900949
-0.04261735
-0.03482756
-0.12610865
-0.03345426
-0.04795394
0.04561190
-0.11708892
-0.01953310
-0.05053910
0.02019732
-0.01988300
0.01019897
-0.03383103
-0.05267405
-0.04938987
-0.01279592
-0.04410341
-0.12599361
-0.01667304
-0.18974526
0.07529888
0.03350867
0.11946213
0.02652603
0.19933370
0.08659697
-0.00415057
-0.00899321
0.00670603
0.00329468
-0.07374483
-0.04068615
-0.01837050
-0.12768257
-0.07654643
-0.02194627
0.04077013
-0.01470412
-0.15021357
-0.08769272
0.03894131
-0.02703451
-0.13834320
0.06326546
0.05115606
-0.03386555
0.01948681
-0.04044110
-0.03192129
-0.08491977
0.01406863
-0.03890852
-0.03554990
-0.09277635
0.00296330
0.05176274
0.01239029
0.01867660
0.02134521
0.05536624
0.09571384
0.05178549
-0.00175386
0.07320202
0.02442368
-0.01116583
-0.06882140
0.00608566
-0.01621092
0.04110962
-0.05526546
0.04345050
-0.02046769
-0.04241108
-0.01576956
0.00924286
0.01664838
-0.03503270
0.00744678
-0.00497939
0.01776937
0.03351863
0.03738102
0.05405821
0.02766903
0.00565950
-0.00017545
-0.03068408
0.03239121
-0.03197837
-0.01626614
-0.00782930
0.02400186
-0.01817461
0.02537972
0.01585946
0.06234507
0.11248618
0.08877798
0.04838541
-0.00995811
0.02634738
-0.01540595
-0.04392217
-0.04989641
0.01573215
0.06366943
0.00852983
-0.01120945
-0.00964261
0.01750079
0.01341206
-0.03407083
0.03553241
0.01527151
0.02072664
-0.03236405
0.02810731
0.00137030
-0.01006779
0.02131668
-0.01587749
0.01096523
0.02759735
-0.02337317
-0.06764831
-0.03980446
-0.05241560
-0.00569953
-0.00817829
-0.02536659
-0.06997982
-0.03979907
0.00639713
-0.00476980
0.01735161
0.02647980
0.04994998
0.03784455
-0.08506475
0.01379712
0.04421911
-0.00021354
-0.03899112
0.02890643
0.00240046
0.00609117
-0.00744906
0.02048056
0.01664258
-0.01187767
-0.05154661
0.06304456
-0.02387725
-0.07829779
0.02882698
-0.00339183
-0.00539700
-0.00278295
0.03621545
-0.12035394
0.00751707
0.00489780
0.07104573
0.07052759
0.00272892
-0.00117989
0.01170217
0.01807206
-0.01670794
0.00333100
-0.05049643
-0.02855524
-0.05710987
-0.07453141
-0.07228000
0.01036422
-0.03946492
-0.03450270
-0.00481343
0.03611263
-0.01835269
-0.05415528
0.00791728
-0.08099880
-0.00495990
-0.05756234
-0.04902819
-0.02091091
0.00177104
0.03312115
-0.03746610
0.05332031
0.00421450
-0.02706606
0.00597362
-0.00131401
0.02968712
0.00955535
0.07284480
0.02865913
0.03589413
0.02048375
-0.02068403
0.04950494
0.02329353
-0.04273652
-0.02551785
0.00755918
0.02534826
-0.01648000
-0.00255177
-0.00487875
0.01870923
-0.03831054
0.04195245
-0.02193941
0.03667410
-0.00997012
0.01330167
-0.02577181
0.00688938
0.02682245
0.02439158
-0.00800189
-0.00325016
-0.02882213
0.01206098
0.01542872
-0.04511331
-0.01559314
-0.05272270
0.02155430
0.00078755
0.00266452
0.13225608
-0.01894610
-0.04397475
0.04517030
0.06149709
-0.04677396
0.01149300
-0.01220156
0.00545760
-0.00409097
-0.03489350
-0.02444987
-0.03224926
0.00132873
-0.00175180
0.00507803
0.02752562
-0.01103182
0.01570654
-0.00294105
0.04226887
0.02404696
0.03578104
0.02599091
0.00904900
-0.01895459
0.02716513
0.04002516
-0.03045634
0.04156594
0.05089633
-0.00850048
-0.01846726
-0.01407536
0.03568171
-0.03956887
-0.03853841
-0.04017635
0.02094710
-0.05047386
-0.09549984
-0.03650599
-0.00099511
0.02857826
0.00842162
0.02192507
-0.02531005
0.03272822
0.08476698
0.01868645
-0.03952700
0.04450263
-0.02940993
-0.04962569
0.03871815
-0.06475268
0.05417994
-0.01144718
-0.01141615
-0.03810108
0.00002872
0.01608443
-0.02953664
-0.01428294
-0.00103383
-0.00100090
-0.00740535
0.04831322
0.04733153
-0.01738580
0.01308244
0.00580819
-0.01985424
-0.10016489
-0.01311041
0.00405745
-0.04438936
0.01521046
-0.04366588
0.02512057
0.03603830
0.02525480
-0.05188423
-0.00671749
0.03593653
-0.06691890
-0.01608473
0.05728731
0.05248843
-0.03965907
-0.04549117
0.10611359
0.04539606
-0.00233258
-0.04956024
-0.01132770
0.02941370
0.01200127
-0.00862707
-0.02459028
0.00813866
0.02408417
-0.00748945
0.01324458
-0.06401755
-0.02336225
-0.01764594
-0.00572178
-0.00358354
-0.00608093
-0.03196151
-0.03027303
0.05356888
-0.02908339
0.00516147
0.00709586
0.00594204
0.01291686
-0.01065120
-0.00592118
-0.01711760
0.01029320
-0.02811402
-0.01552376
0.01777448
0.02554900
0.08792922
0.00626588
0.01653773
0.02116669
-0.00462352
0.04879638
-0.00412073
-0.05832919
0.07257642
0.01088110
0.02762250
-0.01172573
0.00834229
0.01881335
0.02817506
-0.01561096
-0.02710929
0.02481258
-0.03942526
-0.05299833
0.03431297
0.00711505
0.04846966
-0.00680963
0.02787204
0.02701526
-0.02052282
-0.03980125
0.00089963
0.00122776
0.09462544
0.02995824
-0.02234548
0.04615093
0.01057338
0.01156725
0.03252121
0.07040032
-0.01170375
0.03179288
0.08581024
0.02297516
0.04234507
-0.02253374
0.08876619
-0.03293293
0.01151353
0.02173531
-0.04745339
0.05097011
-0.00354877
-0.06634211
0.00253306
0.06559445
-0.03557800
0.03604050
-0.10664692
0.00536514
-0.02768962
-0.00182932
-0.05106521
-0.04192818
0.01139701
0.01181681
-0.12279980
0.02109171
-0.00359477
0.03697562
0.02034659
-0.06863927
-0.07277957
-0.00199239
0.00098987
0.03194368
0.04878525
-0.02650926
-0.00718351
-0.07450674
0.01288954
-0.00799632
-0.01744947
0.03753901
-0.01979129
0.00890499
-0.01920986
-0.03044694
-0.01237813
0.02185251
-0.05841402
0.02194905
-0.06510145
0.05993617
-0.00171596
-0.05167133
-0.01121638
0.01654939
0.01747388
0.00498366
0.00892746
0.02691436
0.01045307
-0.02113042
-0.02794620
-0.08803978
0.01610651
-0.00170116
-0.01654388
-0.03300969
-0.00292987
-0.03149103
-0.03710340
0.00875724
0.04771577
-0.04550287
0.00660035
-0.00895745
0.10660166
0.06298849
-0.04787505
0.01789707
-0.03197066
-0.02462012
0.05511346
-0.02593857
0.02173474
0.01914163
-0.07288833
0.00922483
0.01169802
-0.02282437
0.01748283
0.00625485
0.00008252
-0.01895295
-0.03833983
0.02330867
0.07435670
-0.01303125
-0.02885343
0.03591562
-0.06000447
-0.02172273
-0.01097390
-0.03758346
-0.05186854
-0.02178418
-0.00960738
-0.00101428
-0.02986544
-0.09567390
-0.04245304
-0.04297208
0.02852158
0.03699522
0.00191913
-0.04128955
-0.05209969
0.02401298
0.00216022
-0.05505441
-0.01661467
-0.01501049
-0.06882749
-0.02368078
-0.03008644
-0.03064487
-0.02610947
-0.02672788
-0.05477589
0.04948555
-0.05911989
0.01651620
-0.00334305
0.01639838
-0.04285222
-0.04986594
0.01104867
-0.05822396
-0.04078153
-0.03757703
-0.04780146
-0.01050381
-0.06298645
-0.04351275
0.02418770
-0.02265837
-0.01932582
0.04304237
-0.03742678
0.02806008
-0.01987380
-0.03901412
-0.05757887
0.02537886
0.02062666
-0.03249615
-0.03004248
-0.00947566
-0.06040347
0.05378202
-0.07680729
-0.00997499
0.00802504
-0.01780812
-0.03829543
-0.04683904
-0.04348683
-0.06422670
-0.00771959
-0.03057419
-0.01156522
-0.00906032
-0.02945410
-0.01182845
-0.02533592
-0.00316581
0.02524208
-0.01140068
0.07400541
0.01750091
-0.04027654
-0.00367795
-0.06170683
-0.07154425
-0.00851639
0.02631649
-0.04859333
-0.03373560
0.07320245
-0.01623160
-0.02286329
0.07703339
0.03615188
0.03528497
-0.02614222
-0.01633403
0.01859625
0.01592928
-0.02526161
-0.00519488
0.06088246
0.00459801
-0.01736798
-0.03912507
-0.04886432
0.04970435
-0.01905614
0.01430705
-0.06181987
0.00163505
0.00021674
-0.02349670
-0.02988187
-0.00629001
-0.03126189
0.01454645
-0.09804834
0.01939724
-0.05714019
0.00303647
0.05140438
-0.00901969
0.00267572
0.06679492
0.00541142
0.02138589
0.02144649
-0.15269610
0.01774699
0.01172001
-0.00905223
0.07067951
0.04827644
-0.05585802
0.07867403
0.05990146
-0.06173103
0.04092158
-0.02615997
0.02835635
0.03719637
-0.07189757
-0.00799350
-0.01221085
0.03096506
0.05578249
0.07138060
0.00331150
0.08417843
-0.02616198
-0.01628062
-0.02184852
-0.07530525
0.04309962
-0.07472382
0.09392606
-0.04751075
-0.00008223
0.01860099
-0.04431485
-0.10289907
0.00064092
-0.03720718
-0.02819619
0.00475684
-0.04166765
-0.01851685
-0.03212158
-0.00879477
-0.02757012
-0.01580450
-0.02337378
-0.05199689
0.01537998
-0.01046063
0.09329986
-0.00444306
-0.02530552
-0.00644714
-0.04379383
-0.00087143
0.07757769
0.02717358
-0.05974653
0.00853027
-0.02119107
0.04716806
0.01227738
0.00278534
0.00909394
-0.00856026
-0.03624093
0.00251991
-0.01807442
-0.05351822
0.02513082
-0.05417526
0.06194559
-0.02041162
-0.02169343
0.00057211
0.03929563
0.06348372
-0.02320282
-0.07037926
-0.06141102
-0.02429830
-0.01151230
0.01419744
-0.05927311
-0.03826779
-0.02037599
-0.03192492
-0.02622497
0.00390045
-0.00734844
0.01935821
-0.01706933
-0.07135250
-0.04073246
0.01494523
-0.06990542
0.01713229
-0.02214165
0.01803121
-0.01292446
0.02132808
-0.03463984
0.05310328
-0.02227046
-0.08735496
-0.04424513
-0.02867495
-0.04638166
0.00300594
0.02520291
0.01334176
0.01113071
0.10779047
-0.03116136
-0.05676954
-0.01913191
-0.02519432
-0.03307324
-0.00141853
-0.01453095
0.02157232
-0.07583541
-0.02690515
0.01840951
-0.05391369
-0.01945836
-0.04610468
0.02225070
-0.04955856
-0.00607100
-0.00911909
0.01347066
-0.03224561
0.05609699
0.01322245
0.03846341
0.00557259
-0.00064383
0.00890491
-0.04622836
0.00192144
0.03199139
-0.03260999
-0.05669574
0.01467529
0.11133505
0.00792050
0.00718385
-0.04342585
-0.05942864
0.01093981
-0.02712144
-0.00904377
0.02512634
-0.06908886
0.00211517
-0.04875764
0.00362999
-0.05945725
-0.04786618
-0.04504271
-0.01382127
0.02678580
-0.01240352
-0.04716845
0.06856992
-0.05414888
0.02762792
-0.04930786
0.00630765
-0.05708104
-0.02546442
0.00359319
0.00540427
-0.03500778
0.00845508
0.03565887
0.01126702
0.07124968
-0.00751605
-0.04812215
-0.04107388
0.08082848
0.00580538
-0.05304329
0.00827169
0.00107471
0.00037770
-0.05738527
-0.03880396
0.05632757
0.02179081
-0.02020587
-0.00315874
-0.04750727
0.03622957
0.04679620
0.07372131
0.01197772
0.00615413
-0.06632241
-0.05092251
0.02893046
-0.04969242
-0.01590749
-0.04455973
-0.02200105
0.02740227
-0.00527883
-0.03893271
-0.01426909
0.02068000
0.01307153
-0.02673596
-0.02715526
-0.00565423
0.00635087
-0.02247016
-0.01600859
-0.07852609
0.02062150
0.01399601
0.02458307
0.00284183
0.09987818
0.03613180
0.10659000
-0.01450245
0.05315576
0.01829952
0.00716744
-0.03995475
0.01115166
-0.00838373
-0.04698853
0.02143109
-0.07945564
0.01512199
-0.02389336
-0.04618797
0.00321477
-0.04980328
0.03445244
0.05025135
-0.05772968
-0.05127630
-0.05519626
-0.03787107
-0.01157495
0.00345336
-0.04388955
-0.06621898
0.00047979
0.00642654
-0.02921601
0.07205884
0.02520175
-0.00912997
-0.00635323
0.06346384
-0.03281462
0.09792890
-0.02891624
0.00066662
-0.02928486
-0.00612828
-0.01737675
0.03451780
0.03295703
0.04139393
-0.03822806
0.01310849
-0.00637637
0.09939076
0.02416308
0.01288479
-0.01290998
-0.00786346
-0.01390979
-0.00320960
0.03767662
0.01885010
0.04249369
0.00055196
0.07859001
-0.09015588
0.11791760
-0.01306644
-0.07425936
0.04060505
-0.01960078
0.04719742
-0.01704934
0.04086537
-0.00977976
-0.02716322
-0.02713652
-0.05237878
0.00650725
-0.04909914
-0.04358409
0.01852498
-0.03032306
0.01411739
0.09146792
-0.00864904
0.06979997
-0.01580205
-0.02824781
-0.01295976
-0.04873338
-0.04703570
-0.04522807
-0.05407754
-0.00275805
0.00329574
0.06327084
0.06265979
0.02120239
-0.02607327
0.00516022
0.00024373
0.07992845
-0.05795612
0.02566785
0.02317022
-0.02385937
0.09599359
-0.02026477
-0.03041931
-0.09049565
0.03309307
-0.05075130
-0.03673678
-0.00808279
0.06758678
0.00748469
0.05991110
-0.10445076
-0.01507286
-0.00171624
0.06402002
0.02308570
0.01861465
0.03243912
-0.00718670
0.02334112
-0.02228517
-0.00378214
-0.05139345
-0.06162958
-0.01110163
-0.03633316
0.02730430
-0.06635977
0.00436603
0.00504780
-0.02399556
-0.00536580
-0.04476292
-0.00799430
0.03374635
0.01765054
-0.04985090
0.06728882
0.02530502
0.00369007
-0.01969530
-0.04663314
-0.09948294
-0.03928554
-0.01513739
-0.01881150
0.00177078
-0.02760970
-0.03904161
-0.01691332
0.04397502
-0.00924233
0.01048734
-0.01414875
0.01977061
0.00282702
0.04031502
-0.00436871
-0.01542734
-0.01830415
-0.01276513
-0.01755176
0.00395623
-0.04039953
-0.02516743
0.04357631
0.02600936
0.00420823
-0.05895908
0.01308911
-0.07206923
-0.05536933
0.00124857
-0.04899591
0.02772874
0.01577965
-0.03709124
-0.08756647
-0.06751611
-0.06840692
-0.01635957
-0.02616383
-0.01925670
0.05880543
-0.05893562
-0.01159426
0.04009371
0.04560405
-0.01885225
0.04211673
-0.03175285
-0.00117108
-0.00949670
0.02318727
-0.06267603
-0.01942821
-0.01973440
-0.04934572
-0.07898287
-0.02548357
0.08109322
-0.02013610
-0.05577815
-0.06388815
-0.02217402
-0.00425717
0.04189137
0.00657640
0.00480846
-0.01612534
0.03884994
0.03134947
-0.00883470
0.05148180
0.01958065
-0.02616553
-0.09412821
0.00813268
0.01817980
-0.01770308
-0.01049530
-0.05705919
-0.02101130
0.01018063
-0.07169304
-0.03166510
-0.02552451
-0.01483440
-0.05447152
-0.05567188
-0.01637380
0.07596210
0.06849133
-0.03738666
0.04411095
-0.05357281
-0.05341118
-0.05274691
-0.02751826
0.15478235
-0.00471148
0.03410213
0.08139469
0.00781819
-0.01662173
-0.06020418
0.02193397
0.00819050
-0.04425912
-0.05721667
-0.02147812
-0.00429607
-0.04976566
0.00005118
0.00881447
-0.06824833
0.04078244
0.04819480
-0.02345587
0.01709994
0.00907365
0.07600360
-0.02728372
-0.07587390
0.01102082
0.00952483
-0.00704222
0.04354928
-0.06459333
0.02027187
0.05005300
0.05858526
0.02615621
-0.00009761
-0.00988153
-0.00298178
-0.00670796
-0.01319023
0.03826885
0.05834858
0.07483964
-0.00739020
0.01362537
0.01221268
0.04205614
0.02287148
-0.03828171
0.09421078
0.01711306
0.01716890
0.04804339
-0.05921056
-0.03950125
0.01211655
-0.06702171
-0.02421981
-0.02562969
0.02722407
-0.00786064
-0.00947617
-0.00804830
-0.02171149
-0.03344341
-0.07929920
0.03416999
0.06985518
-0.01841921
-0.06415243
0.03350496
0.01735206
0.01879672
0.04804148
0.00174730
0.03378605
-0.00154043
0.05667753
-0.04337902
0.06134782
-0.07890106
0.05000756
0.03002499
-0.00933856
0.03755079
-0.01348679
-0.03259692
0.00577842
0.08418386
-0.00590847
-0.07907738
-0.01709620
0.02375002
0.04556127
0.03451598
0.09159245
0.00704878
-0.01603358
0.02276434
-0.04385104
0.04226077
0.03927680
0.00718740
-0.03867900
-0.10040656
-0.08544495
-0.09673600
-0.02019051
-0.04884535
-0.06724972
-0.10143536
0.01896879
0.01931663
-0.04274551
-0.08320902
-0.00489970
-0.06964500
-0.07894753
-0.04477835
0.01117704
-0.01050888
0.00269628
0.03467880
-0.01082663
-0.05479140
-0.09938525
-0.01836822
0.01200315
-0.01295385
0.01281542
-0.02272531
-0.04408875
0.00864791
-0.00987254
0.00689419
-0.00743154
0.07382007
0.00658368
0.04486911
-0.07977998
-0.01269875
0.01624099
-0.01914357
-0.04776828
0.00943846
0.00526442
0.05320591
-0.02620849
0.02982601
0.01366166
-0.03552355
-0.05153304
-0.05519111
-0.02745154
0.00781457
0.02864398
-0.02522863
-0.10603055
-0.07675048
-0.02172479
0.01231276
-0.01085717
-0.00008703
-0.02277377
0.00811578
0.03218739
-0.02108398
-0.10482201
0.03942593
-0.09216856
-0.05852877
0.06295232
-0.02305513
-0.00974181
0.01448687
-0.17689331
-0.01714108
-0.02653590
-0.00820644
0.03899072
0.04984641
-0.00573583
-0.01134154
-0.02360120
-0.00408097
-0.02555534
-0.01189328
-0.03951218
0.04708849
-0.08131748
-0.01481811
-0.02319220
-0.03169576
-0.03136360
-0.03690720
-0.10059574
0.06900692
-0.00068876
-0.04585173
0.07090580
0.01460925
0.02347457
-0.04360826
-0.05397081
-0.04756862
0.00916774
0.03413180
0.08940715
-0.13846314
-0.08519623
-0.06000155
0.09571431
0.04216589
-0.10123309
-0.05022227
0.13284604
-0.03274072
-0.01355638
-0.03279607
-0.00687093
0.03571068
-0.01378895
0.00817863
0.02869956
-0.03002870
-0.05379109
-0.02114524
0.03470534
-0.01500516
-0.01897368
-0.03019347
-0.02709399
-0.02502683
0.10983630
-0.04925776
0.03261003
-0.09204283
0.04360669
-0.03501660
0.01296246
-0.07359557
-0.01575284
0.00195148
-0.02045385
-0.02950346
-0.04394607
-0.15542127
0.04901903
-0.01471657
0.00848663
-0.03026316
0.05446309
0.06819998
-0.05059947
-0.00565691
0.01756706
-0.03874811
0.05308771
-0.00378006
-0.02429019
0.04339212
0.04188095
0.04663306
0.00138044
0.01538358
-0.03789438
-0.02598593
0.00635150
-0.01818693
-0.06347997
0.00330944
-0.00716672
-0.03761142
-0.02316080
-0.02096923
0.03273104
-0.13755025
-0.07472304
-0.08259330
-0.04164921
0.07261456
-0.00164449
-0.08074106
-0.06055398
0.01974685
0.03557492
-0.12447261
-0.00284479
0.08646274
-0.01404737
0.07792924
-0.02099019
0.03980199
0.09840401
0.00090681
-0.04042742
0.01321905
0.00043670
0.00458936
-0.01455487
0.02540698
-0.03647068
-0.01206975
0.02715047
-0.02700473
0.01579119
-0.04082757
0.01166176
0.01285126
-0.06652962
0.07688782
0.03224255
0.00509730
-0.03040090
0.02738535
-0.00535154
0.03159326
-0.00275022
0.01490048
0.01925886
-0.01700094
0.03961393
-0.02522499
-0.03510350
-0.03292178
-0.01190404
0.05087753
-0.00718399
-0.03941428
-0.02379251
-0.00095121
0.00099124
-0.04729261
-0.00118765
0.03978884
-0.00315455
0.04383672
0.00562307
0.02745562
-0.03467729
-0.01387599
-0.01862884
0.00782402
0.06239399
0.00049317
0.06374738
0.00945920
0.02920260
0.00167251
0.02763791
0.03552542
-0.00101534
-0.00433960
0.04699598
-0.03331264
0.00120911
0.00611180
-0.02669309
-0.04757910
-0.04726293
-0.00250846
-0.01702693
-0.01015947
-0.02671487
-0.02606575
-0.02489863
-0.01404921
-0.00654822
-0.02549749
0.01517002
-0.00708697
-0.01737936
0.03368978
0.03958281
0.00513501
0.00663663
-0.00754780
-0.04353456
0.00644290
0.00796821
0.01004544
0.01125824
-0.03869492
0.05044037
0.00496502
-0.04060629
-0.00846518
0.01297639
-0.01478198
-0.01471381
0.00965873
0.00818098
-0.06012918
0.00994013
-0.04253153
0.00045759
0.01419445
0.02738129
0.01865980
0.04429716
-0.02615446
-0.01261192
0.00051899
0.00470744
0.01422314
0.04266756
0.00040057
0.03395433
-0.05407873
0.07126711
0.02364829
0.02356159
0.00516383
-0.00772439
-0.02349914
0.04589222
-0.06953592
-0.01246431
-0.00756136
-0.01411365
-0.02063822
-0.02326857
0.01142965
0.01802292
0.05054804
-0.00889823
-0.04135473
0.02376210
-0.03104152
-0.02137086
-0.07206456
-0.01327855
-0.04540079
-0.01195863
-0.00975116
0.02740600
0.01176021
-0.01745387
0.04856787
0.01028758
-0.06673066
0.00444382
-0.00803178
-0.00861870
0.00732382
-0.05285417
-0.03886790
0.02177817
-0.00220906
0.01506269
-0.02848670
-0.02814018
0.02057912
0.02522876
-0.01045139
-0.01113970
0.00911350
-0.02956533
0.02512501
0.03222460
0.00137338
0.03198552
-0.03303110
-0.02090943
-0.04040561
-0.04510521
-0.02225212
-0.00315171
-0.00807111
-0.02601461
-0.03863528
-0.05915356
0.01289119
0.02854324
0.01739851
-0.00154458
0.03432010
0.00495603
-0.00368032
-0.02139620
0.02536672
0.01632603
0.00986192
0.02302292
0.00907433
-0.00482872
0.01822914
0.00579472
-0.03316085
0.00648201
0.02352622
-0.00173450
0.02239982
-0.00885709
0.04651994
-0.00918264
-0.05173789
-0.02098160
-0.03044117
0.05826601
0.03342918
-0.03214725
-0.07389949
0.01588272
-0.01519887
-0.03912884
-0.00525217
0.03776715
0.00483780
0.00277935
0.09126202
-0.06662034
-0.09950152
-0.01874588
0.03820447
0.03400299
-0.05091980
-0.01322886
0.04234073
0.08092507
0.01137297
-0.06244011
-0.02653497
0.06478925
-0.01739738
-0.01688800
-0.05229877
-0.03683256
-0.13344230
-0.00037232
0.01165164
-0.04774334
0.04064763
0.01312903
-0.04263155
-0.06310773
-0.04029783
-0.06209223
0.04521737
-0.04005753
0.04537603
-0.05114501
-0.02797984
-0.04376776
0.04407050
-0.01493137
0.02812041
0.01751503
0.02808240
-0.01028238
0.02675634
0.03957994
0.01507017
-0.00920086
-0.05216068
-0.03163302
-0.01931517
-0.00324413
0.04463005
-0.02672069
-0.01910105
-0.06347561
0.03803444
0.01970545
-0.02141114
-0.03026178
-0.05322791
-0.02252213
-0.09657709
0.00199799
-0.03484899
0.03830459
0.05525796
0.01623274
0.02495726
0.02661206
-0.05141887
-0.00696289
-0.05685546
-0.11124300
0.02301628
0.04359396
-0.02384237
0.05442679
-0.01280007
-0.01603479
-0.01183876
0.00293228
-0.10417908
-0.01750804
-0.04981412
0.02264394
0.04340719
-0.00375673
0.01500122
-0.03691257
-0.06613274
-0.03222623
-0.02668049
-0.01480228
-0.01704953
0.01320201
-0.06863283
-0.02254136
0.03365222
0.03080369
-0.02728757
-0.01784583
-0.04700646
-0.07288925
-0.00732854
-0.00224032
-0.03767085
-0.13061599
-0.03863014
-0.01409208
-0.05368103
-0.04389614
-0.02227079
-0.00514455
-0.00140917
0.00197516
0.05016595
0.08491163
-0.02375861
0.00894595
-0.03976389
0.01243252
0.06884582
0.04087933
-0.01934473
-0.02308119
-0.00132952
0.00838437
-0.01935707
0.01686087
0.01123628
0.04191131
0.06323856
0.00016463
0.04426043
0.00689598
-0.05404613
-0.05802571
0.09015860
-0.05399958
-0.05630733
-0.18644927
-0.06275790
-0.06856798
-0.07604748
0.05231076
-0.06102938
-0.03800656
0.00910271
-0.00320475
0.04166794
-0.04686717
-0.04749347
0.02604821
-0.00093948
-0.04561701
-0.06411905
-0.01342564
-0.04250669
0.00685885
-0.06145625
-0.03982723
0.03115193
-0.02182409
-0.03064840
-0.02451180
-0.03116660
0.01147950
-0.03243945
-0.05203434
-0.01291605
-0.00250392
-0.06430719
-0.03143628
0.00458778
-0.04419483
-0.04698564
-0.03328216
-0.07307658
0.00637450
0.02443346
0.00806395
0.04777323
-0.02015252
0.04319227
-0.04179056
-0.11300057
0.03950304
-0.04271100
-0.03687828
-0.04693384
-0.03621732
-0.03570340
-0.03585204
-0.04309001
-0.02224737
-0.00440490
-0.03977680
-0.00502974
-0.00533478
0.00725416
0.02267765
0.03514409
-0.01212126
0.00270546
0.18126701
0.00584756
-0.00507810
-0.06708269
-0.06143932
-0.03343650
0.03507314
-0.02214378
-0.03578846
-0.02230669
0.00797109
0.00304967
-0.06862757
0.06555773
-0.00705807
-0.04889609
0.03961345
-0.03074957
0.04701804
0.02290968
-0.00053680
-0.00986331
-0.07297290
-0.02882087
-0.00964956
-0.01086720
0.02807046
-0.06054409
0.01529813
0.06827167
0.00491581
-0.00014077
0.02898517
-0.02542980
-0.01894643
0.04198626
-0.00475051
0.00217807
-0.00264227
-0.06017289
-0.05135624
0.00845477
0.01700354
0.00843680
0.00150566
-0.03374862
0.00476922
-0.03693569
0.01650819
0.01338928
0.01173124
-0.02767417
-0.02127439
0.01756131
-0.01912308
-0.01646489
-0.00763546
0.02919948
0.00482943
-0.03510814
0.00261993
-0.00404163
-0.03523628
0.00649349
-0.00633811
-0.01311003
-0.00264503
-0.00074767
0.04558815
-0.00752147
0.00592652
0.00399493
-0.05918313
-0.06087662
0.00694817
-0.01393386
-0.06452210
0.08025886
-0.01922918
-0.05443200
0.01048567
0.00279416
-0.04137403
0.04955252
0.08315546
-0.00610458
-0.02976738
0.00505084
-0.01896740
-0.03642296
0.05467189
0.10524128
-0.02670869
-0.05094447
0.02298717
0.06502263
0.00456506
-0.06381290
-0.02655612
0.04025409
-0.04952675
-0.04626322
0.01611825
-0.05054262
-0.02706051
0.00216108
-0.02428348
0.02899289
0.01366888
0.00476003
-0.04576237
-0.03979501
-0.06615447
0.06413162
-0.00161501
-0.01079261
-0.02041564
-0.02788831
-0.00444316
-0.00519441
0.00379783
-0.06254244
-0.01862836
-0.02736574
-0.01138590
-0.03310404
0.02738356
0.00589562
-0.00104242
0.01842936
-0.03149253
0.01944892
-0.04555574
-0.02177497
0.02435832
-0.02694538
0.05394573
-0.04283118
-0.06402877
-0.03690929
0.00782086
-0.04944296
0.05730530
-0.03335449
0.02237688
0.02529573
-0.00959305
0.09559397
-0.02492771
-0.03563971
-0.04023456
0.00466263
0.04255511
-0.00011630
0.07651789
-0.00344947
-0.03286954
-0.00893227
0.09500208
0.01290850
-0.09352761
-0.04474499
0.02724692
0.05067749
-0.03917990
0.02072625
0.09400396
0.00314171
0.06298538
0.00797164
-0.06559241
-0.02072853
-0.00460681
-0.03603598
-0.06252682
-0.02262681
0.03627962
0.01673893
-0.05242302
-0.08033465
-0.03128484
0.10362778
-0.02178588
-0.05456113
0.03708942
0.03226987
-0.02593573
0.04747511
-0.08931389
0.12146414
0.03795599
-0.04204040
0.04743334
-0.03390941
-0.01668828
0.03570488
0.02174282
0.00489674
-0.01377879
0.07733781
0.00658462
-0.01140500
-0.01650175
-0.01629187
-0.02870022
-0.08431280
0.03367944
0.00959904
0.04530051
-0.01779234
0.02256825
-0.04857117
0.03520359
0.00785376
-0.06808843
-0.03208502
0.02044694
0.00282752
-0.00518616
0.02370061
-0.00311384
0.01986917
-0.03894710
0.03335574
0.08098015
-0.11353096
0.00792875
-0.06486346
-0.02923842
-0.01297318
-0.01368451
-0.01273920
-0.03973395
0.02453266
0.01027354
-0.01285716
-0.02473097
-0.02016398
-0.13224736
0.02690342
0.08038410
-0.05905900
-0.04775779
-0.01787096
0.06233320
-0.02530797
-0.00770822
-0.06286062
-0.06373103
-0.04683844
-0.05050477
-0.04404277
-0.00383513
0.01231083
-0.00503212
0.06086517
0.06988504
-0.04181099
-0.06789227
-0.00937526
-0.03277005
-0.02586463
0.04406065
0.05027924
-0.00720221
0.07723912
-0.03898638
-0.05680302
0.11913459
0.01770396
0.05253601
-0.04242539
-0.06183464
-0.02719485
0.05385042
-0.02088167
-0.03030332
0.00256884
-0.03882974
0.05145799
-0.01876532
-0.03853739
-0.00322311
0.00329541
0.04036042
-0.03128091
-0.04164376
-0.01774648
-0.08668773
-0.08146292
0.03726515
-0.02500765
-0.03519562
-0.06296523
0.03804511
-0.05767272
-0.06892591
-0.04547198
0.00566970
-0.03963432
-0.04768152
0.02498214
0.01068015
-0.01102294
0.03819280
-0.02575778
0.00658846
-0.02320241
-0.06606268
-0.00026744
0.04045381
0.02199849
-0.00409142
0.00956639
0.03595438
-0.01947928
0.00080565
-0.00075681
0.06883136
-0.00966580
-0.00997748
0.02101425
-0.02215472
-0.04808822
-0.09724049
-0.05029037
-0.03139131
0.02810249
-0.04701793
-0.00909740
0.03774386
-0.02866851
-0.00022389
0.06566015
-0.01198494
0.01579086
-0.00764798
-0.04504296
-0.09732972
0.02674191
-0.00893753
-0.03256079
-0.00378006
-0.02728513
-0.01469870
0.02757067
-0.01278605
0.00220904
0.00951615
0.00462748
-0.10178199
0.05967602
-0.02537074
-0.02956635
-0.07100901
0.08020197
-0.00940256
-0.01242129
-0.06557158
0.04205858
0.02145122
-0.05563283
0.00884654
0.10116901
0.08049317
0.02768281
0.00902610
-0.03214643
-0.05606245
0.00496533
0.05682242
-0.01789474
-0.02590751
-0.01050771
0.02216257
0.00392142
0.00417806
-0.00906859
0.02458057
0.03054324
-0.01118846
0.04067552
-0.02831354
-0.06574122
0.04645197
0.00327836
-0.06002720
0.01801283
0.06509622
-0.03063297
-0.08478826
0.00553999
-0.06762532
0.00997426
0.02723069
0.01183832
0.02084180
0.04184746
-0.00884331
-0.08044606
0.07906930
-0.01409726
0.01143098
0.00775109
-0.04043230
-0.01482136
-0.01388251
-0.03253503
-0.02409030
-0.02226270
-0.02990356
0.03418949
0.00546511
0.03934815
-0.02709356
0.01294996
0.07903560
0.06528024
0.00242257
-0.02142236
-0.03929306
0.02747753
-0.01591117
-0.02169328
0.04360019
-0.01626062
-0.00254359
-0.02101304
-0.03339573
-0.00027575
-0.06080176
0.01628485
-0.04183633
-0.07073685
0.07672302
0.00749277
0.01508447
0.00428508
0.01592575
-0.01480826
0.04545171
0.02221121
-0.05269189
-0.02949176
0.01682160
0.07553069
0.01880143
-0.03223934
0.00784023
-0.05998939
-0.00631967
0.01428312
-0.01595708
-0.00832925
0.02171704
0.03869267
0.04607495
-0.00881141
0.01814462
-0.01279522
0.02823266
-0.04440425
0.03675840
0.02380879
-0.02923245
-0.04615196
-0.01285738
0.01310252
-0.07624359
0.04981626
-0.00533136
-0.00162936
0.09462319
-0.04810685
0.01967260
0.02775165
0.00180015
-0.02421907
-0.02314317
-0.05479215
-0.04666105
0.07362082
-0.03685610
-0.02635699
-0.01789362
-0.02546070
-0.02859598
0.00572471
0.04045713
0.00132559
-0.06902535
-0.01642412
-0.02577972
0.01792532
-0.06023333
0.02815931
0.08682212
-0.07171552
-0.01811700
0.00214801
-0.06709330
-0.00361887
0.00764351
-0.01781180
-0.01135311
0.02923015
0.02365602
-0.02706376
-0.00376901
0.01567196
-0.02190072
0.03663311
-0.01085663
0.00060290
-0.02831391
0.03405413
0.02240948
0.02798451
-0.09944304
-0.02109372
-0.06713324
-0.00325695
0.04203141
0.03916029
-0.02527025
0.00797978
-0.00707033
0.02565752
0.00427379
0.05854320
0.04609163
-0.06316669
0.00551843
0.00364819
-0.00430068
0.01617414
0.12949489
-0.01243949
-0.05717825
0.01012180
0.03376758
-0.01713076
-0.10174404
0.00661406
0.00880285
0.02592428
-0.03059969
-0.01797973
-0.07139935
-0.03126418
0.10613300
-0.05000627
-0.02354448
0.09260721
-0.10599948
-0.00633343
-0.02744314
0.02627099
-0.04769356
-0.04755826
0.07504043
0.11326601
-0.04430531
0.04870211
0.00898342
0.10296023
0.01245673
-0.06025588
-0.10871252
-0.10293335
0.05649485
-0.01547677
0.00798278
-0.07428624
-0.04378817
-0.01687191
0.04617233
-0.06828462
-0.01000922
0.01296027
-0.06274442
0.03399389
0.01339341
-0.04418057
-0.03793642
0.07110511
-0.02277748
-0.06231493
-0.03649004
-0.03767892
0.01828032
-0.05793153
-0.10172422
0.01135733
-0.06924796
-0.03148727
-0.06770878
-0.07508990
-0.01212339
-0.06987687
0.00038538
0.00060838
-0.00681694
0.08606451
-0.07120582
-0.00788357
-0.00593588
-0.00670849
0.01726913
0.01793730
-0.01014633
-0.01036405
0.03071198
-0.01766016
-0.03670321
0.03916213
-0.00617085
-0.05792690
-0.08436242
-0.07551623
-0.07835363
-0.00851426
-0.01912762
-0.05039727
-0.03730486
0.01226842
-0.05887219
-0.04457516
-0.03799440
-0.04883642
-0.03407575
-0.03006411
0.09745434
0.00350135
-0.10849182
0.04243878
-0.02545864
-0.02040012
0.02273562
-0.03238505
0.01531216
-0.03059104
0.05483297
-0.03055237
-0.04050067
-0.05773497
0.01714374
0.00956414
0.05187476
0.04228909
-0.07601748
-0.00307138
0.02506650
0.00573103
0.01822911
0.02224522
-0.04784094
0.01667961
0.01903335
-0.06628938
-0.07063472
0.04428053
0.01072437
0.07859284
-0.01705761
0.01999921
0.01675797
0.02667571
0.01719111
0.00911135
-0.03836030
0.00797634
-0.04193298
-0.01931705
0.03250952
-0.01727804
-0.04235209
0.01629616
-0.03538297
-0.05833533
-0.01776159
-0.04706831
0.05550354
-0.01875680
0.07240850
0.05408094
0.02555315
-0.02636360
0.03459324
0.03949296
-0.07284392
-0.05186675
0.00189230
0.06822734
-0.00379779
-0.06559272
0.00646778
0.01364459
-0.06907743
0.02675359
-0.04843552
0.07618242
-0.00025177
-0.09841257
0.00878079
0.03413662
-0.05990744
0.04650699
-0.04041875
-0.01831695
-0.02400577
-0.02526638
-0.02398983
-0.00084640
-0.04063964
0.06017744
0.03984640
0.03224023
-0.01698050
-0.05945542
0.04202158
0.02927189
-0.06106776
0.01506064
0.04426730
-0.11483130
-0.00235723
-0.04707525
0.06997352
0.08350749
-0.02103586
0.03318506
-0.05417415
0.00173609
0.02798438
0.03337683
0.00354298
-0.03268259
-0.00979373
-0.02768644
-0.06806578
0.03005808
0.05317728
-0.00469913
0.03902994
-0.02969984
-0.00465577
0.00811937
-0.02119821
-0.04059489
-0.09961861
0.00244052
0.05592612
0.04500115
-0.02139047
-0.04181214
0.01807668
-0.03376656
-0.02050226
0.03920923
-0.01616992
-0.02537831
0.00832316
-0.01291504
-0.07431415
-0.02300545
0.09221148
-0.01913787
0.07272366
-0.01671249
-0.00496961
-0.02884109
0.06308727
-0.04807824
-0.04764293
-0.08058817
0.01819176
-0.08642655
-0.04544789
0.01753001
-0.06016980
-0.03216133
0.04164093
-0.05112138
-0.01860987
-0.02401569
-0.02366288
0.01405214
-0.02479802
-0.11583209
0.04297968
-0.04409168
-0.02702253
0.03057090
0.04626244
-0.01926493
0.03471122
0.01025389
0.06975330
0.01688637
-0.00233149
-0.07461797
-0.00663046
0.00988605
0.02135768
0.02336958
-0.03718040
0.00713725
-0.01670355
0.00649323
-0.01646141
-0.01756858
-0.03570139
0.06637192
-0.03477433
0.10777242
0.02766277
-0.01652749
-0.00828090
-0.01451687
-0.03210023
0.01576545
-0.02234483
-0.01117327
0.06985222
0.04885377
0.03115979
-0.01991697
0.00822123
-0.00618303
-0.05600695
-0.01459010
-0.03330378
-0.00060945
-0.03931282
-0.00453747
-0.00843787
-0.00366497
-0.00956432
0.04632400
0.06911912
-0.02717587
0.02685110
0.02598079
0.00219488
-0.03776516
-0.02508791
0.03195775
-0.06236373
-0.01705932
0.00010092
0.03534473
-0.05480478
0.10948545
0.00365786
-0.04086578
0.00155040
-0.02608159
-0.03372878
-0.07933138
-0.00270460
-0.01527959
0.02647398
-0.04211368
0.02709376
0.01979834
0.01496465
-0.10046104
0.02471796
-0.00172461
-0.00346235
0.01364956
-0.00224587
-0.05320205
0.00599016
-0.01054789
-0.05055490
-0.07083306
0.00290550
0.00516574
0.00366037
-0.01503756
0.00221004
-0.00749265
-0.00323337
0.04225149
0.09160964
-0.01933829
0.00678878
-0.01929387
-0.02728510
-0.01790025
-0.04730972
0.03447475
0.00631421
-0.06075318
0.03803996
0.03006095
-0.02520753
0.04311498
-0.03008967
0.03465708
-0.02044734
0.00225066
-0.01268728
-0.00380487
-0.01737332
-0.08008745
0.03000454
-0.03673875
-0.04345918
0.14015543
0.02784059
-0.00135251
-0.02116768
0.01134037
-0.04388218
0.08841638
0.02796386
-0.01083231
0.02346668
0.02150576
0.00753146
-0.03844588
0.02701644
0.05477303
-0.03339501
-0.02106053
-0.02871601
0.00746580
-0.00685895
-0.02674198
-0.21509139
-0.01989558
0.06771809
0.03021541
-0.10185116
0.01980020
-0.01372657
0.04882643
0.01836124
-0.00158072
0.01828206
0.01339049
0.04400294
0.04651263
-0.03113838
0.02321695
0.08921271
0.02283983
0.01580906
0.03100391
-0.02482061
-0.00234131
-0.02154301
0.00689432
-0.01167924
-0.04321349
-0.04196205
0.02306232
0.02070525
-0.01296145
0.06329860
0.00058395
0.05806825
-0.08068475
-0.01193333
0.04309291
-0.00020371
-0.05798404
-0.02061166
-0.02968010
0.00314974
0.02139801
-0.01131256
0.05342433
-0.01927691
-0.04004358
-0.02358107
-0.01558514
-0.01578501
-0.00199404
0.03144010
0.04016480
-0.02568743
-0.07790208
0.01633697
-0.04714809
-0.00737620
-0.01480387
0.01507095
0.00207087
0.00330570
0.01460364
-0.00669639
0.01004581
-0.00823486
0.05950192
-0.00436380
-0.02685967
0.04803506
-0.01802353
0.01517914
-0.00749200
-0.00999958
-0.04652409
-0.01412669
-0.02817707
0.00217356
-0.00721235
0.04867075
0.00793831
-0.02884492
0.05745799
-0.03383888
-0.04916041
0.02067919
-0.00625172
-0.01181154
0.00271252
-0.03947579
0.05972431
-0.00774005
-0.00450552
0.06014721
0.02910114
0.05724953
0.03569212
0.05467370
-0.00968308
0.01870008
-0.07743957
0.06417040
-0.02026156
-0.02005542
0.03247568
-0.00450893
0.01020086
0.00604526
-0.02211391
-0.00171367
-0.00990302
-0.02388265
-0.00867649
-0.03124453
0.00316776
-0.00846089
-0.13000640
-0.01444628
0.02385640
0.02725775
-0.00232012
-0.03196615
-0.01733711
0.01625312
0.00198679
0.02583813
-0.00210828
-0.03151643
-0.03795484
-0.01133714
0.00630010
0.05879108
0.02132479
-0.02999227
0.00930819
-0.03624920
-0.01681460
0.02989552
-0.02494798
-0.00102071
-0.06240860
0.10457760
0.07271548
0.01538760
-0.02222658
-0.00016720
-0.12238863
0.07410159
-0.00850797
0.08128761
-0.01086399
0.01031472
0.03538959
0.01946668
0.06471732
-0.09661826
-0.05379655
-0.00312050
0.01977205
0.02226881
0.00391408
0.07471869
0.02652608
0.01229195
-0.04140207
-0.00664926
0.04529784
0.00935646
-0.00533265
0.05818729
0.01453720
0.04873122
-0.04308699
0.01846722
-0.00140016
0.01212136
-0.02889311
-0.00892648
-0.05109435
-0.00001593
0.03044229
0.03853193
-0.07281781
-0.02663362
-0.02079979
0.03742095
0.21304183
-0.00223542
-0.00861162
-0.00620249
-0.03870790
-0.04794752
0.00260673
-0.00266637
-0.02889100
0.04065237
0.00463727
-0.02140655
0.03870708
-0.01216898
-0.01358839
-0.03750371
-0.02276516
-0.04360765
-0.04567650
-0.02273639
-0.04057857
0.04827138
0.04629304
0.00789955
-0.03702801
-0.00755783
-0.01613315
0.00291145
-0.04063015
0.02189944
0.01508287
0.05012001
-0.02677429
-0.02154662
-0.02773167
-0.03192659
-0.02804378
-0.01069415
0.05792640
-0.05075363
0.03249945
0.05449418
-0.00693846
-0.02647331
0.01664676
-0.09454610
-0.01496986
0.08045838
-0.01795068
-0.00704666
-0.03353301
0.00200678
-0.00089231
0.08864686
-0.03885380
0.00889913
-0.03951532
-0.02508701
-0.00361667
-0.01076362
0.02169323
-0.02450438
0.06161599
0.01855020
0.03644279
0.00340710
-0.04548732
-0.00647334
-0.00491879
-0.00744031
-0.04726261
-0.02156852
-0.00613920
0.00024059
0.05150634
-0.00077603
0.00380239
-0.06626600
0.03286158
0.02225038
0.02425122
0.02564627
0.00361868
-0.02980198
0.04337528
-0.06084215
0.01925844
0.00131235
-0.00484710
-0.01924124
0.10126335
-0.01678806
-0.01590744
-0.00989024
-0.02057835
0.01439972
0.01317522
-0.03867155
-0.05888165
-0.00835604
-0.02091973
-0.00887876
-0.01786511
0.01014606
0.00426573
0.04076421
-0.03103548
0.02029484
0.01476945
-0.04424917
0.00627472
-0.04001911
0.00824585
-0.03670693
-0.00591522
-0.00702680
-0.00274983
-0.00023852
0.01465582
0.01242281
0.04333576
0.00546184
-0.00513956
-0.02704147
0.04725622
-0.02581216
0.05683295
-0.04201749
-0.02223610
0.02900678
-0.01653770
0.00002782
0.04876054
0.06044872
-0.00623435
0.06846499
0.07863066
-0.05378692
0.01673187
0.00757800
-0.01927288
0.01120360
0.05035838
-0.05277852
0.05923050
0.01380861
0.02050840
0.00974416
0.03639838
0.03069802
-0.01712994
-0.02424204
-0.06554422
-0.05291402
-0.01298816
0.02448038
-0.05145598
0.05469169
0.00752558
0.00252012
-0.02291825
-0.03815902
0.04856096
-0.01120835
0.06081983
-0.04264514
-0.02032041
-0.02813923
-0.00643818
0.01825204
-0.01639421
0.01907101
0.04200689
-0.03550069
-0.01418581
-0.05783191
-0.02765746
-0.04590049
0.00501744
0.01803388
-0.01236155
-0.02653448
-0.02490482
-0.01236175
-0.03586683
0.01356970
0.00012220
0.01746136
-0.01191652
-0.00538523
0.01450988
-0.02707466
-0.02276522
-0.03384396
0.01637247
0.01152696
-0.00457528
-0.06814225
-0.07591905
0.01335459
-0.06247577
-0.00748880
-0.03171536
-0.00315235
0.04322089
0.01069831
-0.01597969
-0.02564750
-0.05651581
-0.08459901
0.02070806
-0.02676435
0.01057065
-0.02592824
0.08010793
-0.00656391
0.02839626
-0.00467024
-0.05089951
-0.07370383
-0.08210818
-0.05764844
-0.05247930
-0.06984853
0.02559817
-0.00467283
0.01412066
-0.04403002
-0.09086414
0.06027199
-0.06142901
0.08081038
0.00083114
-0.01610381
0.00923289
-0.06380065
0.11925607
-0.00082217
-0.00065443
-0.05281337
-0.01951516
-0.16847658
0.03165438
-0.13541646
-0.00558820
0.03420867
-0.09544369
0.00797263
0.04825177
-0.00270587
-0.06056078
-0.05786918
0.01024221
-0.07180364
0.03512936
0.04591910
-0.03951187
-0.05101826
-0.01166477
0.09245624
-0.01550098
0.01305833
-0.07443911
0.19538689
0.00216098
0.06908503
0.05600555
-0.12183298
0.01566008
-0.04707413
-0.01169120
0.02833364
-0.04127107
-0.00349875
0.05046251
-0.06400052
-0.01283470
-0.04576674
-0.08853885
-0.09215142
0.03364133
0.07178415
-0.01092758
-0.01325216
0.02080483
0.01452892
0.00706609
0.01371538
-0.02075566
-0.06941361
-0.06356339
-0.06938359
0.02277308
-0.04502228
0.08385651
0.00908115
-0.00617248
0.04850066
-0.03548745
0.01692266
-0.05806595
-0.02259879
0.00393697
-0.04976169
0.02859614
-0.03652644
-0.03522966
-0.01703922
-0.06164107
0.02520309
0.01641812
0.11037790
-0.00678851
-0.01403369
-0.06463016
-0.06928088
-0.00815408
0.02477804
-0.06607147
-0.03110300
-0.04627283
-0.08542708
-0.02013021
-0.07109618
-0.13817336
-0.00376097
-0.09316684
0.01760356
-0.03368279
-0.04527094
0.00833610
0.00479120
-0.06830537
-0.05794875
-0.03766743
-0.02988660
0.00127347
-0.10421395
0.02252545
0.07795627
-0.00906811
-0.01726345
0.00858610
-0.08550031
-0.01897099
0.03850974
-0.02515031
-0.00187782
-0.04239859
-0.01140438
-0.05411179
0.03114055
0.06965691
0.04095931
-0.01130002
-0.01462184
-0.00117874
-0.02458286
0.02462962
0.02498643
-0.03231673
-0.03523840
-0.04302884
-0.00797578
0.14260295
-0.00220143
-0.04637673
-0.05430617
-0.05625307
-0.01863129
-0.00798689
0.02259432
-0.16854869
0.02868170
-0.09358181
-0.00285695
-0.01232883
-0.04469559
0.06549346
-0.02591253
-0.04824277
0.01891529
-0.11442313
-0.05570769
-0.02975654
-0.04744238
-0.06175165
-0.10545097
-0.02069672
0.03716873
-0.10343491
-0.00670072
0.03070237
-0.07565027
0.06432877
0.00725770
0.08542776
-0.05533415
0.05873727
0.01668812
0.05849122
0.06139921
0.06027950
-0.01140447
0.03418731
-0.02936775
-0.05564187
-0.05165869
0.09370328
-0.00474508
-0.01803091
-0.03811524
-0.02297001
0.02802887
-0.02490566
0.00357014
0.08279941
0.00154675
0.02143179
-0.01115517
0.00576681
0.00425020
0.03910485
0.06798442
-0.09875609
-0.07941011
0.06955314
-0.01314245
0.01253894
0.01790193
-0.04268923
-0.12456481
0.03128108
-0.00988093
-0.01446452
-0.09677390
0.02855377
0.00456994
-0.02466697
0.02502502
-0.01328176
-0.03741510
-0.02381701
0.01872887
-0.01650608
-0.01879991
-0.01492046
-0.00243121
0.10419204
-0.01847179
-0.06520158
0.00350113
-0.00005449
-0.05457695
-0.02504179
-0.03596674
0.02202708
0.04965538
0.02950416
-0.08194114
-0.04321103
-0.04472489
-0.07044327
0.04029382
0.02483480
-0.05481709
0.05415118
0.01734398
-0.04987129
-0.05021880
-0.03140028
0.05463005
-0.02404274
-0.00275191
-0.04098995
0.07208534
0.00603914
0.01492717
-0.06177690
-0.00209708
0.01590474
-0.08459826
0.05059662
0.00654076
-0.04565369
-0.02972764
0.04548533
-0.01457774
-0.06481881
-0.02994852
-0.02088557
0.00387304
-0.03323058
0.00311943
0.01222153
0.00436323
0.00425948
-0.04226365
0.00047505
-0.02567884
0.02931084
-0.02598318
-0.02425835
0.00660362
-0.03185880
-0.03153329
-0.02828887
-0.02767990
0.10532039
0.05130592
-0.00345997
0.00217164
-0.01601192
0.04787842
-0.05887947
0.00304240
-0.00036926
-0.03131520
0.03665216
-0.03472228
-0.05187914
-0.03608983
0.05763972
-0.03101433
-0.01335792
0.00412936
0.10366636
0.00566045
-0.02873481
0.02406823
-0.00125790
0.00733296
-0.00144065
0.00479288
-0.06228804
0.05197945
0.07418039
0.04441154
-0.01095383
-0.00857903
-0.02770765
-0.07730222
-0.01622784
-0.05357360
0.00748498
0.03613923
0.00315183
-0.01494329
-0.01291651
0.04611553
0.02825643
0.01232125
-0.05640525
0.03724861
0.00274193
-0.01461405
0.00685953
-0.01099274
0.10532219
-0.04111832
0.02463742
0.04106726
-0.00386202
0.03729581
-0.09038929
-0.01090844
-0.03463674
-0.01853966
0.00735206
-0.05172793
-0.08881125
0.00828615
0.01059268
-0.01895953
-0.05579636
-0.02671668
-0.00249371
0.02968664
-0.02473198
-0.00207838
0.04508356
0.01036078
0.00311107
-0.05470883
-0.03601922
-0.07095283
0.05072571
-0.03567480
-0.00622459
-0.04937926
-0.03787819
-0.01903268
0.02969044
0.04234657
-0.11501950
0.01336718
-0.05752779
-0.01605022
0.00514439
0.07605646
-0.02337269
-0.00974379
-0.04911754
-0.05615408
-0.11519511
0.00077909
-0.01587477
0.04684035
-0.01068229
-0.07279963
-0.04098921
-0.01180456
0.03284282
-0.00735579
-0.07202520
0.00431681
-0.07428012
-0.01662033
-0.03218488
-0.03285554
0.03915798
0.03113459
0.02880447
0.02658472
-0.00999105
0.00724061
-0.03529961
-0.02239833
0.02210297
-0.05133572
0.02265437
-0.01275207
-0.04559738
-0.00592899
-0.01919851
0.02919623
-0.01601278
0.05660745
0.03207599
0.04485615
0.01317420
0.03752436
-0.02409602
-0.02629682
-0.01288308
-0.04834463
0.04540039
0.00395011
0.00050159
-0.00250688
-0.06854446
0.03003316
0.00635332
-0.16292046
0.00946775
0.01202669
-0.03001591
-0.04469281
-0.02430400
-0.02807980
0.00447970
0.00013170
-0.09155600
0.01941315
0.04878819
-0.00751496
0.01663250
0.01154463
-0.00518457
-0.06848246
0.01384477
-0.03008324
-0.06242138
0.00937810
-0.01035191
0.00568875
-0.02007070
-0.03083850
0.02209312
-0.01389646
-0.07509577
-0.06102387
0.04019620
-0.00159209
-0.02890488
-0.01724535
0.02432828
0.03291360
-0.03271559
-0.02522344
0.00072435
-0.02170592
0.01425690
-0.01221315
0.00141335
0.01785753
0.03726391
0.02698498
0.07741570
0.02240131
-0.04194184
-0.04020823
-0.02474822
-0.03496342
0.04784101
-0.05874152
0.00053760
0.02447266
-0.01049039
-0.04174222
-0.00606403
-0.06560838
-0.03649638
-0.00085556
-0.04242579
0.01989892
0.08520646
-0.01579250
0.00901604
-0.04218372
0.02216459
-0.00085659
-0.00589161
0.05043473
0.04867124
-0.05736336
0.00897685
0.00969081
-0.01528313
-0.04607170
-0.00570834
-0.02351790
0.03637480
-0.06106789
-0.04307099
0.00323153
-0.06934679
0.01031133
0.01724428
-0.04577476
0.00984753
0.00396764
-0.04914407
-0.00468831
-0.00014885
0.00349172
-0.02268473
0.01076293
-0.03591084
-0.03638101
0.00259924
0.01688650
-0.01169914
0.02750693
0.04703224
-0.02404074
0.01923257
-0.03689959
0.01907545
0.04391698
-0.05522562
0.01298861
0.02203149
-0.01465377
0.02701390
0.01442334
0.02811883
0.01429019
-0.01806023
0.02499986
0.01293460
-0.00132402
-0.02962130
0.01983920
0.02213650
0.00697864
0.01422410
-0.01852572
0.01095115
0.04658307
0.02539872
-0.08900037
-0.01378367
0.00556282
0.04520290
-0.05878112
0.01236268
-0.01350139
-0.02338148
-0.01761688
-0.02310891
-0.02686973
-0.04070100
-0.02124627
-0.03224720
0.00208095
-0.03097354
-0.04684494
-0.05428374
-0.04426894
0.02537589
-0.00434115
0.05896093
0.00517769
0.01370658
-0.01618504
-0.03308364
-0.01408098
-0.05226242
-0.04487503
0.00175045
0.04416092
0.00878394
0.02638926
-0.01680576
-0.00978756
-0.08279099
0.04171474
0.00370859
-0.00522468
-0.04386432
-0.05121473
-0.02549784
0.02084247
0.02369740
-0.02435861
0.02979966
-0.03669078
0.01287653
0.00795990
0.06106015
-0.00310910
0.00118541
-0.06206729
-0.04453986
0.00438766
0.02642760
-0.01126713
0.04382069
0.04603625
0.02070634
-0.00929326
-0.03942639
-0.03044355
0.02852968
0.00505527
-0.03826225
0.06044263
-0.02467598
-0.04120550
-0.03889350
-0.00379225
0.00430809
-0.04940020
-0.08047110
-0.00752864
0.05126946
-0.00586829
0.02203359
-0.04492759
-0.06542664
0.04817145
-0.01203514
-0.04147240
-0.02719108
0.00599977
-0.03913656
0.00331996
-0.05678733
-0.02049288
0.00046754
-0.00854528
0.02520743
0.04161714
-0.02174355
-0.03265117
-0.01902609
-0.00850638
-0.03711042
-0.02404609
-0.02770989
-0.02708556
-0.02559281
-0.05023269
0.04099948
-0.00512864
0.05011835
-0.00210761
-0.03213816
0.00173257
-0.00793200
0.07043558
0.00724640
-0.03905351
-0.01634258
0.07431185
-0.01733368
-0.01360575
0.01031763
0.02372667
-0.01088591
-0.00608012
-0.02113377
-0.03140549
-0.05653336
0.03869266
0.02415961
-0.00149021
0.00320484
0.03496350
-0.01034116
0.01374477
-0.00117892
-0.01186774
-0.02770724
0.04164208
0.03286530
0.02696258
0.02096967
-0.00528334
-0.00441231
-0.02768868
-0.08425552
-0.05339134
-0.01788640
-0.02934227
-0.00276624
0.02275506
-0.00272411
-0.00716280
-0.01867069
-0.03529211
-0.07567798
-0.03599005
-0.11189929
-0.00494626
-0.01077347
-0.02088336
-0.01119941
-0.07400186
-0.05513380
0.02442181
-0.02266534
-0.00230078
-0.01429660
0.01367049
-0.00138509
-0.05052518
-0.03482982
0.04134244
-0.03107788
-0.01345915
-0.00976927
-0.03144487
0.00489119
-0.00366530
-0.02760138
-0.05290659
-0.07531611
-0.08228738
0.02998489
-0.01104020
0.00600083
-0.03281737
-0.01429268
-0.01881852
0.02397804
-0.05302710
0.05091400
0.05475410
-0.08170249
0.01207972
0.01877541
-0.03377501
-0.02963782
-0.02721863
-0.03815160
0.01468293
0.01914186
0.04266272
0.03526191
0.06182292
-0.00977530
0.03996861
0.03424459
0.04081643
-0.05977786
-0.04633291
-0.03908302
0.03418399
-0.07780045
-0.04670731
-0.01840985
-0.02970052
-0.03982736
-0.04188532
-0.05716503
0.04423444
-0.04208587
-0.01046086
-0.05685183
0.06901926
-0.02648617
-0.06369014
-0.00956581
0.00589828
0.03798234
0.04823443
-0.04789629
-0.03958521
-0.01881117
0.01033896
0.00430084
-0.02499760
0.02474538
-0.03553071
-0.05026661
-0.06068105
0.00627135
-0.02293772
0.03630296
0.00491673
-0.02922709
-0.00741675
-0.08015952
-0.01014836
-0.04670035
0.01407714
-0.02595044
0.03182375
-0.01103620
-0.03167620
-0.03383510
-0.00371436
-0.04148451
-0.02047327
-0.02761513
-0.06911524
-0.03218545
0.02673020
-0.09277489
-0.04472991
-0.02761384
-0.04652081
0.02064255
-0.03175399
-0.01246087
-0.05542897
0.11811771
0.00111354
0.02296430
-0.08761164
-0.09929223
-0.03880630
-0.03669022
-0.00205364
0.02769420
-0.02974943
-0.04958508
-0.01862234
-0.00149084
0.04548657
-0.02977027
0.01108075
0.00834165
-0.01765033
-0.06878960
0.01617606
0.02707075
-0.00643152
-0.03973864
-0.01989088
0.02214676
-0.02448165
0.01035592
-0.02942757
-0.00087817
0.01372084
-0.00547007
-0.00477474
-0.00560765
-0.07584926
-0.01955427
-0.02864051
0.00390497
0.03139646
-0.02665325
-0.09854928
-0.00226770
-0.03157054
0.00820295
-0.02722992
-0.06812147
0.04333796
-0.05722894
0.08902080
-0.01828036
-0.01492137
0.05364930
-0.04859802
-0.05661277
0.04637959
-0.03610156
-0.01594008
-0.00173953
0.01127892
0.02900090
0.04511398
-0.01224649
0.07426549
-0.02271546
-0.06599438
0.05148732
-0.05262089
0.00463908
-0.01845936
-0.00704551
0.01940981
-0.01874762
-0.05905293
-0.01140338
0.04964938
-0.09890130
-0.00086848
0.01621566
-0.02061194
-0.01772317
-0.01414957
0.02627411
-0.06589149
-0.05555726
-0.03189219
-0.05703582
0.06435164
-0.04547712
-0.04839837
0.06728668
-0.07922811
-0.11238724
-0.01453432
-0.04112354
0.02755642
-0.06137707
0.03844484
0.06008273
-0.02397022
0.05486827
0.05177534
-0.12045398
0.01685143
-0.02062931
-0.05698480
-0.05940856
0.00579138
-0.01100616
-0.02626141
-0.01945372
-0.05228082
0.00274858
0.02857538
-0.10849413
-0.02218459
-0.02904119
-0.09072801
-0.11062992
-0.00851764
-0.14195967
-0.02488913
-0.06566221
-0.07237624
-0.01791594
0.01070793
-0.00131622
-0.04989394
0.03971891
-0.01393104
0.03857113
-0.02031121
0.02322560
-0.01455429
0.03325789
-0.08934540
-0.01323319
0.00254361
-0.04595481
0.00076548
0.01821893
0.00760654
0.04951939
0.01199659
0.04906373
-0.03742814
0.04654583
0.04523152
0.04261696
-0.09377784
0.05412283
-0.05540817
0.00477270
0.02000088
-0.00123561
0.01185893
0.09917188
-0.07293937
0.00760677
-0.00292106
-0.07228852
-0.05109675
-0.00135732
-0.00693556
0.02037900
0.02352416
-0.01657778
-0.01392774
-0.05019983
-0.00536231
0.04147673
0.01549567
0.04429401
0.01926066
-0.05422744
-0.02585192
0.03466756
0.02544891
0.01610507
0.02533147
-0.03040919
0.02172280
0.11099411
0.00848767
-0.01420198
0.03379798
-0.01775249
0.00771603
0.02784655
-0.07773240
0.01302322
0.01190119
-0.02608356
-0.06216162
0.02858566
0.02646171
0.02523178
0.01800438
0.04870722
0.05709583
-0.17641519
0.05996593
0.00736333
0.11639868
-0.03095439
0.08166204
0.01096485
0.03144189
-0.02738915
-0.05743609
-0.01287947
-0.00930295
0.02566405
0.03801552
-0.01423196
-0.02190636
-0.01494270
-0.03433594
0.00013039
-0.07576217
-0.07976661
0.05297740
-0.00940472
-0.00230447
-0.04359187
0.07677886
0.03206153
0.06110389
-0.00798385
-0.01021676
0.05174746
-0.02264538
0.00846585
-0.01298192
-0.02541211
0.10920850
0.06358005
0.00376832
-0.10330831
-0.00942452
-0.05973155
-0.05530203
-0.01681720
0.06293989
0.05387396
-0.03736733
-0.02381402
0.03622001
0.01470722
0.00166550
-0.05817886
-0.01012033
-0.01749122
-0.05213236
0.00734786
-0.03528194
0.02426001
0.01957304
0.02639608
0.00869476
-0.07749303
-0.04167151
-0.03158189
-0.00376800
-0.00796541
-0.03494529
-0.06406547
-0.06133218
0.07622797
0.05837660
0.06650093
-0.02802565
-0.03871758
0.04137343
-0.06098497
-0.07854274
0.00872050
-0.05744069
0.05878899
0.01433787
-0.01846351
-0.04129142
0.06302270
-0.01583721
-0.03494134
-0.01702863
-0.09228600
0.02753394
-0.03048263
-0.07438386
0.01462861
-0.18940981
0.10176665
-0.03739756
-0.02181149
-0.02508531
-0.10101959
-0.01256792
-0.00590199
0.05378303
0.01416626
0.02980300
-0.00367469
0.06209552
0.10690844
0.01696931
-0.04945138
0.04892949
-0.06563042
-0.06528474
-0.05440997
-0.00268135
0.06209394
-0.01835010
-0.09204256
-0.06307353
-0.04746224
-0.08758554
-0.01307480
-0.08873783
-0.08991028
-0.03306908
0.14776784
-0.00885409
0.03199463
0.00485242
0.00060209
0.04833851
0.04962920
0.04443732
-0.09351659
-0.01687110
0.03915509
-0.00213356
-0.04593837
-0.01007956
-0.09945551
-0.02253661
-0.02290164
-0.06615137
0.03958445
0.03108273
0.03600404
0.00118583
-0.02880629
0.02925337
-0.03925525
0.02807775
-0.04730013
0.00378202
-0.01892480
0.01650708
0.06529576
-0.07881200
0.01638478
0.06862584
-0.05914248
-0.00932410
0.00214986
-0.06890987
0.00146807
-0.00428751
-0.07453541
-0.20466614
0.00647493
0.03266373
-0.14768356
-0.06178331
0.02793723
-0.10807416
-0.12205888
-0.06243683
0.00474648
0.02205967
0.10839882
0.00504483
0.05200401
-0.00968273
0.01647925
-0.13264130
-0.03292234
-0.06987679
0.01399432
0.00384527
0.07681445
-0.04646237
-0.05392541
0.00961775
0.00724105
0.00425721
-0.05043670
0.01796522
-0.11316007
-0.02134654
0.01448327
0.04024294
-0.08397389
-0.00636455
-0.02719374
-0.16865942
-0.03428132
-0.01909304
-0.02720592
0.07084032
0.02972729
-0.01398735
0.18266648
-0.03534919
-0.07053492
-0.05325349
0.03335587
0.05099554
0.02780214
-0.11358568
0.19461742
0.01420191
-0.00908924
-0.03816922
0.03046744
-0.03244108
-0.07329483
-0.01795237
0.06053884
-0.06372149
0.09923539
0.00890232
-0.02027000
0.00583342
-0.06505552
0.14716616
0.01018299
0.12770753
-0.08367515
-0.00411121
0.03041911
-0.03237235
-0.00302719
-0.03536135
-0.05937492
0.00271056
-0.12932284
0.03363664
0.00855017
0.05130081
-0.08670269
0.03946586
0.02781702
-0.02440985
0.09710339
-0.13348617
0.00729805
-0.03126039
0.11263779
0.02200773
-0.00672258
0.07334609
0.01605507
0.02612211
0.01062986
0.00750946
-0.01378079
-0.05973383
-0.00698141
0.04882225
0.05331043
-0.03702207
-0.05706262
-0.08531743
-0.05023206
-0.00393131
0.02587147
-0.04406360
-0.02626318
-0.03252790
0.04679445
-0.08324562
-0.01041010
0.01988775
0.06932480
-0.00635185
-0.03468524
0.06689484
0.00912378
0.02967847
-0.08106416
-0.04896039
0.01395944
-0.13268049
-0.01689816
-0.06665692
-0.00534344
0.13668416
0.11769733
0.10238601
-0.06151616
-0.00602356
0.00955861
-0.02232558
-0.02744890
-0.05654312
-0.06326056
-0.06303755
-0.04160818
0.00962253
-0.04260682
-0.01856872
-0.07690679
0.00951769
0.07976773
0.00749435
-0.02178547
-0.01227154
-0.01158526
-0.04161408
0.02870787
-0.00779766
-0.02839237
-0.00057937
0.01900352
-0.02133104
-0.09523553
0.00910785
-0.01734809
-0.07271538
-0.01534223
0.02727997
-0.04372416
-0.06416703
-0.02325744
0.01043664
0.06003131
-0.02174608
-0.04238779
-0.02194603
-0.01791688
0.00089493
0.01363777
0.01443926
0.00543777
0.03617960
-0.05302211
-0.01181136
-0.05321802
0.02433945
-0.01758273
0.01653329
-0.06153202
0.01820270
-0.01369166
-0.01053459
-0.00744535
-0.01268117
-0.03713193
-0.00099402
-0.03497612
-0.00911928
0.00309615
0.03446227
0.00080787
0.02677061
0.09135532
-0.01430540
-0.02754383
0.00120741
0.02017953
0.00913434
0.02726289
-0.07024721
-0.02883906
-0.08010178
0.02019745
0.01202283
-0.06174634
0.00657948
-0.00412347
0.02181409
-0.10300128
-0.00636112
-0.03640339
0.00906654
-0.00026053
-0.05392080
-0.02458274
-0.15354572
0.01231994
0.05618239
-0.03905241
-0.00578786
0.01008036
-0.07623531
0.02920906
0.05070582
0.00981455
-0.02657923
-0.02022134
0.00977161
-0.02011765
-0.03649983
0.05944575
0.04542295
-0.00035383
-0.05981027
-0.03375416
-0.04519915
0.01696055
0.01809981
0.01633650
-0.02397876
0.01166699
0.03247197
-0.12815255
0.01821064
-0.05239526
0.03224268
-0.04235160
0.03673633
0.05912573
0.05581215
-0.06377466
0.02558967
-0.02816040
-0.00455968
-0.00259341
0.09032132
-0.00819070
-0.05101074
-0.09007479
0.00080461
-0.02568541
-0.06638537
-0.09677592
0.04463317
-0.02454554
-0.09848879
-0.09480843
-0.03240824
0.02409090
0.04276740
0.05847445
0.01989868
-0.05074221
-0.04463527
-0.02591848
-0.05999950
-0.01527701
0.03654988
0.06699049
-0.00427938
-0.01647982
0.07651559
0.01857455
-0.03350911
0.03894154
-0.04058012
0.03999780
0.06106133
-0.03333458
-0.04377833
0.04292202
-0.02074333
0.00912676
-0.06106957
-0.00986008
-0.00204999
0.01658705
-0.03324683
-0.01362692
-0.01042540
0.00804075
-0.04096206
-0.02125811
0.02955919
0.04726455
-0.00143209
-0.00580141
0.02610230
0.00737755
-0.05842634
-0.03224923
-0.06807315
-0.03192734
0.00462376
-0.01320707
0.01205242
-0.01534746
-0.02147532
0.01506553
-0.04035998
-0.00235799
0.08761867
-0.00748575
0.02018897
-0.03075017
0.00749152
0.17300817
0.06653728
-0.04569565
0.02132076
0.02816023
0.00784860
-0.02594901
0.00221178
-0.01867739
0.11402046
-0.18045527
-0.00133442
-0.02145550
0.07001800
0.11356063
-0.01193561
0.03922429
0.03366229
0.06333464
0.01234994
-0.01978597
0.00841184
-0.01607020
-0.03060344
-0.05730695
0.06773025
0.02602164
0.06244082
-0.10186183
-0.03911479
0.02542039
0.01231659
0.03293634
-0.05695633
-0.09911079
-0.05599197
0.06160877
0.00759405
-0.12064548
0.00726915
-0.02963584
-0.06196046
0.03344925
-0.01815700
-0.03202965
-0.02827055
-0.10893267
0.05272658
-0.06013727
0.03217028
0.02861230
-0.02039139
-0.00276060
-0.07690784
-0.09366326
-0.00589206
-0.10599686
0.00136111
-0.04103166
0.07338773
-0.03273931
-0.02853391
0.04285894
0.03661028
-0.01216416
-0.04591515
0.02210655
-0.05101925
0.06615327
-0.07667449
-0.00851866
-0.00350244
-0.04809907
0.00183017
0.05171700
0.00948012
-0.02361169
-0.02771152
0.00527756
-0.03262726
-0.03847625
0.05166551
0.00376436
-0.02139993
0.00966042
0.02412190
-0.00563882
0.05271573
0.00053221
-0.15249373
0.05910636
-0.04264414
0.00478579
-0.00501805
0.02531414
0.00792235
-0.08063437
0.03575232
-0.12127749
-0.04187769
0.01876246
-0.01478990
-0.04113572
-0.00793914
-0.00477939
-0.02675772
-0.03613602
-0.08337373
-0.01903167
-0.00558362
0.03095067
0.09405257
-0.02802795
0.08864961
-0.03546757
0.02682968
0.01703580
-0.05146190
-0.00194502
0.03351892
-0.03640201
0.10743680
-0.02163624
-0.00523384
0.01120337
0.00294328
-0.00098069
0.09563163
-0.08240258
-0.00756500
0.03350974
0.01114555
-0.00835462
-0.03675250
0.02060957
-0.02008028
-0.02996324
-0.04355234
0.02509108
0.05372883
-0.02417381
0.00158687
0.05852998
0.00606157
0.03940945
-0.03072649
0.00942247
-0.01552913
0.08150008
-0.02645911
-0.06477753
-0.03163125
0.01823108
-0.00234356
0.00823175
-0.04303515
-0.02768647
0.01930039
-0.02009884
-0.00388959
-0.08946657
-0.01256913
-0.03309218
-0.07129776
-0.04469465
0.05227274
-0.05083565
-0.00419100
-0.00158954
0.02103200
0.07017026
-0.05337682
0.01435884
0.02180710
0.01256653
-0.01163777
-0.01881202
-0.07444500
0.03694149
-0.05503176
0.01021924
0.10147496
0.03747603
0.09473428
-0.03398101
-0.01738571
-0.01661193
-0.02300683
-0.07260053
-0.01535269
0.00119904
0.01633258
0.00455473
0.06036071
-0.06037495
0.05205508
0.02154597
0.06745818
0.02926494
0.03323392
0.03410604
-0.02591187
-0.04891295
0.03755170
0.06229701
-0.02273174
-0.01632508
0.06144263
-0.01732280
-0.00956774
0.04421211
-0.00103067
-0.00079294
0.01606174
0.06715100
-0.05769498
-0.02515805
0.01673575
0.07392924
-0.02018254
-0.02832093
-0.01980187
0.05386904
-0.04050229
0.00127895
-0.02041697
-0.05802493
-0.00324530
-0.02294988
-0.00543969
-0.01362668
0.00288281
0.00934117
-0.09200716
0.01092375
0.00852053
0.04395588
-0.01208082
-0.01952025
0.01400905
-0.02557575
0.03147931
0.02438887
0.10181982
-0.03032537
0.00416295
0.01504907
0.02771051
0.02408456
0.01900933
-0.00481257
-0.02386547
-0.05350570
-0.03133597
-0.01067441
-0.02129401
0.00603609
-0.01115470
-0.00922338
0.00503197
0.03910975
-0.03232235
-0.02209255
-0.00035223
-0.01127432
-0.01175732
-0.02959025
0.02152392
0.05473337
0.00956720
-0.04385503
-0.01976771
0.04709370
-0.04170506
0.01545079
-0.03966833
0.00055935
0.05283222
0.05012957
-0.03900602
-0.02759677
0.00611004
0.04409759
-0.03498012
-0.02688847
0.09049655
-0.05789714
0.00097617
-0.00184936
0.02671080
-0.01954750
-0.01818444
-0.01820030
-0.05542771
0.02234998
-0.04904096
0.02202365
-0.00221099
0.03419366
0.04210773
-0.03734425
0.00771939
-0.03625151
-0.01039794
0.01373926
0.02663113
-0.02819579
0.03134421
-0.03891460
0.01961294
0.02490936
-0.02316195
-0.02013826
0.02132939
0.03599968
-0.02946131
-0.02127143
-0.00810606
0.05558575
0.04527200
0.04489686
-0.02520493
-0.02532798
-0.00642260
0.01405545
0.04759029
-0.07737687
-0.03791043
0.02756822
0.01086292
-0.00115834
-0.02145716
-0.00698594
-0.03705962
0.00633769
0.00027456
-0.02508460
-0.00119098
0.00327277
-0.07228716
-0.06464314
-0.00393486
0.00324922
0.01717872
0.00214756
-0.02087474
0.00966341
0.00581970
0.03865487
0.01460753
-0.01776735
-0.00921321
-0.03353598
0.03194512
-0.01692722
0.05981196
0.05521819
0.01657679
0.00761839
0.00523573
0.06629121
0.02521162
0.02114704
-0.01026084
0.17770958
0.00872128
-0.01896141
0.00988064
0.02923184
0.03680871
-0.03789457
-0.02770181
0.02993608
-0.01411171
0.04012274
-0.01885046
0.03339800
-0.00904194
0.00429938
0.02656339
0.01074910
0.00989643
0.02415450
0.01196090
-0.00263094
0.02274644
0.02738611
-0.01192975
-0.01499581
0.04558625
0.01558489
-0.01546512
0.01060980
-0.04258788
0.01728462
-0.07237118
-0.04702584
-0.06495136
0.00374101
0.01831477
0.02552964
0.04975149
0.00535598
0.00671294
-0.02018381
-0.01867769
0.03643774
0.03307629
0.00828917
-0.04080148
0.00208532
-0.03983029
0.01275593
-0.04906351
-0.02731913
0.00264020
-0.04253323
0.02877382
0.00013552
-0.02409473
0.01231287
0.05309251
-0.01282475
-0.01818137
-0.07299043
-0.04363248
-0.04238712
-0.03707777
-0.01335694
0.06338246
-0.02580893
-0.01994393
-0.07575669
0.02993538
-0.04093410
-0.03816249
-0.00129565
-0.01651842
-0.02051811
-0.00057082
0.01447660
0.02853905
0.05372895
-0.00400718
0.04821810
-0.02755443
-0.01134108
0.01687063
-0.03493658
-0.03211666
-0.03600990
-0.04989912
0.01247748
-0.02507140
-0.04072973
0.02975776
-0.02049315
0.02910619
-0.04611794
-0.00249989
-0.01812061
-0.04366713
-0.03193277
-0.00122530
-0.02871175
-0.02154048
-0.01178402
0.02689393
-0.10312186
0.01803791
0.02466006
-0.05770787
0.01745228
-0.05657179
0.03338091
0.00649715
-0.03420201
-0.00500925
-0.04332530
-0.02741165
0.04462302
0.04091374
-0.03411519
-0.01120188
-0.04549042
0.01333001
0.02434600
0.01074630
-0.01775364
0.05110189
0.02835211
-0.01281797
-0.03553414
-0.02042383
0.03759743
-0.03065238
0.02618305
0.00310084
0.02524088
0.01810406
-0.01723062
0.01102948
0.07075602
-0.04211515
0.00536246
-0.06296494
0.03764289
-0.03508328
-0.06072045
0.01261867
0.09330644
-0.01889966
0.06019565
0.06433266
0.01325419
-0.07854130
-0.05026363
0.04495271
0.04384293
0.01070178
0.09643023
-0.02679208
0.02049905
-0.03193987
0.01609891
-0.00860252
-0.04284008
-0.02836843
-0.03937360
0.02504851
0.00749358
0.04165644
-0.02078655
0.00046471
-0.00061249
0.04102045
0.00336899
0.09909099
-0.04690663
-0.05326949
0.03999398
0.04182657
0.02739821
-0.00330727
0.03868095
0.00591123
0.00020595
0.02132869
0.00754689
-0.05576605
-0.00272592
-0.03034385
0.03471192
-0.03266404
0.07114632
0.00373366
-0.05974083
0.06343789
0.00490767
-0.05204504
-0.01832071
0.00540276
-0.03025213
0.03697428
0.01843928
-0.02860234
-0.00314141
0.03320304
0.00167543
-0.01149823
0.06063811
-0.05012330
0.01831576
-0.02623544
-0.05674541
-0.11870124
0.01978804
-0.03793813
-0.00449173
-0.01567940
-0.00080969
0.00196532
-0.06229238
-0.05200443
0.08501694
-0.01619562
-0.06887287
-0.00542115
-0.02822546
-0.04006865
-0.10040430
-0.06230539
0.04799210
-0.02397876
-0.03771204
-0.03006352
-0.05779429
0.01267917
0.07533163
0.03281341
-0.07083274
-0.05520147
-0.08504234
-0.08937264
-0.02132243
-0.02638177
-0.10334864
-0.01061595
-0.07402790
0.05973579
0.02622059
-0.04821024
-0.02682073
-0.01578439
-0.10274652
0.06489602
-0.01605003
0.02718456
-0.02255650
0.00140798
-0.02213953
0.02946409
0.02642339
0.01070416
-0.06677650
-0.01488329
-0.03601513
-0.00480874
-0.02053077
0.02987298
0.01110655
0.00692870
-0.01051679
0.00656983
0.01376271
-0.03953325
0.01233427
-0.00651059
-0.01794787
0.00992075
0.00421074
-0.02071650
-0.06219965
-0.06865650
-0.00802538
0.09026704
-0.02177620
0.04059372
-0.03333373
0.00950253
0.05573534
-0.00086902
0.00124307
-0.04359372
-0.08895512
-0.10907173
-0.01003327
0.00831200
0.01396492
0.03259226
-0.06500965
0.02015518
-0.06398799
0.03369176
0.04511726
0.01029102
0.02839269
0.06764685
0.00508066
-0.09151073
-0.04680121
0.01494472
-0.05157755
-0.02095209
0.02439298
-0.07710151
-0.10108947
-0.01859819
-0.05784411
-0.05089899
-0.00019760
-0.03962041
0.02330726
-0.05426233
-0.11204178
-0.06132551
-0.03966297
-0.02935088
-0.00220954
0.01891110
-0.09709858
-0.00173231
-0.00680378
0.00130225
0.02202124
-0.03871262
0.05053481
-0.01582273
-0.02728703
-0.00903249
-0.08481808
0.01733851
-0.02292538
-0.07414048
-0.00158485
-0.02029993
0.02789589
-0.00047168
-0.04425156
0.03560051
-0.05548960
-0.03549344
0.01313256
-0.05768451
-0.06760610
-0.00843003
-0.02399438
-0.03307287
-0.00385085
-0.02999774
-0.00716224
-0.01014152
0.03257053
-0.04060994
-0.00038679
-0.03092111
-0.06585403
0.00907832
0.01823991
-0.01480012
-0.01676197
0.03979010
-0.04389819
-0.01250212
0.02615070
-0.12450735
-0.02551375
-0.05278118
-0.07347365
0.03068404
-0.01683855
-0.02811244
-0.06898600
-0.04867622
0.04042757
0.06589860
-0.05027314
-0.00611442
-0.04785065
0.00634056
0.05788012
-0.02832641
-0.07314980
-0.05436569
-0.07493380
-0.09968892
-0.00323922
-0.05899912
0.01306920
-0.04696484
-0.08056518
-0.03930761
-0.03678754
0.05923765
0.02626788
-0.05045640
0.04252363
-0.00282894
0.07739472
-0.05759587
-0.01701278
0.05699766
0.03231223
-0.11315612
0.03479304
0.05593344
0.00687698
0.00139361
0.00232298
0.03033637
0.08827809
0.03537523
0.01705150
0.00729392
0.07247452
0.00186936
-0.06982465
0.05023756
0.05834489
-0.04706923
-0.03999686
-0.04299663
-0.03944180
-0.05075580
0.02081729
0.02189443
0.02377951
-0.00003984
-0.00875112
-0.07602002
-0.04241713
-0.06745542
-0.00369926
0.01384207
-0.02749381
-0.02722789
-0.05911906
0.03293181
-0.04199232
0.11570205
-0.00201357
0.03387876
-0.01468731
-0.04816720
-0.00176890
-0.00780215
-0.02677040
0.03871802
-0.01226902
-0.07044861
0.02974648
-0.04246054
-0.04478052
-0.02257390
0.12138955
0.03606977
-0.06648719
-0.02984252
0.07835911
-0.00334082
0.04603648
-0.04835349
-0.07264163
0.02871002
-0.03998091
-0.04237264
-0.05657271
0.01056054
-0.03579137
-0.05670589
-0.03622413
-0.04590188
-0.08981278
-0.08431879
0.03226044
-0.10131377
-0.02069759
0.00971862
-0.08736811
-0.05699369
-0.01082845
-0.00859457
-0.08757578
-0.04294431
-0.06457490
-0.00823970
-0.01430994
-0.01940797
-0.01101054
0.01849966
-0.06391297
-0.03990344
0.04933019
0.02117151
-0.05138622
0.01415657
-0.03054708
-0.04250898
-0.04000537
-0.03880868
-0.02966924
-0.01689935
0.00483181
0.02171129
-0.05482690
0.00248679
0.09774972
0.02082464
0.04983683
-0.06848062
-0.01591307
-0.04196331
0.04724953
-0.01039750
-0.01563332
-0.10166118
-0.06553566
-0.01370367
-0.00749231
0.02087673
-0.07329536
0.04448275
-0.09001044
0.02940750
0.02784769
0.04276037
-0.04640158
-0.00909391
0.02562747
-0.08098546
-0.02690895
-0.04148993
0.00242885
-0.04280860
0.02910582
0.06291340
-0.06306206
0.00274361
-0.00143880
-0.01640158
-0.04590255
-0.00741066
-0.06092896
-0.00924412
-0.01730604
-0.00834678
-0.00179428
0.01875125
0.04024051
-0.03180116
-0.02791139
-0.03002885
-0.00241030
-0.04498335
0.01822893
-0.06829275
-0.02891681
-0.09558366
0.00147786
-0.00178483
-0.07090677
0.08502630
0.00230249
-0.03654358
0.04777604
0.03064408
-0.04280616
-0.03823106
-0.06050752
-0.03861723
0.07440432
0.06692625
0.00144620
0.00436559
0.05601414
0.00310628
-0.03066067
0.00840266
0.00593535
-0.04232674
-0.00428520
0.00344769
-0.01619310
0.00979240
-0.01338062
-0.03473543
-0.02760634
-0.00100408
-0.02777608
-0.02393669
-0.01284981
0.01071419
-0.00043891
0.02380525
0.03665673
0.00550026
-0.04230902
-0.00547889
0.00038154
0.02275636
0.01871890
-0.03319022
-0.02126532
0.06449066
-0.06805670
0.01309204
0.00636194
0.06348313
-0.01799461
0.00851954
0.00545304
-0.02360608
-0.05037699
0.00254065
-0.02273638
0.02808190
-0.00693259
0.01175300
-0.00835190
0.00581261
-0.04179549
-0.04861196
0.01043971
-0.03115618
0.02398733
0.00389383
0.01517635
0.04650112
-0.00115656
0.02806042
-0.03557792
-0.03363022
-0.00092116
0.01427881
-0.02436153
-0.01272410
-0.05038305
0.01513778
0.05154907
0.03580865
0.00333805
-0.05209018
-0.00340538
0.02148544
-0.04932316
0.05945661
-0.02270307
0.01607781
0.05352241
0.01842778
0.06161221
0.02932623
-0.01525307
0.03287739
0.02367332
-0.05037065
0.02022689
-0.01583002
-0.02659299
0.03331564
-0.04090176
-0.00304677
0.08578254
0.15782781
0.16577110
-0.04207472
0.04172248
-0.03759904
0.09811734
0.01005927
-0.05075958
-0.03838782
0.01530420
0.03288973
0.04525063
0.01859470
0.03807738
0.11602631
-0.00605155
-0.05174543
0.03515585
0.03569175
0.01470949
0.03469508
0.04246846
-0.06775836
-0.07518516
0.02697759
0.01255966
0.02545943
-0.01094906
-0.00309963
-0.00667483
0.02173552
0.02922025
0.01691985
0.03487405
-0.00403262
0.01086554
-0.05003390
-0.00012500
-0.01970183
0.00279497
-0.02623499
0.04485377
-0.01930465
0.01183085
0.07849840
0.04215203
0.00439010
0.00633467
0.03022645
0.00272231
-0.01204480
0.02986184
0.00420656
-0.03527729
0.01019828
-0.01943898
-0.01258187
-0.00943871
0.03019116
-0.03434930
0.03299508
0.00630567
-0.04666413
0.01768586
-0.01343010
0.01345947
-0.01904865
0.02816422
0.11609114
-0.00725642
-0.02167581
0.01375922
0.01130651
-0.02109828
0.00578614
0.03895186
-0.02549046
-0.04246910
0.00524500
0.00904527
-0.03840194
-0.01324867
-0.01005276
-0.10008986
0.08006591
0.05471985
0.08006351
-0.01706406
-0.04822434
-0.00369135
0.04451549
0.03137414
0.00604707
0.01403266
0.05523815
-0.01275108
0.01989130
0.05966389
0.00236700
-0.04385208
0.04954457
0.00631937
-0.02450991
-0.01111393
-0.03265181
-0.05673922
0.02087813
0.03845064
-0.02457395
0.03031605
-0.03889593
-0.00696969
0.00431285
-0.05189729
0.02943588
0.05085704
-0.00820818
-0.04786686
-0.01168774
0.02665297
-0.07893503
-0.01848604
-0.02647223
-0.01372567
-0.01858632
-0.03075469
0.04400584
0.01797934
0.01632855
-0.02374432
-0.01612431
0.00506693
-0.00091874
-0.01933879
0.02721356
0.04222075
-0.04883625
0.01610474
0.01711541
0.02061333
0.04798013
-0.03169557
0.00504060
-0.04059816
-0.00525696
0.03190667
0.01209009
-0.01173859
-0.01405418
-0.06210952
-0.00004000
0.05070765
0.03217062
-0.04836484
-0.02684230
0.04116198
-0.01789858
0.01015376
0.01545250
0.00839786
0.05501025
-0.00833430
0.02948430
0.01395220
-0.05048647
-0.00862063
-0.02637205
-0.04188348
0.04833443
0.00962131
0.00153779
-0.01906002
-0.04764923
0.02985360
-0.00790202
-0.04141264
0.04856220
-0.01559861
0.00504399
0.02069584
-0.08160405
-0.04824034
0.02846036
-0.02160282
0.02120886
-0.00405970
-0.04795097
-0.02270846
0.00283516
0.01523344
-0.04956949
0.02212216
-0.01243746
0.04943291
-0.03331806
0.03181254
0.03581193
0.01805821
-0.04673129
0.02026491
-0.00255101
0.00063213
-0.01259997
0.01097182
0.02030901
0.01098840
-0.02833736
-0.00674629
-0.03864096
-0.01926641
0.03893745
0.01969527
0.08483564
0.06967380
-0.02367145
-0.00099848
-0.01327931
-0.01124735
-0.06656340
-0.05281036
0.01307969
0.03696445
-0.07431553
-0.03506422
-0.03993570
0.01807443
0.03992733
0.00317083
0.01245693
0.01614710
0.02681714
-0.03306219
0.01523730
-0.08790489
-0.01764666
-0.05250863
-0.02809141
-0.02564317
-0.00579295
0.02293129
-0.01465584
0.01109502
0.02059103
0.02285069
-0.05535030
-0.03651122
0.03262628
-0.02180870
0.05819356
0.02986630
-0.03746886
-0.01189715
-0.02451708
0.01011152
0.00745660
0.05242995
-0.03622467
-0.00659221
0.02238547
-0.04097700
0.07588661
0.03117504
-0.04840422
0.05917866
-0.06231399
0.04045950
-0.02367583
-0.05237675
-0.02623687
0.00535910
0.00991409
0.01013844
-0.02669933
0.05599742
0.00965285
-0.02480717
-0.00878108
-0.04046848
0.00758000
0.04367816
0.03920269
-0.03850967
0.01397134
0.00077323
0.03779766
0.09316734
0.08344720
-0.02629270
-0.10942384
0.05060231
0.00511751
-0.04893542
-0.00681316
-0.00565108
-0.06672104
-0.00748231
-0.01345068
0.02222006
-0.00680384
-0.00121945
-0.01513125
0.01819615
0.00556591
-0.05047366
0.00311359
-0.02858112
0.04335790
0.00100349
0.00851473
-0.01349141
-0.09434220
0.04775846
0.00903941
-0.00487945
-0.05233106
0.07602543
-0.00918006
-0.04379641
-0.05480142
-0.02714274
-0.00506019
0.05389427
0.04542352
-0.00378538
-0.06038197
0.04825930
-0.04114426
0.02581491
-0.04726592
-0.03958443
-0.03944884
0.02465400
-0.06536850
0.04433501
0.05873667
0.00753021
-0.04497473
-0.01746547
-0.04802534
-0.06421100
-0.02038937
0.05660910
-0.01522327
0.03469582
0.00516912
0.02799302
0.04143731
0.04073754
0.01395407
0.01624222
-0.01632330
0.00195808
-0.07270605
0.00667756
-0.02979603
-0.02745033
-0.02027278
-0.05173806
-0.04742660
0.00322510
-0.02533905
-0.01701943
-0.06284596
-0.02629313
-0.01721865
-0.01939114
0.05500712
0.01081780
0.00821949
0.01837522
0.01109029
0.00108119
-0.03356929
-0.00104537
0.00347369
-0.01406613
-0.04895265
-0.13018376
-0.08512492
-0.12018454
-0.04341496
0.01986758
0.01304615
-0.03570524
0.04023112
0.01276630
-0.07095162
0.04088505
-0.07092883
-0.03558825
-0.02221023
-0.04337827
0.00118001
-0.00200992
0.06213094
-0.00280328
0.01621285
0.03319564
-0.00564467
-0.00102732
0.03019198
-0.01148484
0.01319270
-0.04592365
0.04531607
-0.04753502
0.02010185
0.00598761
0.01303829
-0.03280153
0.02448371
0.02030295
-0.04282755
0.00142107
-0.02034478
-0.02567778
0.03611297
0.07347423
-0.01000191
0.01102233
-0.10639282
-0.03379052
-0.02742814
0.04174890
-0.02659918
-0.03092941
0.03029181
-0.07127953
0.02359087
-0.09282693
-0.01051237
0.01575533
-0.00711326
-0.01687338
-0.03957137
0.05918157
0.01765029
-0.01388999
-0.02288327
-0.05087171
0.05962303
-0.00569610
0.02811167
0.05176072
0.00692910
0.01558096
0.05618977
-0.00850969
0.00115621
-0.06427570
-0.04217135
0.04628274
-0.02905971
0.01188636
-0.03472987
-0.04338552
0.04002381
-0.04772323
0.00854146
0.01204527
-0.06432179
-0.05273707
-0.05793856
0.02477912
0.02574789
-0.05256633
0.02579197
-0.05887062
-0.00513480
-0.03099560
-0.01539116
-0.03517581
-0.00213191
-0.05900665
0.13080603
0.03059593
-0.03421978
-0.05512677
-0.00754304
-0.00789583
0.00886289
0.01170318
0.01557324
-0.01647928
0.02488292
-0.00283049
-0.01199036
0.00236951
-0.03572848
-0.06503269
0.00474762
-0.03513749
-0.01481086
-0.02209423
-0.06561092
-0.03578063
0.02576662
0.06642085
-0.06247565
-0.03052539
0.01230703
-0.04995698
0.01420461
-0.09507296
-0.00189099
-0.05980292
-0.03575182
0.00370654
-0.06144529
-0.03581550
-0.07048365
-0.00166720
-0.07184696
0.06211860
0.00171322
-0.02223384
-0.01173475
-0.01247022
-0.01348060
-0.02015679
-0.09834641
-0.00392505
-0.03883532
-0.10530489
-0.04970479
-0.03274348
-0.04190025
-0.04277991
-0.06928992
0.00192823
-0.02266837
0.12943850
0.03005602
-0.06087317
-0.00417217
0.01352162
0.01401666
-0.06457056
0.06140618
-0.00539791
0.01986276
-0.00739193
0.01572973
0.00725392
-0.01810132
-0.08039707
-0.04483857
0.01455682
-0.09119361
-0.04345388
0.00436041
0.03142207
-0.01801277
-0.04590863
0.02647687
0.01797916
0.04543999
0.04771366
-0.05135214
0.06073823
0.08334662
-0.04893758
-0.11074112
-0.01383165
-0.00454570
-0.00598372
-0.08516233
0.07034612
-0.03243387
-0.05566701
-0.00441524
-0.02893389
0.03328753
-0.03908505
-0.03233643
-0.01437187
0.03491778
0.02505002
-0.01483207
0.02964433
0.05959768
-0.05628047
0.01840901
-0.00460644
0.07718407
-0.01601648
-0.04882178
-0.00968738
-0.01726830
-0.08195902
-0.06530742
-0.05942575
0.05344628
0.05688401
0.07514142
0.04853107
0.09140478
0.06723130
0.07874626
0.00572954
0.00523733
-0.02668325
0.01535472
0.02451928
0.00299495
-0.06157803
0.01424043
-0.04184413
0.04326839
-0.04532599
-0.03675883
0.00029059
0.00952316
0.04008651
-0.02158261
-0.04169007
-0.00683784
0.12305906
-0.03271700
-0.11261041
-0.00576767
-0.03842284
-0.09340688
-0.00512187
0.00640484
-0.01460496
0.01790830
0.02066066
-0.09055432
0.00222395
-0.03210369
0.01779814
-0.04155280
-0.08299594
0.00598987
0.03248342
-0.02679387
-0.01992238
-0.00631046
-0.00045416
-0.01967174
-0.02374091
-0.01537609
-0.03566347
0.00344562
-0.02639859
0.03996548
-0.00890026
0.06588807
0.00277250
0.00800638
0.01244765
-0.05156449
-0.01419499
-0.01621157
0.02119138
0.00444403
0.01450460
0.00650857
-0.01509731
-0.05931510
-0.01185496
-0.08139972
-0.00201718
0.00375736
-0.04574695
0.06600847
0.12025640
-0.02877762
0.02012887
-0.01303043
0.00069512
0.08483828
-0.09192193
0.00086411
0.06365145
-0.08895960
0.09952332
-0.01793147
-0.02254532
-0.05838972
-0.10739391
-0.01999094
-0.05807861
0.01528144
0.03907237
-0.11785898
0.03946599
-0.03945801
-0.04425197
-0.01015475
0.02012928
0.02097265
0.01220038
-0.00609619
-0.01297901
0.02817204
-0.04222526
0.06207253
-0.04795460
0.01424832
-0.03112921
0.05774900
-0.01351764
0.05550691
0.01015560
-0.04079743
-0.03223707
0.02872986
-0.00092471
0.05613073
-0.00676193
0.00308629
0.05095271
0.00448872
0.01333427
-0.02903657
0.03580486
-0.00836963
0.02168248
-0.01433811
0.04699518
0.01865786
0.04387882
-0.00127876
0.00260804
0.02257432
-0.00605667
-0.04884475
-0.02561277
0.07382772
-0.01944686
-0.02547038
-0.03384558
0.03086098
0.05211705
0.00945823
0.00165002
-0.02352511
0.00388204
-0.00133463
-0.00056849
0.05569039
0.05334694
-0.01870119
-0.01057948
-0.02669955
0.04658639
-0.00216510
-0.02647784
-0.09214445
0.00517266
-0.01500265
0.04935119
-0.01553307
0.01508445
-0.04819744
-0.09935877
0.04225022
-0.01642122
0.02573234
-0.03982521
-0.08370073
-0.11357632
-0.00421568
0.00969567
-0.05011598
-0.00873180
0.01607738
0.01160793
-0.04248569
-0.06160739
-0.03122885
-0.00806428
0.02221149
-0.02155357
0.03136387
-0.03294601
0.00184196
-0.01247551
0.01461221
0.02247287
0.00886607
-0.00015309
0.01535020
-0.02503499
0.02148928
-0.01682623
-0.02271960
-0.02468182
-0.04203726
-0.01011297
0.00037412
0.00908282
0.01732262
-0.00089107
-0.02153599
0.02141556
0.00145918
0.03592012
-0.03856325
-0.03322122
-0.03126962
-0.01442573
0.01779274
0.05468944
0.05800777
-0.05432656
-0.02460116
0.05007570
0.00089652
0.03400274
-0.07040393
0.01603594
-0.01970600
-0.02963317
0.04023052
-0.01293227
0.06995603
-0.03142753
-0.03641037
-0.04327133
-0.04641258
0.03760675
0.05605226
-0.06779500
0.03283696
-0.02069021
-0.04594041
0.00775462
-0.01232229
-0.04531933
-0.04679503
0.00313585
-0.01554506
0.06348096
0.01729577
0.00928799
-0.02680365
-0.06366076
0.02902858
0.02342109
-0.01662183
-0.01195331
-0.01064418
-0.04730474
0.04672886
0.00514301
0.04074955
-0.02278561
-0.00777790
-0.04809715
-0.02172884
0.01757604
0.03133115
-0.03007973
0.06263635
0.01323535
0.00808361
0.00679241
0.02812190
-0.03969731
0.00500499
-0.01975495
-0.02843166
0.00878628
0.00750418
0.02662014
0.06812176
-0.02522819
-0.03103457
-0.01865598
-0.00321178
-0.00653344
0.04493496
0.02685097
-0.02382605
0.04741858
-0.02438732
-0.00283177
-0.09446661
-0.05207429
-0.02786327
0.01829119
-0.03134619
-0.01356351
-0.01504688
0.09219567
-0.00398774
-0.01290158
