-0.61212695
-0.22389497
-0.44730487
-0.03142923
0.09910513
0.53645825
0.05073894
0.11377479
-0.45734343
-0.46284986
-0.19526374
-0.12298668
-0.20935859
-0.52550447
-0.07835458
0.01935869
-0.12145074
-0.06664885
-0.35262632
0.45583141
-0.37453955
0.46892402
0.91176075
0.24812195
0.22919342
-0.03222276
0.15974997
0.25795195
0.21047607
0.01311272
-0.69894224
-0.42457616
-0.13330294
-0.04160379
-0.28045118
-0.04379116
-0.20521280
-0.47096366
-0.23259193
0.04333909
-0.44530472
0.08780240
0.17927828
0.44472674
-0.57596266
0.35995898
0.12921467
0.43661413
-0.58190328
0.07947314
0.16562687
0.06554190
-1.08815813
0.50870609
0.25430429
0.72229064
0.31235752
0.57257551
0.22436848
0.22491018
0.26917198
0.44033805
-0.12185711
-0.00618320
-0.17460245
-0.09181082
0.36619076
0.39132485
0.43521973
0.60398757
-0.10415340
0.11849890
-0.18134335
0.10206043
0.05886128
0.30047688
0.41411051
-0.35798353
0.19873811
0.32890379
0.16988266
-0.10867547
0.29422233
0.08144554
-0.51942986
-0.57029939
-0.10840245
-0.19202936
-0.62968922
-0.32628134
0.20170403
-0.25828406
-0.26141578
0.73910487
-0.23897678
-0.40791321
0.21273404
-0.04950890
-0.21542539
0.03469067
-0.14196955
-0.11678348
-0.12498590
0.37695724
-0.13085748
0.17458518
-0.31846580
0.34166673
-0.31619537
-0.14019664
0.11575106
-0.29295516
0.52543199
-0.45305756
-0.75012505
-0.15185271
-0.41617042
-0.34222242
-0.62191045
-0.34368718
-0.03265394
-0.31855679
-0.39162505
-0.38371757
-0.56352770
-0.02747986
-0.57619506
-0.28419480
0.44544902
0.05963562
0.21291755
-0.09439749
0.36040702
0.45707697
0.02898882
0.07598662
-0.22374533
-0.06371630
-0.00704166
0.24651533
-0.14010797
-0.12590691
0.27179489
-0.07514867
0.28778654
-0.21952134
-0.45341596
0.19102305
0.27275473
0.00688039
0.24624954
-0.43800414
-0.37485823
0.11911426
0.57996595
0.09502236
0.05636061
-0.01083134
-0.38062653
-0.15271254
-0.05598686
-0.68224460
-0.07508273
0.44186682
0.14843878
-0.26619247
-0.07948797
0.18607363
-0.38366184
0.10445794
-0.37417835
-0.15856701
-0.02408934
-0.14969473
0.06416433
-0.17517453
0.08638448
-0.23274989
0.07687899
0.28354412
0.03283498
-0.05971795
-0.29920217
-0.11141711
-0.19401999
0.07378731
0.20270395
-0.07313582
-0.14870773
-0.16211294
0.26806703
0.20874026
0.02190947
0.58479542
-0.25606209
0.07966718
0.09321589
0.28661788
0.06237164
-0.17155918
0.13062683
0.36353582
0.06594770
0.12231583
0.38655809
0.40675721
-0.15607855
-0.37601900
-0.10413367
-0.06621579
0.14871022
-0.23550202
0.06033546
-0.10157690
-0.11261841
-0.08216439
-0.20355757
-0.17156234
0.36635187
0.09664249
0.02505148
0.04606738
-0.32213399
0.02245170
0.12977517
-0.29167926
0.17409641
0.17199376
0.10203372
-0.22443284
0.32128149
-0.03094437
0.02818830
0.21242762
0.29358163
0.08102108
0.03055962
0.07909209
-0.08838928
0.35297656
0.52935946
0.10957670
0.07542005
-0.10299806
-0.26354373
-0.12160215
0.25660303
-0.08403242
0.06149412
0.07015634
0.08680652
0.07872682
-0.09047002
0.34635726
-0.53450555
-0.21747245
-0.23193848
0.00714216
-0.18867707
0.35520673
0.15057282
-0.02235953
0.11919060
-0.06399236
0.16633675
-0.27297357
-0.04439360
0.34907299
-0.23733728
-0.60473818
0.05715260
0.44706750
0.10619602
0.19866705
0.41807276
0.17347771
-0.01695155
0.33684251
0.17236872
0.14924754
0.11791249
0.04554884
-0.12048301
-0.02411319
-0.08283060
0.02366817
0.09661587
-0.33441463
0.35702008
0.33796197
0.42532548
0.27867505
-0.25849614
-0.19868033
0.05247939
-0.07271721
0.09591077
-0.26471904
0.34080577
-0.02498208
0.18816856
-0.01292763
-0.02044967
-0.10620748
-0.21033189
0.06272355
0.48763964
0.08324230
-0.05183941
-0.03723717
-0.26929677
0.10425742
0.00479690
0.25810844
0.28372246
0.11904730
0.10580660
-0.07300168
0.18781978
0.49714759
-0.20563218
0.05302107
-0.27053961
-0.32371348
-0.33817685
-0.25631294
-0.26025954
-0.10062535
-0.47221142
-0.30406466
-0.02195791
0.14987609
0.06458298
0.10284814
-0.44997510
0.06010539
-0.30386248
0.65336883
-0.26602513
-0.78179097
-0.17047785
-0.14254652
-0.63624632
-0.07960395
0.21868777
-0.06827664
-0.41026235
0.09228766
0.03592360
-0.23460169
-0.16384822
-0.07646191
0.33736652
0.09617096
0.13346697
-0.45152774
-0.72178370
-0.19995777
-0.16471754
0.31965667
0.03316005
-0.25988007
0.11786460
0.10845796
-0.00149673
-0.23682079
-0.01262425
0.10452709
0.14944546
0.14156492
0.07466045
-0.11546037
-0.08097233
0.04990555
0.19619828
-0.15552011
-0.22223485
-0.17213391
-0.32697299
0.16653539
0.24960077
-0.10263278
0.21163847
-0.17494978
-0.08174861
-0.42081523
-0.02599006
0.06210129
-0.05855816
-0.16687413
-0.09657060
-0.58559936
-0.23176241
-0.66344929
-0.49161083
-0.24952629
-0.34629896
-0.86069256
-0.43216074
-0.15115318
0.18259075
0.10132950
-0.35687307
0.20052147
0.18496892
0.12828584
0.20910481
-0.17580035
0.18713024
-0.50703770
-0.07705493
-0.11242819
-0.30458161
-0.17387870
0.00158257
-0.26531678
-0.19101864
0.08541874
-0.06512886
0.56460088
0.39616728
-0.18987511
0.12531061
0.29574677
0.15303205
0.45311999
0.22644286
-0.21720974
-0.35769424
-0.32032496
-0.11183397
-0.31805965
-0.00776321
0.29725417
-0.13708481
0.22186951
0.07986684
0.18377474
0.07741685
-0.00046508
-0.26710901
0.25161099
0.26688683
0.07532728
-0.09054372
0.21692930
0.39695960
0.29831070
-0.70135111
-0.31273681
0.11545736
-0.34500065
-0.11418944
-0.32923213
0.29662338
0.16617200
0.18312559
-0.40475708
0.21325335
-0.04246178
0.09585443
0.59868002
-0.47736523
-0.14327565
-0.04774337
0.03263266
0.33676252
-0.09835628
-0.12244224
-0.03660320
-0.41352108
0.06778456
-0.20364386
0.02546100
0.37688118
-0.20304900
-0.42284366
-0.90553182
-0.46797791
-0.07405154
0.23592734
0.30947134
-0.05119516
0.07693513
-0.03561730
0.49567422
-0.06989819
0.16612677
0.26387313
0.23015158
0.01564883
-0.16936934
-0.64903706
-0.14943606
0.32785395
-0.36499080
0.28044456
-0.51801157
-0.08418968
0.08897263
-0.04575549
0.33992431
0.03024682
-0.50380468
-0.17074400
0.18402338
-0.28639054
-0.06328449
-0.10579222
0.47991878
-0.30354860
-0.08481734
0.39158398
0.35799620
0.07204413
-0.30492550
-0.09199433
-0.33952299
-0.15585344
-0.33046922
0.03601336
-0.10363030
-0.14293134
-0.11948112
0.19326171
-0.63707274
-0.55473673
0.32161748
0.46466130
-0.16823666
0.41561422
0.31487814
-0.27572620
0.21120073
0.77338332
0.04362413
-0.23659998
0.27035171
-0.32789668
0.07162450
0.39133662
-0.11255006
-0.35955250
0.18820384
-0.11302848
0.02336976
-0.35634595
-0.36589062
-0.06118576
0.08497142
0.19491813
-0.16926022
0.12428051
0.19329748
0.45254621
0.01461481
-0.15539192
-0.52967781
0.24462335
-0.00648748
0.15301348
-0.47999576
-0.22704066
-0.78877431
0.11384729
-0.32135016
-0.14607182
-0.16259529
0.42964408
-0.34536490
-0.34134111
-0.20496733
-0.32370767
0.19063424
0.23160191
0.20138904
0.11301225
-0.43908849
-0.56723678
0.06033765
-0.07756629
0.05696974
-0.22823146
0.17257287
-0.22082619
-0.03581221
-0.07432823
-0.37541133
0.17168918
-0.56686497
-0.29722521
-0.07065576
0.12644126
-0.00638797
0.20454940
-0.42242652
-0.24985678
-0.08596776
-0.17053372
0.10823468
-0.12564105
0.08243901
0.09072264
0.24653810
0.07281333
-0.15247999
0.17188513
-0.41497537
-0.09612420
0.37285197
-0.08671909
0.12625208
-0.70213979
-0.39199379
-0.11455484
-0.52438778
0.22805986
-0.23140304
0.46723160
0.25644869
-0.13771667
0.18301408
-0.01498117
0.63404721
0.53235519
0.49550793
-0.07675011
0.52016079
0.15554228
-0.23706532
0.29084301
-0.08732170
0.02919567
0.48313048
0.02520528
-0.26660523
-0.19849874
-0.04666962
-0.42125094
0.23628877
-0.09253787
0.47879627
-0.00712748
-0.26432711
-0.45370212
0.45757172
-0.01490334
0.23095310
-0.22332878
0.69843525
1.03835189
0.58132851
0.22171693
0.15400906
0.00747831
0.06321976
0.21318173
-0.03709768
-0.01298833
-0.14581411
0.32845438
0.24806456
-0.00956949
0.28841504
-0.02046669
0.21507880
0.07837703
-0.06523979
0.08342758
-0.07562171
-0.15846205
-0.29840356
0.30673498
-0.07964575
0.29815435
-0.44336995
-0.11838172
-0.55489087
0.29037794
-0.12361182
0.13427344
0.44020075
0.88694251
0.36321709
0.42490405
-0.26774767
0.17896928
0.01810827
-0.24624901
-0.23883165
-0.04267967
-0.29231253
-0.30240285
-0.24418561
-0.16798313
-0.59309727
-0.18145886
-0.33315828
-0.28559685
0.27962241
-0.31646398
0.03871677
0.32666346
0.18987776
0.19162096
-0.28460008
0.08628987
0.03725698
-0.52934629
0.28548858
-0.12467305
-0.46263853
0.10032925
-0.17807785
0.41360959
0.10894850
-0.55843413
0.29825020
-0.01543334
0.19649507
-0.04422960
0.25954196
-0.04948394
0.32040402
-0.41794023
-0.13031372
-0.03319527
-0.06321120
-0.60799235
-0.23712501
-0.20009714
-0.04224184
0.06336388
-0.10803923
0.56418270
0.30895066
-0.09351394
0.18808660
0.20945916
-0.12985928
-0.07400195
-0.37464315
0.13284580
0.02400008
0.23620333
0.08548708
0.16344005
0.31975234
-0.24839424
-0.44787860
-0.18437696
0.08662906
-0.14266793
0.09118409
0.05874445
0.49591857
0.00096195
-0.58890551
-0.39070094
-0.48833930
0.30619764
0.34980658
0.35226381
0.15586278
-0.03080569
0.19294766
-0.06851885
-0.62607944
0.00438443
0.47002858
0.47805560
-0.57665980
-0.22620237
-0.20791593
0.01604832
-0.10462265
-0.13302870
-0.12733361
0.03096138
-0.38421145
-0.38323751
0.09121498
-0.23806180
0.10515725
0.19963157
0.21049969
0.40140247
-0.44311720
-0.65333670
-0.10465468
0.38619065
-1.07167840
-0.18041220
0.01269339
-0.09149185
0.18649985
0.04369228
-0.21546637
0.07897677
0.09731325
0.79310644
-0.66005570
-0.15454319
-0.02252650
-0.30208072
0.00597830
0.27610537
0.01563913
-0.24369277
-0.23936869
0.42324525
0.10310116
-0.53987300
-0.38891006
-0.02292606
0.21587458
0.34498960
-0.61374438
0.00258944
0.00946787
-0.27517036
-0.56397521
-0.29376712
-0.37201303
0.35735410
-0.11085723
0.75012726
-0.08082429
-0.31736955
0.42058393
-0.31219864
-0.12092256
-0.03747319
-0.28964555
-0.12930153
0.74855340
-0.63186389
-0.20572209
0.05554900
0.30154428
-0.07098359
-0.18251993
-0.07598413
-0.23761591
-0.11058100
0.62832886
0.45979971
0.14221288
-0.19519728
0.16406858
-0.15645105
-0.74449766
-0.18557324
0.13099399
-0.09304490
-0.02852308
-0.16739498
-0.45561761
-0.63745642
0.25265792
-0.62398684
0.11039867
-0.02128903
-0.16507876
-0.17574722
-0.15299171
-0.40818563
-0.16923799
-0.33744422
-0.05067531
0.24724086
-0.12122124
0.00678131
0.13847318
0.10372394
-0.05376009
0.37321472
0.14480965
-0.11556657
-0.22033896
-0.04258861
0.01795773
0.20788628
-0.14926982
-0.16293380
0.21491700
0.61020607
-0.30492911
-0.64965069
0.11376361
-0.22985852
-0.09858932
-0.68533701
0.38296306
-0.25124478
0.26666054
0.50899458
0.31241685
0.17252271
0.25101459
0.10681821
0.31357345
0.34207705
0.45618978
0.53761137
0.55734915
0.60120660
0.41937545
0.01889814
0.64935386
0.09829397
0.15061375
0.48459995
0.05637847
0.24302001
0.13241042
-0.09351736
0.12955734
-0.72167438
-0.05059276
0.19200048
-0.10494281
-0.59048152
0.19506387
0.06517706
-0.23945396
0.10295846
0.19503681
-0.02224213
-0.34061456
0.29713085
0.30867535
-0.16590561
-0.14067857
-0.04368794
-0.12509818
0.42052501
-0.01006808
-0.29440165
0.07126286
-0.39848414
0.07774360
-0.14547932
-0.18910196
-0.50787646
-0.23755281
0.14516239
0.24358346
-0.23071903
0.11697306
0.25986603
0.45780593
0.17926644
-0.20003518
-0.33013511
-0.18259904
-0.33308825
-0.33588937
0.08064209
0.47251272
0.08978804
-0.38074344
0.15663673
-0.25827107
0.34137684
-0.00308788
-0.14649655
0.29532903
0.52172095
0.53057969
0.03432658
0.63966739
-0.36775580
0.58489984
0.34624651
0.75705838
0.73987895
1.03312206
1.23049998
0.59718245
0.70714867
0.64123231
0.07703144
-0.12372698
0.13403086
0.85072702
0.40148377
-0.03613552
-0.06604388
-0.45622429
0.07375586
-0.16650400
-0.03937470
0.01685113
-0.36565375
-0.08373817
-0.27343121
-0.07243672
-0.48482341
-0.15341315
0.24265958
