-0.14448312
-0.29173136
-0.00326675
-0.14604938
-0.67452836
-0.33554631
0.43096375
-0.20047431
-0.56485909
-0.51317340
0.14346483
-0.24143299
-0.24170315
-0.16932967
-0.35418385
0.01582924
-0.60311455
-0.08463474
-0.18989080
-0.22470087
-0.11497065
0.04527807
-0.23085386
-0.54511666
-0.05767807
0.15245964
-0.08887511
0.13748106
-0.40907541
-0.20058203
-0.14946038
-0.05590296
-0.36966306
0.09752487
0.38918579
0.22306778
-0.06804635
0.16520780
-0.14879611
0.05385874
0.06305560
-0.24829160
-0.14596722
-0.17438319
-0.56284368
-0.07622486
0.02689745
-0.34576622
-0.33419999
0.33672962
0.04491110
0.14391787
0.06388831
-0.21905869
-0.27039045
0.14448166
0.34338963
-0.24374217
-0.21594441
0.01233667
-0.09631026
0.26078668
0.02983131
-0.05795565
-0.17639194
0.19118133
0.08351499
0.09435493
0.44415316
-0.19229764
0.14749381
-0.12225109
-0.54863429
0.06361246
-0.19799677
-0.03767708
-0.09079549
-0.08935580
-0.04769191
-0.05418557
-0.28755391
0.00879060
0.09133586
-0.47557881
-0.24902129
-0.14821428
-0.32151198
-0.01010799
0.08391631
0.07721183
-0.35786748
-0.16142987
-0.07776237
0.06595922
-0.39620775
0.23934865
-0.42417330
-0.48268136
-0.31377071
-0.38252068
-0.47747278
-0.04681915
0.03658343
-0.05685878
0.32977980
-0.01161948
0.20809439
0.18413922
-0.00922525
-0.04485651
-0.18671012
-0.10521746
-0.15388256
0.15661803
-0.01722211
-0.07289405
-0.00899208
-0.26859358
0.03132504
0.00277394
0.21529797
0.01115903
-0.19587861
-0.22432575
0.30628437
-0.00966312
0.15765858
0.14820942
0.07742122
-0.22520605
-0.20039769
-0.09804971
-0.12683752
-0.12069523
-0.11477415
-0.11147749
-0.37172407
0.01019751
-0.39524156
-0.10163748
-0.29377997
-0.19760582
-0.06636178
-0.02366530
-0.49163550
-0.09596474
0.08807978
-0.32552493
0.00725043
-0.20796429
-0.07437555
0.41344094
-0.44256192
-0.07417131
-0.13330370
0.20437393
-0.08967748
-0.27589500
-0.59329247
-0.58316505
-0.05285820
-0.10536885
-0.42040113
-0.55518526
-0.04142152
-0.38862416
-0.23904601
-0.16324303
-0.31984031
-0.40118888
-0.44610426
0.14806908
-0.40549108
0.06439388
0.09779835
-0.36980772
-0.42005891
0.20890571
0.39647087
0.02199513
0.01336572
-0.28154522
0.22102991
0.04509529
0.04020377
0.01930996
-0.01220456
-0.21615487
-0.32335597
0.08191182
0.30266264
-0.68660426
0.16303571
0.26285151
-0.51296937
-0.42491475
-0.36941522
-0.09529319
-0.21570039
-0.11270355
0.06874129
0.07849485
-0.47334903
-0.22511977
-0.01305076
0.34577999
-0.29554570
0.09967968
0.20846152
0.40646765
0.02175856
-0.21387699
-0.16786782
-0.13399699
-0.29218176
-0.06782892
0.10204042
-0.26279932
-0.10378134
-0.24137306
-0.38808194
-0.19869301
0.14083445
0.22450289
-0.33089477
-0.07963440
0.13111490
-0.02668887
-0.28231823
-0.07962641
0.00197503
0.21209377
-0.05985542
-0.16096854
0.53953969
0.24239117
-0.02567455
0.39976487
-0.72563958
0.27003217
0.06740981
0.13461183
0.15247372
-0.17783378
-0.24910438
0.39750841
-0.12006652
0.30450061
-0.04639126
0.07814177
0.34269488
-0.02928943
0.54898161
-0.02093610
-0.33988476
0.23046158
0.11674470
0.14776175
0.04430485
0.57448363
0.19451526
0.58957952
0.16299587
-0.30461472
-0.13566402
-0.43078130
0.21507743
-0.21853954
0.23923321
-0.26313901
-0.20509660
-0.06931943
-0.85398078
-0.18696004
-0.31245452
-0.47584480
-0.28148901
-0.07477623
-0.50659132
-0.15102901
0.00399438
-0.26248282
-0.57198751
0.90242308
0.11989593
-0.39424568
-0.49329895
0.09625134
0.45690286
0.15387574
0.06370220
0.10327768
0.17132014
-0.01185147
0.40883696
0.06765189
0.11958031
0.21830162
0.10418636
-0.22180992
0.00997746
-0.06639098
-0.24446471
-0.02661351
-0.45007774
-0.29494348
-0.12458631
-0.28240642
0.33563599
-0.12968564
-0.42450577
-0.17552082
-0.50112951
-0.22060648
0.20760539
-0.33220464
-0.39325976
0.06836859
-0.32953644
0.00450960
0.03712153
0.13023189
-0.13776378
-0.15189064
-0.13773084
-0.03557134
-0.24510665
0.06685048
-0.03213993
0.04396415
-0.10928404
-0.24404228
-0.22896665
-0.15452975
0.09739104
-0.41537929
-0.28388703
0.15128815
-0.05534935
0.00327849
0.06961699
-0.26627326
0.19174469
0.05327343
-0.02598026
-0.33680275
0.00806278
0.09159593
-0.07498074
0.23078926
-0.00654761
-0.47152105
-0.19920737
-0.48896980
-0.38534987
0.31033352
0.33388287
0.18259524
0.09475984
0.20561197
-0.23130105
-0.20819700
0.17223504
-0.16302475
0.08494605
-0.20398337
-0.47994068
-0.20472521
0.16188075
-0.03720641
0.05882811
0.31201160
0.17664646
0.15658323
0.16646497
-0.05189773
-0.29670888
-0.17944355
0.07764786
-0.05269180
-0.51474327
-0.35614347
-0.10105579
0.14376871
0.18367851
-0.39083803
0.04791423
-0.07993038
-0.23914483
-0.39382470
-0.15617613
0.16161889
-0.01678181
-0.21580082
-0.17903665
-0.27974465
0.20175704
-0.35766292
0.06016240
0.13805568
-0.16446730
-0.39701805
0.14974263
-0.26759860
-0.07129258
0.23727967
0.03977922
-0.42170912
-0.10227099
0.23034149
-0.10963155
-0.54714668
-0.02618641
-0.37434250
-0.06833573
-0.18940738
-0.23638514
-0.20136252
0.24141294
-0.13668364
0.29850614
0.36477798
-0.01031785
-0.36359778
0.02927223
-0.08670920
-0.09644835
-0.39619511
0.03076601
0.17069927
0.23019561
-0.44521934
-0.24816427
0.21657723
0.10861200
-0.45108491
-0.07085533
-0.52438831
0.08927073
0.00602731
0.45333883
0.14178513
-0.22178873
0.65040243
-0.15261126
-0.24704926
0.04726967
0.03508875
-0.26194137
-0.02200520
0.30327764
0.56186926
0.00211317
-0.11983787
-0.06193620
0.00622773
0.04108399
0.05976319
0.28774673
-0.53066510
0.36065888
-0.23631692
0.39451841
0.58871424
0.57129025
0.31829703
0.07453641
0.05830127
-0.36437055
-0.28127915
0.12057641
0.25105399
-0.02312979
-0.21665087
-0.18579096
-0.14235824
-0.06172416
0.09124398
0.12470815
0.19356748
-0.17439690
0.49607259
-0.04439984
-0.18345335
0.19270729
0.07754976
-0.13833022
-0.18590190
-0.11599407
0.30443487
-0.17002685
0.31753752
0.07341135
0.07443357
0.05258289
-0.10948595
0.09208199
-0.02345169
0.19993976
0.02678367
-0.23618434
0.19460332
-0.29963186
0.07504797
-0.16927682
0.17742695
-0.45804846
0.29937616
0.00244547
0.01030299
-0.40699497
-0.07569116
0.26790628
-0.31219926
-0.14368033
0.06358501
0.53048176
0.29149058
0.15692385
0.28587374
-0.28053397
0.33074656
0.06658258
0.11267047
0.41673544
0.38988763
0.03664559
-0.08431625
-0.45655566
-0.07482104
-0.12143114
-0.10602885
-0.00367081
-0.03875691
-0.55551189
-0.57394016
-0.24938200
0.05627331
0.23083255
-0.22060251
0.18416750
-0.46904755
0.37555349
-0.16411796
-0.00033971
-0.23605755
0.45813406
-0.19657621
0.07527077
-0.20041132
-0.09500170
-0.30611748
-0.04509985
0.16461916
-0.15575626
0.06510011
0.33673739
0.32764739
0.05495308
0.21417838
-0.04886182
0.49893340
-0.23094389
-0.33880109
-0.05258149
-0.20327856
-0.06535994
0.22425939
-0.13149938
0.17047241
-0.17656402
0.19922562
-0.23868543
-0.10150252
0.14646253
0.25069422
0.09226476
-0.06609517
0.08935493
-0.02385907
-0.52953792
-0.19922833
-0.17424548
-0.34611934
0.01574038
-0.15852135
0.01899049
-0.32157743
0.32206646
-0.06087589
0.02882886
-0.19750310
0.15363529
-0.15892021
0.01988378
0.32544678
0.03723292
-0.12711313
-0.12490898
-0.01651078
0.15232885
0.40332916
-0.27647853
-0.54524875
0.30539644
0.04158913
-0.22139591
0.13907996
-0.23052084
-0.04193956
-0.03955493
-0.03170465
0.20114309
0.21860632
0.32036465
-0.48612356
-0.04957086
0.35827273
-0.00862399
0.16939196
-0.04630913
0.39892316
-0.15613924
0.06823909
0.02169454
-0.20245692
0.52991700
0.05125928
-0.17784455
-0.00360465
-0.24417996
-0.01980055
0.17610112
-0.20890442
0.51859307
0.02239272
-0.30039418
0.22817855
0.05493408
0.22566235
0.04859518
-0.12811688
-0.01235186
-0.09968381
0.37954721
-0.17883089
0.13071430
0.04360822
-0.41197705
-0.45718282
0.04052150
0.36089718
0.06826563
-0.25719345
0.18856837
0.02582212
0.28876317
0.15535970
-0.16074312
-0.39946318
0.06478137
-0.40804452
0.45084977
-0.14232150
-0.11678863
0.25092039
0.24439842
0.32080415
-0.09171849
-0.03232799
-0.09764348
0.35664880
0.39713025
0.23674250
0.36929709
0.67353523
-0.03345577
0.92355061
-0.06942421
0.41021240
0.15036634
-0.15748858
0.19786936
-0.05348203
0.31067553
-0.27598453
-0.39425904
-0.20428993
0.04078053
0.05844553
-0.21119639
0.04221809
0.22981024
0.12884991
0.33606607
-0.35308850
0.20000449
-0.63238215
-0.28087759
0.11197478
0.34724590
0.13643661
0.20262310
-0.39227217
-0.12293963
-0.33327550
-0.39866245
-0.20614922
-0.11751884
-0.13820806
-0.09967200
-0.22995116
0.04905713
0.14812902
0.14660609
-0.40925589
0.33248645
-0.22035146
0.10474610
-0.27069908
-0.32645008
-0.38734052
0.12372698
-0.04185539
-0.11934781
0.22249988
0.05318780
0.03999015
-0.22758359
0.28784624
0.03729160
0.11591482
0.42491344
-0.13021155
0.51522851
-0.46901083
-0.03637026
0.18175299
-0.09724459
-0.06591828
0.26204222
-0.06974515
-0.03135563
-0.08335796
0.13893315
0.04291246
-0.32310328
-0.20559454
0.18742280
-0.26478967
0.48998380
-0.38945946
-0.05291311
-0.11554848
-0.11776099
0.26588076
-0.24951592
-0.36593315
-0.11164695
0.00067791
-0.42912918
-0.23729607
0.06125641
0.09156305
0.04977176
0.12064244
-0.06379516
0.19598955
-0.04363005
0.24323404
0.11813974
0.55848062
0.19893670
-0.00372531
-0.14916162
0.18502592
-0.17270549
0.01459527
-0.00060603
0.15590629
-0.21438584
0.23244485
-0.19997913
0.06368086
-0.19588384
-0.07557265
0.29508385
-0.01015827
0.26446259
0.12472384
0.44038492
0.52182353
-0.01093133
0.22393845
0.23501733
-0.55396503
-0.08733371
0.08028458
-0.21653318
-0.35368320
0.13788235
0.04766470
0.15609524
-0.20270029
0.02184820
0.30650511
0.21081772
-0.27023697
-0.18639943
0.26000708
0.25716242
-0.02159350
-0.40282440
-0.23467910
0.39382240
0.37320504
0.09780143
-0.34751025
-0.24940166
0.01316789
-0.30478743
0.09116161
-0.08450331
-0.21870688
-0.01753926
0.13464685
0.03530419
-0.01151217
-0.04690763
0.20186678
0.46919471
-0.07491736
-0.10155387
0.20349175
0.14856954
0.39112574
-0.49993896
0.01159886
0.13080353
-0.02899665
-0.12199923
0.49036002
-0.01942551
0.26012829
0.29086739
-0.38553911
0.10828114
0.17827529
-0.34463796
-0.18120486
0.25555933
0.17761004
0.30997324
0.24672979
0.06073112
-0.16342969
0.23125888
0.10957444
-0.39377159
0.31513748
0.01974529
-0.09904520
0.43342039
-0.09463835
0.07679439
0.04421803
-0.26927647
-0.06665888
-0.18370780
0.19769892
-0.26307005
-0.12158103
-0.01099080
0.27015162
0.02327137
-0.31539431
0.04057211
-0.45609480
0.01075106
0.16726990
0.26960716
-0.18952434
-0.28671837
-0.10141530
0.52742279
0.23872986
-0.01353598
-0.11013001
-0.51690882
-0.02871162
-0.15482013
0.06825928
-0.09560716
0.10056993
-0.29964417
0.35374713
-0.20424008
-0.45948356
0.07629405
0.39089429
0.49316171
-0.05612931
0.38826877
0.62417853
0.23341805
0.35133800
0.00221854
0.21325001
0.08691520
-0.20322460
-0.32337600
0.12329501
-0.13542366
0.58301127
0.61002684
-0.07680452
0.07525323
0.34206930
0.02772862
-0.06064646
0.44709423
-0.21148747
0.33206612
0.11403103
-0.15941364
0.01916595
0.15105583
-0.56717819
-0.61149973
-0.07046822
0.28300908
0.10361452
-0.13221413
0.22330843
-0.23381269
-0.00505534
-0.23226070
-0.06555812
0.01433784
-0.50543827
0.08118898
-0.41082972
-0.18653025
-0.19871573
0.32681614
-0.00868623
-0.23258735
0.30055809
-0.20883253
-0.28182682
-0.43009022
-0.24293059
-0.11929740
-0.03349674
-0.21520138
-0.19815204
-0.66437942
-0.32798788
-0.24162056
-0.30934703
-0.22353759
-0.42151171
-0.10070436
-0.29373062
-0.09291637
0.19301163
0.29885966
-0.01413852
-0.39935100
0.00517976
-0.61784601
0.26876387
0.07500207
-0.19494724
-0.29404578
0.06947047
0.27951628
-0.27298594
0.08720922
0.07381123
0.08654940
0.03076822
-0.01113943
0.12270491
-0.24736415
0.16596848
-0.40314269
0.02403173
0.66163266
-0.06016633
0.05337464
-0.77729821
0.00053197
-0.43135077
-0.38489228
-0.23945764
-0.25736403
-0.10721534
-0.09468925
0.18637881
-0.13110985
