0.03841393
0.01040717
-0.04389069
-0.04446352
-0.01736175
-0.15462947
-0.08435845
-0.03653897
0.07191262
0.03818407
0.04511526
-0.02158241
-0.02949762
-0.01105049
0.02390510
0.07488861
-0.02399894
-0.02054057
-0.04029634
0.10307836
0.01942531
-0.00262546
0.02440564
0.03926180
-0.04928035
-0.15561901
0.08173426
0.02378895
-0.03924599
0.00584837
-0.04623634
0.02379671
-0.00249475
0.02983660
0.01516767
-0.01567985
0.00664414
0.01222363
0.07093351
-0.00173894
-0.01861757
0.05820692
-0.02561282
0.00184881
0.00829107
-0.08329590
-0.03429864
-0.01847115
0.02664638
-0.00493076
0.09811030
0.00834512
-0.00844689
0.02056662
-0.01213619
0.00307264
-0.00185914
-0.01481799
-0.19091953
-0.01080315
0.02765313
-0.00245080
-0.02093935
-0.00344076
-0.04611683
-0.08550263
0.03425248
-0.03081193
-0.00887606
-0.06023102
-0.07269700
-0.04108579
0.03371666
0.04772682
0.04263611
-0.01179913
0.01328817
-0.05421247
-0.03144692
0.00293014
-0.03078394
-0.07708284
-0.02196604
0.10488763
-0.09966129
-0.08769868
-0.03148215
-0.02578283
-0.03127683
-0.06719513
0.00424482
0.01119060
-0.00040025
0.01808948
-0.08297271
-0.04144182
-0.00797396
-0.00097663
-0.00661842
-0.06273977
-0.02996769
0.08852993
0.01593292
0.01497491
-0.13775972
-0.02990377
0.04679802
-0.03893262
-0.01551549
-0.01341695
0.02007311
0.00883843
-0.01033509
-0.03769966
-0.03139954
-0.03122927
0.00352973
-0.00386206
-0.00255609
0.00838520
0.02346911
0.10426265
0.00355318
-0.02881111
0.04340769
-0.03208824
0.06458405
-0.00224910
0.02671440
-0.13359818
0.03361721
0.06004707
-0.05546361
0.03321619
0.07485435
-0.02470253
0.00145011
-0.05734675
-0.07663297
-0.04978179
-0.02255791
0.00315171
-0.10422468
0.00776662
-0.00671589
0.01008341
-0.00105890
-0.02561301
-0.09896161
-0.01439125
-0.17363788
-0.01934357
-0.00041987
-0.03132355
-0.02394364
-0.00609074
0.06461155
-0.00022780
0.03931905
0.04807252
-0.01543394
0.05196053
-0.01131378
-0.02066982
-0.00568947
-0.04932846
-0.05453610
0.00609845
0.00531888
0.01948058
-0.01796762
0.01166846
-0.01769788
-0.03653653
-0.05563946
0.06477493
0.02895446
0.06521142
0.02927879
0.04056881
-0.02366149
-0.05585394
-0.05126972
0.00945693
-0.01286167
-0.01545672
0.04465176
-0.00860297
-0.01774125
0.00677423
-0.00128096
0.02741410
0.03487727
0.14028017
0.01750422
0.05666269
0.01303963
0.04353076
0.00812314
0.12432005
0.00669043
0.01645967
0.03147660
0.02148875
0.02027898
0.03605592
0.03611220
0.02517894
0.03169281
-0.08488992
-0.03922908
-0.00861323
0.03035495
0.04061038
0.07893675
0.02157178
0.00888429
0.03475890
0.08683071
0.07626960
0.08345744
-0.00409431
0.03159285
0.12126717
-0.01396438
-0.05435896
0.01723460
0.01880465
0.02123764
-0.01627535
0.10711007
-0.04648783
0.02011884
-0.00151872
0.09911267
-0.00281331
0.02789114
-0.03841992
0.01963136
0.00003582
0.14524207
0.09571583
-0.02046370
-0.25610623
-0.14710839
-0.08021854
0.00147808
0.00129331
-0.02966920
0.05110660
-0.04045848
0.02731836
-0.02377823
-0.00649181
-0.00717251
-0.04229138
-0.00862072
0.01872515
-0.04868904
-0.00778440
-0.02183850
0.03510077
0.12449095
0.05079812
0.05555905
-0.01905070
0.06108678
-0.01151560
-0.01351705
0.00756304
-0.01936047
-0.04633752
0.07387706
-0.00202976
0.05073650
0.01786894
-0.01528364
0.04605004
-0.01821889
0.05502538
-0.01321194
0.03188612
-0.03019305
-0.05068020
-0.01669792
-0.00031131
0.02297709
-0.02755196
0.03723430
0.00185144
0.01619017
-0.04558354
-0.00101359
-0.07269382
-0.02741623
-0.08241517
0.01319988
0.03872725
0.09671069
-0.03150462
0.03129372
0.01745416
-0.03012998
0.04652084
-0.05644611
-0.04688326
-0.02568825
0.08388481
-0.09232384
-0.03448114
-0.01711147
-0.02891117
-0.00689478
0.00076653
0.04917233
-0.00147115
-0.04860639
-0.03121026
-0.02085047
0.02490163
0.03256370
0.10818135
-0.03459312
0.03688417
-0.00016715
0.00812049
-0.05353391
-0.03468407
-0.04438207
-0.06481256
-0.06540840
0.01447065
0.00070470
-0.00395845
0.04626733
-0.03118152
0.11375457
0.05818694
-0.00827543
-0.13620947
-0.03601760
-0.04840998
0.09182968
0.02228937
-0.01265117
0.04695299
0.04109169
-0.00779978
-0.00077735
0.02144446
0.07526372
-0.02036783
-0.00634792
0.05663380
0.01408015
0.05457360
0.00802107
0.04809136
0.07153071
0.02613225
0.01721384
0.03441693
0.00971711
-0.01394802
0.01027785
-0.07661291
0.02098815
-0.00614741
-0.08590234
0.01956403
0.06467618
-0.09286307
-0.03899532
-0.03076812
-0.14954527
-0.02388526
0.00005831
-0.04236793
0.06351656
0.00316115
-0.01160494
-0.00199622
-0.02312471
0.00808200
0.00156417
-0.01838040
-0.00948991
0.00464872
0.02207713
-0.13406788
-0.05544218
-0.04695837
0.06399409
0.06001279
0.14252515
0.00011022
0.01169308
-0.01158739
-0.01880254
0.01240046
-0.01479594
0.02573289
-0.00871189
0.08602433
0.04285005
-0.00468994
-0.07883996
0.01414979
-0.02910363
-0.06345134
0.05720433
0.03005439
-0.01432780
-0.01880877
-0.04532767
-0.02250497
0.00381215
-0.00543625
0.01030977
-0.03523989
0.01894739
0.00949296
-0.01372108
-0.08997792
0.00601498
0.08029908
0.14724158
-0.00196323
-0.00039818
-0.03900695
-0.04531598
0.02608506
0.00029409
-0.00670678
-0.01434870
-0.10292251
-0.03163936
-0.01292443
0.00344023
-0.05623980
0.02722905
-0.02909584
-0.06679954
-0.01939051
-0.00161353
-0.01888948
0.00705010
0.00583869
0.03538034
-0.02730465
0.01906039
-0.09254698
-0.00360887
0.02771414
0.06090561
-0.02709596
-0.04412659
0.04944013
0.14707744
0.01064375
-0.05430538
0.00116053
0.07008819
-0.00996103
-0.06992377
-0.01744363
-0.02230524
-0.03699940
-0.02625190
-0.05447147
-0.08265289
-0.01853014
0.04418434
-0.03469346
-0.03233998
-0.01210341
-0.07890496
-0.01932243
-0.09346861
0.11032224
0.00424466
-0.03732536
-0.00732928
0.00781037
-0.02251467
0.04548899
-0.04962848
0.05203982
0.09385247
-0.00459626
0.06685270
0.01237873
0.00866450
-0.07536836
0.07819892
0.00476831
0.00326074
0.00362069
0.04345383
-0.02474320
0.01729254
0.00154399
-0.09156831
0.01922838
-0.02501958
0.00905064
-0.04744009
0.01039193
-0.04713651
-0.00182451
-0.05064290
0.03744006
-0.00889055
-0.01395199
0.02442022
0.06939286
0.00934287
0.00478006
-0.03785279
-0.00954176
0.01205606
-0.00260534
0.00281593
0.00541291
0.00897824
-0.00198802
0.03652297
0.02756280
0.01713674
-0.01712768
-0.00052874
-0.07392377
-0.02768030
-0.04741426
0.06756973
0.04671914
-0.01443627
0.02309963
-0.02060482
-0.00007044
-0.00314765
-0.01425986
0.00631096
0.02306199
-0.00173930
0.04091616
-0.03046183
-0.09341813
-0.02052005
0.04340153
0.04553055
-0.00990319
0.04025537
0.03554607
0.06462514
-0.00104962
-0.07145828
-0.00786369
0.06718090
-0.02291993
0.08146335
-0.01817114
0.00745425
0.00087613
-0.05657077
0.03163526
0.06307837
0.02891532
-0.00318390
-0.03106498
-0.06788883
-0.04725524
0.01355409
0.01563594
0.05022393
0.02533981
0.00687978
0.06961976
-0.03492440
-0.01279317
0.01620592
0.02190959
0.01650162
0.04047696
0.02421059
0.00654862
-0.01304928
0.00180976
-0.00438401
-0.03365204
0.02616909
-0.01176688
0.06417295
0.04062668
0.05347683
0.03125658
-0.01216718
-0.02135445
0.03874221
0.01007096
0.01780764
-0.04935133
-0.03335079
-0.00699701
0.02156224
0.01422891
0.02428964
0.04175690
0.00435461
0.01927361
-0.00564427
-0.01754501
0.05277647
-0.02607474
0.00100485
0.05081989
-0.08769534
-0.07579153
-0.06069560
-0.02758890
0.05759250
0.02656038
-0.02132380
0.17373951
-0.05230950
-0.19679388
0.04014399
0.03805897
0.13939105
-0.01013835
0.05677176
0.05168972
-0.00699130
0.08181259
0.00233660
0.00224595
0.02342898
-0.13264991
0.10763264
0.02887662
0.03539101
-0.00990649
0.00534433
-0.09846140
-0.03239327
-0.00180342
-0.01177128
0.06875312
0.07521119
0.00076810
0.13535093
-0.01204010
-0.09680864
0.03813802
0.02693333
0.03921382
0.11270510
-0.00139839
-0.00040610
0.07838314
0.02763824
0.03344866
-0.00899372
0.00298667
-0.02201400
-0.04158903
-0.05414632
-0.02039771
-0.04094864
0.00141204
0.04065435
0.09641150
-0.12424075
-0.08100326
-0.03583116
-0.11325722
0.00764555
-0.08821731
0.07059285
0.00287023
0.06025089
0.02691923
-0.05956502
0.04056503
0.02239406
-0.04555481
-0.01118888
0.00453689
0.03365397
0.04773321
0.00958391
-0.05024987
-0.07076268
-0.00306279
0.01654852
0.01195667
0.08839612
0.06326865
-0.02004928
0.04098485
-0.03943911
-0.01986543
-0.04504007
0.11115366
0.01039483
-0.06887139
0.01008274
-0.09514546
0.02828311
0.06437462
-0.03426890
-0.08370288
-0.02225685
0.08263151
-0.00023037
-0.01322864
-0.02645953
-0.07059918
-0.12417297
-0.00196145
0.05069962
-0.00214888
-0.10569507
-0.03260915
-0.02590648
0.01644933
0.02164263
-0.01454887
0.00640310
-0.07199411
-0.00316495
-0.04104765
0.04436628
-0.00083475
-0.00064744
-0.02835140
0.01210346
-0.06538115
0.00495134
-0.02092618
0.01702328
0.03361232
-0.01320196
0.01056153
0.00034185
-0.05465453
0.08469749
-0.01535803
-0.01209336
0.02126699
0.03659753
-0.01970525
-0.02673555
-0.00147465
-0.01685761
0.00942826
0.08730482
0.01198589
0.03262093
-0.03940202
-0.00921938
0.01531287
-0.10896172
-0.01523880
0.01526070
-0.00525880
0.03179197
-0.00948922
-0.00381489
0.02376792
0.02987506
-0.06555356
-0.00052417
-0.08085180
-0.22075363
-0.01778782
-0.10728609
-0.07452685
-0.00445381
-0.03217255
0.02037965
0.10294963
0.02142555
-0.08152816
-0.02290128
-0.08532096
-0.01142185
0.04092633
-0.09012564
-0.02242749
-0.01023253
-0.01980253
0.01825810
0.05698941
0.00336523
0.05481235
-0.01320908
-0.03055083
0.06225704
0.03909153
0.01425345
-0.15478434
0.01455486
-0.00307002
-0.01969525
0.01498250
0.07565176
0.15787509
-0.06592853
-0.01277351
0.04241306
0.00232612
-0.02133662
-0.07538272
0.04897866
-0.00308708
0.05401048
0.01667558
-0.02149761
-0.05513816
-0.09162211
0.02612398
0.04844020
0.02344302
-0.00657586
0.03691019
-0.15846832
0.00791650
-0.03177356
0.03265535
0.13001031
0.00539476
-0.05436591
0.00897697
0.17341597
-0.04157478
-0.11751897
-0.00232815
0.00203399
-0.04530131
0.08931793
-0.00128074
0.04337978
-0.31484252
0.01589470
-0.03957436
-0.01047518
0.09473894
0.00516505
0.01132976
-0.02628284
-0.01294590
0.00130590
-0.00555665
-0.00956224
-0.05523474
-0.29211640
0.00638768
0.00286802
0.34302753
-0.02324625
0.13126707
-0.01711350
0.03537507
0.02682888
-0.02028161
-0.03238283
-0.09024786
0.02820306
-0.06103054
-0.17298082
0.01329179
0.00635482
0.05071301
0.03858190
-0.01189806
-0.02117216
-0.00215337
0.06017306
0.01736347
0.06200431
-0.07396431
-0.01769422
-0.05789267
0.00473620
-0.12806237
0.01508692
0.08526382
-0.02569318
-0.00468532
-0.02813282
0.00319540
-0.02616349
0.04539306
0.03408544
-0.01549313
-0.00187654
0.03109089
-0.02142264
-0.08334624
0.00994787
0.05593099
0.09256227
0.05971969
0.11726158
-0.04718032
0.11481337
-0.00268821
-0.06137760
0.12146138
0.10516216
-0.02649955
0.01834080
0.02221482
-0.00501809
-0.06657627
0.04886342
0.04015930
0.02378069
0.03626097
-0.00494291
-0.11079612
-0.00842321
-0.00500233
-0.03618702
0.01524971
0.02548376
0.02135853
0.01401996
0.00725272
0.02013846
0.03768377
-0.01191430
0.02462130
-0.01114027
-0.01623328
-0.07207236
-0.12772213
-0.10519408
0.00201909
0.04781423
0.08283278
0.01648950
0.03144001
-0.06118347
-0.01235724
0.00371050
0.04383336
-0.04725068
-0.04740428
-0.00822518
0.03138842
-0.01401342
0.14880107
0.01655011
0.00390385
-0.04494295
-0.01383767
0.03218578
0.00740113
-0.02705506
0.07243001
0.01597723
0.07468851
-0.03740818
-0.05144048
0.02964954
0.12711231
0.07968213
-0.02550337
-0.10094032
0.02828212
0.12074885
0.06979697
-0.00228413
-0.00507114
-0.01583321
0.04013857
0.12966254
0.07022109
0.03965562
0.09890173
0.06480104
-0.01315741
-0.00758740
0.11012804
-0.02763635
0.02865550
-0.01959317
0.04734367
0.01521178
0.05258160
0.02281615
-0.03313256
0.03912728
-0.05804219
-0.00422382
-0.08448423
0.09662218
0.00711982
0.01591556
0.00797973
0.01242824
0.03171648
-0.03599549
0.01534608
-0.00600249
0.01021483
-0.06565337
0.03657213
-0.00111571
0.07146288
0.01567478
0.00436914
0.03225224
0.00756776
-0.02415698
-0.03852222
0.03419071
-0.00792636
-0.01094159
-0.00216841
-0.04474613
0.05395728
-0.00950811
0.08297294
-0.03455122
-0.05102625
0.03272180
-0.07120031
-0.03459099
-0.11921800
-0.04585475
0.01648435
0.04607328
-0.00343089
0.05037297
0.03149871
-0.09466016
-0.00949244
-0.06115299
-0.05723629
-0.01675440
0.14120148
0.05945116
-0.04771201
0.02562362
0.05181720
0.03790242
0.04077552
0.10765868
0.01319094
-0.06235444
0.01080417
-0.00673102
0.09732214
0.02469557
0.11539543
-0.02997960
0.01410893
-0.00176596
0.02710818
-0.02584115
0.02496445
0.00446294
0.02713455
0.10463255
0.01370651
-0.02179445
0.01176836
0.04659070
0.01481495
-0.11387968
-0.01430286
0.04306924
-0.08419451
0.00036302
-0.04531690
0.04424395
-0.00170203
-0.00747876
-0.05223193
0.03135049
-0.02542457
-0.00962030
0.00597884
0.01416670
-0.03877633
0.01723152
-0.05038854
-0.00064512
-0.03755827
-0.02371466
0.03107388
0.09930760
0.06941873
0.02176097
-0.00732006
0.05859251
-0.03244760
-0.03786953
-0.05042630
0.00325234
-0.03298020
0.01050365
-0.02060906
0.00532015
-0.10728593
0.02200300
-0.00148865
0.11016437
0.00266693
0.00148051
-0.01448282
0.05336359
-0.05603475
0.02148940
0.02892531
0.00428377
-0.00843285
-0.00461039
-0.03791618
-0.01949120
0.07560939
0.00738052
0.02141653
0.13449927
-0.10522831
-0.02041821
-0.01459116
0.01742815
-0.01146959
0.03668078
-0.05961063
0.00037362
0.02371838
0.09494676
-0.04670293
0.03544827
-0.03114210
-0.03411020
-0.00973227
0.01140423
0.03167558
0.00914033
0.08761271
0.06255652
0.03042855
0.01569431
-0.01468233
0.02976628
0.00431475
-0.01237371
0.00183498
0.05049334
-0.00052092
0.00121958
-0.06645662
0.04909527
0.01223628
0.00248091
-0.08393449
-0.11888999
0.01658870
-0.01492425
0.03643944
0.00634800
0.02387128
-0.03120651
0.01763295
0.01687218
0.00322242
-0.02079617
-0.00605473
0.02329384
-0.00757324
0.01159818
0.03688363
-0.00480111
0.04923612
0.02245509
-0.04135605
-0.00635832
0.07182536
0.03250859
-0.03266196
0.02637336
0.07591569
0.01189368
0.05328407
-0.08922734
-0.09547087
0.03013171
0.07170457
0.05928841
-0.00672691
-0.05312227
-0.04665787
-0.13802472
0.00535999
-0.09198470
-0.01149457
-0.11044578
-0.08533210
-0.03757943
0.01783325
0.03513309
-0.03123456
-0.01534899
-0.20428734
-0.08970584
0.00240917
0.09191953
-0.00491484
-0.11024333
0.01840916
0.01817998
-0.08067770
0.01199285
-0.02571936
0.04807983
-0.12686799
-0.09951774
-0.04353921
0.05645059
-0.00352559
0.02075309
-0.00696114
-0.01358512
-0.02316059
0.00176647
0.00147197
-0.05519012
-0.03244030
-0.03118099
0.12950708
-0.05325433
0.01345877
-0.01282574
0.00913323
-0.03580377
-0.12145682
0.06532785
-0.01852629
-0.02540126
-0.00778992
-0.01652628
-0.04224335
0.00366483
0.02437522
-0.00320906
0.01662143
0.01653413
0.03868571
0.00169455
0.03085928
-0.04913298
-0.00230971
0.01725179
0.01256284
0.01394984
-0.06343754
-0.00222399
0.00114792
0.07104076
-0.07828673
0.03061020
-0.06882533
-0.01044192
-0.05138388
-0.06028572
0.01169337
-0.01458272
0.00194562
0.03771499
-0.00132536
-0.02638173
0.02890131
-0.03496806
-0.03632436
-0.01551822
-0.11471627
-0.02764689
-0.03414401
-0.01935419
0.07907267
0.00843422
-0.06294668
-0.06250434
0.06546055
0.03349468
0.01071482
-0.01757457
-0.18099588
-0.08973718
-0.09475835
-0.05598665
-0.05518718
-0.06456857
0.02640112
0.07907958
0.02598748
0.04719318
-0.01540392
0.00066717
0.14812814
-0.01181886
0.00399964
-0.03005018
0.02080952
0.15586121
0.06872521
0.02332278
-0.04919427
0.01470468
0.01359971
0.01913793
-0.03130398
0.07739038
-0.06799944
-0.00204507
0.03210369
0.05763560
0.00840636
0.00926357
-0.02782255
0.00030399
0.06451833
0.01545795
-0.05224216
0.00883647
-0.03989277
-0.14533563
-0.03046402
0.00995600
-0.00785518
-0.01111119
-0.01342867
0.01385329
-0.01051155
-0.04542717
-0.03061405
-0.02426205
0.01535758
-0.08047035
0.05804375
0.00799536
-0.06471068
-0.03415816
0.05346386
0.05600421
-0.02758052
-0.05007098
-0.02001847
0.00244750
0.01821695
-0.03465273
-0.04130835
0.00271804
0.06754154
0.00403072
-0.18184635
0.00096747
-0.01469553
-0.02243384
-0.03403778
0.05632076
-0.05385844
0.03782975
-0.03714562
-0.01496711
-0.06691810
0.02822334
-0.01721402
0.03937558
0.07180426
0.00912347
-0.09653441
-0.01376032
0.03644690
-0.01716940
0.03277441
-0.05982492
0.11770321
-0.00992196
-0.06939732
0.05305923
0.00247265
-0.01700236
0.00508536
0.02804377
-0.01049535
-0.00277551
-0.01616015
-0.04886488
0.05299228
-0.05952106
0.05799077
-0.07032733
-0.00305110
-0.02031911
-0.02221883
-0.08221168
-0.02073473
0.01465665
0.02309597
0.03505372
0.00070349
0.04651191
-0.01089322
-0.12037521
0.11186012
-0.20460565
0.00020418
-0.00119267
0.02430458
0.00167794
-0.04140059
-0.04946613
-0.05785208
-0.11482474
-0.00708477
0.01702334
0.00495387
-0.00345593
0.06196828
0.07355310
-0.00407072
-0.02160663
0.02818001
-0.04555141
0.03608085
-0.31101617
0.00115189
0.01793432
0.30498722
0.09841753
0.22317120
0.03376672
0.06385702
0.07450458
-0.04863162
-0.01774715
0.07149187
0.02203562
-0.05289959
-0.04575481
-0.01295033
-0.00870079
-0.04564825
-0.15300126
-0.00754949
-0.00263348
-0.03105457
-0.11779796
-0.05341859
-0.01406755
0.06502892
-0.01967282
-0.00842577
-0.03836649
0.05563840
-0.01411772
-0.02595946
0.05296635
-0.00070140
-0.02235597
0.01593076
0.05611730
0.00855821
0.04205728
0.03888472
-0.02230175
0.03594579
-0.01137367
-0.07651273
-0.01027440
-0.01131030
-0.02536999
0.06118730
-0.08146624
-0.09962454
-0.09925490
0.01064158
0.05253287
0.06798355
0.01754564
-0.01808847
0.04988842
-0.05030933
-0.02486782
0.01004396
-0.00858956
0.04436193
0.00229307
-0.05760479
0.03952156
0.06991535
0.07835045
-0.04821044
-0.01187223
-0.02697382
0.02046523
0.05163047
-0.00247704
-0.05671671
0.00461467
-0.03101585
0.01929411
0.04050024
0.01141874
-0.00459257
0.09408469
0.09319990
0.05178298
0.00640852
-0.03362723
-0.02534465
0.03337226
0.02403652
0.05305424
0.02216879
0.05900751
-0.06712186
0.04813100
-0.00553072
-0.03808707
0.00523231
-0.00448227
0.00859580
-0.06072455
0.00082705
-0.04850301
0.00672745
0.04521312
0.04394371
-0.01302480
-0.04025756
0.01732287
-0.14435382
-0.02360168
-0.02674079
0.05250596
0.01323480
-0.01025074
-0.04656632
-0.03124100
-0.01830473
-0.07426730
-0.05321876
-0.04059323
-0.02421153
-0.08050115
0.02272898
-0.03527920
0.04453689
-0.03513353
-0.02201742
-0.01790817
-0.06439152
0.01075888
-0.05941023
0.04761685
0.00963501
-0.01153506
0.02532530
-0.04878907
0.08473407
-0.04377580
0.16642290
0.01729466
-0.02740576
0.01804615
-0.06567992
-0.00278469
-0.01383773
-0.03019100
0.03882337
0.03625133
-0.02457695
0.03808829
-0.07367428
-0.05233359
-0.00819164
-0.03161059
0.00402602
0.01619683
0.04626470
0.22028475
-0.02788356
-0.03545244
0.00279011
-0.03517024
-0.07014450
-0.01290957
0.03015320
-0.05060881
-0.02241491
-0.06901951
0.00026878
0.00603361
-0.05136206
0.00557084
0.05359279
-0.02973433
-0.00251496
-0.09862167
0.00201706
-0.10576330
-0.03571277
-0.22592115
-0.00562775
0.03716597
-0.02417012
-0.05168058
-0.08688693
-0.02059931
-0.05510354
-0.19754456
-0.00697659
0.00136905
-0.00932739
0.03161461
-0.02346925
0.02680416
0.04947145
0.08713327
0.01814345
0.05709245
-0.01007345
0.07476465
-0.08238603
-0.00954537
0.00865858
-0.00444679
0.01732979
-0.00031722
0.02084207
-0.06318619
-0.07155211
0.00864944
0.00905384
-0.06398331
0.00627597
0.00387143
-0.00628409
-0.01773272
0.00422753
0.05139954
-0.01282263
-0.03211348
0.01235908
-0.03270020
-0.00943611
0.03431270
0.02941182
-0.01692295
-0.00734452
0.05810365
-0.00045260
0.01922218
-0.03645628
0.02787409
-0.03793272
-0.04429083
0.00092586
-0.00260607
0.17511404
0.06831831
0.01802075
0.02573876
0.04120175
-0.13132730
-0.08123173
0.00431385
0.03472950
-0.00906778
-0.02502182
0.00191412
-0.04632230
0.04727755
-0.09067939
0.02073161
0.04066927
0.00795056
0.00966477
0.04775136
-0.22359955
0.07364558
-0.01578775
0.04134500
0.05447850
0.09970986
-0.04817773
-0.01168753
-0.05049787
0.00294460
0.06104223
0.02630638
-0.02571495
0.02001721
0.02858987
0.08768962
-0.05882465
-0.04549109
-0.00640209
-0.01743936
0.02239173
0.01745463
0.05310827
0.00285291
-0.01541976
-0.04098213
0.03124885
0.00350041
-0.00061888
0.03181581
0.01491456
-0.01956407
-0.02777747
-0.00852876
0.05767335
0.03256436
-0.01596900
-0.02754674
0.02118194
-0.00389871
0.05863239
-0.00384985
-0.24041419
0.02628108
-0.00444520
0.02747156
-0.00050915
0.00397946
0.08484726
-0.00828511
-0.01966785
-0.01159757
-0.01498314
0.01541920
-0.11652590
-0.18438023
-0.02129080
0.04932404
-0.05103902
0.03151968
0.01884493
-0.02639286
0.02644151
0.07145122
-0.04899849
0.01148151
-0.05825632
-0.00756427
-0.01105063
0.00650215
-0.04632884
0.02695987
-0.10480275
-0.05253012
0.02973847
0.04296462
-0.07055860
-0.01889876
-0.01099359
0.05719255
-0.09518417
0.00488813
-0.02781542
0.01485017
0.03093652
-0.04725096
-0.02594747
0.01289464
0.03771136
0.09117293
0.00744584
0.01216698
0.00083739
0.02808127
0.02127399
-0.02048010
-0.02403387
-0.00356820
-0.03652853
-0.01241315
-0.00594013
-0.03958301
0.04330377
-0.01680894
0.00874390
-0.02877797
-0.00301568
0.02007635
-0.00430992
-0.01464102
0.01867489
0.02558645
-0.00762516
-0.08992817
-0.06061852
-0.08222100
-0.00232144
0.04348587
0.07980265
0.02689171
-0.04891521
-0.07013291
0.04223816
0.01442512
0.07218701
-0.08114610
-0.00148795
-0.03682755
-0.00848852
-0.01242780
0.11030712
-0.04696210
0.00877248
-0.01440148
0.00593078
-0.00623799
-0.00026526
0.00050590
0.01204518
0.00337559
-0.02271509
-0.00526657
0.06615487
-0.02047952
0.08254640
0.04201741
0.03954884
0.04131882
-0.00679071
-0.04535597
-0.08439438
0.02473339
-0.00608665
-0.04028900
0.01686207
0.06413169
0.00059023
-0.02644367
0.06254248
-0.00556065
0.00276551
-0.01357255
0.07234170
-0.01947377
0.01190438
0.00082940
-0.01262891
0.07608212
0.00369140
-0.04919202
0.08632486
0.04547707
-0.00385394
0.02960455
0.04115976
0.01716238
0.10613766
-0.09365156
0.01733171
0.05527984
-0.00601130
-0.00311495
-0.07519796
0.08345036
-0.01922153
-0.11927551
-0.08653235
0.07014799
-0.02516811
0.07610191
0.02737452
-0.06144271
-0.05249909
-0.00195480
0.06442244
-0.06716852
-0.00927173
0.01621038
-0.02752388
0.14918835
-0.01233489
0.00744552
-0.04767163
-0.01104944
-0.06566679
0.01165817
-0.02703138
0.01524806
-0.01680377
-0.05242797
0.07150464
0.04789353
0.01588995
0.03893011
-0.06264555
-0.18390694
0.01672135
-0.09050852
0.02822729
-0.00119951
0.02788002
-0.00440013
-0.05760146
0.05517130
0.00526275
0.01760847
-0.07370133
0.02414954
0.00463145
-0.00189151
0.02202255
-0.03466370
-0.01528393
0.00359740
-0.04084501
-0.00962797
-0.00187447
0.01560863
0.05421199
-0.02156358
0.07379391
0.06094715
-0.10376398
-0.07108387
0.00971613
0.00988675
0.05946146
0.03957250
-0.07402456
0.03290759
0.08169748
-0.02006639
0.03647361
-0.01008884
-0.01627796
0.05923070
0.04900177
0.02450054
-0.01399799
0.02579590
-0.01832162
-0.02417224
-0.00464233
0.00272314
0.06443372
-0.00087606
0.06669565
-0.00304948
0.01107216
-0.01460048
0.04011080
-0.00869559
0.01341177
0.00949624
0.01333906
0.05621158
0.03092816
-0.00927747
0.00108011
0.02512677
-0.00129319
-0.06840683
-0.01922677
0.07173492
-0.06774037
0.03355768
-0.07051843
-0.05327421
-0.02303395
-0.00058618
-0.02976048
0.03346899
-0.04154805
-0.03310010
0.00426159
0.02039017
0.00863259
0.00036674
-0.01296847
0.04970187
0.04985879
-0.00254593
-0.01686211
0.02913573
0.06582884
0.04456824
-0.06973410
-0.00639533
0.00383320
0.02015534
0.01993556
0.02843685
-0.04319089
0.01788664
0.01078854
0.03124711
0.03079280
0.03102280
0.00045852
0.03779553
0.05609772
-0.02206213
-0.03223918
0.01979883
-0.03211871
-0.01694526
-0.01629720
-0.02156018
0.01134072
-0.00472291
0.00669387
0.00775031
0.01416398
0.01343646
-0.14315888
-0.14005864
-0.02067211
0.00592258
0.00185992
-0.00795370
-0.02285194
0.05433237
-0.02283489
0.00848453
-0.06160599
0.01653975
-0.02493591
0.01223917
-0.00607849
-0.02143013
-0.03071505
0.03261513
0.03005003
-0.00477701
-0.04676928
0.00948349
0.05468394
0.00751535
-0.04606513
0.02912927
0.00309430
-0.01808224
-0.14334489
-0.02931499
0.03884679
0.01555080
0.03293814
-0.05929891
-0.09917496
-0.05362643
0.07532636
0.20761524
0.01032437
0.04088757
-0.04620652
0.04221595
0.01812595
0.06335077
-0.01191948
-0.00078023
0.00134032
-0.01580763
-0.00696431
-0.19799706
-0.00278766
0.01902308
-0.02786267
-0.01154737
-0.00712501
0.00480329
0.00579956
-0.08145396
-0.04679491
0.00744209
0.01278042
-0.00108854
-0.02903936
0.00811897
0.01847199
-0.00342553
0.04460098
-0.05838845
0.00162252
-0.03059601
-0.00325686
0.00187557
-0.01403908
0.00823370
-0.02846595
0.02019753
-0.04142189
0.04886094
0.02249759
-0.08663082
-0.01748064
-0.05357679
0.00261019
-0.01747405
0.05364618
-0.19529568
0.03180910
0.02780443
0.00780961
0.05186110
0.01707544
-0.00961273
0.04463358
-0.05589489
-0.08606001
-0.01123906
0.00671622
0.04024583
0.06446595
0.03925035
0.00532430
0.06389105
-0.01844072
-0.02457775
0.05887310
0.02230748
0.01675420
0.02537297
-0.01528307
-0.03745337
0.00438672
-0.02609541
-0.00702512
0.02023762
0.00443202
-0.03597347
-0.01752401
0.04333518
-0.02664376
-0.02805028
-0.02438548
0.02365312
-0.01564487
-0.01249447
0.06563378
-0.03151868
-0.05669717
-0.00873422
0.03885458
0.00084887
-0.01416486
-0.01571547
-0.03428447
0.13979237
-0.01258078
-0.02623346
0.09688023
0.02559326
-0.06679945
-0.03734291
-0.03658132
-0.03928830
0.01878366
0.01695572
-0.03447916
-0.02149530
-0.01710170
-0.00246743
0.03950673
0.02026478
0.00166730
-0.03115585
0.00610637
0.01650373
-0.04905226
0.03620525
-0.09909129
-0.01237184
-0.09099510
0.00790393
-0.07499202
0.00896820
-0.06840756
-0.11395562
0.19896206
-0.54231155
-0.03738612
-0.05112325
-0.25333849
-0.48121825
0.01692658
-0.17683493
-0.01499752
-0.01031181
-0.10762388
0.06780679
-0.02764478
-0.00400509
0.05275476
-0.01880978
0.05603461
-0.10196654
-0.01122093
0.01041173
-0.01437253
0.08777917
0.06453285
0.00581536
0.02465095
-0.00471382
-0.06733264
-0.06711610
0.03750669
0.05876686
-0.02331903
0.08580520
0.18175025
0.12896091
-0.01229410
-0.02594826
-0.11139163
-0.05640397
-0.02314630
0.01109405
0.00534677
0.02545764
-0.04066748
0.02625297
-0.00629065
0.04609764
0.04324127
-0.03838786
0.05990384
-0.05454598
-0.03664265
-0.03721388
0.06306802
-0.07164786
0.02938979
0.04844519
0.02452142
-0.00158419
0.01699208
0.01720010
-0.02456835
0.04314953
0.05201170
-0.01978149
-0.06386232
-0.10997409
-0.00321067
0.04334527
0.00159571
0.01461083
-0.00318941
0.07170004
-0.03627785
0.03799932
0.05397717
-0.04120872
0.05523643
0.02484385
-0.03652274
-0.02905809
0.02155882
-0.00982237
0.05353586
-0.00124676
-0.00937016
-0.01212236
-0.01712784
-0.01271490
0.09473025
-0.00659070
0.00711118
-0.02362178
-0.08865698
-0.05002663
-0.01362359
0.02649607
0.01965666
0.01976194
-0.00111594
-0.02561195
-0.02906234
0.00042912
0.04332955
-0.01867075
0.12093170
0.00785444
0.08312883
0.01466425
-0.05488628
-0.02700690
0.01822968
0.02515019
-0.01520307
0.05875829
0.02484452
-0.02693868
-0.00189631
-0.02681019
0.05070064
0.00458944
0.00939231
0.02628870
0.00929701
0.03935122
0.01267273
0.05867891
-0.00288717
-0.04109154
0.02510006
0.04224840
0.01235430
-0.01076904
-0.08432223
0.03242709
0.01593657
0.19268155
-0.06337517
0.03662130
-0.22396663
-0.12302483
-0.02485546
-0.00737693
-0.00708823
-0.00214465
0.03041959
0.00344580
-0.00640379
0.02506015
0.00794297
0.03808302
0.02088827
-0.02894110
-0.00771538
-0.04739365
0.07752413
0.02239478
0.02463537
-0.08483071
0.08609415
-0.05417353
0.03477733
0.06544206
0.01233174
0.05980941
-0.16256146
0.06121293
0.01511786
-0.23840196
0.02297741
-0.00457763
-0.01984420
0.00227850
-0.00290499
-0.06209480
-0.06529891
0.00339052
-0.01377449
0.07161551
-0.02164928
-0.05689746
0.00358804
0.07680574
-0.12916808
0.03661360
-0.01917186
0.20080085
0.01479081
0.39483884
0.00799079
-0.01483908
-0.02391952
-0.10432518
0.02050649
0.01004760
0.12356360
-0.23435257
0.00733823
0.03810679
0.07445895
-0.02180871
0.04101893
0.01129408
0.01787824
0.03828448
0.03609346
0.00213614
0.00226383
-0.08108798
-0.01056834
0.05961486
-0.38097703
0.18796219
-0.29174179
-0.01353577
0.14961877
-0.00563059
0.16187413
0.03128867
0.08154026
0.00045967
0.03785462
-0.00183894
-0.05095069
0.09197345
-0.00813326
0.01398573
0.00708632
0.01031052
0.05552188
0.12240595
0.01801152
0.00373177
0.01779053
0.02874060
-0.10016356
-0.03531431
-0.00285820
0.00032983
-0.01005194
0.01149913
-0.12671596
0.09040441
0.00924936
-0.01437225
-0.01482760
0.02790733
0.06014875
-0.01390324
0.01833698
0.02793176
0.01545160
0.05177242
-0.04844450
-0.00380888
-0.07829466
-0.00763215
-0.00631267
-0.06324654
-0.00196422
-0.05754502
0.11329273
0.04593824
0.02869428
-0.06275620
-0.03634434
-0.10131378
0.03878657
-0.03801345
0.00390026
-0.02267755
-0.01625307
0.02017257
0.02394328
0.02695306
-0.00817538
0.02238553
0.02998611
0.16371801
-0.00325132
-0.01027664
-0.04060046
0.00408565
-0.03270162
-0.01458042
0.02050695
0.06260485
0.14852494
-0.01340109
0.05647202
0.09713196
0.00081754
-0.00091572
-0.08503947
0.01529411
0.00912305
0.01160689
-0.05695364
0.00983003
-0.06094791
0.00188793
0.02387303
0.08661252
0.00457157
0.00531618
0.01089444
-0.18499659
0.01445884
0.00065811
-0.00145858
0.06125743
0.01096808
0.03126436
0.04879627
-0.25103259
-0.05479092
-0.08320518
-0.05225209
-0.02313842
0.04421265
0.04523969
0.00147205
0.00888688
0.01806141
0.00087887
-0.00858264
0.00617423
0.16445726
0.00545542
0.09740631
-0.03610059
0.01618330
0.01297860
-0.01637399
0.02318868
-0.13248375
0.15659723
0.02224877
0.01992305
-0.06507324
0.06578108
0.27162644
-0.05764133
-0.01735700
-0.02768391
0.03604662
0.01234792
0.03110805
-0.00696716
0.02636379
0.13339426
-0.00171308
-0.05911590
-0.12284380
-0.18174775
0.00057619
0.03064543
0.13513683
-0.03376222
-0.00478836
-0.02015462
0.02272973
0.02467519
-0.02199493
-0.03984571
0.00847989
-0.06018786
0.01657853
-0.04438645
0.14480487
0.03212880
-0.02469146
-0.04872579
0.03669107
0.03195137
0.01606728
0.01479259
0.02514764
0.04337295
0.00290666
0.04332013
0.02004543
0.03270210
-0.10023621
-0.01046834
-0.00712102
-0.01339661
0.02037137
-0.04954887
-0.05996978
-0.00782824
-0.05869188
0.05539253
-0.02081000
-0.04669952
-0.00869877
-0.03803746
0.00104056
-0.00198563
-0.04292272
0.03162543
0.10122776
0.08277368
-0.05629159
-0.04761385
0.03380153
0.01377897
-0.03591045
0.02381040
0.04841393
-0.04206450
-0.05220655
0.01455187
-0.05247483
-0.15060236
0.04509503
0.01847745
0.06020524
0.05955668
-0.01387685
0.05120359
0.04667727
-0.02263210
0.01283135
0.01456149
-0.01797512
0.06361318
0.04117136
-0.04159096
-0.04975010
0.01854658
0.01596612
-0.00460214
0.00700665
-0.02449330
0.02275668
0.00164968
-0.01131189
-0.00059685
-0.02548775
0.00691092
0.03634736
-0.03979736
0.00293547
-0.00807634
-0.02631033
-0.07636491
-0.03501614
0.03570915
0.01476156
-0.00819642
0.00470841
-0.01043808
0.01677420
-0.04128323
0.01839617
0.00437847
0.10558008
0.02433725
0.02506680
0.03206634
-0.04667787
0.07294229
0.00219899
0.00691200
-0.00472806
0.02559916
0.01327129
0.05731679
0.02643371
0.02240314
0.05610234
0.01170063
0.01503469
0.00594930
-0.01321668
0.00582675
0.03469238
0.08728091
0.02797774
-0.04915510
-0.00240252
-0.04704421
0.02345591
0.00408320
0.00160956
-0.00016925
0.01062525
0.00999895
0.01711129
-0.00920840
-0.01903575
0.00954863
-0.05082483
0.02227449
0.00339916
-0.01726495
0.00601459
-0.03829076
-0.01110071
0.02147766
0.03302977
-0.00242187
0.01985010
0.00471513
0.01045424
-0.00446752
0.01726868
0.01080678
-0.02581726
0.06251776
0.04623242
0.04290853
-0.02187532
0.00216518
0.01476006
0.00110049
0.02119634
0.04669887
-0.02136891
0.03924495
0.01859029
-0.00911229
-0.02637050
-0.02832048
-0.03196657
0.00540886
0.03362867
-0.03468014
0.02088498
-0.02358841
0.01133546
-0.06831530
0.00264264
0.02676150
-0.02949012
0.00700806
0.05556991
-0.01293459
-0.03967752
-0.02066082
0.04693417
-0.05265962
-0.02982907
0.00475261
-0.00783451
0.08370703
0.03480900
-0.03729502
0.01933286
0.11158188
-0.02277239
0.00562669
-0.04460957
0.06703318
0.02613620
0.07711982
-0.02069559
-0.01039891
0.00968852
-0.01407312
-0.05017076
-0.06914948
-0.02034415
0.04162362
-0.01222449
0.02926899
-0.02579234
0.02164593
0.01548088
0.33026364
0.08168744
0.05738219
-0.01686203
0.05082381
0.00297445
-0.08631663
-0.04705986
-0.00758328
0.04539312
-0.16765969
0.00412697
0.00257091
-0.02739293
-0.02880495
-0.01302607
0.00795653
0.08946901
-0.00778722
0.00808433
-0.07282946
-0.00589870
-0.36492339
0.04251857
0.02009513
-0.00024256
0.24482864
0.00299929
-0.01007771
-0.00728378
-0.03645013
-0.03907666
0.02579629
0.01876941
-0.00701110
0.00456675
0.07983631
0.05091029
0.00147876
0.00747385
-0.06643653
0.00704445
0.05707226
-0.00951725
-0.07414183
0.00921373
-0.00276397
0.02911588
-0.01109826
0.02285883
0.02817150
-0.04413138
0.00169193
0.01180184
0.01726476
-0.03624978
0.04587310
0.05544386
-0.03269031
-0.02091681
-0.00937311
-0.00731362
-0.00522733
-0.03191170
0.01552643
-0.02122344
0.00767594
-0.02061135
0.13858142
-0.04094737
0.00601682
-0.03140580
0.05083071
0.00141989
-0.02358913
0.01376395
0.00239934
-0.02709640
0.10130390
0.06178435
0.00161486
-0.16928206
-0.14362551
-0.08167248
0.05264202
0.00883459
-0.02990932
0.03695635
-0.01096606
0.00928157
-0.01884460
0.00521273
0.00959816
-0.01422672
0.00912348
-0.00340699
0.00096810
0.00672911
0.01600350
-0.00703670
-0.05163684
-0.05629863
-0.03137594
-0.03570268
0.00394156
-0.00959625
0.01868720
0.00805965
-0.03764837
-0.02321244
0.04761796
0.06108459
-0.09226970
-0.09575482
-0.01190342
-0.04084721
-0.04416277
0.02080042
-0.00645327
0.02121278
0.03640979
0.03506912
-0.02282481
-0.03004976
0.00706549
0.00318279
0.00268505
0.00997576
0.01085643
-0.01153175
0.00148292
0.06580751
-0.00283013
0.00102911
0.02985062
0.01736980
-0.01798254
0.00731181
-0.00834445
-0.06025517
-0.02005538
-0.01122063
-0.06243545
-0.00026860
0.05968664
-0.01180428
-0.00504955
0.03457588
-0.01716094
-0.02664540
0.00013921
0.05534056
-0.04591626
-0.00704405
0.00294662
0.00410566
0.03321594
-0.00296552
-0.01854981
-0.00335439
-0.05200613
0.04709046
0.02518653
0.05115196
-0.01683301
0.06232544
-0.03291913
0.07389596
0.16885263
0.02607201
0.07440738
-0.18194854
0.24150582
0.06322350
-0.05525967
0.01437579
-0.00414350
-0.00830392
0.04868468
-0.00800689
-0.12144402
-0.03776937
0.04389408
0.01591708
-0.00363277
-0.04870805
-0.04050185
0.01140068
0.08402974
-0.04561125
0.02662935
0.12629624
0.00235557
0.01759206
0.01806504
-0.09391686
-0.05227111
-0.00651963
0.04357937
0.01537897
0.01761535
-0.01590296
0.00524962
-0.05097339
-0.00755367
-0.05790212
0.03152969
-0.01796918
0.02717620
0.02883233
0.06238453
0.00868798
-0.02588261
0.03185352
-0.02829666
-0.05651956
0.03940838
0.00477367
0.02139466
-0.02238227
-0.06130805
0.00030568
0.02036262
0.12746587
-0.02360951
0.09494986
-0.02662620
0.02691238
-0.03935518
-0.03998213
0.01836060
-0.14113234
-0.21732774
-0.01027068
0.12327331
0.34638560
0.02655038
-0.01265511
-0.06759816
0.00345950
-0.03616535
0.15704633
0.03131866
-0.00324796
0.02973315
-0.00080671
0.00973056
0.02061582
0.15941302
-0.00925618
-0.01910184
0.02820609
-0.00989440
0.06945553
0.10094026
0.00899214
-0.15017726
0.04995257
0.04048284
-0.03331864
-0.04319449
0.02029418
0.07304476
0.01828158
0.00098936
-0.00662527
-0.00819136
0.02625749
-0.03991012
0.00548251
0.02200537
-0.10881599
0.00700555
-0.02189035
-0.00093921
0.03117279
-0.00324776
-0.07352164
0.12406820
0.03100744
-0.01281454
-0.32638702
0.12048635
0.05794474
-0.02265558
-0.01184182
0.12956361
-0.06580246
0.03193349
-0.11588381
0.01966432
0.03436887
-0.04824056
-0.09120908
0.03524291
-0.01622480
0.03039452
-0.03102200
-0.08792023
0.04017261
0.08249872
-0.02256468
0.09805261
-0.01007474
0.02084483
0.06354900
0.02509438
0.04704595
-0.00244242
0.01347042
0.05062527
0.01759317
-0.02936274
0.03283790
-0.02980021
-0.06110486
0.00834521
0.00338805
0.02738716
0.00509107
0.01553211
0.03291073
0.07030305
-0.01223251
-0.02821543
-0.02877293
0.01732780
-0.03223251
-0.15324137
0.04838312
0.12562847
0.01602989
-0.12337035
0.03822244
-0.02816568
0.07701987
0.01401488
-0.04424670
0.05148923
0.03300570
0.01586174
-0.07423590
0.05717991
0.05587259
0.02828426
0.00777416
0.00329099
-0.01396197
-0.00440261
-0.02761881
-0.00811887
0.04966284
-0.00451648
-0.05019221
-0.02080065
0.02523401
-0.02170283
0.00991123
-0.00020293
-0.03304074
0.01113540
0.01588571
-0.03715885
0.02733060
-0.02678862
0.01100782
-0.03707951
0.00129407
0.03990762
-0.05420485
-0.05899939
-0.03847043
-0.00473911
0.00918063
-0.00195720
-0.02327382
0.00584908
-0.04653780
0.01477250
0.04887481
0.05815195
-0.05746776
0.04679412
0.14998622
-0.00474492
-0.05885515
0.01054186
-0.08477073
-0.11959923
-0.03955419
0.07785460
0.07041938
0.05798282
-0.00715296
-0.03027908
-0.05259336
0.00293701
0.00537257
0.03243177
-0.05030254
0.01986561
0.05605335
0.08099617
0.00410683
0.00229307
0.03528775
-0.02550895
-0.14825401
0.08821549
-0.00317404
-0.03612372
-0.00656442
-0.04953519
-0.03136824
0.00815742
-0.00252424
-0.18301784
0.12725882
-0.35384080
-0.02514460
-0.01792086
0.01113374
0.06115461
-0.00095568
-0.03450617
0.08424569
-0.17362240
0.00779558
0.02554746
0.02202269
0.00007052
-0.20313670
0.04171868
-0.03187981
-0.01803988
-0.02390823
-0.03133841
0.02527153
0.32300547
0.04350460
0.00406587
-0.39685169
0.22271347
0.26716435
0.02943780
-0.07516924
0.03000627
-0.09729911
-0.00409728
-0.05009301
-0.00511636
0.07359115
0.00830293
-0.01636440
0.11352279
0.09326194
0.04926965
-0.00085902
-0.08589397
-0.16135308
-0.17904559
-0.00390480
0.02674088
-0.06143783
-0.11119779
-0.06863887
-0.11001786
0.05332498
-0.00349201
-0.02480721
-0.01282828
-0.13493221
-0.05667473
0.01413215
0.01887362
0.02326085
-0.12846926
0.06078441
-0.00985527
0.00134688
-0.04268790
0.03590165
-0.14235967
-0.00139476
0.05040424
-0.01693214
-0.05049438
-0.02328682
0.00946729
0.04181881
-0.09293672
0.02884521
-0.03081999
-0.21081881
-0.02270756
0.25936252
-0.03451947
-0.01231219
-0.06837036
0.03265964
0.02360395
-0.17865464
0.12520841
0.00247002
-0.05857180
-0.07162048
-0.00194599
0.04066239
0.01003205
-0.09298484
0.09216150
0.04560370
0.08667830
-0.07071855
0.06359012
0.02994063
-0.00020024
0.11743148
0.01909317
-0.03269083
-0.03009313
0.04357865
0.04916564
0.06932902
0.04347024
0.02377671
0.14603837
0.01738671
-0.04172408
0.07341886
0.02578004
0.14611199
0.03155707
0.10300612
0.12247113
0.09637994
0.09389555
0.20893092
-0.03787204
0.04465652
-0.07204122
0.08205021
-0.00751969
-0.02846910
-0.10303117
0.12784922
0.12097914
-0.04594581
-0.03577713
-0.03404605
-0.07844459
-0.00477864
-0.07903360
-0.15825650
-0.05215265
-0.00333830
0.02992007
-0.28452271
-0.06557199
0.36184287
0.03966385
0.01027389
-0.01214910
-0.03042003
-0.04176146
-0.14485955
0.08533844
-0.01334418
0.00772177
0.05414797
0.10459636
-0.25497034
0.02623974
0.05521616
-0.03929657
0.11859749
-0.02262370
0.10512254
-0.00261972
-0.01253000
-0.05533762
-0.07581813
-0.00986261
0.03683467
0.04652546
-0.00434883
0.04781663
-0.00550722
0.18208352
0.01253356
-0.10719746
0.06004137
0.07613552
-0.03568624
0.04263518
0.03777626
-0.09427553
-0.04906607
0.01870230
0.04288741
0.04199948
-0.01488225
-0.00484239
0.01951079
0.08737711
-0.05618943
0.02575076
0.00641084
0.00237024
-0.03922052
-0.00663868
-0.07495571
-0.11705543
-0.05337079
0.01581031
0.04073098
0.10854410
-0.00821855
0.03684639
-0.02456257
-0.01321847
-0.03034470
0.00704681
0.03508644
-0.03195576
-0.00465532
0.07907097
-0.03574333
-0.00593846
0.05640823
0.00795134
0.00189446
-0.01189344
-0.00205604
-0.01858632
-0.01466791
0.00997305
0.00208718
0.06116810
0.04985839
0.03642946
-0.01408777
0.01456821
-0.01417650
0.05510132
-0.00180812
-0.02290377
-0.01654495
-0.06547473
0.02177653
-0.00093044
0.01376837
-0.00934956
-0.01388791
0.10174280
-0.06608638
0.00974009
-0.14832726
-0.04682214
-0.03561705
0.01029579
0.00030263
0.00631016
0.07662092
0.09853237
-0.00833302
-0.03726280
0.01469385
0.02563486
0.00860784
-0.01596193
0.01716098
-0.02222418
0.01322309
-0.01199879
0.06799322
0.02523640
0.04103668
-0.07480106
0.01540406
0.02635526
-0.00304753
-0.01435527
-0.03309082
-0.00879293
0.00947073
-0.06913923
-0.02969184
0.02351166
-0.07113997
0.02106097
-0.00402359
-0.06509479
0.00210515
-0.01382200
0.05019542
0.03098640
0.01138406
0.03583810
0.00155083
0.03789057
-0.00612008
0.00227959
0.04067754
0.05411797
-0.08915554
-0.01615315
0.05896967
0.11837957
-0.02405711
-0.04268591
-0.00266776
0.06160386
0.01557976
-0.03615045
-0.00947379
0.13391736
-0.00143723
-0.07445119
-0.00363830
-0.03775192
-0.07681134
-0.01924986
-0.03945080
0.10065553
-0.01291054
0.01702653
0.01133554
-0.03745488
0.00809831
-0.08495308
-0.01043016
0.03140195
0.09103459
0.00722972
0.00300228
0.14713556
0.10518256
0.14804699
-0.01789281
0.00337837
-0.01893883
0.03477899
0.02220867
-0.00097140
0.15697983
0.03354922
-0.02980376
-0.02382963
0.04911476
-0.00396786
0.01839949
0.02483184
-0.04619380
-0.03831992
-0.05539255
-0.00905780
0.00824726
-0.12205937
-0.02308691
0.01062006
-0.13265859
0.10677065
0.01114173
-0.02355443
-0.02519273
0.02932254
-0.03843447
0.00008225
-0.05154696
-0.02409887
0.01108896
0.07423782
0.06507926
0.09346466
0.03939382
0.18559276
0.01566635
-0.05796354
-0.02071035
0.05838530
-0.06450768
0.07311255
-0.00687570
-0.10801797
-0.04281026
0.01560212
0.03990195
-0.12630656
0.02087808
-0.02215436
0.09886150
-0.00964259
-0.05216709
-0.00004403
0.02710590
0.08141609
0.03687999
-0.03475263
-0.06563868
-0.01638045
-0.14049941
-0.00624646
0.02041460
-0.02610801
-0.12764998
0.05326521
-0.03394524
0.15387015
-0.00004976
-0.06381916
0.01789133
0.05591502
-0.02673215
0.06836549
-0.02719099
0.01131942
-0.02898443
0.01677814
-0.02591229
0.01942363
0.02813779
0.00178009
-0.03852857
-0.06945102
-0.04317238
0.00045066
0.00710050
-0.00526558
-0.04543485
0.09821042
-0.00973881
-0.01816149
0.04971331
-0.03348760
-0.03316367
0.00150568
0.06962096
0.10402311
0.01589472
-0.01559039
-0.00056960
0.01197964
0.08790077
0.00257008
0.06577237
0.00968419
0.17963913
-0.05209196
0.02768749
0.01702105
0.06109347
-0.02250925
0.02069197
0.02999729
0.05565527
0.00592285
0.06979795
-0.03959556
0.08908138
-0.05325240
-0.08862607
-0.01379631
0.03341116
0.04700802
-0.00926717
0.00419785
-0.10823430
-0.11369397
0.00390406
-0.00972874
0.04455040
0.00058001
0.02884905
0.02386028
-0.03586119
-0.01027589
-0.01477923
0.01470889
-0.03350679
0.04422670
0.02494884
0.00776085
-0.02045163
-0.03439237
0.00088358
0.03359756
-0.04190851
0.05659827
0.06074395
-0.00692549
0.00062974
0.00414136
-0.01561014
0.00232094
-0.04536839
0.01245921
0.10983433
-0.00675869
0.04746433
-0.01896920
-0.02621466
-0.00936699
0.00957956
0.02727768
-0.00470963
0.04581454
-0.05007844
0.08905771
0.08880758
-0.09308983
0.08711115
0.12956335
-0.07425532
-0.01751897
0.07890461
-0.07944203
-0.05276909
0.01414403
0.11905703
-0.04085493
0.00651095
0.02956248
-0.00032775
0.07888056
0.00031664
-0.00098843
-0.03551998
-0.03073625
0.04720810
0.00588614
0.03342027
0.05071918
0.02057086
-0.02187053
-0.05969608
-0.10258333
-0.03421886
-0.04729951
0.02360708
-0.09549819
-0.15229583
0.00217445
-0.05180553
-0.02886691
-0.00369649
0.00466197
-0.00311671
0.00463333
0.10493019
0.11165280
0.04369880
-0.01879681
0.10218120
-0.02933098
-0.04738508
0.05141319
-0.08362579
-0.01760686
-0.02358423
-0.00092476
0.06158405
0.02360938
0.00696921
0.00081827
-0.03790879
0.00088966
0.00827797
0.01354004
0.03425628
0.00126110
0.02494638
0.02712135
0.09376376
-0.03422090
0.00795747
0.02516847
-0.01018669
0.08986032
0.00173799
0.10724317
-0.02493542
0.00793140
-0.04917919
-0.00566772
-0.01098197
-0.01733054
0.06452648
0.06646828
0.02552520
-0.00030751
-0.00845782
-0.11638093
0.06698187
-0.16326192
0.00613901
-0.00235778
0.01865231
-0.09562352
-0.01454546
-0.03701904
-0.05536414
-0.11692143
0.03142093
0.02422875
-0.00747597
-0.03649381
0.01446619
0.05473202
0.01080922
0.07550010
0.00296607
0.04784577
0.03074981
-0.33531946
0.00815704
0.03789930
0.37687752
0.13304169
0.13153759
0.01033706
0.17891736
0.10074411
-0.02342107
0.07623873
0.05701692
0.35839677
-0.03171186
0.00895251
-0.00251105
0.13238637
0.01275654
-0.00715833
0.15090172
0.11619131
0.01204573
0.02574300
-0.03580117
0.00367729
0.00002732
0.03744539
-0.00129694
-0.01030411
0.07290610
-0.01847945
0.14969002
0.08629936
-0.03164769
-0.02484256
-0.61631119
-0.01055910
-0.00746585
-0.00433264
-0.01043576
-0.01345686
0.09076029
0.00025551
0.01843174
-0.01649170
0.02252540
0.11466581
-0.05861995
-0.07736841
-0.00727631
0.00265554
-0.00336211
0.01276105
0.08372337
-0.04892571
-0.04032838
-0.07244223
0.04169805
0.00222358
0.04002243
-0.05091213
-0.01462358
-0.02952872
-0.02243215
-0.02740750
0.06660538
-0.01579804
-0.00092980
-0.05895226
0.01258415
-0.01492964
0.06637750
0.03484676
0.00609783
0.02682624
-0.02805619
-0.00027538
0.01172456
0.08852222
-0.03077497
-0.06351544
-0.02554165
0.01754235
0.02438810
-0.01803136
-0.07399654
0.03123770
0.01598947
0.20337173
-0.01376627
0.02258850
-0.23185867
-0.13051283
-0.01503979
0.06545424
0.02657210
-0.02810165
0.04384144
0.04098624
-0.01735963
-0.03444371
0.01662501
0.04059394
0.03105875
-0.05828363
-0.02585038
0.01024081
0.01812404
0.00664023
0.05656253
0.00072492
0.05466967
0.01852131
-0.01295212
0.07261959
0.03264968
0.04456458
0.02841862
-0.00787843
-0.07125408
0.06875770
-0.00448809
-0.02349380
0.05110579
0.01976545
-0.00090432
0.00504285
-0.00870730
0.00446050
-0.01909162
0.03801801
0.01174073
-0.02319986
0.00228628
0.02494133
-0.03876812
-0.03344625
-0.07780497
-0.01986219
0.12094782
0.02847696
0.04684868
-0.11483344
0.10414840
-0.01267178
0.04169678
-0.05442881
0.00180060
0.06718719
-0.03187162
-0.12049478
-0.00333349
-0.14175080
0.03147791
-0.03003945
0.07116719
0.07458057
0.01935342
-0.00344158
-0.04735533
0.00918852
-0.06175148
-0.01337481
0.01690500
-0.00509061
-0.02590678
-0.06286136
-0.08491085
0.01289120
-0.03743500
0.01025773
-0.02311682
-0.02577712
-0.03805929
0.00498981
0.04518625
0.00382546
0.02284617
-0.02216694
-0.01286631
0.04416143
-0.04398898
-0.09439835
0.04150061
-0.00794227
-0.02090133
0.04176223
0.01016295
0.01954220
-0.03464764
0.04291184
0.03238050
0.04071915
-0.04956687
0.00337415
0.03997256
0.02514544
0.03302211
-0.04397271
0.08706956
-0.00850031
0.02743684
0.00110855
-0.00511258
0.09144133
-0.00986467
0.01355451
-0.01756208
0.10443164
-0.05457881
-0.02057917
0.30642396
0.10257948
-0.02764242
-0.02296255
0.10530076
0.01065784
0.02888745
-0.01925671
-0.01509931
-0.00774103
-0.00880612
-0.01128504
-0.05031691
-0.36024883
0.01850959
-0.02867517
-0.02944976
-0.05698120
-0.21871059
-0.02569377
0.04601859
-0.00507359
-0.07903419
-0.01377078
-0.01970170
-0.00198628
-0.02047560
-0.05828684
-0.04770734
-0.01267840
0.04983638
0.06590458
-0.02487545
-0.01817668
-0.04447651
-0.02423734
-0.01142929
-0.03238544
-0.03107504
-0.00777076
0.05063643
-0.17389937
-0.02825966
0.13227363
-0.01932422
-0.02607497
-0.03766679
-0.07305160
-0.04280335
0.06778005
-0.01560432
0.08090450
0.01596516
-0.02952248
0.01215628
0.05085583
-0.01191862
0.06905008
0.01112398
-0.02997317
0.06342421
0.01028386
0.09431429
0.03021169
0.03446448
0.05882065
0.02190559
-0.05694140
0.03822958
-0.02831845
0.02929195
-0.00846822
-0.03821433
0.01795250
0.05899779
-0.01484241
-0.01004703
0.05067442
0.01544372
0.01950070
0.07797598
0.01017847
0.03893650
-0.00916432
-0.01176472
0.01395799
-0.00850830
0.00659068
-0.01784664
0.04778375
0.00060629
0.05290893
-0.00232262
-0.05434223
-0.07671867
-0.00999304
-0.03305235
0.01693765
0.07130036
-0.00436270
0.14127026
-0.04563664
-0.16383085
-0.02949825
0.03438920
-0.08967248
-0.00225514
-0.05463566
0.03899385
0.02211979
0.10206043
-0.05069079
0.01753368
-0.00119016
-0.07622879
0.05575130
-0.01645605
-0.01397156
-0.02987562
0.00377624
0.12593125
-0.02314399
-0.00274874
0.00338007
-0.11341111
-0.06975039
0.00115189
-0.22803064
-0.01065915
0.03764176
0.00733812
-0.14395289
0.04167370
-0.18520033
-0.01897902
-0.18075120
0.03737680
0.01643406
0.01736185
0.06844704
0.03824203
0.07645732
-0.00446084
0.06264146
0.02558258
0.08975627
-0.00334175
-0.03872926
-0.02938466
-0.00745430
-0.01855579
-0.00013013
-0.02322440
-0.00985061
0.04234316
0.04706871
0.04875375
-0.03190161
0.04953872
-0.00816382
-0.01223998
-0.02428837
-0.04257150
0.03643088
0.00902148
0.09074849
0.04321400
0.01962301
-0.14155295
-0.03937024
-0.06180025
-0.05831745
-0.00726036
-0.02081571
0.05521917
0.02353789
-0.00315644
-0.01986630
0.01428305
0.02973361
-0.02109775
0.00343667
-0.03152860
0.02051656
-0.00807680
-0.02029554
0.03527711
0.00937335
-0.00251558
-0.00859309
0.03176939
0.04045778
-0.01932086
-0.02965755
-0.02847582
0.01332625
0.01807791
-0.03549207
0.01663173
-0.02680606
0.01961111
0.00022394
0.02998055
0.12586217
0.00802096
-0.01528447
-0.03195140
-0.01362507
0.00546374
0.03042651
-0.00290527
0.01274658
0.00918102
0.01868698
0.01310841
-0.00008090
-0.04815429
-0.02517715
-0.00788058
-0.03429227
0.02064149
-0.08318412
-0.04332761
-0.10673126
-0.00342755
0.03368182
0.05705084
0.00130576
0.02548445
-0.02469311
0.00807891
-0.00496988
-0.01334216
0.14047590
-0.03548785
0.05754246
0.03284494
0.00709088
0.09440588
0.04345990
-0.00018870
-0.03301895
0.02063437
0.02239775
0.04260757
0.00182883
0.03288077
0.03147604
-0.08660600
0.04760893
0.01717155
-0.12539449
0.04246116
-0.09221405
-0.02002988
-0.02691261
0.02117546
-0.02087190
0.02606495
-0.02016179
-0.00123660
0.08701247
-0.09325266
-0.07178201
0.06673492
-0.01587907
0.02178141
0.02526230
0.04365813
-0.03628794
-0.04303239
0.05598168
0.11532634
0.00713775
-0.01046119
-0.11011034
0.13707316
0.02464001
-0.04547827
0.01021430
0.02954717
0.00547131
0.07760181
-0.02265222
0.06143533
0.06317177
0.08449537
0.06162127
0.02602799
-0.00930583
-0.03107602
0.00838750
0.04853774
-0.03939207
0.02998553
-0.02200661
-0.04740709
-0.03015877
0.05670422
-0.10359872
-0.01133448
0.00877425
-0.04154045
0.02594865
-0.01396476
0.00193076
0.05552899
-0.01441484
0.03700946
0.02766423
0.03334511
-0.20774144
0.08615239
-0.21327861
-0.07105903
-0.02877683
-0.01671572
0.05449294
0.01262614
-0.00159064
-0.31330398
0.02813251
0.01257672
-0.02631582
-0.00306094
-0.03076273
0.04697530
0.02070650
0.06973790
0.06045449
-0.00577632
-0.00883778
0.00131906
-0.07742853
-0.00552401
-0.02415280
0.20790613
0.11510979
0.12809603
-0.05362403
0.00535148
-0.00395476
-0.03162035
0.00803363
0.01443155
-0.02875612
0.00138117
-0.00569368
0.05623352
-0.03453132
-0.04005037
-0.03804844
0.01710188
0.00461748
0.04352794
0.00515337
0.01660941
-0.03681053
-0.00405692
-0.00122042
0.02162623
0.14655675
-0.02535811
0.09167476
0.02546763
-0.00149641
0.06824337
-0.10698462
-0.00499677
-0.03591629
0.04089163
0.01310640
-0.01304734
-0.00910073
0.04327069
0.04354868
-0.00594509
0.00667724
0.02902404
0.06028537
0.01922035
-0.11345395
-0.10684217
-0.03730302
0.01092896
0.02697039
0.10165089
0.02712961
-0.01807617
-0.08370832
0.03137495
0.01187209
0.00944546
0.15960276
-0.02719252
0.00708477
0.02546248
0.00131415
0.11715765
0.01728921
0.00503280
-0.04474643
0.00325852
0.09183466
-0.01235985
-0.03406786
-0.03027922
0.01287240
0.08942335
0.01385596
-0.01140306
-0.07900056
-0.17406763
-0.03332008
0.05499370
-0.00459294
0.00720842
0.05630664
0.02690504
-0.00148939
0.06089856
0.04387226
0.05063172
0.03501649
-0.06373562
-0.00681151
-0.02171694
0.05068434
0.03535127
0.00766286
-0.04436788
-0.06471165
-0.00417281
0.03066239
0.03958929
0.07092864
-0.07276283
-0.01540853
-0.08104724
0.01841296
-0.05796788
0.06694992
-0.00298464
0.00249127
-0.05489774
0.01877441
0.00068644
0.04731804
-0.01748943
0.01481130
0.00924182
-0.00360139
-0.00573960
0.09744183
0.00928269
-0.01477861
0.03811093
0.00308852
0.01673463
-0.00552366
0.02326323
0.04862477
-0.02157278
0.00034265
0.07227639
-0.04635808
0.02345356
-0.01902539
0.03205108
-0.03930018
-0.02772540
0.02235419
0.08938588
-0.01726618
0.00214327
0.00627173
0.00799349
0.00481329
-0.00976167
-0.01505110
-0.01621298
0.08374659
-0.02561598
-0.04833419
0.01773102
-0.05783758
0.04414197
0.00894274
0.01866121
0.02757923
-0.05313757
-0.16165434
0.03251708
-0.00681881
-0.03787753
-0.06054476
0.00610275
-0.01224735
-0.00261669
0.03286443
-0.08792226
-0.06338478
0.00845034
0.04418727
-0.02111227
-0.00196433
-0.02773010
0.02727022
-0.08566467
0.03393859
-0.05211091
-0.06423517
0.03096261
0.01636870
-0.00234669
0.01676094
0.05080866
0.10839298
0.03690942
0.00874666
-0.02115899
0.02234904
0.03773193
-0.01695113
-0.03154382
0.01134180
-0.01865686
0.00282285
-0.01903923
-0.01873913
0.05503300
0.01880034
0.02003165
0.01222604
-0.10029449
-0.00440400
0.01236363
-0.00770446
0.02682682
-0.06002557
-0.04244726
0.09325146
0.00508092
0.02987081
-0.01118457
-0.03136893
0.01486726
0.09929407
0.01375844
-0.01630548
0.02304728
-0.01400442
0.02204684
0.05311185
0.01370346
-0.07788832
-0.02199483
-0.00288737
-0.01624672
-0.01666628
0.02839319
-0.02235518
-0.00318538
0.02658676
0.02085452
0.01290259
0.01170683
-0.02397637
0.02431964
0.00447581
-0.00185306
0.05757172
-0.08261834
-0.02386817
0.02861636
0.16702828
0.00798504
0.00361883
0.03249185
-0.02700966
-0.01284207
-0.05299894
0.01855452
-0.02219412
0.02833765
0.00777899
-0.04852815
-0.01268115
0.00023347
0.00404777
0.01051753
0.07322561
-0.03619688
0.02843045
0.00658720
-0.00908105
0.00214223
0.11245990
0.00495355
0.02561635
-0.03113625
0.01472633
0.00526628
-0.03090841
0.09218709
0.02704783
0.03107480
-0.00017462
-0.01492022
0.00697681
0.01846909
-0.06486876
-0.04610773
-0.01191528
0.01742963
0.01214120
0.00616390
0.02088435
0.06888193
0.01612197
0.03871483
0.05113844
0.02868448
0.01947939
0.00214252
0.00727734
-0.03572037
-0.04999266
-0.02946354
0.03517273
-0.01171009
-0.26613566
0.13503802
-0.19406046
-0.03263209
0.00476529
-0.00064256
0.01450131
0.03301056
-0.02962494
-0.30778080
-0.06195452
0.00891230
0.00745772
0.00615283
0.02586258
0.01992011
0.01418854
-0.01328074
0.00347088
-0.00946860
0.00899149
-0.01506627
-0.03479496
-0.00652686
0.01399551
0.28485298
0.19378048
0.11345365
-0.05557814
0.02189119
-0.01031595
-0.03166701
-0.02341723
-0.06149960
-0.01206581
-0.08703092
-0.14277983
-0.01850180
0.05314172
-0.02562393
0.02407959
-0.01934257
-0.03902020
-0.02072140
-0.00006080
0.01068429
-0.05631208
-0.02143447
-0.03697654
0.07960360
0.00394770
0.02412557
-0.02667739
0.04200788
0.02687570
-0.07619066
0.01950772
0.00618366
-0.06592233
0.01888210
-0.00002522
-0.03236140
-0.01439095
-0.15546246
-0.01370255
0.07174718
-0.00123841
0.07517646
-0.01253270
-0.02934120
0.01178139
0.02831844
0.01950985
0.03716680
0.01659802
0.04221366
0.03769925
0.04006728
0.13046724
0.05740840
0.03301342
-0.05923328
-0.05024760
0.04070113
-0.00728719
-0.00888490
0.01879535
0.13389914
-0.06441507
0.02869691
0.00689960
0.01174120
0.08853501
0.02555226
0.01754948
0.02038979
0.00769080
-0.02900291
0.00046004
0.00885533
-0.00639670
-0.04238997
0.06993894
0.00133534
0.00881469
-0.00001286
-0.02698381
0.09403152
0.07008405
0.01111587
-0.02015016
0.02380599
-0.00068966
0.04112405
-0.03371325
0.02104817
0.01810090
0.01057428
-0.00338585
-0.02882081
-0.01780818
0.02109249
-0.03123725
0.03059523
0.00958616
0.03505411
0.01066913
-0.11306336
0.01588025
-0.03394330
-0.00567873
-0.00553006
0.01561664
0.13487135
0.01112948
-0.05292759
-0.03800076
-0.01141095
0.00332698
-0.00358904
0.02251656
-0.05525390
-0.02329504
0.00028614
0.01344657
0.00286961
0.14542955
-0.01064757
0.12261891
0.01214347
-0.05225232
0.07478739
-0.18700349
-0.01449628
-0.05804986
0.00352196
0.10919893
-0.00023946
0.04005603
-0.00085389
-0.19049551
0.05060873
-0.00742179
-0.03546611
0.05704241
-0.02570661
0.01995960
0.03225045
-0.00183029
-0.22063884
-0.14900397
-0.01671606
-0.02832037
0.20413007
0.00346768
-0.27424666
0.01347948
-0.02754016
-0.01203236
0.02198027
0.01197093
0.04586651
0.23313650
-0.00906319
-0.00719656
0.03566428
0.16018878
-0.10760138
0.01567541
-0.14609364
0.02371549
0.02189153
-0.20106764
0.12264232
-0.02623515
-0.04125035
0.04914698
0.01616261
0.04590566
-0.02884850
-0.01364036
-0.26102915
-0.00819013
0.02054945
0.03405706
-0.12711735
0.01986387
0.20532405
0.05370269
0.00057390
0.06881811
-0.00454865
0.03724740
-0.03014816
0.16681632
0.00947782
0.00250034
-0.00650589
0.14124972
-0.13853936
-0.00582554
-0.08037585
-0.02612811
0.01782903
0.02919948
0.00745019
0.00192042
0.01542164
0.05569366
-0.00977222
-0.02102053
0.00177864
0.05146026
-0.01043351
-0.03733761
0.02294929
0.00891874
-0.00419753
-0.01626083
0.02449263
0.01195873
-0.10484422
0.01431309
-0.03129203
-0.10103050
-0.01191659
-0.00992649
0.00996646
0.02123295
0.00596287
0.00355915
-0.03178462
0.03058300
0.01862649
-0.05224143
0.02978227
-0.17106509
-0.00867303
-0.27330738
0.00864432
0.05694309
-0.01046459
-0.06046152
-0.00005708
0.04868792
-0.08131555
-0.10671905
0.00847461
-0.01749587
-0.17601562
-0.01612273
0.22368407
0.02392000
-0.01488274
0.06999072
-0.00225372
-0.07194629
-0.19817269
0.17222644
0.00201799
-0.04678778
-0.01612023
0.06132849
0.14480403
-0.00547021
-0.05181188
0.00951100
-0.07504062
-0.01964938
-0.04816874
-0.00984924
0.04750699
0.05372396
-0.00879033
0.05489858
0.06965684
0.21742508
0.01084212
-0.09557888
-0.09283313
0.10434648
-0.03286622
0.01752777
-0.01739515
-0.09099606
-0.08563117
-0.05243113
0.01970419
0.05828878
0.04322051
0.00143041
0.04263696
-0.06179061
-0.06357139
0.00811743
0.01055033
0.16590993
0.00527498
0.01716256
-0.09997799
-0.00252480
0.04784342
0.00151208
0.00313454
-0.01950808
-0.05415793
0.03254773
0.09253948
-0.05919756
0.01550021
-0.01878853
-0.01166805
0.01147089
-0.00340235
-0.08870447
0.01823747
-0.11545065
-0.02149395
-0.00697345
0.00317520
-0.02867362
-0.01599897
0.00335050
-0.14488876
-0.07504542
-0.00722217
0.00057487
0.01235032
0.03292926
0.03799748
0.03412204
-0.00403072
0.00599576
0.05694961
0.06287865
-0.03827580
-0.11047515
-0.02322181
0.01076088
0.01959556
0.01488171
0.03024732
-0.00457727
-0.02486641
-0.03382533
0.01357571
-0.02298448
-0.02374885
0.04018405
0.01398037
-0.03252399
-0.10946617
-0.00569819
-0.03673568
0.01784406
-0.03410547
0.03853934
0.01840653
0.06262710
-0.00711834
0.02469456
0.00019166
-0.05311338
0.10600635
0.04281577
-0.02858695
0.04403912
-0.07707760
-0.01555868
-0.04259971
0.05174192
0.06950685
0.04586447
-0.00821341
0.01305461
-0.05564029
-0.04466207
-0.01523579
-0.03624723
-0.04335585
0.00435176
0.11753546
-0.11106323
-0.00939469
0.06663542
-0.03302751
-0.03288979
-0.10399797
0.01108732
0.02324312
-0.03159997
-0.00234940
-0.05274463
-0.01579101
-0.01800960
-0.12243287
0.01144847
0.06280171
0.00775353
-0.02577018
0.03329730
-0.04007348
0.04914700
0.01631363
0.02207497
-0.00457240
0.01030903
0.10327758
0.11632614
0.02700806
-0.10359211
0.01415451
-0.06583683
0.04794291
-0.04528928
0.00976151
-0.03570342
-0.01142452
0.00647941
-0.13199306
-0.10880345
-0.00260381
0.01971115
0.00616821
0.01972435
0.03472778
0.02426505
-0.14598699
0.01237451
-0.01253658
-0.01656182
-0.00282470
0.04342874
-0.20853502
-0.01293265
0.21970554
-0.38155225
-0.02559303
0.00442501
-0.18348873
-0.60573858
0.01089201
-0.07226098
-0.01994852
-0.07750343
-0.07483819
-0.08591061
-0.00263939
-0.06221315
0.03336481
-0.00267255
-0.02156570
-0.11116126
0.01870949
0.03119290
0.00089733
-0.04947413
0.02419494
-0.02074433
0.01853945
0.01177851
-0.01710334
0.01253283
0.04436356
0.05588910
0.01251854
-0.02101279
0.00084445
0.08492502
-0.01579579
-0.03961955
-0.05383927
0.01128625
0.03022686
0.01288163
0.02345284
0.03416862
-0.12146764
-0.02667977
-0.02687232
-0.00689542
0.03895339
0.02527109
-0.04380099
0.11059664
0.01951453
-0.05314080
0.00511618
-0.00078938
-0.00004462
0.01755340
0.00090089
0.01514875
0.12272634
-0.00659216
0.02548664
-0.02407337
-0.18987168
-0.00040333
0.02369809
-0.29343814
0.00979255
0.03519498
0.07326014
-0.08117386
-0.00521480
0.02064417
0.01836886
-0.04801833
-0.01844715
0.02627130
0.04287199
-0.01163516
-0.04689715
0.00841182
-0.05584904
0.00506208
-0.01633618
0.07789896
-0.02573313
0.06247919
-0.03219737
0.00098490
-0.02089621
0.01359290
0.16272892
0.02151071
0.03873751
-0.10993712
-0.06559106
-0.06252173
0.06639801
0.02764091
0.00209734
0.08391227
-0.00607600
-0.01412288
0.06169154
-0.09762216
0.00348733
0.00930926
-0.07415948
0.05100753
-0.03303294
-0.01037030
-0.02125586
0.01488265
-0.01805379
-0.02981968
0.00089217
0.07026466
-0.02429388
0.06578699
-0.09212326
-0.01621239
-0.02826581
0.01523996
-0.00367911
0.00945368
-0.05904782
-0.03927316
0.01909528
0.01107251
-0.01289294
-0.03331765
0.01506710
-0.01289513
-0.03392641
-0.03094053
-0.03983682
-0.00416847
0.07593605
-0.00294702
0.00856184
0.04306002
-0.03817062
0.10233743
0.00426377
-0.00128055
-0.03537051
0.03724270
0.03232880
0.01448638
-0.00064699
-0.01528120
0.02688740
-0.01588643
0.09106057
0.01118477
0.05177895
0.00908341
-0.01389113
0.00322511
-0.01890395
-0.02929334
-0.13550529
-0.05619012
0.02466881
0.08909597
0.17540328
0.03845142
-0.06951747
0.04766044
0.04872153
0.01531505
-0.09130569
0.06798280
-0.04003713
0.12661237
0.01963808
-0.01755216
0.12105912
0.05304695
0.02555109
-0.06389447
-0.00675739
0.06236181
0.01199338
0.01090441
0.00824423
0.16578400
-0.01896028
0.26226467
-0.00458172
0.03909978
0.01684506
-0.05843500
0.01812313
-0.07562959
0.13464895
-0.18107915
0.00079166
0.00043555
0.00024392
-0.05008487
0.00903035
-0.01637856
0.04590035
-0.01445540
0.01148029
-0.05337126
-0.02129942
0.03916111
0.00844442
-0.00003829
-0.27978805
0.16068254
-0.27585900
0.00318852
0.03360916
0.00255373
-0.00220683
0.00260257
-0.04414482
0.04010434
-0.19010994
-0.27172774
-0.04607848
0.00208018
0.07097754
0.18044272
0.00266319
0.03558496
-0.00207875
0.03653775
-0.02503627
0.04781768
-0.17525430
0.01497828
0.01124821
0.00353779
-0.09058847
-0.02837295
0.06812131
-0.03541733
-0.06700173
0.00356275
0.03945424
0.02415703
-0.04595224
0.02527514
0.01544550
0.00504717
-0.04872803
0.02384300
0.00618315
-0.00711412
-0.01010918
0.09465533
0.09792893
-0.04461752
-0.00596850
-0.03272420
0.02155189
-0.02479697
-0.05925195
0.06173813
-0.02139768
0.04465731
0.00410363
0.00833082
-0.02565002
-0.10347423
0.02230291
-0.05561369
-0.04214429
-0.00640554
0.07296316
-0.13058285
0.00088548
-0.01088433
0.00899564
0.10331692
0.04888538
0.06235177
0.18615137
0.01823085
-0.02977279
0.00063316
-0.00374330
-0.00059978
0.05529695
0.05551391
0.06979541
0.01758570
-0.00435421
0.03360042
-0.11292639
0.00647725
0.06974100
-0.03888501
-0.05169749
0.10647567
0.02481600
0.06324679
-0.00512166
-0.00439754
0.00352905
-0.03510391
-0.08943323
-0.11558155
0.00310680
-0.05521543
-0.00755856
-0.06215951
0.01708165
0.02712899
0.04074349
0.02396076
-0.08679236
-0.00375599
0.01331388
-0.00697651
0.04920468
-0.03102141
0.00547642
-0.02996977
0.03309110
-0.00409187
-0.03806912
-0.02155165
-0.01148512
0.08391209
-0.13880548
0.05232906
-0.05389955
-0.04321923
-0.00682812
0.04071721
0.01195603
0.03271410
0.05641404
-0.05153786
-0.05130408
-0.03184571
-0.03011370
0.06011916
-0.03536155
-0.00108574
-0.06330147
-0.02722432
-0.02511124
-0.02974595
-0.07388200
-0.11575196
0.03704103
0.03134081
-0.05747644
0.00878300
-0.00126225
-0.06318017
0.03789947
-0.02966887
0.05987127
-0.03894546
0.13670272
-0.03150222
0.10516839
0.02586479
0.01557328
-0.05682049
-0.00845231
0.01885791
-0.03387909
0.07202177
0.04566115
-0.00556003
0.00716751
-0.05153285
0.04528516
0.00257971
-0.01036043
-0.02535594
-0.04282089
0.03001404
-0.03078266
0.02954434
0.02718098
-0.05436760
-0.00677018
-0.04721286
0.01055475
-0.03571286
-0.00931883
-0.00202224
-0.04614672
0.07053883
-0.06257089
0.01304345
-0.04494270
-0.04043229
-0.05101031
0.03142222
0.00085397
0.00843733
-0.01085947
-0.06054761
-0.01041446
-0.01904544
0.01687159
0.03307483
0.01915643
-0.00858712
0.05743098
-0.01800901
-0.01719516
0.00321661
0.02041724
0.09580761
0.08059108
0.07852130
-0.08691932
0.07835609
-0.00690527
-0.01990268
0.14132906
0.02634049
-0.03126384
-0.09232361
0.03475146
0.07273254
-0.03704220
-0.03882634
0.01318424
0.06016189
0.00470912
-0.00805239
-0.02086302
0.01215508
-0.01117146
0.01255389
0.01347927
0.07434141
-0.02871627
-0.01375033
0.02104933
0.03959560
-0.04360278
0.04219402
-0.03649988
-0.00821871
-0.05403356
-0.00984847
0.03855979
0.14683500
-0.00452526
0.02506114
0.00722456
-0.00039306
0.01855827
0.00116218
0.00192087
-0.03930783
0.03562741
-0.07130579
0.00076926
-0.07052460
0.02109502
0.04090135
-0.03926235
-0.02190458
-0.02353330
-0.02156936
-0.06226192
0.01271504
0.02931288
-0.01502938
-0.10939947
-0.04149926
0.10322984
-0.00540343
0.01671806
0.01063658
-0.14046051
-0.08699312
0.01221358
0.12968354
-0.00328115
0.06682424
-0.02205374
-0.01540643
0.02539030
0.02253507
-0.01331970
-0.03212742
0.05437921
0.03651641
0.02340748
-0.04469576
-0.04235943
-0.02188129
-0.06194941
-0.03580200
-0.04055035
-0.01213021
-0.03902878
-0.05745634
-0.07132816
-0.03154164
-0.03564921
-0.00008323
0.03302212
0.01241536
-0.03544521
0.02377195
0.01089288
-0.05045735
-0.05477481
-0.06841689
0.01119662
0.02060761
0.01667865
-0.03096671
0.02718343
-0.07155899
0.01930500
0.05345575
-0.05425101
-0.05377574
-0.01813521
-0.00672311
0.00647041
0.00081781
0.00815491
0.05943076
0.00533544
0.00616840
0.02558547
-0.02835684
0.05305202
0.06701747
0.04177772
0.05090540
-0.04851314
0.02607232
-0.07667414
-0.00941866
-0.07946328
0.08553980
0.02417805
0.10370230
0.06465792
0.00958350
0.00811123
-0.02975190
0.01224182
-0.01699290
-0.05216797
-0.04728529
0.10096385
0.07720000
-0.03092411
-0.00477127
-0.04989310
0.00146355
-0.01343920
0.07900356
-0.01713916
-0.05530290
-0.02793961
-0.06805448
-0.01816632
0.03433791
-0.01070165
0.10767055
0.06496505
0.20397639
-0.04655649
-0.01031391
-0.00187171
0.04857292
0.03658633
0.03480655
0.22845851
0.12335866
0.00700496
-0.00426834
0.02654500
0.00154362
0.00899914
0.00173617
-0.04040478
-0.02996249
-0.02965516
-0.03341534
0.02168036
-0.09456852
-0.03262120
-0.04424083
-0.19573911
0.05057394
-0.02748721
-0.01571419
-0.00725390
-0.01482115
0.01688575
-0.02082170
0.00829415
-0.00674391
0.00335582
0.08138943
-0.00768152
0.02806395
-0.01882368
0.02197394
0.02555249
-0.00401602
-0.00159104
0.02516522
0.04123833
0.07344958
-0.00363315
-0.00295834
-0.04401774
0.00647276
-0.01332338
0.02093207
0.05211328
0.00159435
-0.00595958
0.00767565
-0.01488160
0.00142940
0.00811721
-0.00826098
0.02805869
-0.00597287
-0.00639057
-0.01756685
0.00867510
-0.01289997
-0.00189177
-0.03671817
0.08119078
-0.03500184
-0.04721722
-0.03569765
-0.00894237
0.01258654
-0.02215862
0.02491595
0.01672637
0.00793625
0.02537548
-0.01784156
0.06638446
-0.12054598
-0.01118433
-0.09186292
0.05356214
-0.00310041
0.08684576
-0.18936160
0.01738269
0.00785190
-0.01855056
0.07712058
0.01355659
-0.01956335
0.00067932
0.01249756
-0.07315828
0.01107278
0.03151366
0.15308823
-0.00851037
-0.04932394
0.01543871
0.08249990
-0.02934960
0.00788187
0.01060262
-0.01322408
-0.02230389
-0.03247999
-0.02649857
-0.05321820
-0.05856144
-0.10701861
-0.00184309
-0.01909199
0.06505776
-0.00425091
0.03929961
0.02734170
0.03388537
-0.03048898
-0.02006705
0.00842508
0.04996581
-0.06239093
-0.01750353
-0.16442490
0.08668200
-0.23307844
0.01729002
-0.02060347
-0.03876256
0.04874402
0.00385718
-0.04061678
0.09023155
-0.08795966
-0.00183792
-0.00132462
0.10418048
-0.02136613
-0.38049123
0.04817569
0.03967026
0.00182206
-0.02638002
0.01752128
0.01594667
0.20055835
0.03314622
0.01180076
-0.20947427
0.21429554
0.20494781
-0.00542565
-0.08487826
-0.03709983
0.02439928
0.02764615
0.01386481
0.02635524
-0.00454651
0.04305615
0.00660548
0.01276155
0.11593530
0.02221062
-0.00887248
0.01466652
-0.00428294
-0.01168466
-0.01049211
0.00922969
-0.00494479
0.02293684
-0.02089346
-0.09813612
0.02905834
0.07200250
0.00820255
-0.01969241
0.00649766
-0.08856739
-0.02007308
0.04453357
-0.06783950
0.00188104
0.04374459
-0.01852493
0.00553663
-0.00794407
-0.01469770
0.00250916
0.03080652
0.03449078
0.03117237
0.06087563
0.03005395
0.02167584
0.00341276
-0.02060961
-0.01573290
0.00400903
0.01596125
-0.03478979
0.00042938
0.06709860
0.04242919
-0.01150957
0.05560039
-0.02084970
0.01106716
-0.01795692
0.03253213
-0.04774108
-0.03342928
0.02984824
-0.00963051
0.04430048
0.04206691
-0.13610516
-0.01329588
-0.08090123
-0.00510081
0.06024544
0.01563878
-0.02330703
0.01957875
0.08946728
0.01093828
-0.00981870
0.13839182
0.08439883
0.00718552
-0.01996689
-0.12915726
-0.01194273
0.03028632
-0.00218779
0.00864859
-0.01350767
0.02507684
-0.01745990
0.13852681
0.02546405
-0.00174392
-0.03048684
0.16409498
-0.11574744
0.08621582
-0.01367812
-0.13121408
-0.04116564
-0.06078278
0.07259393
0.37197208
0.01417098
-0.03375933
0.02570708
-0.06407697
-0.07568879
0.04949665
-0.10599342
-0.02971558
0.18539093
-0.04404302
-0.06092054
-0.06015950
-0.06895762
0.06512065
0.08012129
0.01657838
0.04928111
-0.03436550
0.02624807
-0.01881057
0.03043752
-0.04979420
0.02751283
0.03112715
0.06207992
-0.09507111
-0.12143920
-0.22300062
0.03237618
-0.01243654
0.37249267
0.12201111
0.16866624
-0.01995316
-0.00017396
-0.00238237
0.02109611
-0.02969786
0.01024722
0.32157189
-0.04229952
0.02576164
0.01866638
-0.08782717
0.02084126
0.02896418
0.05816168
0.01270471
0.05773071
-0.02904308
0.04140367
0.07913958
-0.31702712
0.00114840
-0.00434302
-0.27496704
0.15603350
0.02449068
0.00880755
-0.12342177
-0.03645299
-0.03824782
0.04363331
-0.02908304
0.04636547
-0.06068269
0.16776140
-0.00464391
-0.01674593
0.04123945
0.05272670
-0.04694486
0.01623278
0.02004798
0.01472749
-0.06821340
-0.03518158
0.03877741
-0.02950880
-0.02292141
0.00197085
0.01528339
-0.01773747
-0.00227071
-0.03780189
0.01096139
-0.02047911
0.00409572
-0.02128232
-0.04667747
-0.06510460
0.00681850
0.02494868
0.07364926
-0.00214577
0.03262465
-0.01204556
0.02525257
0.00039414
-0.05791252
0.06879470
0.03044015
0.04911633
0.00039755
0.00050517
0.05844467
0.12412468
0.00020013
-0.02670777
0.01596364
-0.00313126
-0.07804889
0.00806193
0.00836245
-0.07197052
-0.00479342
0.02672045
-0.15646626
0.01340979
-0.00355365
0.01158504
-0.01383499
0.01778643
0.06001202
0.00768379
-0.04270191
-0.07676896
0.02040377
-0.03367598
-0.10196169
-0.09086469
0.00702814
0.03853524
-0.03390340
-0.08340594
0.03616447
-0.01757770
0.06205100
-0.05168899
0.03465999
-0.05362304
0.00764115
-0.01113897
0.01172506
0.01198509
0.05287149
-0.05802620
-0.00437548
-0.01637364
0.07160940
-0.02970797
-0.03168145
0.00230761
0.03689771
0.00310333
-0.07165126
-0.00256882
-0.03432923
-0.02331671
0.01100295
-0.01469333
0.01958954
-0.00203113
0.04754563
0.05192004
0.01093943
0.05737136
0.01810424
0.02944971
-0.07890260
0.03183201
-0.00469018
-0.02073246
0.01364080
0.02620695
-0.00269195
-0.01719286
0.00964470
-0.03139954
0.01805915
-0.00814479
0.02123466
-0.08941373
0.01746656
-0.04670711
-0.02057705
-0.03146928
-0.00356956
-0.02070266
-0.01809910
-0.00685083
0.00272481
-0.01189571
0.06042013
0.07875700
0.05032519
0.01776874
0.02876263
0.02996697
-0.00223948
-0.01946540
0.01166561
0.04144216
0.00213453
0.03513887
0.04444117
0.06693157
0.09762161
-0.02288279
-0.00793169
0.02750448
0.01291834
-0.01860632
-0.00274057
-0.10350053
0.02039248
-0.06328678
-0.00919171
0.02439490
0.03437640
0.00445903
0.00837730
0.00411932
-0.02954126
-0.00578722
0.03089142
0.12057852
0.10642004
0.00319908
0.04318639
-0.01294050
0.00852962
-0.02435768
-0.01496329
0.01520528
-0.02165245
0.01059539
0.02215823
-0.01434197
0.00489783
0.07642721
0.01531862
0.05912213
-0.01150237
-0.00794201
0.03075582
-0.14214991
-0.00041984
0.00936498
0.02542775
0.05018008
0.02186899
