0.01769009
-0.01351456
0.02148308
0.00597241
-0.00805844
0.02625044
-0.03195759
-0.02389837
-0.00512763
0.00309175
0.04660977
-0.01136228
0.01581459
0.03860157
0.00414334
-0.02600667
-0.01378297
-0.00999529
0.06128622
0.06758314
0.02699398
0.02504263
-0.00986522
0.01450124
-0.01589909
-0.02300574
0.03729093
-0.01924184
-0.01852170
0.03853197
-0.01023045
-0.02600919
0.01161931
-0.01767024
0.00482960
-0.01658124
0.02491625
0.00186898
-0.00534449
-0.04832807
-0.03442021
-0.01978568
0.08852748
0.01845295
0.00089162
0.03068100
-0.01762393
0.02897937
0.00067144
-0.04797217
0.00170775
-0.01079202
0.00958015
0.00810582
0.04630433
-0.01226258
-0.01299710
-0.01766245
-0.00328867
-0.04133718
0.00856410
-0.01238444
-0.04949183
-0.04927433
0.07600930
-0.01773502
-0.01492726
0.00623619
0.00259851
-0.00427911
0.00806766
-0.01523566
-0.02425240
0.00109464
0.00119665
0.00345053
-0.03010041
-0.01932615
-0.00916775
-0.01977059
-0.01197229
-0.04560628
0.01945836
-0.01312950
-0.01541470
0.00186470
-0.01858858
-0.00302393
0.02086079
-0.00693192
-0.00753194
0.02087922
0.00431635
0.03509157
-0.01832556
0.01674801
-0.02514670
-0.02368220
-0.01098827
-0.01000337
-0.00009377
-0.00904462
0.05112695
0.00258197
0.02373976
0.04728798
-0.03590330
0.00454976
-0.05083292
0.00762952
-0.01429568
-0.00830759
-0.03223267
-0.01455524
-0.01456712
-0.01673770
0.02859530
0.02318604
0.01132732
0.02972343
0.01286809
-0.00430698
-0.00791705
-0.00390064
0.02476898
-0.01277972
-0.01508380
0.00422012
-0.01449374
0.05642028
0.01726693
0.00383731
-0.03634464
0.00100377
-0.02634106
-0.00814868
-0.01315643
-0.00620904
0.02112539
0.03558334
-0.01604932
0.02298340
0.01453106
-0.00021007
-0.03831974
-0.04802741
0.00830052
-0.02217999
-0.00717761
-0.02302745
0.00861135
-0.02486051
0.02824262
-0.01736369
-0.01351416
-0.00368971
-0.00306116
-0.01326432
0.00253530
0.09316477
-0.00511809
-0.00886224
-0.02633320
0.04837994
-0.01804453
-0.01016722
0.00210011
-0.00696635
-0.01508139
0.05360710
-0.01871323
-0.00546921
-0.02494663
-0.00452111
-0.01868395
-0.00714233
-0.01720817
-0.03273252
-0.02491275
-0.04167368
-0.00746447
0.00440076
-0.00509640
-0.00408825
-0.02103602
-0.06091300
0.01571773
-0.00282420
0.00707721
0.01312243
0.02804287
0.00735245
0.01014839
0.00483092
-0.01962329
0.04209295
0.00698123
0.03753886
0.06847639
0.00304238
-0.04384922
-0.01678572
-0.00866945
-0.03831943
-0.00854819
0.05616161
0.04662644
0.02178390
-0.00299341
0.02663840
0.03554223
0.03434276
0.01964176
-0.00384238
-0.01124653
-0.02193683
-0.00699393
0.00429899
-0.02271615
0.04838100
0.00766676
0.00001217
0.01275104
-0.01868013
0.05401003
-0.00242847
0.00511880
0.00815902
0.01331777
0.07669625
-0.02547688
0.05472466
0.00399339
-0.04235706
-0.01441773
0.03808121
-0.01046976
-0.02911288
0.00771847
0.04816953
-0.02890274
0.04039236
0.00512696
-0.01844383
0.03470008
-0.00160818
-0.06326759
0.02706084
-0.02251213
0.05859862
0.01824681
0.03031706
0.04839176
0.03553973
-0.02093231
0.00729055
0.07069313
-0.03756493
-0.00315288
-0.02064650
0.01501652
-0.00084930
0.00574338
0.02789516
-0.02444696
-0.00400089
0.03163217
0.02007295
-0.05905478
-0.00481957
0.00631861
0.00139718
0.00991303
-0.01537588
-0.00513196
0.06015781
0.00671633
-0.02251960
-0.03187305
0.00847519
-0.01417131
0.01521057
0.00485520
-0.02193547
0.00522457
-0.01660835
0.03914343
-0.01797063
-0.01540114
0.04657771
0.01171914
0.01655803
0.00296813
-0.01412480
0.00988945
-0.01057326
0.01048918
0.07870321
0.02064756
0.01163589
0.01508232
-0.02509512
-0.02088857
-0.01398119
-0.01052310
0.02395556
-0.02202901
0.05233223
-0.00111942
-0.00022956
0.01183603
0.05064700
-0.00475806
0.00563332
-0.03441088
0.00731600
-0.04602636
-0.00179216
-0.03088255
0.00266778
-0.01394260
-0.00867210
-0.02584422
-0.03065126
-0.02697805
0.02732045
0.03001660
0.01314535
-0.00892126
0.04063861
-0.00464743
-0.01417346
-0.03129368
-0.03669880
0.00881088
-0.01885541
-0.00077552
0.03633712
0.01371459
0.00777327
-0.01930308
-0.01909374
0.01634396
0.01973123
-0.03081154
-0.02018961
0.00329067
0.02180173
-0.03935565
-0.00948389
0.04421563
-0.04490172
-0.03391437
0.00304863
0.02013364
0.00112737
-0.01081244
0.05415613
-0.00058944
-0.00458218
-0.02909092
0.02960946
-0.03315480
-0.00247572
0.01531705
0.00004170
-0.01474868
-0.04492166
-0.01095490
0.01267726
-0.03856475
0.00586809
0.01978924
0.00060261
-0.03600318
-0.02499358
0.01162645
-0.05649354
0.01741171
-0.00871165
-0.01818152
-0.01303486
0.01801922
-0.00433442
0.00243445
-0.01036455
0.00430029
0.03849332
0.00799340
-0.01924756
-0.04044668
0.01138532
-0.02050862
-0.01621762
0.00025843
0.01381740
-0.01458116
-0.01756257
-0.02895086
-0.03308386
-0.04430482
0.01726621
0.01031770
0.01726657
-0.00331008
0.03845617
-0.03013467
-0.01841664
0.04681253
0.00392625
-0.01599469
0.00308844
-0.00615931
-0.00115004
-0.02359475
0.00205038
-0.03138917
0.04754174
-0.02042114
-0.00884388
-0.02606672
0.01908338
-0.04028120
-0.03858756
-0.04746139
0.05040279
0.00264050
0.00191178
0.02175552
-0.02668667
-0.01711818
-0.00616760
0.00831860
-0.02782326
-0.01912242
-0.01914300
-0.02916443
0.02212184
-0.00311775
-0.01033643
0.00721385
0.00818411
-0.02112757
-0.01848583
-0.00977155
-0.03951560
-0.01834191
-0.02540352
-0.01206375
0.02151191
0.02060822
-0.06096240
-0.03353498
0.03702541
0.04496406
0.00511152
-0.02445908
-0.00488651
-0.00024942
-0.01342800
-0.01583221
-0.02250420
-0.02541673
-0.02972887
0.03035611
0.00357285
-0.10919782
-0.01008776
-0.02919160
0.06997940
-0.02893078
0.01543910
-0.00450003
0.07674008
-0.06679471
-0.02206021
0.01002942
-0.03568029
0.02780241
0.00435018
-0.02788975
-0.01751477
-0.05960476
0.00528321
-0.03349930
0.05552355
-0.01636096
-0.01576281
-0.00042949
-0.02690704
0.04035875
0.03441842
-0.02305266
0.01165823
0.03604560
-0.01968578
-0.04350897
-0.04308630
0.04292729
-0.06632699
-0.01971220
-0.03682404
-0.01563757
-0.04408077
0.03765189
-0.02354349
0.00388348
-0.02890915
-0.00898202
-0.02020227
0.03669267
-0.02421910
-0.01447205
-0.02550096
-0.02384562
-0.01294728
0.00539515
-0.03989077
-0.00781092
-0.02058963
-0.02641255
-0.04185570
0.02266718
0.02476053
-0.00503329
0.01155995
0.00549128
-0.01617395
-0.02514455
-0.01294810
0.01735505
-0.00938043
-0.02986440
-0.01582958
-0.08259685
-0.02500441
-0.00209111
-0.01040571
0.09113074
0.02845165
0.02866360
-0.00755327
-0.01551483
-0.02852355
-0.02614254
-0.00448086
0.01441434
-0.01335011
0.02676618
-0.01003872
-0.00545707
0.01548488
-0.05827627
-0.01725611
-0.02011530
-0.03413390
0.01270689
-0.01776161
-0.02236039
-0.03101774
0.02736096
0.03003308
0.00840107
-0.00440187
-0.02401969
-0.02281368
0.00338927
-0.02849295
0.01302285
0.01178196
0.02621613
-0.05114546
0.01562529
-0.04165810
0.02631454
0.00518339
-0.01884887
-0.01186218
0.03381437
-0.02717552
0.01078165
-0.00337765
-0.04152111
0.02736048
0.01967971
0.06177792
0.02073251
0.00300845
-0.06167875
0.01835444
0.02995690
-0.00338485
-0.05935443
-0.00045330
-0.01645351
-0.00330537
0.02464298
-0.03311198
0.00360440
-0.07928847
-0.00277973
-0.00344025
-0.00705829
-0.01618790
-0.02175153
0.01582102
0.01322942
-0.00446109
0.04245020
0.03084314
0.01411410
0.00486123
0.06140831
-0.02221805
-0.02021435
-0.06139614
-0.00359023
-0.05911566
0.05210246
0.00233492
-0.00734732
-0.00144999
-0.04077754
0.01628685
-0.01157390
-0.05160893
-0.01125817
0.03214747
-0.03066441
0.00032593
0.01422122
-0.00973049
0.00812404
-0.01732452
0.04987649
0.01275442
-0.00948418
-0.06706813
0.02395179
0.02390577
-0.00094987
0.01514530
-0.01221443
-0.02448234
-0.00778147
-0.05306389
-0.04426800
0.03230765
-0.03166003
0.03578667
0.02885544
-0.00899517
-0.01997325
-0.00282972
0.01199777
-0.01147360
0.03413090
-0.05614055
0.00549062
0.00666270
-0.01766011
0.04263932
-0.00820534
-0.01942631
-0.00059692
0.00462429
-0.02348396
0.00848522
-0.00191677
0.06708740
-0.06640615
0.03983129
-0.02719663
-0.06116862
-0.00309065
-0.06058050
-0.03568513
-0.01156115
0.06096692
0.03287669
0.02049420
0.02031793
0.01052716
-0.03165093
-0.01637777
-0.00092153
-0.01276444
0.07577810
-0.03926184
-0.00202926
-0.04861850
-0.02548795
-0.00682267
0.01084920
-0.04704146
0.11749206
-0.01755925
-0.02716614
0.02787233
0.01086183
0.00100838
-0.01283339
-0.08434263
-0.00605109
0.02202301
0.03417537
0.03657266
-0.01165811
0.00880398
-0.04340645
-0.01662432
0.02370068
-0.01372440
0.01523313
-0.02130113
0.01090215
0.00156918
0.06645372
-0.03822518
-0.01874732
-0.01344505
0.02049263
-0.04079432
-0.02262294
-0.04196717
-0.04778728
0.04178843
-0.03856056
0.02443679
-0.00231266
-0.01082921
-0.01812214
0.02443236
-0.03770232
0.00194906
-0.01576474
0.05978758
0.01505166
-0.00271284
-0.02550479
-0.05298569
-0.00901621
-0.00014422
-0.03704535
-0.00120229
-0.05818969
-0.06648704
-0.05339697
-0.00875480
0.02772703
-0.01034267
-0.01206656
-0.01618080
0.05486158
0.00133951
0.01491529
0.04912683
-0.05122626
-0.03377959
-0.07190669
0.00013540
-0.06198809
0.01496165
0.01587826
0.00635926
0.04753858
-0.00187066
0.00773522
-0.01971737
-0.01313011
-0.00105582
-0.00047753
0.01239753
-0.00512789
0.01422140
-0.00929176
0.02680450
0.01587553
-0.03081157
0.02898222
-0.00783599
-0.01791139
0.02142923
-0.02665889
0.02413422
-0.02172148
0.00266281
0.01014406
-0.01911353
-0.04484375
-0.02883225
-0.01446488
-0.01829589
-0.01706784
-0.01721073
0.02905408
0.00220170
-0.02022720
-0.02087472
-0.02233280
0.03120371
-0.00140067
0.00745533
-0.01354135
0.00304829
0.00291672
-0.02326948
0.02389257
0.01725133
0.01824218
0.03697646
0.08717630
-0.04441379
0.02883224
0.07017437
-0.01329699
0.03122095
0.01480442
0.02094134
-0.00906322
-0.00846220
-0.02312673
0.00653113
0.00400909
0.08698052
0.02696074
-0.06136280
-0.06191563
-0.00400467
-0.00923481
-0.00659355
0.02468875
-0.02248060
0.00817454
-0.03573743
-0.04386189
0.00555497
-0.00239308
0.00600298
0.01448502
0.00139330
-0.02722385
-0.00670854
0.04532797
-0.00380354
0.00070554
0.01311999
-0.04134176
-0.00050606
-0.03600662
-0.03370620
-0.01295655
-0.02331309
-0.01531289
0.00777132
-0.01252377
-0.00150912
0.00186421
0.00318186
0.03058883
-0.03130278
-0.08486759
-0.00815918
-0.02035347
0.00877699
-0.01908815
0.00104141
-0.01109483
0.03491126
-0.03346062
0.00174388
-0.00937340
0.03751093
0.04226251
-0.02498663
0.03256850
-0.02860099
-0.01382757
-0.01727003
0.00250079
0.02251759
-0.03406850
-0.01283884
0.03171321
0.06587226
-0.02828909
0.02962605
-0.00328642
0.00864910
0.01152833
-0.01556593
-0.01842524
0.00440635
0.02752627
-0.01601149
-0.01821811
-0.00052813
0.02512910
-0.00458648
-0.02218493
-0.00412227
0.01864140
0.06538558
-0.00681839
-0.03247687
0.02534461
-0.03160052
0.00998041
-0.02683893
-0.02452087
0.00747381
-0.04103334
-0.01895322
-0.01478746
0.00383879
-0.02028537
-0.01348292
-0.02906914
0.03241208
-0.02073335
0.00119097
0.01389273
-0.01295381
0.00201880
0.03418306
0.00257174
0.01151555
0.03672908
-0.00876820
-0.01148258
-0.02463073
-0.00853975
-0.00122761
0.05908341
-0.02611044
-0.01045050
0.01284852
-0.01480537
-0.02630068
-0.00952754
0.06780083
-0.00481135
-0.01584719
-0.03715129
-0.00734656
-0.00519961
0.01102600
-0.01201423
0.00506545
0.00571567
0.01372622
-0.00616495
0.03050229
-0.04133748
0.05520257
-0.00738689
0.02143659
0.00235334
-0.01695500
0.02599934
0.03696589
-0.03996024
-0.01894968
-0.04204659
0.00223977
-0.00054578
-0.03148702
-0.01050623
-0.01848000
0.03034307
0.02480001
-0.04159894
-0.01569635
-0.04838953
-0.02845416
-0.00200891
-0.02027867
-0.03544395
0.01952470
-0.01051719
-0.00260893
0.06545405
-0.00541936
-0.03110278
-0.02600604
-0.03044825
-0.00485055
-0.00931215
0.00333859
0.00207389
-0.00795809
-0.01835402
-0.02190814
-0.01112040
0.01461432
0.00348509
-0.03689457
-0.02616592
-0.02708849
-0.03093161
0.00379383
-0.02460727
-0.00877994
-0.03003762
-0.04700849
-0.06032181
-0.03017951
-0.03840655
-0.00804218
0.01812145
-0.03625132
-0.04884184
-0.01189548
-0.06832410
-0.00498296
-0.00027396
-0.02710589
-0.02031740
-0.05065528
-0.01753291
-0.00221268
-0.01145575
-0.00041585
-0.00818638
-0.01143757
-0.03244668
-0.02893490
0.00285166
-0.05179367
0.03513302
-0.00609251
-0.02120311
0.01472220
-0.02087166
0.02055711
-0.00034298
-0.04280309
-0.04544331
0.03608897
-0.04524353
-0.01581707
-0.01645453
-0.02374962
0.00984443
-0.05929638
-0.01247155
0.07585728
-0.03677750
-0.01060021
0.01785438
0.00297386
-0.03104908
0.00299474
-0.01788258
-0.03718852
-0.00812572
-0.05637526
0.00725257
-0.05206209
-0.05494647
0.01360324
-0.01611310
0.03413883
-0.05090231
-0.01898599
-0.00071711
0.00271091
-0.02412156
-0.02298330
-0.01383035
0.00879407
-0.00923212
0.01474512
0.02556701
-0.01941515
-0.00816957
-0.02980930
-0.03165252
0.01023128
-0.05380446
-0.04058801
0.05285770
0.03884006
-0.00969963
-0.04541193
0.00573734
0.02537415
0.09536844
-0.00562744
0.01804385
0.01058775
-0.01183700
-0.02089455
0.01862712
-0.03741129
-0.00391923
0.02516076
-0.02479850
-0.03443917
0.04297191
-0.01034935
0.05144545
-0.07756574
0.06041446
0.06255350
-0.01163141
-0.00492418
0.00175617
-0.02165005
0.01094688
-0.00610931
0.00842059
-0.03480106
-0.05619510
0.03596847
0.00511194
0.02878538
-0.01367489
-0.02364162
-0.03467900
-0.04158641
0.00041298
-0.02468888
0.07578757
-0.05411137
-0.03480124
-0.00353026
-0.05077874
-0.04268606
0.03327012
0.04037142
-0.01608307
-0.01534847
-0.04890263
0.05517029
-0.06739015
-0.02900755
0.01414850
-0.05350535
0.04870417
-0.00463624
0.01258591
-0.02650513
0.00584453
0.06848481
0.03238434
-0.00541454
0.00480355
0.03168064
-0.02975544
-0.02399015
-0.04885881
-0.04445758
-0.06484551
-0.00202060
0.00498491
-0.06546052
0.01665910
-0.05204830
-0.03439632
0.00928007
0.05043570
-0.02194931
0.00193164
-0.06617858
-0.00883382
-0.02734374
-0.04696960
0.03437702
0.02299244
0.06415165
-0.00340173
-0.05258407
-0.02890259
0.03442454
0.01263278
0.00481021
0.02152216
-0.03045090
-0.03602067
-0.01616519
-0.04985135
-0.04536598
0.02330203
-0.00692901
0.02713111
-0.03055306
-0.05352080
-0.01706033
-0.01786224
-0.02890370
-0.00426337
-0.01971016
-0.03700300
-0.00586356
-0.02467691
0.04608534
-0.03089300
-0.07695775
-0.00994345
0.02458597
0.02935838
0.04186424
0.04371234
-0.00543576
0.00371402
0.02426266
0.03234454
-0.01321619
0.00083001
-0.05344318
-0.03194681
0.00930044
0.02116521
0.00904058
-0.01844790
-0.02527423
-0.03015047
-0.00820081
-0.05534191
0.00207087
0.08451391
0.01122975
-0.00264696
0.00127917
0.01618901
-0.02649635
-0.00057150
0.06362670
0.02844780
0.03598845
-0.01486016
0.02893815
-0.00526969
-0.03473152
-0.01261372
-0.03651550
-0.03466478
-0.00565004
-0.04515821
0.06161987
0.02974362
-0.04904204
-0.00379976
0.00715094
0.00668363
-0.04664778
0.01447301
-0.04262662
-0.00545335
-0.03682717
-0.03109954
-0.00495850
-0.02874079
0.00164300
0.05034876
-0.01503271
0.03207700
0.01360443
0.01471457
0.03079966
-0.02855730
-0.02412316
-0.05027799
-0.05315768
0.06168551
-0.02154001
-0.01145826
0.00891130
-0.01017443
0.01815202
0.01656590
0.02212033
-0.05122786
-0.00013202
-0.04595707
0.01412612
-0.00912139
0.02384862
-0.06082523
-0.02963518
-0.00199469
0.04258820
-0.02174315
-0.03880823
-0.02634452
-0.04781439
-0.04179175
-0.03332254
-0.02655219
0.00015240
-0.01638161
0.00048331
-0.03591993
0.01663429
-0.07717206
-0.01939049
-0.01661309
0.00030907
-0.01134161
0.02067003
-0.03127453
-0.03273271
-0.01969401
0.04499157
-0.04630070
-0.01257526
-0.00905527
-0.04185045
-0.02639202
0.06592148
0.05511910
0.01215565
0.00707589
-0.03585031
0.00568056
-0.00611296
0.00303907
0.00331826
0.01382923
0.01822999
0.00114352
0.02486023
0.01689028
-0.02905866
-0.01661635
-0.01936981
0.02942594
0.01211047
0.02546777
-0.00659690
-0.01238617
0.01367043
-0.00510354
0.01503657
0.01346152
0.02857436
0.03838224
0.02530941
0.00087975
-0.00103928
0.02370005
-0.00716871
-0.04272972
-0.03268779
0.00868267
0.02872338
-0.00827748
0.00411926
-0.03178290
0.01824231
0.00916827
-0.00661427
0.02589156
0.03017167
-0.02314683
-0.04239682
-0.00030299
0.00791553
-0.04218528
-0.00750403
-0.02816230
-0.05478841
0.01136987
0.00841189
-0.03940922
-0.02585282
-0.03696622
-0.00197098
-0.05731093
-0.06775501
0.01461395
0.01598613
-0.03275670
-0.05797105
-0.02974549
-0.03429117
-0.01071522
0.00504686
-0.03767877
-0.03845117
-0.01895276
0.00297376
0.00662658
0.04350318
0.01132791
0.03674043
-0.00681596
-0.06373528
-0.03718276
-0.01091922
-0.02485349
-0.00407123
0.01854976
0.01021962
-0.02817483
0.00506376
-0.03676097
0.00081882
-0.04471281
-0.00086876
-0.00357898
-0.00674087
0.01747849
-0.00581355
0.02678606
0.00612866
0.00204418
-0.01793895
0.00377821
0.01122599
0.00882230
0.02569230
-0.00044116
0.01251055
-0.00506874
-0.01540744
-0.04112623
0.00751749
0.03250416
-0.02028172
-0.02754433
0.01456890
-0.00309567
-0.01657560
-0.00015445
-0.01462749
-0.00315704
-0.01783104
-0.00067096
-0.04387449
-0.04458521
-0.02755536
0.02598008
-0.02808333
-0.02148104
0.00223110
0.02083308
-0.02959505
-0.00419453
-0.02111323
0.00404745
0.00543271
0.01517985
0.02367886
-0.00657095
-0.06061479
0.02496776
-0.00347167
-0.02670887
0.00227375
-0.00033595
-0.00482540
-0.00784412
0.01636417
0.05019536
-0.01410207
-0.00323387
-0.01930204
-0.01959994
-0.03746490
0.01202887
0.03260770
0.00039972
-0.00747046
-0.07168537
-0.05438422
-0.04785136
0.02195917
-0.03374474
0.04511633
-0.00707392
-0.01845076
-0.03909433
-0.01174136
-0.02399888
-0.01151192
0.01182258
-0.00669338
-0.00261683
-0.01794736
-0.05739633
-0.04750928
-0.00071469
-0.01757227
-0.02818499
-0.06311352
-0.00110021
-0.00113853
-0.06755666
0.01494267
-0.02073999
-0.04390528
0.00145418
0.00259598
-0.01325188
-0.01107886
0.00349028
-0.04030985
-0.02344856
0.03031978
-0.02250184
0.00376559
-0.01741723
0.03008324
0.02213636
-0.01365636
0.00465118
0.02035506
-0.00855207
-0.03451781
-0.03516267
-0.04438744
-0.02988506
0.03225757
0.04469997
-0.00711302
-0.02229914
0.02970748
-0.02341468
-0.04004752
-0.04745708
-0.01165038
-0.02454217
-0.03558623
0.02067564
0.00247880
-0.02462666
-0.02107155
0.00542689
0.03305987
0.00594649
-0.02661259
0.01311775
-0.01202599
0.03304644
0.03770215
0.01974662
-0.02827190
0.02341823
-0.03153190
0.03773442
-0.04537134
-0.01662051
-0.01862491
0.05021987
-0.00065237
-0.04101219
-0.00762508
-0.02025190
-0.00976060
-0.07935675
0.01859530
-0.00048817
-0.00986408
-0.02648440
0.00955125
0.03310747
-0.03684512
-0.00343457
0.01172948
-0.01931951
0.01414828
0.01158843
-0.01804873
0.02036582
-0.03493654
0.01887269
-0.03622077
0.02806901
-0.03993561
0.03885882
-0.00850113
-0.01368104
-0.06453480
0.03118042
0.03793779
-0.00437054
-0.00670518
-0.01700775
0.00750212
0.01898678
-0.02331585
-0.01652821
0.02845278
-0.05841880
0.01263123
-0.00788180
0.01915080
0.04248288
-0.01689594
-0.01020455
0.00672175
-0.00298618
0.01469238
-0.03247820
0.06216361
0.00923755
-0.02040235
-0.01278713
0.05002091
-0.02028086
-0.02687366
-0.03801866
0.01768784
0.03142703
-0.00005927
-0.02963604
0.03510627
-0.00797941
0.02519195
-0.05210779
-0.00834435
0.10006521
0.01136053
0.00433691
0.02596813
0.01680725
0.03705104
0.00908748
0.02365713
0.01559198
0.02425024
-0.02978613
0.00453909
0.00805419
0.00865055
0.01901157
-0.02938571
0.00975950
-0.02497307
-0.00196597
-0.01331810
0.04075530
-0.01806160
0.00551342
0.01864005
-0.00121334
-0.03422335
0.02205236
0.00864780
-0.00708461
-0.05238941
-0.03288791
0.00062671
-0.00572367
0.00747527
-0.02076454
-0.02899164
-0.00945953
-0.00376405
-0.01247066
-0.01376065
-0.02735285
0.06824238
0.01459818
0.01104512
-0.01495961
0.00330319
-0.03135995
-0.05839681
0.03397856
-0.00836022
-0.02584692
-0.00423406
0.02898451
0.00058560
0.00160214
-0.00462174
0.02454723
-0.01316695
-0.04103279
0.03388710
0.00689047
-0.01792683
0.00245966
-0.01680372
0.02217888
0.02311360
-0.06250916
-0.03151666
0.02387524
-0.02448119
-0.00873304
-0.00209645
0.02037366
-0.00595709
-0.01401714
-0.01623146
-0.01050030
0.01603953
-0.01633249
-0.00316334
-0.00506048
0.03703932
0.00961608
-0.01336177
0.01183292
-0.00791982
-0.00127685
0.08443944
0.07916587
0.01222308
0.02970642
-0.00837914
0.01578163
-0.01711794
-0.00469757
-0.00973885
0.00694868
-0.00171905
0.03369588
-0.00709609
-0.01717550
0.02338831
-0.03656276
0.01580337
-0.00800052
0.02918491
0.00710590
-0.02606743
0.02340763
0.02845204
-0.04290772
-0.05717596
0.00127989
0.00420384
-0.01199090
-0.01483323
0.03002630
0.01871173
0.00037890
-0.01858925
0.01073735
0.05090959
-0.02051626
-0.02344900
-0.00206003
0.02291270
0.01468554
-0.01866969
0.04699895
0.03843615
0.02048253
-0.02173003
0.02208745
-0.01869323
0.04479805
0.02058524
-0.03409236
-0.01676397
-0.02667219
-0.00066912
-0.00771476
0.01416326
0.03991862
-0.00266596
0.06653344
-0.01534536
0.02520637
0.01253156
0.00870031
0.02265066
-0.01313651
0.00540845
-0.01257901
0.00343730
0.03656933
-0.02533414
-0.01665307
0.01080118
0.03190634
0.01634290
-0.01223567
-0.01974401
-0.05392482
0.02502529
-0.03588419
-0.03394474
-0.00612321
-0.00987106
-0.03642208
-0.00757156
0.01460915
-0.00568802
0.01041446
0.03156479
0.04733940
0.01220948
0.01608967
-0.00378183
-0.01427936
0.02327623
0.01772231
0.01583410
-0.02346454
-0.01201756
-0.02623432
-0.01400883
-0.00531776
-0.02522450
-0.01615323
-0.00707627
-0.03157006
0.00853383
0.03049024
-0.01071292
-0.04134495
0.00344601
-0.00620288
-0.04029645
0.00775760
0.11056758
-0.00540628
0.00821333
0.04026236
0.00224582
-0.01674955
0.05350834
-0.03382069
-0.00818190
-0.00588386
-0.04700759
0.06306255
0.02875383
0.02386512
-0.00962054
-0.01481069
-0.02111102
-0.03852440
-0.02540660
-0.00450777
-0.00401763
-0.00835590
0.01495411
-0.02793376
-0.02359194
-0.04892291
-0.01746097
0.01348584
-0.03626984
0.01444539
-0.01227461
0.02007198
0.00984746
0.01083648
-0.01710114
0.02219404
-0.01895775
-0.00247772
-0.01811903
-0.00633123
0.02165939
0.00279243
0.00228587
-0.03457168
-0.01225380
-0.02647582
-0.03715379
-0.02557069
-0.05338913
-0.05503275
0.02511510
0.02644043
-0.02080772
0.03193241
0.00374624
-0.00359442
-0.01971354
0.01691600
-0.04448569
0.04110551
-0.03169160
0.02431006
0.00514698
-0.00316544
-0.01344035
-0.00824958
0.00077753
-0.02359722
0.01548178
0.02621399
0.01818793
-0.02407451
-0.01702734
0.05917888
-0.02429726
-0.01612067
-0.03551050
-0.00700082
-0.03640483
-0.00163990
0.01533697
-0.00972842
0.00594180
-0.01630250
-0.00918051
0.04656262
-0.01176416
0.00258788
-0.02710322
-0.02502278
-0.04322789
-0.03419280
-0.01130697
-0.05950920
0.02171695
0.00466626
0.01774710
-0.01085223
-0.01814723
-0.02989183
-0.04249973
0.00938430
-0.02640075
-0.01163907
0.01333622
-0.00661057
-0.02270679
-0.00405153
0.02972748
-0.02735092
-0.01436943
-0.00504882
-0.01232105
0.02489395
-0.02240579
0.01447788
0.03264771
-0.00746496
0.00916384
0.00346564
0.06544466
-0.02941360
0.02752366
0.04967385
-0.04169634
-0.00374170
0.00828312
0.00214351
0.03890890
0.02821926
-0.02537788
-0.01555333
-0.00634090
-0.00663423
0.01218154
-0.01766097
-0.03736525
0.05600834
0.01084397
0.00383865
0.00022232
-0.00289098
0.02062882
-0.02864135
0.00823691
0.02243499
-0.01161108
-0.02054037
0.02798693
-0.01171444
0.00439579
0.02209559
0.02867006
0.00966886
-0.03300875
-0.01205210
-0.04450934
-0.00590434
-0.02187977
-0.00369909
0.05230973
-0.00752921
0.00442504
-0.01369282
0.02506716
0.05887571
0.00067244
-0.00923366
0.04680067
-0.01943517
-0.03357002
0.04166464
0.02700280
0.00081895
0.00515093
-0.01977762
-0.03159252
-0.00050626
-0.00736493
0.03569549
-0.02853192
-0.00388020
-0.05807294
0.02970673
-0.00138488
0.00567885
-0.02120464
-0.01755216
0.02339239
0.01534893
0.03089195
0.03664546
-0.01825163
0.01522220
-0.03411254
-0.01796377
-0.03828340
0.03984418
0.05893606
0.01187754
-0.00566148
0.00818919
0.02132963
-0.02302993
-0.01407682
-0.00234147
0.00767593
0.01451065
0.00982462
0.00794792
-0.02173224
0.01328017
-0.01839088
-0.03444108
-0.01064946
-0.04344300
-0.00934784
0.02114861
-0.01369551
0.00239044
-0.01829851
0.00063242
0.00431456
-0.00241361
0.00089081
-0.03003773
-0.00450829
0.01073977
-0.01778550
0.02968497
-0.02572218
-0.00347075
0.00837457
0.01276056
0.01806954
-0.00919737
-0.01943759
0.02546833
-0.03170868
0.01212439
-0.00385494
0.04269874
-0.00438820
-0.00696003
-0.01386369
-0.00267995
0.04516624
0.01317142
-0.00217442
-0.00911007
0.03285023
-0.02308085
-0.03638604
0.04963404
-0.02852856
-0.01650490
-0.02960777
0.02354112
0.04307521
-0.01742597
0.02699430
0.04901337
-0.02808438
0.01421946
-0.00784631
-0.01982025
-0.01191338
-0.02235678
-0.01902733
0.02783130
0.02008771
-0.00720365
-0.00238228
0.01459354
-0.04575743
-0.03105338
-0.01106984
-0.00716038
0.00019640
-0.01678322
-0.02962143
0.03297672
-0.05205322
-0.02221639
0.03414537
0.00120421
0.00535603
-0.04300948
-0.00829495
-0.03998196
0.00191582
-0.00753252
-0.00422047
-0.00086999
-0.00995378
0.00790875
-0.00053717
0.00206480
-0.00605044
-0.00319880
0.01096667
0.02080949
-0.01258368
0.00521683
0.03013087
-0.01172355
0.02793281
0.05110880
0.00127510
-0.00453863
-0.00060062
-0.01341286
0.02784134
0.00334139
-0.04774262
0.00932032
-0.02773062
-0.04744632
-0.00408270
0.04505703
0.01291744
0.00738299
-0.01248873
-0.02011359
-0.02121734
-0.02669007
-0.02728413
-0.00280194
0.00212566
-0.02229638
0.03222641
-0.00427312
-0.06853460
-0.01437288
-0.01854995
-0.01289128
0.00828779
-0.02485021
-0.02453332
-0.05865237
-0.03318675
-0.05377474
0.01125919
-0.00506534
-0.03767472
0.03190058
0.00079296
-0.03304983
-0.00427087
-0.01480229
-0.00733523
0.00202388
-0.00294832
-0.00991307
-0.02182664
0.02941968
-0.00198859
0.01175443
-0.01058531
-0.01894046
-0.00388577
-0.00556663
-0.05155454
-0.02044011
-0.02245071
0.07110443
-0.01765358
0.03632439
-0.02072219
-0.02207240
-0.01845022
0.00498993
-0.01895991
0.03811010
0.00617803
-0.01682608
-0.03321354
-0.02087149
-0.01396557
-0.00599177
0.03638179
-0.02593055
-0.00778186
-0.00932808
0.04574813
-0.00910166
0.00386695
-0.02407219
-0.04718108
-0.04936997
-0.02517314
-0.04331112
-0.03191917
-0.05200663
-0.03130834
0.01105040
0.00446818
0.01060985
-0.04218714
0.00107600
-0.02369050
-0.01208939
0.03286868
-0.01845828
-0.00110506
0.03816368
0.02895132
-0.00548847
-0.01062533
0.05913382
0.01737147
-0.01041683
-0.02771463
0.02506091
0.02312665
0.00891511
-0.03327495
0.01899585
-0.03509070
-0.00922355
0.07933589
-0.04076002
-0.02193975
0.00070927
-0.01711784
-0.03964159
-0.00034510
-0.03013435
0.00906774
0.01834215
-0.00894064
0.03302846
0.06127174
-0.06518916
-0.02143886
-0.02854175
0.05221307
-0.02812249
-0.02231045
-0.03501896
0.00875627
-0.03092482
-0.01047292
-0.01083303
-0.00413683
0.03365952
-0.02241510
-0.00481478
-0.02146118
-0.02618090
-0.00758877
0.00184706
-0.00478460
-0.02744723
0.02977231
0.01364715
-0.02272160
0.01104711
0.05569247
0.01666201
-0.01415863
-0.00677070
0.01032180
0.00087736
-0.00038477
0.00607782
0.00385289
-0.00517168
0.01122983
-0.01314766
-0.01410825
0.01225957
0.01374486
0.00185773
-0.00427842
0.01075802
-0.01303818
-0.05811754
0.00915584
-0.01550642
0.03277278
-0.01507719
0.00674768
-0.03208419
0.02483776
-0.07068449
-0.04705079
-0.05103870
0.00963701
0.00833373
-0.00422056
0.00012827
-0.03757410
0.01397815
0.00361707
-0.02682112
0.01990023
-0.02389321
0.00742949
-0.00497510
0.01137656
0.03937286
0.00867169
-0.02806370
-0.04183551
0.01348391
-0.00212390
-0.00682755
-0.03437210
-0.01181898
-0.01071130
-0.00047654
0.02549421
0.00211644
0.02293156
-0.00881579
-0.01356465
-0.05776723
-0.00482442
0.01370942
0.00576007
-0.02774087
-0.01507815
-0.01385451
0.01186867
-0.00908776
-0.00854335
-0.03171786
0.02376777
-0.00247929
-0.01070800
-0.04319281
0.00770183
-0.00284326
0.08786733
-0.01758081
0.03508868
0.00739509
-0.00256818
-0.01596321
0.02273869
-0.02880982
-0.01036858
0.00142104
0.00009548
-0.01254720
0.04685187
-0.02717817
0.03028455
-0.04522478
-0.01057590
0.02637261
-0.00694735
-0.00453040
0.01025351
0.00012339
0.04397721
-0.02696018
-0.01182071
0.01804231
-0.01766339
0.03817428
-0.00022339
-0.00412201
0.01431964
-0.04213278
-0.03374892
0.01724638
-0.00688503
-0.00323580
0.02652708
-0.00442802
-0.01310179
-0.02164192
0.06215597
0.00274957
0.02787461
0.01334187
0.02829048
-0.02241962
-0.01383252
0.01737146
-0.01666436
-0.01887185
0.00579722
0.01832732
-0.00522422
0.09273302
-0.02650776
-0.02378746
-0.01154094
0.01303361
-0.02979840
-0.04444271
-0.05155018
-0.01070873
0.03114084
-0.01262296
0.00027987
0.01718283
-0.04649386
0.01687796
0.00810407
-0.00203590
0.01248780
-0.01984698
-0.02702260
-0.00543139
0.00775359
0.05046263
-0.00004371
-0.02606793
0.04227840
0.00656293
-0.01133711
0.01019082
0.00396537
-0.02086835
-0.03206674
-0.01334251
-0.00408307
0.07740964
-0.00485028
0.00497508
0.09634017
-0.01803341
-0.01532539
-0.01476997
0.01161060
-0.00164631
-0.05155437
0.00987907
0.02857136
0.06066980
0.01401985
-0.02441836
0.02171652
0.00553947
0.01657377
0.00265194
-0.02268966
-0.00199326
0.00246028
0.01088027
0.03215020
-0.02372830
0.00977398
-0.00019798
-0.03263751
-0.01835969
-0.00423702
0.01807392
0.00079519
0.00880736
-0.04827408
-0.01315964
-0.04606356
-0.02955916
0.00033268
-0.01740270
0.02061447
-0.02205459
-0.04204447
-0.01230860
-0.03166116
0.01997581
-0.00245526
-0.01079168
0.01364633
0.07664848
-0.04719327
-0.01487236
-0.00680448
0.05820175
0.00441351
-0.00022378
-0.01180034
-0.01823170
0.02492615
0.00915664
-0.01748755
0.02174728
0.00548790
-0.03502714
-0.00544286
0.00340850
-0.01758771
0.02614018
-0.01857639
-0.00151088
0.01956461
0.04719758
0.00683885
0.02357931
-0.02657539
-0.00234047
-0.00566861
-0.03888100
-0.00667266
0.01161013
-0.02318423
0.03284402
0.03162958
-0.02827847
0.01262476
-0.00768408
-0.00788073
0.01192509
0.00828808
-0.02826859
-0.03705657
-0.02551515
-0.02060656
0.02669353
-0.02537683
-0.01291740
-0.05588279
-0.00038309
-0.02453278
0.00156287
-0.02646496
0.02087793
-0.00770933
-0.03839485
0.02046019
-0.02571015
-0.01759386
-0.03337723
-0.02232025
-0.01394401
0.08230752
-0.02451180
-0.00824740
-0.05894205
0.02552975
-0.02778222
-0.00968934
-0.04626122
0.03842721
-0.04285530
-0.01740577
-0.00270634
-0.03453977
-0.01689310
-0.02080545
-0.00651316
-0.02188153
0.00914648
-0.01900072
-0.00121036
0.01477893
0.02569756
-0.01893919
0.00859292
0.01426620
0.01165298
-0.03670081
-0.00752707
-0.01740014
0.02469936
-0.01575796
-0.02628572
0.06407648
0.02534770
0.02657394
-0.00688882
0.02577103
0.03927463
-0.02339071
0.05997725
0.00913152
-0.00285421
0.00733731
-0.00131809
0.06430232
0.01770267
-0.03026689
-0.00920942
-0.02592470
-0.00198853
-0.01740894
0.02052637
-0.00821634
-0.00932258
-0.03416825
-0.01783073
-0.03626756
-0.01101862
0.00032989
0.00575569
-0.01392005
0.00470222
0.05177067
0.01491539
0.05364141
-0.03943039
-0.01296113
0.06487674
-0.01741823
-0.01744854
0.07254488
-0.00639517
-0.00760265
0.04691560
0.01662134
-0.08120303
-0.01588870
0.05473639
0.02556286
0.02430947
-0.04733171
-0.03097277
-0.01175827
0.00832986
0.02947039
-0.03493350
0.00520133
-0.02601856
0.04900857
0.00124859
0.02489433
-0.00640436
0.00608482
0.04543985
-0.06717661
0.00493621
-0.00797266
-0.01678789
-0.04151571
-0.03257785
0.06805234
-0.00298512
-0.02503012
-0.02366878
0.02430739
0.02498462
-0.00130345
-0.00063679
-0.03378407
-0.06784385
-0.02314866
-0.00446665
0.01962157
-0.03128193
0.04203872
0.02343696
-0.02192320
0.01831841
0.00215856
-0.02832647
0.00192827
0.00020791
0.01303749
-0.03986978
-0.00214327
-0.00226085
0.02579158
0.06987125
-0.02453373
-0.00313176
-0.01805348
0.03671378
-0.03822241
-0.00186470
-0.02620450
-0.02703176
0.03685164
0.00861276
0.01775444
-0.03005090
-0.01684700
0.02537899
0.00872790
0.01146195
0.00154803
-0.01181814
-0.02331252
-0.00702047
-0.01890375
-0.03460056
0.00144827
0.00912302
-0.00413312
0.02918336
0.00542376
-0.01261164
-0.00050366
-0.03648966
-0.03273209
-0.03830120
0.00407307
0.00832907
-0.03323942
-0.02249854
-0.03805932
-0.03942430
0.01268505
-0.01714530
0.02409831
0.00377997
-0.01099978
-0.01157583
0.00785241
-0.02960254
0.01184838
-0.00456607
-0.02883813
-0.03381552
0.00408060
-0.02898327
-0.02660783
0.00289095
-0.01702346
-0.02856806
-0.02504023
-0.00479752
0.00354448
-0.02547939
0.00531834
0.00688666
-0.00865277
-0.02230426
-0.00155571
0.04097981
-0.02367069
0.07028247
-0.05816240
-0.04051187
0.03701757
-0.03808796
-0.00916752
-0.02133681
-0.02681085
-0.06063836
-0.01682823
-0.00713848
0.00307859
-0.02792495
0.03174408
0.00230074
-0.02108865
-0.04103527
-0.01034614
0.02961899
-0.00605678
-0.00152434
-0.01134518
0.06758581
-0.01878353
-0.00091439
0.01199645
-0.00526544
0.01883312
-0.04274653
0.00852661
-0.00467379
0.03940982
0.01684828
0.00223474
-0.03089804
-0.00145710
-0.02152096
-0.04997702
-0.02526826
-0.01042965
0.01040911
0.03363332
-0.00721489
0.00698180
0.02239572
-0.01436807
-0.02111637
0.01968980
0.00280223
-0.02448157
-0.00702747
0.00590718
-0.01936778
0.02096751
-0.02751794
0.00853647
0.02098506
0.05599767
-0.03064552
-0.00870117
-0.00932227
0.00892974
-0.00111206
-0.01862795
0.02128384
-0.02374076
-0.02341011
-0.01432400
0.04831653
-0.02551807
0.01679517
0.01710578
0.02857983
-0.00395220
0.02330615
-0.02552802
-0.01872907
-0.01884170
0.05202241
-0.00802851
-0.01737598
0.00302471
0.03665318
-0.02402942
-0.01541704
-0.03164362
-0.01828919
-0.03032618
-0.00219942
-0.03136018
-0.00648382
0.00120824
0.01147536
0.00607427
-0.00512847
0.02119489
-0.03060417
0.00030888
0.00820892
-0.00468200
-0.02874734
0.00185340
-0.05450686
-0.00781610
-0.00717175
-0.01703048
0.00979818
0.01402418
-0.01460438
-0.08139117
-0.01500043
-0.00791643
0.01773366
0.03454960
-0.06300941
-0.03026290
-0.00426314
0.02272255
-0.03484348
0.05360777
-0.02766011
0.01218436
-0.04518851
-0.01713349
0.00169427
-0.02918199
-0.05789673
-0.01696515
0.02668611
-0.00787953
0.01785515
-0.02656040
-0.04746026
-0.06152812
-0.04273681
-0.04300600
0.01811760
-0.00274883
-0.03438665
-0.00615510
0.04950793
-0.00468118
-0.02175785
-0.00443999
-0.04807473
0.01488686
-0.01977566
0.04557392
-0.03969280
-0.02815160
0.00634455
-0.03144971
0.04139061
-0.01582494
-0.01556974
0.00106515
0.00028559
-0.03490203
-0.02199866
-0.00639804
-0.01537259
0.03688098
-0.00843825
-0.01904034
-0.00018409
0.01295923
-0.01244311
-0.04938067
-0.00559779
-0.03156291
-0.01978802
-0.02617479
-0.01628201
0.01244844
-0.03961179
-0.00195754
0.02735157
0.01337627
0.00044087
0.04960190
0.00573021
-0.02758686
-0.02219566
-0.00253568
-0.06000809
-0.02667100
-0.01113157
0.00600708
0.00644977
-0.02052678
-0.04725030
0.00291568
0.02126463
-0.02332190
-0.05763735
-0.04551180
-0.00516288
0.00931694
0.00855828
0.00457694
0.01236593
-0.02452733
-0.06269489
-0.00294896
-0.02439542
-0.00283222
-0.02258124
0.07273988
-0.02182547
-0.04486012
0.00777821
-0.02728531
0.01742110
-0.00269709
-0.04420738
-0.07694842
-0.02631202
0.02273269
-0.01072488
-0.03776355
-0.03296228
-0.01964170
-0.00631320
0.01401471
-0.02218997
0.00196437
0.01560622
0.00109232
-0.00189249
-0.04115160
-0.00464118
-0.02532652
-0.00409068
0.02534337
-0.01937565
-0.02376629
-0.02851200
-0.04019909
0.00299929
0.09201527
-0.00054059
-0.00958624
-0.00908367
-0.00607836
-0.02962480
-0.01590356
-0.00005424
0.01272605
-0.03196215
-0.00490940
0.07966882
-0.03890872
0.06449158
-0.01098975
0.09075154
-0.01393897
0.00327383
-0.02262692
-0.01407113
-0.00956659
-0.02730663
-0.02978370
-0.03620293
-0.00076605
-0.01583788
0.01126724
-0.05209536
0.03284424
-0.01793152
0.02457826
-0.03949929
-0.03813219
-0.00808340
-0.01064720
0.00105855
-0.03023708
-0.01343998
-0.01438298
-0.01820515
0.00812097
-0.05499600
-0.03413445
0.02326040
0.00090492
0.03922161
0.00832503
0.03391262
-0.01103975
0.00596247
-0.00638335
-0.00745070
-0.03281845
-0.02418302
0.01318992
-0.01489142
0.04434058
-0.03843153
-0.03515600
-0.01530432
-0.04570396
-0.05389363
-0.00597709
0.00293259
0.00024882
-0.03218671
-0.01981809
-0.02592797
-0.03686652
-0.00452637
0.05434528
-0.04640821
0.02530012
-0.01121392
-0.03206185
-0.02734809
-0.01378308
0.01909888
0.00433388
-0.04334875
-0.03676603
-0.05893054
0.10953826
-0.03133497
0.00796022
-0.02022393
-0.02865700
-0.01831653
-0.01974636
0.01345114
-0.00686367
0.05005096
-0.03492144
-0.03405659
-0.01194402
-0.00991490
-0.02099011
-0.01037426
0.01444175
0.02874434
-0.02351562
0.08299305
0.02759321
-0.01344593
0.00596808
-0.00153898
0.07949434
0.01890337
-0.00956808
0.07036044
0.03518617
-0.01571492
0.01873176
0.03269554
-0.05396051
0.02530234
0.02989941
0.01855328
0.02406296
0.00444641
0.00368842
-0.01803515
0.00519239
-0.02692379
0.00909345
0.02520641
0.00288791
-0.01608217
0.04040746
-0.03474290
-0.00341695
-0.01224157
0.02066439
-0.01906515
0.00748996
-0.04859672
-0.04915852
0.05759793
-0.01439793
-0.01013776
0.05555142
0.00123114
0.03890550
-0.01666981
0.00948462
-0.00237315
0.01910555
0.02971197
-0.01134116
0.03366654
-0.00565845
-0.02667031
-0.00135354
0.02993275
-0.03615326
-0.03130347
0.01567546
-0.00629914
0.00290809
-0.00282725
0.02563768
0.00954818
0.04252262
-0.00743414
0.02540497
0.02198166
0.02701965
0.04448792
-0.03627966
0.01775662
0.06013511
0.00002294
0.00783017
-0.00855361
0.00298500
-0.01968012
-0.01533743
-0.00862259
0.02160139
-0.00641137
-0.00853922
0.01054503
0.01810355
0.04833653
-0.00714305
-0.00097759
-0.03610092
0.00729049
-0.02974624
-0.01877815
-0.02226728
-0.02449287
0.01060569
0.02983142
0.04304743
0.02784014
0.00667875
-0.03191076
0.01143063
0.02712245
0.00453602
-0.02078779
0.02517886
-0.02586627
-0.01535130
0.02416288
-0.01630848
-0.03701538
0.02031286
0.01653740
-0.00649843
-0.02195346
0.00660094
0.00072163
0.01548486
0.01912406
-0.01842058
-0.00004782
0.00068386
-0.00752901
0.01293673
0.01592738
0.03426094
0.06060738
0.00400541
-0.04818092
0.01684324
-0.02494652
-0.00063339
0.01602949
0.02950917
-0.00432215
0.00975838
0.02309749
0.05528281
0.03316910
-0.00068220
-0.03974610
0.00545111
-0.00149917
0.00049599
-0.01223980
0.02819351
0.03931290
0.00902285
0.06699993
-0.01655892
0.00741021
-0.01620129
-0.01777939
0.00453373
0.00868999
-0.01639698
-0.03127756
-0.01317052
0.02755630
-0.01778510
-0.02502690
0.01894731
0.02318088
0.00661608
-0.03837220
0.01636373
-0.01973366
0.02855228
-0.05449095
-0.01014519
0.01140216
-0.00061532
0.01114170
-0.01386476
0.01650763
0.01288916
-0.04658571
-0.04745720
-0.00098290
-0.02525825
-0.01740301
-0.02264933
0.01750825
0.01880157
-0.03482480
0.03062822
0.01762527
0.02455988
-0.02823487
0.01781431
0.03555069
-0.02131756
0.03851546
-0.00295514
-0.03511890
0.01724081
-0.00672330
0.00762002
0.00445420
-0.00266187
-0.00328509
-0.00619376
0.01011462
-0.02618592
-0.00613011
-0.01739955
0.01609891
-0.05398788
-0.02441378
-0.02337302
-0.01769998
-0.02153235
0.01593215
0.00803694
0.09407566
-0.03212411
-0.00268848
-0.00141128
-0.02713355
-0.01056542
0.00373804
-0.00647898
-0.04251371
0.04680193
-0.01399358
0.01638821
-0.03269704
-0.00669381
-0.00185351
0.00838244
0.01303687
-0.03390997
-0.02950511
-0.03169056
0.00440496
0.00355506
-0.03468981
-0.03038237
0.04015115
-0.00876537
-0.03170093
-0.07251173
-0.01667326
0.01470980
-0.03054317
-0.03292214
0.00075487
-0.01751185
-0.04296835
-0.03426344
0.01179498
-0.00298556
0.03618900
0.05643168
-0.00412569
-0.00056048
-0.05262798
-0.02307574
-0.00231948
0.03548694
-0.04332455
-0.04327679
0.01809679
-0.00686237
0.01675246
0.01456639
0.00171456
-0.02774509
0.00849987
0.00272313
0.00071788
0.04097110
-0.01832619
-0.03224041
-0.02432867
-0.04434492
-0.03172212
0.01391691
-0.00989382
-0.00552568
-0.04204541
-0.00344223
-0.01304056
0.05982582
-0.02317352
-0.02722062
-0.01180000
-0.00255428
-0.00490819
-0.02079644
0.02204658
-0.01543489
-0.03565894
-0.03248123
-0.03815836
0.00026283
-0.04670732
0.05731303
0.04346026
0.03542054
-0.03341471
0.00984501
-0.00496524
-0.01134725
0.00390453
-0.00295877
-0.03339859
0.00759387
0.05287776
-0.00900467
0.02640592
-0.03356219
0.05231350
-0.01823287
-0.00940651
0.02942434
0.02240929
-0.00092055
-0.01073346
0.00436639
-0.01184077
-0.00161117
0.01939829
0.00354661
-0.02419007
-0.02356192
-0.05004470
-0.00856437
-0.03085101
-0.01953322
-0.00164388
-0.00395441
0.00800374
0.00328887
-0.02639075
0.03765026
-0.01208060
-0.01172035
-0.03207622
-0.00653486
-0.02270856
-0.00427185
-0.00555450
0.01202709
-0.02361775
0.06797947
0.04133344
0.01366645
-0.01330582
-0.00532607
-0.00800274
0.01278479
-0.01441736
0.00299902
-0.00773503
0.00581685
-0.01835462
-0.04523982
-0.04318043
0.03638440
-0.03956316
-0.00735294
-0.02417673
-0.01681467
0.01457872
-0.01522978
0.00302258
-0.03581349
0.01866402
-0.00031138
-0.01801248
0.01156751
-0.00731558
-0.03373381
0.02383574
0.02039864
0.03871688
-0.01505298
-0.01865797
-0.01715910
-0.04259425
-0.03044175
0.02285478
-0.00508174
-0.01861229
-0.04104707
0.01084535
0.02550652
-0.02597944
-0.05453651
0.03629056
-0.00379625
0.01274059
-0.07982221
0.00491865
0.00793437
0.04598327
-0.01535156
0.00127717
-0.03639662
0.02182325
0.01518829
-0.02752665
-0.03645490
-0.01842739
0.00817513
-0.03316952
0.04016491
-0.01857499
0.00541337
-0.00823171
-0.04247541
0.02335489
0.00949063
-0.02503783
-0.04492208
-0.04272510
0.02063355
0.01951080
0.03863411
0.00214788
0.05280333
-0.00023811
-0.00814132
-0.00730099
0.01270446
-0.03683021
-0.01243177
-0.01361662
0.08486639
-0.02140678
-0.00522188
-0.00168977
-0.02565992
-0.03789093
-0.03052661
-0.05863829
0.02131961
0.00009528
-0.02306280
-0.02101951
0.02791468
0.00318317
-0.01836423
-0.04449207
0.02542754
0.03649940
0.02557914
0.00698899
-0.01215024
-0.04630081
0.01444543
0.00542491
-0.00102373
-0.03444541
0.01329316
-0.02717852
-0.01401806
-0.00130517
-0.01782423
-0.03433697
-0.00270813
0.01106230
0.00472080
-0.05002058
0.00559439
0.00900862
0.03027170
-0.04740076
-0.03378307
-0.00519321
-0.02001792
-0.01646262
0.01051877
0.00271761
-0.01271119
0.03573556
-0.00294002
0.01279574
0.04176877
-0.03171077
-0.02290016
0.00358556
0.02905105
-0.00738723
0.04401599
-0.03630536
0.01057097
0.02726341
0.01592723
-0.00121033
-0.04371291
0.01310191
0.02035180
0.01631932
-0.01571192
-0.03768055
0.00509840
-0.01599428
-0.02130957
0.00601056
-0.02857574
0.00581846
-0.02405653
-0.00997168
-0.00364488
0.03981658
-0.00525944
-0.00739500
0.00129225
-0.02010608
-0.00191035
0.02568571
-0.03919036
-0.03542440
0.03048866
-0.04047812
0.00845062
-0.01851795
0.06992983
0.02495793
-0.01653896
-0.01935329
0.02281596
0.01029093
0.01695571
-0.00269911
-0.03325682
0.03228281
-0.00928712
-0.02592350
0.02973249
0.01297557
0.04737712
0.01294263
-0.05417930
0.00283332
-0.02009570
0.02892590
0.00148486
0.00572838
-0.01759139
-0.00901083
-0.06163806
0.03100380
-0.01553639
0.04985378
0.01100092
0.02125544
-0.00945977
-0.06065990
-0.05979604
-0.04192910
-0.03545997
-0.04925098
0.00282031
-0.04385861
-0.00953733
-0.04014746
-0.06862301
0.02855308
0.06426582
-0.01285523
-0.01511979
0.02633744
-0.01271595
0.01855539
0.02344301
-0.02049810
0.02932159
-0.00228796
-0.03870073
0.09184739
0.01553159
-0.00174664
0.01482732
0.00471469
-0.00988005
-0.01822319
0.05098606
-0.04457854
-0.00025802
-0.01319582
-0.02176323
-0.03567234
-0.01273771
-0.04429014
-0.00844642
-0.01236691
0.01826271
-0.00752502
-0.00633447
-0.02369844
-0.01121281
-0.02345621
-0.00119461
-0.00780836
-0.00455989
0.01148717
-0.00952433
0.04514426
-0.04636677
0.03277897
-0.01434775
-0.02286729
0.03713834
0.01811117
-0.02675646
0.00562540
0.01037345
0.01957969
0.01054997
-0.00731516
0.01752505
-0.02288099
-0.05108474
-0.00526439
-0.03301382
-0.05820321
-0.04448656
-0.02913067
-0.03671920
0.00646187
-0.03282341
0.03027292
-0.02217033
0.01138788
-0.02401038
-0.02472421
-0.03949295
-0.03555641
0.03432663
-0.02044179
-0.00186369
-0.01554486
-0.03012482
0.00221207
-0.01655191
-0.00194293
-0.00548811
-0.03712146
0.00253547
-0.01489779
0.02478142
-0.03250973
0.00137060
-0.01590239
-0.02766878
-0.00758124
0.02592330
0.00896589
0.00298965
0.03697170
-0.01168993
-0.01956688
0.03066284
0.02741038
-0.00164737
-0.03836372
-0.04208625
0.03294552
-0.03433240
0.02701187
-0.00588040
-0.02287142
0.01447833
-0.04902636
-0.04722284
-0.01637701
-0.00564495
-0.05992456
0.00053518
-0.01425619
-0.01144244
-0.02501247
-0.03283962
-0.05639174
-0.02895434
-0.04250260
0.01556279
0.01687653
0.03430814
-0.02116014
-0.00604001
-0.00643675
0.00305210
-0.04167890
-0.01067895
-0.01179094
-0.00995033
-0.00350070
0.00032043
0.01822788
-0.01772660
-0.02349597
0.03284261
0.01360625
-0.01450211
0.00262764
-0.04798066
0.02354150
0.01074176
-0.02972640
-0.04548830
-0.00092820
0.01987487
-0.02181823
-0.01582706
-0.02298053
0.02978768
-0.01963763
0.00771840
-0.01744275
0.00665889
-0.01247935
-0.04193595
-0.02287319
-0.01729196
-0.00054464
-0.04945504
-0.04109070
0.03294732
0.01774123
0.01368188
-0.06136082
0.01376956
0.00800232
-0.00053828
0.02268284
0.00581010
-0.03177648
-0.01548295
-0.02968516
-0.01287535
0.01351142
-0.01956036
-0.01057730
-0.03665034
-0.03153044
-0.04732192
0.00084631
0.01283549
-0.03158733
-0.03056432
-0.03134091
-0.01391017
0.01495807
-0.01681141
0.03368185
0.02634078
0.01575099
-0.01552499
-0.00604482
-0.02494851
0.02650869
-0.01628266
-0.03095669
-0.04744817
-0.03780349
-0.01784295
-0.01545360
-0.02828021
-0.00919378
-0.02430345
-0.00003528
-0.00552716
0.00593417
-0.00334467
-0.01403813
0.00377786
-0.01898192
0.00733006
0.03754688
-0.03364108
0.00309107
0.00037859
-0.00064787
-0.01494380
-0.01445307
-0.01651570
0.00066779
-0.01947897
-0.00106833
-0.02755368
-0.03000820
0.01597392
0.00042801
-0.00808468
0.00561122
-0.00271330
0.01984351
0.01459211
-0.02670288
0.00287454
-0.03582644
-0.01492594
-0.00099347
-0.01423834
0.01715039
0.02359852
0.00414368
-0.02436945
-0.00883691
-0.03918026
-0.02399029
0.05933511
-0.00666394
-0.04318971
-0.01744699
0.01447735
0.01253161
0.01821440
-0.00196356
0.00231292
-0.02556637
0.02212185
-0.02260085
-0.01620189
0.04588323
0.02234982
-0.00828109
-0.00610419
-0.00852363
0.00106477
-0.01251914
-0.01888686
0.02275505
0.01202770
0.01721642
-0.02180276
-0.01628375
-0.02212823
-0.00473507
0.00229868
0.00291672
-0.03431144
-0.02043736
-0.02683221
-0.01058493
-0.02075018
-0.00251682
0.04693886
0.02046808
-0.01392147
-0.01452154
-0.01342676
-0.03168976
-0.02646061
0.00577950
-0.00753853
-0.02004689
0.02328212
-0.02870910
0.01805400
0.02374480
-0.00316392
0.00714809
-0.01329739
0.00549659
0.01632778
0.00509900
-0.02312008
-0.02755531
-0.03400825
-0.01233805
-0.01539470
-0.04899373
0.01332616
0.00359672
-0.00870389
-0.01158942
-0.00092562
0.04516033
-0.01837919
-0.03698874
-0.00538173
-0.01200046
-0.00399179
-0.00023899
-0.02500791
-0.03246759
0.00167299
0.01695212
-0.02669249
-0.01044815
-0.01504708
-0.01748385
-0.03259528
-0.01306690
-0.01383443
0.00384233
0.01457580
0.01257617
-0.00792116
-0.00039933
0.00384881
-0.03430821
0.01535035
0.01833353
-0.01324739
-0.01725809
-0.00912941
-0.01901358
0.02090112
0.01727226
0.00885819
0.04202175
-0.00890516
0.02675265
-0.00525373
0.01006941
-0.01392676
0.03188142
0.00555473
0.01925391
0.01433010
-0.03190814
-0.01199102
-0.02259895
-0.00149299
-0.00437299
-0.02758051
-0.00060342
0.01432302
0.02213682
-0.02723067
0.01995331
-0.02192373
0.02531490
0.05873694
-0.04400260
-0.03190025
0.01415264
-0.01687229
-0.04491223
-0.01777652
-0.02955621
-0.02280480
-0.04042768
-0.02797768
0.00304843
0.00219020
0.02310698
0.01308340
-0.01700438
0.01076922
-0.03156010
-0.01224643
-0.00908633
0.12616570
-0.01509642
0.01098530
-0.00335627
-0.03657953
-0.01430208
0.02488743
-0.00424445
-0.00959623
0.00437567
-0.02185222
-0.01718296
-0.00049204
0.03804778
0.02096554
-0.04369778
0.01766657
-0.03009482
-0.04101041
-0.00592651
-0.00186016
-0.03298063
-0.04715890
0.00843890
-0.03306253
-0.00645417
0.02244465
0.03481127
-0.06050191
-0.05113319
-0.00021097
0.00260218
-0.01335377
0.03039973
0.06625102
0.03183102
0.00347855
-0.02153662
0.00832958
-0.01111291
-0.01124163
-0.04934101
-0.00402624
0.01569635
0.00184071
0.00258667
-0.01875483
0.00940849
-0.01152735
0.01749998
-0.02157736
0.01485079
0.00239838
0.00172124
-0.01436832
0.05203194
-0.04001528
-0.02909601
-0.05739483
-0.06645060
0.06398552
0.01763309
-0.02319791
-0.03984518
-0.01281946
-0.00420679
0.00892635
0.00081607
-0.04454172
-0.04016451
-0.07801559
0.00937345
-0.00436966
-0.00793431
-0.02525404
0.00839503
0.00160694
0.04271099
-0.01063669
-0.03953178
0.00134404
-0.02560296
0.02566302
-0.01205510
-0.01679679
0.02524076
-0.01592785
0.01440038
-0.01728205
-0.02666829
0.01475463
0.00394498
0.01801677
-0.00213134
-0.04895818
-0.03348945
-0.00702208
0.01429852
-0.02181329
-0.00838280
0.05638476
0.05533653
-0.05976083
-0.03572486
-0.04920717
-0.00007853
-0.05700509
0.01234756
-0.03183385
-0.03997960
-0.04972005
-0.03860108
-0.00709581
0.00837800
-0.03161392
0.00347398
-0.03692260
-0.00369351
0.04834055
-0.02553521
0.00806742
-0.01312534
0.02174419
0.00891207
-0.01292638
-0.02196805
-0.01047630
-0.03167935
-0.00731955
0.00998358
0.02416008
-0.00941987
0.03190181
-0.03474129
-0.00562507
0.02731757
-0.05366558
0.00607829
-0.02307878
-0.01025972
-0.02131667
-0.01209802
-0.01440423
-0.00695044
0.01679147
0.02314982
0.00564094
0.07010708
-0.00770546
0.02939806
0.02335180
0.00078839
-0.03587593
-0.00923299
0.02543064
-0.03563718
-0.03669791
-0.03777132
-0.00495125
-0.02988679
0.03210937
-0.00679344
-0.00386625
-0.01132107
0.03643784
-0.01311311
-0.01596301
-0.01782415
-0.01297953
-0.02801739
0.00637593
-0.02734970
-0.03508703
-0.02552208
-0.02972443
0.03305614
-0.03094076
0.00323232
-0.01171693
0.00144826
0.00187461
-0.01969626
0.03397349
-0.00705362
0.02173730
0.01558193
-0.00426136
-0.01353458
-0.01571206
0.05232849
-0.00177563
-0.04102864
-0.05627202
0.02793781
-0.03063633
0.01247922
-0.00922119
0.04432766
0.01477774
-0.04000333
-0.01886143
-0.03263447
-0.02466506
0.05947212
0.06370059
0.02483653
0.02924151
0.09920293
-0.03372274
0.01256876
-0.00041105
-0.02295288
-0.02819374
0.01248620
-0.00269575
0.00878657
-0.01225300
-0.00536412
0.02065538
-0.00066941
-0.00994325
0.01541343
0.04004476
-0.00572603
-0.00293265
0.02564428
-0.00517731
0.00479174
-0.03630020
0.00417862
0.01027665
0.05901024
0.02595242
0.01140384
-0.04898696
-0.00284122
-0.00490052
0.09872510
0.03184721
0.01417964
-0.00912742
-0.01732554
0.00780390
-0.00241645
0.00374463
-0.01682912
-0.00892600
0.01743609
-0.02112791
-0.01915701
0.02159666
-0.01831750
-0.01682009
-0.02986321
0.01304767
-0.01197891
0.02195962
0.04398284
0.00662780
-0.00601402
0.03278134
0.02808356
-0.02248761
-0.00510847
0.01715764
-0.01379495
0.02350563
-0.02047561
0.00183145
0.01315096
-0.02429825
0.01893764
0.00346795
-0.00756074
-0.01737712
-0.03886907
-0.00926129
-0.01243273
-0.04293136
-0.01589918
-0.02578690
0.05352601
-0.01002560
-0.03978002
-0.02477696
0.01576688
-0.02187759
0.02935782
0.00441702
-0.00355193
0.01476842
0.01024429
0.01648283
0.06745385
-0.00642822
0.00219786
0.00916011
0.01644805
-0.02223845
0.03786091
-0.02324726
0.01739621
0.09997887
-0.00741714
0.01110883
-0.01208150
0.01399041
0.02287868
-0.02319973
-0.04019311
0.05359858
0.00938583
-0.00559975
0.02795603
-0.01161321
0.02289610
0.02229262
-0.01842638
-0.05480012
0.05717922
-0.01061112
0.00640928
-0.01947054
0.00154754
-0.00278690
0.05664253
0.01390081
-0.00494536
0.01537761
-0.00448060
-0.00594717
-0.01496472
0.02230140
-0.01422662
0.01807169
0.00705488
0.00119657
-0.04961015
0.10352167
0.01307287
0.03575656
-0.03741088
-0.00248196
-0.01905245
0.00004609
0.00078104
0.04209866
0.01855774
-0.01583198
-0.01415423
0.00459381
0.00068854
0.01828451
-0.01045986
0.01777473
0.05304976
-0.05347063
0.04707270
0.01384401
-0.02797155
-0.01897371
0.00497327
-0.03689738
-0.01415792
-0.03235320
0.00883996
0.00711174
0.05135921
0.02040905
-0.01243932
0.04104850
0.00262524
0.00686533
-0.00885593
-0.01263355
0.08356387
-0.03819212
-0.04707296
-0.01302752
-0.01019940
-0.03106653
-0.00522637
-0.00266163
-0.01341472
-0.00236672
0.03668704
-0.03657849
-0.00949205
-0.03940528
0.01221755
-0.01230546
0.05105458
0.01226918
-0.01190427
0.04545607
-0.00854554
-0.03066026
0.02318542
0.01452855
-0.00013632
0.02738167
0.00812884
-0.01859361
-0.04019713
0.01096463
-0.02411397
-0.01555320
-0.04061138
-0.04454833
0.02582383
0.08397205
-0.04550232
-0.01113442
-0.02000114
0.04858958
0.08903610
-0.00926713
-0.01780688
-0.02771533
-0.02917003
0.05470409
0.01504382
-0.00268727
-0.00786178
-0.03276824
0.00095105
0.04489351
0.04072585
0.00490885
-0.00583699
-0.01496201
-0.02790239
0.00081697
-0.00397466
-0.01376637
0.04169681
-0.00723967
-0.02639312
-0.05073758
-0.00132085
0.01379068
-0.00504141
-0.03798487
-0.05874558
0.06598175
-0.04806897
0.00375563
-0.04068821
-0.04391903
-0.00118758
0.01301267
-0.02555011
-0.08974951
-0.00831715
0.03551070
0.02950995
0.02974263
0.00420520
-0.04127152
-0.00761438
0.01670389
-0.04771988
-0.00904155
0.01813235
0.00913015
-0.03344429
0.03464173
0.00258498
-0.04394694
-0.02408252
-0.06554032
0.02588155
0.00210335
-0.04762616
-0.00183661
-0.00262044
-0.04692476
0.03913199
0.02505072
0.06804722
-0.01260562
0.03318508
0.00663622
-0.03678677
0.01840742
-0.05850901
-0.04324836
-0.01993445
-0.02061260
-0.04094065
0.00551726
-0.05467276
0.01356950
0.01505728
-0.03938974
-0.03494103
-0.02710170
0.01062258
-0.03216230
-0.01342018
-0.00185808
-0.06164411
-0.02935906
0.00222965
0.04451772
-0.01066596
-0.00902541
-0.00045097
-0.02878291
-0.00677988
0.00803545
-0.01830269
0.01667126
-0.01576321
-0.02028658
-0.07182635
-0.01005382
0.03399165
-0.01473061
-0.02575307
-0.01123643
-0.04232476
0.02161503
-0.01011648
-0.02029259
0.04116825
-0.00787148
0.02233181
-0.00564959
0.01319864
0.00099017
0.05650496
0.02656686
0.03256350
-0.02723196
0.03873657
-0.02924842
-0.01442746
-0.01374304
-0.00545309
-0.02688362
-0.01702613
-0.00675707
0.01772475
-0.03092704
0.00220137
0.00607218
0.03599943
0.00754481
0.04954646
-0.00844771
0.00373524
-0.01886699
0.00000322
-0.03101748
0.00212297
-0.02884642
-0.00159531
-0.07383100
0.01131112
-0.02029930
-0.03209180
0.03373560
0.02627320
-0.04422689
-0.04948314
0.05985922
-0.00764274
-0.02244365
0.02584718
0.03107403
0.02288694
-0.01444771
-0.00848318
-0.01904165
-0.01304990
0.01769724
-0.01200923
0.02413969
0.02986144
-0.00852531
0.00712059
-0.00145950
-0.01502645
-0.00327678
-0.02434570
0.00077364
-0.02253225
0.02481696
0.02975867
0.01487579
0.01794179
0.01440063
-0.01256521
0.00246197
-0.01085261
0.01858681
0.03400053
-0.03830471
0.02784510
0.04099067
-0.01597636
-0.03663372
-0.02581707
-0.03453213
0.01299759
0.00068856
-0.03139287
-0.01653547
-0.02247654
-0.03095993
0.03602909
0.01873138
-0.01025240
-0.05620855
-0.01035887
-0.01523058
-0.00706128
-0.02810343
-0.00835077
-0.00249319
-0.01180596
0.06480038
-0.00460733
-0.01199336
-0.01906027
-0.01963541
0.01684632
0.04140024
-0.01533921
-0.04636647
-0.00716983
-0.02008961
-0.06296747
-0.01348793
0.03428593
0.04137414
-0.01559988
-0.01652908
0.00656222
-0.00242874
-0.00645697
-0.00820748
-0.00119821
0.00052203
-0.01405312
0.02493385
-0.01382545
-0.00523598
-0.04449062
-0.02768522
-0.01261450
-0.00137997
0.03227671
-0.01325687
-0.01174724
-0.03753585
-0.03152924
0.01449814
-0.04319181
-0.02172713
-0.00552994
-0.00653770
-0.02092533
0.02133184
-0.04064787
0.04811426
0.00763054
-0.03194778
0.00814520
-0.02638438
0.03615906
-0.05219142
-0.05464565
0.01205509
-0.00633391
0.01527011
0.01452466
-0.00032168
0.00120779
-0.07211240
-0.04106543
0.10770863
0.02560122
0.04154970
0.00518244
-0.00108730
0.04178078
0.03716576
0.02977332
0.00726111
0.03235818
-0.01784772
0.00530657
0.01739074
0.01096865
-0.01905728
-0.02582275
-0.00765953
-0.03789741
0.05319292
-0.04278358
-0.00016992
-0.01997332
0.01734273
0.03882302
-0.01617193
-0.05464262
-0.04502396
0.00216645
0.01306166
0.01102310
-0.06579634
-0.03569905
0.00223578
0.06579667
0.02934825
0.00433793
0.03637695
-0.01385532
0.00845437
0.00336777
-0.01261353
-0.02463746
-0.01601319
0.00293098
0.01428036
0.03610059
0.06420795
-0.02253449
-0.02163401
-0.02073526
-0.06499243
-0.02935231
0.00648164
0.01577360
0.01734851
0.02596742
0.00310885
0.00129894
-0.00981225
0.01074596
0.02077212
0.01819699
0.02331069
-0.02864733
-0.04239746
-0.00993760
-0.03426249
-0.04227063
0.00080574
0.00461315
-0.02436964
0.04455746
0.01829285
-0.06789966
0.02938275
0.00934832
-0.01914884
-0.02347877
0.07154682
0.01350826
0.01557779
0.02407075
-0.00172355
0.00999258
-0.01411362
-0.02548660
-0.01143725
0.00572536
-0.00088867
-0.02890388
-0.00660158
-0.03731556
0.02133991
-0.05059493
-0.00191499
-0.02172635
0.02402605
-0.00872004
-0.03577207
-0.01304591
0.01630953
-0.03612737
-0.00843422
-0.00590486
-0.01952474
-0.01163113
-0.00057131
0.01711054
-0.02137689
0.04695551
-0.01357174
-0.00186046
0.00383496
-0.01927159
-0.00343111
0.01452366
0.00128356
-0.00959695
-0.03764881
0.01319504
0.03367010
-0.02183135
0.02153322
-0.03738770
0.01299848
0.04764615
-0.01376069
-0.04529425
0.00693181
-0.03724052
-0.04156748
0.02789620
-0.05143708
-0.00133736
-0.01377355
-0.02965553
-0.02389156
0.00514249
-0.00681449
0.02851649
0.00794277
0.01424110
0.02788514
-0.03931483
-0.00574664
0.01695660
0.03188252
-0.00665317
-0.02439399
-0.00683448
0.02638247
-0.01818075
-0.01456370
0.00166037
0.03100185
-0.00829679
-0.01598711
-0.00825139
0.00084258
-0.00776557
0.01204863
0.09430991
0.02258533
0.00328828
0.00553379
-0.00297347
0.00155986
-0.03607069
-0.00861437
0.03435338
-0.03568221
0.00255411
-0.03885896
-0.02309453
0.03660113
-0.00791154
0.02417380
-0.01827424
-0.01398829
-0.04620766
-0.01179680
-0.00499640
0.01596698
0.01049053
-0.02159585
-0.01539607
0.04479197
-0.02800894
0.02273288
-0.01560665
0.03851122
0.02514577
-0.03014678
-0.02857831
-0.00923915
0.04011109
0.01936891
0.00573294
-0.03400435
-0.00236838
0.00925833
0.02000847
-0.03947893
-0.00851962
0.01939416
-0.00985455
0.00561650
0.03381548
0.02818426
-0.00779212
0.02905248
0.05271055
0.01600770
-0.00079763
-0.02634582
-0.02312310
-0.01318036
-0.00424856
0.01242914
-0.03321190
0.04494750
-0.00952055
0.00894659
0.00910913
-0.00837390
-0.00992201
-0.05632004
0.01368743
0.05009004
-0.02680170
-0.00687088
0.09290946
0.00199770
0.00215280
-0.00478570
-0.01891621
-0.04006819
-0.03324769
-0.01060933
-0.01876628
0.00989357
-0.02855960
-0.01637683
0.12676886
-0.00709143
-0.04161578
-0.03373919
0.00295993
-0.00364435
0.02863566
-0.02828169
0.03744842
0.00157379
-0.05118005
-0.01441310
0.01277611
0.01158595
-0.02204366
-0.02130432
-0.00125209
0.00384418
-0.00055714
-0.00681508
0.01894423
0.02597368
0.00021103
0.01362827
-0.03055673
0.04203718
-0.04125588
-0.02867019
-0.00008520
-0.02179992
0.00542124
-0.03367007
-0.01179078
-0.01572989
0.01639469
0.00679240
-0.00238792
-0.00516412
-0.02707965
0.02188506
0.03023742
0.05264677
-0.02394841
-0.03390200
0.00550816
-0.04328834
-0.00588742
0.03290735
0.01127035
-0.01153213
0.02039841
-0.02443401
-0.00193904
0.01536896
-0.01811020
-0.00812951
-0.00740063
-0.00657459
-0.01912785
-0.01388553
-0.00955944
-0.00859323
-0.02671128
0.02475625
-0.02336297
-0.00567189
0.01176743
-0.00135554
-0.00690936
-0.02603450
-0.02517430
0.01315627
-0.05351722
-0.00090702
0.00274347
0.08498169
-0.02284945
0.02117401
0.02807588
0.00799222
-0.01651907
0.04549839
-0.02669387
-0.01460062
-0.00047864
-0.02062579
-0.01432189
0.01072440
-0.05507376
-0.03303117
0.04231813
0.03216718
0.03080129
0.00034205
-0.01975564
-0.02597686
-0.03136524
-0.01638484
0.00601762
0.01892337
0.00396603
-0.04053240
-0.00071409
-0.01001698
-0.00615313
0.00132559
-0.01758788
-0.03456983
0.01755764
0.01299549
-0.04772720
0.01905952
0.02355389
-0.02045064
-0.02573117
0.00562317
-0.00517714
-0.03935216
-0.00466784
0.01344967
-0.02549170
-0.01753321
-0.03150874
0.00894152
0.06029821
-0.01634985
-0.00331069
0.03898356
-0.04027815
-0.02542833
-0.01197945
-0.02216370
-0.01558399
-0.01859308
-0.00643960
-0.02642352
0.03276412
0.00236589
-0.06268713
0.00364606
-0.02467898
-0.02779145
0.01204888
0.00006369
0.02129912
0.00073677
0.00208133
0.02206152
-0.02070663
-0.00167041
-0.02861318
0.01925945
-0.00225231
-0.01552088
0.00383995
-0.00640435
-0.01186226
0.04733496
0.00051814
-0.03092152
-0.02704303
-0.02078446
-0.01534656
-0.02274546
-0.04483618
-0.02301218
-0.00155860
0.00373608
0.03137001
-0.01976593
-0.00027195
-0.00075874
-0.01536148
0.02134096
-0.01253627
0.01734586
-0.00377821
-0.00219194
-0.05753028
-0.01155909
-0.04977158
0.01660042
-0.00424921
-0.01779251
0.02809176
-0.00494530
-0.01456122
-0.02824290
0.00475525
-0.03186282
-0.01599767
-0.04094870
-0.03739529
0.05223607
-0.00473221
-0.03474740
-0.01324334
-0.01649133
0.01766654
-0.03898012
-0.01993067
-0.00753711
0.01069638
-0.03740989
-0.03330420
-0.02310055
-0.00514104
0.02146612
0.00026060
-0.01679422
0.01162395
-0.03029083
-0.00980268
-0.05305785
0.01012718
-0.00525805
-0.00636725
0.00580650
-0.00905240
0.04141803
-0.03878004
-0.01842879
-0.00829717
0.01719889
-0.02012009
0.05106936
-0.00291579
-0.02199261
0.07928125
-0.01349685
-0.01190594
-0.04632082
0.06238618
0.00090079
0.02097737
-0.02148498
0.01904418
0.02744893
-0.00052860
0.01829134
0.02470320
-0.01209755
-0.00159429
-0.02332301
-0.01282335
0.02969244
-0.00157586
-0.03545228
-0.00228906
-0.04534572
-0.02136889
0.02194961
-0.04224279
0.00927466
-0.01838624
-0.01190116
-0.06400476
-0.02176405
-0.03279380
-0.00265394
-0.01823432
-0.03806193
-0.02405040
0.00332598
0.00167918
-0.02906235
-0.00103882
0.00467228
0.00501821
0.03825771
0.00226677
-0.01584009
-0.02090739
0.01665333
0.00072700
0.00856478
-0.03030001
-0.04196152
0.01076469
-0.03781511
-0.00914046
-0.01282682
0.04519738
0.03048235
-0.03596358
-0.02816934
-0.03446464
-0.03966658
0.04330152
-0.00109735
-0.00309084
-0.00713722
0.01083424
-0.06538828
0.02343745
-0.02406787
-0.01465366
-0.02352561
-0.00239622
0.04851582
0.02937679
-0.04759475
-0.01308671
-0.02020865
-0.04398222
-0.04096210
0.04304336
0.02649245
0.00258946
-0.03940136
-0.00831988
-0.02438875
0.02884723
0.03471103
0.01949155
-0.01718221
0.02037483
0.02202722
-0.03413946
-0.01748211
0.00416225
-0.06127507
0.03370079
-0.00563472
-0.01031858
-0.01199332
-0.01283193
-0.01047264
-0.00923296
-0.00507388
0.00636462
-0.02608752
0.05530730
-0.05435188
0.00454047
-0.02190453
0.01056804
-0.03690618
0.00992340
-0.02619017
-0.03831919
0.04795014
0.02840505
-0.00032128
0.00337310
-0.01584237
-0.00760451
-0.00238944
0.01326370
-0.01472892
-0.00615629
-0.02723860
0.04406768
-0.03113832
-0.04306353
-0.01557424
0.02087985
-0.01709676
0.00643155
0.01504295
-0.03849950
-0.00009835
-0.01498800
-0.00673861
0.03980708
-0.04788640
-0.02937549
-0.02172873
-0.01474205
-0.03334736
-0.01537469
0.04539001
-0.05198242
0.02705724
-0.02045037
-0.00215405
0.06191771
-0.01022003
-0.02659819
-0.04938291
0.00358318
-0.01464759
0.04342363
0.00504003
-0.00465620
-0.00122741
0.01395050
0.03992534
-0.04258753
0.05192736
0.00415845
0.00320824
0.00064544
-0.03674282
0.03077018
-0.03166241
-0.00433468
0.01546114
-0.01102234
-0.06636525
-0.00878570
-0.00085562
0.00024370
0.02371181
0.03954314
-0.02695027
0.04705623
-0.01016258
0.08166491
0.01087018
0.01216464
-0.00935662
0.06969319
0.03371806
-0.02719886
-0.01062562
0.02605820
-0.02602614
-0.02144042
-0.04687987
-0.00284429
0.02882771
-0.03046850
0.00494000
0.03810734
0.00054921
0.00007736
-0.02151071
0.02233209
0.01051348
-0.01851274
-0.00292292
-0.01932610
0.01946421
0.05607254
0.01832074
0.00294418
-0.00113765
0.02914612
-0.01133694
-0.00481843
0.01919316
-0.00681549
-0.03849381
-0.00481737
-0.02392517
0.02468775
-0.00767109
-0.03129240
0.05030740
-0.00844028
0.03202884
-0.02285561
-0.00964609
0.03082651
-0.04829909
0.03204301
-0.01713368
0.00602868
-0.03591732
-0.01535189
-0.07583245
-0.02599456
-0.01516270
0.01367875
-0.05102553
0.01837060
-0.05289608
-0.00604816
-0.00671602
0.01377542
-0.00955309
-0.01740451
0.01098601
0.00914101
-0.00111308
-0.01562887
-0.01040722
-0.02101499
-0.02007055
0.01232942
-0.00929965
-0.04579400
0.00783438
-0.00432639
-0.01139320
0.03723609
0.03163768
-0.01408735
-0.04618874
-0.01448552
0.00094336
0.02212946
0.00288298
-0.02050926
0.04405731
-0.02315012
0.00318295
0.01126170
0.00658327
0.03687779
-0.00334858
-0.02874823
-0.03039651
-0.02959508
-0.00376524
0.02421648
0.00453644
-0.01930938
-0.01801047
0.05851880
-0.00541659
0.00493022
0.02210999
0.03214535
-0.03866877
-0.02242702
0.00347757
-0.03301840
0.06991474
-0.00565784
-0.01883956
-0.00077367
0.01780472
0.01979828
-0.03815457
0.02327721
0.01040578
0.04066524
-0.00234031
-0.03220768
0.00381225
0.02370156
0.06688294
-0.03426952
0.00352768
0.05562995
-0.00505548
-0.01330795
0.00881582
0.00587356
0.00335814
-0.01277412
0.02475850
-0.01586786
0.03009221
0.03736039
0.04473682
-0.01104281
-0.00883104
0.01790582
-0.02245524
-0.03008378
-0.02929444
-0.01391427
0.03900942
-0.00789019
0.02759683
-0.04288287
-0.02475836
-0.02646581
0.01164690
0.00783925
0.01098695
-0.01137496
-0.00522939
-0.02311668
-0.00567577
0.00467747
0.00079966
-0.04257448
-0.03878480
-0.00601687
-0.01625459
0.00863173
-0.04596864
-0.02880245
-0.01265332
0.02564093
-0.00163900
-0.00367084
0.04095577
-0.00113586
0.01087536
-0.02408973
-0.01651749
-0.01568717
-0.05092833
-0.03722167
0.01988788
0.00294353
-0.03112375
-0.04088498
0.02238713
-0.02033264
0.00088966
-0.01366476
0.01320381
0.03150802
0.00977968
-0.00829986
0.02394082
-0.04498592
0.01896985
0.00344816
0.00298173
0.00108801
-0.01167695
-0.04018789
-0.01700201
0.02452048
-0.02139127
0.03346128
-0.00426779
0.00357402
-0.00278096
0.02605736
-0.00830267
0.00459892
-0.03723210
0.03501824
0.03055279
-0.06514738
0.00781130
0.03913091
-0.00338763
0.00337337
-0.02993421
-0.00665352
0.00408725
0.03800189
-0.02756908
-0.01675528
-0.00352177
-0.00762797
0.01532764
-0.04863502
-0.01381565
0.00241646
0.00485812
0.00428795
0.03982710
-0.02864195
0.03347863
0.02277086
0.02542744
0.00631702
0.00762594
0.10374433
-0.01024903
-0.03961349
0.04566830
-0.01089026
-0.01213695
-0.02605278
0.07921086
-0.00612966
-0.00314518
0.04175108
0.00272440
-0.01752742
0.01884830
0.03463473
0.01490408
0.01876115
-0.01881613
-0.02319548
-0.02825040
0.00635276
0.01178711
-0.02366715
0.02201937
-0.01385660
0.04055379
-0.02594256
0.03232681
0.00697748
-0.00162470
-0.02900047
-0.01422913
0.00919128
-0.03701403
0.03589991
-0.00482076
-0.03393942
-0.00293895
-0.00037923
0.00844705
0.00707623
-0.00139512
-0.01102744
-0.00836034
0.02627609
0.01315355
-0.04849856
-0.04010310
-0.00099711
0.00241401
-0.00168962
-0.02082029
0.00353208
-0.01883916
0.00485664
-0.04036368
0.01942001
-0.00976120
0.00342883
0.01818107
0.08002057
-0.00485390
-0.02211795
0.00022428
-0.02419655
-0.01191788
-0.02469608
-0.00421374
-0.03114410
-0.00506544
0.01889377
-0.01398385
0.01842653
-0.00517261
-0.02162839
-0.03440560
-0.03138938
-0.01870361
0.02608804
0.03283824
-0.04682766
-0.01955665
-0.02954086
-0.03198355
0.00553789
0.00871750
-0.01422410
-0.02628959
-0.02682007
0.03646335
-0.00079785
-0.01394518
-0.04718152
-0.02805356
-0.04343836
-0.02836090
0.01116837
-0.00847276
0.02862335
-0.02093925
0.01607032
-0.03021918
-0.02808838
-0.03652754
-0.01541407
-0.02686405
-0.02131330
0.01875590
0.00788257
0.03581700
-0.03992883
-0.03839220
-0.00440486
0.06492154
0.00876315
-0.03413973
0.01139681
-0.00365007
-0.04605535
-0.01816808
-0.00209266
0.01804568
-0.01077435
-0.01972628
0.01292064
0.00856394
0.04663043
-0.02964020
-0.03555677
-0.01291505
-0.05044441
-0.00439386
-0.04566789
-0.01497180
-0.00414726
-0.01344120
-0.02467718
-0.03404075
-0.01031937
-0.00324917
-0.04973943
0.00280372
-0.01716968
-0.01233899
-0.02868777
0.00037134
-0.00213594
0.04888344
0.02024371
-0.02341357
-0.01580067
0.00038940
-0.00930163
0.01352969
-0.00341483
0.04919039
-0.02778276
-0.01606806
-0.03746777
0.08146840
-0.01897767
0.00267926
0.00819962
-0.01489050
-0.01283188
-0.04052734
-0.02626318
0.00117274
-0.03474470
-0.00491745
-0.00957107
-0.04736766
0.04831912
-0.00028872
0.04524330
-0.00048109
-0.00981836
-0.00539498
-0.06573424
-0.01334914
-0.02234977
-0.01830401
-0.06215845
-0.01016462
0.00885928
-0.00364891
-0.00189996
-0.01738974
-0.02053119
-0.02323878
-0.03362986
-0.00757270
0.01028606
0.02744629
0.00057670
0.02754955
-0.00395587
-0.02648421
0.01526817
0.00437183
0.01000666
0.02566600
-0.03190977
0.01271896
-0.00770144
-0.01105208
-0.01655634
-0.00502597
-0.03128731
-0.01739593
-0.02070672
0.04804574
-0.00198144
0.00123068
-0.01069717
-0.03362276
-0.00964240
-0.02036910
-0.03247818
-0.02193544
0.02050608
0.03334420
-0.01369040
-0.03937730
0.03274509
-0.02418410
-0.00342465
-0.04673733
-0.01580029
-0.02550930
0.02339467
-0.02552560
-0.02773658
0.03025740
-0.01240956
-0.01066205
-0.01144247
0.00263374
0.01088246
-0.02766065
-0.05295750
-0.03915055
0.02293084
-0.02240826
0.01931408
0.00658273
0.00827295
-0.04026472
0.00464230
-0.00829691
-0.05613855
-0.01177365
0.00897808
-0.00961322
0.02383847
-0.04141066
0.02933310
0.00298150
-0.02674809
-0.01114452
-0.01571513
-0.03089490
-0.01214022
0.06096601
0.00228282
-0.02123539
0.01129763
0.00171705
0.01769981
0.00619704
-0.02922101
-0.00519635
0.02188913
0.02391790
0.00124567
-0.01517659
-0.01111696
0.02261773
-0.03136802
-0.01233731
-0.00903383
-0.00165144
-0.03544341
-0.01498486
0.00085834
-0.00657116
0.00980969
-0.03696300
-0.00059864
-0.01770780
0.04719931
-0.01052469
0.05807446
0.02301928
-0.03335323
0.01777368
0.01177285
-0.04616912
-0.03058279
0.00067736
0.03909801
-0.04301409
0.00413535
-0.01435463
-0.00473883
-0.02740031
-0.00862097
0.02754946
-0.01114953
-0.01632692
-0.01819477
-0.03923941
0.00179221
0.03807221
-0.02584779
0.00178567
-0.04690803
-0.01878422
-0.00611574
0.02463746
-0.00155771
-0.05314538
-0.00807504
-0.00562439
-0.01976628
-0.03557137
-0.00436040
0.00971968
-0.02537726
0.02417533
-0.03164340
-0.01346843
0.02866158
-0.00440389
-0.02382518
0.00237365
-0.00937067
-0.00918068
-0.00789627
-0.01431796
-0.03383971
-0.03258204
-0.03624375
-0.03089426
-0.01854367
-0.02231545
-0.01736689
0.02474030
-0.02602194
-0.01385569
-0.04560838
0.01534368
-0.01138265
0.01107284
0.01295067
-0.01153142
-0.03854912
0.00988393
0.04624165
-0.01030541
-0.05181273
-0.03767620
-0.00824406
-0.00055253
-0.01709318
-0.05270607
-0.02265260
0.01786287
-0.00709222
-0.02979387
-0.03296836
-0.01076447
-0.03458777
-0.00262561
0.04658008
-0.03086061
0.00546416
-0.01829775
-0.01097757
-0.00312015
0.00744272
0.00359823
0.01007552
-0.00130922
0.03696938
0.04930650
0.01647283
-0.01946810
-0.03782380
0.01740435
-0.01054991
0.01073526
0.04325973
-0.01634581
0.05002165
0.00560639
-0.00304427
0.04604337
0.01089812
-0.03850238
-0.00513573
0.03222824
-0.00890169
0.00013704
-0.01993450
0.00357132
0.01669084
-0.02414777
0.03155982
-0.05211504
-0.00342642
-0.03041254
0.00866186
-0.01351709
-0.00445034
0.01539299
-0.03084150
0.01544963
0.00024607
0.00270241
-0.05742474
0.01599089
-0.00261272
-0.03241161
-0.01642421
0.07133833
-0.00301856
-0.02629917
0.00200760
-0.01312245
0.04048879
-0.01503065
-0.02074543
-0.01261594
-0.03200579
-0.02140652
-0.02181915
-0.01436902
-0.04566225
0.03702818
0.00818648
-0.01799364
-0.01665751
-0.00122075
0.03344150
-0.03147972
0.02133597
-0.03710066
-0.02182149
-0.01031274
0.04313836
0.03885840
-0.01120240
-0.00913337
0.01640546
0.00604575
0.04491675
-0.00954229
-0.04045094
-0.00659581
-0.02312978
-0.02315878
0.01781474
-0.00494808
-0.01687495
0.00588502
-0.00250663
0.00434689
-0.01518741
0.00814491
-0.02042037
0.00874816
0.01443792
-0.01991124
-0.04163551
0.01981635
0.00741056
0.01285067
-0.03126029
-0.01725487
0.00123610
0.01711178
-0.01948286
0.00587988
-0.00254252
-0.00950888
0.01149225
0.06533749
-0.01855174
-0.01656908
-0.00453197
-0.03971633
-0.01723641
-0.01724451
0.06856901
0.03485861
-0.02550242
0.00470998
0.01099114
-0.01992376
0.00900931
0.00228410
-0.00314889
-0.00709568
-0.00455998
0.00427344
-0.01607469
-0.00147917
0.03079227
0.01760356
0.02365410
-0.02820207
0.04860736
0.02128805
-0.00024529
-0.00742459
-0.03183532
0.00033787
0.00473000
-0.02058445
0.01378797
-0.02210129
0.00664862
0.04574659
-0.02463548
0.01703419
-0.02755180
-0.04125567
0.00676811
-0.00716259
-0.04995507
-0.01649939
-0.00378460
0.01408745
0.00588925
0.00863036
-0.01590947
-0.01982563
0.00577719
0.01685034
-0.03317919
-0.00667933
-0.03081973
0.04252836
-0.01697802
0.06300553
-0.01080003
0.00636487
-0.00367370
0.02842159
0.01308307
-0.00443179
-0.01890775
0.01312649
0.00536556
0.00612968
-0.00698658
0.02005776
-0.01946878
-0.00581968
0.01738068
-0.02625680
-0.00399510
0.05456030
-0.00019950
-0.02747217
0.02324124
-0.03357052
-0.00379241
-0.02367844
-0.01811031
-0.01645640
0.08939466
-0.00567375
-0.00982490
0.00986412
0.01878877
0.02740162
0.00531054
-0.02359904
-0.03836586
-0.02162421
0.00584271
-0.01185707
0.02238419
0.03019337
-0.04739629
-0.00801549
-0.02516736
-0.02681223
0.04364989
0.01596005
-0.03735135
-0.03272399
-0.01030333
-0.04369275
-0.03906526
0.00591832
-0.03846452
0.02141355
0.01597464
0.01866672
0.00195365
0.02484894
0.04592014
-0.02362017
0.01471433
-0.01332674
-0.01477125
0.00241128
0.05260717
0.01542928
-0.02655935
-0.01079656
-0.02515280
-0.00795818
0.02608135
0.05152138
0.01810440
-0.03718061
-0.00838820
0.02930608
-0.03520890
0.00167162
0.01814476
0.00931944
-0.01859150
-0.00740215
-0.00020695
0.01467601
0.00977116
-0.01455909
0.01576363
0.04827774
-0.01461992
-0.03087009
0.00428391
-0.00076688
0.03118412
-0.00257517
-0.00221595
0.02485098
0.05920082
-0.02380427
0.00206264
0.00780685
0.03106421
-0.06717697
0.03138662
0.00511574
0.00714601
-0.02159861
-0.06406991
-0.01763364
-0.00977044
0.00181181
0.00843936
0.02255485
-0.04529813
0.00252258
-0.01928448
-0.01138766
-0.00730139
-0.03194432
-0.00997461
-0.03025802
0.02058476
-0.01542947
0.00780037
0.01391018
-0.01802766
-0.01220492
-0.02611981
-0.00371371
0.00709193
0.04203202
-0.01000792
-0.00368166
0.00988450
0.01162293
-0.00600274
-0.02391700
-0.00829887
0.03060574
-0.02336153
-0.03093869
0.02535180
0.06795801
-0.01506910
0.08628910
-0.00447288
-0.04079309
0.01641018
-0.01809742
-0.01646540
-0.01221925
-0.02874459
0.01108791
-0.01958003
-0.01507107
-0.02611602
-0.01251512
-0.02122335
0.02633204
-0.00096061
-0.00178698
-0.03076237
-0.01666597
-0.03411869
-0.01186556
0.00990368
-0.01289029
-0.06394038
-0.02787421
0.00112363
-0.01091030
-0.01841068
-0.02612472
-0.02292538
0.00982177
-0.01399771
-0.00690244
-0.02604389
0.00862564
0.00159520
-0.01056515
-0.01053421
0.01220554
0.00548773
-0.03394780
-0.02103036
0.07253265
-0.00197590
0.00343105
-0.05207350
-0.00492575
-0.01128143
-0.05438039
-0.02716934
0.00692760
-0.02187270
0.00655466
0.02489886
-0.00382578
-0.04105341
0.00322209
-0.01454258
-0.03540748
0.04348833
-0.00130449
0.04082321
-0.03547421
-0.03401662
-0.03645501
-0.01834006
-0.01145504
0.00351869
-0.04572475
0.00792149
0.02318689
-0.03117543
-0.03505339
-0.00510214
-0.00879338
-0.00268246
-0.03519630
-0.00895639
-0.03424948
-0.01538350
-0.01811207
0.01326091
0.03475628
-0.00365997
-0.04432565
0.00094120
-0.03308998
0.01597703
-0.01559581
-0.02586112
-0.03258944
-0.02679422
-0.01559552
0.01615632
0.02903569
0.00134145
0.01957844
-0.02849982
0.01604095
-0.03067356
0.01822854
-0.08186115
0.03657210
0.01154345
0.04494935
-0.03795021
-0.01179462
0.01791389
-0.01430709
0.00105866
-0.03623178
-0.02168124
-0.00880462
0.06555477
-0.05304690
0.00015571
-0.00829259
-0.04599456
-0.03345225
-0.01590855
0.00986789
0.02113044
-0.00652124
0.01479757
-0.02494195
-0.00478418
-0.05005074
0.00415389
-0.01799737
0.03656394
0.04818475
0.02505328
0.02815134
-0.01297374
-0.03168604
-0.01818667
-0.03218690
-0.01520302
-0.00235456
-0.00059703
0.00494181
0.02231885
0.01067746
0.01147006
-0.00966391
0.04709830
-0.02712504
-0.02777473
-0.03901142
0.00358898
-0.04116609
-0.00410877
0.00185783
-0.04320320
0.00844005
-0.03643527
-0.03321795
-0.01369197
-0.01405963
-0.05631595
0.00135734
0.00789827
0.00768783
0.00973803
-0.00928210
-0.01071562
-0.00452068
-0.02830470
0.00463320
-0.05275579
-0.01162657
-0.02647140
0.00132332
-0.04771424
-0.03705306
-0.02227003
0.01407483
-0.02266558
-0.03008410
-0.02952857
-0.03173074
0.00504577
0.00214734
-0.02113556
0.01948017
0.02299336
-0.07551256
-0.04161540
0.01591117
-0.01735716
-0.03265784
-0.00676845
-0.00478956
0.00455899
-0.04222796
-0.02905484
-0.00444511
0.04223228
-0.01806026
-0.01617299
0.03486028
-0.04432758
-0.01786909
-0.03253214
-0.03378748
0.00929682
-0.01317276
0.00065333
-0.00862758
0.00264720
-0.02790072
0.00198668
-0.01937759
0.05766939
0.00870867
-0.02398348
-0.07822204
0.00455175
-0.01455647
0.01496343
-0.03677814
-0.01348858
-0.02049828
0.01130750
-0.02318852
0.01358390
0.01654376
0.03233596
0.02572332
-0.03948479
-0.04724770
-0.02875664
-0.01403370
-0.00831698
0.02072576
-0.04962111
-0.03614817
-0.06621764
-0.00986082
-0.02196295
-0.03028953
-0.01395180
0.00167395
-0.01274063
-0.01195228
-0.01466238
-0.03082752
0.01436181
-0.01042583
-0.00421357
-0.03241150
-0.02105211
-0.01200275
-0.01123679
-0.02605027
-0.02697830
-0.01286490
-0.03395573
-0.00817566
-0.04399026
-0.01327085
-0.01158581
0.00319153
-0.02469915
0.00005446
-0.03148971
-0.01597449
0.02448412
0.00616314
-0.04350159
-0.01621553
-0.04140168
-0.01878253
-0.05036728
-0.00336820
-0.00114532
0.00116889
0.05536950
-0.01151172
-0.02098708
-0.04077968
0.02811820
-0.02578616
-0.03398361
-0.00697672
-0.01143208
-0.04362048
0.02681969
-0.02784618
0.01202987
0.01320834
-0.01127268
-0.00531152
-0.02901977
0.03772005
-0.02423728
0.00165871
-0.04369298
-0.02026317
0.02627626
-0.06728117
-0.02882869
-0.01153030
-0.03537627
-0.00288815
-0.03179580
-0.02982023
0.00169731
-0.00945620
-0.01884633
0.00473565
0.02661067
0.05777506
-0.01126408
-0.01195055
0.00390096
-0.05295058
-0.02104506
0.03644699
0.01148572
-0.03046402
0.00254470
-0.03310231
-0.00485413
-0.00655221
0.00635425
-0.01057840
0.00175902
-0.01191125
0.02070520
-0.02508962
0.00855701
-0.02997168
-0.02502360
-0.00912848
0.04256465
-0.04361399
-0.00641223
-0.01113943
-0.00107693
-0.02547967
-0.01437052
-0.01232038
-0.03135210
-0.03301705
-0.00954252
0.02300779
-0.00240086
-0.02273761
0.01397835
0.01180884
-0.04034821
-0.00666910
0.00284791
-0.05388032
-0.02887237
0.00614966
-0.01069011
-0.02971696
-0.00667023
0.02629177
-0.00180255
-0.02987641
0.01895973
-0.02679929
-0.01126655
-0.01402744
0.01477363
-0.05152142
-0.01212376
-0.07872869
0.02106696
0.02408980
-0.00677279
0.00533587
0.01806839
-0.04375478
-0.01359497
-0.00843102
-0.00126087
-0.00977701
0.05267683
-0.03342702
0.01867028
0.04616938
-0.02208644
0.00469898
0.01467633
-0.01766542
0.01684578
-0.03655311
0.00701031
0.01353359
0.00258649
-0.01020361
-0.00331904
0.03780028
0.00973882
-0.02902020
-0.03206053
-0.02435023
0.01165699
0.00940790
0.00646448
0.05519411
0.00088719
0.00797271
0.01508253
-0.02664524
0.02245593
-0.03121420
0.00413969
-0.01278763
0.01734250
-0.02005303
0.00383740
-0.01731625
-0.05157049
-0.00163327
0.00671199
0.01537127
-0.01042268
-0.02168027
0.02457678
0.00479430
0.02232666
-0.02575925
-0.00172297
0.01399302
-0.03785573
-0.00029446
-0.01151122
0.01138499
-0.01625749
-0.00533273
0.00658294
-0.03624665
-0.05069411
0.02700454
-0.02627619
0.00212590
0.01166143
0.03674548
-0.04437203
0.00900283
-0.02436420
-0.00047695
-0.02400413
0.01808756
0.00666830
0.00695700
0.00730301
-0.04243382
-0.03914284
-0.04894553
-0.00944012
-0.00935769
-0.04153149
-0.02821609
-0.02039102
-0.03718019
0.04600752
0.01646223
-0.03026829
-0.00951212
-0.01139851
0.01245458
0.03549201
-0.03971826
-0.01222504
-0.05302521
0.01044505
0.07993326
-0.01488574
0.06943359
-0.03201762
0.01185539
-0.00803146
-0.02318883
0.04966389
-0.02466813
-0.03299256
0.00796206
0.06009188
-0.01553514
0.00814289
-0.02676773
-0.02687497
0.02136368
-0.02332499
-0.03516891
-0.02042789
-0.02712252
-0.03676198
0.00743090
-0.01557947
0.02083843
0.03412477
-0.03402684
-0.02795288
-0.02453865
-0.04420199
0.00870181
-0.00397626
0.02541322
-0.04026266
-0.01220181
0.00250948
-0.02841084
-0.00883254
0.00106415
-0.03546496
-0.02506118
0.00022820
-0.02689816
-0.00125597
0.01717332
-0.01375165
0.01523724
-0.01886604
-0.02922332
-0.00078874
-0.02290345
-0.00805292
-0.03747808
-0.01961622
-0.02353169
0.00143326
0.00853316
-0.03769137
0.00631757
0.02866023
-0.01935074
-0.01406729
-0.01085271
-0.03982929
0.00976572
0.00453625
-0.02000309
0.04875613
-0.03565218
-0.02185883
0.00542483
0.00556922
-0.04214964
-0.00756520
-0.00947937
-0.05744364
0.00072471
0.03367623
-0.00588646
0.02776272
-0.00332868
-0.00360484
0.00829971
0.00217897
-0.01385069
0.02872961
-0.03128646
0.03862488
0.03321836
-0.00578233
-0.05513399
-0.01043750
-0.01935267
0.00700027
0.00562363
-0.01193578
-0.00696650
-0.02847403
-0.02700873
0.00804030
-0.03596782
-0.05386553
-0.03293246
-0.04826373
0.00170830
0.01118164
-0.05217697
-0.00267097
-0.05739781
-0.02660101
-0.02805546
-0.04042839
-0.03409199
0.01681464
0.01325955
0.00752984
-0.02651872
-0.00773473
-0.03288878
0.01476944
-0.01503336
0.00762278
0.00536851
-0.05820208
-0.00410647
-0.04136173
0.01990637
-0.02591394
0.01580537
-0.04591691
-0.00473371
0.00316293
-0.01865971
-0.02108199
0.07552867
0.01285227
0.03228442
0.06342174
0.00628341
-0.01899560
0.00611600
0.00975004
-0.03681475
-0.02964462
0.01987919
0.03693946
0.02438316
-0.00767943
-0.03098872
-0.02829997
-0.00551865
-0.03031587
0.03666074
0.06525962
-0.02514160
-0.03441745
-0.02964196
-0.01548433
-0.01164110
-0.01515326
0.01247966
-0.01197037
0.01300155
-0.01406359
-0.03172796
-0.00422985
0.01455173
0.00230078
-0.04615653
-0.01137669
0.04509001
-0.00801818
-0.00626244
-0.01713811
-0.01851008
0.01094692
-0.01043055
-0.01621654
-0.03328232
-0.03570701
-0.00455712
-0.00514823
-0.00839833
-0.00505351
0.01274875
-0.04946063
-0.01788743
0.00301964
-0.02621007
-0.05688449
-0.01616300
-0.02348812
0.00892197
-0.03471544
0.00538416
-0.00625620
-0.00988487
-0.02722417
0.00048444
-0.01792956
0.02098118
-0.00754770
-0.00012037
0.01420431
0.00171556
0.06057177
-0.04124054
0.02469307
-0.01361988
-0.02448130
0.00591565
-0.01943999
0.04165550
-0.04425485
-0.03614114
-0.01898451
-0.00020560
-0.03409893
0.02822942
-0.01733069
0.05054934
-0.05004443
-0.01598724
-0.00459860
-0.00541571
-0.02648278
0.01610641
0.01000006
0.01740334
0.00774001
-0.07322088
0.02812714
-0.01104767
-0.00699193
0.01996589
-0.04310266
0.02908311
-0.00229461
0.00523138
-0.00605002
-0.01516817
-0.00482189
-0.02715753
0.02902904
-0.00426791
-0.04083629
-0.00119010
-0.03592826
0.00342680
0.00741622
0.05314236
-0.04589717
0.01717762
-0.02889906
0.14873293
-0.01000446
-0.00964809
-0.04169501
-0.00202825
-0.03070414
-0.01672797
-0.01944744
0.01155139
-0.00768027
-0.01319414
0.00493380
0.02702511
-0.01844717
-0.03300163
0.00945531
-0.01644848
0.00226134
0.01417823
0.06323851
-0.03125928
-0.02307107
-0.00242520
-0.04505483
-0.00815833
-0.01548196
-0.00573836
0.04205259
-0.00972080
0.00426170
0.00659307
0.03751701
-0.00224614
-0.04397873
-0.03680969
-0.00722819
0.02251560
-0.03039079
-0.01322811
-0.01252638
0.02485411
-0.03065307
0.00607906
0.03090289
0.01721612
-0.03360944
-0.02494608
-0.04141120
0.01806248
-0.00747083
-0.02245399
0.02008113
0.00278660
-0.00697632
0.04253114
-0.01739501
-0.02734761
-0.03972473
-0.01470126
-0.00149484
-0.01178693
-0.04452038
-0.02269276
-0.01877281
-0.02114824
-0.03243081
-0.03891161
0.04613505
-0.02310703
-0.02214581
-0.04569256
0.01624094
-0.02534545
-0.04435750
-0.03936524
0.00051589
-0.03613897
-0.04609497
0.01404523
0.01451747
-0.00995631
0.02627498
0.01029662
-0.01023374
-0.02804304
0.00954499
-0.00443413
-0.02686417
-0.01097598
0.00781825
-0.02481659
0.03206069
0.03026345
-0.02200232
0.06019144
0.05085280
0.02476270
-0.00777229
-0.02825769
-0.01964963
-0.00997949
-0.03949537
0.00609946
-0.00460444
0.01012160
-0.00192917
0.00178827
0.01431832
0.03768555
0.00523101
-0.01075407
0.04007370
0.01237191
-0.01520026
0.01781807
-0.01347785
-0.04957256
0.01691016
-0.00211950
-0.01960379
-0.03769063
-0.03257409
-0.02274250
-0.01916994
0.01282817
0.04934375
-0.01787194
0.00310123
-0.02354956
0.05195667
-0.00251907
-0.02597068
0.00260311
-0.02424085
-0.01172761
0.04688624
-0.03007283
0.02707160
-0.01775925
-0.01187073
-0.04821197
-0.01230949
-0.00533528
-0.03052179
0.00261343
0.03573102
-0.00954736
-0.02472156
-0.00338061
-0.00897886
-0.00666198
-0.03154830
0.00429025
-0.06666410
-0.00690124
-0.00551302
-0.00802485
-0.02650290
0.00403213
-0.01947355
0.00887264
-0.05974356
-0.02407436
0.00581013
-0.00968416
-0.02266353
0.00578423
-0.02332246
-0.02518732
-0.00107917
-0.03760467
0.00024450
0.00982803
0.00302800
0.03876006
-0.00702067
-0.03194191
0.01061248
0.00796417
-0.04260201
0.02553690
-0.02666089
0.01103870
-0.02622621
-0.01422764
-0.00117438
-0.01538300
-0.04733725
-0.01433507
0.03120797
-0.00139962
-0.05029904
-0.00211716
0.01484727
0.01038770
-0.02153978
-0.00495648
-0.01428922
-0.02450959
0.06432079
-0.03874687
-0.05008826
-0.05057005
-0.01917799
-0.02069317
-0.01348917
-0.01474979
-0.02418628
0.02743904
0.00835699
-0.01879116
-0.02041967
-0.04781320
-0.01805316
0.00351539
-0.01246182
0.00426058
0.02665633
-0.02786320
-0.04511553
0.04479283
-0.01512267
-0.00081395
-0.02186405
-0.00712939
-0.00329665
-0.03944083
-0.00222668
0.01296787
0.01045292
0.00657604
-0.04197643
-0.01223896
-0.02042707
0.04613993
-0.00288306
0.00403210
0.01249528
0.01594283
-0.03066014
-0.00599894
0.02853929
0.01191557
-0.05008803
0.01956094
-0.02674010
-0.02693130
-0.01043942
-0.00435402
0.03004158
0.02165273
-0.02027380
-0.04763420
-0.02767140
0.05162449
0.03753591
0.01668569
-0.05587288
-0.03108012
0.01246008
-0.02523973
-0.01265914
0.00153207
0.02676114
-0.02786697
0.05919597
-0.01562905
-0.00021419
0.02753101
0.00841275
0.00940713
-0.01167665
-0.00572005
-0.00996435
-0.00779397
-0.00483679
0.00105570
0.02288676
-0.00425159
-0.01522334
-0.00367676
0.00342359
-0.04986773
-0.00016284
-0.02381334
0.01340435
0.03586410
0.02251762
0.01308382
0.00103272
0.01454068
-0.01279445
-0.03091564
-0.04237336
-0.01910444
-0.00535949
0.01543701
0.01818593
0.02888283
0.04015130
0.01708886
-0.01227141
-0.02906819
-0.00927704
-0.01699002
0.10008209
0.02764701
-0.01166509
-0.00369008
-0.03853313
-0.05124770
-0.02414631
-0.02438358
0.00837517
-0.01721771
0.08045167
-0.03062559
-0.01424725
0.00502481
-0.02415718
-0.00270066
-0.01162410
0.00822279
-0.04130960
-0.03426016
-0.01044070
-0.02446176
0.00297335
0.00973059
-0.01476926
0.00051433
-0.01000721
0.00033088
0.02107040
-0.00337672
-0.00201566
-0.01515881
-0.02037448
-0.01159816
-0.02711784
0.00344701
-0.02079953
-0.00079519
-0.04457274
0.02661187
-0.04215204
0.04722053
-0.04431603
-0.01835636
-0.04724957
-0.01662337
-0.02056980
0.00995289
0.00476015
-0.03144906
-0.00216722
-0.01627732
0.04753755
-0.01862320
0.00917560
0.04802411
0.03872591
-0.01343872
-0.02725957
0.00958373
-0.00806177
-0.00502279
-0.04679177
0.02185126
-0.00735381
0.01560373
-0.02167438
0.00948262
-0.01115687
-0.03326214
0.01428318
-0.00046010
-0.01370922
-0.01540451
-0.03821518
0.01286434
0.01044508
0.03515505
0.03198984
-0.02898819
-0.01553150
-0.03318323
-0.01130737
-0.04499066
-0.02883228
0.00181869
0.01012424
-0.04393935
-0.01346778
-0.02827592
0.01471065
-0.00605374
0.01394906
0.00776579
0.01391043
0.00060623
-0.01200712
0.00892529
0.01375669
0.02264462
-0.01576561
0.00090498
-0.02197506
0.01889976
0.01617221
0.00796247
-0.02485659
-0.00929630
0.00875634
-0.01949461
0.04197850
-0.01470137
-0.03131371
0.02850486
0.01008609
0.01464823
-0.00115579
-0.02282852
-0.00503792
0.03839680
-0.03631659
-0.05974866
0.03755623
-0.02758550
-0.02435296
-0.04034334
0.02479745
-0.00940071
-0.01882449
-0.00143578
0.00143327
-0.01735764
0.00060955
0.02053769
-0.03274513
-0.01789096
-0.00225430
-0.01422361
0.00008405
0.00211081
0.02148045
-0.00317428
0.00548124
0.02203118
-0.01173010
0.02641391
-0.00050299
-0.03086615
-0.02046961
-0.03641925
0.02498472
-0.08590637
-0.00121373
-0.00393555
-0.02438608
-0.05490825
-0.02860772
-0.02929016
-0.00646273
-0.03573720
-0.00939541
0.01126395
0.01338079
0.02224146
-0.04142582
0.00653112
-0.03395317
-0.00523769
-0.01668604
-0.02025242
-0.00259894
0.00633799
-0.00165466
-0.00071682
0.00020317
0.01182556
0.02484404
-0.00986071
0.00089789
-0.01905995
-0.03803010
0.06180709
0.00954490
0.00928672
0.01764117
0.02821101
-0.02626880
0.02866967
0.02763600
-0.03028849
-0.00524588
-0.00280938
-0.04575610
-0.02204379
0.02409115
-0.00675797
0.00671521
-0.01004407
-0.00837782
0.05905426
-0.02647385
-0.00836196
0.00108787
-0.02270653
-0.04782084
-0.02253849
0.01214493
-0.01119359
-0.02901896
-0.00590667
-0.02798240
0.08072299
-0.01420306
0.00036573
0.01664462
0.02532529
-0.04362137
-0.02558630
0.04675663
-0.05931573
-0.00198430
-0.02981709
-0.03844168
-0.00559389
0.02290719
-0.03047229
0.01945007
0.02044964
-0.01709060
0.04122034
-0.01722304
0.05053480
-0.00275227
-0.01389456
-0.01575088
-0.02830830
0.04776325
0.03378262
0.07859045
-0.02770701
-0.04599198
0.02207780
0.02799392
0.02822090
-0.05522458
0.00588692
-0.05770585
-0.01994939
-0.04740495
-0.01888481
0.01440237
-0.04327285
0.02775668
0.02493529
-0.01404407
-0.03277901
-0.00537512
0.00491565
-0.00770226
-0.01880719
-0.04712215
-0.02973647
0.01842775
-0.00002969
0.01041086
-0.01252585
-0.03629439
-0.03117234
0.01724092
0.01852665
-0.01715974
-0.01944331
-0.00695353
-0.02602069
0.01173773
0.01170144
-0.00833352
0.02975442
0.00046647
0.01461774
-0.04438093
0.00556238
0.01588802
0.01319235
0.03385560
-0.01687922
0.00614289
0.01304891
0.00016961
-0.03142226
-0.02948227
-0.02296473
0.02079499
-0.01820889
-0.03983529
-0.01200894
-0.01902731
-0.02423659
-0.04874614
0.00458374
-0.04337952
-0.02408577
-0.04490976
-0.02061492
-0.00089746
0.00433549
-0.02253323
0.01877443
0.07128650
0.02017440
0.01326276
0.03034081
0.01791521
-0.01580188
0.01640632
-0.03507484
-0.04495351
-0.03943600
0.01621466
-0.02981292
0.01234090
0.01728965
0.00634139
-0.03500859
-0.04645216
0.01331529
-0.03291061
-0.03160757
-0.01302454
-0.01531673
-0.00628082
0.00101636
-0.00682824
-0.03557527
-0.00150320
0.01731927
0.03909056
0.04515569
0.02596811
0.00042276
0.02647240
-0.00581469
-0.02098229
-0.00252882
-0.00200502
0.00670159
-0.02589431
-0.01322565
0.04296891
-0.00452569
-0.01979599
0.00514524
0.03573276
0.01270803
-0.00280236
0.02899404
-0.03573270
-0.04203095
-0.02046290
0.05086983
0.00584696
-0.04299188
0.00107526
-0.00567990
0.03376922
0.00314261
0.02066831
-0.01882492
-0.01004825
0.01177506
-0.03360387
0.02067646
-0.00165633
-0.02324007
0.06492729
-0.00279433
-0.02599586
-0.01723436
-0.00602804
0.00563005
0.04147620
-0.00716321
-0.01239032
0.00151587
-0.03542311
0.01121929
0.01562510
-0.00190166
-0.00133036
-0.00850214
-0.02190604
-0.02828777
-0.03220743
-0.02917544
-0.02848450
0.03699736
-0.01221821
0.01925482
0.00805865
0.00678496
-0.02358252
-0.00409370
-0.00692535
0.02030259
-0.00537522
-0.02684660
-0.03981104
-0.02010074
-0.00957935
0.00021591
-0.03265419
0.03677266
-0.00137426
-0.01657506
-0.02602901
-0.02921022
-0.05523461
0.00058920
0.00200382
-0.01569347
0.00740123
-0.02171927
0.01919063
-0.03793010
0.04425560
-0.03835211
0.01117255
-0.01951901
0.01307595
-0.01303655
-0.03497720
0.02102165
-0.00724587
0.02233961
-0.00630101
-0.01015154
0.02415305
-0.03661065
0.03253732
-0.00134720
-0.01563540
-0.00054557
-0.01253405
0.00045608
-0.01727930
-0.00223549
0.02373982
0.00524713
-0.01879207
0.02192078
-0.00647936
-0.02158324
0.00536188
-0.03273933
0.01762773
-0.03854140
-0.06680939
0.00276848
-0.00950195
-0.02545254
-0.02034199
-0.00923768
0.01287047
-0.00279779
-0.02574996
-0.04254021
0.00780220
0.00664380
-0.01464271
-0.03310085
-0.00782409
-0.03171332
0.03020937
-0.02569795
-0.02966259
0.01394266
0.01312502
0.02237687
0.01421233
-0.02127274
-0.02640498
-0.01472195
-0.01466025
0.01688825
-0.00264113
-0.03855234
-0.02879591
-0.02732544
-0.02113165
-0.01916296
-0.00806034
0.02610689
0.02314136
0.00208040
-0.00376974
-0.02192212
-0.03833928
-0.01980806
0.03308516
-0.03831257
0.00924325
-0.00179979
-0.00799978
-0.01567160
0.00906285
-0.02812944
-0.03639852
-0.03387546
-0.00131134
0.00708284
0.01262208
-0.02171737
-0.04415344
0.00427346
0.00441229
-0.02962720
0.06349924
-0.01719467
-0.00702943
-0.01292124
-0.02387928
-0.01599419
-0.00469068
-0.01087175
-0.02942167
0.02077450
0.00176778
0.02372703
0.01095962
0.01957327
-0.02276525
-0.01657706
-0.01857978
-0.00764818
0.01079671
-0.00774180
0.01145573
0.00779807
0.00246969
-0.02487571
-0.00234800
-0.00975758
0.00961572
-0.03332177
-0.01791167
-0.02268336
-0.02302166
-0.02719837
0.02013636
-0.01147391
0.02019363
-0.03146994
-0.01119507
0.00779658
-0.00268119
-0.00185427
-0.01080659
-0.01894206
0.03485283
-0.01137014
-0.00252204
0.00613634
-0.02653425
0.01214029
-0.01286644
-0.03050032
-0.05719471
0.05125138
0.00699618
0.05311255
-0.01633342
0.01614616
-0.03763663
0.00205033
0.00086637
-0.04394720
0.00375965
-0.02034783
-0.02182191
-0.01876075
-0.04795447
-0.02837946
0.01045576
-0.00254965
0.01954878
-0.04379893
-0.00383243
-0.01272058
-0.02702590
-0.02034000
-0.00660671
0.00370978
-0.03365776
-0.02371074
-0.02444354
-0.03912545
-0.03121144
-0.01819833
-0.01371793
-0.01016515
-0.01325802
0.00790193
0.00358699
-0.02968275
-0.00002886
0.00250412
0.00694683
-0.01505225
0.00054338
0.00690708
0.01752420
-0.01684649
-0.01959622
0.01695569
-0.00007031
-0.00272243
-0.00761710
-0.03119425
-0.03787432
0.04159252
-0.02777293
-0.02153287
-0.05488527
0.00006439
-0.03977327
-0.00134391
-0.01172119
-0.00444737
0.04245432
-0.02476875
-0.01441114
0.00324526
-0.00415289
-0.03563739
-0.00228625
0.00900766
-0.02531196
-0.02565342
-0.00281193
-0.00861950
0.00226525
-0.03707610
-0.03489453
0.01252927
0.03872507
0.00403115
-0.02589969
-0.05581970
-0.01881166
-0.01620360
-0.01086768
0.00115846
-0.05125330
-0.08134159
-0.01278547
0.05995602
-0.03858025
-0.03052941
-0.00734592
0.04247307
0.00187104
-0.02127266
-0.02866243
0.07450468
-0.01614845
-0.01750511
-0.02568138
0.00003859
-0.04073016
-0.02385441
-0.00375764
-0.00188544
0.00349815
-0.01704245
0.02594430
0.02861198
-0.01809845
-0.01947325
-0.02269496
0.01754414
-0.02085271
-0.01317946
-0.01077389
-0.03855801
0.02273429
-0.02798751
-0.04363848
-0.02582994
-0.03420022
-0.00699586
-0.01441072
0.02682816
-0.03745062
-0.01123891
-0.05023707
-0.03375677
-0.03167459
-0.01131162
0.01405672
-0.03700841
-0.04443778
-0.01695092
0.03219888
-0.03035100
-0.04531797
-0.02052247
-0.03671057
-0.03630007
-0.01479528
0.02331828
-0.02612841
-0.07079137
-0.03748881
0.01388663
-0.01372351
0.00053672
0.00451977
0.01080820
-0.02572055
-0.01342580
-0.00636059
-0.00195241
-0.00188325
0.00613806
0.00564831
-0.03515227
-0.00903224
-0.01734021
0.00448952
-0.01082547
-0.00465355
-0.01054160
-0.01121154
-0.00798272
-0.00564237
-0.03270938
0.02024798
-0.00761307
-0.03350415
-0.02779486
-0.03484233
-0.00039145
-0.00270521
-0.01483216
0.00572952
-0.00095362
-0.01452922
0.01222322
0.00400643
-0.01694527
-0.01325485
-0.01808317
-0.03628961
-0.02308613
0.03947734
-0.00891289
0.00941531
-0.04288888
0.01474877
-0.03813625
-0.01831340
0.00923547
-0.00669925
0.02879867
-0.00691738
-0.02713262
-0.02779998
-0.03230953
0.03119723
-0.02741986
-0.03730720
0.01936631
-0.00348550
-0.00735925
-0.00389216
0.00733352
0.00174262
-0.00386794
0.02115843
-0.03476169
0.03256843
-0.03824433
-0.03761020
0.00476222
-0.02715611
-0.05275553
-0.00114933
-0.03628571
-0.00350911
0.00128082
0.01643276
0.01339209
-0.00168834
0.03963279
-0.00740265
-0.01403065
-0.01369508
-0.01961500
-0.05240266
-0.00996774
0.04981520
-0.00776784
0.01717808
-0.02504981
-0.02280698
-0.00620865
-0.01273215
0.02996486
0.03124809
0.01169989
-0.05062232
-0.03495453
-0.00508374
0.00203479
-0.01499106
-0.01036236
-0.03957770
0.03150173
0.00021379
-0.02196207
-0.02169165
-0.00897077
-0.00519541
0.02679229
-0.00054602
-0.00867094
0.00810983
-0.02061466
-0.00478994
0.03888092
-0.05504036
-0.02226079
0.03186312
-0.02128017
0.02093200
-0.03205807
-0.04411672
-0.01229201
-0.01370577
-0.01143198
-0.00884858
-0.01560372
-0.01580902
0.00891532
0.00751739
-0.02200096
-0.01547110
0.09629474
-0.00119709
0.00467331
-0.04642106
-0.00548487
-0.00757461
-0.02101967
-0.00111001
0.00340118
-0.01647380
0.01722035
0.01931472
0.02726180
0.00073541
0.01614022
-0.01242484
-0.01850267
0.02137132
0.00783131
-0.04132949
-0.02702892
0.02257171
-0.03852322
-0.01412395
0.03059741
0.04234099
-0.00587459
-0.03073069
-0.02818856
-0.01076440
-0.02373030
-0.01263278
-0.03299601
0.01386944
0.04815592
0.01477710
-0.00507389
0.00012399
-0.01189091
-0.01169647
0.00728659
-0.01524325
-0.03572742
-0.00739617
0.00354466
-0.04838837
0.01730320
0.03264415
-0.00577130
-0.03308399
0.00420765
0.05027164
-0.00439123
0.01656296
-0.01900541
-0.01338896
-0.00874753
-0.01874676
-0.01556037
-0.02110199
0.00197680
-0.00619436
-0.03392577
0.00934293
-0.01474807
-0.01235019
-0.00504954
0.06807518
-0.03250723
-0.00404829
-0.03291059
0.02020845
-0.07352353
0.01138112
-0.00915361
0.06138125
-0.00046171
-0.01030712
-0.03761393
0.01543168
0.01010406
-0.03894836
0.01427358
-0.02594168
0.04721029
-0.04088973
-0.01487043
-0.02853108
-0.03433093
-0.04657548
0.01084856
0.02356671
0.00759073
0.03341182
-0.00126295
0.01601863
-0.03541284
-0.01975825
-0.04538423
-0.00263582
0.01241408
-0.01520999
0.02581146
-0.02724851
0.00290667
-0.01642093
-0.01606445
-0.02206308
-0.02043669
0.03314521
-0.01205531
-0.00405781
0.00893693
-0.02241747
0.01535022
0.00108875
-0.00156539
-0.02254249
-0.02240446
0.01947959
-0.01912426
-0.02106304
-0.02149663
-0.06067249
-0.02414511
0.00297606
0.00354917
0.01944218
-0.00945011
0.01038964
-0.04822004
0.02006787
0.04469178
-0.02190365
-0.01283111
-0.04078057
-0.03766427
-0.00446682
0.00206457
0.01178846
-0.03151611
0.00873963
-0.03232634
-0.02249739
-0.04706881
-0.02227939
-0.01511521
-0.02657644
-0.03748268
0.01986569
-0.04443141
-0.06379601
-0.02551216
-0.03450732
-0.05189059
-0.02927195
0.03501360
-0.00391248
-0.01030197
-0.02700563
-0.01026272
-0.00522340
-0.03375819
-0.04409170
0.01824741
-0.02652869
-0.00561588
-0.01737706
0.00123576
-0.04137824
-0.03946807
-0.00112662
-0.00644431
-0.00900122
-0.01161654
0.00916917
-0.00725305
-0.03184406
-0.03374469
-0.03294295
-0.02031256
0.01771611
-0.05567642
-0.00861679
-0.01642478
-0.02804117
-0.01831934
-0.01757128
0.00157143
-0.01682598
0.07947072
-0.01198302
-0.02498073
-0.04505822
0.00293323
-0.01558280
-0.02170655
0.01171487
0.02014734
0.02430853
-0.05869282
-0.02774929
-0.01630366
-0.06740083
0.02172580
-0.02546167
0.00945202
-0.02577751
-0.00285620
-0.02272421
0.00610012
0.02111374
0.00532895
-0.01170180
-0.01463042
0.04286354
-0.00301376
0.00411382
-0.00436537
0.00583434
-0.01333905
-0.02019893
-0.01701491
-0.01535569
-0.00974316
-0.04102004
-0.02875193
-0.01710934
-0.00585988
0.01802426
0.00727712
-0.02062387
-0.04585802
0.01546088
0.01119553
0.00169278
-0.00468151
-0.02240968
-0.02989627
-0.01517665
-0.00558800
0.00562125
-0.01960797
0.01483584
-0.01287964
-0.03179274
0.00323067
-0.01888285
-0.00650287
-0.04715909
-0.04376609
-0.00102005
-0.04232896
-0.01679964
-0.01101397
-0.00691412
0.00519564
-0.01625062
-0.02345222
-0.00283189
-0.01129475
0.00452129
0.00562028
-0.01612846
0.04153448
0.04377489
-0.00947823
-0.01792046
0.02158190
-0.04406129
-0.00708994
-0.02383888
0.01836573
-0.03202517
-0.02432478
-0.00694224
-0.01521088
-0.05815117
-0.02959712
-0.01361548
-0.03291605
-0.02852399
-0.00976403
-0.00710533
0.02493596
-0.02509245
0.00992496
0.02094795
-0.01629612
-0.02416427
-0.00344014
-0.01737698
-0.03633613
-0.02051936
-0.01752332
-0.02995960
-0.02433800
-0.02915575
0.03738221
-0.02848745
0.03870045
-0.02130825
-0.00427808
-0.02753146
-0.01238387
0.00631071
0.01390147
-0.01999322
0.01973691
0.04414771
-0.02251116
-0.03666210
0.01771016
-0.01191703
-0.00594098
-0.02696233
-0.03120339
-0.02184927
-0.00517337
-0.00135844
0.01444084
-0.03589348
0.01283184
0.03589066
-0.05062288
0.01259992
0.01233436
-0.03579414
-0.01011779
0.09750654
0.03023752
-0.01985092
-0.03157227
0.01102473
-0.05161146
-0.01208052
0.03546231
0.00306433
0.01484890
0.01984085
0.02417039
-0.01240440
0.02209324
0.02315904
0.03234738
-0.03918687
0.00576877
-0.02788970
-0.02831292
-0.00956648
0.02076167
0.00813564
-0.03248746
-0.00260961
-0.00466693
0.00266077
-0.00112592
-0.03610898
-0.03465620
0.01430192
0.05438027
-0.04235317
0.00587003
-0.01177219
-0.01377622
0.00683595
-0.01343114
-0.04139685
-0.02399476
0.02630715
-0.00329479
-0.01354977
-0.00878793
-0.01128769
-0.01309040
0.01734846
-0.02882257
-0.02254317
0.00878229
-0.03166412
-0.02489731
-0.00988902
0.00319623
-0.01285586
-0.00041385
0.01308718
0.02130612
-0.01741950
-0.03886636
-0.00267416
-0.00432951
0.01344908
-0.00808229
-0.01073707
-0.00412995
-0.01957544
-0.01394057
-0.03110465
0.01347004
0.05521780
-0.01779087
0.01676630
-0.01740967
0.00559223
-0.00426954
0.00929392
-0.05197035
-0.05701150
-0.00869447
0.02110050
-0.02893376
-0.00694509
-0.00928298
-0.03952964
0.00431853
-0.04383818
-0.00326643
0.10912649
-0.01955674
0.00158899
-0.01269154
0.00845072
-0.02710685
0.04280575
0.00012713
-0.00052512
-0.02444758
-0.03470982
0.01680264
-0.04847685
-0.03430039
-0.03919584
-0.00235348
0.04564876
0.01651261
0.04133055
-0.04205573
-0.00195101
0.00353231
-0.00041892
-0.02068192
-0.01350059
0.00426221
-0.02916169
-0.02984685
0.06470649
-0.04079988
0.05517624
0.00609492
0.00050968
-0.04034120
-0.04701850
-0.00188289
-0.02547398
0.00740374
-0.05477300
