0.14116903
0.41645965
0.04087459
0.18709113
0.10084268
0.07513843
-0.11673535
0.23059559
-0.09679813
0.19475758
-0.14558816
0.04785967
0.01350486
0.04667054
0.18401749
0.15462671
-0.01836657
0.35693157
0.33700284
0.27100706
0.22492729
0.15282294
0.11269112
0.11547319
0.31788588
0.16693769
0.17655832
0.01570946
0.26706418
0.31051543
0.34895998
0.04530717
0.35825899
0.43576339
0.27605179
-0.15924665
0.14018671
0.09822474
-0.04730538
0.19179656
0.05537435
0.24449179
0.06867145
0.18929176
0.10250761
0.34550881
-0.02813793
0.25700864
0.20317075
0.13295466
-0.06433224
-0.18378341
0.07988672
0.11808720
-0.13575105
-0.01190445
0.21046130
0.30599010
0.10323314
0.09831276
-0.04462406
-0.04642162
0.12354131
0.19120556
0.14654763
0.16548203
-0.10771667
0.38979775
0.11354709
0.02779931
-0.21130943
0.11435217
0.19942532
0.13738889
0.17746083
-0.07024340
-0.07169933
-0.00637227
0.12371700
0.11440152
0.17471658
0.34245235
-0.13148269
-0.00709217
0.19565280
0.01700314
0.04076781
0.03247823
0.18502854
0.45734087
0.17517142
0.14803603
0.08581938
0.32195678
-0.01015272
0.10448393
0.09995266
0.19790645
-0.00841907
0.07573655
0.12617519
0.20154569
0.13826275
-0.18578546
-0.03426037
0.00162479
-0.10790733
0.10803173
0.08606594
-0.01086334
0.45122451
0.06848381
0.10048259
0.14003906
0.01163299
0.05098268
0.25157198
0.20539939
0.04532773
0.18498489
0.13948883
-0.07906957
0.47321969
0.22223957
0.17503393
0.14060768
0.14742279
0.09731887
0.37643552
0.24598694
0.02595161
-0.06540389
-0.21058282
-0.18631397
-0.27165043
-0.22395749
0.18803489
0.48460504
-0.18841636
0.20332026
0.09423091
0.08276200
0.01559405
0.29804319
-0.45414612
0.18521038
0.15883404
0.03810313
0.43170133
-0.20994920
0.11507215
0.08904865
0.26849118
0.44734895
-0.15763035
0.04407452
0.05863824
-0.29704300
-0.02252010
-0.20835625
-0.26183790
0.16541961
-0.57254291
-0.24763121
-0.25016692
-0.35024095
-0.15623257
-0.26473802
-0.50562453
0.16069435
-0.23888116
0.45143187
-0.16780768
0.20145202
-0.02181065
0.06810600
0.20017800
-0.10145976
0.03651337
-0.18015541
-0.34142178
0.61521906
-0.22784509
-0.16066557
-0.12983045
-0.20994361
0.26275074
0.38280112
0.07569284
0.06859123
0.32569113
-0.21083638
0.05544002
0.02346560
0.19849071
-0.22268778
-0.07419425
0.01542089
-0.05222281
0.25597966
0.26096898
-0.20691319
0.18994173
0.18923144
0.07367387
0.05556338
0.22388136
-0.12779315
-0.01650419
0.15309833
0.19295959
0.08739571
0.14692521
0.37510318
-0.02519349
-0.00170995
0.45274231
-0.04417458
-0.53071922
0.17914709
0.05902896
0.41732094
-0.50964504
0.13941139
0.23456763
-0.18506750
0.05173506
0.20936818
-0.08545640
-0.05324147
-0.08536301
0.07619248
-0.24399875
-0.34461674
0.20697655
-0.14700316
0.24751176
-0.12753192
-0.12565795
0.61786795
-0.43496576
0.24932310
-0.00423374
0.24619490
-0.01880760
0.03188141
0.02198187
0.25960663
0.18051292
-0.20838067
-0.19716826
-0.18023442
0.09765153
0.13452244
-0.19520374
-0.16775930
-0.02014592
-0.06199950
0.02034720
0.06278798
-0.03465172
-0.03715445
-0.15879153
0.01655803
-0.18200845
0.22893322
0.12591304
-0.06885099
-0.00395695
0.09908237
0.00756227
0.23510090
-0.01269453
0.45441142
0.18433554
-0.20842466
0.16680422
0.07447886
0.18772490
0.18300772
0.07111357
0.15243748
-0.04849243
-0.04608526
0.08510908
-0.21154593
0.28327525
0.27576423
0.02998500
-0.09037954
0.23560572
0.12096715
-0.13528469
0.06946226
-0.13763563
-0.19762185
0.01628431
0.04676439
0.21569397
0.02346416
0.09316451
0.26327217
0.19413790
0.14592405
0.19259939
0.22002266
0.11812072
0.02501112
0.01523915
-0.03400777
0.26289746
-0.00936365
-0.08592046
0.00931733
0.03731557
0.29762793
-0.08297034
-0.05803189
-0.02320329
0.37209538
-0.02374652
0.27599883
0.22326480
0.13407952
0.21466367
-0.06458028
0.04388713
0.27651289
-0.12100851
0.13000597
0.23899877
0.10830540
-0.17341363
-0.06946085
0.29664463
0.09949972
0.03271310
-0.02060290
0.04677045
0.11004712
-0.23358423
0.16932014
0.09633383
-0.06943540
0.21319552
-0.01629065
0.07676917
0.19117004
-0.12444544
0.32015082
-0.15589158
0.06564678
0.09927483
-0.06527391
0.10833357
-0.03621939
0.36724147
0.01740765
0.01589453
0.25921208
0.12433359
0.02970988
0.12777939
-0.07576895
0.09003139
-0.11161591
0.27882779
0.06949610
0.12982619
0.20311500
0.18180971
0.03256196
0.01622011
-0.10726531
0.04675841
0.08464097
0.14731266
-0.14392422
0.23863626
0.31042483
-0.01815721
0.06569111
-0.12379600
-0.04263481
-0.08880827
0.04516556
0.09753793
-0.16031215
0.40577671
0.08688859
0.24036939
0.32365641
0.00323566
0.09981324
-0.13204399
-0.04516618
0.38537502
0.24086103
0.06741185
0.00370416
0.16489379
0.09578796
0.10184659
0.06106656
0.45851678
0.15238932
0.10380617
0.06725484
0.26295501
0.11809023
0.03820425
0.10643464
0.04173503
0.08899160
0.15321650
0.11470008
0.11067839
0.51105630
0.26188192
0.50825649
-0.01790478
0.17571522
0.11808176
0.28722963
-0.00405755
-0.13359545
0.18031266
0.28381431
-0.16375257
-0.17634085
-0.18910141
-0.14356788
0.26481000
0.14606982
0.14041094
0.07070313
0.07155907
0.35909995
-0.07472198
0.03168454
0.07385270
0.14960237
0.34649649
0.21961918
0.02013224
0.16906184
0.16565867
0.02321348
0.01137433
0.28454310
-0.00840149
0.40457588
0.23566180
0.05788922
0.12061061
0.46570265
0.01918391
0.17394960
0.14482145
-0.03139970
-0.03831787
0.22070000
0.01418384
0.24610880
-0.08847331
0.15827347
-0.02345902
0.35133058
0.07635529
0.18052089
0.18188341
0.35687238
0.55948144
0.00242556
0.23770267
0.12269054
-0.09036843
0.20606744
0.08594102
0.18785632
0.17029437
0.14032190
-0.03647931
0.29061329
0.14347073
-0.04949756
0.09086551
0.05122604
0.25504443
-0.10059533
0.37592149
0.02471232
0.42516017
0.09269022
0.32312754
0.22267583
0.19951816
-0.00926636
0.10463178
0.05394748
-0.12346955
-0.00054367
-0.11499275
0.27878976
0.28462052
0.16307490
0.31731898
0.63947827
-0.02600132
0.23027590
0.16783151
0.07619964
0.01438110
0.33361870
0.07866136
0.17569804
0.32222795
0.00067011
0.13612114
-0.06473277
0.07244391
0.16305099
-0.20484093
0.00535972
-0.10871938
0.37462839
0.36131981
-0.07481565
-0.08618562
0.03244334
0.00904657
0.18615821
0.12654403
0.22773848
0.16266525
-0.00611602
0.37068710
0.07098947
-0.06281172
-0.07506388
0.08551238
0.60968864
0.03498644
0.24553470
0.04167969
0.44550118
0.01620588
0.06307921
0.06953036
0.23853941
0.21658620
0.29619190
-0.10818242
0.10302643
0.14587277
0.31599373
0.26229894
0.03896769
0.09122183
0.44017720
0.20602775
0.30218741
-0.14704202
0.11232471
0.17799737
0.27620921
-0.25990793
-0.03433179
0.19586028
-0.20067641
0.09684520
-0.11521254
-0.12858723
0.29423839
0.40337378
0.00583791
0.18745977
-0.52340627
-0.03915265
0.36413315
0.06144699
0.19829664
0.21572055
0.05486176
0.07637994
0.22394878
0.01721697
-0.05218519
0.27265388
-0.22936793
0.10413990
0.12571947
0.05509191
0.19826679
-0.23473866
0.23110069
-0.05417987
0.46118602
-0.06034303
0.05853388
0.25476003
0.25647455
0.27464390
0.35011870
-0.01832461
0.27355900
-0.12045574
0.25707814
-0.00490321
0.14621623
-0.01569197
0.18502700
0.40507007
-0.07071692
-0.18919164
-0.07043003
0.14244860
-0.17175126
0.27662784
0.04133005
0.12112658
0.07447564
0.45043343
-0.03370020
-0.12421499
-0.11222163
0.08136030
0.15298991
-0.18609321
0.16466166
0.00267766
0.48146969
0.14919002
-0.07679655
0.12640551
0.15312137
0.02863795
-0.08786610
0.14095539
0.19338839
0.28867912
0.19830601
-0.43328175
-0.24310456
-0.38832295
-0.29039288
-0.03836579
0.33341131
-0.42454758
0.13218270
-0.11028478
0.20244090
0.13923527
-0.00906652
0.00117720
0.24562770
-0.04963896
-0.28146747
0.75760633
-0.10625528
-0.24858007
-0.19958858
-0.29888111
0.10575017
-0.39230153
-0.13789195
0.39990425
-0.16900304
-0.14490925
0.20884486
0.04434142
0.34993839
0.26682413
0.37827754
-0.68485045
0.14103942
-0.19941697
0.14310572
0.47066838
-0.03309342
-0.02706450
0.68816733
0.16032076
0.03872525
-0.02846144
-0.33065355
0.36447260
0.16189492
0.30064762
-0.06688780
0.34217161
-0.51592028
-0.33231905
0.15914643
0.03171765
-0.25211805
-0.17156976
-0.33448660
-0.01213328
0.42435285
-0.18339670
-0.02190581
0.23750281
-0.13565743
0.40306023
-0.25748852
0.41426897
-0.26119152
-0.31634223
0.36478949
-0.11333525
-0.17969386
-0.03361516
0.10255444
-0.41311017
-0.15744211
-0.07123502
-0.15119046
0.00094050
0.17702211
0.31432191
0.16755052
0.23060879
-0.08676641
-0.14969523
-0.20342103
0.29471064
-0.47106996
-0.08577378
-0.10981976
-0.40805972
-0.30298674
0.11618806
0.41428742
-0.29637787
0.56968522
-0.30544141
-0.41181964
0.07050075
0.01175445
-0.24405208
0.31360045
-0.26452464
0.11065594
0.08124962
-0.13632308
0.55860895
-0.22119668
0.35526490
-0.10434075
0.34939861
0.26108178
-0.22518890
-0.18900330
-0.15253393
-0.10860181
-0.45666656
-0.03445061
-0.23895586
0.03498952
-0.09019394
-0.29084289
-0.83410764
0.68548989
-0.26490080
0.21210143
-0.68077809
-0.05273997
0.13525142
-0.07198502
-0.17089458
0.21426263
-0.10547339
0.05997730
-0.09282148
-0.20158970
-0.17898688
-0.25575203
0.00091366
0.04795508
0.29434073
0.34585053
0.24499439
0.19195834
0.06911096
0.03031775
0.14755590
0.38989162
0.17367090
0.48195225
0.13264978
-0.00800200
0.29157183
0.38531169
0.01796459
-0.18457089
0.08107788
0.23469584
0.28894880
0.06102772
0.14348994
0.06065864
0.25031126
0.17774980
0.00438794
0.25192335
-0.01800962
-0.02783999
0.40549436
0.17591645
0.31323072
0.00301677
0.32325381
0.23495507
0.26361769
0.07342164
0.21552892
0.29675800
0.01553623
0.21873756
0.37310600
0.27744669
0.24954641
0.27726683
0.09101862
-0.09540758
-0.02028729
-0.10724525
-0.03729175
0.07181879
0.02669210
0.56694239
-0.00665846
0.08938295
0.07470403
-0.00550773
0.33056667
0.03771814
0.22088982
0.17241338
-0.02983176
0.16824524
0.03102447
-0.03488562
-0.24613506
-0.19046852
0.29733789
-0.08890015
0.06860856
0.09770180
0.22084720
0.24510166
0.14317109
0.61515856
-0.18488298
0.05135179
0.17411613
0.25271612
0.17982891
0.13293193
-0.13038798
0.42505217
-0.11947713
0.13399385
0.11580889
-0.03970293
-0.30870873
-0.15631522
0.10249237
0.00974304
-0.04149529
0.29610437
0.28131300
0.25747767
0.24210799
-0.01659532
0.09740040
-0.21725012
0.44788221
0.32571036
-0.03120659
0.28283036
0.18325159
0.08294846
-0.01792556
0.11362384
-0.09152156
0.02436328
0.15213293
-0.17305703
0.30158037
0.35316443
-0.02954023
0.28807363
-0.11024734
0.09658343
-0.19503988
0.33354673
0.20267992
-0.26393870
0.33689263
0.04557969
0.27590734
0.57354432
-0.05368107
0.16957349
-0.17666754
0.24166510
0.24637972
0.27972990
0.12092033
0.25510460
0.37782389
0.07837950
0.25115231
0.16408300
0.46774650
0.22388673
-0.39103824
0.14250346
0.28233528
0.24744257
-0.04456902
0.26593766
0.18111214
0.82671720
0.21144685
-0.04994486
0.24537750
0.68269140
0.07716045
0.08702059
0.23475145
0.23329987
0.32199800
0.37973788
0.06055210
0.11129840
0.24590491
0.25610167
-0.04949382
-0.01773818
0.12440728
0.00976979
0.08606409
-0.15361261
0.06469351
0.11665607
0.22934282
0.46500829
0.14163253
-0.05741426
0.19713132
0.12172024
0.06246758
0.28561321
0.02306334
0.36680996
0.06695351
0.01517058
0.05595007
-0.09058978
-0.00980086
0.31102058
0.11911818
-0.01315606
0.05074470
0.31501317
0.12186535
0.31052604
0.13898198
-0.15406209
-0.09264556
0.21635488
0.20198691
0.36865765
-0.00899476
0.34435782
-0.10747382
0.29080209
0.01328612
0.48861235
0.32932246
0.49966678
0.48154858
0.21341330
0.28127766
0.36668810
-0.02705183
0.51068676
-0.19766159
0.54085940
0.09364023
-0.12896782
0.00216890
0.32771668
-0.14241800
-0.00268805
0.03325186
-0.11592343
0.34460938
0.19478944
0.14112578
0.07953790
0.18121213
-0.22828570
0.26357570
0.16229717
0.30124101
-0.04395729
0.34314141
0.17340873
-0.02935197
0.21570294
0.22831330
0.39111724
0.23144363
0.11388730
0.63708830
0.19951007
-0.14127742
0.16464305
0.31514207
-0.15928616
0.12479734
0.26076499
0.13972731
-0.05610939
0.18805334
0.15768446
0.06612752
0.03909457
-0.15525419
0.09854117
-0.28364742
0.15785888
0.08664264
0.06381798
-0.10043882
0.07000263
0.05294035
0.10176615
0.15202557
0.27453485
0.10468610
0.14353046
0.16297445
0.05251839
0.15497819
-0.00487594
0.06192449
-0.05226208
0.01428793
0.36954951
0.26088893
0.05828926
0.15995625
0.26827949
0.00397765
-0.04848579
0.06313844
0.19546522
0.10489197
0.06329180
0.01209508
0.27382737
0.09439804
0.00466624
0.09153502
0.18639317
-0.12869018
0.01384334
0.08877096
0.16075213
0.02439748
0.04591085
-0.00410382
0.34391409
0.01047698
-0.08247428
0.12458863
0.09025419
0.04632005
-0.00135261
0.12435457
0.10694585
0.22535606
0.20785421
-0.00194544
-0.10995892
-0.00203181
0.23333058
0.02943771
0.07663568
0.12799107
0.34594673
0.09756408
-0.00102480
0.07690893
0.17764896
0.12023402
-0.04732282
0.06597933
0.05901092
0.05416016
0.20176178
-0.14080650
0.14926431
0.32715258
0.20354265
0.12516311
0.11659540
0.19152281
0.14538595
0.17837228
0.20165260
0.23108318
0.18655691
0.00005639
0.19708215
0.19643080
0.04171976
-0.16567118
0.28410208
0.10364500
0.07330400
0.10829197
-0.12337063
-0.01862811
0.01434014
0.07617810
0.04223698
-0.06549537
0.07803223
0.12186760
0.03264323
0.01013219
-0.06607927
-0.06326263
0.20675495
0.08418259
0.15504642
0.13388689
0.10966715
-0.02617079
-0.08394032
0.20198676
0.11513644
0.13315986
0.09940416
-0.07710799
0.19984643
-0.04902315
-0.08845717
0.08257880
0.01314810
-0.06772535
0.00879822
-0.09954864
-0.11758317
-0.03725329
0.06776342
-0.37059847
0.14028068
-0.00126101
0.13600221
-0.19298959
0.36129156
-0.04951454
0.00696501
0.21673915
-0.11310442
-0.00383686
0.04612470
0.09765859
-0.00923850
0.06740135
0.15746644
0.12584023
-0.01751030
-0.07333438
0.26925904
-0.02106566
0.08888704
0.07751268
-0.08789589
-0.24732484
-0.02243387
-0.22410408
0.19217555
0.17584683
0.23043981
-0.19592015
0.27136555
-0.01921861
0.13821658
0.26256824
0.01558463
-0.08024410
0.19223890
0.20312077
-0.04247819
0.01853741
-0.02420806
-0.33377829
0.00766584
0.08229554
-0.18795335
-0.16261712
-0.21773680
-0.03267193
0.22504306
0.09081114
-0.08506485
0.17509535
-0.07597781
-0.09344245
0.14296117
0.10925142
0.15599841
-0.20138370
0.02934344
0.16719931
-0.26959449
-0.02013971
-0.28176406
-0.10491315
0.10466757
0.02613598
-0.08717167
-0.02735464
-0.08877712
-0.04925239
0.24802402
0.13728724
0.07055359
-0.02393034
-0.12683961
0.15352082
-0.28755978
0.27221578
-0.20433709
-0.01737336
-0.04360611
0.03406411
-0.04078626
-0.19623238
0.15802868
-0.18491074
0.16043538
0.12693918
0.33515716
-0.27851140
0.14683133
-0.26711428
0.19625561
0.26872301
-0.18442912
0.12711406
-0.15855023
0.43952757
0.10566127
0.19610839
0.20622385
-0.30531427
-0.07714151
-0.11758108
-0.09906237
0.14132744
0.10723615
-0.14810149
-0.13076623
0.14250447
-0.18637457
-0.39614999
0.31417063
-0.03040915
-0.17125861
-0.21763600
-0.16611293
0.08320133
-0.05646893
0.05120029
0.05002373
-0.03082046
0.00171641
-0.10839622
0.07517787
-0.16523291
-0.15650867
-0.04374778
-0.14839439
0.07894600
0.25846219
0.08067418
0.12927984
-0.23663175
0.02059334
0.28579879
0.00085899
0.24124788
0.10204954
0.10948774
0.25613490
0.11784171
0.01564056
0.12259136
-0.00841222
-0.06060843
-0.02396507
0.24550430
0.06885700
-0.07155260
0.14969411
0.08715510
0.13125631
-0.17816906
0.16516465
-0.06654388
0.02329779
0.10139617
0.06513583
0.11194298
0.11464455
0.17299856
0.09357857
0.12326582
0.08583616
0.11397348
0.02537973
0.04451060
0.01599952
0.12660031
0.24122903
0.01612269
0.05007454
-0.07099364
0.07596354
0.03957790
0.30546504
0.00472082
-0.08979134
0.00835437
0.10743964
0.06300618
0.13437773
0.00171703
-0.01867953
0.02859265
0.00325294
0.00611216
0.18233576
-0.15380356
0.09746689
0.02173887
0.02934385
0.02991676
0.08247808
0.06808230
0.12180730
0.05255985
0.14495695
-0.01699245
0.07157575
0.03443739
-0.04350837
-0.02731728
-0.06113700
0.16064134
0.08398326
0.08515660
0.07356256
-0.02107606
0.21998163
-0.10395893
0.02716293
-0.03816756
0.11482315
-0.08475450
0.10622580
0.03096996
0.11063186
0.06474070
0.08356293
0.12937734
0.10885873
-0.00031377
0.15207723
0.12044348
-0.04905609
0.09902391
0.01992947
0.10431499
0.11947825
0.03857930
-0.02154600
-0.08071497
0.20097333
-0.09317453
0.20808285
0.04035047
0.01310261
0.32534483
0.01059068
0.08064186
0.25487232
-0.05577757
0.12059853
-0.12780894
0.23699418
0.12530631
-0.02786659
0.15115140
-0.18364301
0.07523537
0.10490835
0.10930755
0.12044749
-0.08477185
0.26959223
0.26231554
0.12985931
-0.06876290
0.09272788
0.11525163
0.10049343
0.14820533
0.14305373
0.26952624
0.08275703
-0.06922227
0.04844656
0.27156526
-0.01333103
-0.03409081
0.19256905
0.05305818
0.34490556
0.22545628
0.10251964
0.17111924
0.47203928
0.15278909
0.10706529
0.04539538
0.03018289
0.09939594
0.33049476
0.07075790
0.04656157
0.16850959
0.10791626
0.19229740
0.03259168
-0.01866209
-0.03231646
0.04649057
0.03758281
-0.04190708
0.05697974
0.08871955
0.25506169
0.03281080
-0.00332673
0.04907348
0.10260629
0.11974303
0.01885839
0.03640327
0.01864152
0.15449452
-0.00363092
0.06691185
0.13585083
-0.00530107
0.22684479
0.11799822
0.01706399
-0.00757085
0.17571482
0.12019692
0.11585778
0.05624837
-0.23637730
0.04410247
0.08292208
-0.01523711
0.22154634
-0.04424299
0.23084348
-0.01324437
0.12526084
0.07766767
0.23547141
0.12599941
0.11335688
0.41534808
0.13689615
0.20480706
0.08873341
-0.05141893
0.20673445
-0.02078090
0.20837985
0.13861835
0.02393087
-0.01845530
0.05316379
0.07823496
-0.16657180
0.04634829
-0.01658369
0.28840476
0.19360635
0.01697555
0.03362609
0.13393711
0.04610821
0.15022863
-0.01958504
0.23034863
0.06864237
0.17111325
0.15211253
0.25927269
0.16708051
0.09493475
0.30983070
0.24503167
0.12521936
0.24105892
0.36879519
-0.01646078
0.20256299
0.20358977
0.14855865
0.14007819
0.29329917
-0.13823777
0.22187242
0.01259536
0.16699085
-0.00280130
0.30385777
0.02790583
0.16546987
-0.59263259
0.27278331
0.00953172
0.26737991
0.27470446
0.12367554
0.20564815
0.16557218
0.31461540
0.17476872
0.25897634
0.22798367
0.14889628
0.13745858
0.56940174
0.22602046
0.38285443
0.04574548
0.31554699
0.45095173
0.61657065
0.28834561
0.23885736
0.59727037
0.19332719
-0.19651848
0.13114920
0.36279795
0.18589263
0.25703359
-0.14674278
0.18901096
0.31953800
0.25621140
-0.10848717
0.25574601
0.02006803
0.63686568
0.23794828
0.17285323
-0.07761806
-0.21233757
-0.19131117
0.13360327
-0.01993553
-0.08723806
0.10951961
0.11021748
0.07558182
0.06297533
-0.01824009
-0.08419209
0.34354925
0.16268568
0.29535306
-0.00917288
-0.16833411
0.39942452
0.22791833
-0.05423253
-0.36757237
0.11994636
0.25320584
0.07131980
-0.09028322
-0.21914057
-0.05612896
-0.01459358
0.11150790
0.39609364
-0.10601621
0.21341524
-0.20710655
-0.05995381
0.15522902
0.41481760
0.00663952
-0.00486072
0.42776638
0.51601648
0.50267971
0.09929428
-0.00421181
0.32506850
-0.03174876
0.11389735
0.04200329
0.08450907
-0.02756989
0.28179058
0.32344222
0.20263205
0.13390407
-0.32101607
0.21649387
-0.14318515
0.05510874
0.06768052
-0.05975096
-0.02972408
0.61430198
0.06017863
0.12862341
0.00130183
-0.15969919
-0.00564737
0.12958896
0.49797782
0.01521798
0.22371903
0.07379534
-0.18253575
0.44720870
0.18987012
0.25993690
0.10583326
0.20391588
0.28521773
0.06227421
-0.10280219
0.30405968
0.10679690
0.08192410
-0.35794461
-0.07071804
0.02403441
-0.04597363
0.49035954
-0.25708991
0.05561196
0.22348504
-0.21044432
-0.00480292
0.47444198
0.05535989
0.04056709
0.37863815
0.19521344
0.48538867
0.00571406
0.13685073
-0.07000230
0.11812752
0.44923964
-0.04472113
-0.22434402
-0.15028809
-0.54025525
0.01005676
0.05370575
0.10857575
0.07839260
-0.55161095
0.07819243
-0.39405870
-0.30649480
-0.39786533
-0.35679114
-0.40498799
0.48502228
-0.20029464
0.42432994
-0.10023123
-0.17577522
-0.13472992
-0.32118660
0.10113433
-0.08449145
0.20715477
-0.28913894
-0.32721892
1.24926376
-0.26503506
-0.07708707
-0.39131540
-0.30679905
0.09047110
0.46070257
0.20992969
0.05239297
0.45557633
-0.20563453
-0.05031557
0.07591430
0.40022469
-0.24931988
0.05248173
-0.21940775
-0.06156534
0.29696870
0.03553928
-0.64846885
0.38291869
-0.07581197
0.09581891
0.37510088
0.28109270
-0.27938825
0.20971201
0.60259241
0.71670014
0.08403736
0.31015906
0.62248611
-0.07052758
-0.10956606
0.24728800
-0.10359745
-0.41156170
0.54591954
0.07900787
0.65668797
-0.34102631
-0.13892204
0.40854990
-0.53678590
0.04964299
0.27689588
-0.06881011
0.01630666
-0.11143254
0.23697063
-0.01119474
-0.27616322
0.54699641
-0.41880396
0.34020782
-0.01645374
-0.27147657
0.53633976
-0.60734737
-0.12758109
-0.31095308
0.06687235
-0.14130864
-0.11951242
-0.05623246
0.46672800
0.34838969
-0.08731278
-0.25077549
0.71631998
-0.21792254
0.46506000
-0.45774275
0.15870328
-0.02714903
0.13173030
0.00839618
0.02641852
0.26740012
-0.00774844
-0.43848935
0.11738977
-0.31795031
0.29113689
0.03008642
0.12023359
-0.09472935
0.19451085
0.01880069
0.05288467
-0.18241417
0.81388545
0.03822945
-0.04727773
0.32370141
0.38426852
0.09106173
0.06573959
0.32081357
0.32231852
-0.08400269
-0.25595921
0.09051730
0.03704648
0.27530634
0.16735426
0.03048395
-0.04718757
0.47330892
0.12551633
-0.02879845
0.08338040
0.08403646
-0.28436774
-0.11815388
0.07305740
0.54265964
-0.18903926
0.01630074
0.15239957
0.46384814
0.14302832
0.25617874
0.15119246
0.14688098
0.20118645
0.33277765
0.17010145
0.37222081
-0.14654773
0.11301759
0.03501600
0.31790078
0.17217490
-0.25848964
0.24437156
-0.07775830
0.46761745
0.15423034
0.08497885
-0.12047198
0.39111900
0.34135318
0.19781666
0.17621715
0.44693449
-0.15204890
0.08253281
0.44735724
0.08979134
0.03567505
-0.18840852
0.41510415
0.07290445
-0.09350063
0.08506872
0.08364744
0.26135451
-0.07366745
0.48003161
-0.08900480
-0.05212765
0.41825587
0.01277265
-0.01673859
0.21823744
-0.17198209
0.54533905
-0.09752840
0.17267588
-0.06208657
-0.12122706
-0.05229139
-0.09887541
0.47269964
0.06763007
0.04249429
0.06622671
0.16114964
0.26169047
0.21534374
0.25408012
0.02497665
0.05223752
0.57705623
0.04907048
0.03750632
0.13228232
-0.03772715
-0.01078352
0.20590878
-0.06839927
-0.06575641
0.28814504
0.09053715
-0.19446670
0.19434756
0.61338943
0.12188523
0.11597595
-0.02883208
-0.09247297
-0.09520918
-0.12315052
0.03623493
-0.15864125
0.23648058
-0.10505179
0.32296237
0.39401719
0.05157704
0.22423565
-0.23602366
0.15870744
0.53421849
0.22615913
0.05059669
0.05822982
0.40087038
0.33905604
0.02286134
-0.08497024
0.64913863
0.35072708
-0.08768623
0.31831899
0.35590044
0.26506743
-0.02615961
0.07308120
0.03793731
0.36534655
0.26177177
0.04873658
0.18553257
0.77603430
0.32618120
0.57911527
0.15170756
0.44120181
0.00563299
0.29101884
0.27112824
-0.22076303
0.28585893
0.39415678
-0.09190783
-0.13774452
-0.22009037
-0.11126581
0.11139379
0.13534570
0.25625396
0.15787575
-0.05205569
0.57531738
-0.21947849
-0.07360299
-0.05136214
0.20705548
0.32100898
0.29655996
-0.19884281
0.18261588
0.18011616
0.05144962
0.34668812
0.28523272
-0.23326437
0.41593108
0.41391292
0.10230744
-0.03200655
0.45741606
-0.15108095
0.06199935
-0.07464870
0.06274386
0.09022530
0.18501380
0.11657986
0.63685232
-0.02362212
0.13442378
0.16171537
0.25093558
0.10948554
0.14716500
0.44350976
0.63120562
0.88468748
0.15330164
0.41558081
0.28097257
-0.13082862
0.31259453
0.02461017
0.58158547
0.27032870
-0.09421632
-0.36637333
0.37936491
-0.03408477
-0.12975599
0.17675817
-0.10591958
0.26432040
0.02408485
0.39116699
0.09969393
0.52500671
-0.18277070
0.21295466
0.36888373
0.16676354
-0.13432814
0.26243430
0.28514850
0.06022159
-0.06049509
-0.20191257
0.21442115
0.45824364
0.18642330
0.42293972
0.69274932
0.06118643
0.35401914
0.35663655
0.38668689
0.12510720
0.13165706
0.06263644
0.14071849
0.06701296
0.19080022
0.00571110
0.23611248
0.03212116
0.16306658
-0.15316999
0.15146102
0.13784757
-0.12371915
0.14043355
0.11142716
0.04503100
0.28105128
0.50490844
0.12860145
0.29143932
0.14324923
0.22939146
-0.06234026
0.11200662
0.19882372
0.10263573
0.13383858
0.14306356
0.10444655
0.26239491
-0.09964787
0.18796256
0.23936519
0.30092174
-0.08697689
0.07472372
0.19320600
0.05130288
0.28070787
0.04762504
0.16755839
0.00534671
0.08351304
0.02044882
0.34089383
-0.00547341
0.31397000
0.16107747
0.14583452
-0.00505510
-0.19145495
0.04399480
-0.02021553
-0.06403129
-0.13325721
0.04410693
0.23865651
0.04832570
0.19556439
0.06931658
-0.17320052
-0.05269228
0.18530923
-0.03109556
0.34132487
-0.12453034
0.30999020
-0.04735894
-0.14232492
-0.39082563
0.04533191
0.19205670
0.01411155
0.12190781
-0.15431108
-0.11942280
0.07171563
0.02738309
0.26090357
0.04964163
0.33985975
0.07532401
-0.05705937
0.22461443
0.01667502
0.04418200
0.07877789
0.04074629
0.40023142
0.22694400
0.16834748
-0.02994659
0.15623230
0.00015341
0.10113008
-0.01912186
0.08841418
0.03353547
0.05407012
0.05531371
0.16334589
0.19386752
-0.20152335
0.01560038
-0.14457721
-0.10909168
0.10374921
0.06465322
0.06526002
0.47242156
0.04348791
0.00940709
0.29637435
0.05199132
0.11621132
0.25920630
0.12509075
-0.05575848
-0.03555360
0.15096334
0.03271297
0.52321559
0.12485993
0.05134525
0.19884607
0.15881485
0.08655027
0.08633151
0.14709932
0.25939426
-0.01599533
0.04498515
-0.10056526
-0.18396175
-0.32205001
0.27006218
0.41829088
-0.13928211
0.18084000
0.15594843
0.34217969
0.07008199
0.15797232
-0.20283692
0.23725253
-0.05631267
0.33345249
0.41928098
-0.20684993
0.22538310
-0.02137314
0.46133220
0.36819294
-0.23121944
0.12704019
0.06956211
-0.57516289
0.08731037
-0.40011495
0.02743850
-0.06297487
-0.25115564
-0.33392838
-0.10673614
-0.16828714
-0.25801152
-0.10762572
-0.45411554
-0.06676495
-0.27904245
0.39816207
-0.16741353
0.13961111
-0.03566915
-0.01612110
0.07092761
-0.00754727
0.01953159
-0.26621002
0.09644520
0.63825649
-0.04407172
-0.10213247
-0.19372392
-0.15876874
0.19823027
-0.06303722
0.33947539
-0.17667480
0.16087595
0.00971731
-0.10708459
0.13305542
0.09464734
-0.08625443
0.08745183
0.00132924
0.08679521
0.29228294
0.33668488
-0.22819582
0.29649135
0.19834973
0.13879386
0.01745027
0.13215029
-0.24255280
-0.03325155
0.18105723
0.15151033
0.14731959
0.18306004
0.29283684
-0.01878699
0.11585455
0.05510148
-0.12877765
-0.09710664
0.39983624
0.06452900
0.09456722
-0.41382158
-0.38400027
0.33820289
0.13947786
0.18176475
0.27112454
0.11573701
-0.20879450
-0.09831221
0.07070326
-0.29730725
-0.39207700
0.08313670
-0.13955887
0.24492803
0.11399238
-0.07890873
0.35571942
-0.42061031
0.10183043
0.18366271
0.08241148
0.12980670
-0.07172397
0.25483987
0.38473228
-0.06374285
-0.04998624
0.06880178
-0.10357100
0.13689905
0.29497492
-0.07122393
0.14171377
-0.02355432
0.17758033
0.19607583
0.08699514
-0.01588870
0.07021497
-0.08184171
0.02502842
-0.19411813
0.28432542
-0.03840555
-0.03405125
-0.20941745
-0.17426062
-0.15735704
0.12314981
0.04218669
0.49592903
0.01345794
-0.02754177
0.15809542
-0.09675673
0.13235480
0.16979174
0.09580585
0.07109889
-0.14582872
0.04077885
0.14172310
-0.11139595
0.08739695
0.23968795
0.14006364
-0.11986259
0.28436202
0.17326413
-0.21127833
0.09471823
-0.09541752
-0.14909177
-0.03326721
-0.03065956
0.12924112
-0.06090313
-0.03017090
0.21721280
0.23641413
0.21052596
0.16026033
0.02817129
0.06235244
0.03161676
-0.04497623
0.03175471
0.14407417
-0.09621355
-0.00646526
-0.20006961
0.06357576
0.29068178
-0.24250188
-0.00570235
-0.10078537
0.15787849
0.05129707
0.33930147
0.16560379
0.28362289
0.26816139
0.00733616
0.03020055
0.33988395
-0.27387324
0.11839621
0.08663002
0.01511503
-0.10956171
-0.07373250
0.18666556
0.02524518
-0.04402163
-0.03959415
-0.11213318
-0.08124489
-0.18512900
-0.10926865
0.12638548
-0.00334903
0.07111943
-0.12447219
-0.09064330
0.30323601
-0.05727037
0.29448268
-0.06789176
0.03734957
0.02181218
-0.03768429
0.23367991
-0.03201471
0.44348407
-0.05237182
-0.04418259
0.12769343
0.07683904
-0.20404170
0.12856433
-0.01964890
0.02162722
-0.00535101
0.07323302
0.19669002
0.30207059
0.22503600
0.20261355
-0.01513771
0.07324348
-0.10470355
0.00653408
0.11346956
0.06178579
0.01039173
0.32146335
0.26553613
-0.06111980
-0.15940952
-0.23802079
-0.13856125
-0.06887540
-0.11960303
-0.08134050
-0.01807339
0.25230521
0.04974254
0.07044519
0.08078317
-0.00094461
0.06457292
-0.07663715
-0.10510357
0.40787256
0.21815170
0.00286347
0.00489124
0.10010155
0.10943249
-0.02964639
0.00481032
0.50312495
0.06341508
0.23907109
0.12176168
0.31916311
0.00298157
0.10387711
-0.02721403
0.02293096
0.00855273
0.17695206
0.15433247
0.06468038
0.42946914
0.10305278
0.50003910
-0.17028785
-0.03658042
0.01165787
0.26120195
0.06043615
-0.12452091
0.01400352
0.18587351
-0.01445783
-0.21284321
-0.14525136
-0.23496605
0.14971444
0.23847169
0.15286574
0.08406147
0.05234159
0.23489642
-0.01085405
0.03934219
-0.12984827
0.10696729
0.25478682
0.07169129
0.02641151
0.20611909
0.18659046
0.00604853
-0.01280739
0.38244984
-0.00734549
0.38511971
0.31166404
0.04614804
0.11391675
0.55266780
0.00142369
0.12310643
0.06103246
0.06264032
-0.17686494
0.10766401
0.02815321
0.01489772
-0.04220545
-0.03388064
0.04049959
0.18202710
0.09852058
0.14334546
0.11258314
0.29846612
0.41320738
-0.09847660
0.30364534
0.04748143
-0.09976564
0.19736752
0.25512388
0.20973104
0.16386142
0.14718279
-0.01411674
0.28465807
0.16163096
-0.09267937
0.07296072
0.33110934
0.08222881
0.02151106
0.32671630
-0.11712591
0.31768340
0.25147671
0.23912810
0.19967684
0.13333285
0.02072370
0.13197976
0.07199066
-0.22079670
-0.02124759
-0.18020983
0.39060575
0.08965286
0.19998837
0.23471722
0.34579921
-0.10433861
0.08221839
0.06171446
0.15466529
0.14286466
0.34850094
0.13570750
-0.04629737
0.25230440
0.15035692
0.06669733
0.09126268
-0.15083905
0.12101710
-0.36248082
0.18163209
0.10767324
0.17962107
-0.08660351
0.11640827
0.08647671
0.05728862
0.21283175
0.38358560
0.18758591
0.16946706
0.14470533
0.01952839
0.22722048
-0.00762682
0.11360075
-0.06002859
0.05130497
0.50322968
0.31223685
0.08941911
0.16565831
0.42407852
0.03738103
-0.08117023
0.02269621
0.29605699
0.18836543
0.10990722
0.03854036
0.36999923
0.13775592
0.04007981
0.16904186
0.18476322
-0.13225013
0.05580973
0.14821714
0.22853208
0.01402226
0.07137433
0.01463056
0.37927806
0.02213649
-0.08982925
0.12702207
0.08564404
0.09389345
-0.01647570
0.16269769
0.10986035
0.31263465
0.26219296
-0.00722736
-0.13819680
-0.02038476
0.32694817
-0.00123316
0.12057683
0.14738552
0.41835567
0.08523820
0.03502763
0.11730854
0.23241113
0.17450640
-0.03827750
0.05809255
0.14651847
0.02994868
0.24770765
-0.16459092
0.23729417
0.41610587
0.32332110
0.17676812
0.06680035
0.24467658
0.22999872
0.28777349
0.31092039
0.30933192
0.25587389
-0.02510968
0.26063600
0.23126465
0.09121398
-0.16144593
0.33658955
0.11129072
0.01595409
0.08164524
-0.21886776
0.00952310
0.05669418
0.11580832
0.07782015
-0.08214898
0.12273185
0.19844699
0.02738949
-0.02201135
-0.02470664
-0.02812114
0.22047023
0.10696322
0.21469864
0.13847585
0.13047034
0.02643126
-0.06719825
0.29177716
0.20700663
0.11008428
0.08333613
-0.10332396
0.28280020
0.04447716
-0.05177292
0.15048033
0.02615925
-0.11955865
-0.06980936
-0.10717842
-0.11458222
-0.01310701
0.07016194
-0.47314170
0.10732377
-0.02224065
0.15498595
-0.30217186
0.47285804
-0.11336581
0.06383048
0.24622394
-0.10124549
0.05267624
-0.01993787
0.03773617
0.03958612
0.12273416
0.17354725
0.13301080
-0.07143712
-0.13208771
0.31720304
-0.06601232
0.10892821
0.05808232
-0.07226562
-0.40396962
-0.03918420
-0.36965495
0.17540310
0.19561893
0.40434670
-0.24905565
0.44655535
-0.06036010
0.18437895
0.35607389
-0.04381599
-0.06172381
0.31456470
0.20086010
-0.07408622
0.08123654
-0.06655854
-0.43788415
0.06653602
0.02481439
-0.20327193
-0.13229534
-0.30717468
0.04987252
0.32389659
0.07968630
-0.11267166
0.21357322
-0.20640725
-0.19192933
0.21967985
0.13783860
0.29017425
-0.27903503
-0.03571779
0.13072982
-0.33615494
-0.03616384
-0.35134804
-0.10238312
0.08677781
-0.03196923
-0.10367235
-0.02871520
-0.21514662
-0.01264635
0.24166189
0.14433143
0.17783032
-0.05364148
-0.06890690
0.21732157
-0.34929615
0.40834123
-0.24434650
-0.07581650
-0.07484432
0.03233181
0.08764311
-0.31950387
0.26069039
-0.26341850
0.10801063
0.17544936
0.48305291
-0.31884864
0.19776309
-0.32321927
0.26599827
0.39355636
-0.19461036
0.17293188
-0.21922858
0.51919723
0.05689381
0.16305667
0.23516530
-0.36797306
0.00585798
-0.21767564
-0.08939408
0.16153075
0.20647591
-0.20182408
-0.12312573
0.26632529
-0.13746713
-0.57130420
0.38778311
-0.05254405
-0.26771170
-0.30715606
-0.19149250
0.10537724
-0.03205627
0.04799104
0.00873802
-0.10639357
0.04042104
-0.14786935
0.04362561
-0.16687776
-0.18691687
-0.06994669
-0.18162480
0.15708907
0.37112629
0.06268901
0.17591447
-0.28152990
0.09946173
0.43089056
0.01569689
0.26639667
0.12710196
0.15283719
0.28787991
0.14163971
0.03090452
0.13910282
0.03323388
-0.11568673
-0.00263517
0.30118954
0.14180045
-0.14144821
0.21260834
0.15918958
0.12274192
-0.17380959
0.20240426
-0.09891330
0.00639765
0.14617483
0.09508625
0.14473520
0.19221669
0.20244837
0.13540205
0.11513891
0.01457675
0.18146247
0.08273591
0.05076840
0.00762434
0.16628134
0.33528247
0.08765055
0.12189013
-0.06212847
0.15850517
0.06340230
0.34253293
0.04260106
-0.07254064
-0.00044292
0.20018093
0.07712635
0.14280555
0.00545632
-0.04113052
0.03611657
-0.06546517
-0.01807862
0.14489847
-0.22187191
0.06612325
0.08741829
0.06271010
0.08884539
0.09815663
0.13816032
0.21393937
0.05590580
0.11996557
-0.07907727
0.07335067
0.03071088
0.00904897
-0.04033062
-0.02644357
0.14429957
0.12759180
0.13629782
0.08738667
-0.03754714
0.31359497
-0.20514522
0.01242112
-0.09053130
0.13198359
-0.15705745
0.06083955
0.12350350
0.10903081
0.06967971
0.08726634
0.18073741
0.12313190
0.01606707
0.16508175
0.11641692
-0.08243787
0.15899536
0.06236289
0.11681163
0.10287409
0.06464043
-0.06043562
-0.03069409
0.21200663
-0.09457649
0.24385673
0.07037528
-0.02117227
0.35878512
0.02686399
0.09846144
0.36501193
-0.10068590
0.12909296
-0.19435930
0.35987923
0.17062184
-0.09017002
0.14768869
-0.21301042
0.13715832
0.09859205
0.12627576
0.10443389
-0.11064789
0.32049540
0.30784509
0.17299207
-0.05007807
0.08248408
0.16869681
0.21104743
0.22749828
0.25109613
0.37751821
0.14351675
-0.06971467
0.08439223
0.28973678
-0.02930607
-0.05892901
0.18043244
0.02337593
0.46954834
0.25213009
0.18806717
0.27802479
0.58307070
0.16860595
0.18486358
0.11179527
0.04989026
0.18284649
0.40704536
0.11631745
0.11572331
0.20228094
0.19852930
0.23177369
0.00949685
0.01789012
-0.04944843
0.04750349
0.02393042
-0.03824460
0.08529472
0.07148965
0.33607620
0.00780467
0.00115732
0.00305311
0.12972330
0.21032454
0.01467115
0.02835444
0.05819872
0.14179054
-0.01222085
-0.02577179
0.16776651
0.01357008
0.34590229
0.15138271
-0.01985871
0.03641082
0.23650193
0.12624796
0.11066905
0.15024781
-0.34353018
0.03744236
0.09064379
-0.00038940
0.27061501
0.00903876
0.27273428
0.02462352
0.18952607
0.04243330
0.36240244
0.18477888
0.21315271
0.52420926
0.16140355
0.17679159
0.13003176
-0.10189261
0.26258004
-0.04244856
0.28571674
0.14820620
0.06831038
-0.08286037
0.09101839
0.09685206
-0.20676470
0.05733524
-0.03616309
0.39256039
0.27880383
0.03573654
0.00528674
0.16588256
0.01219842
0.25594041
-0.08129814
0.29397640
0.01650009
0.23217250
0.26507109
0.38749185
0.28887299
0.06834146
0.35992980
0.31034029
0.12962061
0.33676106
0.49859110
-0.05643927
0.27951020
0.28151792
0.19052184
0.14240161
0.09257700
0.08807876
-0.05658257
0.11161689
0.13229153
-0.01292786
0.10501063
0.24656694
0.12180549
-0.29139650
0.42603573
0.31959617
-0.01440908
0.20584035
0.27864447
-0.04476743
0.40411559
0.89993143
0.22009671
0.34085178
0.22638334
0.42721328
-0.25288028
0.14436436
0.01221492
0.13697039
-0.06758732
0.25763035
0.53720921
0.41623941
-0.02897072
-0.30260584
0.70289016
0.30773342
-0.25249243
0.05192722
0.39668927
0.24834387
0.52419305
0.25599200
0.41908741
0.05794935
0.18099752
0.06975533
0.06367541
-0.02740327
0.08000463
0.29452252
0.33476731
0.21698143
0.02006248
0.30981696
0.19380885
0.12117414
-0.05766075
-0.13314666
0.39143384
-0.09044498
0.10978870
0.40367907
-0.02153894
0.31765980
0.24704579
-0.23571829
0.30190825
-0.45758742
0.50477320
-0.07652967
-0.13535085
-0.04401185
0.35964185
0.16069570
-0.07732297
0.34297806
-0.17996646
-0.00998093
0.07165726
-0.04663688
0.54270923
0.05004583
0.41088116
0.14103627
0.17933559
0.64954686
0.37298036
-0.00156285
0.12445801
-0.03480623
0.34923187
0.44058627
0.42185909
0.25068045
0.20257103
0.12063259
0.27356756
-0.00413883
-0.19363850
-0.37235528
0.14694147
-0.01144850
-0.00478373
0.34875330
-0.26331815
0.10095643
-0.37909898
0.10901566
0.22304660
0.22799590
0.34780350
0.45227146
0.02581562
-0.01316547
0.44520912
0.02532745
0.26694834
0.25892994
0.37450022
0.09645771
0.29141712
0.06633282
0.04030806
0.44649908
0.30313295
-0.08805007
-0.05855259
0.16177201
0.21093149
-0.47220299
-0.10390513
0.63634574
0.18505155
0.12561993
-0.19513255
-0.06465634
-0.43946379
0.06430181
0.02487324
-0.45107436
0.16553622
0.11532815
0.62199277
-0.18776149
0.62392414
0.03395233
0.28235206
0.34299690
0.80216426
0.24105337
-0.22611324
0.26474303
-0.03782844
0.55954063
0.66512167
-0.26884070
-0.42730922
0.10962186
-0.58177578
0.13145632
-0.59073597
0.61458027
-0.81203371
-0.38376760
-0.44237715
-0.47278154
0.45628855
-0.29969245
0.87593430
-0.60006428
0.42971158
-0.45860860
0.06823499
0.24192539
-0.38369435
-0.03450610
0.16515741
0.15875176
0.26339337
0.18570735
-0.79167652
0.39649183
1.12196863
0.48204726
-0.41314963
-0.15065357
-0.37164882
0.21607235
-0.53021026
0.60667670
-0.39377898
0.23071361
0.00185251
-0.39622673
0.44028094
0.35179102
0.86361778
-0.02435667
0.02167918
0.23329164
0.20551197
0.16897210
-0.42698336
0.23551676
-0.00107023
0.08208421
-0.30526686
-0.21905971
-0.68056262
0.09519415
0.37743011
0.43900692
0.61694038
0.15175198
0.06339317
0.38147449
-0.20116961
-0.01545758
-0.43744078
0.52203995
0.64992487
-0.06017275
0.08460009
-0.53953773
-0.67266661
0.41803730
0.48601726
0.52154040
0.90065211
0.36471945
-0.27138245
-0.12909998
0.12141669
0.56193727
-0.54695487
0.30372813
-0.38034236
0.85561717
0.61643356
-0.41747147
-0.00857840
-0.71437788
-0.04500184
-0.17643698
-0.05234358
0.40450814
0.32164347
0.13195615
0.69658858
-0.36294836
-0.09790353
-0.04869832
0.82720703
-0.25004250
-0.13905317
-0.23361304
0.55923975
0.01467732
0.48152238
0.19259216
0.04675017
-0.09589095
0.28086430
0.04380888
0.04846203
-0.25488338
-0.03885137
-0.15787786
-0.21526179
-0.04605219
-0.32252610
-0.17618364
0.20511290
0.06046918
0.53122705
0.36475366
0.46047318
0.29726472
-0.05339171
0.28575861
0.20548579
0.16325684
0.03571181
0.00226147
-0.05645490
0.16085462
0.21442436
0.26437739
0.24476478
0.32978523
-0.13150749
0.49224138
0.18091346
-0.47618341
0.26848215
-0.19184220
-0.25560018
-0.05389622
0.06998596
-0.01830657
0.11923918
0.07664284
0.17282778
0.26030478
0.20481113
0.36890209
0.00737202
0.20059402
0.03559351
0.15276214
0.23259592
0.18817271
0.02087368
0.01705994
-0.10171047
0.16108470
0.46355247
-0.17955408
0.19299379
-0.10186169
0.18337867
0.25870934
0.55930972
0.16538624
0.25798479
0.25914940
-0.12627845
0.13366714
0.64694929
-0.40877736
-0.00861199
-0.08131983
-0.19356450
-0.10900493
-0.03068740
0.11764882
0.11152412
-0.14575863
0.15945652
-0.15145364
-0.03829314
-0.01516144
-0.40017641
0.29328242
0.19080123
0.18330663
0.13628142
-0.19268897
0.44411948
0.20188394
0.53493661
-0.22853337
0.10536489
-0.03844908
0.06045286
0.07910673
-0.00992811
0.47978064
-0.08058540
-0.03490727
0.42437327
0.08122998
-0.18739274
0.31264028
0.01093700
0.07722874
-0.03289877
0.05251792
0.36894089
0.34319207
0.23673619
0.11512581
-0.37384343
0.01316495
0.05300084
-0.21826625
0.33311865
0.01861278
0.23106103
0.61647040
0.19068183
-0.07383662
-0.10427283
-0.23647608
-0.13412295
-0.24602655
0.32779041
0.21777724
-0.00354683
0.00488347
-0.31017974
0.01104405
0.25677451
0.25493956
0.10818352
-0.12663195
0.05023592
0.59570426
0.17126639
0.05640229
0.01482327
0.37039173
0.29524437
0.10797137
0.23428074
0.70144504
0.10116355
0.13614368
-0.00257771
0.50871611
0.00900373
0.26681635
-0.05412171
-0.09025954
0.27736187
0.33393720
0.18189655
0.40314400
0.90619886
-0.01125873
0.38478529
0.00223767
-0.03456289
0.12456923
0.70542580
0.29788309
-0.24890226
0.11761519
0.23948726
0.11858218
0.10568818
0.05633064
-0.23928405
0.25297487
0.38751781
0.21817924
0.06193908
0.25843075
0.48278490
0.09144476
0.04895806
-0.33931801
0.24688897
0.27864882
0.10300788
0.07334117
0.68623209
0.20029861
0.07969613
-0.07941487
0.31549716
-0.06296881
0.68612665
0.39003882
-0.03906546
0.28495032
0.69490117
0.10782502
0.07247208
0.13514669
-0.34713218
-0.22134364
0.08636541
-0.09157261
0.07729155
-0.14685905
0.13805054
-0.10478639
0.05246791
-0.07039299
0.51179773
0.14335255
0.36585706
0.51407355
0.06115257
0.39246970
0.23462710
-0.17646612
0.00028985
0.27114555
0.55043972
0.36864993
0.07294245
-0.15607816
0.37741706
0.02811304
-0.21757023
0.29212940
0.40881774
0.21568371
0.21151772
0.28688771
-0.30930361
0.83570874
0.33481747
0.39750579
0.21539333
0.34095469
0.30924374
0.38658348
0.07444232
-0.11471832
0.34846792
-0.00834747
0.54551661
0.27365172
-0.00077041
0.82929349
0.47754541
-0.24260800
0.18684638
0.14001636
0.18544069
0.07618181
0.21492331
-0.02340177
-0.09329405
0.12322664
0.20534605
0.01424441
0.16111887
-0.03932102
0.20959400
-0.62356955
0.43262693
0.27478898
0.40330467
-0.03854749
0.19176872
0.14599156
0.16609456
0.29584786
0.32963812
0.36587477
0.19216046
0.20250005
0.06478857
0.30547789
0.25036925
0.35466534
-0.19610186
0.22899817
0.42013952
0.54464650
0.03273485
0.00346942
0.71656621
0.13696294
-0.20184706
0.15660013
0.44334400
0.27077103
0.46381059
0.08885346
0.40907052
0.14679763
0.17457309
0.19019057
0.18834744
-0.13279334
0.22956978
0.14331138
0.30458522
0.05400471
0.17969061
0.04500437
0.26136065
-0.04949787
-0.08039372
-0.00368127
0.05571819
0.18657650
-0.05106311
0.20861328
0.13099910
0.55632210
0.37549716
0.04156147
0.05038848
-0.31218931
0.58178711
0.09594712
-0.06380250
0.04813053
0.22079946
0.15581442
-0.01992758
-0.02229725
0.21901356
0.22598161
-0.06697832
0.02224534
0.41745818
-0.08039908
0.16698788
0.03153598
0.28929722
0.54177713
0.44134545
0.02453158
-0.11457147
0.42604819
0.41107330
0.36688489
0.32180032
0.30635190
0.28795058
-0.06726879
0.13114917
0.18487829
-0.16755338
-0.15188365
0.23391916
0.23141675
0.03476669
0.24225858
-0.33872467
0.10292713
-0.11749113
0.20803015
0.28127012
-0.01660850
-0.02386278
0.40144023
0.10259230
0.10306175
-0.05717041
0.03483901
0.15023480
0.13000457
0.28566501
0.15656437
0.18734795
0.13449061
-0.11320935
0.42391610
0.14050369
0.12501341
-0.02957933
0.03743257
0.27225399
-0.12177839
-0.06066604
0.46766040
-0.10238367
0.16217628
-0.15484969
-0.24055782
0.09710827
-0.13619523
0.18396181
-0.48627880
0.05211269
0.28110966
-0.02974948
-0.24401182
0.87227458
0.05590478
-0.20027047
0.47548050
0.13986327
0.58107698
-0.09544350
0.27462354
0.10548311
-0.17146023
0.33519563
0.08167493
-0.39855281
0.04898171
-0.47272587
0.32294187
-0.14063698
0.21899767
-0.20679061
-0.60104972
0.02729240
-0.41345224
0.11452094
-0.21555440
0.37238222
-0.29310340
0.67189723
0.01695547
0.02348132
0.02847076
-0.19358851
0.00210964
0.01294181
0.21734707
0.08695900
0.28679037
-0.39500064
-0.05619522
0.82862568
0.10077543
-0.21567328
-0.31033748
-0.52481574
0.25726497
0.14376378
0.19593590
-0.46898571
0.17751202
-0.17950994
-0.22210439
0.12683403
0.35555685
0.31189129
-0.39618516
-0.12859200
0.03082232
0.17717038
-0.00296484
-0.61886901
0.14702684
0.10640088
0.23024791
0.00823527
0.45489147
-0.45050269
0.29279995
0.33684334
0.57109451
0.35463780
0.11882433
0.19330062
0.11211336
-0.33704308
0.41810608
-0.40810084
-0.02727196
0.49653035
0.04180792
0.59177935
-0.19811209
-0.14248180
0.24880385
-0.08754878
0.10767426
0.75370175
-0.08924169
0.09469797
-0.17815477
0.28797129
0.31802982
-0.30915672
0.44382557
-0.30880043
0.66202688
0.21218964
-0.07443421
0.37828726
-0.55393565
-0.11477790
-0.38464677
0.06025977
0.24340490
-0.01681519
-0.24788740
0.60142982
0.39580238
-0.18352619
-0.58305752
1.06256390
-0.28644347
-0.11438978
-0.57605934
0.25213170
0.02768163
0.03338179
0.16618551
-0.00205121
0.08037413
0.04515177
-0.19362050
0.01190091
-0.23946205
0.19399033
-0.15637344
0.01718852
0.06953792
0.31040937
-0.08364586
0.23951028
-0.16402851
0.45013678
0.48414204
0.10605300
0.49431428
0.18898004
0.18119226
0.31274211
0.33953372
0.14343044
0.15962029
-0.01082400
-0.13916586
0.07864764
0.28757018
0.13893071
-0.15375614
0.01198075
0.52775133
0.05208350
-0.11036548
0.33020788
-0.15308252
0.10337421
0.04050589
0.25431597
0.21417011
0.02136129
0.03528851
0.18804923
0.18052632
-0.08425894
0.19733337
-0.03503026
0.10922578
-0.01970535
0.31944603
0.20585859
0.11810289
0.01889165
0.11301377
0.08507709
0.22725962
0.38024324
-0.12517098
0.20508438
0.06017139
0.33044142
0.23184751
0.09714435
-0.10122389
0.21930167
0.14979056
0.02183462
0.04622935
0.30743429
-0.19640008
-0.00675692
0.21475315
-0.05560020
0.03379018
0.10937952
0.29562205
0.19288465
-0.11940232
-0.01737071
-0.00439563
0.14327291
0.10942394
0.05900332
0.16989508
0.06992084
0.33496755
0.18688735
0.02526069
0.20885657
-0.00734749
0.51716644
-0.33576137
0.12135860
-0.10423057
0.23604980
-0.29065436
0.09889761
0.37557578
0.27230090
0.10149691
0.19769633
0.17368229
0.12098573
-0.05098523
0.11058394
0.14866664
-0.07607077
0.20722559
0.11640324
0.17250526
0.10327799
0.02981008
0.07280432
-0.03960123
0.02825980
-0.14954120
0.55623800
-0.09347692
-0.08133603
0.46834812
0.30135617
0.14855975
0.13944246
-0.07967603
-0.14205754
-0.24964628
0.20617001
0.42573735
-0.10601282
0.13648728
-0.47386122
-0.12183574
0.27440646
0.16279213
0.02944481
-0.30030608
0.35525915
0.43559903
0.24312854
-0.19117960
-0.10574088
0.44641307
0.35293859
0.09443671
0.26230365
0.60183638
0.15504025
-0.08574653
0.11884998
0.35411149
0.09348556
-0.04861335
0.07902288
-0.16903278
0.34841084
0.33852267
0.25082424
0.20753959
0.58863264
-0.08945441
0.39168656
0.10862657
0.16451313
0.09218006
0.53399962
0.19595800
-0.04433133
0.26499391
0.17483643
0.08915208
-0.13783978
0.10968064
-0.16745232
-0.10633385
0.10695776
0.38531816
0.10197971
0.12139350
0.33755583
-0.18070465
0.06708403
-0.13522120
0.16551949
0.27783406
0.01667576
0.03947676
0.34260812
0.10872279
0.17988205
0.22945563
0.24201220
-0.20699896
0.60674304
0.28503245
0.02726562
0.06039256
0.29897153
0.04311366
0.15014029
-0.00368338
-0.08276254
0.11677048
0.04107942
-0.08701313
0.37240088
-0.01597895
0.32366937
0.02613805
0.10478313
0.07024296
0.39630878
0.28933758
0.37397170
0.66885269
0.24697170
0.33812717
0.07661738
-0.27325514
0.15475124
0.06255555
0.60261261
0.24147144
-0.14188722
-0.24257588
0.24420404
0.14433572
-0.23947082
0.25768813
-0.00987237
0.37795267
0.24859266
0.17677045
-0.19271669
0.39435112
-0.05471759
0.35364202
0.08798423
0.24658857
0.05111214
0.47398606
0.21560898
0.36947396
0.18523291
-0.04391597
0.41828835
0.42751455
0.18862876
0.75002211
0.76779097
-0.03172148
0.28325438
0.24883968
0.31342271
0.07449262
0.22369629
0.19884154
0.22306649
-0.00454331
0.09452315
-0.05986910
0.09650021
0.00649349
0.04042640
-0.32101971
-0.03605235
-0.04925421
0.08358209
0.27189896
-0.01466535
-0.19729459
0.06096147
0.11961263
0.21771622
0.12896580
0.17990690
0.05537335
-0.00393401
0.21326688
0.14164005
0.14266762
0.11202732
0.07988701
0.20160760
0.03751451
0.02132669
0.11243276
0.29519239
0.20216900
-0.24554551
0.06717505
0.30696428
0.05715812
0.18816684
0.18251537
0.12894143
0.11175489
0.33976915
0.10986067
0.16614439
0.13466382
0.08108059
0.22980064
0.14803441
-0.05962068
0.03295111
0.10729395
0.06116030
-0.05403936
0.20786183
0.12317560
0.11196257
0.20245416
0.07697717
0.11095574
-0.05085678
0.14338045
0.06146146
0.04570111
-0.03681531
-0.17445137
0.35152012
0.02403567
0.07002398
-0.07740539
0.06798186
0.31982034
-0.12172358
-0.12286399
-0.10086466
0.03009998
-0.03496970
-0.07587430
0.09504208
0.05233461
0.25309700
-0.05160394
0.08078814
0.11051564
0.30825639
-0.08799004
-0.06192664
0.15944202
0.26675370
0.29475662
0.19742300
-0.04705541
0.19585761
0.08371243
0.24430585
-0.06117606
0.11916359
0.07902336
0.25340378
0.26264572
0.35658312
0.11971290
-0.15891141
0.04547551
-0.05898138
0.17835303
0.01885087
-0.06048390
0.01391746
0.23682874
0.08931683
0.08240131
0.09409481
-0.09597786
-0.08461162
-0.00421544
0.10006793
-0.02020897
0.24812925
0.12809648
0.04743436
0.34058478
0.02878720
0.02765504
-0.02260445
0.05103274
0.24109079
0.07874960
0.20892096
0.17185685
0.13580421
-0.11660053
-0.20517094
0.09119156
-0.28717446
0.10415546
0.19570823
-0.22243547
0.40558565
-0.09523275
0.27432621
0.10787747
0.02531433
-0.22808968
-0.06841499
-0.10881876
-0.05418885
0.19615160
-0.08420245
0.18397477
0.14272670
-0.06201702
0.25738913
-0.06829365
0.00175638
-0.10681860
-0.18912622
0.19378501
0.39268789
-0.24957393
0.20063569
-0.31475186
-0.12147179
-0.07275417
-0.03475367
0.15618995
-0.31053054
-0.23878841
0.07056506
-0.11501808
0.18452649
-0.23591007
0.23141204
-0.14755270
-0.19404906
-0.00297819
-0.19293429
0.24168289
-0.11238767
-0.09298184
0.43958443
-0.09611337
-0.12389812
-0.17964101
-0.07363946
-0.06886613
0.14132890
0.12421303
-0.05827606
-0.04187519
0.06183895
0.16577119
0.16714703
0.28356534
-0.33559933
0.00240671
0.08007430
-0.06240111
0.29984137
0.15583935
-0.01183481
-0.22498763
0.08266865
-0.14766380
0.01991489
-0.01324275
-0.14592576
0.12494782
0.42861366
0.22939968
0.05629792
-0.10069859
0.23859596
-0.08000352
0.07980195
-0.00367520
-0.21365499
-0.28560129
0.25623313
0.05029996
0.03188409
-0.34946007
-0.11485755
-0.08231884
-0.08738984
-0.01586401
0.07019785
-0.17832193
0.13707101
-0.12537837
0.25147766
-0.24341799
-0.14059196
0.22966784
-0.21826376
-0.03115302
-0.14423402
0.28646672
-0.03781712
-0.25990710
0.02509964
-0.00575852
0.09725192
-0.19103156
-0.13456230
0.00860021
-0.00279786
0.20973907
0.07688753
-0.03770700
0.03567992
0.31070286
0.30303895
-0.28359115
0.24273577
-0.10551128
-0.09763838
0.02460353
0.15261930
0.09838352
0.00157465
-0.05634466
-0.13053980
-0.10487898
-0.05116484
0.07393512
-0.08893012
0.01750978
0.01399140
-0.20468524
0.16693652
0.02656512
0.36636686
0.22244546
-0.01621689
0.21014760
0.01842182
0.17928147
-0.00056098
0.40149608
0.13168427
0.03145166
0.09450319
0.04349066
-0.19508892
0.23911192
0.08240337
-0.05159760
0.19495597
0.07854008
0.10725476
-0.10256204
0.03238543
0.00746793
-0.02268022
0.14209245
-0.01938856
0.18437885
-0.07993559
0.16761008
0.20671698
0.13812640
0.10624154
0.30355087
0.11290379
0.01384724
0.05063052
0.16327181
0.14335068
0.14949735
-0.00589271
-0.08043696
-0.12222599
0.02609550
0.10116704
-0.05390343
0.05604175
0.05068935
0.18964116
-0.05240939
0.24533810
0.09790850
0.02971819
0.24930981
-0.00970818
-0.18265678
0.39099786
-0.17144282
0.07426662
0.13370225
0.09022076
-0.03413315
0.07324067
0.18008174
0.19248928
0.13130189
0.04124925
0.05358444
-0.07262331
-0.08594733
0.23651128
-0.05311565
-0.05869681
-0.00822514
0.04922938
-0.08495349
0.31289354
-0.21196970
0.29375052
0.05317439
0.08189511
0.15288687
-0.15403286
-0.18223782
-0.12523104
0.07739490
0.03845325
-0.03510922
0.19114967
0.25315556
0.09961386
0.12149750
0.08153404
-0.01794489
-0.24389739
0.15132904
0.17058948
0.05270074
0.22189619
-0.01463380
-0.08058064
0.01349969
0.06140999
-0.06347863
0.12005873
0.09838871
0.11535474
0.36279994
0.14353383
-0.10625167
-0.04344678
0.02067237
0.12311889
-0.03661880
0.00513396
-0.00655410
-0.11192647
0.15882193
-0.12911111
0.21712430
0.18969722
-0.03726156
0.02381675
0.06552205
0.02386606
0.27680519
0.22917213
-0.02943989
0.01229197
-0.00397074
0.27945140
-0.10398868
0.01648527
0.33323044
0.20248488
-0.13493674
0.21823348
0.35462523
0.17962712
-0.02354695
-0.04011426
0.14760461
0.18361564
0.06435771
0.20177518
0.05886098
0.50936460
0.21259317
0.30971673
-0.06613806
0.17305198
-0.11278374
0.38067770
0.18273969
0.09619540
-0.20924798
0.07560631
0.05833206
-0.25114420
-0.07577760
-0.07531991
0.16181512
-0.06817954
-0.14515293
0.19105403
0.01863961
0.39399943
-0.07663883
0.04268567
0.07651865
0.23223785
0.26373878
0.27131969
-0.13844956
0.28246036
0.14778954
0.11065029
-0.06123390
0.21567217
0.06593734
0.40081677
0.14713953
0.09265424
0.10270011
0.42647558
0.06501555
0.16334778
0.16413681
-0.01874783
-0.07931612
0.13291547
0.21347716
0.23228471
0.01247784
0.13279536
-0.04650345
0.11975001
0.04813435
0.26609832
0.12868869
0.27615386
0.53425181
0.09142463
0.22763066
0.10382586
-0.09205326
0.15666109
-0.00335350
0.31657365
0.10282140
-0.02089699
-0.04723846
0.08898471
0.08036086
0.02749967
0.10884728
0.12136085
0.29378039
-0.03343571
0.17019410
-0.14741650
0.18521120
0.20673704
0.13835371
0.15481350
0.14943862
-0.13248844
0.28964555
-0.03267246
0.09206469
0.07309156
-0.02576232
0.42769647
0.13701323
0.22855191
0.29407611
0.41843903
-0.12437290
0.15925884
0.11778694
0.13186210
0.12099043
0.31184918
-0.04084262
0.24792990
-0.05392987
0.09851497
0.02497016
0.32785916
0.21249858
0.19034210
-0.62337261
0.48118231
0.20383114
0.03612505
0.23514023
0.27704570
0.17585224
0.19715156
0.85585612
0.23515762
0.43835488
0.22713943
0.38523304
-0.10124439
0.42966634
0.11165078
0.32232153
0.07570462
0.43951613
0.52785611
0.73903215
0.13962573
-0.06798312
0.70005864
0.38013706
-0.24519628
0.09469074
0.31031239
0.23112175
0.38061059
0.07785844
0.26693913
0.42593113
0.12979838
-0.08283076
0.25346580
0.05465055
0.44260150
0.29869106
0.41037294
0.06577358
-0.15684015
0.02293737
0.10140431
0.05060895
-0.09277909
-0.00487534
0.40637368
-0.08596763
0.10628244
0.32152098
-0.15428294
0.17417948
0.28681186
0.04427240
0.29983890
-0.28791127
0.51867121
0.08019614
-0.05057775
-0.27494386
0.29295725
0.14350244
-0.02576986
0.31174251
-0.34414062
-0.11084156
0.10347445
-0.01878393
0.57503873
0.04185191
0.48613939
-0.03978463
0.03618338
0.55298585
0.52519685
0.06962695
0.14070305
0.25254574
0.58193755
0.72307909
0.40314016
0.19838867
0.27148032
0.08513585
0.24845807
0.09377363
-0.01612115
-0.29617533
0.26630729
0.04312327
0.18633078
0.27858949
-0.40987194
0.18728894
-0.28367132
0.02369800
0.19003975
-0.00709513
0.32033184
0.68015975
-0.02699259
-0.06466834
0.38412639
-0.16215950
0.17289644
0.33366480
0.42250967
0.14118940
0.12692365
0.11755666
0.03353628
0.61893827
0.37314156
0.07569019
0.15226708
0.17931004
0.29441366
-0.25068191
-0.14302786
0.63994801
0.30334648
0.14616773
-0.27798331
0.05078118
-0.50724530
-0.02080541
0.33762109
-0.41336846
0.01638415
0.14070725
0.24666251
-0.22226733
0.61110443
0.01330328
0.52199477
0.34763083
0.73700404
0.29838178
-0.15118031
0.22275822
-0.11916785
0.94165415
0.62855113
-0.24717769
-0.18308742
-0.13694240
-0.82321364
-0.06591905
-0.40276396
0.42379788
-0.46662036
-0.49111623
-0.25922069
-0.58324701
-0.16651446
-0.50922853
0.65108311
-0.64394784
0.42926982
-0.57046902
0.56563520
0.24954621
-0.30991304
-0.08132472
-0.03596334
0.02222257
0.15237223
0.18460995
-0.62901282
-0.07024442
1.25683630
0.03774557
-0.24766280
-0.21563900
-0.24336454
0.27272674
0.11786333
0.53694725
-0.05360243
0.61170864
-0.02124489
-0.36924145
0.41181287
0.42112818
0.56400841
0.02529912
-0.30278361
0.24462278
0.09102251
0.18385670
-0.57111913
0.48214126
0.09815876
0.19884181
0.06924137
-0.07858539
-0.64798510
-0.15704376
0.58071572
0.58444196
0.29102755
0.46182606
0.50393480
0.23860078
-0.07412586
0.26408547
-0.20094007
0.05522777
0.75821108
-0.02579397
0.45128247
-0.64503127
-0.59720129
0.46292800
0.16520669
0.44175836
0.61752462
0.19565821
-0.32352436
-0.19068474
0.22426292
0.40321094
-0.53052610
0.41158986
-0.49829268
0.74097925
0.22965403
-0.57714456
0.27437812
-0.73618382
-0.05659779
-0.21288669
-0.09914181
0.26123214
0.31991848
0.10355335
0.59016263
-0.06975542
-0.01727407
-0.22854050
0.69276804
-0.31268260
0.08504284
-0.14316593
0.20384768
-0.05213711
0.46599084
0.17036359
0.05017267
-0.17099105
0.13047910
-0.24332723
0.17481002
-0.22176684
0.00326551
-0.06159589
-0.27161470
-0.05780217
-0.10932966
-0.11891413
0.22448085
-0.15454473
0.90555465
0.14905033
0.17345738
0.24634886
0.18574035
0.29798129
0.24458191
0.20054312
0.23423299
-0.06228448
-0.16490315
0.07087132
0.11226877
0.33092630
0.35177538
0.21592729
-0.11165463
0.49384093
0.22086699
-0.29702246
0.11303831
-0.02920122
-0.39717045
-0.12535182
0.15366927
0.40535122
0.09731425
0.01717905
0.23308897
0.53215837
0.25531444
0.33683342
0.13239907
0.17745070
0.08291347
0.18603027
0.34291869
0.36143708
-0.05959838
-0.02430471
-0.03386032
0.14763851
0.50046277
-0.16848545
0.18711552
-0.14940791
0.38392475
0.23565580
0.46829572
-0.04319065
0.26176876
0.34805122
-0.18150267
0.05955116
0.65498036
-0.52677530
-0.00260425
0.21870133
-0.07507438
-0.17256711
-0.22246383
0.30324835
0.33558151
-0.11798567
0.08359629
0.00981664
0.00970767
-0.06812879
0.09168421
0.12302849
0.12224732
0.37171823
0.14759685
-0.10537416
0.38755125
0.01675335
0.62654978
-0.18840460
-0.03568961
-0.07989202
-0.12351690
0.12085013
-0.13807063
0.67905158
-0.14896035
-0.11058681
0.23365647
0.13957202
0.00151609
0.29947728
0.10885561
-0.06857647
0.02880409
0.29927990
0.16025311
0.30472854
0.05297355
0.04189239
-0.31616741
0.18669268
-0.03437464
-0.26514068
0.22121233
0.07556983
-0.02160710
0.45266247
0.42949277
0.01802908
0.08880016
-0.18140210
-0.09787045
-0.33872429
0.22067051
0.01563501
-0.16012959
0.27537978
-0.07360392
0.24271046
0.29256091
0.25576729
0.11251380
-0.26403901
0.09019559
0.62129098
0.35140333
0.00149331
0.12809467
0.41135767
0.41533625
-0.02990302
0.17900150
0.76296312
0.36459246
0.09850414
0.13658439
0.60897028
0.00827227
0.20862803
0.02269452
0.00927452
0.34778821
0.37321216
0.15292209
0.48393238
1.10948813
0.17220241
0.62086791
0.07961303
0.14262888
0.19328389
0.51930791
0.30649227
-0.35606766
0.16923045
0.38247737
0.09399306
-0.08914405
-0.13912645
-0.31461090
0.30918279
0.32146704
0.15028562
0.19489394
0.23075280
0.66728652
0.06012552
-0.03842983
-0.28261432
0.27604699
0.33469000
0.17494223
-0.10248819
0.33524308
0.29599294
0.01993900
0.07069996
0.39541298
-0.02455886
0.64569902
0.53091568
0.03871052
0.27969992
0.65832758
-0.06285319
0.05072226
0.08682183
-0.35995680
-0.04823921
0.13453946
0.09174102
0.34360027
-0.10188537
0.13889396
0.02070529
0.26660126
0.02361633
0.33460277
0.35486060
0.58705354
0.81872028
0.12560317
0.40241617
0.36980295
-0.13497390
0.19122259
0.23518744
0.66946554
0.31551704
0.15982983
-0.39508513
0.35267216
0.02321198
-0.11960359
0.09565254
0.15094112
0.33148462
0.06333406
0.51805371
-0.22442523
0.88657194
0.24272570
0.45931059
0.24058741
0.25079489
0.16957460
0.21671146
0.22540751
0.04857217
0.21488346
-0.14300676
0.32391572
0.41946596
0.05824488
0.62598455
0.79414058
-0.09337363
0.36506203
0.41801122
0.37836879
-0.12338386
0.09615994
-0.04261157
0.11091469
-0.09316810
0.10380596
0.03732249
0.10603226
0.01622569
0.20832619
-0.52264744
0.21547776
-0.00245754
-0.05707801
0.28043979
0.02745631
-0.01079447
0.01197628
0.28362262
0.11818616
0.15626121
0.02488913
0.12416478
-0.02609434
0.27680004
0.12283909
0.09695308
0.03080627
0.08823665
0.08368426
0.19035420
0.02859027
0.15401149
0.46930882
0.32934406
-0.00665307
0.01229612
0.36714548
0.22468442
0.29661232
0.05061309
0.04862634
0.19685249
0.31684604
-0.00958055
0.25526354
0.14516433
0.37198845
0.28570384
0.15959391
-0.18207450
-0.26007777
-0.12538828
0.03384897
0.02042727
0.06949404
-0.10841259
0.17454405
0.03218879
0.09565131
0.14499047
-0.23864523
0.16937833
-0.02133962
0.04821543
0.05356973
0.03578394
0.43892148
0.06173384
-0.19427299
-0.28291437
0.09929270
0.12040550
-0.15939887
-0.10662246
-0.18803695
-0.02629979
0.07981812
-0.11846520
0.31827343
-0.01961741
0.25490034
-0.14518680
-0.06978390
0.04574488
0.32158741
0.12673944
0.01737634
0.13336779
0.38111326
0.47536293
0.10773882
-0.10278809
0.27593032
0.05933002
0.31605050
-0.02272357
0.13202895
0.09600672
0.30062339
0.21161096
0.29379728
0.07366431
-0.18524730
0.14795434
-0.03073934
0.00224877
0.02121426
-0.03163907
-0.02679161
0.50024956
-0.11448286
0.10737150
0.13154146
-0.04737044
0.10361364
0.08515365
0.17059778
-0.14226192
0.04622759
0.09486325
0.07206630
0.43165636
0.09319590
0.09261723
0.25031164
0.11823357
0.17571494
-0.03927831
0.13081816
0.33325842
0.13340908
-0.30075324
-0.24538693
0.06051461
-0.32087341
0.09676666
0.45912027
-0.09849450
0.38997403
-0.20557593
0.25371572
-0.00926261
0.13947998
-0.07512464
0.05059389
-0.11573803
0.16845846
0.22170530
-0.31436998
0.16923991
-0.03579839
0.31040689
0.52129829
-0.16770194
0.00433720
-0.13070247
-0.26115403
0.21518156
0.16788633
-0.05575673
0.27621737
-0.26151127
-0.24698408
-0.11465845
-0.20804696
0.00663158
-0.46624994
-0.26316470
0.07525183
-0.27181911
0.47250408
-0.13528749
-0.06355758
-0.08888080
-0.25446007
0.12225306
-0.13762327
0.14969270
-0.08157637
-0.03398661
0.79802209
-0.20850582
-0.07481033
-0.18446377
-0.24883321
0.09463906
0.16381854
0.28353733
-0.08146352
0.20479870
0.09232603
0.03443869
0.06785977
0.46084645
-0.47168726
0.18816479
-0.07981563
0.08651254
0.36307916
0.18089989
-0.30840349
0.10088322
-0.23180185
-0.04023518
-0.00752298
0.01001056
-0.35728526
-0.01991991
0.35847622
0.24071907
0.26431873
-0.00994856
0.33167508
-0.13495968
0.10216036
-0.04772734
-0.19252765
-0.20415841
0.21773863
0.11557002
0.05991764
-0.36733791
-0.13624112
0.09218700
-0.05515264
0.13186625
-0.09686021
-0.30416211
-0.11613411
-0.06568279
0.28600290
-0.18542521
-0.19945027
0.23199432
-0.18644409
-0.13750537
-0.18742333
0.11187960
0.32531351
-0.46898213
-0.01943473
0.16973291
-0.00146955
-0.00433890
-0.22860622
0.21540290
0.20020787
0.21790738
0.21503931
0.12398832
0.13413580
0.04308256
0.53970999
-0.22015631
0.16090243
-0.00594862
0.07444239
0.19908927
0.22108737
0.20296986
-0.02080889
-0.26538375
0.01203802
-0.22006404
0.18106498
0.08707505
-0.16205835
-0.25823760
-0.25217450
-0.16120076
0.09611218
-0.02163530
0.39494932
0.02299630
0.10925261
0.10424618
0.11678147
0.27586684
0.10766997
0.26986167
0.10809103
-0.20040195
-0.10920059
-0.00986457
-0.01067532
-0.03060230
0.18018010
0.17735198
-0.00632222
0.16516040
0.17097035
-0.10086748
0.18371260
-0.02353075
-0.19049488
0.05661079
0.00665621
0.45190376
0.02047508
-0.08407144
0.19699594
0.32055563
0.11295612
0.17929073
0.04047415
0.01162670
0.13256870
0.28631061
0.23222598
0.10760100
-0.14129393
-0.00359490
-0.20070827
0.09100194
0.25782099
-0.18554606
0.25248241
-0.08633335
0.19488350
0.04267167
0.16151467
-0.05949298
0.23393276
0.47494322
-0.12354292
-0.05852786
0.55017400
-0.13769482
0.10868629
0.01317851
0.25216132
-0.06871907
-0.11860432
0.25707969
0.06180722
-0.16821033
-0.02107368
-0.02083371
0.00715447
-0.01206784
0.33064228
-0.13159536
-0.10569079
0.18189065
-0.13858190
-0.13234983
0.16880684
-0.19875295
0.15166295
0.07785242
0.11700954
-0.07406712
-0.26556829
-0.02229081
-0.09424590
0.43075427
-0.10754347
0.04923618
-0.04046338
0.14953265
0.02518891
0.11574773
0.10591412
-0.01422695
-0.22631665
0.38364181
0.17399153
0.15754841
0.23403272
-0.00289694
0.03386363
0.18664461
-0.12742458
-0.14025652
0.07804991
0.14607972
-0.04566477
0.32786974
0.23258673
-0.06960390
-0.07559422
-0.26276061
-0.03880265
-0.18830237
-0.00325063
-0.11972495
-0.03915989
0.15367612
-0.00435027
0.14017498
0.30788180
0.02144421
0.16333756
-0.18234882
0.07820871
0.29875898
0.11300261
-0.06515169
0.15514830
0.15884085
0.15681618
-0.07924069
-0.14479019
0.59664190
0.25265700
-0.01080519
0.25362957
0.19414617
0.08791166
0.07971194
-0.12403835
0.16635166
0.20106101
0.13187024
0.07539392
0.06277546
0.56888258
0.19767439
0.33512580
-0.06923678
0.20180728
-0.12511203
0.21870476
0.14358974
0.00874005
-0.13049509
0.29040426
0.04305315
-0.35290051
-0.14884847
-0.10048185
0.10298920
0.10900017
-0.00138185
0.09149889
-0.05420760
0.44919619
-0.01261365
-0.04110269
0.01793894
0.23240067
0.16733871
0.26075867
-0.22113511
0.31872225
0.09521383
-0.02030456
-0.08740637
0.54058665
-0.00317175
0.32963592
0.23821750
-0.12064943
-0.17250878
0.58593780
-0.05692077
0.02034134
-0.04054061
-0.05917564
-0.03009551
0.04429950
0.22217488
0.18586379
-0.08142551
0.19357523
0.09009427
0.15711798
-0.03922793
0.07090614
0.00537126
0.38582706
0.66755348
0.03413586
0.28408548
0.17940795
-0.03169515
0.47230044
0.23539951
0.50744891
0.00963394
-0.02446327
-0.28340080
0.08820723
0.09381176
-0.01773390
0.00300967
0.10739858
0.05910961
0.05055312
0.23527957
-0.00487333
0.24169672
0.07302511
0.18326274
0.22148332
0.11226095
0.03036376
0.29850608
0.23615173
-0.08668218
0.05831661
-0.27721399
0.39702004
0.23677030
0.31384346
0.42287907
0.43337679
-0.23788436
0.19748989
0.13539100
0.18720327
0.12140653
0.09826978
0.07058941
-0.12384622
0.07687458
0.13287216
0.08094500
0.11822201
-0.01388967
0.25669509
-0.42809689
0.39247358
0.14468412
0.01758459
0.18714897
0.06471228
0.06705970
0.09433775
0.47743294
0.12050273
0.13008423
0.23719753
0.23636013
-0.06647994
0.21415862
0.11780316
0.01876661
-0.10746126
0.09802678
0.28218335
0.36708808
0.03815512
-0.04781988
0.70106786
0.13188319
-0.03049956
-0.05275881
0.36599281
0.33206499
0.41732243
0.17652692
0.23897363
0.14496957
0.22618823
-0.00274438
0.03697409
-0.09019888
0.29323539
0.28440306
0.32272547
-0.10025655
-0.12993604
0.05705846
0.16035680
0.03314017
-0.18676725
-0.10452987
0.21777104
-0.03528991
0.03776726
0.22453411
-0.14660570
0.31739739
0.25493565
-0.09878405
0.08698760
-0.12734488
0.50595891
-0.04209627
-0.14595869
-0.22699973
0.45815170
0.02137238
-0.09513214
0.02440659
-0.09451423
0.01052667
0.00469447
-0.04760172
0.41446745
-0.15603708
0.22033045
-0.00239627
0.23450184
0.26178172
0.28300601
0.16520119
0.02501155
0.06447151
0.41621420
0.56595284
0.24465585
0.25928262
0.33640882
0.02918882
0.48969895
0.15926164
0.07248506
-0.12047164
0.36156797
0.11169315
0.19067734
0.08371297
-0.06353185
0.04455277
-0.15281415
-0.05727137
0.09497317
0.06137083
-0.06752102
0.45807758
-0.06419577
0.02689141
-0.01024176
0.07700883
0.32474729
0.18898730
0.18908660
-0.15465635
0.15078135
0.05001613
0.01565263
0.37945348
0.15444267
-0.02057278
0.15794420
0.20588455
0.12328933
-0.22855246
-0.08221652
0.47009289
0.00154117
-0.29253435
-0.14113465
-0.08779752
-0.24345897
0.07501468
0.31061369
-0.21679117
0.23254156
0.28338563
0.47430661
-0.33211365
0.62970817
-0.02748113
0.16411874
0.45936108
0.33578962
0.33369684
-0.33767158
0.20035304
0.04138890
0.29830822
0.50496733
-0.17282587
-0.22079456
-0.02434355
-0.27562216
0.17460781
-0.18674213
0.17479645
-0.35411066
-0.47240791
-0.36296251
-0.16795468
0.03087516
0.02528015
0.38255125
-0.47251812
0.25717840
-0.26671305
0.02819976
0.17301732
-0.35020983
0.06700630
0.11405534
0.28353071
0.03443251
0.37086198
-0.31545448
0.09795439
0.92931253
0.19286083
-0.19085224
-0.20410600
-0.49646264
0.24344519
-0.17784798
0.47621042
-0.47487488
0.36273071
-0.15445429
-0.30781490
0.04543670
0.47535866
0.45475784
-0.22422864
-0.07154040
0.28933144
0.08988953
-0.00710078
-0.58022720
0.14664048
-0.13064566
-0.02313384
-0.09827470
0.04461862
-0.58309507
0.16414538
0.35757568
0.24429853
0.42078474
-0.14642349
0.25277677
0.06587953
-0.32802430
0.23795353
-0.42106417
0.13658096
0.31220824
-0.00616922
0.03915165
-0.41000062
-0.24084419
0.06342901
0.39773098
0.18048441
0.37985322
-0.19954130
-0.10656404
-0.21506372
0.33764791
0.29923302
-0.44542569
0.33167216
-0.26909977
0.51148319
0.18088020
-0.14895615
0.16024214
-0.65198368
-0.19878714
0.04827939
0.08144528
0.33461562
-0.08159062
0.23060372
0.63222086
-0.03440769
-0.09014490
-0.10859635
0.64226520
-0.29737297
0.20683794
-0.36743373
0.23669004
-0.00577181
0.14175397
0.24153507
0.15952167
0.09067656
0.14962804
-0.25950205
0.06902180
-0.34751612
0.05017894
-0.11303581
-0.22214039
-0.00136131
-0.18854900
-0.06486485
0.17177859
-0.02756047
0.22278631
0.31665453
0.20984036
0.24121368
0.05883028
0.18451016
0.24689192
0.22769871
0.01834181
-0.15803935
-0.16484560
-0.01375735
0.01972928
0.24994510
0.10682828
0.26985046
0.03583772
0.44305247
0.25099900
-0.24800138
0.40825275
-0.27204356
-0.23248157
0.09698256
-0.09786133
0.24664970
0.28229225
0.01333405
0.11380633
0.29168260
0.17419571
0.10741967
0.04787693
0.16823646
0.15580493
0.29314050
0.41363761
-0.11028898
-0.00271217
0.01207772
-0.14517033
0.10241039
0.37360543
-0.21735893
0.23132585
0.04460964
0.07734746
0.07404570
0.23788950
0.10860285
0.35650736
0.31213123
-0.10985170
0.05968344
0.44796628
-0.27015883
0.09295060
-0.22888759
0.11206544
-0.03541421
-0.10113095
0.19108580
0.10641117
-0.19722007
0.13409883
-0.07840676
0.02135958
0.11612681
0.05106951
-0.04684308
-0.08288452
0.29894835
-0.06399440
-0.16242102
0.04878459
0.03311795
0.24911550
-0.09833755
0.09179099
-0.15046181
-0.20171849
0.09745763
-0.07959941
0.49040958
-0.01407503
-0.06282150
0.00607707
0.20446414
0.02435812
0.03482619
0.21578766
0.07347962
-0.20838508
0.27899945
0.32842645
0.37494022
0.21208751
0.00632163
0.00222586
-0.01489100
-0.08710860
-0.05512610
0.24910495
0.08546383
0.09275282
0.43965021
0.02798042
-0.09330601
0.10932744
-0.31910372
-0.27424681
-0.30665448
0.26583111
0.04791857
-0.02908854
0.07559308
-0.27652588
-0.11512791
0.36093682
0.11238832
0.13127139
-0.05268552
0.17321566
0.42509162
0.05438270
-0.11184226
0.23552129
0.26860175
0.25954419
0.12547891
0.09075338
0.60663408
0.18544978
0.01351198
0.14262755
0.26560217
0.01969064
0.29363245
0.05034081
0.00013512
0.28782409
0.39146918
0.23370819
0.26054448
0.68457443
0.06145765
0.12108593
-0.06211847
0.15822200
0.11445131
0.28294685
0.07287868
0.00483883
0.13642927
0.29098788
0.21334964
-0.11504572
0.06468789
-0.00537460
-0.01477716
0.12542552
0.19045626
0.08245717
0.02218106
0.50704408
-0.11476531
-0.06542661
-0.00688309
0.20116742
0.25982288
0.01699736
-0.04297400
0.40966302
0.11953503
0.02367376
0.07609050
0.58080411
-0.08048382
0.29840732
0.46591064
-0.19152391
-0.02469618
0.57560515
0.12390654
0.19048309
-0.07885947
-0.20169383
-0.09114734
-0.03183892
0.09081170
0.28556359
-0.08589680
0.23545286
0.03737015
0.04412898
0.03094025
0.33465844
0.02103262
0.21972251
0.80965555
0.14204998
0.24136105
0.15492420
-0.27776372
0.33322570
0.18015401
0.55628538
0.17458025
0.00735296
-0.21833676
0.17951792
0.02153683
-0.06441437
0.13235579
0.21278284
0.08001751
0.23306452
0.20181197
-0.13267836
0.38751793
0.08210292
0.31327927
0.12549561
0.29434425
0.14938331
0.25788561
0.39141396
0.09733824
0.34467787
-0.16623160
0.56520319
0.19417807
0.25324720
0.67914963
0.45451543
-0.39211366
0.16396645
0.12762828
0.04524042
0.01692846
0.26685864
-0.08417644
0.19105916
0.09693911
0.15476927
-0.04032166
0.26880234
0.07798771
0.19179654
-0.34022337
0.25966081
0.05502696
0.19889909
0.17077129
0.28045499
0.12229468
0.36707798
0.53012556
0.31482658
0.34920600
0.20793064
0.18821746
0.01762729
0.29290935
0.22008683
0.26112944
0.00357139
0.33013487
0.43908480
0.48729020
0.04242463
0.18724079
0.54319745
0.33036891
-0.27147782
0.12516464
0.30217052
0.04469819
0.33139989
0.10387435
0.30979192
0.12779617
0.08509167
0.10719790
0.24185255
-0.05581981
0.28425425
0.27733284
0.12577866
-0.01591715
-0.17317313
-0.02823070
0.08316624
-0.07906324
0.02038886
0.18890406
0.29360348
0.17444123
0.21986687
0.12089107
0.05429282
0.32324970
0.09867208
-0.01346658
0.13191688
-0.34830642
0.48985720
0.09638452
-0.03261231
-0.16794522
0.09963781
0.16811705
0.07144870
0.07654669
-0.09250081
-0.03533546
-0.02513550
0.05156625
0.32212532
0.07269409
0.29617995
-0.07310743
-0.11726166
0.31577602
0.33252397
-0.00664021
-0.00047004
0.31080419
0.39385810
0.28482386
0.23287828
0.15179357
0.27835259
-0.04360916
-0.00096216
0.03086338
-0.09304414
-0.05743106
0.08136885
0.18877909
0.09211388
0.29267213
-0.26197135
0.14083430
-0.13365699
0.04073028
0.23257421
0.08331908
0.10114522
0.49943283
0.15564762
0.10070697
0.26300627
0.00960238
0.09851606
0.20830931
0.33309522
0.00630162
0.25899601
0.01219449
-0.06951904
0.48684776
0.29725349
0.16693951
-0.02383725
0.10087120
0.20550844
-0.03595223
0.06356600
0.32883945
0.07205509
0.26977819
-0.25902233
-0.13367206
-0.21008959
0.14420682
0.33947685
-0.39966524
0.02726958
0.04576100
-0.07516923
-0.02517192
0.39347383
-0.14842254
0.01756706
0.12003639
0.31233519
0.45070451
-0.07832177
0.09461381
-0.18519129
0.20381786
0.62455583
-0.27498734
-0.16704901
0.11798747
-0.61181694
-0.01323318
-0.27401444
0.16863592
-0.11884461
-0.50581837
-0.13691592
-0.49740034
-0.04700384
-0.38942254
-0.17738208
-0.35932165
0.41811642
-0.34572956
0.37353396
-0.05244519
0.04321473
-0.00750559
-0.17238417
0.03881330
0.12165578
0.06235582
-0.32718521
-0.15714750
0.85137635
-0.14231130
-0.17242964
-0.30596161
-0.11508326
0.15244664
0.25627875
0.20295185
0.01165449
0.29626730
-0.22608784
-0.24779871
0.32110444
0.19468156
-0.07683767
0.04657308
-0.11688982
0.05218402
0.24870789
0.20105298
-0.41033497
0.27738121
0.18833806
0.17019868
0.18298815
0.17368653
-0.31110042
0.09109828
0.28454447
0.45188713
0.16362061
0.32852322
0.39478374
0.07912713
0.04851191
0.18130915
-0.02613478
-0.16545655
0.58825749
-0.08185576
0.41689238
-0.45277971
-0.26938930
0.39031959
-0.21358113
0.23805660
0.50606275
0.10989537
-0.01608243
-0.18790966
0.08747237
0.00423048
-0.25104034
0.35177451
-0.22527997
0.46411031
0.09821755
-0.23238732
0.44091871
-0.56161284
0.12458794
-0.16754027
0.15303965
0.01673190
0.21519414
-0.24915567
0.24017839
0.19276348
-0.06951889
-0.18001612
0.44117320
-0.06891721
0.07384260
-0.24837805
0.24260834
-0.01836458
0.14597724
0.13218044
-0.04898034
0.11718419
-0.00288634
-0.14413784
-0.01322658
-0.10589416
0.35089415
0.06317660
0.14796989
-0.16722156
0.13643767
-0.26161230
0.16483553
0.00643460
0.75605029
0.21220979
0.05561635
0.33222491
0.06946052
0.23371829
0.13538520
0.16159008
0.10152476
-0.09089759
0.14457494
0.11625216
0.02422227
0.25085631
0.16871816
0.02234634
-0.14809534
0.33261561
0.10884612
-0.19569205
0.08722327
-0.12371743
-0.05726999
-0.16533215
0.17945646
0.15144484
-0.07159336
-0.04271166
0.16335142
0.18948981
0.06618500
0.33234820
0.11367264
0.18915097
-0.12087765
0.21756685
0.02431584
0.58516133
-0.04927531
0.08139721
0.03203473
0.21361239
0.16820744
-0.15825699
0.08647213
-0.07838311
0.40164310
0.32319635
0.29073024
-0.04518384
0.36648646
0.22236340
0.05166011
0.00834561
0.33820522
-0.15299074
-0.07601020
0.45957831
-0.07217845
0.15194803
0.01260366
0.26195243
0.03807636
-0.12121516
0.03842531
-0.03657420
0.08081344
-0.16033739
0.05680482
0.28674459
0.11920126
0.22591037
-0.07306971
-0.06003657
0.31389701
-0.10555020
0.48572955
-0.23222125
0.14614029
-0.01259403
0.15769784
0.01594550
0.12101860
0.48188695
0.08753548
0.04187059
0.28375509
0.06227026
-0.03326547
0.26433003
-0.02321627
0.04433724
0.05609991
0.28599447
0.05061686
0.19599263
0.23036791
0.20408452
-0.10902273
0.08298273
-0.01618915
-0.02597410
0.34222251
0.08537593
-0.15734027
0.31149113
0.52890241
0.08496046
-0.07080930
0.02515784
-0.05977456
-0.26486939
-0.08737934
0.20273539
-0.06620391
0.23735096
-0.18966646
0.15463999
0.15352556
0.11450515
0.10879245
-0.22324875
0.10446175
0.43333760
0.21897539
0.10110831
-0.22067083
0.34564072
0.40500537
-0.06410639
0.16287927
0.62325275
0.36160037
0.16376539
0.12931572
0.36223695
0.13746476
0.03808362
0.02446255
-0.09447197
0.07754198
0.20031837
0.09366156
0.08640680
0.50705642
0.19272590
0.58451933
0.07973054
0.16564459
-0.00116617
0.39266574
0.17952669
-0.16800494
0.12528430
0.24873295
-0.06001314
-0.17903332
-0.22762236
-0.20316395
0.23268038
0.33471683
0.32755342
0.07485123
-0.02673725
0.38813224
-0.08608259
0.06711798
-0.18161741
0.14689690
0.42589328
0.20014027
0.02458101
0.41111538
0.20925499
0.08971274
0.02584925
0.22941151
-0.05701727
0.59912121
0.28974548
0.19473815
0.20873477
0.42420524
-0.05929185
-0.00906279
0.09388934
-0.02082661
0.11585521
0.18882175
-0.18101826
0.35888267
-0.07221522
0.14099361
0.05004241
0.21648705
0.02077820
0.22096103
0.30030987
0.36600533
0.49560523
-0.08830864
0.32225883
0.07599287
-0.19667475
0.13283361
0.23655248
0.45313093
0.32584158
0.00556082
-0.12712017
0.35707507
0.25409529
-0.19849995
0.20174748
0.17482924
0.26501799
0.09216429
0.34619725
-0.06537607
0.55692631
0.05580674
0.28553450
0.24128166
0.16902347
0.00559516
0.27526167
0.17929380
0.03141503
0.01306778
-0.09617493
0.23210992
0.41225973
0.06148748
0.44033527
0.69445729
-0.06073550
0.15823886
0.18241000
0.25711814
0.03434825
0.25368759
-0.12570626
0.13821337
-0.02028862
0.19180274
-0.00051341
0.29535869
0.01609237
0.15701671
-0.56521100
0.23310813
0.02944149
0.15924662
0.27413720
0.15607502
0.13962588
0.16760816
0.40347108
0.16309126
0.18832406
0.17962226
0.13535362
0.03439531
0.39435393
0.17125578
0.30932748
0.03677617
0.25846410
0.33248445
0.50238299
0.28043553
0.22642891
0.53312647
0.23829646
-0.20033135
0.06953191
0.38519299
0.22018085
0.25030038
-0.10687158
0.22478780
0.22330648
0.30750856
-0.03640073
0.24620898
0.06896926
0.51282901
0.21518509
0.18640614
-0.08422618
-0.25409517
-0.12620936
0.12420066
0.04619249
0.01489314
0.08214941
0.23899399
0.07139044
0.14729366
0.11662161
-0.16502699
0.31636262
0.09153211
0.18603325
0.04649184
-0.18915620
0.40642858
0.18519114
-0.08213562
-0.37768036
0.20392683
0.22179097
-0.02429247
-0.08809288
-0.20767826
-0.06854995
0.10504490
0.00481508
0.38781655
-0.06919182
0.27924088
-0.19721058
-0.09397998
0.16568278
0.39437452
0.02330207
0.01908322
0.33575031
0.44092464
0.52504039
0.07327404
-0.08330525
0.30611897
-0.00773099
0.16545156
0.01044574
0.07363843
0.01021481
0.29705724
0.28263268
0.26636311
0.14167853
-0.31679997
0.22898352
-0.17708416
0.04932396
0.01414549
-0.02695318
0.03165504
0.54596204
0.03667083
0.13442782
0.13848822
-0.16770752
-0.00144486
0.06372689
0.50817585
-0.05416470
0.20985956
0.04024577
-0.11324882
0.43451545
0.18967056
0.25982830
0.08477017
0.12998907
0.29146561
-0.03664627
-0.01858556
0.35113633
0.22634341
-0.02543123
-0.33609307
-0.01097030
-0.17691298
0.02694092
0.36968189
-0.25586355
0.25564376
-0.06438275
-0.00230295
0.02649990
0.30114329
0.03487218
0.02657926
-0.01240960
0.26055074
0.39536399
-0.10059246
0.21951792
-0.14919630
0.21479449
0.58326948
-0.15139040
-0.18625887
-0.11448474
-0.37750691
0.05176867
0.08800235
0.10849692
0.05379166
-0.45124125
-0.01720961
-0.46064872
-0.10357781
-0.33275875
-0.36475879
-0.36233175
0.39762434
-0.33706895
0.47434384
-0.14759684
-0.14233702
-0.23214307
-0.26811472
0.13347925
-0.10830286
0.11420929
-0.16107266
-0.20865004
1.14142120
-0.21590653
-0.15788072
-0.36185724
-0.37422106
0.09031913
0.30851805
0.28273937
0.11495243
0.33169064
-0.06522202
-0.07219900
0.24841297
0.36086440
-0.32234547
0.23502140
-0.12884025
-0.08093770
0.42844015
0.06476822
-0.59001732
0.31078562
-0.15902583
-0.05801195
0.17298605
0.03021147
-0.33649635
0.16056220
0.50776607
0.55495954
0.27896965
0.19234869
0.54515535
-0.09213397
0.01119967
0.11177166
-0.14565614
-0.30899349
0.55813926
0.05794243
0.37757728
-0.39885014
-0.22470368
0.30381986
-0.36604723
0.10252725
0.24226981
-0.12584798
-0.10030743
-0.05120605
0.22343633
0.01888322
-0.23714900
0.36514959
-0.34654048
0.17535830
0.03535987
-0.17921372
0.41686854
-0.59643710
-0.01265288
-0.15830655
0.00339923
-0.04164993
-0.09257023
0.06879109
0.29438892
0.26213264
0.02213499
0.04288797
0.47617018
-0.06931853
0.53298563
-0.39723745
0.16747817
-0.01553892
0.17050241
0.07314269
0.00701645
0.26971197
0.02679994
-0.31434074
0.12817667
-0.27792943
0.27444872
0.09153439
0.03514414
-0.25271440
0.00380779
-0.04175178
0.04410743
-0.20786195
0.73612756
0.02127787
-0.02837031
0.31818822
0.31940630
0.14152096
0.02955687
0.32193804
0.20976096
-0.11902849
-0.17093915
0.11218871
0.00470887
0.21737111
0.17013389
0.07430555
-0.10696334
0.26405287
0.15673855
-0.14098497
0.05695911
0.09640514
-0.27014682
-0.10623576
-0.01665732
0.44884127
-0.16114429
-0.00601172
0.15145046
0.37479860
0.16925538
0.25782549
0.07966830
0.13056400
0.12569889
0.27633399
0.16033766
0.38114813
-0.15010203
0.08058961
-0.02567301
0.30024090
0.21883214
-0.19603635
0.25936666
-0.10641815
0.40481764
0.23337702
0.17230654
-0.09982980
0.34519184
0.36462989
0.13177592
0.13304435
0.55651474
-0.10281391
0.05283932
0.37042120
0.15280442
0.05346243
-0.12985624
0.31808162
0.08805728
-0.12939806
0.05752647
-0.03110583
0.17935577
-0.13873088
0.38285333
-0.04466105
-0.11010266
0.33495760
-0.07409728
-0.03731473
0.18655312
-0.20303036
0.38266653
-0.00187437
0.13096423
-0.05453394
-0.18385436
0.01142792
-0.05106474
0.43095803
-0.01006880
0.08756346
0.04255091
0.13418640
0.12602112
0.25927451
0.23459078
0.02011343
-0.00310058
0.50976807
0.10724824
0.01997682
0.18193683
-0.07139478
-0.07453705
0.19133465
-0.10073556
-0.08986191
0.26110715
0.11056352
-0.11013071
0.24951571
0.51394320
0.06626865
0.00637037
-0.06737946
-0.03247701
-0.08206183
-0.13549842
-0.01660669
-0.09239371
0.13974264
-0.11367773
0.29386225
0.30870536
0.11776567
0.28135312
-0.20963737
0.06925435
0.43416175
0.13657659
0.11363131
0.11431706
0.36132249
0.32882103
-0.06076932
-0.09211503
0.58839011
0.25152129
-0.03182006
0.29158869
0.31266528
0.26594555
0.00067366
-0.08444575
0.08512399
0.25742185
0.15035787
0.02676544
0.19654827
0.69657135
0.32023886
0.54831272
0.09398660
0.37346792
-0.05031293
0.36516187
0.30607367
-0.15813997
0.11916541
0.33066592
-0.05475412
-0.12626991
-0.25588980
-0.09614516
0.22583728
0.23191816
0.16033028
0.12380790
-0.09366189
0.53396559
-0.20475015
-0.11061154
-0.11151519
0.15686677
0.23881711
0.30905822
-0.25031987
0.23094615
0.17514886
-0.01324211
0.18577483
0.35257760
-0.17912041
0.44462088
0.34865147
0.05906133
-0.12598166
0.55035257
-0.11971778
-0.00896125
-0.06540688
0.04974865
0.07418702
0.13923357
0.11709566
0.54652208
-0.02907156
0.23658460
0.16965204
0.24415143
0.03787680
0.11840028
0.31045014
0.56375790
0.81053007
0.04397485
0.36584523
0.20971215
-0.06311809
0.24307404
0.14481771
0.45624521
0.24549678
-0.03470933
-0.32252583
0.28752288
0.05065597
-0.11535858
0.18807203
-0.02525693
0.24954274
0.05737958
0.31294662
0.09582377
0.51577216
-0.01751928
0.11270282
0.32076958
0.09175094
-0.08906747
0.27795750
0.28162414
-0.07405755
-0.07521262
-0.30444458
0.24877574
0.45764601
0.20115994
0.38570461
0.64417148
-0.00684297
0.39094776
0.24007036
0.42506549
0.08056986
0.32509935
0.18915777
0.19802198
0.26768681
-0.03629474
0.17681210
-0.01598065
0.02711136
0.23055601
-0.33931270
0.28664389
0.02768382
0.41113558
-0.08976700
-0.05609435
0.15843132
-0.08717661
0.13181841
0.32518449
0.11218923
0.24566787
0.18523511
0.09087303
0.29364085
0.12458315
0.01337977
-0.06776750
0.14109311
0.55726218
0.19635108
0.13137898
0.07715061
0.36763120
-0.02445170
-0.07357945
0.11293808
0.28862351
0.20957765
0.26842028
-0.05083316
0.16149314
0.26387295
0.05757469
0.17101096
0.06345686
-0.14405009
0.16638106
0.19869234
0.36407164
-0.08451094
0.14045085
0.07627183
0.28080571
-0.08517191
-0.21013120
0.17100075
-0.24769019
0.01265399
-0.11977750
-0.10048918
0.24721974
0.32131436
0.36800689
0.05106857
-0.46052781
0.01814684
0.23519184
0.07553286
0.18548682
0.24359435
0.25991076
0.13759963
0.27503738
0.04432052
0.22396946
0.20708963
-0.24730238
0.05411335
0.10878150
-0.10990150
0.05165797
0.00230603
0.33386895
0.29856840
0.46821913
0.14227483
0.09452680
0.39522818
0.20748876
0.23004343
0.42962167
0.27429044
0.24324718
-0.08939943
0.24470082
0.27772087
-0.03375071
-0.10346761
0.27734554
0.27055582
-0.16834843
-0.12378645
-0.03643934
0.08626478
-0.10198749
0.28425774
0.15997577
-0.16432023
-0.00715973
0.31544882
0.02822737
-0.12984842
-0.16086054
0.04128257
0.15711440
-0.03093720
0.23090702
0.15097578
0.14143893
-0.00871782
-0.19187538
0.22902909
0.14118077
0.04967553
0.00967913
0.06588672
0.27539891
0.03548388
-0.14625284
-0.13549975
-0.12474709
0.02425007
-0.14570838
-0.05493382
0.28028771
-0.41161337
0.17323484
-0.27498740
-0.16473918
0.34914008
-0.28022179
-0.34579855
0.58665168
0.13087554
-0.23344663
0.93725508
-0.21160497
-0.01335943
0.06249965
-0.21556464
0.00172724
-0.36312139
-0.25014004
0.41121364
-0.03936205
-0.21443188
0.09260904
0.02242974
0.28820795
0.17309844
0.05417494
-0.45314416
0.20440434
-0.26131979
0.05739148
0.22697362
0.50778836
-0.08683052
0.63094747
0.22896238
-0.08259625
0.35634479
-0.15821794
0.24980408
0.24591780
0.14021984
0.15605383
0.42182690
-0.27443120
-0.42118523
-0.11352783
0.09152405
-0.08717462
-0.19001351
-0.25453326
-0.02564313
0.50472963
-0.03453583
-0.21518853
0.40938607
-0.19114897
-0.02860066
-0.12527032
0.17634724
0.18128300
-0.70401168
-0.09808627
0.21685997
-0.60011744
-0.02021655
-0.33345965
-0.27762908
0.14747570
0.09517366
0.03928246
0.23762798
0.11832931
0.12761611
0.32475734
0.27879411
-0.24801005
0.02842596
-0.11444908
0.37476778
-0.34361023
0.31931815
-0.03589588
-0.11560274
-0.17525074
-0.03899978
0.36374345
-0.18376896
0.29505831
-0.24437340
-0.01588079
0.14841957
0.22353408
-0.31770587
0.39066091
-0.43473753
0.06042129
0.25550586
-0.14834593
0.36796850
-0.39885709
0.48961884
0.03764800
0.16761160
0.20351046
-0.23844583
-0.39326072
-0.36095512
-0.18562393
-0.09071657
0.16877501
-0.45705056
-0.01189784
0.19757350
-0.30333436
-1.02699375
0.99233496
-0.46482456
-0.28542960
-0.33192617
-0.15123510
0.04765546
-0.05041567
0.08650189
0.07094850
-0.16484170
-0.04839411
-0.18568507
0.03326737
-0.17053987
-0.29659027
-0.20282321
0.02594033
0.26884019
0.49808323
0.05117390
0.18204990
-0.08602688
0.16135812
0.37772179
0.23063293
0.26007491
0.34064585
-0.05794811
0.18669719
0.12359108
0.19505379
0.13748525
0.00948397
-0.08519235
0.07826363
0.31599793
-0.07117469
-0.08317587
0.18233323
0.31121135
0.14367475
0.01319092
0.35566714
-0.08489495
0.14638245
0.29568529
0.26490793
0.21954758
0.11857694
0.20714071
0.15677604
0.18224300
-0.05362090
0.12539405
0.05852138
0.11819384
0.05697729
0.33842450
0.34833914
0.00548358
0.23751146
-0.03137065
0.02492458
0.05597512
0.11999202
-0.03980670
0.05874976
0.11962316
0.36238307
0.01263949
-0.01058716
-0.11661996
0.00107202
0.03166437
0.10023209
0.00564262
-0.08135675
-0.19451615
0.04726866
0.04859622
-0.20943762
0.07232407
-0.05007470
0.25470698
0.11712398
-0.04260350
0.12023789
0.08369709
0.17152572
0.17112598
0.31845921
-0.02248007
0.03571881
0.15214172
0.31719229
0.13087703
0.10929836
0.05944976
0.53103822
-0.17148072
0.10899679
-0.11356282
0.19009140
-0.35914630
-0.02476801
0.03135177
0.19808063
-0.10580067
0.06421009
0.15883547
0.22037999
-0.00033047
0.23318247
0.15072559
0.04291102
0.27177194
0.04057278
0.11784416
0.04606204
0.09480302
0.01267591
-0.14405984
0.28041390
-0.18089435
0.20583312
0.05633782
-0.05778621
0.29694030
0.33387357
0.17822064
0.57781810
0.01887999
0.09785781
-0.20641106
0.30575645
0.25456929
-0.09766189
0.26965675
-0.18778196
0.06991808
0.31197202
0.18418095
-0.01259117
-0.11643213
0.42305443
0.37759918
0.29220557
-0.09690218
0.20626843
0.23839974
0.31215829
0.20315059
0.31263515
0.37741196
0.36845770
-0.27581620
0.15317793
0.33840954
0.00843396
-0.08596565
0.38334170
-0.02253820
0.57106054
0.37272128
0.15957606
0.28193587
0.55928189
0.07870536
0.10628696
0.22377574
0.06469896
0.22953908
0.28940785
-0.01992739
0.11264174
0.34857839
0.17755774
0.27844530
-0.01266957
0.00737737
0.05028676
-0.26166883
-0.10929837
0.10565753
0.27349827
0.11728474
0.35158622
0.03385234
-0.06554122
0.10299621
0.25721607
0.22696891
-0.08198914
0.10858793
0.17297079
0.22365203
0.02481986
0.25427914
-0.08415852
-0.09387287
0.33018604
0.18350640
0.11211935
0.23291589
-0.02080007
0.11006984
0.13838510
0.15166679
-0.18917665
0.11838520
-0.06092834
0.08273481
0.42957371
-0.03917929
0.20892882
0.07216981
0.07503187
0.24601419
0.25267991
0.42271447
0.24482031
0.57081544
0.40095788
0.14859205
0.27377862
-0.16217794
0.41109136
-0.25972152
0.50640905
0.13771597
-0.11566254
-0.10510625
0.06700066
-0.04498275
-0.08424484
0.01497832
-0.09939922
0.39704242
0.30815336
0.01778779
-0.14745802
0.14153816
-0.17752382
0.42187023
0.05204032
0.24284549
-0.07161677
0.17363651
0.25164849
0.56466722
0.30562884
0.44149721
0.36055359
0.26095772
0.17294250
0.46589518
0.31006941
0.03379291
0.09033010
0.37179175
0.01717054
0.13974513
0.15409964
-0.06997983
0.07487316
0.10736796
0.21888836
0.07315773
0.29273739
0.09051523
0.23044705
-0.37542927
0.22798683
0.15895656
0.27916515
0.22312047
0.19358008
0.14833280
0.10960087
0.35625765
0.12237847
0.41627404
0.17255853
0.18664449
0.04839506
0.29459035
0.38490763
0.35184687
-0.08684380
0.17493452
0.21766627
0.37653297
-0.07137909
0.14456975
0.49686021
0.25247809
-0.08344950
0.11471639
0.24762273
0.19976068
0.43360361
-0.04342920
0.14182323
0.02769785
0.14241049
0.14353737
0.32729724
0.09241713
0.46829903
0.15121177
0.22699904
-0.11117750
0.04325982
0.08105981
0.02101573
-0.28468809
-0.18241417
0.09659026
0.03257826
0.21702209
0.00591860
0.04268506
0.00811277
0.19667765
0.34310108
0.16750738
0.19576132
-0.20854993
0.50955087
0.09491939
-0.15655509
-0.18217830
-0.12923010
0.02428246
-0.04801713
0.01012593
-0.02587224
0.06157874
-0.02804479
0.11584223
0.34994650
0.03792419
0.29117027
0.08771925
0.13246614
0.19931597
0.23156226
-0.03094388
-0.05794514
0.29305446
0.50812602
0.30947164
0.16243087
0.05268228
0.23845628
-0.11898510
0.04049926
0.03770847
0.06100128
0.03976840
0.07214998
0.19893332
0.09827032
0.23996489
-0.29133928
0.16581693
-0.16677810
0.04031128
0.30256143
0.12588707
-0.04131869
0.57186472
0.06951821
-0.01737752
-0.02943135
0.17571814
0.08965841
0.11914772
0.10458437
-0.02011740
0.13901877
0.27628991
-0.03137122
0.56024361
0.04507736
0.14579633
0.04065112
0.17781666
0.14840019
0.18859807
0.22339781
0.20580573
-0.18910669
0.03350053
-0.13871284
-0.27590519
0.09952989
-0.05523982
0.36388662
-0.23729570
0.06685828
0.32914045
0.01829283
0.08020485
0.48196587
-0.03812779
0.01696662
0.29819834
0.14828901
0.58331496
-0.25910074
0.27164057
0.04890078
0.06986394
0.20942178
-0.01118000
-0.11323789
0.07931387
-0.81657571
0.18795075
-0.40981677
0.22415258
0.02582105
-0.62850916
-0.07073510
-0.22765988
-0.21293814
-0.32144949
-0.02758953
-0.25810364
0.31219026
-0.04927200
0.26692766
-0.17871475
-0.04147664
0.18064998
-0.02379821
0.22865230
-0.05084016
0.15659982
-0.53541619
-0.05251388
0.75477558
-0.14598556
-0.15691020
-0.35805404
-0.37851089
0.41237575
0.11476076
0.09171673
-0.28829032
0.14731035
-0.00858805
0.03542753
-0.06744540
0.23888806
-0.25059134
-0.10927488
0.00431717
-0.14090334
0.37062007
0.26067692
-0.28261262
0.22110286
0.13763389
0.37655771
0.01298601
0.40190154
-0.29950869
0.21275994
0.15176705
0.38014740
0.19118637
0.20694353
0.15715268
0.02730774
-0.13713242
0.15708630
-0.18136770
-0.30905762
0.50462717
0.21780680
0.54388094
-0.23840483
-0.20910998
0.44702500
-0.21950421
0.01481069
0.44873279
0.09002048
-0.15896338
-0.04728550
0.17992245
-0.11095130
-0.41179261
0.41832504
-0.13912867
0.47378188
-0.00951887
-0.02954460
0.52466381
-0.45455387
0.10020877
0.04621278
0.07312349
0.04979931
-0.14352910
-0.02949473
0.66827148
0.16535670
-0.15069956
-0.31325588
0.58986622
-0.13534710
0.28025046
-0.54558796
0.13925897
0.03941478
0.04576854
0.10702485
0.04353878
-0.00460714
0.00311959
-0.13626839
-0.02728630
-0.21319397
0.39797661
-0.09750621
0.07859430
0.00991047
0.11273116
-0.10158762
0.25764090
0.00310344
0.63093382
0.19563287
0.00994495
0.24463528
0.14435649
0.24476244
0.19708419
0.30034226
0.23143810
-0.08259694
0.02255281
-0.01597974
0.02010455
0.18600652
0.19134113
0.05046799
-0.14769557
0.43299532
0.09948662
0.06924869
0.15207297
-0.05493503
0.04669137
-0.06371953
0.15099761
0.20703936
-0.09973473
0.03580132
0.19671527
0.24765757
0.14314781
0.19154336
0.10231221
0.03289961
-0.05313498
0.13884789
0.10046841
0.18912639
-0.02030977
0.14228715
-0.01485429
0.15644018
0.23664726
-0.25711247
0.17617324
-0.00180440
0.46191776
0.12937844
0.16648421
0.00808750
0.27473891
0.36951512
-0.02290826
0.14036977
0.28289482
-0.26595041
0.05911890
0.23477927
-0.01148681
-0.19182448
-0.07411073
0.33827239
0.10059603
-0.09199198
-0.19717653
0.15053388
-0.02926501
0.00622670
0.11986835
0.11456237
0.07119784
0.29969126
0.11606225
-0.03951133
0.25368026
-0.11782417
0.45283282
-0.23781791
0.13942522
-0.01952281
0.14987725
-0.01561519
-0.03039311
0.54962039
0.06133671
-0.07502862
0.24343348
0.05869460
-0.11495881
0.04445876
-0.04205035
0.04161759
-0.03232593
0.28888541
0.19498056
0.20669618
0.23276255
0.17432046
0.16084570
0.00981060
-0.09726986
-0.00790792
0.29146907
-0.01758517
-0.16488494
0.28187734
0.49265260
-0.05190732
-0.13177553
-0.14082773
-0.19924814
-0.17442496
-0.01103874
0.29064506
-0.21128158
0.29510728
-0.12855461
-0.02589591
0.31759062
0.04430029
0.00915536
-0.32548714
0.09492803
0.33566543
0.30940980
-0.07747886
-0.14285643
0.38462344
0.12440084
-0.08099253
0.15653983
0.54062009
0.08629024
0.05068931
0.09040472
0.43059474
0.08776636
0.05739433
0.02110364
-0.00882832
0.15296501
0.22445388
0.13726415
0.07793313
0.49128234
-0.13069409
0.47082484
0.01198671
0.09376848
0.15493265
0.34102154
0.12983234
-0.09565699
0.26848680
0.27504081
-0.09747759
-0.27475277
0.00239615
-0.30619806
0.09059796
0.20320165
0.42661071
0.09575160
0.13074909
0.35199878
-0.06648438
0.05683420
-0.00420792
0.12406311
0.22804698
0.13944367
0.07621815
0.27464804
0.15374768
0.03841500
0.11387344
0.33354068
-0.12176533
0.50302380
0.32753634
-0.02293636
0.05272343
0.43659639
-0.08982232
0.25837326
0.06641513
0.11916672
-0.00115418
0.14976510
0.01707489
0.23336059
0.04638052
0.19205330
-0.02448321
0.37883314
0.07856400
0.21998838
0.22878845
0.42233089
0.50271839
0.10049362
0.40436926
0.03754828
-0.20858246
0.22740163
0.10270452
0.49056172
0.22505030
-0.00523970
-0.13477767
0.39923209
0.09596173
-0.17768845
0.15740730
0.17712513
0.21644522
0.02255673
0.32436129
-0.18945694
0.39444751
0.09129807
0.33908886
0.16567215
0.19821084
-0.04370758
0.31750605
0.12430755
-0.05575338
0.02209000
-0.16592230
0.44182232
0.20254442
0.22282238
0.63241225
0.66573828
-0.08408657
0.14768901
0.17755708
0.24180706
0.14615427
0.18769889
0.06273196
0.25037485
0.07780845
0.18301576
0.05247129
0.26515153
0.06692364
0.21057437
-0.30713049
0.18716995
0.14347856
0.00693808
0.19856626
0.09143856
-0.01900203
0.26003900
0.55135900
0.18544185
0.30786121
0.16835871
0.23617122
-0.01491000
0.19004053
0.21696816
0.17377988
0.14526950
0.20994802
0.25242054
0.35459599
-0.10708390
0.20944250
0.29419932
0.31567779
-0.08461042
0.11496592
0.19610162
0.06593266
0.28901067
0.06928328
0.10658432
0.11533003
0.12930879
0.01092565
0.39298049
0.01885067
0.41631547
0.23939013
0.15880787
-0.06416160
-0.14130621
0.00947877
-0.04193448
-0.11845315
-0.11142253
0.09045584
0.21233104
0.01456190
0.19792475
0.03732353
-0.12939346
0.00206418
0.17217802
0.02381098
0.23508933
-0.15951480
0.39853948
0.00940574
-0.12805182
-0.39869541
0.02446047
0.22550493
0.03454959
0.10980369
-0.23061381
-0.12162801
0.01777939
0.05013868
0.33009505
0.03846683
0.36463940
-0.00213266
-0.09686659
0.27373075
0.11349296
-0.05409948
0.07939017
0.14711830
0.49233702
0.30581549
0.28293234
0.03557025
0.18901402
0.01938238
0.13409069
-0.07131993
0.12389011
0.05065096
0.08188542
0.11870687
0.17470658
0.19727489
-0.26055014
0.06175720
-0.21904857
-0.07692648
0.09782076
0.04236200
0.04895104
0.57689667
0.08109475
0.02324669
0.29093954
-0.01271808
0.06831492
0.25413281
0.17077340
-0.00457182
-0.02920645
0.21508779
0.04363581
0.62476176
0.19714300
0.07549703
0.26622832
0.21444608
0.13548677
0.19094281
0.17081171
0.25159961
-0.06276365
0.06913437
-0.15852349
-0.10132625
-0.27485561
0.21344587
0.56770432
-0.20354205
0.13871972
0.22203477
0.26627433
0.04434535
0.23003756
-0.22768135
0.24222827
0.07303499
0.26209539
0.46761444
-0.24535663
0.14791647
-0.06510027
0.42437080
0.35852164
-0.16706774
0.08049906
-0.05279327
-0.62483895
0.03907373
-0.32762536
0.01979450
0.09355693
-0.40057528
-0.23587161
-0.20850617
-0.28281784
-0.18617287
-0.16895457
-0.45403180
0.09022844
-0.24101390
0.42553931
-0.19531071
0.14364126
0.03125075
-0.06594224
0.00695858
-0.02840673
0.11090162
-0.36023772
-0.04267726
0.72362196
-0.20020135
-0.09269186
-0.20886782
-0.12100042
0.23404306
0.10098152
0.27993244
-0.18913397
0.21961546
-0.08889165
-0.09496456
0.10984972
0.14255534
-0.22497618
0.00736150
-0.06031840
0.08977713
0.22944319
0.35949758
-0.20992488
0.25015721
0.21602261
0.26444536
0.13503198
0.19772291
-0.19879735
-0.00818446
0.20648612
0.21983485
0.03857066
0.19673760
0.30160737
-0.07815845
0.10411455
0.08528773
-0.04212866
-0.22506866
0.46316016
0.08427370
0.33190039
-0.45238352
-0.24177727
0.31077558
-0.01003593
0.18063016
0.23664179
0.10639817
-0.11876290
-0.16324416
0.04075887
-0.35652727
-0.42923826
0.27055168
-0.15470262
0.28170776
0.05687580
-0.10169096
0.44074944
-0.47634697
0.14979923
0.18433340
0.09319970
-0.02590692
-0.05352503
0.18260892
0.44967592
0.04275197
-0.02476805
-0.11487275
0.01390940
0.10665669
0.25449708
-0.11234996
0.12928495
-0.10368638
0.15802945
0.15141706
0.13045835
-0.04842690
0.00409137
-0.18882118
0.00708527
-0.15325883
0.33308768
-0.01151273
-0.01163911
-0.17816584
-0.05021541
-0.18817671
0.16201809
0.08471355
0.59563994
0.01960634
0.02502575
0.20897987
-0.03345390
0.20268331
0.15954329
0.12930584
0.19357094
-0.19609556
0.03341687
0.07166710
-0.07364250
0.13517290
0.24915335
0.13796908
-0.00919691
0.33603644
0.20237611
-0.14558071
0.10396460
-0.09367318
-0.15967833
-0.05047469
0.02072915
0.20709123
-0.11556301
-0.02107014
0.27132267
0.38833675
0.13571630
0.22049910
0.08130561
0.08063641
0.04718815
0.02447918
0.03239221
0.25438291
-0.06785545
0.05009177
-0.17141902
0.10523449
0.16634542
-0.28804556
0.02392503
-0.07667069
0.26980355
0.03712547
0.31959844
0.11503707
0.31747591
0.37526327
0.03212757
0.03666895
0.37626919
-0.33513126
0.08967683
0.20696083
-0.03879887
-0.07542464
-0.10249996
0.26920336
-0.00531877
-0.02050055
-0.07217610
-0.04537532
-0.05892388
-0.14162147
0.03147329
0.10757333
0.03747872
0.12043305
-0.09786568
-0.08951142
0.35677809
-0.14014839
0.41231847
-0.13521804
0.01858681
0.10021484
0.07618631
0.15994424
-0.02342414
0.53262347
-0.04749613
-0.03583438
0.18639316
0.07381272
-0.18086463
0.13477553
-0.07036985
0.01409870
-0.07719553
0.15054356
0.11985987
0.31497785
0.21461548
0.25024202
0.03537027
0.09081545
-0.07764702
-0.04801299
0.07877129
0.04760048
-0.06793761
0.36822724
0.39297536
-0.02490477
-0.08215676
-0.17219757
-0.14288929
-0.14462978
-0.04898918
-0.06987059
-0.07833045
0.34420627
0.00873432
0.11413734
0.16652964
-0.09700864
0.07381533
-0.12371410
-0.01730699
0.44487715
0.28569609
0.01127574
-0.02367570
0.20261095
0.16967329
-0.07483698
0.07652920
0.57467306
0.16028139
0.10847268
0.15658021
0.35163078
0.01045155
0.07462022
0.04335788
0.01952645
0.08685938
0.20475243
0.21064150
0.01718420
0.55967402
0.14100021
0.54105830
-0.09775586
0.07689778
0.04112493
0.26078832
0.12804870
-0.13981611
0.10292834
0.27312621
-0.08635992
-0.27350771
-0.16850108
-0.27936554
0.14065033
0.19395193
0.23292400
0.10847203
0.08990504
0.31958091
0.01789628
0.04923756
-0.12587507
0.17028572
0.33658946
0.12757953
0.03426848
0.27151176
0.20403208
-0.01465770
0.00144852
0.38551164
0.02270735
0.42420843
0.36879203
0.10576082
0.18096511
0.50584078
0.00337619
0.14672753
0.08405767
0.09350140
-0.13837305
0.10976034
0.01031994
0.07814932
-0.06551183
0.03018136
0.01217181
0.19590908
0.08583099
0.14933439
0.24543783
0.40573034
0.53957307
-0.08506922
0.36006427
0.09952538
-0.14005542
0.29172426
0.19896980
0.34587878
0.22320068
0.15023649
-0.08458655
0.36147684
0.16693953
-0.08216166
0.09948227
0.27701297
0.13935691
0.04565506
0.39471450
-0.16124192
0.36070290
0.15006095
0.27348441
0.28146890
0.21867242
-0.03069697
0.18218318
0.11342345
-0.14933619
-0.03790796
-0.16955237
0.42739719
0.16234484
0.19793741
0.29277113
0.44720906
-0.05651548
0.10393140
0.18083292
0.11291203
0.17528646
0.44281462
0.02943286
0.16034378
0.04726161
0.09073386
-0.08127797
0.30019340
-0.13951330
0.16851099
-0.28891218
0.05277801
-0.00936628
0.12422580
0.21314324
0.13059212
-0.02008270
0.21724568
0.29264510
0.21563214
0.14834729
0.12922655
0.08465777
0.13388701
0.39001074
0.10880989
0.25746420
0.06079765
0.28085113
0.27531341
0.41737628
0.17794779
0.30552736
0.45787862
0.22027516
-0.18234147
0.10253705
0.15951751
0.06485797
0.14021355
-0.06347582
0.23125800
0.15577763
0.26888117
0.03698380
0.26535106
0.02513008
0.35342395
0.16532919
0.16324207
-0.06241979
-0.18388653
0.05886997
0.18194661
-0.02063159
0.00997549
0.12480505
0.25787330
0.03330676
0.05957005
-0.04446221
-0.11394797
0.12398370
0.23548870
0.28745854
0.18581150
-0.06817498
0.33045062
0.17027804
0.03625146
-0.27134374
0.19230871
0.22243500
0.14883430
0.09593802
-0.12559380
-0.07468861
0.08222689
0.14435571
0.14211597
0.08779081
0.30399910
-0.21269789
0.01412776
0.13496931
0.05221913
0.04516601
-0.00355060
0.23202926
0.48791149
0.33164781
0.10380649
-0.01080666
0.32638943
0.00824773
0.22529158
0.07581903
0.28692931
0.00056022
0.18573079
0.17755453
0.27466476
0.04234037
-0.28547716
0.02512111
0.02184866
-0.09087044
-0.02680605
-0.00119294
0.00556216
0.47069570
-0.01783353
0.08947763
0.05684738
-0.06551931
-0.01240262
0.19141687
0.32379580
0.00624182
0.20911664
0.17279142
-0.13144864
0.47827822
0.20495886
0.22188811
0.19896063
0.13494958
0.18290271
0.36929408
0.21090890
