-0.04587723
0.01218916
0.05444124
-0.04311450
0.16759565
-0.04867698
-0.04505216
0.14861735
-0.00385690
0.02117670
0.07919612
-0.13268807
0.09558153
-0.14206097
-0.09520643
-0.11706965
0.05415306
-0.03768398
-0.12071557
-0.13746399
0.00292804
0.06751941
0.02550404
0.15559237
-0.04323560
-0.04371977
-0.00223954
-0.11774921
-0.03294411
-0.01259720
0.03349215
-0.00286535
-0.07135883
0.12793224
0.01339566
0.14281888
0.05822212
0.05240745
0.09305002
-0.05323292
-0.07841536
-0.02908184
0.04728192
0.11008619
-0.11924947
0.07153275
0.08448554
-0.09325417
0.01638681
-0.01755186
0.05050561
0.00438413
-0.03149039
0.02339041
-0.13872284
0.16213258
0.00630218
-0.01671249
-0.16625705
0.05315829
-0.02480643
0.07195465
0.07835244
-0.02800474
-0.01590464
0.04546908
0.18232429
0.07654211
0.02103898
0.01283462
-0.01348817
-0.07331673
0.08581928
0.09114125
0.11719142
0.06728973
0.07691559
-0.02818591
-0.00058959
0.08949561
-0.00728167
-0.05753953
-0.08322338
-0.06164168
0.03313215
-0.06394702
-0.06758077
-0.02352614
0.16910755
-0.11841754
-0.04161758
-0.09805843
0.15000284
0.03879295
0.01445369
-0.01032026
0.08786850
-0.06175917
-0.04303753
-0.01318032
-0.03728280
0.10834636
-0.01688608
0.15422803
-0.14411538
0.07097585
-0.05850304
-0.08189713
0.05200531
0.15102076
-0.03788876
-0.03834579
-0.03024338
-0.11843961
0.04840679
0.15485593
0.23305351
-0.12186789
-0.14947656
0.05461055
0.01857074
-0.13648192
0.04833912
0.01285159
0.11474468
-0.06077086
0.06515101
-0.09353426
0.04107105
-0.01772915
-0.07305067
-0.14367100
-0.09087718
0.10373131
0.22163633
-0.06949690
0.19706212
-0.00970171
0.16257914
-0.02447056
-0.23665337
-0.15558618
-0.13372856
-0.08128732
0.11790660
-0.06100919
0.02031744
-0.09815914
0.11694252
0.13125487
0.02242472
-0.04201718
-0.09342709
-0.01414578
-0.05346292
-0.04076342
-0.03409255
-0.01460772
0.11862838
-0.10239605
-0.05681788
0.01004871
-0.09302416
-0.13168330
0.08771680
-0.00001537
-0.08263168
0.05709448
-0.03437289
0.05981027
-0.13400440
0.11214622
0.02657458
0.08754634
0.10823994
0.00533656
0.12899344
0.10398129
0.12065126
-0.02629734
-0.12098028
0.12096510
-0.11476141
0.08559974
0.10184197
0.08566084
0.07271999
0.02167976
0.00694248
0.03897029
0.00383398
0.01090402
0.15431565
-0.07047651
-0.10580823
0.02605717
-0.02815381
-0.04030831
-0.07128395
-0.07718004
-0.00280414
0.04532557
0.03160255
-0.08538064
-0.06503428
-0.03353942
0.09856400
0.12552966
-0.10031404
0.00420236
0.08947256
-0.05486951
-0.14364765
0.00751436
0.00735240
0.08225550
0.00487901
0.03828393
0.03011594
0.01472245
0.20641593
-0.16054731
-0.02943162
0.14122268
0.03142934
-0.16718522
0.23548786
0.10367318
0.16284566
0.03488698
0.12870675
0.04404006
0.00581763
-0.13111763
0.10712868
0.04170750
0.04761977
-0.03072329
-0.03568081
-0.08504767
0.02420691
-0.02172911
-0.03753685
0.10422692
0.06321533
0.07021734
-0.03575294
-0.20328355
0.08236860
0.04918640
0.13985586
-0.05295873
0.14603939
0.00571529
-0.10380254
0.00029763
-0.02013041
0.03035896
-0.01587088
0.07681251
0.04356815
0.09929779
-0.00493586
0.02735223
0.03586558
0.04423587
-0.06118767
-0.06377154
0.05500938
-0.09699784
-0.06045454
-0.17162252
0.03643756
0.00056097
0.11389656
0.01140509
-0.02673845
-0.00579148
-0.03677020
0.11029834
-0.03247783
-0.13198529
0.04794903
0.07746234
-0.05888785
0.06484756
-0.12809284
0.06313176
0.16273085
-0.07537211
0.15512041
-0.09869600
-0.06225970
0.00464687
-0.05176299
0.13138290
-0.07253654
-0.11847890
-0.06533253
-0.03274297
0.02384014
0.08256010
0.10593717
0.03017397
-0.00227590
0.02001890
-0.05983136
0.10085308
0.20585671
0.12060505
0.06247566
-0.01109131
0.08052572
0.02952742
-0.07677930
-0.01985306
0.00725976
0.20616307
0.13565392
-0.10640989
-0.09899393
0.10843477
-0.04208624
-0.02865694
0.12659648
-0.06378106
0.03467595
0.16727121
-0.06280487
0.05900695
0.11758093
-0.10069487
0.01985140
-0.02492919
0.00591411
-0.00728705
-0.04464179
0.07676357
0.05041327
-0.02131122
-0.00086193
-0.06660524
-0.13459215
-0.04607853
0.03721444
-0.07126777
0.07921987
-0.02040406
-0.02832182
0.01163990
0.12096452
-0.14974845
-0.04897727
-0.05312226
0.01114848
-0.06935266
-0.03090148
0.05385583
0.09849251
-0.05490177
0.00087697
-0.01191697
-0.02060471
-0.03101080
0.04341427
0.07913271
-0.09922835
0.01960185
-0.02268591
-0.01325874
0.15010901
-0.11331674
-0.08591630
-0.02520493
0.05933694
0.04902804
0.13818189
0.10192045
0.05167219
-0.10216735
0.03147020
0.12603746
0.12167091
-0.03114878
0.06998342
0.00291174
0.02978576
-0.12587211
0.12528890
0.03957307
-0.11924303
-0.09606936
0.13412711
-0.04324127
-0.08929587
0.09367021
-0.05935615
-0.00363409
-0.01693660
-0.11732515
0.05637837
-0.06832148
-0.09512420
0.12778452
-0.01510228
-0.12298387
-0.05108326
0.05176052
0.00776769
-0.09711986
-0.04941032
-0.02115551
0.09374611
0.01897539
-0.03156394
0.12453330
-0.00403647
-0.04150221
0.16263017
0.11331876
0.09946603
0.06820861
-0.01780065
-0.01977029
-0.08546849
0.06729726
0.12275467
-0.00429530
-0.03993416
-0.04445995
-0.02953213
0.13509747
0.00220909
0.03220305
0.15942740
-0.10289451
0.02344559
0.04683540
0.08210791
0.10407034
-0.09310370
-0.08616235
-0.09332222
0.05496208
0.25272720
0.13188255
-0.03767944
-0.05282212
-0.06574255
0.04034249
-0.01086772
-0.10486771
-0.00378678
0.09230691
0.02291277
-0.05560488
-0.10128355
-0.15795619
-0.10944043
-0.04713679
-0.05977438
0.01273916
0.03942697
-0.00013659
-0.04290420
0.08046319
-0.07652762
0.04523988
0.03430064
0.08210056
-0.07073283
0.09820923
0.02180054
0.07207809
0.00205997
0.20499248
-0.06216738
-0.13647686
-0.14251390
0.11318143
0.16309817
-0.10822689
-0.00521261
-0.12311151
-0.06670862
0.01146270
0.02831664
0.08363701
-0.14744093
0.02503168
-0.10402627
-0.06593294
-0.07151703
-0.04160561
0.06914497
0.03359709
-0.07384932
-0.02773281
0.07422389
0.13724283
0.05313310
-0.23781110
-0.05113118
0.11530352
-0.12265491
-0.04043556
0.05188066
0.11542206
0.05384914
-0.01809641
0.07632528
-0.15200419
-0.05039751
0.08210157
0.05435272
-0.00944437
0.06589029
-0.05474090
-0.02721650
-0.04421665
0.02252227
0.00571629
-0.05519048
-0.02081563
-0.04698309
-0.00122841
0.03636301
-0.06663456
0.01569296
0.00456646
-0.03400623
0.07047724
0.08570924
-0.03524218
-0.03982221
-0.07006330
-0.01159297
0.01004027
0.02938123
-0.00710724
0.03468792
0.02928197
-0.03706905
-0.04370947
0.02254182
0.01103077
0.04813375
0.05415091
0.06251436
0.02522469
-0.07367910
0.04054976
0.04015766
-0.07580722
0.02067261
0.04189270
-0.04167080
0.04582845
-0.00735472
0.03213888
0.03909756
0.00512153
0.03973832
0.05204636
-0.04607241
-0.04695989
-0.03964446
-0.01888435
-0.00772211
0.11822537
0.07296392
0.03151329
-0.06162534
0.01737955
-0.04705712
-0.00222656
0.03293667
-0.00302544
0.01807302
-0.04741218
-0.00936392
-0.02497336
-0.01177525
-0.00764702
0.03260283
-0.02972600
0.03580582
-0.05048245
0.03092234
0.00088123
0.00218184
-0.03977295
0.01206559
-0.03560899
-0.07267169
0.01538690
-0.02290877
0.07399876
-0.07359944
0.02170136
-0.08492947
0.01204165
-0.01813961
0.06363572
-0.05954152
0.00960965
0.03908828
-0.02308492
0.00908829
0.10847362
-0.04571047
0.07510026
-0.02835920
0.04287259
0.02313250
0.00903567
0.00302299
-0.01675822
-0.01414736
-0.07030954
0.08028574
0.01141659
-0.06951201
-0.00690295
0.00177581
-0.04949183
0.05555027
0.06259874
0.04583160
-0.00408092
-0.02279833
0.05107508
0.03568383
0.00179183
-0.04873066
-0.01585825
0.04769345
-0.02876589
0.00719464
-0.05129470
0.06256950
0.02558123
0.00064138
-0.07718375
0.04743986
0.01672722
0.05631093
-0.02430832
-0.05870773
0.01504286
-0.01503655
0.08919815
-0.03886448
0.07264990
0.00297695
-0.03247253
0.05712129
-0.04543367
0.06966139
0.05163369
-0.12317356
0.01378105
0.05673418
-0.04805931
0.01602650
-0.04135577
0.01889572
-0.03621780
-0.13253770
0.07252705
0.02074120
-0.00691835
-0.04025130
0.11560009
-0.06651049
-0.08797928
-0.07569873
-0.06898527
0.11331236
0.03168695
-0.08997423
0.06588134
-0.05964109
0.03143914
0.01993897
0.01585335
-0.01622955
-0.06375448
0.04814323
0.03564042
0.03631312
-0.05231446
-0.04589378
0.06444128
0.11122724
0.02617709
-0.00566318
-0.03968925
-0.03262033
-0.04483731
-0.04613261
-0.05418427
-0.00016660
-0.01018963
-0.08369442
-0.02608462
-0.06885172
0.02642933
-0.02478225
0.05569799
-0.02335291
0.04313330
0.01463886
-0.01170904
-0.02494966
-0.02863327
0.00660887
-0.04908725
-0.05789806
-0.08686907
-0.05081885
-0.01398626
0.08083437
0.04180118
0.06697882
0.02267877
0.01505837
-0.00739330
0.06167835
0.04673178
0.01384496
-0.10592590
-0.04313089
-0.01083956
-0.08375671
0.02907511
-0.02358804
0.06325755
0.11477797
-0.02366380
0.11473201
0.01604281
-0.05975005
0.00185087
-0.08454454
0.09356485
0.02004817
-0.05704536
-0.07927715
-0.09309538
-0.08193001
-0.03364720
0.01745502
0.00366464
-0.05021978
-0.03342033
-0.05483297
-0.04635048
-0.06342143
0.00479663
0.03370377
0.01554801
-0.02363496
0.02590273
0.02055748
-0.08689334
0.03771204
0.02107016
-0.03035566
-0.05865140
0.00854738
-0.02052225
-0.00423030
-0.10184483
0.11990706
-0.00205626
-0.11121516
-0.04752191
0.00496670
-0.01890998
0.07034969
-0.04676932
0.00819533
-0.00688976
0.04971907
0.01072633
0.01005295
-0.01375602
0.09740241
-0.02741443
0.01894547
0.04468293
-0.04539500
0.04698769
0.06538883
-0.00138473
0.05088633
-0.00099555
-0.05123777
0.03089777
-0.00969898
0.06101710
0.01647257
0.03181530
-0.05150952
-0.02177534
0.02925517
-0.03540389
-0.03501940
0.03487372
0.04984791
-0.03125769
-0.00826652
0.09989137
-0.06790483
0.03481521
0.03514837
0.10379046
-0.03314528
-0.00228531
0.07060712
0.02253459
-0.04231609
-0.03588457
-0.02840016
0.04059836
0.01196613
-0.03840233
0.00232185
0.05204366
-0.03746630
0.00765914
-0.11733909
0.05302167
0.00837682
-0.02233791
-0.07612972
0.01395832
-0.06824815
0.06143006
-0.01168112
0.04641785
-0.00278574
0.00172338
0.01416825
-0.00238787
-0.00665219
0.03224841
0.03285376
0.03138769
0.09053828
-0.00473029
0.00291635
-0.01094288
0.03938881
-0.01360551
0.02843613
-0.04667788
-0.00438099
-0.00400890
-0.01637640
0.02532014
0.05647765
-0.05292360
0.00888049
0.02781026
-0.05844406
0.04330940
-0.06533278
-0.00183361
0.07722224
-0.04413007
0.03013423
-0.05887531
0.09226860
0.01803014
0.12972721
0.04497355
0.02543523
-0.08345886
0.04163353
-0.00109435
0.00269716
0.00868723
-0.02710340
0.02288464
-0.00186706
-0.01084034
-0.03579864
0.07199910
0.01175726
0.06933993
-0.01827461
0.02454077
0.03304023
-0.11215999
0.00281004
0.01253319
0.00203050
-0.06988438
-0.07957643
-0.05702896
-0.01378083
0.06454813
0.00849153
0.03281870
0.05172322
0.04699194
0.04705407
-0.02211923
0.07742053
-0.05481329
-0.10873077
0.05697512
-0.04381726
0.00580197
0.06242807
-0.03760359
0.10143978
-0.01620669
0.07487086
-0.01383543
-0.06549971
0.00784399
0.01464604
-0.01970773
0.06331362
-0.02198646
0.06497939
-0.02531727
0.08836699
-0.01549971
0.02133727
0.03842768
0.04900666
0.10835255
0.06346276
-0.05031139
0.00936104
-0.05372780
0.03922573
0.02681581
-0.08662042
-0.01724671
0.10778655
-0.09407540
0.07570497
-0.04253405
0.03581626
0.04639961
0.02945225
0.08970266
0.06836043
-0.03238601
-0.03323833
-0.05712022
0.07332771
-0.01725324
0.09006196
0.01038625
-0.00288795
0.04109207
0.00526011
0.02701861
0.03923216
-0.01178063
-0.07143825
0.00314675
-0.00146655
0.02246816
0.06396804
0.01738420
0.00130823
0.00479604
0.01569720
0.01758100
0.03563320
-0.04829292
0.03422860
0.01286819
-0.10116719
-0.05586603
-0.01547753
-0.00214370
0.06368345
-0.01238302
-0.01883054
0.05489921
0.00554474
-0.06069165
-0.00965383
0.00979986
0.03348834
0.00915512
-0.03887403
0.01708980
0.02865666
-0.06401178
-0.06361525
0.08261190
-0.02985535
0.01577313
-0.08124998
-0.00396882
0.03258748
0.04915327
0.09040005
-0.02500168
-0.02486455
-0.04011645
-0.05063711
0.05214786
0.01158968
-0.09505682
-0.02225243
0.01073785
0.03802517
-0.02288156
0.00789332
-0.05035340
0.05989555
0.02382220
-0.07525175
0.00439983
-0.01759648
0.04820249
0.03681791
-0.07055070
0.07077558
-0.01555943
0.02836346
0.03187290
-0.03986748
0.00767064
0.01815683
-0.09813401
0.01157374
-0.05422226
-0.02753287
-0.02163829
-0.02423849
-0.01733668
-0.00777459
-0.05646589
-0.00094583
0.05049658
-0.06601279
0.01167638
0.00621603
0.04946148
0.00813433
-0.02756448
0.01481528
0.00040128
0.00647995
0.00984461
0.01857772
0.06575781
-0.06546493
0.03304053
0.02766158
-0.00227607
0.01458714
0.04562421
-0.07014767
-0.09553179
-0.02475340
0.04306098
-0.02166649
0.00671495
-0.03942648
-0.02628313
0.02281020
-0.01530905
-0.00264200
0.04407901
0.02040249
0.02413020
-0.07218308
0.01117660
-0.01791320
0.02680680
0.00539413
0.01018456
-0.02178687
0.03053130
0.04133676
-0.03203569
-0.00988913
-0.04162461
0.00658367
-0.04598251
0.00728694
0.00552395
0.01185197
0.06348655
-0.05899599
0.02606915
0.04092180
0.07815335
0.04748382
0.02483376
0.03087312
-0.00741017
-0.02825413
-0.03920345
0.00749150
-0.01404382
0.03649325
0.01106366
0.04693211
0.00159253
-0.02667791
-0.01705225
-0.02511225
-0.02499801
-0.00311918
-0.01338906
-0.02799751
-0.00590905
0.03239460
0.07648807
-0.00697290
0.05068117
-0.03864352
-0.02728561
0.00135202
0.05406492
0.03613768
-0.06160717
-0.05546757
-0.00979722
-0.00286162
0.05974325
-0.06685503
-0.03255805
-0.00351295
-0.00859464
0.02598729
-0.00776734
0.03412844
-0.01431236
0.00372944
-0.02457972
0.00490639
0.04349708
-0.03715908
-0.04429174
0.03026978
-0.04521479
-0.02156856
-0.00858466
0.10380107
-0.07537902
0.01016573
-0.06980783
-0.12520712
-0.03520285
0.07404295
0.06301108
0.05422809
0.00960769
0.06231100
0.02614371
-0.06437358
-0.11284256
-0.01460386
-0.07202400
0.08993654
0.07640379
-0.00214456
0.02382054
0.02309363
0.08607760
-0.02361577
0.01936068
0.00304157
-0.08789237
0.01958518
-0.07597458
0.04660297
0.02830324
0.05794223
-0.05615256
0.01850261
0.02327496
0.04326788
-0.04604791
-0.00021391
0.00875434
0.07318514
0.02315473
0.02349691
-0.00108216
-0.00399408
0.03602805
-0.08224449
-0.02545643
0.04324672
0.04759756
0.02317708
0.04996756
0.02901386
0.02283990
-0.08051638
0.00973563
0.00620078
-0.02939172
0.03713553
-0.00050687
0.03326963
0.01938435
0.01585865
0.00420001
0.07747354
-0.05161852
0.00309889
0.01539561
-0.07644572
-0.03506892
-0.00870607
-0.06712446
-0.00528002
0.03452047
-0.02092889
0.05127126
-0.08546748
-0.10920405
0.00148610
-0.10661665
-0.01858292
0.04425916
-0.09383481
0.04039557
0.05950056
-0.03015023
-0.05222282
0.08375262
-0.01236032
0.07109346
-0.09233723
-0.01309382
-0.01557527
0.00440128
0.05722135
-0.02357642
-0.03632778
-0.01846282
-0.02818212
-0.00625647
0.10025192
-0.00925356
0.04044741
-0.02923646
0.00378598
0.00853055
-0.03384242
-0.07303775
-0.01081588
0.05753831
0.06247288
-0.02885418
-0.04920395
-0.03945566
0.00668480
0.01133658
-0.04926231
-0.06830704
0.01622080
-0.06632456
0.06473977
-0.01642552
0.07489384
0.06780604
0.02755977
0.00709039
0.05485970
0.00804219
-0.00436252
-0.05552146
0.00179113
0.01017750
-0.01380208
-0.05222856
0.00858391
-0.01762900
-0.03123016
-0.01631627
0.01180366
-0.01664396
-0.10693604
0.02551579
0.04678821
0.01010246
0.02197668
-0.04842272
0.01290659
0.00009325
0.03967496
0.03925400
-0.04410663
-0.06427245
-0.01495848
0.00185950
-0.02522970
-0.01678832
0.03953175
0.06879201
0.00081164
0.01808265
0.01921893
-0.01278025
0.04899404
0.00933701
0.04577467
0.00126751
0.00562115
-0.00515118
-0.01165774
0.02228747
0.01434736
-0.03111538
-0.03302165
-0.03443021
-0.00881189
-0.01039378
0.00192137
0.07433333
-0.02849040
0.02416960
-0.03289332
0.06984541
0.02132767
0.09895809
-0.01161994
0.01355047
-0.05080884
0.00270284
-0.03385508
0.00167195
-0.00148824
0.06056571
0.01460538
-0.00835235
0.01537194
0.04589944
0.04518519
-0.01142690
-0.01729998
-0.01325647
-0.02160392
0.01012609
0.02919663
-0.00489180
0.01978623
0.00465837
0.02090909
-0.05286474
0.04541297
-0.04057435
0.00235248
0.00503881
-0.01381555
0.01454025
0.01621768
0.00263748
0.01026580
-0.00071018
-0.01012846
-0.01406902
0.04570072
-0.02241188
0.06835667
0.02047083
-0.01887620
-0.00579968
0.01376371
-0.00706912
0.01095269
0.00175889
-0.01244047
0.03520412
0.04388405
-0.01798452
-0.00577420
-0.02075671
0.02946476
0.02789479
0.01494836
0.04995176
0.03269147
0.03662957
-0.01623420
-0.02855642
0.05030487
-0.01713079
-0.06028731
0.02759129
0.00158296
0.03405622
0.07795565
0.02884457
0.01165048
-0.05701391
-0.00131877
0.03854386
0.02833462
0.02381857
0.01922399
0.03962603
0.04487164
-0.02692151
0.00909908
0.05970662
0.00301818
0.00273680
-0.00066818
0.06561052
-0.01341263
0.00625389
-0.01743904
-0.02864627
-0.00182039
0.01397433
-0.01479928
0.01093738
-0.05585468
0.01830724
-0.00982109
-0.02998192
-0.01096203
0.00729355
-0.07983256
-0.04910916
-0.02457987
-0.01114673
0.00266539
0.02064784
0.06027457
-0.02239763
-0.03117086
-0.02068073
0.02207804
0.00806877
0.03873644
0.05763086
-0.04436213
0.01657232
-0.02838295
0.00415942
0.05845423
-0.03949230
0.00225751
-0.02059267
-0.01224765
0.00813096
0.01093524
0.00999748
0.06589169
-0.00505462
-0.01513286
0.06639270
-0.04519292
0.01869733
0.08204714
0.01173664
-0.00069619
0.00795737
0.07008250
0.05497835
0.04808286
0.01814719
0.02317572
0.02438974
0.01209879
-0.04837012
-0.00777275
0.01615800
-0.05322745
0.01457901
0.05666813
-0.06290775
0.00162303
-0.00996565
0.02703255
-0.01904913
-0.00502546
-0.03286656
-0.03456500
0.01336404
-0.06749095
-0.02299122
0.02233085
-0.05396258
-0.07164763
0.03059286
0.00313910
-0.00642742
0.01907593
0.08194835
-0.01516127
-0.04470014
-0.02815366
0.01836523
0.02503697
0.00987502
0.07408418
0.03950281
-0.02989603
-0.00308243
-0.00582150
0.03821681
0.00048091
0.00999187
0.02186226
0.00983047
0.01006767
-0.01090170
0.04355019
-0.02778871
-0.03925496
-0.03275196
-0.01069660
0.03125402
-0.02275059
-0.03461866
-0.03196600
0.06142540
0.06353492
0.03387167
0.01798806
0.00852203
-0.02773954
0.03556424
0.00782854
-0.04164585
-0.07399859
0.09126653
0.06027270
0.00886634
0.03310410
-0.02842323
-0.06242316
-0.05026244
0.01879155
0.03977341
-0.03155911
0.01658098
-0.08924533
0.05984489
0.04881615
-0.07151056
0.00848872
0.02047838
-0.03350682
0.07721518
0.06938963
-0.03893741
-0.02342266
-0.07268193
-0.02903854
-0.01390780
0.04941791
-0.00690903
0.05432698
0.07188689
-0.07113042
-0.04385875
0.02157125
0.02209820
0.03793737
0.05353327
0.06085158
0.06219985
-0.11034715
0.04786142
0.05137292
-0.06670436
0.03489785
0.06318328
-0.05659750
0.03977357
0.01572023
0.04253193
0.05835766
0.02768383
0.08414442
0.04035070
-0.03186911
-0.06207683
-0.00045333
0.02756498
0.02602158
0.11239919
0.07071702
0.03616626
-0.09433020
0.00222028
-0.07450110
0.00592617
0.04112468
0.02788917
0.03361996
-0.01882015
0.04480231
-0.04043178
-0.03613649
-0.04357355
0.05108837
-0.03388612
0.05472200
-0.06280433
0.01104543
0.04539104
0.00462991
-0.05714175
0.01496970
-0.01435004
-0.11830312
0.00512523
-0.01015199
0.03362485
-0.05847045
0.03081725
-0.08178611
0.03680907
-0.02033113
0.05514905
-0.02630781
0.03367023
0.04076138
-0.02699859
-0.02761208
0.08647466
-0.01700270
0.08305641
0.00108736
0.02959591
0.02312318
0.05225767
-0.05452984
-0.05961450
-0.02643085
-0.05943976
0.11000556
0.03045031
-0.04968971
0.03817261
0.00846777
-0.06930218
0.04245900
0.08000714
0.07426381
-0.05376496
-0.06425252
0.04414113
0.02362358
-0.00536208
-0.04007462
0.00442692
0.09129693
0.01036629
0.03997773
-0.01058994
0.04053524
0.04060783
0.02566888
-0.06284306
0.10310577
0.03080084
0.08142469
-0.04216773
-0.08834679
0.00511182
0.00351721
0.07835402
-0.05988958
0.10453477
-0.00241911
-0.01413222
0.03587021
-0.08625086
0.05301398
0.01294967
-0.10066963
0.00939700
0.03765217
-0.03451168
0.01652379
-0.01071078
0.01000434
-0.00471315
-0.13240829
0.10533608
0.01584530
-0.06428302
-0.02142273
0.07468674
-0.05524367
-0.07261301
-0.09399920
-0.04383961
0.05935991
0.01271232
-0.08635363
0.01825207
-0.05841188
0.02493170
0.02244021
0.01251477
-0.01242152
-0.05091256
0.06135096
0.07066344
0.07323958
-0.06130643
-0.00714763
0.06032088
0.07981665
0.04131037
-0.00862144
-0.02289375
-0.07726261
-0.05304038
-0.10560355
-0.03412825
-0.01266481
0.05725264
-0.08008084
-0.02363484
-0.04588934
-0.00041141
-0.06725214
0.06590517
-0.01702012
0.05729977
0.02287270
-0.01574795
-0.02290110
-0.02627285
0.01793128
0.03820471
-0.06461530
-0.12803947
-0.04221095
-0.05211669
0.09477702
0.05744479
0.08892048
0.02584331
0.05286134
0.00896731
0.07567852
0.07099280
0.02858935
-0.09298130
-0.03480499
0.02621281
-0.09362384
0.05442456
0.00217115
0.02068232
0.09768141
-0.06609516
0.12172918
0.02935659
-0.05531472
-0.01263701
-0.10447985
0.10600348
0.03484677
-0.07678016
-0.10418194
-0.10941799
-0.08422830
-0.04938845
-0.02314703
0.00410940
-0.07077363
0.00008346
-0.04894524
-0.05096903
-0.09018864
0.01388581
0.02904996
-0.02762529
0.00997978
0.03245867
0.00845272
-0.07280019
0.00935004
0.04356940
-0.01599672
-0.09134061
0.02747642
0.00942904
-0.03788387
-0.08633884
0.14704805
0.00062163
-0.12553462
-0.03372395
0.04679345
-0.02690393
0.06618590
-0.06354995
-0.01096065
-0.02304670
0.02956565
0.00980248
0.02730533
-0.01975858
0.07821889
0.02008851
-0.00516099
0.03371039
-0.05021200
0.02833854
0.07412945
-0.01840325
0.02242932
0.03099533
-0.05391826
0.03212124
-0.02530039
0.02537127
0.02573887
0.01051170
-0.09418405
-0.00220019
0.03679408
-0.01199506
-0.02510171
0.03123816
-0.00682230
-0.02449049
-0.00844664
0.10109665
-0.05123355
0.02172794
0.02674544
0.05252091
-0.06891290
-0.02828294
0.09037898
-0.00272286
-0.03086239
-0.02148230
0.05035232
0.01450606
0.06526610
-0.04996964
0.00407483
0.04981158
-0.01402305
0.01147461
-0.17227401
0.08446532
-0.00293683
-0.02335893
-0.11115987
0.00025217
-0.04721047
0.06815792
-0.03347564
0.08446747
-0.00916378
0.00957603
0.00975223
-0.00098379
-0.02716495
0.02730071
0.03772711
0.04252414
0.10903158
0.01409792
-0.03686342
-0.01393759
0.01884177
-0.02755270
0.00941309
-0.07881365
-0.02250579
-0.01537900
-0.02844938
0.04736946
0.06410364
-0.06401772
0.00981346
0.03174905
-0.06931912
0.03891004
-0.05846907
-0.07069231
0.07401769
-0.10280033
0.12660608
-0.05403734
0.09256272
0.00063775
0.15687422
0.04151244
-0.00202648
-0.07790340
0.03536300
-0.00498188
-0.04229143
0.01853856
-0.01220409
0.02447012
0.00022552
-0.00382449
-0.02525974
0.09559596
-0.01285223
0.11618321
-0.00878829
0.02256497
0.06572803
-0.11511757
-0.01157099
0.02080211
0.02762223
-0.07641143
-0.12252650
-0.07767011
-0.00603256
0.07320671
0.01478238
0.03361711
0.05024599
0.08540047
0.08389629
0.01419338
0.09166631
-0.04531139
-0.09065054
0.06465614
-0.02633352
0.03357373
0.05974789
-0.04745562
0.09387146
-0.00679722
0.10464136
-0.00569748
-0.03539397
-0.00883991
0.04085900
-0.03771318
0.03672466
-0.02315663
0.09631751
-0.01280766
0.12988593
-0.01560416
0.03353795
0.02625263
0.05326254
0.16236226
0.10535447
-0.04236874
0.01702978
-0.01003927
0.01663554
0.05547547
-0.09418570
-0.00693142
0.15209286
-0.09983355
0.09368783
-0.00800419
0.03436001
-0.01323379
0.00665741
0.13189695
0.02216439
-0.03604985
-0.05264872
-0.06209255
0.10771151
-0.04489948
0.09993621
0.04844906
0.01542295
0.09157136
-0.01332199
0.00807522
0.06447499
0.01354247
-0.03342630
-0.01546233
-0.01392959
0.04219300
0.10996795
0.00615824
-0.02790649
0.02845844
0.02636149
0.01745779
-0.00704598
-0.05153134
0.02441378
0.01076527
-0.10626778
-0.03629454
-0.01080482
-0.00596774
0.07081374
0.00500722
-0.07647739
0.07893444
-0.03320681
-0.06365705
0.03883787
0.01137628
0.06832587
-0.00217982
-0.02101017
-0.03998517
0.02850696
-0.07382290
-0.05782582
0.06600275
-0.04367650
0.04595983
-0.13221289
-0.00771824
0.04653694
0.06987443
0.13008731
-0.03103526
-0.02474054
-0.06264867
-0.07011256
0.02564619
0.03257420
-0.07586423
-0.00949050
0.01878327
-0.01677006
-0.08504350
0.03931136
-0.01398864
0.09393430
0.01873614
-0.05341146
-0.01215452
-0.01787569
0.06388134
0.01961256
0.04258123
0.02039922
-0.02451771
-0.02529538
-0.06664089
0.03073231
-0.02318606
-0.01797675
0.01830386
-0.01574019
0.05703288
-0.00398977
-0.02328099
-0.00313728
0.00472608
-0.02838773
0.03398620
0.03700617
-0.04247792
0.02070650
-0.02384844
0.03769835
-0.01433466
0.00996109
0.00016309
0.00396484
0.01506355
-0.04637154
-0.02031016
0.01939721
0.00843997
0.04382161
0.00834307
-0.02148345
0.05073191
-0.02543590
0.04887709
0.04907183
-0.02591322
0.05291468
-0.00324631
-0.06591178
0.01345578
-0.01667885
0.06287677
0.02032287
0.01553001
0.03904114
-0.01125356
-0.05986519
-0.03482701
-0.00369801
0.06004874
0.03922305
0.05416329
0.06180667
0.00735464
-0.02302636
0.00716257
-0.04028175
0.05789378
0.02409652
0.05001877
0.04834082
0.02612541
0.04109359
-0.02105672
0.05837629
-0.03435880
0.09563946
-0.05633683
0.01665559
-0.03436810
-0.01409936
0.03222666
0.01629129
-0.03577483
0.06840380
0.00169829
-0.08533662
-0.01348481
0.02517489
0.02757716
-0.01321105
0.04331457
-0.01200973
0.01530031
-0.00641154
0.06679672
-0.00400089
0.06337888
0.05205967
0.00155729
-0.00834796
-0.01094044
-0.04250209
0.01863082
-0.01881995
-0.00398511
0.01819261
0.01609942
-0.05712715
0.00020923
0.01957097
-0.04773354
0.02786459
0.07952308
-0.00495367
0.08252533
-0.00520361
-0.04291732
0.06504816
0.05630506
0.05905829
0.00207983
-0.04222851
0.02963367
-0.03971896
-0.02131600
0.00502091
-0.01270476
0.02686030
0.03698109
0.06736154
-0.00820987
-0.01379390
0.06491945
-0.03787250
-0.00419121
0.09351484
0.01212255
-0.00076143
-0.02656625
-0.11283574
0.03450230
0.01715599
0.08511591
-0.00648306
0.05790693
0.00044727
0.02902852
0.02983704
-0.04497018
0.00772084
-0.03966503
-0.04335368
0.06036838
0.02831278
-0.06717003
-0.01683715
0.00195191
0.00273998
0.04753094
-0.05843219
0.04165969
-0.01344632
-0.06108902
0.02611041
0.01855075
-0.00392108
-0.01763333
-0.02837254
0.07707331
0.05788049
-0.00961531
-0.07644059
-0.01103031
0.01445380
-0.00420488
0.01684867
0.00309133
0.05928109
0.00316796
0.05613434
0.05052929
0.10213792
-0.06858738
0.00467630
0.04041769
0.07271620
0.04770371
-0.01662878
0.04937109
-0.06792198
0.00918270
-0.03816384
-0.05089191
0.02533660
0.07960817
-0.07496614
-0.03209960
0.02814546
-0.00372138
-0.03889538
-0.00447278
-0.04815915
0.03870358
-0.03873086
-0.06384309
-0.02505745
-0.00414884
0.05745251
0.03692960
-0.05795799
-0.07318402
0.01966523
-0.03909680
0.03115620
0.05825972
0.11446841
0.00294695
0.00202614
-0.01963748
-0.00592072
0.06580665
0.07606403
-0.01686640
-0.02166908
0.06846135
-0.02356647
0.05267241
0.00109730
-0.06218409
0.04114437
-0.07318184
0.08507977
-0.00260431
-0.06925075
-0.03898108
-0.01666925
0.07002829
0.09328610
-0.02451537
-0.06650514
-0.02879535
-0.01667869
0.03930080
-0.00145828
-0.01704061
-0.05879837
0.01251435
0.03023861
-0.08643219
-0.06337618
0.06214839
-0.04700631
-0.05062956
0.05145970
0.06007694
0.00366875
-0.03917304
-0.04302801
0.09265903
0.00523618
-0.08485721
0.00211866
0.05395676
-0.01024347
0.01147925
0.03696070
0.04195133
-0.05060354
0.02361477
0.04173966
-0.01296268
0.00010297
-0.05975011
-0.03679180
0.02169842
-0.02037805
-0.00463639
0.04078094
-0.04306847
0.03323733
0.00892744
-0.00143374
-0.03055811
0.02808568
0.01339611
0.04594698
0.00365873
-0.03703708
0.03096178
-0.02622698
0.02873552
-0.03295107
0.02698732
0.02058966
-0.05198477
-0.03934804
-0.03185987
0.06709732
-0.04433406
-0.04544519
0.02859217
-0.00047368
-0.01597612
0.05210098
0.09084747
-0.11719556
0.04668756
0.05653980
0.02929977
0.01039969
-0.03940770
0.07333850
-0.04988718
0.00226492
0.01204068
0.04944124
0.01397421
0.07301236
-0.01354494
0.00683229
0.00395838
-0.02259799
-0.00624145
-0.08280302
0.04021735
-0.02120359
-0.02204877
-0.04561573
-0.02581823
-0.00260598
0.02773302
-0.06275224
0.01939016
0.02226105
-0.02460682
0.02244826
0.03239470
0.01731750
0.02233089
0.04109635
0.01356688
0.07853985
0.02966037
0.00387361
0.01839609
-0.00083155
-0.01339992
0.00298863
-0.07157698
-0.00872537
-0.02779118
-0.06706826
0.05389807
0.04637465
-0.04590328
0.03521800
0.07590515
-0.04900161
0.07340785
-0.02062090
-0.07949325
0.01657340
-0.06190781
0.05716577
-0.01648942
0.02813897
0.00896418
0.05595761
0.00499696
-0.01947856
0.00127174
0.02186270
-0.00648641
-0.02676578
-0.03398669
0.05959334
0.05560132
0.03151842
-0.02659067
-0.10338210
0.00954804
-0.08710070
0.06674229
0.02041277
0.04178461
-0.00133408
-0.06750943
0.01715019
-0.00802009
-0.00838162
-0.04840039
-0.03676207
-0.04080937
0.02659419
0.03756941
0.04923040
0.04167628
0.03137463
0.09580367
0.09305719
0.01170265
0.06018784
-0.00135130
-0.04524455
0.07455660
0.04140786
0.03089877
0.02839665
-0.02931014
0.03591616
-0.02220323
0.08074179
0.04440527
-0.00451805
-0.05895829
0.10417957
-0.08933853
-0.00205679
-0.01650283
0.06841563
-0.00831937
0.02793314
-0.02688798
0.01652734
0.00652117
0.00789949
0.04241681
0.05282662
0.02465284
-0.02009858
0.04282873
0.00748223
0.04056845
-0.04984161
0.04429602
0.09937299
-0.03286015
0.01905938
0.06701710
0.07582440
-0.02483780
0.00530128
0.08140759
-0.03227758
-0.07339593
-0.04873895
-0.01247772
0.05141939
-0.02435524
-0.00785653
-0.01807554
0.02513369
0.01876546
0.00796864
0.00366395
0.09681951
-0.02153080
0.02319656
0.01905043
0.01709547
0.05922195
0.05435289
-0.03567380
-0.04206031
0.01348816
0.00692381
0.01036176
0.01216206
-0.03918682
0.03758310
-0.02823976
-0.01427185
0.06799017
0.03128373
-0.04599861
-0.06247407
0.07420579
-0.03907629
0.03897068
0.03123420
-0.03657142
0.02071332
0.00526601
0.03558412
-0.04095972
-0.03251322
0.00645278
0.01599473
-0.01432523
-0.03144780
0.02557648
0.00695937
0.06201691
-0.04335017
-0.02695145
0.03830485
0.03153302
0.03517627
-0.00461107
-0.00863127
-0.03202526
-0.05301222
0.04138934
0.02655235
0.02061741
0.00356901
-0.00436455
-0.08129509
-0.05840835
0.03173310
0.00879491
0.07769616
-0.04083015
-0.00428722
0.02689424
-0.02776926
0.05528983
0.05794175
-0.08715630
0.06601950
-0.01660055
0.02004523
0.03839866
-0.05989857
0.01762952
0.02025714
-0.11212321
0.01533916
-0.06127572
-0.03434793
-0.02176526
-0.03808648
-0.01936801
-0.01182999
-0.07420593
-0.00020918
0.06338247
-0.07745506
0.01626022
-0.00153953
0.06191250
0.00785422
-0.03299551
0.01410953
0.00904102
-0.00187336
0.00975617
0.03345120
0.08336104
-0.08260120
0.02811794
0.02679006
0.00072779
0.00961891
0.05518747
-0.08811943
-0.12317865
-0.03137119
0.05510931
-0.01735124
0.01704316
-0.04247799
-0.03426528
0.03203419
-0.01065191
-0.00437132
0.05938392
0.02469498
0.02276243
-0.07670416
0.02104258
-0.01611058
0.02646988
-0.01084852
0.01458852
-0.03005032
0.04419684
0.04420033
-0.03863259
-0.02317096
-0.05270199
0.00801791
-0.05295177
0.03064528
0.00057756
-0.00463958
0.07847962
-0.06788365
0.03186946
0.05773601
0.08895747
0.05086058
0.03717138
0.03968244
-0.01071436
-0.03998419
-0.05910958
0.00890875
-0.01637934
0.03956272
0.01123497
0.05709887
-0.01077269
-0.02870214
-0.02146227
-0.03771891
-0.03486381
-0.00079260
-0.01368197
-0.04212134
-0.01120189
0.04390181
0.08692671
0.00561621
0.06309120
-0.04494636
-0.03492436
-0.00599272
0.05823205
0.04778117
-0.07426208
-0.07207831
-0.01216389
-0.00005513
0.06848146
-0.06855524
-0.03239766
-0.01107718
-0.01741973
0.02879255
-0.00135369
0.02607998
-0.01608570
-0.00457212
-0.02924843
-0.00065482
0.04829438
-0.03232556
-0.05903207
0.03786583
-0.05039060
-0.03253826
0.00712461
0.12448298
-0.08419189
0.03410716
-0.07858926
-0.14302051
-0.03580770
0.08696020
0.06036730
0.06428815
0.01926677
0.08628098
0.02414655
-0.06920415
-0.12859674
-0.01508748
-0.08733010
0.09543302
0.09166491
0.00208792
0.02594076
0.04465734
0.09043922
-0.02245523
0.02535298
-0.00776499
-0.09967701
0.02981251
-0.10429828
0.05881627
0.03461521
0.07164382
-0.07392479
0.02976785
0.01562571
0.05499641
-0.04540225
-0.00896380
0.01163531
0.07029287
0.01593153
0.02631283
-0.01694962
-0.00190164
0.03912856
-0.09605615
-0.05332813
0.04907284
0.07025555
0.02309543
0.07199647
0.03218400
0.04023642
-0.08834898
0.00563455
-0.00916595
-0.03477101
0.03991033
0.01162240
0.04634086
0.02100770
0.00680175
0.01451948
0.08895423
-0.05116398
0.00867057
0.01947939
-0.08111523
-0.04969104
-0.02112027
-0.07627443
0.00079629
0.04156394
-0.01971768
0.06804327
-0.10282056
-0.12300231
0.01007936
-0.11551415
-0.02103965
0.04323067
-0.09527746
0.05164102
0.07836010
-0.03428536
-0.06241410
0.09443073
-0.00544175
0.08374358
-0.10135977
-0.01366412
-0.02686631
0.01051378
0.07196623
-0.03108005
-0.05143519
-0.00835029
-0.02466198
-0.01278437
0.11999957
0.00101446
0.04484516
-0.03235237
0.01084999
0.01464868
-0.03471543
-0.10184652
-0.01376335
0.06625093
0.08119325
-0.03555531
-0.05696535
-0.04521671
0.00106636
0.01713928
-0.06770157
-0.07963262
0.01791259
-0.07478219
0.06735662
-0.03443868
0.09866087
0.07200989
0.03296343
0.00194268
0.06695823
0.00754018
-0.00911038
-0.06706291
0.00280401
-0.00139582
-0.01205108
-0.05698500
0.01129679
-0.01261859
-0.02863210
-0.01683070
0.01775807
-0.01991815
-0.12587094
0.02348081
0.05324932
0.01350449
0.03316928
-0.06766203
0.00866369
-0.00360197
0.04503393
0.04409118
-0.05912990
-0.06289854
-0.02741751
0.01035218
-0.03581421
-0.01922440
0.04867020
0.08659225
0.01008856
0.03269622
0.02533452
-0.01379050
0.05892638
0.00569955
0.04896996
0.00160810
-0.00612065
0.00711806
-0.01143438
0.03774081
0.02097750
-0.03980969
-0.04789724
-0.02868479
-0.01148370
-0.02195625
-0.00020886
0.07399191
-0.02997420
0.02095724
-0.05269682
0.09405746
0.02304799
0.11698718
-0.00769460
0.02537178
-0.04361457
-0.00267665
-0.03529968
0.00036162
-0.00880606
0.07257894
0.01984259
-0.01262915
0.00722910
0.07069186
0.04736156
-0.00835180
-0.01663935
-0.01902168
-0.02464809
0.01843778
0.03291419
-0.00772316
0.02200615
0.01182998
0.02899497
-0.06141381
0.04964759
-0.05061771
0.00108229
0.01382762
-0.01270311
0.01384179
0.00887845
0.00731729
0.00087761
-0.00739961
-0.01102416
-0.03299282
0.06345929
-0.03126651
0.08191357
0.02603323
-0.02284012
-0.01436701
0.01383386
-0.02059639
0.01193777
-0.00956821
-0.02135246
0.03560091
0.05533143
-0.03481193
0.00271558
-0.01564398
0.03420166
0.03524791
0.02413330
0.06690800
0.01970671
0.05157421
-0.01027877
-0.03149927
0.06018097
-0.02598392
-0.08122611
0.03474977
0.00286759
0.03307411
0.09677508
0.04794091
0.01960406
-0.06609375
-0.00466231
0.05159167
0.03231347
0.02749777
0.02375986
0.05187892
0.05508456
-0.03249332
0.00215788
0.06546018
0.00016345
0.01852463
0.00353836
0.07488547
-0.02226853
0.00312248
-0.01695054
-0.03177576
0.00067196
0.01652950
-0.02399836
-0.00563417
-0.07428364
0.02406093
-0.01073219
-0.04409283
-0.01408681
0.01181852
-0.09058409
-0.05651711
-0.02018221
-0.01709253
0.00321554
0.02389052
0.06661088
-0.02108360
-0.03363384
-0.02779754
0.03577275
0.01153507
0.05103964
0.06889099
-0.05034447
0.03162051
-0.03079727
0.00246842
0.07072792
-0.04085668
-0.00543788
-0.02277741
-0.01436059
0.01158028
0.01481404
0.02141404
0.07155869
0.00665418
-0.01898614
0.07076382
-0.05019303
0.02427711
0.09855983
0.01474189
-0.00190180
0.00849465
0.08774247
0.06837981
0.04938719
0.03257465
0.02472995
0.03491286
0.01851703
-0.07001041
-0.01934023
0.01940436
-0.05835246
0.01056442
0.06254856
-0.07908220
0.00822521
-0.01442781
0.04984454
-0.02053163
-0.00163211
-0.04185841
-0.05369439
0.00959796
-0.08796804
-0.03697617
0.03219971
-0.05630284
-0.09521458
0.03985830
0.00189677
0.00207163
0.01474006
0.10026928
-0.02298080
-0.05567957
-0.03698940
0.02893016
0.03552208
0.01064007
0.09881260
0.04937784
-0.04624313
-0.00270334
-0.01655007
0.04511312
-0.00136316
0.02459640
0.02704601
0.01690984
0.01870198
-0.00448407
0.05898772
-0.03940105
-0.04006837
-0.04263890
-0.00990368
0.03435920
-0.03210805
-0.04538756
-0.04400020
0.07745486
0.06442960
0.02581690
0.02475464
0.03106683
-0.02899046
0.03436487
0.00085586
-0.06548174
-0.02533296
0.04258293
0.05510370
-0.03127974
0.04078211
0.00251797
0.03019480
0.00002021
-0.02142741
0.06811679
-0.02969513
-0.03985582
-0.01678275
0.01640333
-0.03012234
-0.06637646
-0.01856507
-0.00184917
-0.05332871
-0.00114461
-0.02076488
0.00279447
0.00465192
-0.02507738
0.00140088
0.01783726
-0.00623390
-0.00697096
-0.00089713
-0.00610467
-0.03556762
-0.00021014
0.03233968
0.06903344
-0.01958668
0.02645095
0.00280117
0.00344248
-0.01026403
0.06221090
0.00128612
-0.10752928
0.01249208
0.06159255
-0.01898492
-0.01748546
-0.01189050
0.05255797
0.03727509
-0.00436259
0.03182107
0.02619427
-0.00342675
-0.02062839
-0.04024866
0.04037407
0.02939098
0.03609968
0.01910340
0.01579584
-0.02037349
0.02895823
0.03526831
0.05163120
0.05939424
-0.00457910
0.02511557
-0.03835512
0.05217224
-0.02558950
0.05220070
0.01702465
-0.01707124
0.00460171
0.02222830
0.03555601
0.06845592
0.02723834
0.06367252
0.02310694
0.00841911
-0.05192771
-0.05168107
-0.03730395
-0.01999425
-0.00045083
0.02459200
-0.00309451
-0.03462755
0.00328017
-0.03079283
0.02353555
0.00366556
0.03781708
0.03197872
-0.01867501
-0.01723902
0.02185928
-0.05284608
0.02171426
-0.03359794
0.04323197
-0.00701092
0.04895127
0.01304229
-0.06986771
-0.01431637
-0.02846386
0.00717317
0.05259465
-0.04362647
0.03148030
0.06556467
-0.05055337
0.04921938
-0.00761678
0.07861260
-0.01663349
-0.03156077
-0.00030858
-0.05555038
-0.02278043
-0.04425805
0.01331037
0.05222637
0.01757402
0.01912987
-0.06671452
0.04730386
-0.02790938
-0.00689891
-0.05046178
-0.03049771
-0.01720916
0.07064946
0.01821799
0.01101392
0.00485382
0.01226035
0.01406916
-0.07270985
-0.03751722
-0.01476028
-0.01239889
0.06722077
-0.01009906
0.00852541
0.00484017
0.04196273
0.07593556
0.00968035
-0.01402812
0.01551461
-0.04667547
0.05794048
-0.06580309
-0.01257545
0.03068451
0.08213067
-0.06324901
0.01388380
0.02232783
0.06267338
-0.04271366
0.02800283
0.04310563
0.01246849
0.02379162
-0.05401487
0.00336803
0.00398421
-0.00320111
-0.02264088
-0.02753201
-0.00003041
0.05345086
0.04375533
0.08971218
0.09682540
-0.03683070
-0.04992008
0.00606513
0.01588141
0.01104339
-0.01299054
0.02085748
-0.00150764
0.02122139
-0.00074934
-0.00248026
0.05613503
0.02440106
-0.04781506
-0.00029640
-0.04461912
-0.02510462
-0.01617872
-0.01298649
-0.01750842
0.00678212
-0.00062123
-0.01364528
-0.08256046
-0.05949289
0.06176225
-0.02917731
-0.04109671
-0.01749904
-0.02142666
-0.02694900
0.03630126
-0.00769651
0.04857779
0.08548597
0.05347038
0.01803343
-0.05360310
0.03248865
0.01146048
-0.00688360
-0.00330252
0.04193200
-0.02909433
0.01640782
-0.00578101
-0.01290738
0.07963453
-0.05991667
0.07120715
0.01715344
-0.04354322
-0.04681059
-0.03276039
-0.04428450
0.02307163
0.03769452
-0.00507348
0.01938597
-0.03287973
-0.02064519
0.01361170
0.00029556
-0.03162784
-0.01248047
0.03406083
-0.04961328
-0.01836468
0.02646126
0.04310640
0.04320922
0.01751801
0.04309705
0.02261148
0.00713167
-0.00989887
0.01320974
0.00343621
-0.02275717
0.01352339
-0.02279705
0.04135976
0.02267247
-0.01624542
0.00132925
-0.02648981
0.01839463
-0.05616153
0.02910377
0.03180811
0.01925465
-0.00892312
-0.00493787
-0.00304074
-0.02043875
0.01926741
-0.01999956
-0.00472851
-0.04161299
-0.02652012
-0.03703295
-0.02859119
0.05237610
0.05578187
0.04831525
0.01414663
0.01204443
-0.01238387
0.02441946
0.03450859
-0.02520845
0.00771969
0.01266815
0.00748294
0.01325765
-0.02359345
-0.00865090
-0.02155890
-0.02539499
-0.01983663
0.01356939
0.03295173
0.05014540
-0.00456172
0.02398322
0.02804810
0.00925926
0.01088030
0.02093007
0.06634869
0.03318015
0.00969350
0.01348309
-0.00660487
0.00939921
-0.00346080
0.01761559
-0.02591643
0.05416763
0.01489368
0.01188234
-0.02472192
0.05976541
0.01357806
-0.03159146
-0.02040231
-0.00608045
0.00492366
0.03327716
-0.03142213
0.01394776
-0.01733578
0.02337373
0.01253360
0.00605162
0.04957703
0.02353652
0.07356716
0.00367244
0.03174255
0.02782566
-0.00906540
0.02038181
0.00260587
-0.05725791
-0.00604553
-0.05263228
0.03746563
-0.01918167
0.00544761
0.01247986
0.00295958
-0.03176242
0.03311008
0.07317249
-0.02497286
0.02597563
-0.03470229
-0.03507691
0.06975231
-0.03248992
0.03036946
0.00611368
0.05934637
0.02487278
0.01494939
0.03306006
-0.00279526
-0.01071891
0.01931131
-0.00952108
0.04110439
-0.05109069
-0.00365683
0.01092508
0.01860686
0.02449482
-0.00762900
0.03720751
-0.00034456
-0.01208191
0.02567433
0.00311904
0.05110600
-0.01411249
0.03342502
0.05014060
0.05201079
-0.04525021
-0.00507641
-0.01632151
0.01985026
0.02489295
0.03055151
0.01850613
-0.00933460
0.05245232
0.05756015
0.02025883
0.05044883
0.03257357
-0.03102205
0.06244244
-0.02562235
0.01518273
-0.00357992
-0.00508580
0.03759669
-0.07545048
0.02343803
0.00307019
-0.01250231
-0.04801803
0.03015811
-0.05264326
0.00085808
-0.00440321
0.01733304
-0.04889844
0.05965585
-0.02990660
0.04178877
0.03881204
-0.04251372
0.06461081
0.04529553
0.04035793
0.01057165
0.00645684
-0.02683908
0.02732478
-0.03958440
-0.00930978
0.04533684
-0.01827982
0.04720108
0.00563214
-0.05448137
0.02345841
-0.00897052
0.04305427
0.00148631
-0.03117608
-0.04950084
0.01673253
0.09040121
0.04591618
0.02640891
-0.00082658
0.04497777
0.07183206
0.01021897
-0.02429477
0.03858959
0.00497549
-0.02516103
0.02176132
0.05539307
0.01878484
0.04738687
-0.04107841
0.01719810
-0.02237432
0.02726016
-0.03960796
-0.04923423
-0.00772364
0.00224426
-0.01130820
-0.02656132
-0.02975995
-0.05941179
0.01394822
-0.02680264
0.03244673
-0.06715565
0.10549451
-0.00754964
-0.02590072
-0.02922148
0.01709524
-0.00063259
-0.04075681
-0.00009719
0.00725703
-0.04187085
-0.01271807
-0.06774458
0.03830626
0.01865035
0.01387767
-0.02836054
-0.01239345
0.03503857
-0.03661855
0.07043966
-0.00626769
-0.03182100
-0.02679291
-0.01304764
0.06237745
0.04039466
-0.01829343
-0.07061426
0.02089701
0.01029903
-0.01577052
0.01316848
0.03615150
0.04141783
0.03929437
-0.02862211
-0.04306449
-0.03002108
0.04420746
0.04237160
-0.01312844
0.08198236
-0.03376041
0.00293332
-0.07518115
0.02450661
-0.00389804
-0.05463417
-0.01847938
-0.02902951
0.02310659
0.04696437
-0.03892236
0.01742005
0.01013791
-0.02301941
0.01791353
-0.00712840
-0.02158942
-0.04299699
0.00138174
-0.00154755
0.01039191
0.02002022
0.02396098
0.00788330
0.03101717
0.00928051
-0.03089670
-0.00079413
-0.03268762
0.02608600
0.01074077
0.00069053
0.05306527
-0.02038719
0.07949315
0.01586356
-0.06333977
0.01690548
0.05108967
-0.04353623
0.03301184
-0.03797351
0.03091845
0.00420865
0.02122137
0.00303760
0.03445055
-0.00690185
-0.01282053
-0.04157930
-0.00570614
0.01544304
0.05905490
0.03438231
0.03295906
-0.02037698
-0.01764915
0.03538872
0.02515769
0.05832222
-0.02532401
0.02581943
-0.04338121
-0.00614055
-0.04500772
0.07448547
0.01425986
0.03338108
-0.03760079
-0.03160362
-0.04787879
-0.00528577
-0.01274445
0.03114792
0.00316538
0.00738472
0.02493081
-0.04096032
0.00299981
-0.03135273
0.00695750
-0.05188221
0.00606767
-0.01864957
-0.04587914
-0.00769050
0.01434767
-0.03155455
0.01672349
0.02336699
-0.03790376
-0.01312661
0.06109300
-0.02636446
0.04226189
-0.05784083
-0.00705885
0.02290486
-0.02701382
-0.01352887
0.05023438
-0.01948193
-0.07441442
0.01559989
0.04960068
-0.03973023
-0.00994615
-0.00600698
-0.02183347
0.00482314
0.02445521
0.01855508
0.01586807
-0.03926817
0.03614863
0.00686062
0.00245929
0.00573664
-0.01762259
0.01006544
0.01650101
0.04727343
-0.02570428
0.00158929
-0.02665430
-0.06388990
-0.01916531
-0.00231505
0.00846435
0.00360717
0.00920214
-0.04603986
-0.02392396
0.01603844
0.04236090
-0.05113102
0.01624487
0.00019953
0.02180658
0.03307939
-0.04066067
0.04556160
-0.02956730
-0.03963311
0.00487190
0.04036950
-0.04206674
0.00674227
-0.01179755
-0.01106576
0.00584773
-0.03888011
0.03926576
0.05299172
-0.03706412
-0.03610781
0.06515849
-0.03081366
0.00905284
-0.00421332
-0.02513521
0.05114597
-0.02405125
-0.07789603
0.02961256
-0.03420928
-0.01529678
0.00840586
-0.01153319
-0.00508114
0.03514580
0.09065806
0.02786834
0.01855702
-0.06153377
-0.04036781
0.02856293
0.12940040
-0.03664768
-0.00297594
-0.01500958
0.00532382
-0.00552382
0.03091248
-0.02996532
-0.03291450
0.02278304
-0.08665308
0.02806645
-0.03322080
0.00503264
-0.02622198
0.04745512
-0.05039559
0.00057566
-0.04001119
-0.06597539
-0.00075079
-0.02420267
0.03993956
-0.07540970
0.00174921
-0.03653760
0.00315372
-0.03126356
0.01906570
0.00860162
0.06210131
0.01439205
0.01087501
0.02943161
0.01800873
0.04124714
0.06765062
-0.05625080
-0.00748596
0.03242035
-0.04250324
0.02291209
-0.03902544
-0.01284727
0.04933297
-0.05826259
0.02486465
-0.00884946
-0.07481728
-0.03093109
-0.02807920
0.05448356
0.04368085
0.02490909
-0.00714237
-0.05358926
-0.00568311
-0.02570484
-0.00341919
0.00677709
-0.02249178
-0.03162332
-0.01120872
-0.05875711
-0.03056442
0.04952862
0.03179865
0.04066980
0.00422451
0.05554659
0.01399548
-0.01740656
0.03270493
0.05329230
0.00452493
-0.03557882
0.00040100
-0.01064356
0.02493299
-0.02387397
0.05853082
-0.02319312
-0.05113126
0.01801766
-0.00962469
0.01923456
0.03154293
-0.04563210
-0.05407593
-0.01554801
0.02137404
0.00713086
0.03176537
0.02886656
0.06756954
-0.02466327
-0.03210021
0.00449845
0.01897816
0.03577489
0.04488036
-0.00856129
0.03208314
-0.02342682
0.00186383
0.03231357
0.03986596
0.02891603
0.02818628
0.00533198
-0.05651129
-0.04970387
-0.00005970
-0.07943371
-0.03513131
-0.01682074
0.04141864
-0.06591078
0.02442833
0.08912037
-0.04060727
0.04678144
0.00013168
0.05784639
0.03400185
-0.00735931
0.05313067
0.03746308
-0.07602919
0.00322043
-0.01288083
0.00546643
-0.00490086
-0.00817688
-0.02016799
0.00387020
0.01601221
0.01783536
-0.04689163
0.00033371
0.02109732
-0.03583197
-0.03707886
0.05029911
-0.02731431
0.03148457
-0.00973721
-0.03554854
0.03200545
-0.00097617
0.02002735
-0.02912855
-0.00057255
0.04019549
0.05965406
-0.02502207
0.04983054
-0.00011861
0.02916070
0.03260642
0.04006213
-0.01652776
0.00476968
-0.01504368
0.01414173
0.01667670
0.01276165
-0.04261729
0.02965234
-0.03205568
0.08884604
0.03383739
-0.02957582
0.05249331
0.02952411
-0.03861467
-0.01993784
0.00296540
-0.03492947
-0.05469653
0.01857357
0.06993446
0.02460039
-0.01313858
-0.02140989
-0.03172137
0.01862215
0.01463832
0.03503815
-0.03069425
0.05541013
-0.00147386
0.00468021
0.00517188
-0.04580519
0.02699285
-0.04345642
0.00605136
0.01502393
0.00728494
0.00942906
-0.05062463
-0.00443112
0.02628315
-0.03698532
-0.07046213
0.01649758
-0.06831329
-0.00923297
0.03910902
0.06784067
0.06658879
0.03503460
0.04903099
0.03547025
-0.00094345
0.04718503
-0.00262788
-0.02756892
0.08975556
-0.01048669
0.03681507
0.05547175
0.00182418
0.02946682
-0.06836461
0.03279081
0.03851691
-0.05364259
0.02155111
0.01533039
-0.03111577
0.02558662
-0.02290632
0.03400165
0.01497108
0.07516178
-0.03673495
-0.00677135
0.02946720
0.02037847
0.05174567
0.02498457
0.01503221
0.05081944
0.02021794
0.00505052
0.00667445
-0.05880356
0.00196549
0.05263306
-0.05402849
0.05193807
0.00103351
0.06187856
0.08162506
-0.02398067
0.06021768
0.02372366
-0.01394639
-0.01666602
-0.00839300
0.03038544
0.00900494
0.03443892
-0.03519131
0.00240380
-0.01374052
0.01975616
0.00618679
0.04288122
-0.03119521
-0.07085476
0.00673056
0.04626507
0.03348435
0.02579052
0.03027881
0.01396971
0.01375314
0.00919722
0.01981218
0.05667904
-0.00359451
0.03289468
-0.01026848
-0.05800259
-0.04510692
0.03867132
0.01143713
-0.03565526
-0.04413559
-0.02281380
0.00109238
-0.00787429
-0.01988774
-0.03039632
-0.01558786
0.00673386
-0.03631295
-0.00305246
0.03314237
-0.00134063
-0.03379372
-0.06890829
0.04708753
0.02301915
0.01502027
-0.01558343
-0.01357196
0.04098208
0.03047278
0.05574618
0.01954180
0.02753367
-0.04322916
-0.04417438
0.07473089
-0.00348411
-0.04706738
0.02297421
0.01422654
0.00276719
0.01397977
0.03924324
-0.03045868
0.05040886
-0.02258711
-0.08898699
-0.01986408
-0.04123380
0.07090947
0.06378887
-0.02071872
0.04230286
-0.02362692
-0.00506897
-0.00965193
0.00566142
0.02911487
-0.02881331
-0.03444574
-0.03101200
0.02163307
-0.02231187
-0.06134931
-0.02704912
0.00877265
-0.05585197
0.01433341
0.02758416
-0.01018038
-0.02406641
-0.00472802
-0.02280771
0.00267737
-0.00811635
-0.01300905
0.00364685
0.02560608
-0.05748162
-0.01432746
0.03161216
0.05590140
-0.01308364
0.03228017
0.02094607
0.01472731
-0.05286383
0.07562678
0.00042524
-0.08671575
0.00300180
0.03732477
-0.05212736
0.03078849
-0.01322552
0.03834080
0.04768059
0.00949411
0.04599667
0.03817898
-0.03071837
-0.03582536
-0.03812490
0.03617360
0.02064483
0.04868551
0.03674359
0.01946913
-0.04567491
0.03769309
0.00135407
0.04702402
0.03507991
0.00413221
0.01691264
-0.03607047
0.05007985
-0.03180535
0.03154068
0.00151847
0.00806763
-0.02202143
0.04759434
0.02179676
0.05612084
0.02627466
0.05179881
-0.01522070
0.01568572
-0.05047225
-0.08013936
-0.04513888
0.00095549
0.01732487
-0.00676498
-0.01641407
-0.03760041
0.01825091
-0.03165187
0.01565852
-0.00683021
0.04706608
0.03307478
-0.01326256
-0.00896435
0.05343257
-0.02307544
0.03585557
-0.03956797
0.03173907
-0.01200601
0.04308817
-0.00997240
-0.07561724
-0.02672298
-0.05081550
0.03816698
0.05483322
-0.05136233
0.02678549
0.04226351
-0.05560542
0.05174191
0.02329607
0.06682171
-0.03488077
-0.05526252
0.01368241
-0.02848382
-0.01659530
-0.04539810
-0.00592141
0.07194476
0.00459634
0.02217022
-0.04827879
0.06407139
0.01138603
0.03357676
-0.06278530
0.02812588
0.00428726
0.06685602
-0.00550370
-0.02637616
0.02526698
0.03440550
0.04975656
-0.06310991
-0.00725577
-0.00087189
-0.02038991
0.06570952
-0.01194554
0.02521201
0.02336652
0.01000665
0.04912219
-0.00071833
-0.00955673
-0.00914204
-0.02926521
0.04981176
-0.04664085
-0.04986789
0.05613415
0.05167067
-0.06374419
0.01690974
0.03329929
0.01309552
-0.04872860
-0.03946909
0.02020232
0.03907332
0.01142520
-0.06892061
-0.01245925
-0.01322022
0.02123339
-0.01269262
-0.03016068
0.01014827
0.03490930
0.02470745
0.05972683
0.09333075
-0.04125419
-0.04509047
0.01648279
0.01967289
0.01441344
-0.03384847
0.02326019
-0.01077643
0.00462975
-0.03696222
-0.02080088
0.05348146
0.03395935
-0.08032845
0.01050733
-0.02474897
-0.03748800
-0.04606591
-0.01084478
-0.00732521
0.02574312
0.00265464
-0.00688157
-0.06844417
-0.04373575
0.04372516
0.00130625
-0.05013990
-0.05406095
-0.02945224
-0.01136074
0.06662687
0.02087568
0.06905622
0.05253900
0.03529524
0.01981401
-0.02333684
0.04090245
0.00954477
-0.03215881
-0.03024502
0.03684664
-0.05009918
0.01572676
-0.00164654
0.00422232
0.09595370
-0.04084330
0.09511262
0.01956601
-0.05851264
-0.02808735
-0.04206517
-0.02272004
0.03462626
0.00820842
-0.01740746
-0.02713082
-0.06344365
-0.02121042
-0.00072337
0.00995012
-0.06336421
-0.02219958
0.03406663
-0.07301345
-0.03350661
0.01997888
0.02774302
-0.01021918
0.02061115
0.04330730
0.02036672
-0.00809259
0.01052361
0.01130644
0.00505888
-0.04715877
0.00588753
-0.00892530
0.01564042
0.00881745
0.04592557
0.00817219
-0.05422608
-0.00595844
-0.02736530
0.01463128
0.04560759
-0.01171011
0.00501699
-0.01381710
-0.00561499
-0.01684174
0.00221319
-0.02243188
0.00933971
-0.04601233
-0.01440315
-0.00355882
-0.03034485
0.03082050
0.02800065
0.02715529
0.00814123
0.02269748
-0.01089934
0.02996755
0.02705161
0.02056585
0.01660501
0.00067873
-0.04861514
0.00902336
-0.00027678
0.00130730
-0.03385300
0.00614007
-0.03326859
-0.00107845
0.03475791
0.05958221
-0.03343295
0.02724066
0.04144001
0.02143651
-0.02126011
0.01461031
0.06464360
0.03380241
0.00192990
0.02239645
0.00704958
0.00225167
0.00775897
-0.00994404
-0.02736667
0.03895596
-0.00676933
0.00023176
-0.05251180
0.06605908
0.01463110
-0.00216486
-0.04467866
0.00001292
-0.01177562
0.06874940
-0.04684813
0.03021703
-0.00046653
0.02923817
0.01443423
-0.00530298
0.01944043
0.01648420
0.03875111
0.03257959
0.05687881
0.04949270
-0.01520478
-0.00645432
0.01574862
-0.05707914
0.00524588
-0.06296501
0.03807091
-0.03410474
0.00406943
0.03673319
0.01358010
-0.04844329
0.03361513
0.05921991
-0.03590310
0.03362941
-0.04485180
-0.05697851
0.05059727
-0.06326216
0.07294844
-0.02240417
0.07454031
0.02212236
0.07106357
0.04600715
-0.00002045
-0.01682456
0.03837073
-0.02206335
0.02076963
-0.04031792
-0.00603987
0.02042648
0.03749362
-0.00635321
-0.01121160
0.04400086
-0.00123678
0.04238305
-0.00662088
0.05380262
0.03255872
-0.03436600
0.02980595
0.03845176
0.03716383
-0.07604824
-0.05062416
-0.02890584
0.00557056
0.05795335
0.02161081
0.03056251
0.02420803
0.06511452
0.06442716
0.00602119
0.06776848
0.00546687
-0.04507773
0.05208696
-0.02563236
0.01454099
0.02848298
-0.02863284
0.03872187
-0.04725920
0.01825455
0.00988433
-0.00963790
-0.03958288
0.04591538
-0.04607313
0.01611579
-0.01577261
0.02782911
-0.01401852
0.08186799
-0.01057815
0.03610852
0.05306658
-0.02353182
0.07938240
0.07219901
0.00104289
0.01075510
-0.00570504
-0.02804163
0.05186887
-0.05496961
-0.01617159
0.07641143
-0.03768664
0.05188394
0.00770667
-0.00676944
0.00432877
0.01370349
0.08132179
0.00134048
-0.01682714
-0.04072625
-0.02154480
0.09553828
0.03286604
0.03645201
0.01890163
0.02573271
0.05724011
0.01670612
-0.03095698
0.03838156
0.00018797
-0.03140231
-0.00754057
0.05839811
0.01167959
0.08595869
-0.00492291
0.01704656
0.01510776
0.00444591
-0.00344578
-0.05121612
-0.00851052
0.00709075
-0.01121836
-0.02715383
-0.01140224
-0.03884134
0.01091447
-0.00396118
0.04632825
-0.05317376
0.11345708
0.00414689
-0.06969750
-0.01581392
0.01740268
0.04022018
-0.03022838
0.02006326
0.01891872
-0.02024119
-0.02650996
-0.04533900
0.04938295
0.00251191
0.02761961
-0.04596040
-0.00674568
0.03629308
-0.00726601
0.07996536
-0.01977994
-0.03335011
-0.05580966
-0.04359340
0.06176416
0.01822494
-0.04350199
-0.05347173
0.01620557
0.02524124
-0.03751484
0.00768276
0.03875325
0.05986431
0.01116059
-0.02115475
-0.03063228
-0.01843575
-0.03670914
-0.01709141
0.07081968
0.11587666
-0.07214239
-0.13852512
0.05477853
0.02647799
0.02576578
-0.03296312
-0.12582045
0.11258351
-0.05693957
0.08061227
-0.18750781
0.04798453
0.01535130
-0.00975781
0.04310023
0.05884201
-0.10886000
-0.06026293
0.08396409
-0.04400893
0.02091513
-0.07318699
0.01848147
-0.00381085
0.08985933
-0.04442382
-0.02186935
-0.04858971
0.11269407
0.04771956
0.17946630
0.09804806
0.07615897
-0.00286786
-0.04589242
-0.05549557
-0.07792989
0.03787285
0.15788991
-0.09913029
-0.04588747
0.03611718
-0.03195354
-0.00180718
-0.07334537
0.08128714
0.02554024
-0.06912581
-0.02148085
-0.09188261
-0.03302374
-0.05231578
0.07442674
-0.02907828
0.01109914
-0.06302529
0.12609620
0.00834881
-0.09278560
0.00255098
-0.00700960
0.15274319
0.03080007
-0.01934799
0.03400191
0.01516286
0.01241664
0.00488471
-0.01062525
-0.05642745
-0.08057658
0.04443653
0.03344583
-0.01433297
-0.00108651
0.02174641
-0.09113689
-0.09348278
0.10123753
0.08326670
0.06873136
0.00194282
-0.05234236
0.07411793
-0.03841885
-0.07672545
-0.09803352
0.05007812
0.14499556
-0.05805620
-0.05598862
0.05034424
-0.03326000
-0.11350032
0.04718727
0.13702418
0.06230807
0.00590215
0.04622716
-0.05386287
-0.00600822
-0.00435661
-0.10257369
0.02491107
0.05178134
-0.09858894
-0.07664973
0.05207660
-0.05651176
0.11305268
0.11764533
0.21346397
-0.00284783
-0.11643496
0.10890326
0.10608727
-0.02214949
-0.05010784
0.04029511
0.22108927
-0.11347533
0.08103656
-0.09428167
0.06555570
0.13707993
0.01398531
-0.08458412
0.00099934
0.10457318
0.16804840
-0.02548284
0.11268086
0.09980396
0.00084426
-0.00293198
-0.14221482
-0.06266644
-0.02214669
-0.00768438
0.17950604
-0.11534285
0.06478333
-0.00118448
-0.08573722
0.08126194
-0.00054646
-0.02816641
-0.15183981
-0.15471632
-0.08156319
0.00179006
-0.03499387
0.00630110
0.05828524
-0.08723109
-0.06120552
0.15819445
-0.16479388
-0.09139605
-0.01975981
-0.09055302
0.12209822
0.06642498
-0.09129974
0.11275055
-0.16733345
0.13587349
-0.01815740
0.03079680
-0.00236645
-0.05609399
0.09356484
-0.07744710
-0.00743785
-0.07779558
-0.05701091
0.21676429
0.07660995
0.09307915
0.07026960
-0.01793669
0.02165304
-0.09928586
-0.05897893
-0.01614428
0.07217912
-0.02241153
-0.03370280
0.07493747
-0.15210969
0.05277319
-0.10501686
-0.03995548
-0.12434602
0.00690410
0.05222637
0.06576527
0.04652781
-0.04727726
0.10390692
-0.16487303
0.04063592
0.02976120
-0.16891489
-0.07704646
0.12397995
-0.00479459
-0.08252637
0.03503395
0.09642268
0.02999175
0.09946594
0.10298031
-0.01570511
-0.06292381
0.09478234
-0.22095043
-0.03534208
-0.00482913
-0.02616762
-0.00066587
0.20720398
0.05327213
0.22830809
0.09005585
-0.07623483
0.06704137
-0.09459221
-0.10516449
0.03079448
-0.01278774
-0.05065759
-0.00745820
-0.11418802
-0.07639302
-0.00941206
-0.11674515
-0.01120100
0.03990061
-0.06307538
0.03821092
-0.11434503
-0.16541766
0.10776612
0.04131139
-0.02628209
-0.01714557
-0.02849760
-0.05732586
-0.00277776
-0.02796587
-0.01812822
-0.03049624
-0.09824921
0.07001448
-0.07652725
-0.04474589
0.05893659
-0.11498777
-0.09918707
0.02384022
-0.11498085
0.07281005
0.06044104
0.02514906
0.06111716
-0.12942180
0.06353204
0.02439963
0.05103382
0.02605650
0.01768537
-0.06796201
0.07657670
0.09419713
-0.04816506
-0.03403505
0.24371174
0.04334053
-0.01716648
0.02555109
-0.04978688
-0.01394293
-0.01268955
-0.03259578
0.10947289
-0.06547070
-0.06979481
0.01024248
0.02717171
-0.11605661
-0.07558656
-0.15133551
0.09004884
-0.02556697
-0.07385196
0.08865565
0.05340390
0.12431465
-0.06886889
0.09928744
-0.18404358
0.01977713
0.10772775
0.14577368
-0.07540941
-0.09100859
0.03931537
0.05986314
-0.06292617
-0.15365722
0.03893005
0.16122524
-0.05704588
-0.08521766
-0.03438182
0.17274691
-0.00760387
-0.03161934
-0.09967423
0.00512782
0.03855139
0.15416248
-0.10664505
0.08987977
-0.06012663
0.05039331
-0.03790283
-0.08427188
0.11910703
0.00070729
-0.09191133
0.11420435
0.08918357
-0.00093869
0.01971588
-0.04257247
0.10851830
0.00786029
-0.01164399
-0.11562909
0.02780166
0.01350136
-0.08263387
-0.04311656
0.02379871
-0.08580338
-0.07919132
0.00311589
0.03963967
-0.00795836
-0.04555508
-0.00779431
0.07501481
0.00960077
0.02537780
-0.10754688
0.02463726
-0.05530075
0.11671562
0.00848901
-0.04625204
-0.07176822
-0.05284218
0.05574691
-0.03676960
-0.04391698
-0.06216367
0.06937168
-0.02422053
0.06348180
0.13047661
0.09726517
0.06900241
-0.10811764
-0.03779406
0.08839031
0.00976478
-0.11538693
0.09600452
0.02333820
0.00535526
-0.19083323
-0.08422502
0.07675193
-0.10608924
-0.00588437
0.01839938
0.06641845
0.01859640
-0.04047400
0.06076348
-0.06708221
0.08260172
-0.14239160
-0.03133780
-0.04930925
-0.19269617
0.09752121
0.07810361
-0.11739066
0.15520895
0.14118466
0.06944131
-0.16556038
-0.11846177
0.09031927
-0.05091266
-0.05056500
0.07144347
-0.03904786
0.03398211
0.02074778
0.06214620
-0.02705901
0.20029203
0.17907979
0.01340975
0.12887192
-0.01596198
0.05821887
0.06270584
-0.11422428
0.10951417
-0.02010331
-0.02599951
0.05885377
0.10649256
-0.07483687
0.14075548
-0.03019463
0.00973503
0.06553584
-0.04224464
0.09970472
0.03465874
-0.06735088
-0.07740891
-0.11005895
0.18826373
0.06828937
0.16510123
-0.01216134
-0.10076007
0.05165505
0.02069470
-0.05046353
-0.08699359
0.09535995
0.06208976
0.09157307
-0.04536950
-0.12408115
-0.02177258
0.00414127
-0.02268176
0.00881328
0.02906237
0.02512820
0.00415089
-0.03564741
-0.09456976
0.04134174
-0.10101753
0.02156964
0.06203694
0.00691720
0.10878191
0.04421868
0.09805339
0.17037048
-0.12505923
-0.10175092
-0.06925749
0.08720582
0.12854209
-0.09823555
0.02057704
-0.08541728
0.00760920
-0.07574038
0.00536367
0.08947954
-0.15578553
0.08872457
0.00479759
-0.03315919
-0.00035433
-0.05611612
0.09037827
-0.03926494
-0.15470370
0.05016305
0.06431926
0.04828747
0.01853562
-0.21872720
-0.03287518
0.02188693
-0.12936784
0.06170515
0.05951170
-0.05634299
0.07968994
0.01183012
0.03654476
-0.14308475
-0.05962623
0.05470170
0.05964202
0.03609213
0.03861683
-0.02657306
-0.04286295
-0.04549653
0.00607022
0.02944872
-0.02864538
0.03203693
-0.06682124
0.06875698
0.05060730
-0.02541873
0.00927629
0.02475345
-0.04455777
0.09969517
0.05873239
-0.03596734
-0.00299116
-0.05832698
-0.02904161
-0.01930004
0.06726738
0.00431541
0.02699692
0.04446783
-0.06315915
-0.03304041
0.00434617
0.00864440
0.03670349
0.03661198
0.06619230
0.03000094
-0.10840136
0.04828006
0.03016324
-0.07001941
0.02087170
0.06879860
-0.04245864
0.01949100
-0.00357930
0.03230770
0.06512792
0.01363341
0.06676064
0.03563035
-0.03384621
-0.08060216
0.01209594
0.03973596
0.04458867
0.05938067
0.08462804
0.05815033
-0.09800179
0.01561931
-0.04340146
0.00117789
0.04056666
0.03649535
0.02786182
-0.00857757
0.02360125
-0.05761996
-0.01572598
-0.05735925
0.02959997
-0.03915930
0.03601669
-0.06136386
0.03677249
0.02492032
0.01059438
-0.04986378
0.03636939
-0.00293549
-0.11288089
-0.02052162
0.00202056
0.03194508
-0.04059799
0.03409056
-0.07596972
0.03651077
-0.01059724
0.03265475
-0.02378243
0.03726845
0.05855583
-0.05537727
-0.06592725
0.08080607
-0.01448151
0.04053787
0.01046307
0.02888489
0.00270117
0.07564782
-0.06957784
-0.08353901
-0.03662839
-0.08507859
0.10361355
0.02176138
-0.03519775
0.06014679
0.02874216
-0.07162525
0.04870959
0.07672295
0.08761787
-0.06623864
-0.07186174
0.06257267
-0.00024144
-0.02226270
-0.04900526
0.00793458
0.07333680
0.00058147
0.04930572
-0.02754391
0.02610318
0.02914811
0.00433658
-0.06252708
0.09321614
0.00904315
0.07949556
-0.03591043
-0.07141869
-0.00594865
0.00975420
0.05051848
-0.07206716
0.09751634
-0.01868546
-0.01283998
0.02120887
-0.09101716
0.04305443
0.02267434
-0.11420808
-0.00292458
0.00855923
-0.03282847
0.03818909
-0.01635163
-0.00324615
0.02612235
-0.10979249
0.10777397
0.03205910
-0.05149496
-0.03454012
0.07351234
-0.04423979
-0.08919771
-0.06970878
-0.05404263
0.03276174
0.02387351
-0.08897561
0.00135010
-0.06874011
0.01601071
0.02216491
0.03910706
-0.02419733
-0.03932486
0.04458889
0.06461543
0.10110354
-0.08313177
-0.00335731
0.04025139
0.07767854
0.01986981
-0.00643256
-0.03124433
-0.08508677
-0.04393858
-0.14028196
-0.03882623
-0.01777578
0.04471260
-0.09573391
-0.02297335
-0.03993190
-0.03591362
-0.04471503
0.04032595
-0.02806817
0.05636483
0.02549598
-0.02914180
0.00546793
-0.00871177
0.01258049
0.04128288
-0.07273205
-0.13585117
-0.05651401
-0.05484514
0.08153041
0.04745981
0.08905819
0.03262378
0.07519938
0.00407593
0.04237257
0.05696495
0.02548641
-0.09528798
-0.02317441
0.04401013
-0.08341045
0.05910364
-0.01238958
-0.00415222
0.06568350
-0.07987216
0.11858329
0.02110027
-0.06512246
-0.00929359
-0.12173705
0.09563814
0.01373987
-0.09377610
-0.10161411
-0.12181811
-0.09688934
-0.06322832
-0.01711779
0.02509988
-0.04014425
-0.00564432
-0.02002080
-0.04734085
-0.08148573
0.02177255
0.02021255
-0.03346953
0.01559924
0.02988744
0.01681598
-0.07436103
0.03316451
0.05054971
-0.00785060
-0.04611991
0.04876510
0.02553357
-0.05455967
-0.07043459
0.12273644
-0.00247198
-0.12646136
-0.05768983
0.04014699
-0.00090396
0.07957179
-0.05423960
-0.01006733
-0.00799723
0.03277412
0.03579817
0.03704001
-0.03247881
0.09926298
0.02470636
0.00581522
0.03314490
-0.03441801
0.01493764
0.07869303
-0.00926119
-0.00038058
0.03809547
-0.03187828
0.03091698
-0.02167221
0.03558712
0.02495555
-0.00307056
-0.09132443
0.00186488
0.01420889
-0.01927847
-0.03204648
0.02206021
0.00323620
-0.03353633
-0.01909355
0.08732197
-0.04230234
0.04077794
0.02394947
0.03821163
-0.06892638
-0.03773473
0.09139073
0.01892467
-0.02395474
0.00917558
0.03962396
-0.00839083
0.04254945
-0.04488668
0.00114440
0.05100107
-0.02269751
0.02220077
-0.15201691
0.06983301
0.00501779
-0.00337162
-0.08882293
-0.00043942
-0.01402279
0.04033512
-0.04404438
0.08484449
0.01768605
0.01659705
0.00180813
-0.03042928
-0.02570439
0.03002136
0.03218941
0.01883100
0.07681832
0.02595725
-0.03129494
-0.02211485
0.04368450
0.00628106
0.02675357
-0.07104064
-0.02395254
-0.02217143
-0.01509441
0.02205522
0.06564149
-0.03260482
0.03160258
0.01620779
-0.04633510
0.03554626
-0.02864275
-0.07675390
0.08426111
-0.10331618
0.11516265
-0.03198945
0.09187085
-0.00749560
0.13012021
0.02041793
0.00790440
-0.09176109
0.03587860
0.00355223
-0.03692696
0.01133776
-0.00455286
0.00989206
0.02106147
0.01042577
-0.05353197
0.06353538
-0.00162244
0.12289995
-0.00961295
0.00122259
0.08059285
-0.10339358
-0.02679092
0.00538583
0.00019722
-0.05969202
-0.11378968
-0.08382616
-0.01580593
0.06052369
0.00635429
0.01123971
0.06604752
0.10708003
0.09229146
0.00357253
0.09952832
-0.03833275
-0.08976317
0.04637145
-0.00984396
0.01033773
0.03926978
-0.03972014
0.08863055
-0.04310601
0.09051738
0.01224444
-0.01335073
0.01888780
0.02583482
-0.04399536
0.04819998
-0.00319615
0.08641533
-0.01252611
0.10528434
0.01136204
0.02634133
0.02721554
0.02968143
0.12723202
0.09644491
-0.03044326
0.01814891
-0.00680068
0.02323732
0.07121953
-0.08192066
-0.01828074
0.14781472
-0.11984224
0.09789465
-0.00831436
0.03702254
-0.01477755
-0.00611785
0.10139418
-0.01171570
-0.01955867
-0.05596046
-0.03977700
0.08566317
-0.04014781
0.10457973
0.04817873
0.02370790
0.09431631
-0.02293200
-0.00763202
0.07483282
0.00294298
-0.02861303
-0.01598276
-0.00868234
0.04167588
0.11527513
-0.01951677
-0.03664205
0.04992173
0.00657200
0.01411715
0.00256437
-0.03455398
0.02540106
0.02747830
-0.11736112
-0.05456059
-0.00256620
0.01459840
0.06142733
-0.01223433
-0.08002148
0.09947163
-0.03456472
-0.06448223
0.02769758
-0.03060886
0.07639954
-0.01657025
-0.05588949
-0.05807309
0.05818069
-0.05497116
-0.06100030
0.02293074
-0.05775090
0.03163933
-0.14489613
0.00456301
0.05496409
0.03194056
0.10457629
-0.02182236
-0.03043976
-0.06410793
-0.06735881
0.04393263
0.01202410
-0.06229949
0.01016985
0.01684321
-0.03357114
-0.07023550
0.01531182
0.00354845
0.07428716
0.02748653
-0.04744015
-0.02110640
-0.04644141
0.05224307
0.04172779
-0.00944922
0.04667447
-0.03678006
-0.02702675
-0.03536476
0.00691441
0.02858978
-0.03106466
-0.00535538
-0.06080287
0.03152834
0.03643770
-0.05374073
-0.00647098
0.01608282
-0.03329997
0.05037935
0.04495318
-0.02985725
-0.01303484
-0.04220981
-0.02395500
-0.01522852
0.02724450
0.00242641
0.02178171
0.03859417
-0.03783845
-0.03139905
0.01178301
0.03516587
0.02589434
0.04196663
0.05326178
0.03683994
-0.08438402
0.06244178
0.02130831
-0.06475778
0.01419313
0.03706870
-0.04521610
0.03455283
0.00112181
0.03161560
0.04576216
0.00983496
0.05089644
0.04334813
-0.02409866
-0.05088601
-0.02552179
0.01623405
0.01217561
0.07578068
0.05952476
0.03465923
-0.05929658
0.00932392
-0.02854319
0.01286633
0.04093411
0.01162886
0.01339647
-0.02494278
0.02446181
-0.04620006
-0.01232458
-0.02433050
0.02015217
-0.02465970
0.03263243
-0.02358777
0.03457429
0.03083761
0.01765493
-0.02158640
0.01400522
-0.01038908
-0.07596924
-0.01598049
-0.01118421
0.02930563
-0.03537677
0.00936342
-0.06746606
0.02779481
-0.01568900
0.02685875
-0.01784962
0.02256864
0.05882800
-0.03983377
-0.03034300
0.08649806
-0.01966738
0.04333344
-0.02209167
0.01811424
-0.01156994
0.04829835
-0.03296472
-0.07865367
-0.02761671
-0.05319371
0.07965259
0.02260210
-0.05755269
0.03479901
0.02748400
-0.04846698
0.02815393
0.05668822
0.08270549
-0.05496325
-0.04756710
0.03883404
0.00209520
-0.00440554
-0.03626841
0.00757217
0.05901833
-0.01464587
0.02688935
-0.03369906
0.04998269
-0.00049929
-0.00347895
-0.05989606
0.05194189
-0.00112392
0.06489175
-0.02200976
-0.02786568
0.00004429
0.00406006
0.05771666
-0.07125498
0.05591172
-0.01411709
-0.02093368
0.05782618
-0.03839373
0.02616550
0.03053321
-0.07526390
0.02094334
0.00988304
-0.01511368
0.03292616
-0.02888476
0.00605758
-0.02630704
-0.08806897
0.09253832
0.04718342
-0.04934006
-0.03129820
0.05859966
-0.03754833
-0.07039592
-0.05834405
-0.03696209
0.04323992
0.02111838
-0.06538781
0.02056366
-0.05483640
0.02267523
-0.00307254
0.02276201
-0.02426696
-0.01225400
0.03642249
0.06779703
0.07319936
-0.04958601
-0.03581525
0.03011068
0.06022172
0.01228913
-0.01165978
-0.02380154
-0.05925887
-0.03530719
-0.06322118
-0.04808354
0.01134767
0.01789595
-0.09274510
-0.01360460
-0.04853027
-0.01649946
-0.04192081
0.02205365
-0.01626814
0.04350780
0.01455802
-0.00416801
-0.02341455
-0.04704614
0.01122052
0.00401837
-0.03438793
-0.07714534
-0.05426841
-0.02210024
0.05681214
0.03120223
0.06344468
0.03980959
0.04248091
0.02373714
0.00683168
0.04455170
0.02142056
-0.05597451
-0.02708167
0.03655835
-0.06833733
0.01358680
-0.00480662
0.01778322
0.08708492
-0.06195131
0.09231031
0.02274957
-0.04683089
-0.02787089
-0.08818472
0.06174771
0.03007670
-0.04664252
-0.06923217
-0.07245994
-0.07552863
-0.04202083
-0.00203538
0.01925786
-0.04966876
-0.02068584
-0.00875521
-0.04117982
-0.04943199
0.00989257
0.02435992
0.00397771
0.01635708
0.03263619
0.01139877
-0.02249392
0.01237485
0.01735647
-0.01057126
-0.04317675
0.02069287
-0.01112889
-0.03174490
-0.05392111
0.07700126
0.00388898
-0.09908878
-0.03558759
0.01701252
0.00511313
0.07466683
-0.02200499
0.00347529
-0.01278597
0.02794117
-0.00431880
0.01293248
-0.00904991
0.06377479
-0.01502117
0.00510784
0.01841000
-0.04918656
0.01438049
0.05097002
0.00421308
0.00116858
0.01917254
-0.01446529
0.02377406
0.00112637
0.03998566
0.01931898
0.01831283
-0.06471886
-0.01352022
0.00134252
-0.01264934
-0.03131218
0.01656969
-0.00730779
-0.02603462
-0.00404470
0.07947459
-0.01558106
0.03264020
0.00793795
0.04710488
-0.03692819
-0.02937677
0.06634714
0.02486346
-0.03611274
0.00648590
0.01008306
0.01166590
0.02706203
-0.04179397
-0.01439820
0.03341859
-0.01078568
0.02608559
-0.11567773
0.06092924
0.01409517
-0.01854984
-0.08064144
0.00981893
-0.02420680
0.04395301
-0.02775688
0.04807202
-0.00507308
0.01641386
0.01025940
-0.01127951
-0.01134019
0.00975638
0.04403039
0.01026013
0.06048028
0.04009565
-0.02085102
-0.00623781
0.03026487
-0.01740306
0.01759490
-0.04813927
0.00496903
-0.02011607
0.00495198
0.02546866
0.04925573
-0.03256560
0.02785966
0.04649656
-0.03561184
0.03108017
-0.03969327
-0.04895264
0.06775674
-0.07219033
0.09035324
-0.02932398
0.08786114
-0.00074360
0.10052591
0.02603727
0.00412147
-0.05615626
0.02294910
-0.00437218
-0.01024317
0.01183126
-0.00143303
0.01554170
0.00914655
0.00126544
-0.00892549
0.05085163
-0.00048013
0.06677259
-0.01473048
0.01090650
0.06951510
-0.07250526
-0.01067963
0.00835914
0.01375986
-0.05954269
-0.07125399
-0.05881992
-0.00501986
0.04697354
0.01589185
0.02983759
0.03995287
0.05432620
0.05973316
0.02299961
0.07639762
-0.02673038
-0.05625224
0.05984423
-0.01003139
0.02131974
0.04434289
-0.03272571
0.06422992
-0.03588766
0.05264213
-0.00177940
-0.02965423
-0.00215430
0.01597290
-0.02627886
0.03610398
-0.01784421
0.06458683
-0.01247453
0.09108493
-0.00208750
0.01842012
0.03219006
0.01338153
0.10779253
0.06930925
-0.03522782
0.01722281
-0.01011316
0.00096520
0.06179647
-0.06634962
-0.01297748
0.10230731
-0.07902278
0.08524017
-0.02309149
0.01539250
0.00491256
-0.00396756
0.08325608
0.00741330
-0.01939451
-0.03386056
-0.04061087
0.08960579
-0.01385419
0.08998484
0.01904293
0.02155989
0.06570063
-0.00195699
-0.01472809
0.06332619
-0.00344133
-0.04588788
-0.02137508
0.02588991
0.02465177
0.08565699
0.00691409
-0.01497438
0.03576127
0.00339050
-0.00547273
-0.01276722
-0.01540531
0.01800521
0.01498435
-0.09206374
-0.04245925
-0.01563747
-0.00278027
0.04947588
-0.01354932
-0.04307565
0.09333594
-0.02668101
-0.05797040
0.01899942
0.01039319
0.04189552
-0.00479795
-0.02228432
-0.02276556
0.00200967
-0.04409482
-0.04690698
0.04468532
-0.03482477
0.02872805
-0.08563518
0.00260795
0.03316491
0.03161871
0.09732841
-0.03402665
-0.04159758
-0.05807655
-0.05469744
0.03746054
0.00763493
-0.05608178
-0.01723465
0.01778076
0.00518415
-0.04101242
0.00828153
-0.02126814
0.06213997
0.04073374
-0.04358607
-0.01070279
-0.11097020
0.07938646
0.04740823
-0.06357885
-0.01067474
0.06364018
-0.05984013
-0.03326131
-0.09733005
0.17346944
-0.11190058
0.04332666
-0.05457858
0.01745882
-0.00469083
-0.07586989
-0.02864416
0.00505087
-0.05948062
0.06769297
-0.06138859
0.00288905
0.05238422
-0.03623099
-0.07434142
-0.03338451
-0.04178401
-0.01715890
0.03922434
-0.01735291
-0.07612768
-0.03322862
0.14576492
0.08410298
0.01149444
0.04804513
-0.00868192
-0.01713651
-0.02790744
-0.04609051
-0.00322696
-0.17643936
0.01892684
0.11304728
0.01246927
-0.02030042
0.02290547
-0.00931234
0.03222973
0.00580645
-0.01249816
0.00628545
-0.04500547
-0.01543920
-0.13639209
0.01122658
0.02737339
-0.02146256
-0.07655178
0.07677011
0.02566848
-0.00865976
0.04435436
0.10189977
-0.00140007
-0.05117101
-0.01539139
-0.02875094
-0.02415475
0.03189245
0.01687301
0.04441206
-0.04575483
-0.03178287
0.04721960
0.01080592
0.09110317
0.01802562
0.04933739
0.04821407
0.05631241
-0.08098939
0.00775927
-0.06044747
-0.14130080
0.03174726
-0.01829816
-0.06246227
-0.06350537
0.05366794
-0.10698066
0.06827043
0.04301147
0.06180847
-0.00790154
-0.04556388
-0.09947113
0.01181187
-0.02801566
-0.03275282
-0.10413536
0.06710636
-0.01492976
0.12853655
-0.01628465
0.04209616
0.00134818
0.00341771
0.01696383
0.00088593
-0.02208262
0.02516862
-0.02127418
-0.07732066
0.08464325
0.06408550
0.13558593
-0.08251419
0.01055863
0.02164463
-0.02491546
-0.01301305
-0.03658140
-0.01896908
0.03513287
-0.01139404
0.05073168
-0.05549390
0.10273742
-0.07441076
0.01013172
-0.08136976
-0.08348554
0.05914222
0.04163825
0.02170893
0.02114176
-0.05542766
0.02920849
0.03972760
0.01000916
-0.11423838
-0.04016828
-0.00914531
0.05994168
-0.07227286
-0.04440334
0.03674184
0.06176139
0.04122996
-0.03426706
0.04087302
-0.08115499
-0.06502469
0.06638844
-0.09128053
0.05896636
0.09268624
0.06712213
-0.09407324
0.02135756
-0.02045935
0.04039733
-0.00160395
-0.05176059
0.01183346
-0.04834390
0.06795830
-0.02931833
-0.08759099
0.08981751
0.01811856
-0.02816123
-0.03513179
-0.00010175
0.02071316
0.04393660
0.10321920
0.11084482
-0.00840095
-0.13051153
-0.07065873
0.06318360
-0.05199065
-0.04837709
-0.07592669
0.05731153
0.09086532
0.01893791
0.04485451
0.11214725
-0.02600097
-0.09924250
-0.02747919
-0.06677836
-0.00637737
-0.05222335
0.03978174
0.01567351
0.07256118
0.07131772
0.02726602
-0.18356953
-0.15378344
0.11141173
-0.08863936
0.02681482
-0.00896653
-0.03901844
-0.03960049
0.01566722
-0.08488272
0.03959898
0.11542475
0.03123140
0.07472018
-0.07249606
0.10913701
0.00036265
-0.01910268
0.01583803
0.10793293
0.01679568
0.02373439
0.00504131
-0.01240047
0.15080757
-0.05221381
0.08710524
0.00699862
-0.00430476
-0.07647137
-0.12164528
-0.09099017
-0.00871028
0.00466768
-0.03502683
0.04129948
-0.00574135
0.00338373
-0.00967832
0.03688540
-0.05331549
0.03506868
-0.03478285
0.00155887
-0.04644534
0.03051427
0.13030654
0.02837278
0.06977385
0.00628037
-0.04406211
0.04140598
-0.08572315
0.00325785
-0.02621651
0.01230172
0.06118258
0.00913724
-0.03677808
-0.03639482
0.06136892
0.07567981
-0.00372250
0.05611234
-0.04405358
-0.06506384
-0.05102647
-0.03016932
0.04455051
-0.04495490
-0.03141445
-0.04990032
-0.03630910
-0.07665300
0.01022367
-0.02852349
-0.01821712
-0.06629357
-0.04031538
0.05318282
0.13503144
-0.00173013
-0.04497985
-0.05293453
0.03894368
0.11988854
0.06148240
0.01331647
0.04964084
0.09130238
0.05883448
0.04124531
0.00619205
0.01121475
0.02238982
0.04739296
-0.02168764
0.09889362
-0.04646594
0.09483165
0.02624690
-0.05231672
0.05788768
-0.03165049
-0.04857289
0.08301069
0.10229222
0.05903170
0.07062678
0.00316914
-0.01792225
0.04721697
-0.03248180
-0.06678977
-0.01922671
0.06705431
-0.00408591
-0.02368657
-0.07345466
0.07566633
-0.03915658
-0.02743502
0.04218706
0.00375469
-0.01962143
-0.01508867
0.01597912
-0.07820159
0.01452185
-0.07075336
-0.04174262
0.09952487
0.02809563
0.06614372
0.09429588
-0.05919580
0.10432136
0.07487766
0.01177429
0.06203733
-0.02675579
-0.15654718
0.03020699
-0.02228567
0.02313056
-0.03580239
0.02520232
-0.00411077
0.03884051
-0.08092919
-0.05110351
0.16707258
-0.04545298
0.07043049
-0.00979926
-0.02304757
-0.01314077
0.00261493
0.08925166
0.02876666
0.12810193
0.06291725
0.08993198
0.08705244
0.06936046
0.03208262
-0.00588316
-0.01736853
0.03322507
0.00733706
-0.05212749
0.04896613
-0.05822820
0.04061881
-0.01597593
0.11195950
0.00129684
-0.00641624
0.04708845
-0.10659738
0.12849911
0.01933294
0.04148031
0.02013569
0.15516806
-0.06928489
-0.04243513
-0.03302608
0.01507511
0.00440049
0.06360526
0.01483835
-0.10155097
0.09984222
-0.02999475
-0.00674017
-0.04148889
0.11069774
-0.02897707
-0.00204324
0.01939159
-0.02159205
-0.05680282
-0.05066911
0.10314595
-0.07981353
-0.00443524
-0.12219898
-0.00888488
-0.06208428
-0.02452133
-0.15450789
0.05114977
0.05710318
0.00773074
-0.13338165
0.06528439
-0.12491473
-0.04500398
0.03469796
0.02964209
0.14746157
0.03126628
0.09097000
-0.00937469
-0.02005326
-0.12244400
0.02025176
-0.04266797
0.02386182
0.09595096
-0.06895349
0.16472538
-0.00848535
-0.10342664
-0.02380508
0.05696289
-0.03423807
-0.00857469
-0.07070611
-0.03718993
0.00158479
0.03607408
-0.00531621
0.08259689
-0.02021074
0.01600270
-0.01332260
0.00889249
0.03299065
-0.03327147
0.04418031
-0.02476320
0.00331724
0.09573297
0.02304900
-0.05940146
-0.08554591
0.02232732
-0.04441712
0.08939361
0.03335704
-0.14678646
0.04155321
-0.01000211
-0.04759853
0.04727176
-0.10642952
-0.07262703
-0.07992684
-0.09001008
0.04646215
-0.00420749
0.04687479
0.03913851
0.03328467
-0.11446376
-0.04642387
0.00693158
-0.04367112
-0.00351951
0.07302594
-0.05732506
0.05259658
-0.11098631
0.07267493
0.07678078
0.03067699
-0.06845211
0.01175235
-0.00723448
0.01813007
0.00494598
-0.02211085
-0.06151389
-0.06640999
-0.01145465
0.10123577
0.04097424
0.04242183
-0.17135373
0.10583148
0.03627745
0.02302845
0.01874881
-0.02461408
0.02971542
0.00673400
0.02732623
-0.10262942
-0.05687376
0.08954225
0.02506451
0.01368986
0.02145515
-0.01482707
-0.06780482
-0.09533715
0.01664296
0.02827408
-0.04402448
0.03996971
-0.07374456
0.08632291
0.04419748
-0.04422698
0.04037661
0.03379881
-0.04712895
0.09640943
0.07422288
-0.04888904
0.00756860
-0.08124404
-0.00742991
-0.00241291
0.06915449
0.01885389
0.04823149
0.05986819
-0.07313663
-0.02289096
-0.00414359
-0.01663263
0.06583677
0.01996167
0.06465327
0.05192848
-0.10032373
0.01850240
0.06580567
-0.04770143
0.04308556
0.06334541
-0.03160463
0.03048571
-0.01359942
0.07262726
0.06058030
0.07479117
0.07136817
0.01860295
-0.04140009
-0.05107121
-0.00368205
0.02378887
0.02407062
0.10002710
0.07803058
0.04965225
-0.10647950
-0.00928469
-0.04733430
0.00627808
0.03498274
0.05293883
0.03628321
-0.00657142
0.00908784
-0.04158651
-0.01450805
-0.06004933
0.07740105
-0.05215145
0.00103164
-0.10096252
0.01092862
0.02386861
0.00692766
-0.06789566
0.02027707
0.01581630
-0.11472797
0.02714935
-0.01803325
0.03600761
-0.08124258
0.07094559
-0.06456305
0.00574110
-0.01245899
0.07153383
-0.02589110
0.02905181
0.05572379
-0.03944867
-0.01756552
0.04499697
-0.03151632
0.06217306
0.01594272
0.02032042
0.02664099
0.03196187
-0.06715472
-0.00721121
0.01732601
-0.06928419
0.08942720
0.03620637
-0.01085225
0.05587578
-0.02682395
-0.03073318
0.02651496
0.05813880
0.04192348
-0.06002213
-0.02719169
0.05982226
0.03524123
-0.02003455
-0.04087558
0.01785297
0.06157870
0.01542441
0.06073721
-0.00010493
-0.01953909
0.03722269
-0.04432163
-0.01094700
0.11007171
0.04043127
0.06462271
-0.03558592
-0.09718016
-0.02923600
-0.01152707
0.05805317
-0.07269479
0.13331982
0.01873365
-0.02270587
-0.00295479
-0.10973968
0.04382237
-0.03466905
-0.12924511
-0.01526703
0.07073391
-0.05297157
0.05963888
0.00411080
-0.01138653
0.05196600
-0.11592078
0.07783373
0.01298363
-0.04860366
-0.05249508
0.09329047
-0.07108656
-0.06868048
-0.05457745
-0.03357230
0.05566445
-0.01589418
-0.08571192
0.05757266
-0.04826453
0.00273658
0.04153719
0.04870095
-0.01260085
-0.07361865
0.07311994
0.07709191
0.08077821
-0.06675059
0.00057168
0.05455890
0.10517976
0.02742618
0.01207258
-0.03645270
-0.08586609
-0.04259466
-0.10802154
-0.04659547
-0.07592656
0.08053547
-0.06109931
-0.03386653
-0.02192634
0.00334593
-0.03303979
0.09800912
-0.04609249
0.02031155
0.01091659
-0.02153772
0.00463067
0.02020067
0.04005796
0.03122029
-0.06176880
-0.11613275
-0.02387151
-0.07559025
0.03842925
0.05358985
0.09656706
0.00419990
0.08045945
-0.03140735
0.07877903
0.05644030
0.07676228
-0.10818297
-0.03002869
0.02706771
-0.09774424
0.06663629
-0.02304667
-0.01400775
0.05028072
-0.07838960
0.10370806
0.02603651
-0.06631529
-0.03948904
-0.09373863
0.12784115
0.05674410
-0.09500543
-0.09827107
-0.10637535
-0.05828590
-0.02199421
-0.02245608
-0.00187120
-0.01954721
-0.00410183
-0.07198338
-0.06470491
-0.05401362
0.05273659
0.00217698
-0.00306757
-0.00395992
0.05280638
0.02315768
-0.08357323
-0.00731271
0.09071616
-0.02893468
-0.06855524
0.02662021
0.06310127
-0.03840237
-0.09248288
0.14460430
-0.00198429
-0.11928937
-0.03746712
0.05557116
-0.02986922
0.04834889
-0.07582339
-0.03696108
0.00627056
0.02117701
0.03283756
0.06932277
-0.04081966
0.09633787
0.05753335
0.01847352
0.00835041
-0.00673516
0.02155161
0.07526741
-0.01910395
0.03761443
0.02481580
-0.08690167
0.03946082
-0.04885131
0.02652422
0.00279564
-0.01975391
-0.06252868
-0.00841483
0.08439493
-0.05313266
0.00113758
0.05952456
0.03037804
-0.05843107
-0.02370418
0.10250589
-0.07591652
0.05590105
0.03324250
0.09608728
-0.06669389
-0.04777817
0.10059755
-0.01732167
-0.05179907
-0.03093954
0.03819926
0.02032345
0.07547235
-0.02947587
0.00546932
0.05161116
-0.04408870
0.01187425
-0.14653113
0.05652513
0.00594678
-0.02185417
-0.10776946
-0.00764890
-0.03643494
0.02740305
-0.02431790
0.06040235
0.01800812
-0.00431934
0.02490985
-0.02007815
-0.03993532
0.06299479
0.06267984
0.01578601
0.12706393
0.00642022
-0.02752267
-0.01447613
0.02896218
0.00664433
0.01693115
-0.07420191
-0.04344449
-0.00897179
-0.04063409
0.03057995
0.06879250
-0.05397621
0.03384621
0.02726488
-0.07005558
0.04434769
-0.04393302
-0.08204568
0.05021968
-0.10945966
0.07932198
-0.04444504
0.07259078
0.00927023
0.12233010
0.01925597
-0.01291815
-0.05770431
0.03633097
0.01698576
-0.04843864
0.03510198
0.01895308
0.00513237
-0.01771636
0.04286396
-0.06074098
0.05979623
-0.02319586
0.11843660
0.00588215
0.00485833
0.05818785
-0.14608669
-0.00541232
0.01463588
0.00267301
-0.05739331
-0.09230929
-0.09553756
-0.03012142
0.04948802
0.03114894
0.03451629
0.04881138
0.10487211
0.07370511
0.02241819
0.07055962
-0.02534252
-0.08205720
0.07663276
0.01204546
0.03496450
0.07253670
-0.03180889
0.08286459
-0.02432405
0.14407721
0.00779062
-0.02446755
0.00494319
0.05396790
-0.05450023
0.04196755
0.00347243
0.11444351
0.00548180
0.09070366
-0.03693708
-0.00458376
0.01117707
0.05437020
0.12875018
0.09488895
-0.05076004
0.00302960
-0.01271269
0.05944715
0.03323778
-0.09049472
-0.01385073
0.13772335
-0.08856520
0.07188556
0.02060327
0.04919077
-0.00845296
-0.00475419
0.09719750
-0.02392258
-0.04297260
-0.03927129
-0.07087639
0.06372038
-0.07931297
0.09275610
0.00775255
0.00474781
0.07940552
-0.01076852
0.04142781
0.08017890
0.01131445
-0.03179436
0.01524147
-0.01628853
0.05326797
0.07447644
-0.02180278
-0.05346132
-0.00308017
0.00757242
0.01685795
0.03451145
-0.06014044
0.03656535
0.02216998
-0.13113864
-0.03073227
0.03298300
-0.01924299
0.04939015
-0.02260069
-0.07555671
0.05329850
-0.03181398
-0.03029703
0.05715069
-0.04106533
0.04817618
-0.02103221
-0.06987868
-0.04833701
0.05855781
-0.05964390
-0.08263008
0.05317068
-0.04387122
0.03669386
-0.13267526
-0.01931324
0.06125830
0.04970142
0.09748650
0.00408005
-0.01689071
-0.05392263
-0.05068184
0.04622759
0.00859060
-0.06749066
0.05076763
-0.00015294
-0.03616258
-0.06698683
0.04303829
-0.03794951
0.09317932
-0.01681808
-0.04070157
0.00652960
-0.00702181
0.04210190
0.07838599
-0.10423559
0.07392067
-0.00503973
0.06587658
0.07839761
-0.06073738
0.03512046
0.00582409
-0.12221762
0.01094156
-0.06341031
-0.05046832
-0.06886892
-0.02466429
-0.01687123
-0.03652041
-0.06864332
-0.02001672
0.05146058
-0.06313737
-0.00034892
-0.01488788
0.07240496
-0.00334573
-0.04068875
-0.00663509
-0.03934742
-0.00134425
0.00076911
0.04421394
0.08000619
-0.08414477
0.04685938
0.02219174
-0.04054936
0.02217585
0.07354094
-0.09666644
-0.14971609
-0.04421372
0.07704445
0.01007461
-0.01371116
-0.04079687
-0.02522607
0.03020628
-0.01669395
0.00852310
0.06870911
0.03786387
0.01834690
-0.10595075
0.01431534
0.00468834
-0.00403254
-0.01288872
0.03661150
-0.00513762
0.07067616
0.08121171
-0.02057502
-0.00402485
-0.06970118
0.00037930
-0.07246417
0.00396932
-0.01304665
0.04390604
0.08833064
-0.10306153
0.04909965
0.04078894
0.10562616
0.11562200
0.01493502
0.05374909
0.02161974
-0.02693739
-0.07118701
0.03273557
-0.05351501
0.00212814
0.00039728
0.07485785
-0.02189548
-0.03906097
-0.02346270
-0.02470822
-0.04187810
0.00651321
-0.01771213
-0.02292009
-0.00999930
0.02123937
0.10165105
-0.01782989
0.06047020
-0.04966122
-0.01041589
0.00104216
0.06727952
0.07145356
-0.07543613
-0.07391493
-0.01654386
-0.01623214
0.05700108
-0.09753965
-0.05499796
0.04150828
-0.03955863
0.01314264
-0.02575383
0.04347043
-0.00579341
-0.00470970
-0.02607890
-0.02231454
0.02746145
-0.05823575
-0.04203508
0.04289285
-0.06557510
-0.03127556
-0.06232877
0.15454811
-0.10285927
0.00475667
-0.10964710
-0.17294276
-0.04669476
0.09301612
0.08611846
0.09380062
0.00673094
0.05040817
0.00430991
-0.07737076
-0.15558791
-0.01762468
-0.07413388
0.11279698
0.11220480
0.01003811
0.05065813
0.07956082
0.10440674
-0.02803402
0.03543764
-0.00543061
-0.09803275
0.04336450
-0.13576773
0.07185521
0.02679701
0.09591135
-0.04665174
0.01819708
0.02238203
0.07945913
-0.07643765
0.02122403
0.00846167
0.06104764
0.02373663
0.00455902
0.00327060
-0.00979946
0.02693698
-0.09681139
-0.05459993
0.00888065
0.08777320
0.02499918
0.06686950
0.03109377
0.05068874
-0.10994508
-0.00519795
-0.02074691
-0.03179032
0.02472078
-0.00755812
0.06452688
0.02501453
0.02787830
0.01485273
0.10763801
-0.05729722
0.00953384
0.02687517
-0.11280644
-0.02869854
0.00162848
-0.06817648
0.01349112
0.02580913
-0.00606914
0.04620219
-0.11759347
-0.14190668
0.00415457
-0.13948499
-0.02541040
0.06471226
-0.09965945
0.04370803
0.07842025
-0.05095333
-0.05757149
0.12208511
-0.00602568
0.08449371
-0.11702942
-0.00745942
-0.04323790
0.01251814
0.07184891
-0.02351594
-0.01991144
-0.03600309
-0.03386991
0.01481186
0.12739644
0.00357455
0.04200658
-0.01643453
-0.00266756
0.00968753
-0.03888414
-0.13706463
-0.01754939
0.09061750
0.10324150
0.00180691
-0.05148654
-0.06500863
0.00975973
0.02781668
-0.02531131
-0.06391384
0.02888094
-0.06643416
0.06172424
-0.01336156
0.11019771
0.10272867
0.00389510
-0.00325270
0.06689771
0.01307247
0.03823270
-0.07779430
0.00826176
0.02178635
0.01641815
-0.09320050
0.03531636
0.01359282
-0.06639905
-0.04092786
0.02074151
0.00743309
-0.13973207
0.04261794
0.05381901
0.05965806
0.05613088
-0.04194182
0.00796799
-0.02614878
0.00503739
0.03074850
-0.06147221
-0.09532739
-0.02136862
-0.00532764
-0.04266184
0.02963487
0.04159107
0.07614241
0.02111748
0.01383789
0.03791768
0.00890546
0.07834418
0.00876012
0.03713535
0.02119585
0.03547115
-0.00638029
-0.04473415
0.03749623
0.01418610
-0.07271896
-0.05716453
-0.03283062
0.01181873
-0.02869229
0.03732140
0.05425198
-0.01836529
0.02488244
-0.01817927
0.07129253
0.01897350
0.13619765
-0.00192078
0.02669846
-0.07276508
0.01547730
-0.06044566
0.02744826
-0.00995698
0.09619187
0.03687217
-0.00500032
0.03896982
0.08209968
0.05010300
-0.02625149
0.00867631
-0.00678404
-0.02697693
0.01556362
0.05013915
0.00339392
-0.00261448
0.02860310
0.01969245
-0.05241944
0.08458570
-0.03318054
0.01364330
0.00282100
-0.04695113
0.00727495
0.00876370
0.00236203
0.00109519
-0.03704056
-0.00002663
-0.02121520
0.08263682
-0.02589729
0.11534147
0.00285280
-0.05948843
0.01668922
0.02177029
0.00883272
0.02562418
-0.02282553
-0.00864343
0.04826807
0.07118443
-0.00693719
-0.02234827
-0.00988308
0.04184284
0.04699536
-0.01193179
0.05300822
0.04683007
0.03820888
-0.03175858
-0.02260593
0.09744451
-0.08650645
-0.08207088
0.01174114
0.00325291
0.03374987
0.09303643
0.05537826
0.06365561
-0.11278777
-0.00249242
0.00377136
0.04128862
0.03178338
0.01980571
0.07843170
0.07401841
-0.01843325
0.01938225
0.07656891
0.00066818
-0.00098063
-0.02740865
0.05660785
-0.04384098
0.00805802
-0.02382088
-0.02695147
-0.00772613
0.02646874
-0.02642821
0.01059188
-0.09391309
-0.00537754
-0.03765146
-0.01414305
-0.01281422
-0.04066690
-0.11478801
-0.06608379
-0.04018160
-0.02260014
-0.01433383
0.00961379
0.06322224
-0.00790565
-0.07108953
-0.04775416
0.02396818
0.00593542
0.05618839
0.08143301
-0.06889516
0.00745762
-0.03548291
0.02047121
0.07450275
-0.04318628
-0.02188338
-0.03200178
-0.01131931
-0.01792099
0.00758284
0.01946592
0.06107941
-0.04520423
-0.07620974
0.09272533
-0.02526422
0.00106502
0.07628623
0.01588299
-0.02619120
0.02896973
0.10194048
0.10438423
0.04148727
0.03854757
0.03605665
0.05202204
0.02470542
-0.06764924
-0.01730013
0.01296195
-0.06271197
0.04355659
0.08511434
-0.06452409
0.00630627
-0.02245378
0.05876745
-0.02542546
0.02523093
-0.05804843
-0.07520009
0.01804721
-0.08720371
-0.04319319
0.04757105
-0.09737122
-0.14098236
0.05228969
-0.01327403
-0.00156396
-0.00539953
0.11518360
-0.00891600
-0.04106413
-0.06211585
0.04213667
-0.02000705
-0.00727880
0.09547320
0.06407316
-0.06750410
0.01456148
-0.02045965
0.05110694
0.00384513
-0.01207131
0.03129016
0.00038170
0.02033958
-0.04480166
0.04227038
-0.04759981
-0.03960360
-0.02945135
0.00128484
0.05871527
-0.02014944
-0.04167108
-0.09111831
0.06226102
0.10591151
0.05126894
-0.00088458
0.02616405
-0.02127814
0.06419823
-0.01393754
-0.06817256
-0.02968689
0.04815728
0.05070173
0.00109797
0.03644303
-0.03616656
-0.01582963
-0.03416028
0.00597035
0.01732120
-0.04491198
0.01043644
-0.04887215
0.03833279
0.02735929
-0.02513355
0.03004495
0.01925330
-0.04197083
0.06125298
0.04027032
-0.02735685
-0.00831693
-0.04300863
-0.01206302
0.00694431
0.04138272
0.01158892
0.02394285
0.02549977
-0.04637752
-0.02674130
0.00468048
0.00609283
0.03024234
0.03458797
0.05012764
0.01788758
-0.06077979
0.03084528
0.01652329
-0.06638903
0.01582875
0.04885854
-0.02528669
0.01305933
-0.00192461
0.03402451
0.03159328
-0.00170409
0.03550505
0.02837921
-0.02315303
-0.04362911
-0.02043446
0.01718582
0.00774029
0.06160008
0.05908224
0.04119832
-0.05340542
0.00824320
-0.01014800
0.00632115
0.03077871
0.01444849
0.03403485
-0.02657965
-0.00832209
-0.03832072
-0.00233392
-0.02782990
0.01986920
-0.02219949
0.01155437
-0.05450328
0.03092340
0.00712893
0.00826185
-0.02109489
0.02777597
-0.01097264
-0.05758564
0.00784640
-0.00529225
0.04207091
-0.03506239
0.03072513
-0.04780098
-0.00622642
-0.00868640
0.04433061
-0.03524290
0.01416950
0.04505952
-0.03762985
-0.01297730
0.07016163
-0.04645316
0.04155299
-0.01316608
0.02068256
0.01641675
0.03512298
-0.02439391
-0.02327066
-0.02568592
-0.06654424
0.06335482
0.03459941
-0.04380979
0.04088912
0.00304921
-0.04191684
0.03155107
0.04455333
0.05201047
-0.02343728
-0.03419405
0.04544181
-0.00000721
-0.01319648
-0.03762475
-0.01397545
0.03580900
-0.00526813
0.02219491
-0.03254665
0.02328979
-0.00904390
-0.02380675
-0.03513091
0.02874172
0.00748966
0.03945422
-0.02231235
-0.04974785
-0.00982485
0.01314222
0.04225366
-0.05754537
0.05104985
-0.02465962
-0.01858377
0.02960092
-0.05629754
0.04121402
0.01028342
-0.09571697
0.01239091
0.01639332
-0.03297502
0.03821589
-0.02991206
-0.00526023
0.00416241
-0.07887108
0.06232266
0.02084971
-0.02453713
-0.03125628
0.07841928
-0.03920453
-0.06902718
-0.04117697
-0.03367823
0.05878936
0.00986161
-0.07874240
0.03576121
-0.03769204
-0.00454080
-0.00346739
0.03405808
-0.01517762
-0.02645418
0.04394705
0.05246721
0.06623491
-0.05144456
-0.02416107
0.04011291
0.08853824
0.00600706
-0.00430442
-0.02436051
-0.03803339
-0.02536388
-0.06912861
-0.03442682
-0.02358875
0.02206449
-0.06601014
-0.02056312
-0.04383757
-0.01298721
-0.01693724
0.03132473
-0.02980910
0.03075087
0.00968455
-0.03544379
-0.00316893
-0.01448324
0.01002752
-0.01922671
-0.05078517
-0.08061286
-0.04695439
-0.01386427
0.04889949
0.03877264
0.06289205
0.03000057
0.03338086
0.00582660
0.02681328
0.03605933
0.03566061
-0.07464299
-0.00562066
0.01871038
-0.06989536
0.03442524
-0.02459496
-0.00594300
0.05619030
-0.04494016
0.10057879
0.00636257
-0.05937331
-0.00958294
-0.07276592
0.07430413
0.01078744
-0.04473877
-0.06750824
-0.09203076
-0.05763890
-0.04387648
-0.00175341
0.03172588
-0.01594470
-0.02149375
-0.02699255
-0.05591103
-0.04496821
0.02866878
0.02397139
0.01436451
-0.00350985
0.03399248
0.02374240
-0.06839571
0.03161012
0.04435806
-0.01847684
-0.04475600
0.03156604
0.00040659
-0.01779948
-0.05746081
0.08158889
-0.00037077
-0.09247553
-0.03509371
0.00831620
0.00587967
0.06659607
-0.04115900
-0.01394828
-0.00795836
0.03464623
0.02391777
0.03465240
-0.01358366
0.08375348
0.00597351
0.01066893
0.02289778
-0.01188197
0.02365327
0.05622592
0.00668958
0.01397033
0.01994830
-0.03160248
0.02055674
-0.02003841
0.04537626
0.01671197
0.00545534
-0.05850041
-0.01364663
0.00774240
-0.03615085
-0.03009009
0.00710196
0.02459842
-0.04421374
-0.00931456
0.06683196
-0.05689732
0.04839351
0.01090680
0.07171573
-0.02324530
-0.00462405
0.06484466
0.03360289
-0.02722461
-0.01949596
0.00900498
0.01170935
0.02384638
-0.03289866
-0.00169675
0.03742984
-0.01443060
0.01017760
-0.08864469
0.04965260
0.00788822
-0.02026761
-0.05783143
0.00053754
-0.02397594
0.03203418
-0.01680034
0.04335432
0.02504270
0.00971022
-0.00179421
-0.02463591
-0.02004343
0.03368473
0.03652496
0.00526376
0.05003214
0.00379975
-0.00340119
-0.00030948
0.04496971
0.00510650
0.03342068
-0.03515484
-0.01009693
0.00756958
0.00042593
0.01049333
0.05142835
-0.03018186
0.03071315
0.00716834
-0.03549838
0.03724071
-0.01972048
-0.02143267
0.05739588
-0.05829366
0.03408063
-0.03115665
0.05474207
0.01404397
0.09047537
0.02084488
0.01261258
-0.05146448
0.02442709
0.01859633
-0.01280276
0.01377636
-0.00171881
0.01400544
-0.00077368
0.01960749
-0.05183103
0.04105176
-0.00598420
0.06885228
-0.01325155
-0.00031340
0.04227390
-0.08518295
-0.00741661
0.01011505
-0.00465272
-0.04459372
-0.05500717
-0.05675454
-0.01946319
0.05071220
0.01702841
0.00940285
0.04578732
0.07936411
0.05830343
-0.00513884
0.06591909
-0.01491261
-0.08427126
0.05210894
-0.02735684
0.01255102
0.04337444
-0.02931439
0.06764937
-0.04163910
0.05599747
0.00054968
-0.04125133
0.00849550
0.01739166
-0.02578299
0.03901705
0.00072031
0.05039773
-0.02533344
0.07229432
-0.00277729
0.01170044
0.03040441
0.02584238
0.08115239
0.05014674
-0.01914686
0.02585272
-0.02777913
0.02319102
0.03017042
-0.06025043
-0.00937365
0.08541915
-0.08753061
0.07452632
-0.00187799
0.03690595
0.03390300
0.00284566
0.05510062
0.01405265
-0.01017767
-0.03809108
-0.02739684
0.06755184
-0.02636795
0.08021487
0.00904119
0.01303221
0.05743282
-0.00495210
0.00101725
0.05344852
0.00778542
-0.05423351
0.01026612
-0.00415504
0.03174837
0.07655603
-0.02636658
-0.01660678
0.01943985
0.00599129
0.01741376
0.01672878
-0.03142399
0.02161957
0.02112651
-0.08831037
-0.05101796
-0.00117277
0.00215914
0.02784838
-0.02419776
-0.03645476
0.07103026
-0.00501600
-0.03287631
-0.00594400
-0.01765631
0.04248182
-0.01609635
-0.04253998
-0.01929305
0.04418989
-0.05630934
-0.05676303
0.03971752
-0.03508330
0.03346865
-0.08017118
0.00690182
0.04228087
0.02739505
0.05708854
-0.00593788
-0.01244515
-0.03832348
-0.03203145
0.05113444
0.01612991
-0.05000841
0.00025257
0.00442365
-0.01526592
-0.02190426
0.01827707
-0.01727439
0.04444890
0.00993165
-0.04850410
-0.00577621
0.00054230
0.06317287
0.05693940
0.03953821
0.03392919
0.03846031
0.05207080
-0.03980788
0.02839936
0.06948898
-0.02242406
0.02704600
-0.01854827
0.07906713
-0.04878971
-0.06008791
-0.01310519
0.00633601
-0.04528926
0.02720587
-0.02591695
-0.02533941
0.00980597
-0.01723300
0.01380351
-0.02074046
0.00610413
0.00252473
0.06196351
0.01319093
-0.05263862
-0.00900130
0.01521452
0.05463674
-0.00298164
0.04312238
0.02478138
0.03006357
0.03994246
0.07796005
0.05478985
-0.08243442
0.05105824
0.07162255
-0.05761164
-0.04973947
-0.00147126
0.07302356
0.06336180
-0.03865155
0.07634648
-0.01099029
-0.01213362
-0.02648924
-0.01596682
0.03181163
0.03625707
0.08679476
0.05062989
0.00274822
-0.04177860
-0.00378102
-0.00466527
0.06451648
0.06670691
-0.00864057
0.03482116
-0.02540491
0.05736564
-0.01329400
0.07205433
-0.01412672
0.01435438
-0.02881483
0.05137256
-0.00966332
0.05505403
0.02510335
0.04378479
-0.00492414
0.02911679
-0.03780238
-0.07494994
-0.01875243
-0.02056683
0.02760802
0.00331681
0.02274663
-0.05242265
0.02576219
-0.02044711
0.06066151
0.01057226
0.02175166
0.06312606
-0.01437252
-0.05071929
0.00885703
-0.06540622
0.03296432
0.02386497
0.02104407
0.03467080
0.03416103
-0.04559171
-0.05424684
-0.00302013
-0.05139879
0.03576056
0.06402847
-0.05125158
0.06659276
0.07659800
-0.08989047
0.09412315
0.00870079
0.08319642
-0.02895250
-0.04033500
0.02168976
-0.01522624
-0.02293341
-0.07005356
-0.01258340
0.06889995
0.09597071
0.05580439
-0.07575055
0.02864599
0.05862699
-0.00056634
0.00130169
0.03995873
0.01263588
0.09273898
-0.01133746
-0.05377709
0.00840490
-0.00962104
0.02631441
-0.05461911
0.02103866
-0.02307625
0.00325712
0.06311248
-0.09305529
0.04600193
-0.05201504
-0.00861471
0.08646990
0.01707058
-0.06944576
0.00678513
-0.01163308
0.03218566
-0.03021485
-0.06077071
0.03548829
0.03616002
-0.07894513
0.06293380
0.05440265
0.01449703
0.00579892
0.01876832
0.07983480
0.03758464
0.02982123
-0.07069525
0.00785168
-0.03550658
-0.03642828
0.02236941
-0.03028160
0.00875424
-0.00070504
0.07425964
0.04243644
0.11089867
-0.08474020
-0.02083703
0.06874154
0.06430621
0.05528800
-0.01644627
0.04095442
-0.03274515
0.01043661
-0.01348632
0.01548110
0.03914799
0.10731748
-0.07944966
-0.00176586
-0.00622196
-0.01315566
-0.02203297
0.01085802
-0.05228290
-0.01172999
-0.01469123
-0.04873700
-0.07324625
-0.02027495
0.07988111
0.04170436
-0.07358476
-0.07076432
0.01395120
-0.06424866
0.06560803
0.03521710
0.07050664
0.01502676
0.04846076
-0.02268733
0.02057124
0.08204294
0.06739475
-0.01981139
-0.04588223
0.07596609
-0.04018807
0.03940764
0.02579850
-0.00164702
0.07657071
-0.06260494
0.11904846
0.02311991
-0.05319047
-0.05709383
-0.02099880
0.02673524
0.03968516
0.01232997
-0.10313974
-0.00313928
-0.04898735
-0.01276517
0.01375837
0.01187816
-0.06316540
0.02883197
0.01613926
-0.05850394
-0.05981933
0.04460238
0.00098102
-0.03351733
-0.00447177
0.04214707
-0.01229718
-0.02912114
-0.02893947
0.08654912
-0.03665392
-0.09039861
0.02838679
0.00874733
0.03467991
-0.01467590
0.02168272
0.01790477
-0.04745462
0.04785728
-0.01046984
0.02009051
0.00059086
-0.02154839
-0.06463308
-0.00229477
-0.00484567
0.00904915
0.04514691
0.01352373
0.00145450
-0.02688905
-0.00148191
-0.05170691
-0.01796069
0.06255949
0.05908042
0.00752721
-0.00111765
-0.00408730
-0.05118741
0.03393594
-0.01467293
-0.04053539
0.03213323
-0.00812236
0.00218499
0.03855879
0.00610969
-0.04886877
-0.09354234
-0.01949230
-0.02395081
0.00396885
0.04481536
0.08925408
-0.06250289
0.02902943
0.06314374
0.00536005
0.01379923
-0.00806587
0.06517351
0.00146602
0.03114247
-0.00083010
0.04493143
0.01259294
0.08164731
0.01892769
-0.01822262
0.04948751
-0.02047124
0.00886682
-0.07675254
0.04769615
0.02067968
-0.10456770
-0.05575787
0.01820296
0.02304509
0.03640286
-0.05763441
0.02375005
-0.00219134
-0.02621215
-0.01046505
0.04271590
-0.00068945
0.06603469
0.06141394
0.04955036
0.06512538
0.00428911
0.00525961
0.01320464
-0.02280223
-0.09878207
-0.01521470
-0.07072002
-0.00327248
0.01534408
-0.04481654
0.02641299
0.04074274
-0.05807580
-0.00124340
0.07450604
-0.04342898
0.05587181
-0.05399777
-0.05414658
0.08489414
-0.02748597
0.05087170
-0.04823508
0.06417039
0.02553843
0.07780904
0.01033730
0.02145971
-0.02564838
0.02580205
-0.00553496
0.02224369
-0.01252229
0.05077289
0.05759042
-0.00314182
-0.01298462
-0.07943650
0.07473710
-0.05152279
0.06205360
0.02346278
0.02834790
0.04247039
-0.02715295
0.02815994
0.06273462
0.02374336
-0.03649903
-0.03286448
-0.04851432
0.03745002
-0.00123341
0.03275208
0.02618397
-0.00470004
0.13141832
0.08817406
0.03192339
0.05804648
0.03211999
-0.07452474
0.11046876
-0.02191693
0.05795269
0.01887319
-0.01800020
0.08856314
-0.06702819
0.09898167
0.01908335
-0.02648615
-0.05872528
0.05194549
-0.07165993
-0.01832913
-0.00505128
0.01022088
-0.03351442
0.12087551
-0.01445631
0.05104742
0.02528450
-0.02546178
0.10911072
0.08668731
0.05542631
0.02249350
0.00933741
-0.04873119
0.02574789
-0.04086551
-0.00672565
0.05904845
-0.05036349
0.08263341
0.04236229
-0.01730004
-0.01284457
-0.02546608
0.07355817
-0.00900751
-0.07617587
-0.08734109
0.03756666
0.08388375
0.00533995
0.03272056
-0.01703496
0.08431463
0.09192111
-0.01995371
-0.00894856
0.07848259
0.03748601
0.01574013
0.01377220
0.01340687
0.05050432
0.09626646
-0.04327082
-0.03390556
-0.01517298
0.03933136
0.00498812
-0.03617370
-0.04235394
0.05819671
-0.00514412
-0.04826340
0.01334107
-0.02810723
0.00899733
-0.06103132
0.04706394
-0.06529459
0.10639914
0.01519983
-0.03267390
0.01811366
0.00970556
0.02731470
-0.02630717
-0.04749526
-0.03701536
-0.02553552
-0.01717633
-0.05816826
0.04216167
0.01167867
0.00068880
-0.07875806
-0.04372436
0.05293344
-0.00943339
0.09786694
0.06592324
-0.00527604
-0.02950794
-0.01670678
0.06542006
0.08377213
-0.01450496
-0.06580141
0.00360070
-0.00028772
-0.05124133
0.05266325
0.03226972
0.06244052
0.01623490
-0.02433193
-0.02872694
-0.05186520
0.04641318
0.08616284
-0.04292442
0.14866043
-0.03480018
-0.01960526
0.14226751
-0.00588731
0.03978429
0.08747071
-0.10619930
0.03904110
-0.10954962
-0.12712719
-0.10362719
