-0.29153800
0.36866874
1.10883474
-0.64862704
0.82354915
0.82274038
-0.68918788
0.72624689
1.34427786
-0.25076324
0.27663219
1.18991780
0.13174255
0.37685397
0.31304464
-0.33389646
0.41084281
0.92434669
-0.45449927
0.26853943
0.76177675
-0.38389188
0.09549055
0.77043682
-0.36358443
0.50809920
0.52951896
0.14779192
0.46503952
0.38143519
-0.64715433
0.46690911
0.59908676
-0.47782373
0.43192822
0.70975983
-0.28761017
0.12780228
0.76402009
-0.60987496
0.66891372
0.90115374
-0.17698783
0.26960236
0.54797196
-0.83652687
0.27036053
0.81500018
-0.90885556
0.68412530
1.02169681
-0.38489002
0.42650050
0.96414578
-0.71846014
0.11344059
0.10320552
-0.31482831
0.21210891
0.43950450
-0.25470072
0.36347908
1.02781463
-0.26097012
0.03093298
0.79340219
-0.31968176
0.25821498
0.99009603
-0.28479248
0.39874521
1.26667285
-0.17055762
0.09348504
0.59397048
-0.53745276
0.55478394
1.01433635
-0.71306694
0.35805503
0.45508862
-0.46192184
0.52036744
1.31600952
-0.06603754
0.27050573
1.07223010
-0.33269790
0.22133426
0.31021953
-0.53955477
0.39231846
1.02396369
-0.41636121
0.44717157
1.01636028
-0.26856464
0.03696911
0.60499263
-0.09809193
0.33234024
0.64578420
0.01357120
0.31138453
0.35029876
-0.22872847
0.26413429
0.84085691
0.00311215
0.17723632
0.48515809
-0.00428559
0.46775651
0.60605884
-0.23975027
0.56514788
0.61200953
0.06940870
0.31750226
0.54530132
-0.23887405
1.12300479
1.22912550
-0.50996351
0.63186693
0.39497304
-0.38209796
0.36139786
0.92096454
-0.41925120
0.54906559
0.74161100
0.10144504
0.29774588
0.44339627
-0.15281948
0.51183593
1.13730073
-0.18812937
0.45155022
1.08924961
-0.35215691
0.19485682
0.91106701
-0.12559810
0.49036044
0.97702128
0.00607064
0.22669439
0.41216171
-0.72992051
-0.02532710
0.71267778
-0.71338600
0.37728691
0.54982549
-0.74388206
0.28625828
0.84408987
-0.58050287
0.32667243
0.73567253
-0.19571669
0.16328129
0.26407731
-0.68296963
0.61195630
0.95633560
-0.83306849
0.72402924
1.17318559
-0.84446359
0.36856401
0.75809187
-0.29312137
0.56091154
0.55561221
-0.14696077
0.38396162
0.75370461
-0.34799173
0.12615517
1.07515168
-0.63015103
0.50859821
1.20814204
-0.65372044
0.15567222
0.69947147
-0.29119664
0.39492050
0.63779122
-0.47483769
0.19645037
0.37195101
-0.42221811
0.12860121
0.74418807
-0.60250276
0.43070430
0.73951793
-0.43942329
0.67080534
1.19285619
-0.51297206
0.60112011
1.03480995
-0.30239651
0.10335824
0.57071018
-0.32465792
0.22386298
0.87758338
-0.20322520
0.21251398
0.89876270
-0.08235529
0.38633299
0.88930452
-0.10465364
0.23006119
0.80186689
-0.15770829
0.03558912
0.32927853
-0.30538464
0.43623471
1.29174709
-0.51720852
0.31540695
0.92441177
0.06936017
0.44739473
0.87891662
-0.45970869
0.71707314
0.86548674
-0.16275516
0.36863565
0.73874789
-0.57899195
0.75756335
1.05554247
-0.26075774
0.69694728
1.11390233
-0.39221549
0.75579572
1.16973066
-1.13402438
0.22415414
0.52068925
-0.50570321
0.09685788
0.53396237
-0.26112202
0.52366477
0.87838441
-0.69503772
0.58286661
0.76364082
-0.84609890
0.54387891
1.20063317
-1.14472628
0.31458211
0.92814428
-0.56701928
0.13321447
0.46407181
-0.45597517
0.34273624
0.79575241
-0.62608737
0.43263608
0.95595384
-0.60123217
0.10114352
1.07935238
-0.97658789
0.32180029
1.14562273
-0.50979668
0.17901556
0.83356839
-0.27186194
0.28511792
0.74214017
-0.09850091
0.34980789
0.63628399
-0.11117370
0.24999771
0.34747356
-0.30399606
0.21471366
0.83232278
-0.30740929
-0.12167271
0.37574080
0.37926614
0.72614396
0.86519396
0.40878451
0.68043363
0.62474579
0.37230545
0.66433924
0.63912016
0.14009303
0.50571609
0.35450941
0.25391495
0.29206449
0.30435944
0.27777401
0.48990032
0.42622185
-0.07366326
0.39500910
0.28440821
0.38997906
0.51156914
0.71691066
0.33158019
0.69102669
0.60252345
0.38519251
0.40165430
0.37827605
0.22349364
0.33232558
0.45175329
0.22060797
0.58097005
0.47382647
0.22206539
0.67446053
0.51574743
0.42291096
0.86194009
0.86370051
0.45937681
0.54362732
0.52487189
0.20443825
0.38297877
0.34785524
0.33499113
0.72215199
0.64965659
0.16066557
0.77991629
0.71488655
0.05076379
0.74999011
0.65263379
0.43192488
0.48740792
0.56105196
0.10054563
0.37979424
0.36174074
0.09783065
0.23780487
0.24204183
0.01879728
0.11384707
0.10507033
0.01082592
0.49027455
0.42594531
0.10673362
0.28964895
0.28600508
-0.52980125
0.40300834
1.16403306
-0.58998901
-0.06107831
0.65427685
-0.54225117
0.00539222
0.54823732
-0.82902277
0.14696628
0.69949353
-0.11190222
0.19190463
0.38375670
-0.47486353
0.59251964
1.28473353
-0.22919431
0.39541286
0.57693607
-0.42667717
0.89952135
1.03957391
-0.74037743
0.54997587
0.97962618
-0.50027263
0.23552781
0.36569333
0.07867703
0.58318335
0.85507816
0.16467810
0.97829187
1.10633850
-0.59148359
0.88439834
0.82473683
-1.08234620
0.07056485
0.92586184
-0.39973241
-0.05470448
0.49331313
-0.08205372
1.24369168
1.13561130
-0.30567390
0.78849828
1.07254255
-0.37563616
0.40978348
1.50049710
-1.08560586
0.77613783
1.00861859
-0.30324718
0.27075410
0.70022619
-0.12047920
0.54783249
1.23484576
-0.30898046
0.56931251
1.05932689
-0.23964034
0.37722200
0.87191314
-0.17940466
0.55618483
1.39232612
-0.22150174
0.05685636
0.55095619
-0.17991421
0.39235014
1.48439312
-0.57369065
0.48497254
0.95354617
-0.40430236
0.09888317
1.15747833
-0.20949641
0.39378989
1.18316638
0.18461479
0.33171633
0.46055138
-0.66779697
0.53837425
0.96768415
-0.74530709
0.19531715
0.30948338
-0.78172851
0.40834793
0.17344618
-0.37619734
0.68474907
0.73458743
-0.10392110
0.67549354
0.59695566
-0.63497341
0.56734324
0.68525076
-1.04619217
0.13205230
0.60730267
-1.10704994
-0.32526481
0.64568126
-0.51738143
0.44613236
1.57502007
-0.02688095
0.33223701
0.72171628
-0.56766194
-0.16791570
0.39356795
-0.70197237
0.42759296
1.07692492
-0.81415021
0.55289400
1.09570527
-0.52471560
0.38267013
0.64874983
0.18566146
0.34609389
0.47590786
-0.33504242
0.28041852
0.75255585
-0.18896942
0.03045598
0.58211178
-0.16957071
0.34199834
0.99089813
-0.34033841
0.48426127
1.03592098
0.00969491
0.11613987
0.27724606
-0.40777552
0.29191667
1.35388851
-0.34200680
0.39516568
1.12115598
-0.94465685
0.63260400
1.09568048
-1.03605282
0.44008648
1.18585885
-0.55444729
0.24673471
0.73201764
-0.38684309
0.20047379
0.94802344
-0.24223608
0.60170811
0.93137395
-0.69819546
0.06037287
0.78875703
-0.94895333
-0.32800093
0.83489847
-0.16648503
0.06844130
0.42455655
-0.41967079
0.54602772
0.43922317
-0.14744389
0.58655405
0.93564343
-0.19640148
1.11386096
1.62288833
-0.40640971
0.74122310
0.93570310
-0.09759792
0.38724062
0.57109904
-0.49861288
0.40748781
0.84246516
-0.59651071
0.53598017
0.82761157
-0.53714800
0.63458645
0.81049478
-0.36394402
0.72560519
1.10704064
-0.40052149
0.30965582
0.30884358
-0.08007856
0.28867197
0.88423365
-0.42160100
0.29234248
1.05502927
-0.24908864
0.12153393
0.86881745
-0.32058951
0.15436696
1.20581198
-0.18772326
-0.01561978
0.51605785
-0.31231493
0.57696080
1.28905070
-0.45440680
0.66399741
1.33518922
-0.45636842
0.75458139
0.68347239
-0.16408588
0.86560500
1.41370392
-0.10483512
0.20350176
0.55863208
-0.61208761
0.39090335
0.91601086
-1.07097900
0.39522949
0.76602876
-0.12034398
0.84603232
1.72863698
-0.05594584
1.00303698
1.10673404
0.01066568
0.36228508
0.47242644
-0.40558875
0.19988179
0.55092013
-0.62171078
0.10579519
0.61646003
-0.48905537
0.39545047
0.63464415
-0.33057988
0.86849910
0.90488452
-0.31392741
0.37446758
0.53850275
-0.90160549
0.42065370
0.73982924
-0.05522898
0.38017809
1.10804152
-0.49849510
0.55228615
0.45590368
-0.74108624
0.39168051
1.07713389
-0.27272359
0.21560356
0.72825658
-0.25215098
0.22468409
0.77165246
0.00588067
0.36460555
0.64303327
-0.07984949
0.57907778
1.12357974
-0.36040959
0.43496478
1.19799185
-0.10288883
0.13163438
0.47545677
0.13838199
0.28272337
0.46289393
0.57375491
0.74865961
0.73778373
0.43169668
0.58923715
0.46367100
0.31383032
0.57751089
0.54925621
0.28336030
0.46928969
0.36788118
0.27948427
0.67540294
0.53991175
0.15018415
0.80924064
0.53425270
0.27607661
0.53175294
0.67785156
0.16654691
0.33095801
0.39861447
0.21756065
0.25179034
0.26351571
0.39745227
0.56923091
0.51509529
0.35193554
0.73958027
0.67011219
0.00862123
0.32372454
0.17419767
-0.06507866
0.21819109
0.15223986
0.30403739
0.21465228
0.35326922
0.26961753
0.70100570
0.56117815
0.19722192
0.44285300
0.47862419
-0.06957722
0.34737873
0.30277458
0.16459161
0.63040698
0.62660748
0.26157868
0.33894745
0.35499960
0.10605998
0.44492984
0.42646191
0.01197257
0.16221954
0.14283383
-0.01926784
0.39728028
0.33461696
0.07540295
0.52440476
0.47519356
0.07863680
0.20323482
0.20271127
