-0.00951707
0.06207652
0.41198540
0.37811348
0.37717038
0.33454284
0.20818345
0.42911023
0.04011958
0.16362043
0.24613304
0.30356386
0.41169745
-0.00933868
0.83853573
0.18409295
-0.04644516
0.23042995
0.40111256
-0.10633852
0.82704735
0.95392966
-0.38358995
0.48362070
0.51695532
-0.46437672
0.38396254
0.74190891
-0.25407976
0.96510756
0.18107867
-0.03793003
0.16465721
0.69342220
-0.29129744
0.52382833
0.43177605
-0.41134259
0.38554877
0.10740597
0.25293368
0.40106392
0.57745802
-0.04470744
0.36090633
0.15051174
0.01370126
0.50237238
0.55179304
-0.20204227
0.70456719
0.74195951
-0.13892597
0.40954202
0.50966650
-0.26592204
0.85833943
0.83119369
-0.38791916
0.52811348
0.17172256
-0.16235787
-0.05337559
0.45766395
-0.41289705
0.23595467
0.33139324
-0.53642845
0.15240988
0.32604700
-0.11569783
-0.00550903
0.26651707
-0.21792887
0.32682082
-0.48697767
0.54240882
0.51067352
-0.43294901
-0.14740410
0.98010415
-0.04616018
0.52734673
0.57969832
-0.19070938
0.19255129
1.03740978
0.12663135
0.11130497
0.26692641
-0.07085982
0.29464430
0.62944525
0.35935333
0.18719688
0.67758632
0.37966168
0.02971157
1.15334272
0.17192347
0.16391315
1.63766098
-0.25712639
0.17674182
0.66582590
-0.15720516
0.28293201
0.66336483
0.26799184
-0.26818305
1.14643526
-0.25088224
0.11459839
0.87132853
-0.34060040
0.16295765
0.92380250
0.43440616
0.04171399
0.82982838
-0.35182258
0.44464469
0.29642487
-0.13310060
0.05023383
1.35683656
0.17348889
0.23536810
1.09003115
0.28486341
0.45905626
0.79206228
0.49914700
-0.02466426
0.91075361
0.21709347
0.11988781
0.28758681
0.56089222
-0.02209455
0.64064777
0.25620601
-0.04890980
0.55563486
0.20014340
-0.09100093
0.73713851
0.40119189
-0.47221917
0.61702549
0.00272607
0.15299629
0.78941244
-0.37092707
0.37336513
0.67929411
-0.38680276
0.28629845
0.49676663
-0.15582804
0.45433226
0.98460007
0.11384930
0.10975474
0.58606040
-0.17090270
0.09409679
0.70107639
0.02374757
0.22716439
1.14861631
0.62316942
0.19978184
0.81720883
0.19840908
-0.03355536
0.81098604
0.19936813
-0.05420132
0.36335501
0.10601957
0.24112666
0.29358885
0.38383776
-0.01367167
0.95518160
0.14500836
0.21707970
0.95506155
0.11216020
-0.41645378
1.21735668
0.45237511
-0.20966393
0.25485438
-0.24580976
-0.32676706
0.70371437
-0.13729501
-0.41524702
0.85380840
-0.19974294
0.26448712
0.59113228
0.12317646
0.00923711
1.30964208
0.23821369
0.32278803
0.56434256
-0.03104734
-0.03299256
0.34335178
0.55035973
0.32075834
1.00767231
0.32355240
-0.13274716
0.89136606
0.44210589
-0.32873732
0.62847179
0.35420537
-0.21405023
0.50441843
-0.32548434
0.57146484
0.70260799
-0.33926171
0.37661207
0.91154283
-0.39036083
0.46925244
0.94469815
-0.60473239
0.28423446
0.75054908
0.39760005
0.19525412
0.26579627
-0.07663984
-0.19374678
0.60614991
0.07492125
-0.47602198
0.98867971
-0.01576418
-0.08692624
1.18468809
0.36844051
-0.10673171
1.29646778
0.64312220
-0.27734530
0.62838304
-0.03775917
0.30950356
0.85449940
0.25526389
-0.38074124
1.07124782
0.78841841
0.07451701
1.21104789
0.90097618
0.05011554
0.82152963
0.63086951
-0.03119403
0.98650569
-0.05918343
0.12584686
0.42249706
0.39903116
0.13885690
0.84462380
0.12152194
-0.27424124
0.69972682
0.03936483
-0.36151966
0.71047294
0.36075071
-0.04973572
0.60463870
-0.02963496
0.02448445
0.20515054
0.24863167
-0.25488400
0.38151509
0.56880158
-0.49243838
0.55093831
0.25967273
-0.44605917
0.45945555
0.32552794
-0.25223672
0.51988995
-0.50957221
-0.19477336
0.49544716
-0.59279603
0.17116585
0.24618194
-0.55544275
0.10254377
0.51712298
-0.52955657
-0.07178821
0.31819347
-0.02305792
-0.15030405
0.38532507
-0.15620786
0.10797489
0.73740393
-0.41659680
0.38001516
1.13921916
0.01260082
0.05867766
0.72063470
0.05811372
0.44642258
0.74022722
0.33116701
0.30863303
0.85855943
-0.07912819
0.10032649
0.81230825
-0.13306218
0.69353724
1.03172588
-0.48429370
0.18843943
1.00140083
0.07018793
0.43416500
1.25877690
0.06523177
-0.00649526
0.69266582
-0.19497702
0.25649530
0.63259542
-0.01251648
0.54524946
0.87022406
-0.37043959
0.71346831
0.57756793
-0.20831695
0.31611508
0.84727085
0.36025661
-0.03912041
0.69901252
-0.13106568
0.23002890
0.52858537
0.23144159
0.03995475
0.68362153
0.52683884
0.08175501
0.61888433
0.23448683
0.16697825
0.39474535
0.16330600
-0.12378327
0.49190930
0.02023789
0.45057136
0.31166902
0.38038409
0.15741391
0.44344068
0.10214971
0.26376054
0.46509117
0.07252836
-0.00231558
0.40627992
0.57202828
0.03363633
0.76950872
0.38522971
-0.21792591
0.21486351
0.69391072
-0.22080404
0.58680832
0.03421269
-0.17791347
0.53713006
0.14310125
-0.20973797
0.30151662
0.58496785
-0.06962354
0.61076260
0.17593536
-0.16092420
0.33231246
0.08545968
-0.08773990
0.67340589
0.47270590
-0.28057909
0.75640643
0.89281660
-0.51261330
0.28790343
0.99433029
-0.25932813
0.61317372
-0.00424804
0.13951620
0.37131426
0.44703382
-0.41136479
0.69044948
0.82092971
-0.31792271
0.54003906
0.57755822
-0.20720586
0.31802532
0.55991185
-0.16393970
0.76663935
0.28124288
0.02860249
0.10044670
0.90969110
-0.31370950
0.18890788
0.58355224
-0.58044636
-0.03536320
0.40629190
-0.21093224
0.06069927
0.47114548
-0.39823014
0.16533822
-0.29600960
0.15590642
0.03603988
0.07434314
0.26973867
0.70844698
0.08286010
0.42541742
0.44205540
-0.48451713
0.60367268
0.56996006
-0.30939406
0.40936026
0.84955412
-0.18296333
-0.14449739
0.44840837
0.31982809
-0.11285476
1.12519264
0.26013911
-0.70982838
0.40830281
-0.05577537
-0.03612694
0.98010516
0.44466951
-0.29033053
0.97027004
-0.21769840
0.29557407
0.51748806
-0.30881059
-0.00886041
0.80670053
0.22295304
-0.20130947
1.16911650
0.18830438
0.59364867
1.28161037
0.39968684
0.54639018
1.11245382
-0.08051761
0.04181914
0.92970490
0.12414758
-0.13007186
0.80221522
-0.24345621
0.47584161
0.86953473
-0.14002465
-0.08827296
1.66742492
-0.08843818
-0.31209123
0.75797248
-0.14601967
-0.03518160
0.56171620
0.68938196
0.02428455
1.11358988
0.15710640
0.03342500
0.79911602
0.09547184
-0.02823064
0.71182311
0.30888212
-0.37757123
1.07837260
-0.42653161
0.51825702
0.52931708
-0.40761369
0.26014954
0.82223451
-0.38944727
0.58963728
0.82848406
-0.27304602
0.40722913
0.73459262
0.46472359
0.12710199
0.16169673
-0.03488350
-0.03943764
0.53846061
0.09454383
0.19435015
1.00636446
0.28558075
-0.05219091
1.27762341
0.29030606
-0.33305001
1.50931549
0.48997363
-0.41293800
1.14207602
0.06279083
0.20073484
0.52786636
-0.06284174
0.02549622
0.77466935
0.57121551
0.35943118
0.74724555
-0.15179528
0.24275142
0.87477720
-0.22547290
-0.02191332
1.16833234
-0.06982808
0.57075298
0.51011425
0.38512737
0.34131646
1.20608199
0.15232760
-0.30859730
1.39053941
0.37237650
0.30027518
0.71391439
0.25948173
-0.03146708
0.51469880
-0.12104195
-0.24298371
0.10798533
0.15217076
-0.20139879
0.54860568
0.23292065
-0.14192370
0.67776012
0.26707453
-0.14531016
0.93782383
0.52398431
0.08556142
0.76852441
-0.39908120
0.23300683
0.66261327
-0.21532442
0.32802474
0.72333848
-0.30979753
0.22159797
0.83226961
-0.04909985
0.15927927
0.96394408
0.44532204
0.08915366
0.56327623
-0.20949475
0.03365966
0.64796072
0.10197774
0.18491191
0.78290880
0.56713367
0.62558860
0.71852160
0.39544728
0.28355947
1.17625666
0.38182849
0.20910025
0.74709225
0.18968508
0.11442474
0.56277430
-0.28178155
0.13004746
0.85973656
0.24224530
-0.67488229
1.44071746
0.21418352
-0.35824943
1.34045124
0.24971281
-0.45471427
0.11180562
-0.09728351
-0.07262772
0.63139808
0.74454546
0.20471427
0.96729994
-0.71659893
0.23626918
1.45533931
0.20060357
0.15564100
1.52932632
0.80189931
0.16956174
0.91911018
0.13782245
0.16231093
0.18270729
0.32898283
-0.43920490
0.70149541
0.48258805
0.23608741
0.68825281
0.28560817
0.03905480
0.37505126
0.34035680
-0.17229658
0.58564705
-0.52132142
-0.09177604
0.52137107
-0.63350683
0.11897229
0.97647858
-0.72919339
0.02567662
0.92158067
-0.78064859
0.15392123
0.21182558
-0.56845146
-0.00587540
0.45255399
-0.29838306
0.22526497
0.60138667
-0.40937257
0.43842557
0.86264551
0.26779816
0.31331378
1.12127686
0.11996041
0.17925498
1.31348801
-0.04346474
0.15541784
0.50881487
-0.13833153
0.47510651
0.44447339
0.05423737
0.58580363
0.83799142
0.11133906
0.10251497
1.14648902
-0.00904255
0.30833670
1.05037999
0.24544272
0.13512447
0.97318262
-0.35691011
0.11539124
0.74121439
0.09986585
-0.10371611
0.67284477
-0.15910147
0.32502219
0.38510576
-0.42590642
0.34114957
0.47567815
-0.15551636
0.22675724
0.72398174
0.11293705
0.21207018
0.72261500
0.31745288
0.05350002
0.72873700
0.09251726
0.04850937
0.39641273
0.17270729
0.02689591
0.84526002
0.14552726
-0.02008454
0.29394117
