0.02406804
0.06266370
-0.02219639
-0.01770773
-0.02444087
-0.00618374
0.01132217
-0.02292186
-0.00688397
0.06622276
-0.00396256
-0.01538295
0.01582533
-0.01980512
-0.06067941
0.01813471
-0.01378043
0.03324862
-0.05253560
-0.00608814
-0.00714297
0.00967238
0.02679944
0.02887667
0.01783433
-0.02514211
0.01922155
-0.02207054
-0.03699649
0.04755707
-0.04464604
0.06467126
-0.00217151
0.05005108
0.00941286
-0.01912882
-0.01007462
0.04790935
-0.03638846
0.01856803
-0.00508122
0.00720067
-0.01175383
-0.03118844
0.01643844
-0.04401414
0.02407188
0.02597334
-0.04584133
0.01342050
0.02957137
-0.00384073
0.02133345
-0.01283859
-0.01788319
-0.04314501
0.00517452
-0.00671474
0.00756566
0.02165265
-0.00332203
0.03585202
0.01146759
0.02245056
0.01750471
-0.00219017
0.00796297
0.01203719
-0.02312493
-0.03841675
-0.00249187
-0.05044783
-0.00879168
0.01769740
0.02828449
-0.03039548
-0.00202965
-0.02193736
-0.06132570
0.02620186
-0.00476132
0.03398659
0.00970831
-0.01930202
-0.03926861
-0.01684086
0.01020188
-0.00393553
-0.00592761
-0.01478947
-0.00180683
0.03616754
0.03804114
-0.04902737
-0.01852219
0.00754018
-0.00514972
0.02937325
-0.00566237
0.00140798
-0.03698174
-0.00985162
-0.00924943
0.01622952
0.02704644
0.00845521
-0.00963309
0.01240977
0.02809006
0.04108458
0.05043288
0.02686173
0.04571332
0.02334728
-0.00032733
0.02190306
0.02490916
-0.03508253
-0.02083714
0.00364140
0.03572243
-0.01323323
-0.01142470
0.01371459
-0.06186272
0.01930450
0.01592672
-0.00847150
