-0.03324849
-0.14668471
-0.28277692
0.11505484
-0.00510379
0.11111472
0.14944890
0.10873683
-0.06545395
0.04863748
0.12692556
-0.43375537
0.31012940
0.02456727
-0.21939246
0.06992700
0.12988381
0.01383609
-0.14382558
-0.06885142
0.21670513
-0.05128082
0.41730815
0.03259149
-0.20001972
0.03504156
-0.03673787
-0.19887458
0.16371624
0.11496244
-0.15032974
-0.03987404
0.24169636
-0.24479185
0.18182266
-0.27855915
-0.09814408
0.02391438
0.14183465
-0.02357497
-0.07199270
-0.16775067
-0.24957566
0.20672515
0.08424892
-0.19654989
0.01405807
-0.17828822
-0.30959097
-0.10445312
0.18520971
-0.09598719
0.04059006
0.08566356
0.20302355
-0.05409842
0.17922041
-0.05819427
0.06075310
-0.29206085
0.00668485
0.12781101
0.25327414
0.38071850
-0.11209590
-0.26773897
-0.15048364
0.11884083
-0.35851839
-0.02343602
-0.11716273
-0.00510561
0.11388769
0.17000386
-0.21540700
-0.52623606
0.03582170
0.18871662
-0.15632902
0.23228300
-0.19643031
-0.12592213
-0.20371807
-0.11752136
-0.15831885
-0.05481058
0.19287340
-0.10460258
-0.19019772
0.24937871
0.02052562
0.10084873
0.38608947
-0.19126384
0.21026656
-0.11568220
-0.21754910
-0.16884509
0.02585885
-0.24856836
0.22454712
0.16150925
-0.02408622
0.33331043
0.09186202
0.12892926
-0.09165007
-0.06209625
0.16668507
-0.27976799
0.27555925
-0.13799381
0.35356531
0.00822835
-0.17585614
-0.24865536
0.14018461
-0.06404425
0.04728696
-0.42412400
-0.09842435
-0.28681773
0.07536306
0.32987541
-0.06494154
0.03016104
-0.22837685
-0.04592916
-0.43471020
-0.36270475
-0.05854754
-0.38519046
0.16902235
0.00542871
-0.51164335
1.08811355
-0.06044637
-0.20278120
0.31403378
0.59010059
-0.06566049
0.16026819
0.21318212
0.83379287
-0.32307929
0.84006226
0.02860401
-0.06918798
0.14891660
-0.13348864
0.18851164
-0.15740074
-0.64827883
0.06050510
0.07611759
0.29266950
0.06525828
-0.03103283
1.12735462
-0.41585466
-0.80203962
-0.67821676
0.23020092
-0.13929620
-0.75439841
0.41917875
0.35024318
-0.23322253
0.29845017
-0.23237081
-0.18877648
-0.04097143
0.16393341
-1.01586163
-0.00462343
-0.16934793
0.15212229
-0.07696101
-0.17820121
-0.67264527
-0.53534007
-0.30632192
0.75425828
0.01651946
0.21087012
0.08130193
-0.68256176
0.09210918
-0.21142970
-0.05568039
0.18646923
0.21382669
0.02255099
0.51959956
0.39814582
-0.05179489
0.06076816
0.27973136
-0.59950477
0.66849661
0.64404619
-0.29519609
-0.42349443
0.44898170
0.21720552
-0.06277190
-0.24018627
0.35368004
-0.08691595
0.27581239
-0.19319141
0.35566196
-0.15968588
-1.01431620
0.06248233
0.06894156
0.17116664
0.21246977
0.19215783
0.24312627
-0.16809697
-0.28520241
0.60674673
0.52934086
-0.61077160
0.49678659
0.16096987
0.47834131
0.12493710
-0.05651988
-0.30396408
0.37207502
-0.22726095
-0.23886847
-0.07947352
0.25098932
0.25600919
-0.05269116
0.14220360
-0.90030897
-0.17318767
-0.65523690
0.04920719
-0.27627671
0.12631856
-0.05742814
-0.03885218
-0.19374591
-0.37454933
-0.62003040
0.10743922
0.69884294
0.24658264
0.45196521
0.22945149
-0.33520749
0.33894217
0.37583506
-0.11219789
0.07193977
-0.00190566
0.13321914
0.13123059
0.22743934
-0.23442228
0.01368074
-0.00389206
-0.41311443
0.16764186
0.27643174
-0.01604407
0.09262702
0.20733510
0.20424002
-0.08615285
-0.16076383
0.22298937
0.01984293
-0.20570910
-0.07737438
-0.05423654
0.00619992
0.27132636
-0.17342894
-0.17750800
-0.07746607
-0.13559236
-0.07200594
-0.08424368
-0.28559393
-0.03939113
-0.10868017
-0.31381381
0.13825776
0.42134282
-0.05643202
-0.24555011
-0.34366933
-0.23175965
0.01085678
-0.10599977
-0.61902010
0.03398139
-0.15463004
-0.28949958
0.26669773
0.09812674
-0.37371758
-0.40856752
0.17252931
0.38420948
-0.11563353
-0.03293909
0.06542885
-0.27821636
-0.30185455
-0.26630816
0.22246942
0.24546801
0.36677265
-0.07108399
0.16976696
0.03256884
0.06817310
-0.17838737
-0.09731029
-0.12365246
0.08583409
0.00209124
-0.26047289
0.11203419
0.06598740
0.10574057
0.10507769
-0.33790913
0.00493943
-0.01800845
-0.20677613
0.01857897
-0.09440359
-0.21738505
-0.04086499
0.12043101
0.22239357
0.29105523
0.19760582
0.20771892
0.38902956
0.32419091
-0.13565233
0.21981633
0.16311999
-0.22492805
-0.12766457
0.03854460
-0.00466445
0.26415768
0.02500174
-0.23847632
0.19819778
-0.09120287
0.01371197
-0.22012888
-0.02078055
-0.11000991
-0.18869029
0.11618766
-0.02139856
0.35416317
-0.04186999
0.05933601
-0.12694663
0.09795853
-0.18684661
-0.16128007
-0.21248892
0.15635979
-0.44235575
0.00061725
0.14519212
0.25418073
0.02862079
-0.21683873
-0.20573114
-0.70929468
-0.64543378
0.10482147
0.05110449
-0.19612530
0.43341315
-0.15944813
0.38653088
0.07866528
-0.09647145
0.30092466
-0.18906067
0.20371281
0.11432783
-0.19011864
0.35996547
-0.47433835
0.48813385
0.02713360
-0.09397692
0.21777537
-0.30706862
0.55922383
0.25989276
-0.45256230
-0.11705051
-0.05080076
0.06734850
0.28971168
-0.22004469
0.49757996
-0.67913485
-0.50928771
-0.22774194
0.31899065
-0.41449776
-0.28219622
-0.21876630
0.17784372
0.01785756
0.30591792
-0.38439345
0.01679944
0.22840255
0.54575598
-0.32978821
-0.06725704
-0.77598882
-0.35217747
-0.05019430
-0.12366915
0.11685875
0.04931222
-0.20807642
0.50264770
0.06448539
0.07473332
-0.66417998
-0.48820934
0.13615333
0.27974987
-0.31228134
-0.05789952
0.00265848
-0.12990990
0.30460244
0.04602179
0.30763960
0.10081628
0.40460241
-0.61001766
0.40693724
0.98338300
0.18101630
-0.47586715
0.01347598
-0.01342333
0.20227273
-0.19609708
0.41269267
-0.26681569
0.25103006
-0.24114212
0.45159903
0.12074024
-0.79489481
0.24978092
0.19562957
-0.36293793
0.52731079
0.24832325
-0.23302250
-0.26146251
-0.29681990
0.65244979
0.22845151
-0.59884495
0.25502548
0.21094868
0.31230012
0.20161352
0.12614420
0.02697146
0.82663399
-0.04765227
-0.04748305
-0.27898493
0.42195714
-0.02744002
-0.07342465
-0.05437500
-0.61767143
-0.41069531
-0.24781653
0.00849539
0.13585198
0.34464872
0.15717617
0.26947570
-0.21552587
-0.25537542
-0.56068897
-0.16919796
0.47552601
0.11708929
0.47587729
-0.13230993
-0.12404063
-0.32867998
-0.42175168
-0.04727924
-0.01400237
-0.30595827
0.16097255
0.10713656
-0.09905519
-0.07697890
0.29501855
-0.03205942
0.13116993
0.01208900
-0.04231898
-0.06704237
0.04721909
-0.09102884
0.24550129
-0.28106490
-0.09156787
0.16439165
-0.15084116
0.43771753
0.31055149
0.12854463
0.21461278
-0.19215575
0.29301381
0.29263833
-0.22656567
-0.03229762
0.04117937
0.03944642
0.12548065
0.08631264
0.04475971
0.09859443
-0.35451630
-0.14149357
0.14742658
0.21357249
0.04423680
0.05335431
-0.12137298
0.36369032
0.04595562
-0.07086518
-0.05540531
-0.32009810
-0.04139377
-0.22056149
0.11631502
0.23603031
0.04505385
0.02025427
-0.06718265
0.04218724
-0.33945107
0.00076982
0.15531439
0.24611621
-0.18771195
0.00557748
0.13636744
-0.28781310
-0.19878264
-0.08142942
0.10096160
0.11501557
-0.08809806
-0.24346402
-0.28239003
0.15853657
0.17496912
0.17103475
-0.21866642
-0.12144467
-0.18743317
0.08301087
-0.00154462
-0.16780353
0.19555396
0.06844294
0.38043126
-0.00019850
-0.23095508
0.09035975
-0.24310485
-0.42853796
0.18134657
0.03844808
0.01452545
-0.21836287
-0.10963827
0.18736409
0.04961521
0.07220905
0.05405726
0.08433113
-0.21366501
0.01992578
0.22544113
0.11847676
0.40672976
0.00783622
-0.06453327
0.04434975
0.04737958
0.15774088
-0.04853002
0.20555216
-0.30743811
-0.12048385
-0.02293020
0.15543887
0.15080222
0.09334584
0.34422579
0.04283074
-0.17241286
-0.04256754
-0.14953247
-0.11479431
0.17879018
-0.03630218
-0.01278049
-0.13950312
0.18357268
0.42196476
0.39394948
-0.16007462
0.05361199
0.06751261
0.12491523
0.18297035
0.25378457
-0.30989259
0.00122043
-0.03797347
-0.39203790
0.22598365
0.33883440
-0.00600287
0.02525629
0.23991321
0.15266386
-0.09182951
-0.16636465
0.26894546
0.03192596
-0.25111249
-0.14807549
0.00721941
0.01285497
0.29539636
-0.19289427
-0.16957653
-0.14905022
-0.15186526
-0.07751118
-0.09679919
-0.31360951
-0.08397934
-0.10780201
-0.34158298
0.08815235
0.46317962
-0.10979481
-0.23028512
-0.34265831
-0.24376151
-0.04709436
-0.11442035
-0.67171615
0.04898676
-0.15386774
-0.27800727
0.31577757
0.11935675
-0.45016792
-0.41376084
0.16946194
0.37352857
-0.10555679
-0.07423917
0.09995504
-0.26279286
-0.31122082
-0.32965901
0.19787768
0.26111522
0.41852477
-0.06447287
0.23712811
0.07899898
0.09823278
-0.15972678
-0.17303008
-0.08642390
0.06052174
-0.01552728
-0.29527670
0.16173941
0.05547712
0.12478543
0.05962041
-0.29444882
0.02764263
-0.02503649
-0.24966103
-0.00922692
-0.12566900
-0.23158026
-0.07837373
0.11754750
0.21779138
0.30629715
0.19600935
0.26760814
0.46962181
0.29458275
-0.15069322
0.26323801
0.16934304
-0.19992620
-0.09164613
0.06641915
-0.08285603
0.29699764
0.03185820
-0.25649685
0.19304107
-0.15264277
0.02984330
-0.21723567
-0.04278243
-0.11572352
-0.19322567
0.14423122
-0.07633182
0.41285300
-0.04909260
0.15999469
-0.11031998
0.06577621
-0.17564727
-0.13891490
-0.24297687
0.10439214
-0.45278937
-0.00641528
0.07624710
0.26888186
0.03572050
-0.29582468
-0.24247041
-0.21457030
-0.15165630
-0.31327900
-0.02452057
-0.18604366
0.02824503
0.17516740
-0.00237658
-0.11910444
0.09463231
0.19230370
-0.17401782
0.15626281
-0.00798539
-0.17057571
0.17012954
0.04763383
0.11636350
-0.08852134
-0.06650315
0.16021419
-0.00876432
0.45853812
-0.00278227
-0.17252046
0.00326004
-0.07737555
-0.07910667
0.14779747
-0.13750301
-0.17070884
-0.05057412
0.34110546
-0.30558470
0.15573823
-0.30894259
-0.10536107
-0.08715317
-0.07287973
0.18737447
0.12476343
-0.12114421
-0.26300588
0.29693350
0.10141794
-0.37248141
0.04410504
-0.11075179
-0.41813201
0.00207078
0.22801779
0.02423296
0.08519326
0.08592821
0.07434188
-0.04146916
0.09811211
0.03355603
0.02596370
-0.09546177
0.10841558
0.10246552
0.14164907
0.42001137
-0.06604509
-0.22565684
-0.10109852
0.01407553
-0.22116031
-0.00255393
-0.20625277
-0.00974486
0.13158065
0.22949663
-0.14523661
-0.62017709
-0.03287635
0.19034418
-0.25892806
0.21529706
-0.10249897
-0.13193847
-0.08803153
-0.10601888
-0.19126973
-0.18016115
0.19795509
-0.08281870
-0.20610793
0.12550476
-0.00645068
0.20325223
0.28551871
-0.18835904
0.11476098
-0.16098988
-0.23529530
-0.02001400
-0.00945884
-0.23840241
0.18945004
0.07930762
0.03019216
0.48863935
-0.09902127
0.12930875
-0.09506729
-0.08453730
0.28862748
-0.02367134
0.23720577
-0.08713186
0.37924752
0.05409300
-0.05081194
-0.15106782
-0.04216696
-0.06742404
0.05999890
-0.31151015
-0.13738507
-0.39079961
0.02673807
0.25621817
-0.02646759
-0.04848605
-0.12928772
0.03458449
-0.17085229
-0.04471822
-0.08312689
-0.26367569
-0.18213125
0.16780357
0.14060234
0.12509125
-0.39020255
0.07485670
0.09283136
0.29070723
-0.06903575
-0.11785807
-0.16050053
0.29631329
-0.46680281
0.18461679
0.10053417
-0.38441634
0.01944081
-0.22893293
0.20514366
-0.15493086
0.01017922
0.27610993
-0.18911044
0.27489674
0.10552499
-0.19763550
0.01522886
0.17906928
-0.22547635
0.00970362
0.17451380
-0.10088234
-0.20049027
0.21471827
0.16886579
0.03216777
0.33511820
0.20588842
-0.18833689
-0.09239294
-0.02742038
-0.41570848
0.01169034
-0.46324095
0.07153000
0.09614360
-0.00484944
0.15124235
-0.06963635
-0.10528913
0.01455050
0.02527347
-0.22159466
0.00207237
-0.41577354
0.10298643
-0.28550023
-0.09434707
0.09348781
0.24749956
-0.14832920
0.07880985
0.06151753
0.00382094
-0.10699119
-0.00338817
-0.10375779
-0.26204559
0.05738724
-0.02802170
-0.27019203
0.33489698
-0.08267549
-0.49274400
0.06025996
0.12242489
0.05728991
0.23187391
0.02320076
0.06495227
0.14716423
-0.19454676
-0.14843203
-0.19473764
0.11811455
-0.01351711
0.40139368
0.17906517
-0.02185425
0.03065243
0.09182237
0.04284475
-0.22899805
0.06085641
-0.12213166
-0.39362028
-0.00309672
-0.11906366
-0.33794200
0.25863385
0.09188621
-0.29825062
0.10256907
-0.05359653
0.22406213
0.17410794
0.23263294
-0.44812319
0.13585901
-0.17847127
-0.01261229
-0.11076317
-0.06557845
0.27568114
0.18914920
0.05675050
-0.11455465
0.12456499
-0.11099116
0.11431188
0.06186197
0.20917642
0.13401774
0.10400943
-0.19910347
-0.36090070
0.00328245
-0.07386626
-0.37262699
0.32333961
0.06691398
0.27200440
-0.12627874
0.12883037
0.10888760
-0.43386856
-0.19775684
0.09642026
-0.25320354
0.48949364
-0.15793163
0.60964894
-0.28532907
-0.11923413
0.35162202
-0.07787232
0.35050803
0.20746516
-0.18001452
0.31417277
-0.07955249
0.23975565
0.21464112
-0.46166250
0.15594912
-0.42895377
-0.00759764
-0.36962149
0.16421005
-0.12196470
-0.38466519
-0.39996186
0.09857459
0.16743205
-0.02094606
-0.31410387
-0.30056638
0.01559605
0.31860685
-0.52905917
-0.01442015
-0.27603009
-0.64552224
0.18753923
-0.17177837
-0.07598555
-0.22006196
0.21747722
0.59221298
-0.20319344
0.06463815
-0.29987040
-0.18301693
-0.32532352
0.08683567
0.02071970
0.28321654
0.43967378
-0.38225394
0.00453816
0.03873571
0.09320305
-0.21478766
0.21300128
-0.49285579
0.00981644
0.53844529
0.05628578
0.07594540
-0.29773650
-0.03619215
0.00412399
-0.09175438
0.05312329
-0.08067657
0.04459408
0.00981414
0.20369586
-0.15707321
-0.35587093
0.12998138
0.05426509
-0.23232807
0.46043423
0.01468353
0.37660345
0.06925680
-0.11371419
0.49137521
-0.03280524
-0.48278552
-0.06910641
0.07312211
-0.11535911
0.36419001
0.28280282
0.03811072
0.91067058
-0.10928489
-0.04258868
-0.28767771
-0.06713127
0.03414013
-0.13001627
-0.03096223
-0.32257333
0.05509077
-0.15745890
0.16176346
-0.18821914
0.13094275
0.25291508
-0.13363399
-0.44719610
-0.05710957
-0.51178092
-0.14129925
0.56600243
0.28850114
0.13794212
-0.44830242
0.15522888
-0.19849093
0.01222198
-0.33566466
0.04654101
-0.25302657
0.10168445
0.28540233
0.00708172
-0.14125374
0.04117849
0.25604105
-0.28936428
0.16707458
0.38405448
-0.15695870
0.08905342
-0.01801504
0.23978765
-0.09317049
-0.09579967
0.10790095
0.10802846
0.30845368
-0.11039706
-0.27811727
-0.04239608
-0.01824529
-0.11106946
-0.00810670
-0.26204315
-0.00942275
-0.44961032
0.11880111
-0.50187063
0.16204134
-0.30645883
-0.38181782
-0.16688310
0.16407302
0.07502821
0.21025594
-0.33142775
-0.40526977
0.32216641
0.07546262
-0.58931315
-0.15150732
-0.37358460
-0.54126751
0.07941210
0.18711866
-0.14568403
-0.16408810
0.08574713
0.28279832
0.00664072
-0.11181639
0.03503469
-0.24013186
-0.05373003
0.03731197
0.05110057
0.14260204
0.36661017
-0.16337582
0.06948864
-0.25520721
0.02253031
-0.16119209
-0.03226530
-0.27383289
0.07087178
0.25841659
-0.06176057
-0.10808933
-0.31761003
-0.10409975
0.21657264
-0.37710530
0.31415913
-0.05206473
-0.07901438
-0.19752946
0.01315834
-0.13181806
-0.24328056
0.17214496
0.22992755
0.04536595
0.33811557
0.15817466
0.25432745
0.27426517
-0.05890104
0.24687298
0.14288574
-0.30102620
-0.03473894
-0.07255074
-0.09585729
0.25626233
0.12152047
-0.13287848
0.63437510
-0.21685091
0.24294904
-0.24506691
-0.13311243
0.23858373
-0.22989151
0.08134562
-0.08567648
0.21050876
-0.05952905
0.04599156
-0.13266651
-0.06815323
0.15083557
0.06628611
-0.20408435
-0.07454027
-0.53448111
0.04523576
0.38899055
0.27863553
0.06553494
-0.33453566
-0.09731998
-0.25757301
-0.46549729
0.41661754
-0.38707453
-0.25306004
0.37746710
-0.12365882
0.01541238
0.23384731
0.02704933
0.07239577
0.06467512
-0.09719770
-0.26948947
-0.07223217
0.24487472
-0.49474806
0.46924955
0.06859232
-0.01929815
-0.14211217
-0.28439122
0.25401717
0.16234982
-0.06970302
-0.11488321
-0.23642562
0.23424022
0.10418388
-0.30736759
0.25467592
-0.25305891
-0.24280353
0.16317324
0.26205754
0.02977164
-0.04012190
-0.18339725
-0.35341868
0.17595524
0.39033192
0.09242434
0.11043210
-0.14067726
0.34328145
-0.00426777
0.14349900
-0.27883142
-0.11076613
-0.03707461
-0.23548149
0.36316839
0.38655737
-0.04177675
0.08129776
0.01748965
-0.06503821
-0.44719532
-0.35307860
0.32371020
0.35006478
0.08586068
-0.25095463
-0.05132937
-0.27509630
0.24518138
0.07575883
0.10773747
0.01690630
0.16324097
-0.36398569
-0.06466365
0.46629485
0.18784800
-0.14688984
0.11614239
-0.17106415
-0.15584289
-0.17066553
0.05226862
-0.00928391
0.41352177
0.09015799
0.28779167
0.34329697
-0.42024064
0.05389298
-0.01078445
-0.21374266
0.34941465
-0.04335362
-0.07608479
-0.29931918
0.05371660
0.24038778
-0.09229003
-0.21751703
0.16964719
0.12628712
-0.00620303
-0.19839224
0.13369802
-0.08941235
0.67575347
0.22492892
-0.28984973
-0.03244293
0.25999311
0.05963263
0.48970777
0.02291541
-0.28849986
-0.39863524
-0.28363284
0.12892671
0.30473453
0.00591545
0.40053374
0.16141257
0.38285467
0.17037669
-0.14978001
-0.18078476
0.50946981
0.04274085
0.21142077
-0.00018606
0.26080567
-0.50813156
-0.48301420
0.11440885
-0.19101745
-0.15010189
0.32666135
-0.00739655
0.31218886
-0.13642003
0.07722502
0.11524089
0.21969499
-0.15318452
-0.05085982
-0.03720250
0.35870767
-0.20006526
0.47720271
-0.04229090
-0.07354225
0.26179391
-0.24603274
0.28657293
0.26805082
-0.14997086
-0.02232417
-0.15437034
0.28567687
0.16443571
-0.33555707
0.26937166
-0.35523766
-0.27592939
-0.04949443
0.15787543
-0.23180312
-0.27002385
-0.25851083
-0.15198667
0.17122944
0.35124069
-0.11805339
0.11879639
0.20573515
0.38436884
-0.36658749
0.05672682
-0.33616665
-0.25361776
0.13164462
-0.17934828
0.10078610
-0.05140197
-0.21758707
0.30793241
-0.02903115
0.11066974
-0.45093212
-0.23361856
0.31570196
0.28004378
-0.27428013
-0.08113876
-0.01083364
0.00664849
0.24068005
0.10642301
0.29468292
0.11928533
0.32284740
-0.35907584
0.36428145
0.66011488
0.24184585
-0.18964428
-0.10810477
-0.11548086
0.11062916
-0.16234294
0.06202233
-0.17100374
0.16501787
-0.05210628
0.50724250
-0.01915461
-0.71842170
0.19987985
0.02967652
-0.29996923
0.24988014
0.14283741
-0.04043796
-0.42881697
-0.31245267
0.47434646
-0.04371031
-0.49572694
0.32895955
0.16967954
0.24899797
0.17334038
-0.06511384
0.21665670
0.69086546
-0.16499314
-0.10348358
-0.25083768
0.31179857
0.00051727
0.32476524
0.01310321
-0.41562763
-0.23506625
-0.14836821
0.25938234
0.25289175
0.12368353
0.08068825
0.20299274
-0.11998191
0.00539329
-0.49461085
-0.24745090
0.30521515
0.07679389
0.05482215
0.02379514
-0.01198655
-0.15981050
-0.18284801
-0.19013272
0.04888732
-0.18803890
0.05026635
0.11233795
0.10858531
-0.26635879
0.10528636
0.16558425
-0.01808637
0.13057479
-0.11057726
-0.09238531
0.04668485
-0.01980408
0.03987552
-0.21659468
-0.13964260
0.26973784
-0.06757282
0.37334719
0.03317359
-0.17011750
0.03726306
-0.12709081
0.08121257
0.19740295
-0.07865828
-0.16503528
-0.07136998
0.15655039
-0.07703322
0.06667466
-0.17936146
-0.08551221
-0.13602185
-0.08327484
0.05647539
0.05368051
0.00104478
-0.29305607
0.16613385
0.20114025
-0.23645252
-0.05300674
-0.20511167
-0.30864313
0.08740500
0.07127192
-0.04262913
0.10351039
-0.07719700
0.04088962
-0.17146002
0.08842095
-0.09756037
0.03195518
0.05548363
0.14417294
-0.07577325
0.16232827
0.22593421
-0.13762572
-0.14723177
0.00407976
0.25531685
-0.14205407
-0.05571330
-0.08123321
0.02843014
0.14820859
0.25090691
-0.02470060
-0.36731416
-0.02450854
0.03029377
-0.00491124
0.22632596
-0.18543300
-0.06067527
-0.17728245
0.03695799
-0.17825550
-0.15323137
0.07490513
-0.20597841
-0.17256783
0.14095649
0.16776103
0.13644089
0.08605555
-0.12302859
0.16302268
-0.18491402
-0.33565855
0.12007330
0.05331139
-0.43066576
0.14505477
0.08422753
0.11488823
0.47243065
-0.10143784
-0.05768893
-0.00803668
-0.04011657
0.18357611
0.01305369
0.14347915
-0.28776404
0.19498155
0.00795836
0.09033655
-0.06820174
0.08015038
0.08689672
0.13171357
-0.34141833
-0.23036999
-0.17697918
-0.09100689
0.16686279
0.00032737
0.04002228
-0.22506090
0.09647427
-0.61725354
-0.34417304
0.02567818
-0.31026730
-0.22946984
0.11961214
-0.14354190
-0.02087001
-0.04869433
-0.20839021
0.17572862
0.28043506
0.08476441
-0.11814517
-0.05352767
0.51040643
-0.60436600
0.28863841
0.30731958
-0.20627695
-0.24820198
-0.27627864
0.57013029
0.11524387
-0.04183815
-0.14718111
-0.25108045
0.09238525
0.03177926
-0.15505461
0.42891905
-0.17856157
-0.45477590
0.12923500
0.42449638
-0.33217314
-0.10099804
-0.26996744
-0.17291118
-0.14676732
0.47716093
0.15029256
0.19749786
0.02532546
0.33576900
-0.28235781
0.04771694
-0.52353412
0.05497877
0.02372650
-0.04612526
0.29133224
0.30205160
-0.17346680
-0.04537372
0.07139038
-0.01290312
-0.37323982
-0.37880695
0.44857854
0.23444590
-0.28385723
-0.11541626
-0.23139042
0.13458246
0.39698437
0.05518885
-0.06759746
0.22796276
0.20989418
-0.27341774
-0.21954495
0.43226922
0.04185306
-0.57291913
0.34383079
-0.21044111
-0.06315611
-0.13365977
0.28496826
0.27260751
0.43416077
-0.04621884
0.18212003
0.38963494
-0.65004069
-0.04669847
0.06737076
-0.15178680
-0.15462528
0.21204703
-0.40312070
-0.35471812
-0.06176031
-0.00593369
0.22032443
-0.18113680
0.24927586
-0.01056796
0.34827599
-0.45186946
-0.08920328
0.10734741
0.17536074
0.02367354
-0.09799021
0.06429151
0.28589144
0.05613167
0.41373456
-0.00852610
-0.44692355
-0.31251624
-0.23641509
0.05332159
0.06358310
0.01821231
0.30017734
0.18647844
0.47396183
-0.10490914
0.05788502
-0.02388623
0.15650102
-0.15254253
0.16940323
0.18876509
-0.05774993
0.46089005
0.33450308
-0.15654229
0.09824503
0.08945768
0.49469489
0.24337150
0.58383644
-0.67456788
0.10731877
0.16900192
-0.31357247
-0.00578330
-0.04265772
-0.17886671
0.06975109
0.16071485
0.19481875
-0.25460204
-0.32922220
0.43862173
-0.11803147
-0.17945324
-0.16306978
-0.18478477
0.20089713
0.17200746
-0.05258719
0.08720902
0.06659877
-0.41891772
-0.08877782
0.11788383
-0.36089724
-0.02012824
-0.29109517
-0.31491280
0.38306668
0.53435063
0.11103930
-0.24770032
-0.31390122
-0.35977149
0.20434475
-0.10331873
-0.75851834
0.06613754
-0.43956643
-0.18634036
0.38247314
0.21524358
-0.29016849
-0.57130057
-0.03097173
0.53632855
-0.02940302
0.14634946
0.17201683
-0.25550455
-0.44289738
-0.40721267
0.28406712
0.38395754
0.53887296
-0.02626223
0.03057837
0.14707999
0.41529423
-0.44445258
0.00684362
-0.05280903
0.44962239
0.02033466
-0.10341975
0.01962817
-0.21106088
0.24591051
-0.00305785
-0.29657757
0.04911238
-0.23011437
-0.34339017
-0.02366552
0.00632083
-0.28994155
0.03377586
0.11204021
-0.16222686
0.30024758
0.29298487
0.34660885
0.55633795
0.43096003
-0.27308530
0.45169711
-0.15317491
-0.62401104
-0.12202174
0.15405691
-0.33395579
0.61641139
-0.03840332
-0.25312045
0.48355398
-0.14696695
-0.28208503
-0.42790505
0.07567172
-0.01597088
-0.24810171
0.05228895
-0.14091177
0.63784069
-0.03997143
0.05790094
-0.26622298
0.17408767
-0.32262528
0.04487544
-0.65088558
0.04154806
-0.54044616
-0.05938113
0.25929341
0.34969446
0.06648872
-0.19966039
-0.04485060
-0.22067025
-0.00391291
-0.10878493
-0.20847918
0.01102999
0.00268205
-0.04426578
-0.04011969
0.05887095
0.02829055
-0.00193293
0.52448618
0.15379666
0.14242138
0.07232052
0.00771429
-0.00153628
0.27117395
-0.09109300
0.05387549
-0.05821574
-0.13355742
0.21700399
-0.10580347
-0.08887611
0.03959778
-0.12460796
0.08528793
0.03110917
-0.00260689
0.18942410
0.23429257
-0.21124002
-0.08399312
0.08713932
0.10856695
-0.03695531
0.21538182
-0.26577181
-0.03150478
0.17006598
0.12054430
0.00948655
-0.00132053
-0.06410490
-0.14572488
0.09812657
0.00771460
0.05488196
-0.22005247
0.04995827
-0.03373015
0.00220338
-0.11139498
-0.07224403
0.16481866
-0.08209700
0.01295539
0.05014606
0.36881208
0.19144732
-0.15397388
-0.04353055
-0.01345098
0.03665586
-0.02275449
-0.14650819
0.11159146
0.09275210
-0.01166360
0.07267850
0.07248656
0.05822846
-0.03485467
-0.16458648
0.02736195
-0.06348391
0.10210800
-0.11645974
0.08365696
-0.12274961
0.19685002
0.08354297
0.08137874
-0.11198995
-0.21186972
0.28431407
-0.09847063
0.16002654
0.01562124
0.12680745
-0.01156114
-0.10796674
-0.18367913
-0.07543881
0.12141515
0.05086209
0.17365789
0.02477381
-0.04705912
-0.18319216
-0.09788340
-0.03658143
0.18256429
0.04925673
-0.30304500
0.06526753
0.08919761
0.30099303
0.03871097
0.30747882
-0.15265520
-0.20033211
-0.25135830
-0.15381436
0.07402435
-0.03761451
0.06068819
0.29459602
0.21939515
0.14874279
-0.18840049
0.07858237
0.09423751
-0.00101205
-0.18020782
0.15191591
-0.12693313
-0.25452495
-0.31130299
-0.05834682
0.02971954
-0.27820063
0.08944474
0.16451612
-0.03433770
-0.08800268
0.24677688
-0.00139859
-0.08652008
0.14789370
-0.15396005
0.03937764
0.06291449
0.01651599
0.09074199
-0.39897448
-0.00827220
0.25581902
-0.02531913
0.38544840
0.17504303
-0.09246947
0.12893936
-0.30016786
0.21048974
0.28952616
-0.11702305
-0.13142182
-0.01488613
0.04266620
0.13934354
0.02040770
-0.00714318
-0.01421504
-0.29436043
-0.27231523
-0.02130380
0.16934945
0.04902476
-0.12469732
0.04001573
0.27809107
0.11005270
0.01168473
0.01506008
-0.34624231
-0.00764172
-0.07598458
0.03596017
0.17979431
0.08453627
0.01074841
-0.16950630
0.09340949
-0.29214865
0.02848723
0.08310021
0.16680655
-0.15280753
0.12855828
0.10203336
-0.17402583
-0.15810995
-0.00204348
0.14658038
0.04709623
-0.06706527
-0.10604195
-0.08341220
0.22837289
0.23382917
0.14636813
-0.14351670
-0.00143459
-0.03165478
0.14444952
-0.01198044
-0.26391575
0.12884991
-0.04755991
0.27683523
-0.18408966
-0.26284108
0.19952716
-0.30592924
-0.29415506
0.21284978
0.10510740
0.03908164
-0.14362617
-0.07262199
0.21826991
-0.09232977
-0.16390972
0.08545937
0.07196022
-0.51370561
0.08991981
0.17859621
0.07927485
0.44640860
0.03506567
-0.09452289
0.08427604
-0.03443804
0.06324519
0.07910679
0.27519095
-0.39272004
-0.00853593
-0.02697701
0.05408614
0.11564303
0.16942000
0.35093930
0.14898276
-0.28666770
-0.04980842
-0.12151054
-0.04361811
0.14647195
-0.03802072
0.13338861
-0.16459620
0.15015468
0.01549872
-0.33890903
-0.11818998
0.12756076
-0.09101541
0.13727453
0.10015482
0.18641078
-0.07757539
0.11168799
0.09789898
-0.38945571
0.28773209
-0.08752669
-0.11860122
0.01943775
0.13035557
-0.02015429
-0.26908103
-0.01086087
0.28377712
0.01523820
0.44900426
0.22469857
-0.28278404
0.12100857
-0.19821088
-0.01436895
0.32696119
0.05621442
-0.15388225
0.02605635
0.19584811
-0.03119777
0.04779961
-0.15169874
-0.04509284
-0.13177295
0.00458288
-0.01941395
-0.20500180
0.00187993
-0.25141919
0.11343176
0.18161075
0.08990711
0.03667083
-0.22815074
-0.29522908
-0.12515381
0.06226649
0.00142743
0.07056480
-0.01516560
0.21234687
-0.16992418
0.23004448
-0.29737204
0.05991809
-0.15713975
0.19584358
0.02656456
0.36455321
0.25060955
-0.26624250
-0.33599964
-0.10416409
0.30162403
-0.33260739
-0.05790076
-0.05368431
0.00145365
0.24532509
0.35062402
-0.13946268
-0.44478610
0.08845595
0.15330374
0.04948476
0.22437799
-0.49292630
-0.06476608
-0.24206254
0.03257845
-0.14255776
-0.11503997
0.18948628
-0.23546702
-0.24875727
0.27133340
0.18248338
0.09600797
0.23686261
-0.15226634
0.32074606
-0.20240015
-0.33946696
-0.05446674
0.00018593
-0.51316345
0.23483157
0.31697479
0.12510547
0.44793600
0.11800661
0.05508146
0.00619178
-0.06817602
0.06456687
-0.30862820
0.31275409
-0.29379609
0.16907951
0.05608686
-0.15529190
-0.23777510
0.24297754
0.14662346
0.06301365
-0.51785266
-0.08169158
-0.13533063
-0.01962117
0.33828425
-0.11677644
0.19268401
-0.36071464
0.09428140
-0.31328052
-0.22647732
-0.13286421
-0.36693969
0.03219447
-0.15498063
-0.17986242
0.27412555
-0.03092352
-0.18817168
0.18904752
0.56459582
0.12767722
0.34733763
0.20469183
0.34562290
-0.29995945
0.58594733
-0.04801473
-0.07002773
-0.17972654
0.06752649
0.24335743
-0.35923210
-0.57286066
0.00708295
0.06889656
0.07818079
-0.00509178
-0.05191326
0.72659677
-0.16205961
-0.69749868
-0.55688274
0.07125604
-0.03199845
-0.43957883
0.22853045
0.06457892
-0.46659631
0.40323254
-0.08394101
-0.22029887
-0.09049784
0.25076672
-0.59276068
-0.10780955
-0.03796956
0.03587121
-0.14572699
-0.09690938
-0.27119225
-0.28645051
0.08883430
0.12138689
0.16205193
-0.34716168
0.25431797
-0.39848921
0.14576875
-0.22776550
-0.17599449
-0.05502659
0.19664773
0.02327593
0.28891107
-0.04890579
-0.28882015
0.01439113
0.04016529
-0.10785104
0.31706834
0.42342627
-0.35683781
-0.36122650
0.57097411
0.22631329
0.06803075
-0.05114657
0.28410900
0.20512716
0.18268852
-0.06751034
-0.02333367
-0.01665380
-0.61075211
0.14951117
0.06777810
0.19202553
0.05443225
0.23717774
0.20285359
-0.09556186
-0.15901661
0.01306809
0.52308655
-0.25843781
0.38680348
-0.18853267
0.14829700
-0.08388596
0.02917073
-0.37175006
0.46973643
-0.18628743
-0.35706356
0.12471566
-0.16347581
0.24182433
-0.10905395
0.02774123
-0.43338460
-0.23478182
-0.63353741
-0.08467130
-0.35714597
-0.25221911
0.25250608
0.14926091
0.34785971
0.02388722
-0.28052843
0.38700587
0.36653560
0.06846879
0.37966752
-0.07365303
-0.14281537
-0.13224103
-0.20452482
-0.07843527
-0.04642230
-0.20441668
-0.03372250
0.09643634
-0.00238733
-0.08520974
0.14208812
-0.08390846
-0.15291406
0.19277357
-0.13265504
-0.03610358
0.04189750
0.02690168
0.00313625
-0.29423144
-0.08407248
0.27805009
-0.04388793
0.31283614
0.20603542
-0.09525748
0.04478854
-0.15874515
0.05279130
0.19029613
-0.07738093
-0.14002304
0.07141773
0.04552441
0.13737403
-0.04619696
0.00430465
-0.01426037
-0.27649042
-0.13792200
-0.14734845
-0.01847712
0.03842602
-0.17437203
-0.01522052
0.17491715
0.04408925
-0.02115262
0.03925063
-0.28899240
0.09693362
-0.00526846
-0.02782101
0.12975082
-0.01164133
0.03238950
-0.23173042
0.09791371
-0.22698815
-0.00127489
0.04918956
0.17962147
-0.09458133
0.17159373
0.15695441
-0.25588799
-0.08729579
0.02811390
0.12131082
-0.02837218
-0.08255471
-0.02424300
-0.19889921
0.07341279
0.19169225
0.05427471
-0.17379357
-0.02180643
-0.04970695
0.10512973
0.05328921
-0.20855269
0.08078097
-0.13875312
0.14343292
-0.16665116
-0.10756963
0.16183345
-0.16363257
-0.19107386
0.12342887
0.14254476
0.02378299
0.00616517
0.01732934
0.11357552
-0.10553303
-0.12527902
0.08686880
-0.05846100
-0.45179254
0.00645768
0.20626782
0.10580660
0.30152780
-0.02086403
-0.05338976
0.15343842
-0.03068800
0.12096704
0.01436765
0.23739012
-0.33410749
0.02296822
0.04162924
0.14253563
0.06019805
0.19091982
0.17601915
0.02675286
-0.23287949
-0.07395620
0.00834098
-0.01156690
0.11920409
-0.14930670
0.09507044
-0.19028807
0.07195552
-0.08537924
0.09204683
-0.29204288
0.08135012
-0.14669295
0.14571404
0.28556725
0.02100249
-0.24699837
0.05767084
0.18273160
-0.39589879
0.23583613
0.29522514
-0.15772967
0.00803495
0.09145148
0.12524170
-0.14818923
-0.12120281
0.19846992
0.06939638
0.21141458
-0.05563898
-0.11540959
0.00231927
-0.00478653
-0.10753856
-0.03083660
-0.11076161
-0.06107469
-0.26944917
0.03421209
-0.36166295
0.13710366
-0.28006849
-0.34926429
-0.01623373
0.24181601
0.00526178
0.11674704
-0.33191165
-0.34955508
0.20360827
0.02602575
-0.57370538
-0.12515610
-0.36683095
-0.37428564
0.03146227
0.13224442
-0.18423837
-0.14701009
0.05885979
0.36624846
-0.02277522
-0.02149466
0.01816069
-0.19862886
-0.18332221
-0.03705767
0.10020915
0.23604149
0.37778458
-0.18505180
-0.01027455
-0.25271639
0.06962797
-0.21391083
-0.12364833
-0.16324838
-0.02709383
0.12092003
-0.12651256
-0.07359646
-0.20463169
-0.05910332
0.15311238
-0.32262290
0.22150521
-0.11292131
-0.04580636
-0.19463205
0.00519848
-0.21165997
-0.05473812
0.18935487
0.14020729
0.06461345
0.30879951
0.21982345
0.24862550
0.29318684
-0.09953737
0.12726235
0.07117511
-0.27050701
-0.12858722
0.01503734
-0.22149542
0.18980910
0.13186145
-0.12312140
0.46696633
-0.17271559
0.21816739
-0.09447790
-0.07145372
0.14780077
-0.26432753
0.14860418
-0.16464883
0.28101403
-0.10701523
0.06897097
-0.10124661
-0.00977310
0.03718901
0.04640328
-0.21451858
-0.09101404
-0.41750470
0.07264993
0.36696944
0.25906265
0.07408522
-0.29505172
-0.13372295
-0.50588250
-0.39351359
0.03689068
0.07320967
-0.43539351
0.32399136
-0.09105249
0.18421397
-0.14191408
0.23862246
0.13883358
0.25574237
-0.22233993
0.27846864
-0.22191802
0.09964797
-0.43059251
0.42879319
-0.13003324
-0.15377758
0.28435838
-0.18766716
0.15088709
0.19717884
-0.37268388
0.25581595
-0.10473426
0.45719680
0.19715920
-0.18798909
0.33190414
-0.51310539
-0.48590913
-0.18597461
0.11488573
-0.05657467
-0.07332294
-0.05803036
0.16149008
0.32769898
0.18307741
-0.13801424
-0.17036831
-0.11083758
0.25001252
-0.10227802
-0.31233954
-0.36930573
-0.43159118
0.21051091
-0.25761998
0.13245682
-0.24940839
0.03420153
0.36681926
0.04585906
-0.42601812
-0.32431287
-0.34467021
0.10287638
0.07783794
-0.24399078
-0.06688742
0.17394528
-0.31080955
0.10049402
-0.08986074
0.12173475
0.07709053
0.16974813
-0.39390296
0.15455019
0.62973821
-0.01679024
-0.03277976
0.50177974
-0.00725228
-0.28287035
0.08738971
0.06531655
-0.23474970
0.40170169
0.06017584
0.46633703
-0.17873251
-0.52640361
-0.03205206
0.04962358
0.01441550
0.40180215
0.24148326
0.16693547
-0.27436563
-0.00382289
0.38530034
0.23732349
-0.28171980
0.22970021
-0.07991664
-0.05682500
0.23888472
0.02115540
-0.10807130
0.79439110
-0.02154204
-0.35613856
-0.28822005
-0.09856232
0.15442571
-0.04485076
-0.18929917
-0.29262024
-0.20953585
-0.18880731
0.02808250
0.01724187
0.07718485
0.36214814
0.05180289
-0.09872404
0.00494640
-0.12095609
-0.13877046
0.17865115
0.25324476
0.59040588
-0.20272987
0.04954893
-0.24810864
-0.13213131
-0.14409338
0.01702737
-0.34875652
0.22852047
0.06570143
0.09004459
-0.27056175
0.12682815
0.14113510
-0.12653136
-0.05996566
0.05541908
-0.16773281
0.32750398
-0.08817051
0.32839602
-0.14912295
-0.17279424
0.18372457
-0.12947206
0.43741962
-0.04130252
-0.26607078
0.00778175
-0.19798720
0.06704547
0.02074955
-0.18864304
-0.23007345
-0.33077437
0.15730937
-0.28811875
0.08920968
-0.18881962
-0.12839559
-0.18330236
-0.03711657
0.21736351
0.16008107
-0.14211921
-0.22654437
0.47016215
0.08430007
-0.44628304
-0.01313583
-0.12858850
-0.59770423
0.15221629
0.25596800
0.05813538
-0.04339759
0.17321201
0.24463242
-0.15426816
-0.05606083
-0.12434967
-0.04276671
-0.01416698
0.04933790
0.03808436
0.05253840
0.32411879
-0.05506521
-0.15042767
-0.25200918
0.06593680
-0.18405458
0.16380829
-0.19532695
0.18282735
0.28689384
0.20346831
-0.17218801
-0.29213536
-0.11528540
0.21303529
-0.15227704
0.10147733
-0.02872901
-0.10574153
0.00661217
0.18037158
-0.11616883
-0.18271278
0.16483164
-0.01347578
-0.21599048
0.22398701
-0.02868127
0.23078345
0.10734447
-0.12622552
0.40226269
-0.11909395
-0.48952544
-0.07598682
-0.01136472
-0.14771041
0.41971824
-0.08580200
0.09270614
0.62749958
-0.13062309
-0.12448975
-0.35318094
-0.25752598
0.21168689
0.14022239
0.05536383
-0.11232759
0.21498226
-0.06305520
0.02189730
-0.18554503
-0.11941872
0.06076552
0.15976226
-0.30718809
0.16364223
-0.43836245
-0.01209104
0.28678539
0.22073705
0.05230737
-0.24742690
0.05407587
-0.12127495
-0.27204710
-0.01530629
0.11274519
-0.15001230
0.20753881
0.04701547
0.18247876
-0.27983499
0.26575610
0.07578187
0.09093905
-0.11596091
-0.17081700
-0.13188279
-0.01274037
-0.03808993
0.12278628
-0.29058483
-0.14178653
0.35528192
-0.11261976
0.14873521
0.14323710
-0.22410604
0.25158414
-0.16773498
0.27744594
0.23912379
-0.00287222
-0.14359121
-0.08174624
-0.04332715
-0.02655841
0.00455797
-0.09033546
-0.04247585
0.10044698
-0.03485063
0.21844831
0.02154768
0.01765532
-0.16634282
0.06621788
0.15902042
-0.06409082
-0.07265692
-0.17328098
-0.21747626
0.03811337
-0.10528595
0.07736127
-0.15647128
-0.09980208
0.16446131
-0.14437935
0.01823851
-0.16451344
-0.01207945
0.01866505
0.02014248
-0.12240528
0.09085141
0.18816444
-0.15298018
-0.21981066
0.01459798
0.37500942
-0.16054690
0.07214548
-0.11427920
0.24286613
0.26481465
0.25326213
0.04674904
-0.11189555
0.10658755
-0.08161110
0.13230048
0.04528531
-0.43356225
0.01815673
-0.04484859
0.27030963
-0.26800248
-0.20901351
0.06968711
-0.31579453
-0.16817679
0.19913480
0.16524005
0.21506888
-0.12161618
-0.18197560
0.33361763
-0.16819400
-0.39525762
0.11652579
0.09770612
-0.44565448
0.31876817
-0.01897850
0.03247947
0.59144843
0.02378779
-0.23853184
-0.11251487
-0.02282814
0.07816881
0.02469892
0.13908450
-0.30273432
0.12310070
0.00294694
-0.01255654
-0.02543728
0.12846972
0.09940825
0.15411806
-0.42968178
-0.00816679
-0.16462837
-0.21570738
0.18217638
0.10892962
0.17739287
-0.10132568
0.10625217
-0.17395380
-0.14707872
-0.10032086
-0.05661498
-0.12576747
0.03119402
0.18986523
-0.13779455
-0.06968535
0.16275281
-0.05370090
-0.14890906
0.16996250
-0.07401247
-0.03047738
0.00224644
0.08855829
0.06744130
-0.25282714
-0.02539949
0.13647236
-0.02642272
0.22831529
0.09669580
0.01158133
0.04517213
-0.19507274
0.11567764
0.15970334
-0.04069908
-0.14035374
0.05289354
0.08739560
0.09585129
0.06148440
-0.02751860
-0.06318264
-0.13820328
-0.20238769
-0.02698984
0.19457509
-0.04100694
-0.06247950
-0.00690836
0.10557684
0.06401131
0.01280461
0.02807089
-0.17973344
-0.07054556
-0.01308410
0.05043488
0.11320686
0.06056115
-0.00845205
-0.10849495
0.07134411
-0.15323757
-0.04807323
0.01718844
0.05056416
-0.08992559
0.07758625
0.07600051
-0.11372242
-0.16963300
-0.04980810
0.02747772
0.05324126
-0.07960600
-0.12655747
-0.11486105
0.05787099
0.09162281
0.09173688
-0.13016631
-0.05278148
-0.09017348
0.09704275
0.02699946
-0.17616718
0.15343037
-0.05364802
0.15746441
-0.11644642
-0.15101467
0.16226646
-0.13407180
-0.16303806
0.13202399
0.01981376
0.02096161
-0.05276308
-0.09561729
0.05303583
-0.03189683
-0.01194371
-0.01901210
0.03206518
-0.30465063
0.02781854
0.10101782
-0.04594211
0.20724156
0.08504827
-0.00916419
0.10653285
-0.03926388
0.08479610
0.04242846
0.28356609
-0.22525659
0.06090276
0.02244520
0.00838504
0.15475598
0.06259667
0.21001576
0.07377816
-0.14625235
0.01857704
-0.10137776
-0.00415236
0.10591946
-0.08279984
0.00633465
-0.08692929
0.10837985
-0.66584861
-0.85379606
0.09931545
-0.08306239
-0.19847482
0.18714575
-0.17889452
0.18274449
0.22641359
-0.27020299
0.38911730
-0.25357795
0.15995705
0.24957849
-0.11403880
0.43672222
-0.68935466
0.64798081
0.05187949
0.26334134
0.20725325
-0.52835149
0.81614989
0.42527136
-0.56096548
-0.33651403
-0.04084869
-0.08526029
0.18321906
-0.30586651
0.61389387
-0.83226609
-0.47770828
-0.49673557
0.22254419
-0.39996588
-0.34559333
-0.76691109
-0.10169742
0.05423168
0.55821413
-0.49670452
0.04518328
0.23830059
0.72961277
-0.20989114
0.20952772
-0.48113868
-0.38486812
-0.13861221
-0.00553170
0.40875787
0.22088066
-0.10670192
0.31696782
0.11277045
-0.18672208
-0.61872065
-0.55073577
0.30259132
0.51542032
-0.30647895
-0.17406724
-0.06278941
-0.39156479
0.39343277
0.07333727
0.09141868
0.24251923
0.37882629
-0.70376426
0.22781539
1.18994093
0.46394631
-0.59843737
-0.37349582
0.10848980
0.46164024
-0.23149131
0.31600553
0.03419571
0.20482871
-0.39682853
0.36189231
0.30780688
-0.82559180
0.57536298
0.38113874
-0.54478967
0.80100477
0.15874735
-0.06696355
-0.44324064
-0.31693625
0.64187533
0.26126292
-0.66280490
0.20150995
0.19287214
0.27404001
0.06819858
0.42356652
0.15302746
0.96899736
-0.21236384
0.00043750
-0.24588290
0.43398508
-0.02314884
0.07291879
-0.27486879
-0.35624453
-0.58717304
-0.40524954
0.19374512
0.19979204
-0.09238908
0.29211792
0.29490873
0.15388972
-0.15304735
-0.63879806
-0.28354761
0.48366451
-0.00971397
0.24450600
-0.31218043
0.05355608
-0.03943883
-0.34123287
-0.01771161
0.06807756
-0.02776078
0.13287070
0.16923925
-0.05576518
0.04243452
0.17399202
-0.12777908
-0.16073522
0.22688575
0.01073521
-0.07388724
-0.06499185
0.20141681
0.00589660
-0.23877344
0.04345453
0.17654492
-0.01691312
0.31727627
0.26647040
0.05265997
0.18731295
-0.09420349
0.07941734
0.26165476
0.07272460
-0.04032676
0.16778390
0.08088894
0.20966746
0.00728992
-0.01057717
0.00743007
-0.08586904
-0.00992193
0.02215929
-0.07728846
0.02280848
0.07385663
-0.17347249
0.18687953
0.19266757
0.08635512
0.05407370
-0.10456741
-0.12871964
-0.09544016
0.04712084
0.18108848
0.09983812
0.08893800
-0.06041661
0.12073780
-0.25575688
0.07555543
-0.16461086
0.00445919
-0.08082030
0.16137055
0.11179958
-0.25251195
-0.27050549
-0.04155231
0.12009938
0.02113543
-0.24904174
-0.09792580
-0.28327036
0.08353408
0.11524489
0.14107184
-0.13985848
0.05338447
-0.11715940
0.14394851
-0.02245283
-0.36275807
0.15321209
-0.03381837
0.08756650
-0.05498425
-0.07614189
0.12672697
-0.25900459
-0.25037411
0.13694702
0.05285974
0.10916375
-0.05348881
-0.16389807
0.15774237
-0.00596964
0.09870646
-0.07293241
0.03897787
-0.37200448
0.06043524
0.26751164
0.03046495
0.15393932
0.14463511
0.09652318
0.14056990
0.01578885
-0.00563841
-0.16442589
0.39105791
-0.25983700
0.02692969
0.05375327
-0.05322572
0.07247463
0.20474899
0.20625465
-0.02724090
-0.18643956
-0.00852176
-0.09870354
-0.04257298
0.08769501
-0.15162340
0.11408969
-0.17679876
-0.02596105
-0.33918548
-0.30916587
0.00010348
0.00129219
-0.34840232
0.21273705
0.12077597
-0.10651728
-0.17370927
0.35140619
0.00887135
0.17683938
-0.03844520
-0.09848157
-0.03528647
-0.00443716
-0.13603212
0.20109966
-0.35285711
-0.12316271
0.18424696
-0.06707174
0.30862507
0.26618385
0.03043471
0.23127976
-0.30685815
0.30015284
0.28520390
-0.18029605
-0.09127546
-0.03282420
-0.05916872
0.13808876
0.05770851
0.06375005
0.03160467
-0.24409673
-0.16312207
0.08646990
0.29282668
0.07554934
-0.03208491
-0.04603752
0.25530934
0.05883253
-0.10516103
-0.12220521
-0.28325504
-0.00841185
-0.21422182
0.10482503
0.11376943
-0.05985944
0.05493166
-0.07915880
-0.03419963
-0.29413673
-0.06590795
0.21128005
0.18885726
-0.16071498
0.02995894
0.06404416
-0.21687561
-0.12361874
-0.10923991
0.15802251
0.13755657
-0.04182803
-0.13953936
-0.12657246
0.16966543
0.15894328
0.15426037
-0.00476991
-0.11886745
-0.19169174
0.11448972
-0.05245999
-0.24326241
0.24307743
0.00304696
0.47563308
-0.09171069
-0.22931321
0.11145195
-0.26203412
-0.24496272
0.18761049
0.15727662
0.00557406
-0.28531802
-0.05357477
0.19901089
0.00158925
-0.05881733
0.12330728
0.02266322
-0.35913938
0.04822982
0.14033699
0.04726668
0.48780930
-0.02663313
-0.12647025
0.02804914
-0.05397519
0.17266636
0.00646130
0.12105756
-0.35451037
-0.16717872
-0.03453502
0.13946301
0.15140262
0.08920634
0.36785659
0.15321976
-0.19724798
0.02130253
-0.06665087
-0.10609878
0.13857484
0.07657588
0.09307739
-0.07596796
0.19476084
-0.61056930
-0.64242685
0.09141707
-0.08773008
-0.05640972
0.25104380
-0.17055207
0.23835692
0.04152999
-0.14298993
0.13765977
0.15748450
0.29617453
0.15060048
-0.03549058
0.21211809
-0.41427392
0.18582001
0.21108143
0.05563197
0.03693405
-0.25313401
0.52978069
0.20193973
-0.13215762
-0.07474722
-0.18284044
0.12972699
0.25622681
-0.17823502
0.58975172
-0.44781730
-0.46248972
0.05461575
0.27539891
-0.34694257
-0.11719678
-0.21194220
0.03903768
0.04228509
0.31536487
-0.07312374
0.22554800
-0.02462538
0.51164055
-0.03770185
0.03321371
-0.61575454
-0.06228247
-0.05966156
-0.15804744
0.12995346
0.26357681
-0.20452119
0.25185487
0.09640458
0.03769801
-0.57787770
-0.39697766
0.33090901
0.47289300
-0.32837641
-0.00628507
-0.13955355
-0.01857135
0.36014676
0.09273218
0.22651199
0.34183377
0.11903248
-0.49123874
0.04914680
0.76873225
0.21204196
-0.44699878
0.26308325
-0.07302239
-0.02080818
-0.03863391
0.27641016
-0.16666715
0.50229383
-0.22586045
0.29148582
0.23653746
-0.80161375
0.09559175
0.10841413
-0.29259655
0.19310060
0.28509888
-0.25151640
-0.41629657
-0.34934181
0.29237658
0.22502455
-0.23163559
0.38975677
0.12989745
0.28903148
-0.16181318
0.03487926
0.11481158
0.39389116
-0.00598670
0.02047454
-0.02475864
0.38244483
0.02004837
0.13357037
0.01699858
-0.62632805
-0.43451414
-0.26297161
0.12040643
0.18206921
0.14970303
0.24491177
0.19242409
0.11767305
-0.28531209
-0.13413768
-0.11959794
0.14176598
-0.18543331
0.53222144
0.01157000
-0.17280313
0.27783304
0.25052238
-0.18590188
0.05177931
-0.01244470
0.41462749
0.15716214
0.44112536
-0.60694706
0.16358027
0.18962727
-0.06445630
-0.18192174
-0.10090749
-0.19856523
0.09030833
0.08302696
0.22997437
-0.15578656
-0.33805862
0.33621535
-0.11536972
-0.15983580
-0.16961174
-0.20962715
0.16361131
0.13537423
0.00650373
0.03435877
-0.00263843
-0.38767236
-0.11961213
0.15349592
-0.35155457
0.01156943
-0.28542447
-0.23367801
0.37725195
0.31116179
0.22167051
-0.06059482
-0.21297479
-0.27431688
0.29611185
-0.12390818
-0.69479722
0.05284300
-0.33662537
-0.20267349
0.35100272
0.20327930
-0.16366079
-0.50818890
-0.08005068
0.38856447
0.00739449
0.07490761
0.21536058
-0.20923847
-0.24422435
-0.33082619
0.24056029
0.16305487
0.42853424
0.08670253
-0.01744341
0.09498474
0.35782811
-0.39928305
0.08740797
-0.08320075
0.48427802
0.05591325
-0.01165589
0.01697473
-0.24410754
0.16956589
0.00688388
-0.29640818
0.02294859
-0.16745184
-0.31395793
0.05461807
0.07895146
-0.28655729
-0.02115632
0.08352958
-0.16766974
0.21347091
0.19711047
0.21013637
0.45505649
0.30257142
-0.21527912
0.38907117
-0.18289158
-0.58076286
-0.04455548
0.10948423
-0.17749041
0.54850608
-0.16471201
-0.18874198
0.50076973
-0.12681276
-0.27921042
-0.47021413
-0.00995243
0.07542878
-0.07980853
0.00318532
-0.03263158
0.53345370
0.01282928
0.06434842
-0.20114666
0.06263275
-0.33669329
0.09905103
-0.52717298
0.08581373
-0.51934457
-0.07432275
0.24630755
0.30493060
0.02111796
-0.05522512
0.00664911
0.04614649
-0.21053624
-0.06132134
0.14925583
0.00164370
0.31565404
0.20239386
0.31940264
-0.40569574
0.22334346
0.12086883
-0.15855856
0.13421804
-0.16696990
-0.15760379
-0.02067984
0.09530343
0.03958657
-0.35042948
-0.17040835
0.42405230
-0.06110931
0.21551815
0.11980470
-0.26197520
0.30659744
-0.18026227
0.20584504
0.34558561
0.07716691
-0.25349560
0.03006188
0.07878256
-0.07830930
-0.00706363
-0.14658630
-0.09258144
0.22305377
0.17835860
0.16485932
-0.12257630
-0.03217324
-0.23278047
0.04492635
0.06717174
-0.04828265
-0.02123067
-0.37471357
-0.17243300
0.00513437
-0.01998395
0.07337624
-0.20917764
-0.10690544
0.23522297
-0.08043574
0.09035338
-0.18467861
-0.07067908
-0.18849336
-0.12270504
-0.03150745
0.33300877
0.29715204
-0.22651073
-0.29450908
0.00483473
0.47052377
-0.26404390
-0.04663046
-0.07732669
0.27151343
0.24428517
0.31292075
-0.01403156
-0.17255934
0.16661555
-0.09769610
0.16374698
0.13655205
-0.61972415
-0.04385925
-0.13386151
0.22677888
-0.27768552
-0.12651096
0.14552446
-0.38856301
-0.12166184
0.29300460
0.31644091
0.27996406
0.06690936
-0.27045745
0.41608459
-0.25027660
-0.44034651
-0.00253357
0.14603101
-0.69189072
0.46674088
0.12073943
-0.09629560
0.55672592
0.09838888
-0.17675854
-0.05914741
0.00357328
0.04922525
-0.17144209
0.29151517
-0.41213721
0.30122080
-0.00487136
-0.11891850
-0.14053343
0.22325717
0.04678285
0.19457579
-0.64219248
-0.03391352
-0.20453791
-0.11505321
0.14892262
0.08030160
0.24990201
-0.19801858
0.10642784
0.45392799
0.16755724
-0.07319838
0.00173517
0.10918814
0.28206015
0.19314355
0.49307472
-0.50817919
0.12394131
0.04812986
-0.11170038
0.06798577
-0.27204102
-0.09714594
-0.02974797
0.08366263
0.03595128
-0.30530322
-0.24039231
0.45177826
-0.09107204
-0.13953961
0.03599280
-0.10169700
0.17524488
0.05195782
0.03368169
0.22386965
-0.02256977
-0.37896866
0.13390246
0.13070168
-0.10473837
-0.15329793
-0.15012661
-0.12545708
0.17392774
0.23244506
0.08052102
-0.27004921
-0.06760745
-0.26923692
-0.08368348
0.01851800
-0.39092326
0.11481100
-0.29703638
-0.11338811
0.37719518
0.07166862
-0.16113757
-0.28866029
-0.13980816
0.22730334
-0.10469393
0.16074836
0.05473401
-0.14383629
-0.20896320
-0.22626756
0.17084900
0.34011281
0.41268229
-0.12407833
0.03356905
0.33304936
0.46008882
-0.29972169
-0.10494294
0.08667058
0.22919127
0.01801196
0.09217341
0.11415292
-0.23714867
0.26368019
-0.16026974
-0.04881059
0.09883180
-0.34429306
-0.28710222
-0.05075264
0.04917542
-0.25476030
-0.07884085
0.06491911
-0.30096388
0.15998825
0.15436995
0.33777446
0.41733861
0.18181373
-0.15743457
0.30884832
-0.27430791
-0.43764091
0.09787937
0.16766891
-0.55883938
0.38041639
0.10901085
-0.07223316
0.41005304
-0.11650185
-0.38109809
-0.11206066
0.18391865
-0.01378802
-0.11878036
0.11154656
-0.29687500
0.45796004
0.03251331
0.17642953
-0.12576827
0.25138471
-0.20998140
0.04170004
-0.53856611
-0.08827818
-0.23360117
-0.08998285
0.07132158
0.06661071
0.14081128
-0.23651102
0.09933019
-0.01404562
-0.10713161
-0.01168987
-0.25397584
-0.08489442
0.33422706
0.07455528
0.26663789
-0.52607244
0.11829422
0.08165569
0.37861845
-0.12241398
-0.13233429
-0.17480239
0.29375538
-0.50200891
0.25502297
0.04805716
-0.45311281
0.09410879
-0.30250362
0.17285754
-0.08671885
0.03733128
0.43371689
-0.09375467
0.35527360
0.23700082
-0.18594350
0.05772061
0.22387207
-0.26756901
-0.02729283
0.22930092
-0.05979098
-0.10960032
0.28907448
0.28817540
0.12894441
0.20730402
0.22005498
-0.11103359
-0.27057636
0.07003477
-0.33560500
-0.06916574
-0.58848983
0.14813209
0.13580883
-0.12211717
0.20607534
-0.20262685
-0.11556251
0.11853409
0.10895194
-0.21489367
-0.04508567
-0.44156644
0.07191400
-0.21742332
-0.07577933
0.13187543
0.38231912
-0.27080256
0.04786571
0.13124669
0.14641814
-0.13245927
-0.03130741
-0.17213894
-0.25932735
0.03673191
-0.07849149
-0.25854978
0.36838445
-0.03224819
-0.60908359
0.04514180
0.09988077
-0.02350034
0.23318116
0.17899337
0.17858289
0.16558984
-0.25296408
-0.15815337
-0.30747586
0.13441968
0.00468492
0.49448976
0.25841320
-0.04634868
-0.07604018
0.16427146
0.09660088
-0.16170338
0.09292654
-0.08197230
-0.35255066
0.02052316
-0.06911999
-0.40868056
0.39511248
0.11371235
-0.46750993
0.02758807
0.09247743
0.18908584
0.01173735
0.18460223
-0.47319597
0.19906065
-0.20904851
-0.01540270
-0.16718309
0.01891704
0.27549145
0.13747576
-0.03791513
-0.02553168
0.09392057
-0.14765024
0.18630379
0.06507561
0.21546005
0.11258432
0.13466108
-0.38160431
-0.13164616
0.04661195
-0.31412205
-0.40167314
-0.03747527
0.01905783
-0.04226997
-0.01761263
-0.12470394
0.29682693
0.39422581
-0.37332273
-0.08752974
0.01032482
0.58446312
-0.61973369
0.59337163
0.07249002
-0.08229703
-0.33765873
-0.31057200
0.38951066
-0.12058484
-0.16050720
-0.11048618
-0.21263072
0.36443335
-0.13354340
-0.26889026
0.27309477
-0.27059415
-0.25704348
-0.05140052
0.07825097
-0.06024402
-0.35123172
-0.28388917
-0.31333548
0.15426321
0.70416737
0.19487129
-0.08388972
0.06080659
0.35547674
-0.31618920
0.13667171
-0.20048186
-0.08129989
0.03893430
0.10385410
0.39769906
0.21335626
0.07933254
-0.30277577
0.03132128
-0.28317058
-0.13786934
-0.48378241
0.45936054
0.02349256
-0.28800628
-0.27011088
-0.07904632
-0.11836197
0.21324009
-0.12661584
-0.22086839
0.05808888
0.19969681
-0.21818759
-0.17625865
0.30142254
0.06491652
-0.35560864
0.23431465
-0.22323436
-0.16987588
-0.01756935
0.07607382
0.52847379
0.26047871
0.03753975
0.09511457
0.42893374
-0.20638771
-0.16959006
0.04705924
-0.00688635
0.25667787
0.08357835
0.01678459
-0.32043365
0.10601431
0.11081347
0.22282822
-0.37327999
0.09420767
-0.09230950
0.20901603
-0.05365488
-0.08651555
-0.17686684
0.40308440
-0.04139970
-0.41107211
0.00703151
0.01535447
0.13568911
0.58755440
-0.23715119
-0.16288155
-0.31857985
-0.44144872
0.08351403
0.11757875
-0.30439675
0.46161199
0.44083825
0.54922211
0.13647348
0.13214880
-0.05584754
0.25845066
-0.06462535
-0.06143226
0.03051578
0.24066606
-0.04429914
-0.03763111
-0.40172717
-0.03820043
0.02368450
-0.00915147
0.25910443
0.09439446
-0.09872905
-0.00063466
0.07432598
-0.44483900
0.42444828
0.53696835
-0.05065294
-0.02372794
0.09861837
0.01086386
0.04567785
-0.03019446
0.17560275
0.21361467
0.12633474
-0.06057065
-0.29026106
-0.06413287
0.18790196
-0.31820366
0.01580880
-0.19335346
0.06975311
-0.26409966
-0.03762511
-0.43371785
0.02800067
-0.23421493
-0.36481419
-0.19430280
0.33473980
-0.27688816
0.08406677
-0.41175106
-0.19708571
0.15131539
0.10580137
-0.53239846
-0.01528387
-0.24123727
-0.30296800
0.12541907
0.21157181
-0.36366269
-0.22722533
0.02972997
0.31519759
-0.05580105
-0.12455710
-0.00676590
-0.22535230
-0.22573252
-0.10580131
0.01573927
0.20063236
0.36055607
-0.03901139
0.24406485
-0.04759498
-0.01824862
-0.19904707
-0.12691849
-0.21503219
0.12744880
0.24580500
-0.18085006
-0.07033432
-0.25866961
0.09854987
0.24387793
-0.32859549
0.30270806
-0.07947082
-0.19549629
-0.28040528
-0.07131792
-0.09444104
-0.36082432
0.24974644
0.29204372
0.02563055
0.33559126
0.26331362
0.20393589
0.22470188
-0.11534932
0.26752323
0.28118965
-0.13078266
0.00664376
-0.11389733
0.04617411
0.13565470
0.25448874
-0.15976055
0.34722421
-0.12247106
0.36813372
-0.23081283
-0.07933662
0.03782855
-0.42443761
0.16163754
-0.13508591
0.22887000
-0.02093387
0.18267536
-0.14253101
0.04509582
-0.03508769
-0.09956882
-0.17238480
-0.07008200
-0.41741267
0.16158155
0.20297495
0.08603990
0.08158865
-0.30277443
-0.25939295
-0.33018082
-0.71254218
0.02179761
-0.05864985
0.24770828
0.17617187
-0.19427599
0.50370997
0.11246600
-0.02214292
0.05429784
-0.12431785
0.27680320
0.34680846
-0.06174613
0.22892976
-0.38283893
0.37061441
0.07992209
0.18608937
0.40737450
-0.38014016
0.31634018
0.08837692
-0.46983162
0.07624415
0.24286383
-0.16517965
0.17746718
-0.29188758
0.52743918
-0.37820163
-0.57198018
-0.45898980
0.05285356
-0.16705260
-0.42681450
-0.21434876
-0.00253847
-0.26920336
0.30190110
-0.31684545
0.03580774
0.09134071
0.62484372
-0.43426985
0.35140345
-0.29540053
0.08213617
0.01827185
0.03277539
-0.11435598
-0.11297891
-0.19021791
0.57991397
0.05328370
0.18467309
-0.39413500
-0.46072140
-0.02029301
0.16402361
-0.15875569
0.15407318
0.20111808
-0.35431778
0.34555030
0.39199781
0.17358012
-0.05655869
0.24138677
-0.52749747
0.46534479
0.96603239
0.00093351
-0.39455625
-0.42930737
0.23198697
0.34569657
-0.34682205
0.18496239
-0.23643924
0.05331533
-0.22287524
0.30576470
0.06097955
-0.89729011
0.62412679
0.15267204
-0.37382677
0.57349652
0.28806436
0.12752828
-0.26646388
-0.31593201
0.65759170
0.34214321
-0.59559250
0.18326610
0.06901785
0.11731677
0.02325144
0.29916373
-0.05258300
0.67636967
-0.14793299
-0.08302514
-0.31113330
0.52458358
-0.03704665
-0.53766763
0.20980747
-0.47770494
-0.23587064
-0.26101273
0.14955257
0.13480331
0.19803977
0.02730591
0.06184138
-0.04609352
-0.16253495
-0.76918721
-0.15328924
0.58577865
0.12603109
0.33312091
-0.00444739
-0.09191118
0.00179923
-0.24938476
-0.20265828
0.15057538
-0.11143891
0.17507179
0.18542497
0.22027723
-0.01349732
0.05593421
0.06317133
-0.71445405
0.32966658
0.07758491
-0.19313072
0.16934381
0.13693827
0.14354615
-0.30550066
0.00796127
0.39839381
-0.00717679
0.43225220
0.21955013
-0.36980015
0.07274079
-0.05053803
-0.11320519
0.23795930
0.02547778
-0.03068419
-0.07095657
0.11125098
-0.22734617
0.13043188
-0.22342610
-0.21636148
-0.13301501
0.15068044
0.00676245
-0.25151727
-0.31519651
-0.32901111
0.11552972
0.18737343
-0.12690590
-0.01522663
-0.29356879
-0.48579091
-0.10004520
0.09641713
-0.06802426
-0.08700474
0.29154330
0.44634697
-0.19266002
0.15424897
-0.26270312
-0.02482832
-0.39841193
0.08072989
0.03324831
0.41163379
0.47559667
-0.40573117
-0.30639526
-0.11354856
0.11622700
-0.41754347
-0.00770228
-0.19643083
-0.07444181
0.29658523
0.12498511
-0.14690593
-0.40939638
0.11578584
0.23492377
-0.07524167
0.20906822
-0.35913891
-0.15434968
-0.12505272
-0.00515167
-0.21402907
-0.17077659
0.31380802
-0.02609122
-0.20027427
0.39643010
0.13533038
0.24918945
0.40984085
-0.13707364
0.32656664
-0.06480327
-0.35808775
-0.18579957
-0.02201280
-0.45950675
0.30964017
0.34112534
0.01342449
0.55952525
0.05692082
0.08227117
-0.01978830
-0.01564122
-0.00973594
-0.42370710
0.40719739
-0.28473222
0.28331286
-0.01101305
-0.16614608
-0.29015782
0.32890183
0.14026351
-0.03739959
-0.50731820
-0.02905303
-0.36613563
0.01947515
0.48383629
-0.02311513
0.25601512
-0.42811459
-0.06659698
0.35483277
0.30692235
-0.21711059
0.09276395
0.08333479
0.44876987
0.23419881
0.47291142
-0.64472049
0.13021639
0.20492925
-0.10944233
-0.10231533
-0.04928254
-0.20117514
0.08529366
0.13371998
0.19930778
-0.14687151
-0.34042689
0.32482970
-0.14040622
-0.13702746
-0.22994515
-0.16507721
0.17494676
0.19702071
-0.02687948
0.04729708
0.05727098
-0.42539251
-0.07930373
0.20284516
-0.37350321
0.02729570
-0.31783670
-0.25838229
0.44482988
0.42278078
0.22864729
-0.11005257
-0.25253251
-0.27843189
0.27964380
-0.13077568
-0.76531726
0.07423228
-0.38774750
-0.15283871
0.35648522
0.24529131
-0.19743834
-0.50404739
-0.02726441
0.39984167
0.01961305
0.10413475
0.25190544
-0.20166202
-0.34810615
-0.43084520
0.26078317
0.21341090
0.47896641
0.09536023
-0.03381332
0.11590396
0.36823523
-0.39470303
0.02530085
-0.09444027
0.47220600
0.00705220
-0.06280658
0.00066148
-0.25898731
0.19169286
-0.02125289
-0.31505319
0.04907398
-0.14585070
-0.35331172
0.05411307
-0.01382997
-0.24773121
0.01467348
0.07735321
-0.18550386
0.25056472
0.18577950
0.23912153
0.52775997
0.37422141
-0.29824084
0.39065886
-0.15486181
-0.55389905
-0.09139503
0.15064777
-0.21787418
0.59450889
-0.16199438
-0.24976140
0.43017557
-0.12598917
-0.25740087
-0.47215915
0.03250866
0.05767740
-0.12999418
0.05144120
-0.03594066
0.64883989
0.01067074
0.02176623
-0.22612907
0.06326514
-0.36620972
0.08947662
-0.56220192
0.04023201
-0.56204224
-0.07737584
0.19041696
0.31889498
-0.02031069
-0.07331879
-0.03706084
-0.15460880
-0.25294766
0.08084688
0.09275826
0.14799111
0.39278772
-0.03201971
0.45254579
-0.40256658
0.01861399
0.03346739
0.09585367
-0.02085529
-0.08555512
-0.12227524
0.16074136
-0.08906244
0.25488812
-0.08774453
-0.13528165
0.46085134
-0.30993602
0.10756503
0.24676532
-0.21154305
0.13771461
-0.05840240
0.25517389
0.19280607
0.26962271
0.06912969
-0.09850232
-0.37352484
-0.09518643
0.11909105
-0.29005629
-0.13843550
0.16129395
0.22176987
0.05590449
-0.11004371
-0.14895330
0.11098996
0.02736900
0.09330452
-0.24666581
0.05342968
-0.43233749
0.03853506
0.12625737
-0.07236105
0.09528321
-0.28466308
-0.20686632
0.40998024
-0.03295180
0.06992638
-0.29142895
0.01038501
-0.13195109
-0.19317116
-0.14826095
0.19852096
0.09321395
-0.00337180
0.01484055
0.10880578
0.39835083
-0.17831388
0.20256332
0.02709202
0.51114547
0.55316049
0.13573305
-0.24929062
0.12601280
0.17503680
0.02749551
0.10491608
0.14023624
-0.34993809
-0.01270945
-0.12196710
0.28828636
-0.18888211
-0.38148877
0.15488265
-0.14669921
-0.07816940
0.19197521
0.27831280
0.07200913
-0.21565890
-0.39557734
0.39263546
-0.05667174
-0.51283479
0.10640406
0.21886441
-0.13480356
0.29434109
-0.06476616
0.15793625
0.40698782
0.03316928
-0.33340812
-0.23037036
0.19603096
-0.15309444
-0.05763039
0.03542623
-0.40712848
0.17572053
-0.07610469
-0.05764276
-0.09670878
0.20903209
-0.12307815
0.16732329
-0.34051284
0.03972181
-0.26920879
-0.13737801
0.03673682
0.14405653
0.21500699
-0.11476336
-0.03659466
0.45169842
0.40983519
-0.13497090
0.16729371
0.08874185
0.35787481
0.18085486
0.47928178
-0.60008365
-0.01031692
0.20127198
-0.28292903
0.01251453
0.18914784
-0.10691509
0.11113460
0.17688428
0.24985625
-0.12853487
-0.30062142
0.35788655
-0.03102067
-0.25613433
-0.26319712
-0.12167839
0.13689022
0.28707319
-0.07257114
-0.11565261
-0.09535898
-0.28118229
-0.20356563
0.02614267
-0.48920596
-0.00276135
-0.25301045
-0.41572392
0.39301702
0.55549818
0.18571517
-0.22701474
-0.35780424
-0.32113141
0.20225006
-0.15429312
-0.97269231
0.03814714
-0.42367589
-0.25672570
0.37136552
0.18258040
-0.34807092
-0.58945543
0.02513219
0.49917996
-0.03460043
0.03138226
0.21501660
-0.22121224
-0.40825838
-0.42802003
0.26233095
0.33281240
0.51000124
0.04297959
0.10171605
0.06419842
0.36111182
-0.37028342
-0.04703635
-0.13926624
0.45801163
0.09100222
-0.16389239
0.08346832
-0.10915037
0.16685493
0.10221951
-0.33287233
0.12202150
-0.09297942
-0.40230495
0.00701645
-0.06953529
-0.29624045
-0.05803040
0.02964019
0.05038398
0.27767828
0.24101508
0.27175844
0.62283301
0.37554434
-0.32129389
0.39910072
-0.02404618
-0.56877112
-0.11702054
0.21587425
-0.11380547
0.56911957
-0.12797667
-0.25163394
0.43075088
-0.19605553
-0.15029466
-0.46427682
-0.01698219
-0.09091768
-0.15175417
0.01874069
-0.08140869
0.65573126
-0.06262843
0.07231994
-0.28019115
0.01760637
-0.35846388
0.01116047
-0.52731639
0.06616394
-0.69293457
-0.07463587
0.19024003
0.47903067
-0.02596431
-0.24653164
-0.14616027
0.23911615
0.33630592
-0.10194558
-0.01086487
-0.00510531
0.32327259
0.12305771
0.15418896
-0.43712777
0.06420497
0.01678127
-0.20228009
-0.04372577
-0.01777978
-0.15687427
0.07614475
0.09734154
0.20490722
-0.07451631
-0.29519495
0.16043262
-0.12496969
-0.18173154
-0.11256324
0.05747311
0.06826642
0.13396341
-0.13171877
-0.08636604
0.08130649
-0.36696103
-0.01931828
-0.00721169
-0.24962880
-0.01629219
-0.21970135
-0.21847336
0.28269652
0.40274161
0.03882882
-0.00893591
-0.26895145
-0.09446770
0.09636367
-0.19053537
-0.48892173
0.09318428
-0.14956333
-0.10318045
0.21003090
0.21337418
-0.17161314
-0.37844163
-0.04006079
0.30483231
0.04310771
0.03214467
0.16199207
-0.24342509
-0.24996345
-0.32594186
0.25074744
0.16103296
0.34641632
0.08742869
0.03277040
-0.02435343
0.11436611
-0.21081603
0.00932914
-0.04302892
0.14241320
-0.11320183
-0.11851445
-0.00872532
-0.00712864
0.05963865
-0.04587274
-0.25227928
-0.06487654
-0.04795878
-0.10608676
0.03286061
0.04706618
-0.12690540
0.11311564
0.07824536
0.01778102
0.21968137
0.12593861
0.12649961
0.25385830
0.26892710
-0.19547869
0.22718896
-0.00845564
-0.27218524
-0.22073147
0.07137303
0.03067472
0.36060470
-0.05284297
-0.24384242
0.13589887
-0.03580450
-0.13881950
-0.30181092
-0.03473149
0.07118303
-0.08908601
0.00752452
-0.01680941
0.31475827
0.01898150
0.02258196
-0.09866436
-0.02332906
-0.26893073
0.00686513
-0.29549250
0.25738668
-0.33316404
0.07387171
0.09681143
0.21813907
-0.02775536
-0.05641978
-0.04595004
0.02074913
-0.06949677
-0.28512368
0.02386195
0.05578374
0.17743485
0.26744306
0.09501071
-0.26241446
-0.00430296
0.07836971
-0.39398435
0.31152117
0.01143221
-0.28573221
0.04693961
0.10776275
0.04046236
-0.11659199
-0.15536584
0.22181214
-0.12541081
0.39497173
-0.00425755
-0.07579520
-0.01281635
-0.03912587
-0.15090749
0.17822036
0.09916927
-0.21360302
0.01356652
0.24623805
-0.21577121
0.12622011
-0.28618306
-0.13945042
0.04024752
0.22624749
0.05213429
-0.02487813
-0.23265322
-0.22361127
0.10501956
0.00603785
-0.19797403
-0.02893036
-0.36801368
-0.21312405
-0.11435787
0.23293287
0.04028353
-0.00349624
0.02824487
0.19189961
-0.01240415
0.12419146
-0.08200965
-0.05539112
-0.27249599
-0.10624887
0.05393337
0.23314488
0.36892769
-0.21251851
-0.30530986
-0.18088773
0.15609637
-0.29795679
-0.07943562
-0.06794116
-0.06941956
0.03400260
0.16478725
-0.23602936
-0.42773247
-0.06441633
0.01925733
-0.02090631
0.29732609
-0.22358000
-0.12531915
-0.17750806
-0.04999178
-0.04713380
0.00804726
0.14055006
-0.08822532
-0.13315433
0.19824293
0.11546660
0.16734487
0.33202532
-0.22103474
0.19331639
-0.15761988
-0.19077902
-0.21000686
0.04309674
-0.30458182
0.29613906
0.14879611
-0.07358976
0.26464599
0.02987044
0.09447038
-0.06302564
-0.08032788
0.18817306
-0.26224786
0.28611860
-0.17710894
0.37041870
0.04423978
-0.08574638
-0.18841287
0.03610348
-0.03513059
0.12011818
-0.39569706
-0.07452137
-0.21203801
0.04811357
0.19990122
-0.05500048
0.02080730
-0.31521037
0.01781339
-0.05207167
-0.20252648
-0.22387889
-0.08336867
-0.19368158
-0.03863986
0.16867824
0.10144357
-0.27851528
0.10897277
0.07094788
-0.17072779
0.18096568
-0.11299463
-0.07554582
0.14762235
0.12253176
0.04475368
-0.24924242
-0.13468294
0.37994608
-0.02888339
0.38288975
0.07400322
-0.07583685
0.05728061
-0.07063556
0.00255745
0.20493615
-0.28186420
-0.21959761
0.01990427
0.27487904
-0.11559884
-0.04620864
-0.16085958
-0.12707949
-0.26858357
-0.09156343
-0.01465391
-0.03409913
-0.04902538
-0.33922708
0.15469518
0.16369736
-0.36960816
0.04481960
-0.05395743
-0.40734547
0.20045400
0.10581203
-0.09510483
0.09760503
-0.00614911
0.11619039
-0.26416114
0.18275364
-0.05941350
0.03363559
-0.08002488
0.12147952
0.02603328
0.27601123
0.39851707
-0.22472706
-0.15285593
0.07511644
0.17748401
-0.18393134
-0.12934011
-0.07306190
-0.10886141
0.10522813
0.24891968
0.01856412
-0.53537869
-0.03401840
0.06973346
-0.04494839
0.16319351
-0.20355360
-0.17798261
-0.15985852
-0.01223004
-0.22687688
-0.16015917
0.16916569
-0.17481831
-0.24334876
0.05178549
0.15869330
0.30060238
0.16436240
-0.10423065
0.18306401
-0.25327018
-0.31884140
0.06967066
-0.01445475
-0.48608178
0.20342471
0.18407466
0.18291289
0.49763995
-0.21581934
0.04507285
-0.00352281
-0.10417364
0.17800461
-0.01338226
0.27605450
-0.33149308
0.34599197
0.12153736
0.25366238
-0.09703246
0.03833399
-0.02026461
0.01318337
-0.41583365
-0.20896518
-0.28641650
0.01338058
0.19566584
-0.05081472
0.02886155
-0.30554163
0.11761395
0.31687206
0.09772229
0.16779824
-0.02569652
0.19990632
0.17967087
0.00647435
0.08677255
-0.25817215
-0.09559161
0.30473670
0.02335165
0.23751052
0.01485874
0.01567253
-0.07839531
-0.23480444
-0.02653950
0.00949439
0.09249084
0.04392409
-0.65587354
0.00273858
0.03292903
0.15436617
-0.24329910
0.25518960
-0.35586917
-0.33506498
-0.05783550
-0.26684326
-0.06714297
-0.25143996
-0.17943677
-0.26849547
-0.09939003
-0.03053444
-0.08516859
0.13323072
0.02244508
0.34667882
-0.19513276
-0.00599504
-0.25972480
0.32507116
-0.19264759
0.30444169
-0.19143194
0.18585601
0.08066443
0.19825326
0.10379818
0.27533722
-0.03721121
-0.09422874
0.06977524
-0.00017440
-0.16959995
-0.49417797
0.28761625
-0.16611485
0.06809015
-0.17532481
-0.10398335
-0.36588392
0.30361268
0.05920662
0.34935382
0.19356951
-0.24555349
0.01041780
-0.03286675
0.13285568
0.34106749
-0.24344119
0.09762187
0.12082383
-0.08735871
-0.18955621
0.13221675
0.23511542
0.02392956
-0.28456962
0.09258338
0.25346509
-0.11785060
0.19285560
-0.08696865
-0.05939526
0.28671384
0.22259645
0.16928525
-0.20007536
-0.32635969
0.10816006
-0.02763181
-0.29475760
0.04827014
0.41925940
-0.12471038
-0.05651157
0.08484302
-0.08416574
-0.11963958
-0.11357364
-0.31941053
-0.09804358
0.32732552
-0.09859422
0.21505958
-0.21723558
0.06627798
-0.00256041
-0.23333213
0.26929450
0.13241832
-0.38484147
0.00802632
0.23779708
0.19683598
0.09152509
-0.05563794
-0.28863212
-0.16012073
0.03542318
-0.14335033
-0.11795518
0.26965189
0.02310141
0.02729005
-0.24171077
0.20656011
-0.07983726
0.21636017
0.20192663
0.39809844
-0.28552988
0.12357613
0.29285824
-0.31743774
0.10059493
0.06674390
-0.19759806
0.01323152
-0.01332378
0.17810561
-0.23849683
-0.26518050
0.42831960
-0.05022989
0.02039664
0.02022309
-0.50970280
0.12660123
0.07974974
0.03315150
0.14303294
0.02348267
-0.14962494
-0.15686020
-0.00767792
-0.42837334
0.03364369
-0.28692880
-0.30407134
0.22870120
0.42242160
0.09873869
-0.14425868
-0.31980422
-0.43870637
0.14221755
0.03420521
-0.38767231
-0.13916971
-0.52805728
-0.33198640
0.12076902
0.07904802
-0.12467401
-0.46831903
-0.03562273
0.34162501
-0.06989802
0.01465197
0.01895735
-0.29156730
-0.23179658
-0.21145286
0.03137454
0.29156187
0.43996710
-0.20483112
-0.06693152
0.00225021
0.35276437
-0.45134419
0.07543010
-0.19490258
0.40391168
0.27743259
0.02426620
-0.09061383
-0.28812024
0.21959193
0.03095668
-0.17066933
0.28002980
-0.39102325
-0.22171003
-0.12888244
0.11060712
-0.35881242
-0.16102414
0.13429709
-0.01207912
0.11704141
0.48706418
0.31763738
0.25649107
0.33417577
-0.14524953
0.38430345
-0.03283751
-0.53073859
-0.01390136
0.10363774
-0.36599529
0.47309068
0.12005226
-0.24751936
0.64967048
0.01986688
-0.14109956
-0.24600269
0.12825745
0.08696182
-0.33085656
0.16391061
-0.22985056
0.38049209
-0.08176934
-0.11057444
-0.22006924
0.26158595
-0.06857731
0.08858394
-0.56801826
-0.09145791
-0.47512984
-0.08040901
0.39702773
0.17093411
0.21846753
-0.21297897
-0.03090149
-0.08150225
-0.19380707
0.16841306
0.02601255
0.06281733
0.37079310
0.07447326
0.23654997
-0.15397219
0.18022820
-0.03860071
0.17416252
0.02499005
-0.11086235
-0.05157587
-0.15584634
-0.05507591
0.10723748
-0.21125999
-0.02881789
0.27745786
-0.27988252
0.02905708
0.21232766
0.18938094
0.10167214
-0.22632974
0.29829884
0.20274530
-0.02268698
-0.06572607
0.02089244
-0.20408034
0.20485680
-0.08553784
0.01766732
-0.12097853
0.10097936
0.13575630
0.19498180
0.18183059
-0.02737679
0.10374090
-0.09517328
0.18080714
-0.00420676
0.07796168
-0.25335094
-0.00102066
-0.04871976
-0.21506518
0.00383578
0.07161322
-0.21190904
0.21325682
-0.00386291
0.07101849
-0.32892659
-0.13429332
0.18008605
0.02539039
-0.15128291
0.02108498
0.01650107
-0.17201146
-0.00562853
-0.06115794
0.41849315
0.16864182
-0.05149682
-0.05450143
0.05004418
0.25052878
0.20940235
0.00257569
0.15091759
-0.05873477
-0.25679472
0.14556883
-0.10520054
-0.40276679
0.25215378
-0.12205417
0.47035310
-0.05793444
-0.10539702
0.08091199
-0.17610806
-0.12262112
0.33481207
0.16688097
0.03506383
-0.37465912
-0.28169298
0.31667000
-0.14135304
-0.19662577
0.14261299
0.21732038
-0.21411671
0.23182270
-0.04546252
0.01954237
0.26906332
-0.01854859
-0.23297001
0.04624199
0.21694984
0.09706792
0.06336666
0.15737395
-0.46069491
-0.20270760
-0.19697180
0.15060465
0.29753464
0.15325800
0.10088983
0.29737315
-0.20070246
-0.06802594
-0.18424737
-0.26998284
0.15907854
-0.00123862
0.20703308
-0.03959261
-0.01155804
0.20506775
-0.16944447
-0.04141524
0.02796452
0.11085720
0.47760651
0.27916771
0.43022367
-0.61508548
0.41324869
-0.00341517
0.12151897
-0.08375311
-0.23590891
-0.21564300
-0.11913343
-0.11449687
0.14020692
-0.43213171
-0.40398359
0.57412308
-0.16760463
-0.09855564
0.09484866
-0.01962988
0.54020232
-0.06987572
0.32625651
0.42599592
-0.18341391
-0.26232862
0.10675300
-0.00638346
-0.00032663
0.06910577
-0.03625821
-0.08867022
0.12452912
0.14399251
0.07411645
0.02817555
0.01363812
-0.17751238
-0.30057386
0.14776927
-0.22012798
-0.05770414
-0.49523768
0.02393675
0.22212446
-0.25085729
-0.05292668
-0.28759193
-0.12896195
0.34256071
-0.08524684
0.12596922
-0.07879355
-0.19327523
-0.15764631
-0.23713750
0.02773983
0.29113802
0.38040361
-0.25455394
-0.05660399
0.39095122
0.52688766
-0.24974981
-0.05670948
-0.14220189
0.18710169
0.11700226
-0.08269326
0.24122897
-0.21695334
0.16509897
-0.51851803
0.11305502
0.00591808
-0.45178607
-0.04286857
0.10313565
0.40109125
-0.27575555
-0.31459087
0.08150229
-0.52179843
-0.01520265
0.24415216
0.39287105
0.35117552
-0.09504761
-0.21130638
0.38256788
-0.21915478
-0.33215448
0.18478587
0.26409215
-0.74876887
0.29625380
0.09870721
-0.24549802
0.66821128
0.04957283
-0.39906368
-0.15775093
0.29623333
0.06865051
-0.19139244
0.24280570
-0.57312566
0.37551585
-0.07668030
0.22524142
0.00215166
0.33394444
0.13308525
0.08050488
-0.59005708
-0.14540049
-0.23929048
-0.29466906
0.26637253
0.17777576
0.20045568
-0.07287962
0.19706967
-0.23700477
-0.20666346
-0.18288381
-0.23852217
0.17702049
0.03982044
0.08820577
0.36363935
0.02029904
-0.13741356
0.05395916
-0.18710509
0.17012098
0.26027545
-0.10397907
0.34419221
-0.26517144
0.23348226
0.29183981
-0.11792459
0.16049166
-0.21278937
0.07146380
-0.06647895
-0.05129160
0.04430440
0.18936552
-0.12415175
0.07954676
-0.34342471
0.42462808
-0.08608008
-0.44038245
-0.19422078
0.10408539
-0.37013820
-0.66812193
-0.06072733
0.38644513
-0.42203009
0.26570776
-0.26515189
-0.02019433
-0.05285462
0.26290718
-0.65256804
0.19853182
-0.48088428
0.16627750
0.08899222
0.01428421
-0.28775948
-0.19057798
-0.19192120
0.38164118
-0.06558186
0.22335640
-0.12317204
-0.58001494
-0.11777478
-0.20761038
-0.21003962
0.22516701
0.21814424
-0.02377186
0.49979311
0.32712010
-0.04794148
-0.05720314
0.15710557
-0.37856784
-0.03855803
0.37280816
-0.36577442
-0.43818849
-0.10880201
0.03095920
-0.09257054
-0.25210869
0.26429129
0.04633629
0.07236160
-0.22702721
-0.06701020
0.20725501
-0.59237409
0.11430812
0.32517335
0.08577123
0.19408180
0.36726677
0.02706045
0.00744481
-0.19303824
0.28637981
0.40560320
-0.26740867
0.11284167
0.01425080
0.32213309
-0.00399090
0.09514336
-0.24482368
0.14165261
-0.06352693
0.15742184
-0.10231072
0.42681399
0.00946491
-0.20413789
0.31984726
-0.60085356
-0.08130334
-0.16534030
0.21793719
0.05232076
0.16708501
0.04464462
0.00262913
-0.03424246
-0.36417150
-0.42171746
-0.03416879
0.37450224
-0.09363353
0.15404186
0.04165883
-0.31284735
-0.43939340
-0.57224685
-0.12428895
-0.03147022
-0.35386679
0.22287513
0.15130712
0.06316414
-0.24167357
0.39149690
0.08747870
0.15402465
-0.00365604
-0.12506300
-0.18250929
0.19405000
-0.29161042
0.21996522
-0.40704927
-0.18894705
0.35125294
-0.08551361
0.65110415
0.23356287
-0.07370190
0.37820411
-0.33126029
0.32417059
0.47667283
-0.38009703
0.00971584
-0.09385680
0.02681399
0.03146289
0.25396681
-0.07885408
0.06607716
-0.40628910
-0.28394470
0.13263471
0.26143715
0.12456755
-0.20319617
-0.06162582
0.41525269
-0.06650427
-0.17384671
-0.27894530
-0.42533994
-0.00001810
-0.25506270
0.13967325
0.18587944
0.04955241
0.12190561
-0.13904315
0.01495751
-0.37540463
-0.00246425
0.17121975
0.25797763
-0.17967668
0.12150578
0.26760456
-0.34108818
-0.20811504
0.09839532
0.20117779
0.00123604
0.03673932
-0.30829319
-0.23104143
0.34579295
0.24702463
0.08321081
-0.29641670
-0.12358504
-0.22075427
0.06074684
0.05088224
-0.26215214
0.18770435
0.02663049
0.33891079
-0.17752546
-0.45755810
0.16932660
-0.44738030
-0.39541796
0.13204385
0.21478988
0.09888820
-0.16748276
-0.10855095
0.30221397
-0.15687586
-0.23446208
0.27344945
0.05103353
-0.66126442
0.06029182
0.22126898
0.09030817
0.83225113
-0.03270639
-0.07020564
0.02117586
0.02615102
0.25309616
0.07926387
0.25999570
-0.56553376
-0.01368374
-0.07184432
0.16315834
0.02092825
0.19222550
0.51065195
0.10170861
-0.38369203
-0.28691486
-0.11885333
-0.25814793
0.25073746
0.06265712
0.20695929
-0.16768849
0.22665343
-0.37504917
-0.40991530
-0.07564312
-0.03841269
-0.30423751
0.17335509
0.16609740
-0.12334776
-0.03584161
0.24183446
-0.04345946
0.11198731
0.07347648
0.02248054
-0.10893092
0.22238810
-0.15257896
0.20808855
-0.15503132
-0.11755282
0.04733711
-0.14722489
0.58622193
0.18824014
0.22027498
0.21110278
-0.13955824
0.22422571
0.24154925
-0.28284895
0.02902216
-0.00496691
0.09249645
0.09156457
0.18180719
0.00751553
0.07074955
-0.33683363
-0.14911081
0.17599323
0.20947489
0.05912174
0.01304085
-0.14736278
0.32307464
-0.06927845
-0.01044427
-0.13728875
-0.33075264
-0.01027402
-0.16677848
0.16883202
0.32371759
0.17666778
0.03159742
-0.05502136
0.04456452
-0.37035993
-0.00944015
0.06348531
0.11770801
-0.10669652
-0.03879081
0.15478224
-0.27651611
-0.17492890
-0.09465596
0.01277399
0.12009299
-0.10636874
-0.30160293
-0.44307923
0.21811962
0.15075128
0.06806853
-0.12353827
-0.24625380
-0.21078531
0.01380919
0.01567795
-0.02809386
0.19118860
0.12523840
0.22949305
0.09294473
-0.30358273
0.03084267
-0.26288027
-0.39221194
0.02259524
0.03328697
0.08344758
-0.16408813
-0.13188337
0.10852949
0.03618883
0.11240841
0.02771531
0.06167970
-0.20109421
0.00086365
0.18255359
0.04990353
0.35406244
0.03932817
0.06137925
0.04540009
-0.05440873
0.19380397
0.06977308
0.26312271
-0.31837061
-0.04447552
-0.00071253
0.11341234
0.05368380
0.02191767
0.40469259
-0.02610180
-0.05904872
-0.07344069
-0.12929916
-0.09699935
0.07892299
-0.00692270
0.01517107
-0.17623024
0.11675134
-0.43956912
-0.49668905
-0.07078806
0.18909186
-0.12979668
0.12000826
-0.10692875
0.27005243
-0.07259452
0.04069048
0.05548970
-0.06402490
0.05420125
0.25007254
-0.11454478
0.05781273
-0.15551116
0.24847089
-0.09042113
-0.09994125
0.44753253
-0.20645329
0.22497776
0.31211066
-0.36999369
0.12450130
0.12448636
0.20031343
0.22336093
0.08096442
0.34697229
-0.40288848
-0.56808680
-0.16865852
-0.03739755
-0.29360694
-0.18361983
-0.13848227
0.34168369
-0.06663583
-0.00773575
-0.33618024
-0.02402527
-0.09830610
0.38696951
-0.20438120
-0.10893486
-0.27889818
-0.22100867
0.11591222
-0.16866294
-0.05665826
-0.22941479
-0.03596213
0.39974436
-0.05491371
-0.07244857
-0.37604061
-0.19604126
-0.14140131
-0.14125915
-0.37709460
0.01861929
0.08451758
-0.19289765
0.12458370
0.06578363
0.20831436
0.04384741
0.11306193
-0.25174883
0.30373940
0.71504974
0.01524105
-0.06429321
0.31807733
0.25032908
0.01269257
0.14368311
0.16461429
-0.33383682
0.13660873
-0.18589351
0.29757839
-0.19455281
-0.49473095
0.10412350
0.06858240
-0.16609445
0.34062603
0.32373863
0.06320366
-0.30963543
-0.23548532
0.42239368
0.31426868
-0.30943587
0.16054428
0.04150540
0.01728551
0.24010292
0.15383413
0.06069691
0.52876306
-0.07545628
-0.10180951
-0.15097085
0.11644317
-0.16250628
-0.26883790
-0.03178417
-0.46039468
-0.13175946
-0.04131701
0.06507635
0.02815712
0.27482083
0.08502010
0.02373341
-0.27317479
-0.18735752
-0.25846922
-0.04578802
0.03712659
0.02609351
0.54270029
-0.24275109
-0.18785697
-0.61938453
-0.71307272
0.01217410
-0.40282512
-0.00143768
0.14582512
-0.18573152
0.31063673
-0.04459596
-0.18213537
0.11780686
0.35652763
0.03052165
0.28404769
-0.04855403
0.47071540
-0.31933752
0.61196440
-0.03749265
-0.12793730
0.12454437
-0.17182885
0.44114187
0.00171224
-0.45918530
0.35027122
-0.05889574
0.24696665
0.25279287
-0.12152292
0.87822759
-0.19389248
-0.79987216
-0.28711000
0.27402657
-0.21922672
-0.51291150
0.03259102
0.07084349
-0.47625664
0.28446630
-0.00660414
0.03778291
-0.19266003
0.31053370
-0.44987223
0.06759036
-0.32311821
0.21702494
-0.09468217
-0.17853661
0.01174711
-0.31461057
-0.18373756
0.35870242
0.21885605
0.01690206
-0.13446420
-0.30534434
0.01048282
-0.00698305
-0.44908911
0.17705055
0.14085203
-0.15229303
0.29377973
0.09290662
0.05123081
-0.06256591
0.22696888
-0.24820869
0.20690161
0.68441945
-0.34455457
-0.54163057
0.42075732
0.06889628
0.06642763
-0.03670044
0.16171694
-0.11054979
0.46189767
-0.05809596
0.14824639
0.10044790
-0.76568240
0.20753232
0.05436324
0.10601349
0.12384265
0.49032894
0.01126173
-0.37600908
-0.26839995
0.25624275
0.45606130
-0.35232884
0.22992879
-0.23077179
0.09140326
-0.10037203
0.10987011
-0.18054034
0.69465423
0.00983026
-0.27214548
-0.00795987
0.24716197
0.06404368
-0.24530035
0.23866771
-0.63079023
-0.30722162
-0.45191956
-0.11824843
-0.15955366
0.20835170
0.30505112
0.15011355
0.13986348
0.10476229
-0.29797521
0.23057109
0.48274365
0.04765743
0.36887470
0.13157655
-0.23393217
-0.25766766
-0.31883577
0.10113843
-0.04924752
-0.30961102
0.30512542
0.01717317
0.09697085
-0.27007651
0.29567394
-0.03899809
0.22644268
-0.14182653
-0.16529128
-0.14091817
0.09020302
-0.17401466
0.26120701
-0.31772858
-0.21844959
0.28717661
-0.22273247
0.25647321
0.27943793
0.05134638
0.31030256
-0.13704781
0.37900224
0.25161654
-0.16096483
-0.03381803
-0.05903641
-0.13615346
0.11900124
0.05210653
0.05111732
0.09669952
-0.07564971
-0.04680437
0.23538700
0.10660741
0.06844206
-0.00385641
-0.16805649
0.24924541
-0.04121548
-0.11312389
-0.11976408
-0.29462284
0.13781241
-0.28724453
0.16587692
-0.02953375
-0.03270538
0.13844688
-0.01058719
-0.04136542
-0.32037568
-0.12791346
0.10928828
0.08118078
-0.17073190
-0.03961692
0.16249496
-0.26373237
-0.11304656
0.02819651
0.24953216
0.10234953
0.01521117
-0.22043103
-0.06904420
0.19819638
0.17755237
0.17685391
0.11525588
-0.02159092
-0.31822476
0.13303106
-0.05629522
-0.24019390
0.24515744
0.13627812
0.43815419
-0.16753799
-0.22752753
-0.00576922
-0.32919008
-0.25183958
0.11820751
0.16927607
0.13659599
-0.29678392
-0.09239247
0.25796992
-0.07219265
-0.10454818
0.13184386
0.10135192
-0.31196746
0.11425205
0.06598520
0.01509422
0.53683823
-0.01420112
-0.30922094
0.02477200
0.05047094
0.09418444
0.09805110
0.06248550
-0.34762102
-0.09096129
-0.04869612
0.16306369
0.12456677
0.16469143
0.22814356
0.05614052
-0.23559101
-0.00405477
-0.06545643
-0.20311835
0.10133696
0.07873635
0.15017168
-0.07604145
0.16051503
-0.09740192
-0.04821521
0.07321391
-0.16727862
-0.13144718
0.04684670
-0.02716669
0.14185902
-0.09763702
-0.03873453
0.06140633
0.31577405
-0.01513244
-0.02794736
0.09544465
0.26193738
-0.15114041
0.21048011
-0.02800823
-0.11275689
-0.10495489
-0.05749613
0.19238247
-0.06535111
-0.14180481
0.12105167
-0.05840389
0.23669292
0.00845276
0.04423602
0.09714440
0.14786741
-0.12291393
0.00849503
0.00882837
-0.03055375
-0.20486070
0.14722158
-0.03683481
0.07518141
0.11164704
0.24503392
-0.01175037
-0.03070708
0.17056631
-0.12423630
0.09697572
-0.04545005
0.03958277
0.10755555
0.13638377
0.17630325
-0.05431762
-0.00600263
-0.19338515
0.03204558
-0.11062959
-0.01555468
-0.21443896
0.19939858
-0.04399413
-0.18457118
0.01393260
0.27980906
-0.07061983
-0.00547377
-0.07601136
-0.02995781
-0.06721891
-0.11090723
-0.00769372
-0.07647805
0.03840602
-0.08962749
-0.28448203
0.21853259
-0.01574796
-0.09659595
-0.09975213
0.06218536
0.04847695
0.15375082
0.13974446
-0.04235109
0.10881107
-0.13524249
-0.08575692
-0.08145107
0.16712664
0.06937685
0.24636808
0.12645511
-0.09007308
-0.08984563
0.07485284
0.22928099
-0.14085434
0.07128519
-0.18694828
-0.09895296
-0.01337129
-0.02136712
-0.20967261
0.25474459
-0.01787834
-0.41135356
0.16730386
0.06352489
0.09528863
0.02633195
0.13059060
-0.08952601
0.02542532
-0.22212169
-0.12171839
-0.06626160
0.05697484
0.18084081
0.11795551
0.20937993
0.26329911
-0.02065070
0.07307956
0.20072904
-0.08960871
0.05025247
0.08715700
-0.03554346
-0.48844796
-0.39048773
-0.22725363
-0.47059503
-0.00792835
-0.02247946
-0.01480582
0.36299479
0.11857382
-0.24311119
0.27259192
0.00899383
0.04403134
0.11083916
0.01682422
0.65637130
-0.44363585
0.71044302
0.06763960
0.13803659
0.03228356
-0.31962988
0.53455633
-0.06858034
-0.30542269
0.20505330
-0.04805897
0.00417642
0.22537795
-0.30175903
0.77127141
-0.05047427
-0.61527914
-0.62455285
0.16866751
-0.37430173
-0.65588242
-0.09105012
0.16663240
-0.44142437
0.34540346
-0.21556209
-0.15586053
-0.16866678
0.47276294
-0.59221637
0.27686420
-0.34659246
-0.09808862
-0.19586207
-0.04768091
-0.10385127
-0.26258978
0.10844654
0.19986778
0.26298964
0.15093210
-0.10988630
-0.45532295
-0.01672664
-0.05584437
-0.30068859
0.01501175
0.29781392
-0.21070096
0.40693498
0.15770765
-0.11371362
-0.07671931
0.45073932
-0.30816826
0.09849335
0.65499622
-0.22635384
-0.56419820
0.07956915
0.23879555
0.09287610
-0.29090568
0.23944309
0.19634967
0.07932515
0.01890736
-0.22574393
0.16928166
-0.61043644
0.30073532
0.14300048
0.00605046
0.26044199
0.38497236
0.13056883
-0.13358513
-0.26818356
0.29467136
0.46992260
-0.28772321
0.12529285
-0.03152533
0.30853868
-0.04391152
0.13515000
-0.25620204
0.67936611
-0.09833759
-0.24475087
-0.03792799
0.29211509
0.08076122
-0.13745907
0.21328123
-0.49260414
-0.18361717
-0.51456976
-0.07355660
-0.28009155
0.04185745
0.29172540
0.25714156
-0.05889740
-0.20426449
-0.37733299
0.30337808
0.43204948
-0.15112858
0.10018236
-0.02819866
-0.13763903
-0.63999456
-0.43813577
-0.08265212
0.04986958
-0.02835888
0.26679450
-0.14835358
0.04905054
-0.28315926
-0.01249219
0.03065435
0.50317496
0.01542608
0.13101999
-0.16246177
0.11672116
-0.54809022
0.22527403
0.17549889
-0.17710948
0.03959895
-0.32159173
0.43709421
0.14232682
0.05423093
0.14071044
-0.11857336
0.22939508
0.20703475
0.07325183
0.37867448
-0.31288517
-0.56048018
-0.01829450
0.34888104
-0.31528807
0.08727327
-0.14175522
-0.01687617
0.01871382
0.41935888
-0.01514631
0.32703766
-0.18596330
0.24500096
-0.09932438
-0.06411560
-0.58271039
0.13422078
-0.01430477
-0.12735535
0.21997677
0.08105198
-0.24167639
0.14784974
0.16513532
-0.16596955
-0.39992765
-0.17004485
0.24972567
0.04875451
-0.35106108
-0.14456168
-0.17544106
0.13460816
0.24086675
0.08178212
0.07494020
0.31251225
0.16754979
-0.28693637
0.06668435
0.58411705
0.02652261
-0.30735373
0.49690911
-0.11014736
-0.19591302
0.10359283
0.20556086
-0.02127266
0.41051203
-0.09086940
0.31651601
0.16625395
-0.65313864
0.03880262
-0.05711341
-0.14434841
-0.05473519
0.30367780
-0.25281018
-0.51188982
-0.31030181
0.11506595
0.34663540
-0.04584860
0.29227203
0.05854121
0.21197124
-0.18251880
-0.09886879
0.04347316
0.21835403
0.04083651
-0.12194609
-0.08769377
0.11914193
0.05783141
0.07591265
-0.15855551
-0.45450345
-0.24541850
-0.11164444
0.04776472
0.10470901
0.02095726
0.19209413
0.14383861
0.15575173
-0.18010089
0.10046720
-0.09947676
-0.21027237
0.06188379
0.34974915
0.05784238
-0.07477774
-0.46669412
-0.43708768
0.02527913
-0.15237211
-0.50157857
0.20015204
0.08468790
-0.13480899
-0.09677698
0.34788257
0.00976030
0.18148276
-0.11908250
-0.10204661
-0.08227524
0.22495954
-0.31535193
0.33839571
-0.30024469
-0.16475280
0.10699148
-0.11275072
0.54244888
0.35302761
0.02717662
0.26581299
-0.35512921
0.38317135
0.33295918
-0.39748570
-0.00647932
-0.06993852
0.00039878
0.10659727
0.16126820
0.10292883
0.11943051
-0.46902356
-0.30392846
0.17201567
0.31895849
0.12588838
-0.04358264
-0.08048092
0.29206544
0.06354699
-0.11670487
-0.14004017
-0.41860661
0.02514086
-0.25041345
0.25410095
0.18918118
0.02772672
0.06679727
-0.06632480
-0.06160354
-0.43031466
-0.13227688
0.31153053
0.35546115
-0.11812990
-0.00198574
0.11868877
-0.34040755
-0.10661013
-0.08267061
0.02674662
0.13995148
0.05879860
-0.33655304
-0.31696787
0.28836486
0.24117763
0.05896807
-0.05955604
-0.23629576
-0.24563873
0.03299530
-0.03072790
-0.12826999
0.33761674
0.10050996
0.48471624
0.00616950
-0.35903320
0.13680460
-0.24723205
-0.33796364
0.11968014
0.12607589
-0.03568816
-0.27135623
0.00851674
0.18485160
-0.01771754
-0.01885850
0.16593185
-0.05369367
-0.27173892
-0.06037623
0.23776904
0.07839188
0.61962211
0.00986199
-0.13039911
0.02135763
-0.05318180
0.25059703
0.13349709
0.12640332
-0.35693589
-0.22923295
-0.05530965
0.15495734
0.11178181
0.05495615
0.51018476
0.03646935
-0.10327645
0.01866504
-0.05495971
-0.12682855
0.24283472
0.02665183
0.09489927
-0.09190460
0.31176275
0.43027735
0.43026263
-0.06380405
0.08831377
0.04148184
0.14725080
0.16634533
0.23548540
-0.31330311
0.03243495
-0.05032220
-0.34402671
0.19576150
0.18445565
0.05540496
0.05650796
0.20616627
0.13664448
-0.11735125
-0.16387048
0.22726119
0.02075829
-0.23481664
-0.07854450
0.06700295
0.01736978
0.23955029
-0.13831359
-0.16898459
-0.06295709
-0.21166193
0.03301023
-0.08714336
-0.15283290
-0.06173768
-0.06428006
-0.26281649
0.13227195
0.35140458
-0.05093850
-0.25758782
-0.26472455
-0.18437828
-0.06055387
-0.07760076
-0.58601785
0.06890610
-0.17733042
-0.18838358
0.26082727
0.08825190
-0.34987602
-0.32219511
0.15376556
0.32071462
-0.13597392
0.00451101
0.03564602
-0.24076234
-0.23807691
-0.26991728
0.20521614
0.26744398
0.31145096
-0.06259267
0.16499706
0.09597848
0.12478860
-0.12547755
-0.17579594
-0.03478741
0.01859229
-0.06863957
-0.24022487
0.18931448
0.09391084
0.11173958
0.05050757
-0.28963381
-0.00850029
-0.03055024
-0.22457671
0.04877637
-0.07513952
-0.21569914
-0.00924190
0.10227244
0.10408384
0.27744725
0.12957719
0.24882866
0.38879189
0.27353919
-0.15302514
0.15652740
0.10790926
-0.21229641
-0.08997214
0.13663891
-0.12479317
0.19517295
0.01986658
-0.20156378
0.12231401
-0.10697256
-0.03615875
-0.11856469
0.05152724
-0.16455416
-0.10612741
0.14172347
-0.10451815
0.35744205
-0.04562856
0.11394657
-0.06486992
0.11399462
-0.14436376
-0.12046991
-0.18478969
0.11644841
-0.36304438
-0.05812173
0.04551667
0.24064238
0.00108119
-0.21033742
-0.18023182
-0.20044859
-0.27355117
-0.03286289
0.06492788
-0.26420075
0.17105609
0.15416169
-0.01871695
-0.11782180
0.23408321
0.03088241
-0.06509977
0.15997386
-0.13399477
0.05091073
0.02575740
-0.04532787
0.07136116
-0.40390536
-0.00436474
0.20651801
0.00970766
0.41919252
0.20451549
-0.07720044
0.14641292
-0.34488279
0.18685672
0.31318051
-0.06412946
-0.13446519
-0.01064819
-0.01442491
0.13181217
0.03133735
-0.04442429
-0.00041197
-0.28499973
-0.18623906
0.00583940
0.14672090
0.07380738
-0.10962425
-0.01479698
0.26575574
0.15868403
-0.00547177
-0.10422387
-0.31047738
-0.05986999
-0.07803319
0.07015802
0.15119025
0.06408209
0.01723155
-0.11364646
0.04186287
-0.32294804
0.00347648
0.13663819
0.15234727
-0.13426173
0.13534053
0.08829395
-0.18242291
-0.13898584
-0.06459852
0.20757699
0.07300901
-0.09064053
-0.03914024
-0.12818629
0.23496573
0.26100671
0.08740113
-0.01279859
0.00640917
-0.04319900
0.12488210
-0.00168019
-0.30993345
0.16224819
-0.08929040
0.27599886
-0.14025319
-0.20969850
0.19253537
-0.32670224
-0.21757776
0.20431422
0.20040843
0.03040959
-0.14166471
-0.10361696
0.23997264
-0.07919323
-0.17159614
0.09711602
0.07236180
-0.57551438
0.09495285
0.21396394
0.06261082
0.44725585
0.02992760
-0.09561514
0.13220134
-0.05170831
0.04450118
0.05998644
0.23153608
-0.39734358
-0.08195293
-0.06598716
0.02171273
0.07702883
0.14735124
0.43039390
0.19326466
-0.28165317
-0.03527924
-0.02813523
-0.06373189
0.07661828
-0.01943526
0.20670067
-0.22619995
0.11849015
0.00859762
0.26329038
-0.03415399
0.06943530
-0.23899746
-0.01362739
0.04445891
0.02115191
-0.06106791
0.05731696
0.08322348
-0.04282267
0.01257491
0.18638422
0.06541176
0.11669713
-0.02610065
0.23000123
-0.03507114
-0.07605992
0.05161257
0.03932139
-0.05876982
0.01470167
-0.10934535
-0.07002912
0.10041219
0.07878700
-0.20880362
-0.15452556
-0.01349569
-0.12582049
-0.09534084
-0.11337523
0.01720068
0.00404800
-0.16933785
0.00679700
0.00809338
0.15983219
-0.03382498
-0.13085584
-0.17446400
0.06442685
0.03280664
-0.48422551
-0.03631514
-0.11812841
-0.33462408
0.23174356
0.00737291
-0.13778742
-0.14182231
0.13597320
0.11224645
-0.14189021
-0.16063465
-0.04620143
-0.18409508
0.10259496
-0.00486573
0.04798364
0.02869607
0.10954117
-0.04032141
0.15892664
-0.04900150
0.01127045
0.00670289
-0.04844374
-0.17196247
0.05393194
0.12649828
-0.08134083
0.14511916
0.15593058
-0.01552761
0.09844214
-0.28086513
0.07054643
0.09958642
-0.04477764
0.07541014
0.04297912
-0.18704847
-0.15465757
0.04350591
0.17881674
0.14799061
0.12441193
0.09930189
0.20024328
0.04791431
-0.00536564
-0.00121958
0.14809544
-0.16512135
0.07599294
0.03227205
0.02935258
-0.01772953
-0.05363431
-0.04538533
0.25535095
-0.11689232
-0.08678140
-0.06492187
0.01238248
-0.03709045
0.10493189
0.01555580
0.00031194
0.11387563
-0.09093035
0.07681350
0.03884025
0.02543669
-0.00760274
-0.06773236
0.10642836
0.07369059
-0.29814076
-0.11419893
0.09118567
0.21867789
-0.01209158
-0.07599872
-0.08651347
-0.01328046
-0.45082113
0.09232143
-0.09410583
-0.04655536
0.40486652
0.13939844
0.10776086
-0.13411289
0.14791852
-0.09872648
-0.14098285
0.17633989
-0.02441956
-0.17469731
0.10135449
-0.17671427
0.08372045
-0.15880169
-0.10360437
0.13791449
-0.10401393
0.44976047
0.24314591
0.01769396
0.37314460
-0.26440126
0.19421503
0.41542774
-0.07816184
0.08800241
0.12737375
-0.09151638
0.22935422
0.24264233
0.02562077
0.04303631
-0.13383955
0.05393092
-0.00282041
-0.06467929
0.16264707
0.02484660
-0.41491514
0.17856182
0.25146019
-0.00742986
-0.40977615
-0.00528324
-0.09904347
-0.19693817
0.17881468
0.13318396
0.09915087
0.27957290
-0.00556444
0.04844154
-0.45084164
-0.12181862
-0.13385296
0.06687400
0.00462843
0.30254385
0.17002103
-0.42627746
-0.17766471
0.02929989
0.19476119
-0.10635845
-0.17524633
-0.19074906
-0.44047961
0.22201225
0.09523576
-0.08245619
0.15436247
-0.06081213
-0.38303459
0.18488453
0.05307077
-0.35083446
0.37255010
0.05179806
0.18212993
0.17276663
-0.30299458
0.06363010
-0.36143085
-0.15637271
0.09715913
0.29252136
0.11103873
-0.04574379
-0.08545218
0.23114567
-0.03454075
0.00578824
-0.04405963
-0.03784212
-0.55540967
-0.06055370
0.36672541
-0.11150045
0.33226132
0.29040703
-0.05213979
0.10650331
0.03637530
0.03483465
-0.17878473
0.37980428
-0.50221771
-0.01927013
-0.10533496
-0.09695493
-0.10773488
0.22166957
0.53742468
-0.05327747
-0.14004162
0.02112748
0.15677935
-0.09654870
0.22233957
-0.06541999
0.37486741
-0.25401911
0.10097875
-0.28251052
-0.21058595
-0.16404453
0.04743695
0.10663071
0.08679292
-0.01695638
0.27758113
-0.04985547
-0.24660811
0.54836696
-0.11236093
0.27413055
0.37091678
-0.04044194
0.11285180
-0.53712016
0.25238687
0.27718207
0.15243305
0.21716531
-0.43030775
0.33618313
0.00525380
-0.42745858
-0.37655845
0.26499599
-0.45389351
-0.17403521
-0.21407311
0.16773358
-0.58803123
-0.38617441
-0.74868119
0.02105102
-0.57144940
-0.52936178
-0.28603378
0.17959166
0.02428304
0.63226467
-0.59333420
-0.07618503
0.37578785
0.44108379
-0.64129055
0.33724564
-0.56819236
-0.06787848
0.10283427
0.35145593
0.01970054
-0.08129343
-0.30316326
0.23335141
0.13177297
-0.08562855
-0.14828666
-0.65186870
0.29544544
0.08683036
-0.09477245
-0.10962659
0.08805145
-0.08924866
0.59437543
0.16971524
0.20379023
0.03739403
0.19496351
-0.43745580
0.51163882
0.81384563
0.30456105
-0.59841955
-0.46737200
0.18934609
0.47820020
-0.60696042
0.42541519
0.06926368
-0.13404343
-0.53009385
0.14760357
0.18188787
-0.67173529
0.51167494
0.34964585
-0.12962492
0.68559068
0.29851505
0.06172808
-0.14799757
-0.41970277
0.44314432
0.26677316
-0.73926121
0.18133041
0.24753766
0.30329230
0.14971361
0.13435647
-0.04166847
0.46483254
-0.29808623
0.09705365
-0.42113465
0.59158450
0.03841250
-0.00023204
-0.22069316
-0.13175547
-0.14238314
-0.23675901
0.24568017
0.18147165
-0.23432684
-0.15237302
0.35771471
0.08946466
-0.26139826
-0.75174165
-0.23885337
0.18146533
0.11891712
0.00482205
-0.02278485
-0.15163018
-0.03587149
-0.02929150
-0.04524406
-0.10182910
-0.12458995
0.08710258
0.09863910
0.10733591
-0.27491200
0.20488602
-0.05412734
0.02440882
0.02681139
-0.11293100
-0.03534919
-0.00180642
-0.07066868
0.08676626
-0.26043734
-0.13153286
0.28956279
-0.06034732
0.01861248
0.12658824
-0.10576670
0.08754630
-0.21747459
0.15877308
0.16458505
-0.10720183
-0.24196580
0.06778638
-0.03701434
0.00326361
-0.04021190
0.07672219
-0.06108166
-0.13762771
-0.10160893
-0.01240135
0.07252231
0.01297751
-0.17602108
0.01102040
0.04008926
-0.10331990
-0.02716708
-0.06479286
-0.21461523
0.18723208
0.00790377
-0.05391385
-0.07198291
-0.13145201
0.07616346
-0.21258622
-0.06992652
-0.11654047
-0.07179827
0.08694281
0.09124669
-0.03088155
0.16720062
0.21596268
-0.13917199
0.01629274
0.07819469
0.15582913
-0.07238153
-0.01926567
0.01274549
0.08732196
0.06098412
0.09851675
0.04917702
-0.07258166
-0.01585980
-0.10842432
0.07146269
0.01399760
-0.18473619
0.04078458
-0.07455494
0.23501728
-0.18977940
-0.19305862
0.16872904
-0.11739831
0.04162480
0.20346090
0.19785799
0.10834722
-0.05085279
-0.02533253
0.13541530
-0.11269996
-0.21609017
0.16113862
-0.02378593
-0.37847117
0.08720998
0.07941209
0.00939144
0.40900379
-0.03809255
-0.26408023
-0.02128520
-0.04062634
0.16795814
0.03115639
0.05014630
-0.26284277
0.12380975
-0.05645327
0.16026597
0.04573898
0.07510600
0.06969941
0.04937435
-0.22523883
0.06470392
-0.02424273
-0.09353010
0.12464745
0.05604672
0.04794774
-0.10309032
0.15777300
0.13092390
-0.06522585
-0.15798067
0.22751319
0.06237532
0.12440717
0.04165220
0.27764404
-0.15198992
-0.09458432
0.24936967
-0.58508086
0.37447464
0.10771823
-0.15252712
0.01499144
-0.13789739
0.11952021
-0.14375068
-0.00141539
0.32887056
-0.24976149
0.18116227
-0.03888376
-0.35528904
-0.16131121
0.33056548
-0.39770702
0.05996731
-0.01864540
-0.00529815
-0.26218775
-0.15296896
-0.48841918
0.03217489
-0.28869030
-0.24804950
0.00305040
0.27061412
-0.07178396
-0.08190379
-0.38542390
-0.36891690
0.10014098
0.26940817
-0.48477620
0.13082294
-0.42082340
-0.20735988
0.14530306
0.15375169
-0.11529730
-0.17604205
-0.08517522
0.30864114
0.00627137
0.03767248
-0.07185448
-0.35228699
-0.31532460
-0.09560551
0.17713574
0.24388126
0.34849232
-0.40173393
0.13549237
0.18383028
0.22665352
-0.31340364
-0.00081526
-0.31312114
0.23274770
0.39857304
0.05484932
-0.14820442
-0.39355209
0.26585937
0.23251228
-0.36079881
0.29229143
-0.16159770
-0.31201449
-0.23973849
-0.08963551
-0.03837472
-0.20637341
0.34128910
0.09875010
-0.11492326
0.49310154
0.30471271
0.38592193
0.26659068
-0.11753316
0.35263813
0.14159971
-0.48192683
-0.13025764
0.14037685
-0.34744379
0.27727544
0.33344227
-0.20092213
0.56597811
-0.09871238
-0.00521756
-0.17382544
0.18118769
-0.02320009
-0.43055221
0.07544383
-0.12693675
0.34995639
-0.06607628
0.04492647
-0.09521127
0.07598903
-0.15213141
0.02413572
-0.26144481
-0.20890850
-0.52513927
-0.01067762
0.29546881
0.22820823
0.16746567
-0.34113115
-0.00930867
-0.09243717
0.00877167
-0.31110454
0.00841730
-0.14249341
0.03313411
0.25335610
0.03935962
-0.10913230
0.03274095
0.12688181
-0.10467589
0.28471014
0.52754104
0.04169513
-0.04021505
-0.03809670
0.08757895
-0.02501658
-0.03390032
0.05054103
0.17593633
0.11245079
-0.10729913
-0.27205253
-0.11616467
0.07829770
-0.13434018
-0.01921031
-0.24618332
0.04884349
-0.34811634
-0.10375883
-0.35935277
0.04872886
-0.14821547
-0.27037820
-0.26222566
0.16535860
-0.08656089
0.17230818
-0.24160478
-0.23034872
0.12802351
0.15341447
-0.36899188
-0.12745461
-0.30210665
-0.38144875
0.11807080
0.15615411
-0.22129394
-0.17639345
0.06510215
0.13357158
-0.03379955
-0.28847638
-0.03415922
-0.26857987
0.09926420
0.04199139
-0.09746984
0.03052145
0.21383986
-0.06799757
0.27365845
-0.14470589
0.05686707
-0.03446541
-0.13801116
-0.16898757
0.08039690
0.26165435
-0.14295833
-0.03191942
-0.03626676
-0.00658944
0.15690587
-0.27417186
0.26349431
-0.03137438
-0.09309544
-0.17628771
0.01283873
-0.05035115
-0.41497847
0.15909192
0.27455014
0.13826527
0.28943211
0.32396844
0.18370377
0.08721110
-0.07153437
0.21855943
0.29944694
-0.14235772
0.16743410
-0.07540153
-0.04635380
0.12769239
0.15050562
-0.17520419
0.45913225
-0.15446752
0.20427814
-0.18940046
-0.11265353
0.09515638
-0.18535577
0.06501286
-0.10960403
0.07272905
-0.08561780
0.14222696
-0.06776059
-0.06539031
0.26185733
0.02488412
-0.04358200
0.03155009
-0.32828179
0.01268446
0.11790963
0.15836950
0.12552296
-0.33017138
-0.20572238
0.07572188
-0.02151739
-0.04192158
-0.05040533
0.01809278
0.12852252
0.11404715
0.15853053
-0.33204579
0.15231591
-0.06650481
-0.10455854
0.07896531
-0.17905423
-0.02226586
-0.11667089
0.00068524
0.00066751
-0.31943887
-0.16468512
0.33893344
-0.08751628
-0.06809807
0.06995474
-0.00767998
0.12624864
-0.16831885
0.13202955
0.16672263
0.03157537
-0.22411627
0.04051306
-0.11727517
0.00643485
-0.04249996
0.00521467
-0.10759906
-0.03041551
0.01047296
-0.12495770
0.02553494
-0.05218742
-0.19811878
-0.12744427
0.05213467
-0.00215279
-0.04936393
-0.14202160
-0.07296702
0.05982633
-0.07547978
-0.08502181
-0.14909598
-0.18962142
0.10674028
-0.15850568
0.03177913
-0.10737834
-0.06923439
0.01430405
-0.01473381
-0.04132584
0.17668669
0.16309813
-0.14552563
-0.00465839
0.08976868
0.30822280
-0.12292154
-0.04911828
0.06875589
0.10480601
0.05392223
0.08597624
0.07322630
-0.01738295
0.04248207
-0.16978839
0.17377785
0.03457956
-0.27094346
0.05050334
-0.16334906
0.21753260
-0.21460426
-0.10440274
0.09001851
-0.19201341
0.04167532
0.22893117
0.22948991
0.09268227
-0.06323590
-0.11461414
0.14772761
-0.14223872
-0.22729184
0.09019211
0.10607686
-0.44446519
0.14173485
0.07564025
-0.08132304
0.33850071
0.04664592
-0.23716995
0.05384009
0.01108762
0.04925862
-0.03515736
0.07369611
-0.34158829
0.11303903
-0.07804389
0.14296646
0.04223487
0.11689954
0.11745948
0.09896155
-0.32782483
0.01447373
0.02843429
-0.08409405
0.13131496
0.02876670
0.08171932
-0.17918785
0.12453970
-0.42001116
-0.45144722
-0.19701281
0.02287817
-0.14011937
0.19826598
0.11441140
0.25628963
-0.05320648
0.03080309
0.17663711
-0.33982620
0.17940333
0.13894925
-0.09930585
0.23978119
0.00276784
0.30237967
-0.11809726
0.01516240
0.37715101
-0.06280509
0.45704648
0.24769457
-0.35700941
0.00235888
-0.07292450
-0.02918143
0.28544870
-0.19920786
0.21358506
-0.43466225
-0.16369569
-0.32618609
0.08908845
-0.54585505
-0.34830406
-0.33610964
0.08708820
-0.05165019
0.20482980
-0.37231690
-0.04667009
0.31056166
0.40289634
-0.42071173
0.07332422
-0.34191340
-0.41029778
0.04383062
0.05585293
-0.06069957
-0.19427747
-0.04655329
0.45033291
0.00751047
0.26251212
-0.35366398
-0.25076559
-0.07363821
0.13692167
-0.18919751
0.17106172
0.21021223
-0.01239282
0.14955543
0.03933945
0.18341047
-0.10195933
0.24788845
-0.33436584
0.34025738
0.72020215
0.12036324
-0.23084593
-0.35864288
0.17015098
0.37502041
-0.30935147
0.22759996
-0.35722408
-0.02463005
-0.19886038
0.25985694
-0.17594033
-0.65087706
0.38514102
0.07068740
-0.30060148
0.34951133
0.24470516
0.02190156
-0.09478240
-0.31147707
0.54999840
0.11041533
-0.51111048
0.08791720
0.10864428
0.07309543
0.28923899
0.20237003
0.15349299
0.68927133
-0.20227787
0.17032307
-0.28577444
0.26426589
-0.08987442
-0.16215625
0.24069975
-0.40896592
0.00286264
-0.02642854
0.07819898
0.03700583
0.24788441
0.03878838
0.11409562
-0.41828874
-0.16904318
-0.67922217
0.04702568
0.35546383
0.02720718
0.29686034
-0.18651304
-0.19901708
-0.08942098
-0.39311984
-0.06856568
-0.07479953
-0.19453688
0.06234255
0.16818373
-0.00874371
0.00771846
0.11394126
-0.07099688
-0.25942379
0.09765983
-0.14994167
0.02994689
0.11570921
0.08860356
0.17287457
-0.39686164
0.10151437
0.22030966
-0.00311661
0.42791769
0.23891449
0.02922140
0.12499794
-0.25697416
0.16735868
0.30580780
-0.16431810
-0.06049057
-0.03916656
0.13957159
0.04900825
-0.01317842
-0.06104069
-0.12356703
-0.52083033
-0.25122979
-0.01849180
0.08294319
-0.04746253
-0.07711040
-0.06190086
0.38408273
0.06719236
0.16370487
0.13048303
-0.37611231
0.00408741
-0.06895357
-0.04670695
0.17986402
0.17674501
0.04173065
-0.19176176
0.18647304
-0.25935182
0.10264733
-0.04663599
0.23220828
-0.09941783
0.19333461
0.16552243
-0.23969758
-0.07433929
0.08788286
0.10599920
0.03315875
-0.10589166
-0.13947004
-0.21267420
0.25636229
0.23961867
0.23244932
-0.31843430
0.03938435
-0.02099078
0.13162693
-0.06305032
-0.16892083
0.09825352
-0.09891638
0.12493536
-0.11837696
-0.16957369
0.20908882
-0.25355026
-0.31951049
0.27147007
-0.00119017
0.12931153
-0.10158351
-0.13246457
0.20931301
-0.14109692
-0.12939395
0.03741797
0.08350725
-0.41681466
0.07140189
0.31739935
0.16351099
0.42067170
0.02020670
-0.01686861
0.10210553
0.00721416
-0.00910621
0.07570995
0.20849027
-0.32833213
-0.02060959
-0.06018983
0.16626458
0.12302663
0.12854356
0.34857610
0.03411172
-0.29136705
-0.09659574
-0.16347603
-0.01602530
